solver_type L2R_LR
nr_class 12
label 0 1 2 3 4 5 6 7 8 9 10 11
nr_feature 564
bias 0.000000000000000
w
-0.5483161610916822 0.4371725575841542 0.1163577574702210 1.426953593792596 0.9061058536446275 0.3584663869647811 0.3797484509497893 -0.6445189849218826 -0.6270084118111519 1.031887381089561 1.360664915010041 1.521125404575774 
0.6382159700801167 -1.415827580281160 1.638639443171667 0.9516467688988776 -0.4784511368170518 -0.5138382658804239 0.09455534199394464 -0.1456404134005911 1.082846754611971 -0.5795424040000697 -0.5953234047870086 -0.9517068190540062 
0.4150432068750291 -0.7067767600279049 0.3141510258062285 1.734362948901611 -0.8044955170784162 0.8922541753220777 0.2060887557678575 -0.9074362049395535 -0.7184016986549238 0.4623285856458467 0.1127221966532811 0.01610796191413866 
-0.2356734916922168 -0.6419766821944144 -0.4855758094099650 -0.2310858466286300 -1.302264308018524 0.09077178237325831 0.4375607633776991 -0.09036523015855098 0.1967919725599228 0.8906552403483906 -0.7609424559307987 1.840108202407828 
-0.9795464664296089 -0.9097934750288298 -0.6865791164826580 -0.5536857603330911 -1.182056223792180 -0.2509357179591227 -0.8872633644520219 -0.2259074282011188 0.6290233718406167 0.7407730268412934 0.2160066870625894 2.504996171950547 
-0.04431114875863524 0.1411180950205228 -0.7861953241146835 0.01476478824758827 -0.3963267528525527 0.6452735671876116 -0.2522001598892203 1.320983128469235 0.9508969151593953 -0.3110892527746955 -0.4370032414996204 1.606241139053997 
-0.9163355432095248 -0.2744059659608120 -0.06040942410177752 -0.01766563412193553 0.8608300351700061 -0.6210847478092796 0.4113076568634444 -1.160763271465122 0.8257050256322946 0.4295528041292306 -0.6598991402710674 1.569465676261023 
0.7165301533786896 -0.7508250269233678 -0.8080714693798786 0.07898335084148939 1.374221945613856 -0.2769811188000335 0.4741316439448354 0.6655279290717586 -0.2039430740981066 1.652708440166312 0.3405884212540423 -1.443987483571513 
-0.5911550420928765 0.5719845827581875 0.07100540196290228 -0.04833166831511641 0.5264965534785929 1.913534645271843 -1.400182064648326 0.2810032634056542 1.409397782429454 0.9408344405914519 -0.8350285188293411 -1.259795012167106 
-0.6215668232786331 0.9741692676755235 1.287663609453190 -1.500884845174591 -0.5138212258757696 -1.261881724769758 -0.7863159264645447 0.4736391275217818 -0.3249830128994196 -1.430569479470104 -0.4631077104105986 -0.4252725531778546 
0.004562973522863296 -1.220687353370453 -1.262498538647914 0.2992315984022070 -0.3808091242430167 1.492820190829082 0.4463312408491971 -1.740775482618169 2.132551778405801 1.704884170884828 -0.7068309564225155 1.055377078769300 
1.009554447363806 0.4858840343676661 0.2901417479613216 -0.1280782632802272 0.8445071171113628 0.03118000018115482 0.3353164592961053 -1.263600848776050 0.3011949839548821 -0.4870192078477366 0.5164335695018292 0.1158948733375119 
1.894288846515557 0.7657373624224164 -1.401847752422750 0.4372079696004311 -0.9280305840768065 0.4910780632884360 0.5404373038140297 2.459037109169037 -1.943860923654689 -0.09692380870937398 0.2846411424848443 0.9751849564711215 
-0.2339231164695587 0.7117251029364310 0.1373227594937395 0.1418504136970261 -1.158823617225663 -0.3951154743097603 0.5811061947413128 0.1963087839521197 0.9135797370013532 0.03496713520065592 -0.1044612948797550 0.9076026119981870 
0.8503742281354405 0.1189782521315098 -0.5629071164868138 -0.1049981807777559 1.007586938995446 -0.07825276990817151 0.4724683120840727 0.5088177441738830 -1.517172657060461 -0.5074408497621920 -0.5695404316700153 -1.786350664434941 
0.1415910658240835 -0.03420528560834857 -0.5009107168778372 1.029267431780462 -0.1020473466315214 0.09866205966113636 -0.07085716534815263 0.3858108443419568 1.304282183113793 -0.6967849281289162 -1.255932490581187 0.7632608121352163 
-0.6765937079754220 0.7812983023295714 -0.9316581187426894 -0.6927947646655175 0.5626549711208180 0.4614776624676490 0.5325114522311931 -0.4947485393243987 0.2295474900279008 -1.315571592138990 0.1653249479703601 0.3811312527357059 
0.4959721420799670 0.03367718375713286 -0.5277164440826623 -0.2636636522991325 0.8230335910726807 1.877698859348353 0.6829409435169018 1.006728499554065 -0.7026129906205516 0.3543198784384770 1.634296639459569 -1.997330109141096 
-0.003132804453396480 1.287394405203932 -1.607901922722593 -0.6919580958439654 1.212030053908247 0.4244476058329061 -0.2613414515927214 -0.6124392042714580 0.01944093799705765 0.4474834292356594 0.1718783398944182 -0.2182836115855389 
-0.4380532857193445 -2.963807222532569 0.5594907687700602 -0.9773268678383200 -0.6977318202147029 1.649069861299615 0.009720931435703240 -0.8986933458615737 1.044082444668089 0.2192148576637014 -0.8828086556128925 1.697585011251482 
1.276116063867517 1.477553766987477 -0.4025292701315395 -0.1188746403314815 0.6056673222868348 -0.2493276073523110 0.9232431669650875 -0.05817675649657739 -0.5578168908763705 0.6074771822428209 0.05669075170894755 -1.177555609287944 
-0.3120879620892754 1.457018113899678 0.3803763672125973 -0.4027250787372321 0.3022176267135239 -0.02351415543959783 0.5307226169323097 1.530784614644082 1.813959732779294 -0.9419024174407452 0.4105228149272566 1.212658288674908 
-1.164823906476591 -0.8316209115389634 0.1138230648866639 -0.03587443814920079 0.6987009749965057 -0.7391341685442203 0.6761356669223634 -0.7650703088425230 -0.5417028422576768 -1.666348688315327 -0.4603947397640184 -0.04030542548775629 
1.120397035670149 2.967691469937945 -0.2630893083451159 1.186895543505063 1.734826734790298 0.3559472175447327 1.705692477207053 1.877716346347436 -1.808941446752676 0.5422656951403932 1.341612824666346 -1.754141260946476 
-0.3374954979031611 0.9727192900516479 -0.2740401987537616 -0.7256780986841966 0.4537841412990629 0.6914114216710540 0.7837180755537223 -1.463705201802991 0.1438942548626387 -1.398707341116652 -0.2424771249517907 -0.9491633853856569 
-0.1582759685370775 -1.101204949649655 0.4101793229052750 1.266220118848231 0.1429413669853701 0.1079726619355554 -0.3228032564258841 0.7349496811928389 1.453767465678580 -0.7164366289821862 -0.02008370242389110 2.240443351514981 
-0.3313670705505045 1.007568170935745 -0.4009157900445075 -0.4469963489640301 0.2444894981647594 -0.5859390834399485 -0.02857350325590741 -0.7744852536626481 1.458573847731026 -1.701937754308703 -0.3404438516040361 1.183807225833379 
-1.190554944785556 0.4358683929463420 0.02526617395945727 -0.8366204613387168 -0.04204808645824504 -1.177729462893254 0.2343459495494791 -0.2419501692272053 -1.735535900595574 0.1047262615098527 -2.020213531357145 0.4324769597777589 
-0.4169189684214797 0.7318321606385520 0.07882101975844506 0.4769047568198864 1.844809976265870 -1.299165576085344 0.7428484166996835 -0.6912496364226551 -0.7120769436156306 -0.4521366581016568 -1.171381679370245 1.320901799919682 
0.7943356386196678 -0.9244183958475733 0.2469841990826919 -0.3682614419688445 -0.2810571766229681 -0.07163983464771950 -1.127905547931261 -0.2903930936138812 -0.6049127739339728 1.314839916125489 0.4193727205847311 -1.147454157129867 
0.05189374348685109 0.2303821366063222 -1.175496687799651 1.851175492620619 -1.306923496995305 1.310724410885657 -0.3123536980217418 -0.4709202784647630 0.2372379777758816 0.5308734695332887 -0.8542564643716926 1.286959164502377 
0.9617840319495824 0.1597978706391875 -1.266934105002381 0.002101478110441479 -0.2536659099429528 1.035974201193304 0.4173469431274874 0.02613572974712933 -0.1260126202746487 -0.6526882961292697 0.3237093177292300 -0.0003292361386044856 
-0.6493541117077046 1.884449712279399 -0.1675948289718742 -1.405619294282527 0.03968452154880439 1.373148527625873 -0.1991264239353673 -0.5660702662913764 0.3287472484526501 1.046881736817660 0.3144434648866912 -0.1788268643396400 
0.9755967166694004 -1.521312610501725 1.897346746715120 0.4887805403282191 1.140999519382013 -0.9744356266016583 0.5786929592340612 0.7006804262730449 -0.04921437333380244 0.2239387401712545 -0.8719375305688644 0.7927993942082551 
-0.09478372706890686 -0.1736037065454465 0.3031775388623656 -0.7782507841356627 1.059258857593097 0.3169664417040583 -0.1736138643729703 1.347769051269871 0.4644480876220182 -1.873745899024274 1.350321527087923 0.1570590666513093 
-1.290241604964249 1.567977862238721 -0.5166162067522425 -2.130053114250117 -0.7247987885246395 -2.657492682270501 -0.1644116716582286 -0.4198764639414878 -0.08124151229995547 -1.439570133336817 -0.6401894408131916 -0.7755737891730409 
-0.4208194579779989 -0.04732866788496336 1.110278849580682 -0.1105827139445594 -0.4830146991149769 -2.112644704074222 -0.6866154298536628 -0.3448367966838203 0.4408858563657364 -0.04305849538501017 0.1043188396412154 0.07425739223087069 
0.02511276025495816 1.091142285019506 1.030717514384653 -0.8244129387443894 0.2938793351868945 -0.5452258703063455 0.8703163081390661 -0.3972231274614562 0.07172170343635491 -1.329592197704443 0.5255934844317651 -0.6730608487411998 
-0.1637037610958612 -1.557090762639064 0.03705001292432342 0.2395288827108394 -0.4161077656112781 0.1354799048919055 -0.1745168325004165 2.886266778617141 0.5668686639809064 0.8580992662041934 1.290349139004212 1.359060180292145 
1.250063925198962 0.9915261737770215 -1.152791095986336 2.453161116248847 0.9299903198678439 -0.8190182491371889 0.8216678673306810 -1.168469713738869 0.8252955461425479 0.2675466460804449 0.2788845153599440 3.094711077314365 
1.814921712796829 1.670349889162588 0.3389772599150254 -0.02427788236031309 0.03485791135666981 1.496207714808797 0.9779543611311474 -0.7589678519795204 -0.01236824517429323 0.1412455063299498 0.7381228441882559 -0.4438215100394425 
1.695457772742538 -0.08377461293988295 0.3746392376932098 1.008503411178996 -0.1392930447090739 0.2209658507328431 0.2898940641288209 -0.5105009228940918 -1.930577837552671 0.5040167412856003 -0.3301407115801106 0.5103304231559886 
0.8698588051202141 1.375785511733588 0.6533492707551432 -1.405655680908516 -0.04742618231539408 0.8165030180531969 -1.757894934753530 -0.5784206333875572 -0.6816707216794793 -1.627714197134717 0.3927139573542668 -0.2589118302919489 
1.044292598429275 -0.4471739412032519 0.3617720414248516 0.5603395381008158 -0.02317971639470480 -0.4868562902833219 -0.6795896735366618 1.720339011895886 -0.3205539481247808 -0.9243546809038099 0.2197244961027300 -0.2317903706539954 
0.3918037122039487 0.5891587196210378 -0.3730570939385206 0.8048959362635693 0.6342624981593992 -1.341941798467728 -0.2233005396739619 -0.7050237917003825 0.7639918301949944 -1.290626495290098 1.067128044890382 0.8843108970860802 
-1.562039089711254 0.9275113815064826 -0.4740121855840667 1.077863237340643 -0.7401609002158119 -3.040350248002255 -0.8156861849734945 -0.4569089297066719 2.057746692439629 0.1357489797081365 0.6453659089963023 -0.5764181207016954 
-0.1622777863253987 -0.6639636401767726 0.2880722834435024 1.187047254282192 0.3506481158775563 -0.08078729314769142 0.8070066223909605 0.6712988627941173 0.07421912719849112 -1.395510315618707 -0.4657094929361424 1.209885309813058 
0.4369918064045446 -0.07721896116572016 1.037992180907970 0.2850757417852406 -0.04162120855153040 0.1561843136738292 -0.3556145481434004 0.4349408716932560 -0.7611806986808012 -0.7702819171478323 -1.331934899376482 -1.145588900498639 
-0.2176575374347535 -0.7043084430763434 -2.054063388344939 1.236350484128148 0.02366197779598772 0.4193821754409657 -0.006659233870986001 1.049863405114465 0.01616216364056665 -1.064738175147236 -0.1708263653015674 -2.632386899972635 
0.8504991077333276 -0.1748815418498486 0.3785945865156828 -1.584700442848712 -1.528029540176344 -0.1282696718917279 -0.4960265259039937 -0.4528796808261583 -0.3347710437176515 -0.3834371472020171 -0.9467747351013761 1.919500300099806 
-0.3197050791733874 -0.1445046152241800 0.5502365495954096 -0.3680109864651200 -1.812689275398667 -0.3670721956029953 -0.8842068122115112 -0.7299122466454186 -0.2495426706623309 0.5017453216346001 -1.079779789351978 -2.104758782642438 
-0.6730141071302206 -1.610092807589349 -1.851415328771041 -0.04068308896120574 0.5191787909177404 0.3755813603469354 0.7158701007301931 1.702012455468950 -0.4442852569208053 -0.4693221513357183 -0.7602906597100290 0.8978429602750908 
-1.634758050131129 -0.5160035630380572 -0.01561794468249173 -0.2326925956954936 0.6884232990053667 -0.4842946605742509 -0.1509286700163472 -0.4344276965292204 0.04511118003932257 -1.240403815789484 0.07939527619307757 0.2638854899241057 
-0.09093148498418226 -1.775484855302062 -0.8746760348021763 -0.01572445549074158 -0.03531687211496615 1.005769084725311 0.8359831578652297 0.3710791533856037 2.406570014566350 -1.377577442057184 -0.8502307387040391 -0.4098233446916516 
-0.2249500383190355 0.9637085468203490 0.5370135594250941 0.05227068211634162 0.2277135546553175 -0.4614980201974259 -0.1409230049525527 0.5717205204145368 -0.1651082961510011 -0.8319641797050938 -0.4531576356842289 -0.01415623008924738 
-0.2556901583863441 1.034572002186569 1.913131972285749 -1.063518609204806 -0.9963153781254691 -1.459486568155434 -0.8735570140990833 -2.156296847302333 -0.7568030064754055 -1.209398299754117 -0.5229334845638794 -0.9627291664833679 
-0.3846710966687923 0.8184065942682045 1.899892640427495 0.1519886881980696 0.2010035507137886 -0.06776065963231342 -1.097712667078166 0.0001236566764018510 -1.433479633281554 0.2333192145503438 0.1560395418381081 1.228301666671607 
0.4203575356752395 -0.4049579641486314 1.159367786243072 -0.6977897894835274 1.186373428899712 -0.9419681738891460 -0.4034943952432638 -0.1493139871915897 -0.5371645641650401 0.7307027084631029 1.324407545889011 -1.479201002437964 
0.1241350210274935 -0.8043638434249653 -1.377493019506058 0.1049784498743871 -1.067275967022176 0.4996386451795876 1.190458725344773 1.236763345409862 0.5899653380530205 2.135669619226019 0.5013195556093788 -0.7180837692628929 
-0.4591102881564064 1.062904790471575 -2.184365677124915 -0.5263985655509623 0.5054240765711204 -0.3708648180730045 -0.3930587447487901 0.3682528089519341 0.3909804629493080 -0.4449662164798302 0.08164795929549236 1.186037358219287 
-0.5480915791556067 1.196160866671633 -0.7590525752280680 -0.4215134317830648 -0.5209438940393244 -0.3766597750056622 0.05386430177807964 -0.1995781182123103 -0.6007125505494646 0.4230367149727823 0.2803498531793214 0.2615751342809264 
1.602839872577142 -0.5394207940645911 0.1627354109991474 -0.7017935754198356 -0.2141403106746591 -1.959789460535257 0.2864640406512630 0.3778445876858488 -1.048650094877778 0.5403922621986113 -1.254051489119333 -0.8025688486862609 
-0.6556060977835623 0.3133852374287300 -1.820063367140355 -1.342254563481204 0.8290028259136333 1.084113492564623 -1.401605089960030 0.8349368452861428 -0.1663662519244795 -2.124596130073809 -1.573463134774781 1.483432311429072 
-1.743049432291775 -0.9296495354662143 2.277028404812506 -0.5309958309830939 -0.5550929678442384 -2.135287852516683 0.09253929915248202 -1.186201611065011 0.5455860502577268 -0.5741077375752117 0.2654747392960332 0.9913303806795697 
1.475192324623377 0.1096922759390064 0.5410222782775211 0.4320265588987514 0.7116693736410059 -0.1510633900993217 -0.05913949483607109 0.6261077410499338 0.5693629404625817 0.2822408776385338 0.6952214468554432 -0.4704140207948869 
0.5445925884721872 0.3152219783058355 -1.317739552613527 0.5486841591699806 -0.06952188874612417 2.413562472416402 1.346308745499474 -1.533470540239307 -0.3098802136117094 1.540513380844163 0.8322558524532885 2.414143103384984 
-0.5484864774892939 0.7176370187327230 0.8235964144297068 -0.05497717040232106 0.3874750445381754 -1.047071219801539 0.1571523546744616 1.131021925757501 -0.4947879205207785 0.03951956978672562 -1.383646948326117 0.06256834406960576 
-0.8707718297906587 0.7081029803428838 1.098743447337744 1.290777583628308 0.7653758457123034 -0.5557932648552983 -0.2280703725683763 -0.7495000052530486 -0.08467727337021709 0.1329055479702642 1.407144274644523 2.102954489092645 
0.1311075701500776 0.8375699657203194 0.5600062063956497 -0.1853745520209497 -0.9392889043805525 0.01188360383048233 -0.4812878373731609 -0.8187315769434655 -0.005006603445745494 -0.4982077251800063 1.021490540924273 1.319809287615016 
1.698211695725971 2.583313939088772 0.2813461404145352 -1.557220274824017 -0.2452931149839041 -1.881994949809607 -0.3531469961563953 1.125494916244382 1.876882937612225 0.3063726327181218 0.08881589552235092 -1.461728565985280 
0.2240814124210684 1.644785356074120 0.3614555479156144 0.8310974057213569 -0.07032648047158260 0.08050597884475966 0.3756780643942022 0.005478186790791206 0.09787320020641184 -1.094821829403338 -1.241273372769795 1.106786185523758 
1.429482727051276 -0.7402364712984517 -1.193316103705122 0.4536168037165412 -0.2890871559148733 1.057251754631435 -0.9951367731479531 1.103104477816401 0.1706491654877267 0.5928833239844249 0.6412601783597706 -0.3691956476702583 
0.08924694118428737 0.5749312273209630 0.6623723529153334 0.4259977649850336 0.5178792587548169 0.05190816293683442 -0.4502802966081653 -0.6902601635757085 1.094382711508546 -1.287077271432217 0.01459851119310617 1.777794673786477 
-0.1491442243807631 0.4620245585538966 1.824117448111767 -1.297822015641170 -2.234784638238512 -0.8455113204781863 0.1384607312666437 -0.5261183126027790 0.7342578292483076 1.273495891822277 -0.9517822365867121 -0.9153903552047923 
-0.3315631378113149 1.240454842030270 -0.7778346269454859 0.5753523999332022 -0.05587983674393819 2.275033006185832 0.9797560672325244 -0.5075426055806199 0.3316183017030582 0.7327368372265493 0.6156502337886203 1.507127669052226 
2.340118135290034 1.931129280942339 1.601649168391263 0.6948603501724805 -0.7101879153798784 0.5883024799949569 0.1332631150924764 0.4087618565397695 0.4662697814161999 0.8956255908777722 -0.1583824334598978 1.431748943615572 
1.135034086452874 -0.7193377766317351 0.6153739500443276 -0.1854271657649589 0.4464003768663887 -1.298837609909676 -0.1871920118523555 -0.2784771290860980 -0.3046732609307532 0.3733080359191773 -0.2909047237062726 1.933934040592999 
1.131054011981503 -0.1288577214427427 1.577744354770603 -0.3835377656531667 1.062214813007417 -0.03723722560106296 0.9466016534206988 -1.563361417456487 -0.4515890325826678 0.4305360496394585 2.203083471063275 -0.2598267308796199 
-0.2679554107320860 -0.7135646063333202 -0.6212791400186074 -0.8999505727599983 0.8645136408400166 0.3339198971885678 0.4170240728105196 -1.325384911444181 0.7878728963666604 0.01836911966506708 -0.6618875913290327 -0.9989084612784415 
1.101510811427682 -0.4130517906975846 0.03083533586488946 -0.01065062578803994 -1.392382060822595 0.6221813396456298 -0.04829330291410768 0.2795612228318120 0.4294616822762577 0.3166794904069618 -0.2413468203679751 -0.7148702733651809 
-0.6507150028440949 -0.2706167158394606 0.9450943536231756 0.9232314606696878 -0.03190303924810795 0.02958813311744510 0.02919401592288462 -0.9068532115460868 0.7711858506649859 -0.3769845512477056 -1.421488635996649 -0.4991695656730888 
0.1580533073146484 0.6368873687234746 -0.7449027928662176 1.428433597951950 -1.124913750333596 1.630137595142771 0.9717718668589032 -2.168903145686545 2.040381509280283 -0.08415831523842592 -0.3699961313158524 -1.058496614154610 
0.4470850891489874 0.08650419360061394 1.364524999152191 -0.9614597305781938 0.4292403285594130 -0.4515116997508258 -1.068486859058284 -2.368846690304888 1.367426709689047 -0.2908211740187496 -1.251250354403095 -2.474103567187036 
1.320951091026051 0.4470353210120756 -0.08781862370185117 1.071761131552461 0.8425896840835733 1.009432411205479 1.180587071391445 0.8825181483664374 -0.5937715594509665 0.2842151815608910 -0.2959109717558871 1.796955605598255 
1.265662707413216 -1.628232805985231 -0.8535006657416645 -0.6510816858197863 -0.1025345534171534 0.08311351479629070 -0.1767005525607497 -0.5875853942897518 -0.3791235488521627 -1.313354379048620 -0.7330229847359646 1.554110981910810 
0.2679032134622936 -0.6402544069054454 -0.6035058227024686 -0.1625849202650418 -0.3483184478277128 -0.5460755402569890 0.4537564793198912 -0.06268072166400845 -0.8718382422492883 -0.5579176078188552 -0.02258787912856167 0.7377493678126739 
-0.3947678069214047 -1.928530511376389 -0.4958801391576037 0.8298003725631498 -1.630071926039853 -1.253754349753563 0.2121248007948016 -1.293601187632760 1.401020405256598 1.596838377166320 -0.6678803112495200 2.270892097616600 
-0.4237981662695357 -1.265503586906814 1.327191315802442 -0.8782894106148441 -0.7743042259688558 -0.8417626747308984 0.7076103621309795 -0.7945418488215346 0.3513712520949883 0.7342347888447150 0.4948702374696999 1.338101532674869 
0.5266839754758310 1.495206546389402 -0.4213758807533274 -0.6549242357159983 -0.1768117825705642 0.7085612745891244 0.6897295449186542 -1.117318375205115 -0.4225481687918864 -0.1325758247203809 -0.5270354883262798 1.308087899753585 
0.6948391527366651 0.07413986433455669 1.109123833713939 0.3605777600865081 -0.2887301472021447 1.459461384001788 -0.2395576248616302 -0.1802793686722121 0.4823572245672428 -0.3007059295834340 0.9609665168197847 -0.2778907456408754 
0.1241540890334208 -0.2009266399041300 0.6314387116129532 -0.8476085173436249 0.3786165306079369 -0.4387102727482488 0.01459910201383520 -0.1528648822811076 0.5587334519939835 -0.2018143276734588 0.2552468576225113 0.4113174508869234 
2.557660829566906 0.9443230234273123 0.4434190190760002 0.2063503030764826 0.5630788515236902 -0.004937428750863004 0.2383022742660308 -0.7229694533385231 -0.5913529061109782 -0.1827934842481270 -0.2640733837442788 -0.6167593036690435 
1.045619859692643 1.480723169417291 -0.1594874274679858 0.6749758252952245 0.003622736834540133 1.683929260427745 0.6213085417625390 0.09727309525958881 0.2266098821356875 -0.2447580471446731 0.8736243806067676 -1.979653835382571 
-0.3896554606592400 1.058575584281370 -1.964983644545834 0.4061400577666398 0.8179854738197325 0.6699410150835245 -0.6864363226643688 -0.6384904894222443 1.059339558133581 -1.280515058698514 0.6693412099064593 -0.6361961106183345 
-0.2067282897154441 0.5104493972995598 2.331710836654787 -0.03913240946252440 0.3377456944089720 -1.759100623479953 0.02785464798218073 -1.288027562146039 1.514591089983636 0.09278452786966210 0.7330958881032872 -1.424188790236698 
0.9032795058884246 2.243233444374401 -1.735747212478672 1.334968394601654 -1.245777747226691 -0.3720202733367158 0.1014431386421644 0.7077174751630093 -1.574639324817532 0.7315534940648458 0.7548197110017191 1.755848506270901 
-0.5675920088054562 -0.6324289886070860 1.277442283881743 -0.8271840790763797 -0.2917229069086286 0.4280316596548534 -1.381487530599981 2.700539264171320 -0.1912793818673463 -1.674946723557395 0.05927879622731752 0.2852031104372359 
0.5442273856607730 0.9355109960074157 -0.3238504692428066 -0.5810660231077112 0.5675908519563936 1.113409629522542 1.056466113882436 -0.3716994479533866 -0.3809431011429327 1.110379842602239 -0.06246107213159359 -2.461306155285920 
-0.6892252430361472 1.337359700345998 0.8271671015709289 -0.4715205882427088 -0.1505436536150608 -0.8297272447561049 0.4700737399228125 -1.765362412062369 0.9125787861559039 -0.3442390481478672 0.1743345287640796 1.739950160764935 
-2.271647010144586 0.7839326963679267 -0.9507025346074607 -0.1991880832314923 -0.9900054405236256 -1.125289228450838 -0.8604696143440044 0.1930055631103885 -0.3482148360616048 -0.03721728953031063 -1.601611028431107 -0.8962738730907944 
-0.1307925697643050 -0.7704534737692712 2.931854099822480 0.09625567418182370 1.327996212434881 1.036773260944528 0.4070902465545151 -0.3860105558030588 1.559665389899464 0.5721327496916907 1.931745736323887 -1.230987880215650 
1.733304465274620 1.841563770684530 0.9682781762722585 1.744340355437111 -0.6084106085740981 -0.1049458392509144 0.1507265701123164 -0.2485037549091085 0.6875400458391910 -0.8484999900052416 -0.2909930592261805 -4.748281056859714 
1.865985523655297 -1.372531456119986 1.138885989831256 1.666693538499217 -0.4620601915404776 0.5553809930169508 0.1312038457704874 -1.877007505632569 -1.049061131953011 0.08612006902824125 -0.9526594176142675 1.377613465503696 
-0.2495051741775544 0.4025881046977969 -4.053545347185990 -2.346112945809613 -1.387371683625492 -0.7188812656204640 0.3898651187579715 1.634682094567056 0.9539920238277497 1.244425968160719 0.2605075043611390 0.7371519415295688 
-1.836023818713011 -1.658297953174020 3.943083198179262 0.4485539503909434 -1.675033816201208 -1.264562932201185 -0.7640016291142495 -1.143855904745598 -0.3683605009289988 0.7295532622558846 0.1132735973883731 0.3797228724709032 
-0.4937782693000016 -0.5516497398004326 0.3989809479042987 1.043259026772380 -0.3123841785524212 1.183588506652830 -0.4621445993932098 1.134354067974367 0.6124594237607209 -0.3601147472194887 0.3111194324520378 -0.5210974132851591 
0.4665951643071562 0.5513441504364611 0.8337602570534285 0.5067302766691293 1.131435998246539 -0.6320127870314443 0.6230358807071973 -1.349485384081268 -2.229549922058815 2.074102519240462 -0.2925568277658412 2.260286491792125 
0.9892852098662793 0.2596365209779023 -1.297644011992523 -0.8125229284290586 1.024753639654530 0.9935015846016928 0.5413848635260469 0.7316596176420435 -1.666822908711630 0.8821581374657699 0.07905953301516558 2.033857581063227 
-1.539526264560199 2.246593042775792 0.2837377870570614 0.3495334313021987 0.2739407915155963 1.143414574663072 -1.324911605228634 -1.202566869388548 -0.8932816943794882 1.046888402021557 0.6315586114264288 1.217188044104703 
-0.5634744816149289 4.502951812749787 2.200754170941135 -0.4700065658543041 -0.1140415529625464 -0.6016316036346421 -0.6921004740954295 2.395007229908582 -3.032258175711837 -3.026650519682895 -1.392859650845952 -2.980920299253049 
0.4329544067203322 -3.215202140185130 -2.173900572646638 -1.404961889824967 0.2137138111630203 3.345035357558245 0.2717872346448111 -2.297794324786731 1.338685105661548 0.3220738448285374 -0.7478004849062480 3.962328371112964 
0.07893434737778900 1.979981340737383 1.203328631983614 -0.2357806518040534 1.210674145292148 -1.242582287134947 0.4194416758216018 -0.6482715446459590 1.687178774486891 -0.9054736190973685 0.9552390701488908 -0.9713212674562364 
0.5112491059581705 2.753769103725283 -1.583114671227202 1.408302512561045 -0.9608737355346719 0.6070597118223241 0.4562832905914513 1.750758854965860 0.2027465270443958 0.4295959546431714 -0.5720807905329759 0.3461387315987751 
-0.7671516927327114 0.6596924893131587 -1.401119933464203 -0.3086702466686120 -0.6949786499202251 0.9146923380385283 0.6143871414553582 2.973835938626690 -1.803216489047777 -0.8559645766588518 0.1451304914195197 -0.8322419555005208 
0.3552308837142978 -0.3457424085302223 -0.6669220931351971 -0.5655889685062763 0.8862238203660788 -0.4467359879392325 0.3815057898982398 0.7041235906440145 0.5327557367671356 0.2378162541323708 -1.264040954190589 -3.147839037369989 
0.2958610265776145 -0.1962078045491382 -5.658110826266846 1.409725716672703 -0.3655175008783776 -0.4358700129283951 -0.07255753700321155 -0.7859136511041882 3.290270638687026 -0.3501403104572296 -2.072939222051385 1.969180245513903 
-1.560574565561999 0.03516022526148310 1.771850389565013 -1.713469235245154 0.4839327786779384 -1.471673318558981 0.5963278296807060 -2.224713442918808 1.106887188192530 -1.109283528263588 1.104140516448849 -1.953789352140735 
0.1512220780637086 -0.2385400727976094 3.849206164843678 0.8996498726409884 1.115479033384279 0.6132674127384248 1.064796563753472 1.699792183858918 -0.4210875960261832 0.1172460766386328 3.005022208558327 -3.081845487224225 
-0.5693862291954516 -0.2103134116320813 -0.08288499462808588 -0.9515993041761014 1.670455644198985 -0.3691484068288281 -0.2001105412154645 -0.8823582451453109 0.7744718405319974 1.378370121855369 1.957639682665098 -1.218806189001011 
0.1240585924099306 -0.5591368769021770 0.09831056857754844 -0.8390393468309865 -0.4361063607546171 1.028365572291135 0.3131486981445561 -2.087229742168360 1.240833156810008 -0.2445022010099294 -2.076482094061670 4.035070663823850 
-0.4765601297671845 0.4645482169264701 1.141979674772254 -0.6268362839699657 0.1931493937022931 -1.750952809852884 0.8498792047179169 0.07377752335334586 0.003269624912995858 0.05249601020073783 -0.8438051268818938 0.8598406412333843 
0.3022067268622912 0.6766044188382018 -0.1927593817826587 1.393334412471571 0.1358199337710955 -1.330306981609147 0.3992522891588421 0.4283965427909351 2.750566182838866 -0.6495288648876605 2.783200071074454 -0.8923754707416480 
-1.687530434875076 1.693984110442653 -1.673728894168508 -1.126242302946181 0.8506434032675054 0.6183081382719479 0.9020862630821527 -0.06981107184190838 0.2359440459231322 -0.7223262361088582 -0.6646955490675732 -0.3336123598653867 
-1.308931175132042 0.2485662789342303 0.3120514090529108 0.5279528537337953 1.913118499496850 0.7130826244400894 1.893799140478182 1.853196114980109 -0.5918648500428486 0.3782023731693212 -0.1156253966104245 0.8178507551138838 
0.9014426412913139 0.08545351758345021 1.013502765750815 -1.070623136214146 0.4895781053618922 -0.3962589010614344 0.8230016105290773 -0.9511547282813722 1.522110754683429 -1.476372278689256 -0.3699041212369787 -3.484713863708814 
0.3072148228685701 -0.8663225700394745 1.998959733999684 1.565853534019788 0.4995077520513627 -1.282448787890688 -0.3722246549934596 2.107342857960520 3.044104327737502 0.2128921769354453 0.5982192477880527 -0.5792925901100111 
-2.337744872826990 0.9769737445791992 -5.525519309347112 -0.1954730751758818 0.8221949922593845 0.8463877938746822 0.1891833317231102 -1.456560194871816 3.841742935409566 -1.277932238377114 0.7896897005044263 3.270047769922197 
-1.164988393899628 -0.5742208176936037 0.003958648511658156 -1.754809554800964 0.1417676764895798 -1.190821913587503 0.1478363255697410 -0.4984000139535102 -0.7942996221552691 -0.3506561294417737 -2.132872841530278 2.201770099850218 
0.5811869544322905 0.9446140820677791 0.1572566176817111 -0.8525463947056239 2.028255463907247 -1.406924019336757 0.9712148377490340 1.359356971037912 0.3567948860089893 -1.260128024192125 -1.321793306924741 2.846248349357178 
1.625055764641298 0.3360666095314405 -2.557829807848590 -0.2411944404553496 -0.8703094006472140 0.2698258671843482 -1.045180769326071 0.1858022053712011 1.479019800776411 1.545879482111839 0.002065555633416732 -0.7181711088555520 
1.960291217659830 -0.1841123297674938 0.3305200674378867 2.055365768514671 -1.312125460232056 1.396804572603646 -0.1149527830092711 -0.5730582094380600 0.5230623950523138 0.8827678300557684 -0.7004126639018557 0.6527332835338449 
1.878202128597092 1.894221244438842 -0.8868418455367403 0.2058442892060151 -0.3202603888255737 0.9980207048988299 0.7433458735770402 1.086757253281327 1.740043109747826 -2.114957500002421 0.6078956778221053 -3.736707585567005 
-1.348020556742859 0.8619255843144346 -2.168931584549748 -1.781257805149922 0.6061953511130038 2.576015899068024 0.02941398187157156 0.01262818307359687 0.8735536225872914 1.788601452527034 -0.3659732187132679 0.2255142313045314 
0.7985880454919650 -1.319121835087177 2.687059540374881 1.247278404091433 1.632862656642311 1.428655581677303 0.8610101386479340 1.156610930450515 0.6361006568810281 1.328505567530162 -2.050743484405768 -0.3614784389655968 
1.577919378376319 -0.1329514334658378 2.840147987281683 -1.266272257604989 0.7201035464582008 0.6422957221631843 -0.02889841546946155 -0.1083572258089482 -1.142145515023474 -2.428077126144610 -0.01003363611292168 3.064629944089398 
-1.948069024688147 4.619656394632556 -0.3236966396778688 -2.534577788242365 -0.2023383684173172 -2.212573161511418 -0.08025744229648868 0.5841903448237850 -2.168368016164802 -0.9283463476838808 -1.260979423251841 0.5363321822507269 
-2.839767746267370 1.709206995595760 -1.030646003774680 -0.8577213897552879 -0.9311169904806122 -2.576988029523836 -0.7922207074925965 -1.006226060515997 1.827491661007127 -2.536968923648005 -1.036211914907745 1.726415337644642 
-1.163643274096646 -0.7716517910728776 2.603971218258633 -0.6538170598943243 0.8265283235220909 -1.722285315783073 1.206736965437642 -0.3597104027345152 1.964200246355975 -0.04087849010822928 -0.9853505055224413 -0.9476456129936357 
-1.644636009385594 -2.459604000406705 2.908266506268603 -0.3890849232612205 -0.8263830766461883 1.202478375651794 -0.07421404830189231 2.015602473976797 -0.1982912204251139 0.7108091345862991 -0.2609986493124386 1.875971302117445 
4.223679734765764 3.334723269404914 -6.063657437643293 2.623957890668247 1.026514906383934 -1.043718360834481 0.9641902468627396 -0.8610385802836745 -0.5998938238347542 -0.06482302144932053 1.076320940856281 4.149179228668319 
2.682881402828380 4.319239546333897 1.052456819412295 -1.201153884790355 0.5281338087784002 0.07052340987944698 0.9471991169349723 -0.5678608193203074 -0.2876448769454025 1.944988986765256 0.9445383561551861 3.301608176005122 
-0.9805732211537814 -2.063906924928701 0.9380339913837451 -0.5305750016491907 1.013903342619013 2.729922475452257 0.1954883481783251 -0.3491541724086202 -0.08404528695419855 0.2460845542838618 -1.327091507215767 0.9964459296344765 
0.8740636702120242 1.138933129448881 3.989769043815784 -1.464755189228678 -0.1162095789608146 0.1263357643079230 -2.053925630003364 -1.843441202612065 -1.146310202359736 -1.347988390176297 0.7745803612511056 -2.464746069980378 
0.5752853586190243 0.5183406438111652 3.519562803723790 0.1400204297875647 0.1534395878306741 0.7056707941442633 -0.6939049388721696 -0.1217925940559765 0.4978383725164720 -1.223120906859016 0.8266088087801505 -1.093757864313859 
-1.099956082823129 -1.226170562146667 -1.144565274934287 0.4262788624655169 0.9198132762144502 0.08182543968604630 -0.2277148655132569 -1.559099303855103 1.240830151940990 -1.789486983516485 0.5320676230829682 3.047387281688128 
-1.943724163211336 -0.1686462424664219 -0.2950638363851617 -0.2543210230536228 -0.3220341368950129 -2.988775815532572 -1.191235304773844 0.7975663945721752 1.025957559025867 -0.7431235553286275 0.5081052801907087 -0.9163351268706957 
-0.6748334060374772 1.793579691235151 -4.307839705337219 -0.4353289411624109 -0.03970352168466970 -0.9888522575387768 0.7436224143140733 0.1465252360089981 0.9416611498079585 -3.416439569968514 -1.518629937183066 6.552583249129658 
0.8490751984700747 -0.7485689189243988 2.887629096817608 1.983905451366262 0.07610921510260643 2.829114798727260 -0.1916304927574332 0.3129729424508808 -0.4426690473046893 -0.9965992590605407 -3.880547125025334 -5.766468930061790 
-2.015432311998617 -2.659500022667824 -0.9989027980327653 1.731526471802940 0.2304078115664250 0.9324958550561340 0.1590074480805298 1.859231274446841 0.01175086675608240 -1.297816266436798 -0.3764762575515206 -0.9900163611360268 
0.1211969855790186 -0.3871655025198565 3.481716977637639 -2.772526596172082 -1.351408594785191 -1.123308719678888 -0.6640865924530952 -1.564523776659241 0.4825507952025200 -0.5974858334163880 -1.385758347614392 -2.888301748190471 
-2.148698082141260 -0.9335429959056606 1.043705074793542 -1.602272728940447 -2.126027082301474 1.848991440726539 -1.105916127054750 -2.541793083711588 -3.067592881578995 -0.8298774990219027 -0.8494445475098452 2.508401190949849 
-0.9454202598485805 -0.2213443456965152 -1.124107658390231 0.6694844901307999 0.4857913244577921 -0.7382010002099142 0.9599917700568606 3.283064774718276 -0.9665055521730933 -0.7967856864956671 -1.383509998371107 1.203197696006457 
-2.851724984872034 1.674329876533521 -1.789606200415407 0.3268474996940431 0.6354963340440819 -0.07993529192163594 -0.3726494491548138 -1.281269319709436 -1.725216496968538 -0.5903565830791245 0.1749184189423545 2.690603354127505 
0.5765080741475989 -2.309221273900954 1.311343265776502 -0.2368921431691071 0.01621307773069729 -1.069403367627617 0.9064290707764092 1.429274245271497 1.135954565048421 -1.399342278681276 1.141254410080692 -0.9574039030317005 
-2.138858011027421 1.323412640537675 1.364243445377267 -0.3918332587698178 0.3763814775424422 -2.788153135663870 -0.2378497632368724 1.039462850584815 -0.06561898711759263 -1.461933668853201 -0.3230462797858992 2.418581075076244 
-0.6069522482529701 -0.7200569390221760 0.9485071815754037 -0.1321725517829333 -0.9867041584894398 -2.156334816955282 -1.054259820362646 -3.978477625370651 -0.6143180929908387 0.1817251213274082 -1.267985698000167 0.9921006585804780 
-0.6337342026804983 -1.752913934451026 2.554951736028905 1.220424897150173 0.02335828384897606 -0.9920293250010660 -1.183502845415696 0.2102117406446592 -2.374518834827910 -0.08034911589786599 0.1219731741486092 -0.1362246842568021 
1.178331526187195 -3.451920435508150 0.6477227640904350 0.8454367334255894 0.8171084196331074 -1.010487888039570 -0.3242090749541610 -0.5018890632625537 -0.3411982419476595 2.038144128144377 1.254792850692576 1.037229261376382 
-3.062270244020422 -0.3366875053615689 -2.802115076404765 -1.059459670040193 -0.6072755981536595 0.3423174864371640 1.049977984894428 1.246569282170439 2.299184369360960 2.546140326584688 0.6756604292023460 -0.07120764415241590 
-0.4353406656233738 -0.9128169034619757 -0.2917793000936924 -0.8721321434352611 0.7950739994840637 0.3097837695534250 -0.1113262905047759 0.9757176061215205 -0.5908692590369138 -0.2339358029759202 0.1827322510279894 -2.041320369207920 
-1.889577906054335 0.4597050480734752 0.2974483143844256 -1.300879538802205 0.1576128161351063 0.4388525302776319 -0.02923798690925360 0.1050491943978924 -0.2154511666752026 0.09038431878901387 -1.438031698071436 0.4485052250029675 
0.05261178239157644 -2.120921612924516 4.349375709827545 -1.119453108241325 -0.03777175211125583 0.5252010858991473 0.2054152851184912 -0.6167096848655926 -3.195203826788255 -0.4599722399200115 -2.643602038788244 -0.6882366115779734 
0.3005339277457820 0.05333725072445092 -1.563514657641657 -1.783888244859498 0.9989478499336387 1.364240605160055 -1.586210463444984 -0.6738933497076477 0.1758940105603345 -2.596289948890068 -0.6166419490636535 0.5124700373516173 
-1.595860701071695 -2.561803361723885 -0.5515313314382072 0.8250086319295002 -0.9223593841258757 -1.277624062060220 0.2907519404807450 -0.4165140972958871 3.621264166077064 0.4946209778896910 -0.1670322129816651 -1.673994320572276 
1.241002831248848 1.001496130422243 -3.447831282933652 0.8461521468118159 1.589290905273264 1.009786156645230 0.1196476579349751 2.432633156127023 1.978695424908075 0.5564863958503603 1.461316777023330 -1.766472113982740 
1.296596027306090 0.3688362923780105 -2.118396450730525 1.425026375932605 -0.04572452924372167 3.557762564069400 1.022302689040857 -1.389045568561338 -1.169402096174979 1.319080274601242 1.821940024809008 3.051133720405886 
-1.143578642436614 0.5699059467464701 4.474296513992703 -0.7259393221116888 0.3282383178295471 -1.663137453213808 0.04677593157974680 1.489852174353120 -1.518876917120964 1.268841115059628 -1.362578430124325 -2.963219471091644 
-1.319383351380002 -0.8902804304301245 1.529244191730857 3.156423668799636 1.027352180544239 0.8974077368252771 0.1305161892837971 -0.001950833297109086 -0.5676389106391379 0.4378904624434735 0.8168274945541778 0.4117970443075804 
2.054458160265104 0.2559104362523683 -0.6807677535643728 0.5115603945229813 -1.335971181044789 -0.2349372395769787 -0.4932568888014505 -1.708857231662535 -0.1218898797203120 0.1836984391348565 2.446311845459472 2.507844129052655 
0.9646450166568793 2.599446638440082 0.2796081788107824 -1.921546059934642 -0.1651269094487680 -1.475461595234645 -0.5601595443203164 0.1919434520045906 1.473883478077194 0.3879384289236608 -1.501011128807433 -1.608948105519171 
-1.059744222620443 0.01487107203483923 3.425961958273135 0.3020364834320610 0.1807181226842866 0.8305373908616411 0.2066626831848214 -0.9501511266359957 -0.7584804481288792 -0.3470178641191111 -0.2725701111052243 1.998205909781356 
1.675334086545017 -1.806464159665267 -0.2805551204951520 1.868052483725810 -0.1712029882410032 1.339033129991359 -1.173312603453783 0.6693691339908556 1.371214618116014 0.07089192675231484 1.401961797605188 -0.4373385784877281 
0.8701879599176182 -0.9335249501178211 -2.161655167033284 1.307079587078404 0.9494000500519316 0.5861211861692082 -0.5166347020250103 -2.530957536685321 1.143673500678502 -0.8400505987403913 0.9363375653666106 2.781527379428344 
-1.259682407244364 0.4091235359115182 0.3423968077587247 -0.7754647221266830 -2.247151459946472 -0.8388687627893106 0.05441509003018698 -2.038050246355592 1.316290474852651 0.1632237303687137 -0.1456289029227627 -0.5705087411533217 
0.004066511989484373 2.585206623406078 -2.319951559252806 1.649940915351488 0.05074666113288035 1.648965883003304 0.9825540903695776 0.2775970376965188 1.049202038313579 0.8447944928625508 1.978018930207898 0.1905463987840796 
4.206428528160428 3.745436529743592 1.258664758019926 2.191054520127073 -0.2819184090440895 2.775223626569520 0.1050821518218340 -1.046786288291692 -0.1898216468143379 1.191950749741930 -0.3893636221509460 -0.4645496740584836 
1.382401401500242 -1.533289276018057 1.099400251436829 1.264493357841163 0.2264925515766673 -3.588552063937691 -0.2898949616372014 1.236537268390193 -1.981641754519815 2.697750800340173 1.596710408442376 1.352193018327192 
2.110811784410260 -0.5744646663221860 -1.590938461104746 0.09441675144768856 0.9045028102861702 -1.523252529785691 0.9876191281453159 -0.5351885124626313 -2.023037877967501 1.257945093880060 4.588679804042236 3.127818278360757 
0.6282146879313945 -0.9476478156095063 2.089700283368407 -0.3880660481753691 0.7788313244077426 -0.3987694929950432 0.4379331907162123 -1.675857497496359 -0.02476998687841783 -0.4639278121935944 -1.507031872489730 -1.253761905840271 
0.9670763494441683 -1.357876283190713 -3.269797682023385 0.2929132143224927 -2.194946919462694 -0.7252548280283290 -0.1752361515797521 0.3313440172810840 1.670779162895399 0.7206359926208152 0.02326642555195235 1.672010692592535 
1.821297740452116 0.4172895584425194 -1.122427811091719 0.7657863848506189 0.4255553747977468 0.2839778072820635 0.1972360452359469 -1.240910921817689 2.535181967450333 -1.125216369448009 -0.5112735780660583 -3.584209439474347 
-1.730711082447754 1.554066009332215 1.468422606594079 1.645494844943165 -0.7174711470548880 -0.8265598679791264 1.255248567065257 -2.813495531363117 3.311861676664906 0.3292097088282013 -1.237217951975453 -0.6564949728325773 
0.8106198871869924 1.311834136151456 -1.374165997684850 -1.941919366537195 0.5767834414625465 0.4170206119783332 -1.072482520078894 -2.780954724773764 2.919496293713911 -0.3050631263355049 -0.4448360324093056 -1.924078805434470 
1.311504935595265 2.288338364709276 1.902489148426730 0.09471338835901943 0.5296527548074114 2.796697766062901 1.427196097360202 0.6596134667474827 -1.872273929448997 -0.6097947084854808 1.708466804657647 -0.6158365862729436 
1.053593995260391 -0.8016063443472536 -2.798629562783413 1.670419490675395 -0.06774986289225650 0.7470606366156549 0.04945681260234325 0.5336332802899714 -0.2543329751966723 -3.218289486124309 0.4502329248434305 2.154537083585602 
2.189026940499861 -0.3279619871904633 1.491194643741288 -0.9835320379477819 -0.8393339649569882 0.4531082017597830 0.7436915577524300 0.3449385824666931 -1.877207017071831 -2.443182097173594 1.263128463739871 -0.1559936842434161 
-0.2892087126137832 -1.266250093446829 -0.9217013363114510 1.129251482287360 -1.077776788630736 -0.1896616409364287 0.3791451673621000 -2.674820369242994 1.559168994567763 1.626370947805470 -2.069607516653390 0.7318853357013870 
-0.1144609895303059 -2.158890095784597 3.307275651004137 -1.703537735650803 0.1945090236344978 -0.4252142173327055 0.6850111297734476 -1.263665334500082 0.6350542548999397 -0.4493360602739849 0.6391310769454502 3.434317512289997 
0.02240680351463536 0.7191914499790595 0.5092964061914820 -2.019717200943589 0.04952916219724352 1.128704568036925 0.6587088214386264 -1.681863343409650 -1.240169016165345 -0.4096500942429697 -0.01381302924971473 3.363931854652056 
-0.5496751882297406 2.204521782447587 5.769879591846896 0.9359537977014994 -0.2792042629588692 0.7693084676072631 -0.1581125303210629 1.402648312781680 -1.723415224158295 -1.484790530440437 1.837664650413625 -2.181186232110648 
0.7621579426918565 1.774678862306273 -4.929921614113079 0.5381379720359258 0.7432039929078469 3.128627399856689 0.3917246174098975 0.6171744152661847 -0.6482165646420001 0.5830746243164183 -0.1962618048327662 2.845312520213727 
3.259972788975976 0.2068311936298474 0.6059176230405179 -0.1080302012990585 0.6799860787717118 0.6606359534327095 0.1896038700081332 -2.749444872666524 1.395776765677011 -1.127462626617476 -1.261819622014594 -0.5988324869849474 
1.446179128579118 3.515109554115720 -1.043020605534609 1.252883123329266 0.4891331196990716 3.777221366154707 0.6663269456974793 0.8428116777879728 0.7199378537653343 -1.267828176554012 -0.3857380234953446 -2.746797862261723 
-1.021781887567926 -2.186625053618251 -1.088719599261355 -0.4960124093829303 0.4100077899547328 1.042882000799141 -0.8900441654630898 -2.440824967738652 0.4674828994876106 -2.340118453694660 1.286165047342110 2.961621497356721 
-0.1103709589850386 -0.1057949951128611 2.669742988480685 0.9159366097409717 -0.3069173209818636 -2.745548178195429 0.1072988726654923 -2.074665686111725 2.070496558633657 -1.038297660888069 1.117046568933801 -1.062782150310418 
-0.3921886435287233 2.122849316697971 1.954857996432916 2.173383847855138 -1.739889356432160 -2.776460960766666 0.1620018520076742 -0.5425887998494487 -3.116513711238191 0.3194447816494702 0.1256404712952342 4.060416579175218 
-0.6189543748020019 -1.900782446376769 0.3635967727965871 -1.487395025033365 -0.4742788609064538 -0.01475890477935738 -1.589191834910698 1.443403199093218 2.162417532880002 -3.247711035097736 -1.478981184021757 3.966012575373217 
-0.1370029385601312 -1.288145075157317 0.3699989273230525 -1.843574602727641 0.6127171136914185 2.347686201284861 1.069112202148452 -0.9121885573484929 0.8928615939030022 0.5825880420845788 0.03029503061882348 -1.188778150649889 
0.05758680647733658 2.328203586441439 -1.700104841582056 -0.8284663042119893 -0.1993872162201548 -2.724446849312950 0.4405180070130978 -1.062400704026248 2.531489551499586 -0.5009677887785867 1.524493223122338 2.503325486067081 
-1.881216890355780 0.1531666987712965 -0.1450912904757168 -1.546496299710729 -0.8357731659160454 -2.076540033653374 -0.9908270915584981 -0.5827632736836290 5.010904963434575 0.1248607393078604 -1.358574281709079 -5.220565842232912 
-0.7004623225860963 -0.3488533718757669 -0.2430600181979747 -0.8879208239886383 -1.410064315586626 -0.3892930043002360 -0.1505255882981573 0.3611084826216741 -0.2359137173971141 -0.1571426426317956 -0.4489273560820939 -0.5181902636502103 
0.8321485525800908 -0.1350442837757224 3.317988112634987 0.4174908031564685 0.4306438121189228 0.5848229529082685 0.1359455981711728 -1.896267172712600 0.8330691189325005 0.9835874645927454 0.7237183462050695 0.4516418884101737 
1.076113733972839 0.1780768070244241 -0.6491827339175856 1.109890768021300 -0.4181345819858279 0.7391958154854273 0.1095292113003849 0.3204480569050329 0.2418146716793355 -1.180028842916613 -0.3868272506811562 0.9602017690291269 
0.3572510546964528 -0.9361892504068430 -1.971449909833615 1.009081435538194 -0.7263243887875072 0.5768231474340877 -0.2808040222004813 0.6131708510197624 0.7554602823481359 -0.9407700075369227 -0.1156740404256628 1.340965050503045 
-0.8950510317281977 0.4747249649978205 -3.939568583918395 -1.041926376610124 -0.2622189602129414 0.04508018709665432 -0.3097891165101396 1.090865059489627 1.443739917576340 0.4102455809718922 -0.6215471602418817 0.7949977967859228 
-1.243339421039403 -1.116976440993508 2.762440515958004 -0.06043801779850281 -1.093476968561685 -1.368281528632891 -0.1803418538093380 -1.162526007943215 -1.102879403731004 0.007397067599179810 -1.208102929931401 0.3300893554353550 
0.2375945222828838 -1.022269306953679 0.06954583616695514 0.1088246680323418 0.2032485078392410 1.861020758134615 -0.8366866007604170 -0.2002411481294939 0.9133915614227719 -0.4367530722754806 -1.041659734107296 -0.5544166042556634 
0.8411767218619156 0.7730205466641058 1.624992812700390 0.4961339780700266 0.04600097627101159 -0.9040020688758763 0.3455532543608212 0.3627913217609924 -1.830581906293852 0.2983432473442191 -0.5648418013384939 0.6630337013227906 
-0.5017344659596457 -1.000519657945212 1.199355703214214 -1.087801227110373 0.1767257216048703 0.5569458984379482 -0.3703524065847154 0.9068684878261966 -0.7466397599739764 0.01489215826214359 0.2017196470349618 0.3900179327773486 
0.1935637247980971 0.3544790786478053 -0.4452719729854810 0.6329637809435452 -0.7579606628193503 1.739388156629909 0.2139935171084256 0.2720854670012181 -0.4275697980240013 -0.05363381893112883 0.3697115104832163 -0.2575387025818508 
-0.7139596018110939 1.560070028104204 3.720972909107450 -0.7335689822689917 -0.5795238813364609 -1.204369377328077 -0.3427085649708327 0.1235904017023176 -0.8328052948107676 -0.4555275318978499 -0.3500789754374746 -0.3238254381825615 
0.7465055350122332 0.5037808526061207 0.4423815007882276 0.4739023554318377 0.3229490572364990 2.963808053794374 0.3939724168809107 -0.003859948144019937 -0.2456625479423052 0.6013669810237590 0.5572581172888466 2.559226454333944 
0.3314875227287171 0.5817528150346108 0.05449394371747418 0.4486687345002691 0.3151605225157843 -0.8007846525841834 0.4540709093969869 0.2727022354851523 1.216124280624531 -0.7576510034482262 0.07794188017034366 -0.6209487306610005 
1.486370160559783 1.657034296471690 0.7295671670426941 1.302973594037319 -0.009755237950790130 -0.009808570587633417 0.4942495307490839 1.608196661510305 2.118515417601012 0.9984229681260268 1.148683885828042 2.120422622860982 
-0.7122949120507049 -0.5849142640776066 -1.547209567942838 -0.2013245682713742 -0.2425774003580805 0.7943877512173451 0.2192109038549112 0.4838805714556805 -1.949246125151246 -0.4401579839925289 -0.4229726331960174 0.6942893316990363 
0.002549183915318416 -0.2953833483760627 -1.671133609316056 -0.1127006171621212 0.2213332102036026 -0.1467036396228754 0.2119001607166283 0.1477461004667280 1.263542678853886 -0.5752306430905635 -0.1340819351712231 -0.4625201588354054 
-0.4972848466965953 0.5626473874719737 -0.9293230904573606 0.9813684464891604 -0.3001453678426541 -1.346030795551383 0.2304733172737591 -2.173512215468481 3.564261901230189 0.3656205565776973 -0.9417455014313479 1.213524737470906 
-0.3458130232620980 0.1128465172110406 2.339082061924777 -1.134893136846487 0.9704878006855945 -3.105739726791479 0.1006943010612675 -2.308586933623898 2.535955606771574 -1.396292404390071 0.6448582831560231 0.4490072168381359 
2.371522276844651 1.144085630456928 2.904950167783047 1.053384960085415 0.8022877590849393 0.2071223851287858 1.038732288761041 1.164950067705802 1.276768466945856 0.7800424684811180 1.823789457844184 0.7747892444351919 
1.215697743493124 0.2461179104094887 2.701168841213542 0.8307655061767293 0.5088978776679667 -0.03144984663519036 0.5416737303749452 -0.1430547785872895 -1.362073045782791 0.2512184269682918 0.3053967639853583 -0.2172986038945619 
-0.04217548232337659 -1.865917770769903 1.201760847114504 0.3253347691087862 -0.1391391967862563 0.03985075853818816 0.3188682608150347 -0.6524088681334156 -0.2451273721643321 -0.1585338339597066 -0.2539550801932104 2.442922290834589 
0.8537178128931991 0.6357671330581260 0.9928848685937659 0.3726836064492419 0.2641106765905615 0.4413009607185440 0.2489682420366269 0.005181262627340824 -0.7504631634655950 0.4607441842494912 0.3205644670300246 -0.2663888990508402 
0.9258546321679388 1.601107098196845 -0.5288561185748584 1.596732131171311 0.2763746106983865 0.4846178854449001 0.6258363958212085 1.186860471576440 2.549259058788314 -0.6457917817315898 1.232135737034668 1.102690961207362 
-0.02179851177594866 1.482658493726202 0.8268760142086604 -0.3037272519554202 0.7343646817675031 0.8160062140939461 0.7378800675323410 -0.2054908886838674 0.6578993132024258 0.4427204041100636 0.2246534829892998 0.6956310657794028 
2.137129944825924 2.106451413985055 0.01430161779981239 1.670185969026011 1.107982072999930 2.699785154897575 1.812881332243025 0.8963159235336910 0.2878211974929090 0.7152692646667268 2.013811489887133 1.574789182281512 
0.1444165813228579 0.02491741480948927 -0.2150487521721149 -0.6799767344502952 0.1413227105307384 1.656826389481179 0.4086806613491664 -1.846249676914968 1.192175124952016 -2.191169852400603 -0.02910030104803865 -0.8553805529366295 
0.9204788027354596 0.6744189485966717 -0.3286888959350450 1.247217786478146 0.2518005844600161 0.3872653951326568 0.1486030093553154 1.044263472579360 1.696030205553531 1.199533494197153 1.490054934417099 0.7117332362378089 
-0.1590098217577921 1.783455703199886 -0.5393002492445196 -0.1505438049559106 -0.06156263198596118 -0.2139540446611832 0.2831235371085631 -0.8687088416024072 3.404631229042408 -1.259852505491221 -0.6543651531655365 -0.4838154644786249 
-0.5011751407312407 -0.5946886917687663 -2.304714972436573 -0.1242517824726184 0.1910604677351489 0.08316119741425806 -0.2793167196630600 0.1861968766179011 0.08527276382503943 0.2527167330093865 -0.2549522055920876 0.5923286339518278 
-0.2690954380551131 0.8748481878974412 -3.921562603900064 -0.7390162434739372 0.5997910439700950 -1.112771930573087 0.2029512804927197 2.487793570709368 1.875218109365248 -0.3246121965250809 -0.5861222673479705 0.2966850042023939 
0.3158417867591845 -0.1699190895503586 -2.510941016537847 -0.06597085716267016 -0.5650406842803198 0.4381485066309305 -0.5815329197144798 0.1960140455981738 0.7866622596774593 -0.3165649444995526 -0.2075247632412161 -0.7654842430899506 
0.5259067666284880 -0.1576595921156986 0.5522698679707828 1.750637265618525 -1.088405911730417 0.8448905416516149 0.2052730584161703 0.5473525406530835 -0.8526748915024746 0.4337664757514554 -0.8555416519548887 0.06182475464184153 
1.524739716961194 1.574086135108911 -0.4982180177663360 0.2616113494029739 0.7480267777511557 0.3378611538920643 0.8407625707143982 0.8447022986618274 0.5518653144168615 -0.2066644204117492 0.9033732354542086 -0.1839856765110793 
0.1139520662406963 0.4058427684968373 0.5727146816823315 -0.3406920431115223 -0.1902766964469351 1.012803204740953 0.4384090460250313 -0.3054818763078168 1.060934135874609 1.094786561870844 -0.1166642916405752 0.6267565167352996 
1.397818588659322 0.05102573492537835 0.9502059834034735 0.7708257366148299 0.9764160155041931 0.7635121000474412 0.1875903796180506 1.486901329836523 0.4208212121243163 0.4609187148802306 0.3620590523495161 0.2507032790603416 
1.613375672647784 -0.2623174940402488 4.888712457810549 0.3943801827356291 0.6596417278277052 1.216557454061045 0.2435133654593215 -1.100059793501004 -1.789298697890914 -0.1827917341437124 0.2109472648364152 0.04257207148768184 
-1.686750475591617 1.384422484528420 0.3319166334072477 -1.865812136645671 -1.000223923720784 -1.953122284366569 -0.1703495991354243 -1.225842156038352 0.2586617431756619 -1.355272873432373 -0.2519040999028342 -0.4331119175820185 
-0.8050258826948963 0.1417928066373854 -2.174998067410523 -0.9551122019198413 0.04660209547773807 -3.788607424183365 -0.1247827452975653 -1.191290694565480 1.901679888099611 0.7175699167884282 0.2046928225998716 -0.7249898499753297 
0.07405078233007786 1.183952641861440 -0.8933475779351343 0.03241674088293776 0.6963855543834759 -1.411016784725498 0.5048516536154072 0.8147884538390979 0.6199275620116025 0.6255027981633938 0.05283142763832396 0.6035030334077437 
0.3695234103152521 -0.2738158195628548 3.877872167316997 0.9383912179426490 0.3172822316919708 2.906428295608534 0.4284314131596280 0.2203836953682316 0.1070831011539891 0.3923084751619885 0.09083053756154631 0.7966794302091447 
0.4861736500211121 0.6723870574814423 -1.785539778885461 1.047611130535526 0.3955886929629247 -0.07761963785162146 0.02244930239173586 1.292106809399347 0.6309213785516600 -0.7129337258884608 -0.1494602337507041 2.372702420405731 
1.514548378738370 1.722487207473194 0.4047151191007047 0.2556522020912239 1.164681425911872 1.017781800742366 0.6020891654209674 1.036260857554273 -0.9101272662256021 0.9077157994147496 2.069937571346142 2.308541785351450 
0.1784577085115309 -1.240732645680909 2.712128890368925 0.2319014663956991 0.1341868957453930 0.4504236065138602 0.3256432884958120 -0.9937717398420322 0.9088537188263455 -0.2643366768143676 -0.5366092647273853 -1.289483537085759 
-1.002578917427388 -0.3293290207555023 1.980128712484503 -0.6798997165425428 -0.1189179178794193 -1.169150419955758 -1.224148293224956 -1.224407621439826 -1.870210706027729 -0.3798582799505785 0.04355520878928916 -1.684966359203640 
0.3910839443906179 0.9180037670260853 0.7014963544478695 0.1287773930738576 0.1339971902381133 1.249358556627812 -0.3004143151190767 0.9561478736495391 0.1666983848292890 -0.03075135482768189 0.4587075706943975 -0.7561442260063429 
-0.4925975634502744 -1.097176750592978 -0.5249767414467235 -0.007874388130121170 0.2394171585936663 -1.207635671437343 -0.3393121255539258 -0.9767847865603729 0.2520121785429517 -1.307146228851554 -0.007710575155765179 1.643048058253239 
-0.1911512023869102 0.6354192630527997 -0.1262571044745374 -0.3829942902964298 -0.3318682077722023 -2.139827594952060 -0.5194872159975873 -0.1130277469786221 0.8176804105128774 0.1035050931027879 0.2121921278931053 -0.6079706595976970 
0.1831593516784421 1.273117575019420 1.310396630152714 0.2238814669109713 0.04579497209502638 -0.1081657818639727 -0.2085418201030465 -0.3725337351007831 -0.9503581382397255 -1.022255070980436 -0.6381561432213214 -0.09733170113317206 
-0.4116946020862881 -0.3218648538758557 -1.279480511067071 0.3656814321039600 -0.6563914551919415 3.101856220999010 -0.2913900511337783 -0.8775417842640756 -0.8071381239619885 -0.1285826483959575 -1.460270568869028 -1.186755459871288 
-0.6584967662863718 -0.9188439307700753 -1.198369391760631 0.4047098336114476 -0.6170714924757368 -1.161071606290921 0.3144716051785738 0.02264535563056852 0.5519945563369907 -0.6323498314593463 -0.5118157468269526 -0.8599683557998421 
0.3028057082659040 -0.6254745877729135 2.894722725467386 -0.8920342861726933 -0.7463519456964222 -0.7529721659104355 -0.1201248736452145 -1.136932266162454 0.03534070570662065 -0.2851130327339630 -0.4071122787659204 -0.5811122841926994 
-1.456634185787396 -1.485938358302311 -0.4275611967652458 -1.030102591673034 -1.077945742259589 1.696040756206465 -0.8569987938219847 -1.583994684884678 -2.742513535544537 -1.402012891763954 -1.462005852568293 0.08738633455108050 
-0.8038589031870039 -0.6098960164358800 0.3820137519558315 0.07886594841957298 0.1061634559564653 -1.360050526809117 -0.03647873699401154 1.072154918228912 -1.045458338145960 -0.8663827690789447 -0.5463766183332102 0.6103478356242796 
-1.960901067368647 -0.5022193692335364 0.4993516612169171 -0.3044256971179279 -0.5757252945990475 -1.321638353588833 -1.121321616459595 -0.2007213030824211 -1.799085669341220 -0.7197385712355255 -1.036358749437861 -1.050605096473892 
-0.3288412366245113 -0.8584199690043557 1.058189308439224 -0.5890696550670604 -0.1147052851963173 -1.510813329537754 -0.04323173152119531 0.2995894999549406 0.6482100174213747 -1.075545198275044 0.1424750361831862 0.4188888069369582 
-0.8411777783843160 1.217056980127063 0.4993537110399617 -0.4904695597996553 0.3029467593761490 -0.4539231856393144 -0.003951165359491082 0.4824506566718244 -0.4873307342736289 0.2216258471997055 0.4607091623384341 0.8799746643421366 
-0.3922817558419163 -1.115892853847866 -0.1432707349948424 -0.2694499286847041 -0.3687650601601260 -0.4705116369135730 -1.198563935950946 -0.4076642039500956 0.07697134929990693 -0.4060002862871603 -0.3913301488840994 -1.446734721878660 
0.2003359651751729 -0.3912758427268660 -0.07126607965856532 0.8663078676876512 0.2892675515811301 0.7905022335201466 -0.4621231972753195 0.9830346189527577 -1.612646873610517 0.6311126730943355 0.6702642521305121 2.282914610227793 
-0.5132725050049758 -2.107782004228718 1.193150907071224 0.02588054010838800 -0.1188177115941927 -0.6191809334669962 -0.7863278211160378 0.2030367938219771 -1.490559100411320 -0.1735834462825316 0.1404503549743743 0.4666560162030984 
0.01267645818452467 -0.8927651128564176 -1.906886560438861 0.2801419592993441 0.5686634924063868 1.482134195224396 0.6106939508883230 2.827318648427933 0.9707947852419535 1.830848172617117 0.9959399106431043 1.035067145594245 
-0.008086286840693612 -1.001629876371887 -1.374878631406785 -0.2722763639821947 -0.2044134976211267 -0.4028043053276163 -0.4154609824910813 0.4327306499958420 0.8871625855888478 -0.3202146624023012 0.4500344952154320 0.7928549897767759 
-0.3351223985093128 0.5275619865807860 -0.5605437770912438 -1.059487588272989 -0.5585871265097746 1.329815196689360 0.2430193226429484 -0.03192095394987872 -0.2003317707346591 0.03507157249314472 -0.03555193318705624 0.1004854843066598 
-0.8591861265730626 -1.434712799614050 -0.2168050211238073 -1.192955062519721 -0.2112593619418072 -1.851169177364973 -0.1897179176627091 -0.9045612847852558 -0.4242104848784566 -0.7719487165239238 -0.9703475796608921 -1.084740728682108 
-0.7167645982098572 -0.2907400210236506 -0.8529455320328909 -0.4883312532734900 -0.05635071745851000 0.06911024869802143 -1.014326662863061 -0.3020977436323575 0.1613343455433564 -1.887340031374327 -0.7791300143918192 0.3098400375899627 
-0.3453533881579219 -0.3927871203367829 -0.3981176698222884 -0.1406701236028325 -0.04842935084766861 -1.053519468966217 0.2120588920248785 0.4994032826836981 1.928599749276851 -0.2939956239758874 0.4032345647722502 -0.4889008087382071 
0.1874732618770685 1.240939626201694 -2.433832691880164 -0.2185086489698261 0.04613628277537651 1.827881258762374 -0.0006596886547648798 0.9756065626175201 2.203416723909863 0.9138627185403859 0.9913526345137164 -0.2705370398492022 
1.140543494622532 2.232995446777095 1.256524963658926 1.276878887110003 0.5705037932783000 2.657481287785293 0.4657418392623937 -0.05600853818596813 -1.350353558436091 0.9427959073873977 1.094425261963236 1.689716429360213 
-1.077719424256034 -0.4054478407009969 0.9582328750350206 -1.136666019120562 0.6569339187900780 0.7214819083957976 -0.05873813760498129 0.2539822100373484 -0.3879985561400223 0.1565881745647816 -0.5500163820136257 -0.5093949789761357 
-0.8108952761580000 -0.3186986738567659 1.539906888398144 0.4910317591297556 0.05919511776723829 -0.5865935966459632 0.3027574751859070 -0.6982900475595553 0.7271579679512936 0.2997991872513549 -0.1526630959429213 1.187661759704419 
-0.09645469147544691 -0.5665108438965976 -1.762428515747491 -0.4304392150728092 -0.6596137076335861 0.02521839468350737 -0.04459512201513611 -1.134704044447385 1.717695984928491 0.09172478431318470 0.5498558616883583 1.461116269639094 
-0.3524850528292520 0.3971910368201383 0.3175633485368615 -1.120089473312231 -0.4737342312015352 -1.605736274689318 -0.5445831210072648 -0.8325393750201111 0.5504382726078476 -1.320106913983666 -0.8805212769390033 -0.4501416549607745 
0.6919338057191459 1.451540676850914 2.130551075579310 0.7770468570762504 0.9165581078964209 0.8093655512644073 0.002391702524813761 0.3105525290763507 0.6603443294821261 -0.1974904141158478 0.4195431726275689 1.906536989768553 
1.187974085024802 0.1112000582249554 0.6850791414727136 1.244321455994860 -0.6028273222885948 1.244644823788045 -0.2334025263449358 1.334556965636299 -0.3094844643585021 0.9956977925082932 0.9448801892823433 2.171298905295665 
0.1180135431058326 1.009911615515640 -1.864518066103659 0.6233740401490984 1.009785960131652 0.9281563634990452 0.3531060844766907 -0.4842780636563204 1.481207655245342 0.1741110223250097 1.225761861231879 1.486013795638380 
-0.1806173805487337 1.024148480689066 -1.519868062108425 0.03619814963308089 -0.6257017627370487 0.1003995063493509 0.06341557493501096 0.3113501149969693 0.9277755558214907 1.185510066289061 -0.07129750280058261 0.7185516910313183 
0.4151549869845715 1.214148832782095 0.2108008937178262 0.7259399362532037 0.6824928539283619 -0.2809605378245977 0.4101950535953516 -0.3667012851195782 0.2236757826386241 0.8816436037246126 0.2439454859841389 2.006808426001968 
0.1945679317164187 0.7267957017494565 1.547715519321309 1.295160091934086 0.1371771046442913 0.1388846878855434 -0.7348353941460206 -0.6533752689853658 -1.752218665800513 0.6475998344815914 -0.5682617013214856 -0.08595107889705056 
-0.6704285400041214 -1.214178045045434 -0.8763443917661030 -0.1458506751614299 0.2777488509023410 -1.177094266875624 -0.3348471379770181 1.581093765767631 -1.404975477803098 1.386665097721732 -0.2006037392351397 -1.538196785595781 
1.437499516734396 0.6833438182049535 -0.1043654921946882 0.3145224522025749 0.8606477552470245 0.7663070558967344 0.3032177463072242 1.036800556915363 -1.786292534880013 1.988106460699350 1.854423189631236 0.2337062046927828 
-0.8103354306031896 -0.6176998533734044 1.448800804635511 -0.4484153976830677 0.5145188381582555 0.9692338420121017 -0.4236027136558603 -0.6697528403465809 -1.618214052025625 -0.4733121591499137 -1.109763526962719 -1.980341791881718 
-0.08069782570671400 -1.887114241523622 1.014196417766428 -0.009729026765309998 -0.6832515727436714 -0.6510051332216431 0.02383894507699447 -1.092765683446696 0.5705189782184577 -0.7409244624955035 0.09237565504744728 -0.05520403621685804 
0.1421100033027850 -0.6684819246367313 -1.638764343826253 0.3154600478219367 -0.4957021999288829 0.5251216885005361 0.2164693508404377 0.0003249744557066968 0.6247421095589427 -1.112336782799134 -0.001773517566579452 -0.3811650139535596 
0.4396899498624666 1.619272725700176 1.446419596245198 0.2657325811210746 -0.05826119445353030 -0.5540816650017311 0.9840608684557107 -0.3471769231349935 1.052639102892992 -0.3196855463906127 -0.8624169688478339 -0.8704750286710345 
0.5416701617259807 -0.4004114017736421 -0.9307901092912705 -1.256866133572131 -0.09756365919377759 0.3407399184998829 -0.08869692671229878 -0.9200101232943764 0.9696527155643081 0.6864449532086190 -0.1351213058461910 0.9201802066522898 
1.870812394360247 0.008849235402000475 0.7485494320624659 0.06294554208306831 0.8657233178535146 0.5387088928519340 0.5483547778890747 1.999276344848731 0.2194155506981881 -0.5980843282161148 0.6778465907749200 1.709550004853816 
-0.4902527208669769 -0.6944926200807627 -0.8846508507635306 -0.2602746970919810 -0.6694485038498966 -0.3095538865958579 -0.5707847493062750 -0.6337939761043934 -1.045543123795483 -1.921929936922687 -0.02048875919331088 0.5508891529806939 
0.6131940670041799 -1.108494252719579 0.7382226146891916 -0.5382421530095901 -0.4952866176289885 -0.1368251294114158 0.4048402440422775 -0.9057436586924021 -1.507208643830732 -1.173519116434215 -0.1342715006681438 0.04354800012613448 
-0.8257447220179462 -1.629926675650715 -1.325216386923762 -0.8176253756333720 -0.5292958094927892 -0.03045317155860355 -0.1023710683179405 -0.6242946501247539 1.548731826762773 0.3522883238866302 -1.132049533780694 0.2801473410695397 
-0.1370508072584817 -0.7640777259022471 1.757269334959904 0.1330456274860088 0.1151254821740230 0.02367817510507327 0.08905980669613695 -0.7955978790496150 -0.2083620846791077 0.1135407144041511 0.2805834152734880 2.651617492551553 
-0.2829326605882034 -0.2382156883579424 -1.015389725783406 -1.525785168326222 -0.04061544387247826 0.4919740320530562 0.01691983670363222 -1.234555548214262 0.1430067352262227 -1.391437830516032 -0.9935395250186682 -0.5601884985781598 
-1.013044970444733 0.9392165426566755 -0.5742261946992766 -0.2350804603252049 -0.2751537526276351 0.8597155877767960 0.4112577190058046 1.327076750122548 -1.253121252751549 -1.257257288083731 -0.4143017728456794 -0.5676596374649238 
0.1680530680833739 0.2528537575674799 -4.038680347671109 1.063935752768490 0.08764871633224411 0.6908259289166451 0.2405474969956918 2.741640541389835 -2.077889978731047 0.4195008387768597 0.05950534255576657 3.424842767533288 
1.170473362729982 0.1037728747590498 1.131379530407440 0.5574683058149930 0.09582959473050190 -0.3445706497332592 -0.1545436284076616 -0.4209039004664026 1.406736530889078 0.4025086838894641 0.1712994854838718 0.6500104552010464 
-0.1126628503068748 0.2586767277894509 0.3691413754524955 0.2942939451687057 -0.1184565694685766 1.119232684150658 0.4515060600084805 -0.02682667504098941 0.1921387389986163 -0.7718978755196695 -1.163742597478860 -2.544528826793326 
-0.4032812707186834 -1.490272955748394 -1.458284198589294 -0.09153836944916337 -0.5607185088868157 2.399897270257826 -0.5071896931268272 -1.483118519443905 0.4842119129526744 -1.056409283564039 -0.1137557355431893 1.092201103536018 
-0.1837977844129680 1.148733328586659 3.274042755710314 0.6429892417196252 0.4962387664132201 -3.016248277246589 -0.4127415353932535 -0.3735133652078403 0.3234478348254370 0.07933876146955190 0.06940752335221914 -0.9179687993675759 
0.7076053885130347 0.9663894604720271 3.626808436130305 1.015780104618308 0.3697081472665896 -1.782189139333937 0.7529106572287596 -0.9996306299522599 -2.335123623490865 0.5267063665400012 0.7501528707114763 1.002408456799631 
0.2371181688096562 0.1402001036334321 -1.745998913515465 -0.6335237150662424 -0.3060671902670001 -1.159906357895679 -0.3492712166942174 -0.01524300247516827 2.195697465627620 -1.186711730696719 0.2525589187722399 2.856601423853751 
-0.1818754069348477 -0.2059499569015296 1.743604562487029 -0.5695440153931813 0.4349861320075530 0.9568242841247147 0.4351274704459275 -1.292099403878901 0.9276698909093549 0.9762614777299352 -0.3697917416747580 -1.040444775924303 
-0.2206518107108655 0.2952832672857217 -1.721083249175913 -0.5465548922935202 -0.6828308996679063 -2.391630338112543 -0.3402396737916151 0.01057176867071117 1.322262595232565 0.2307174536753563 0.2053835628289885 0.4509743923734109 
-1.206478485671742 -1.255143284415121 -2.193169301949884 -0.7827430339070843 -1.400332436403035 -1.368693364437590 -0.5170039332545922 0.6196045402971224 2.826436605745725 -0.3714393287069737 -0.08991328571821774 -0.6831249228646522 
-0.3951391400322152 0.3847787265042676 -0.1597585514068067 -0.2283357208570716 -0.4280382885350218 -0.8213145966112189 0.1934524702642800 0.2075992947192272 0.04114811998247286 -0.06588524850859898 -0.7583595140899042 -0.1024082629732999 
0.1702693252324593 0.5303422873075629 0.3888397937382966 0.3284996459494261 -0.3760376968758796 -0.2413831526229590 -0.1347754975829636 -0.5676504303895951 0.7395263653517281 -0.4519215452612618 -0.5751794358118530 -0.3121215908335505 
0.4532334517350772 0.2342881976601907 0.8571995444715297 0.1422926300832092 -0.5952986188638296 -0.1595255030107334 -0.04237230444221541 -0.8699174925612775 0.8982115042291130 -0.3149732263915012 -0.4247655953491106 -0.1630422445695871 
0.2947003237850454 1.031733062089771 0.1731211614955795 -0.2502006560656986 -0.2490011890211130 -0.2346820918177131 0.03606191137758337 -0.4672949074878924 0.2958858902582155 -0.8354947946271302 0.3907972874499933 -0.08320909611904820 
0.7232589516743478 0.2881070353207835 1.410927494783145 -0.1447062583620493 -0.09527769848218680 -0.4793341969355016 0.3430449144116215 -0.3807544253875384 -0.7481409617188813 0.09235931800253556 0.2913031245794688 -0.3759783098437040 
0.9663726245984982 0.4345542367034989 0.2998966004718343 -0.5254242708345404 0.07775494225787909 0.5218175480104389 0.1353845233194491 -0.6273561879138965 -0.6591797137129544 -0.08036644122230847 0.3901817911190518 0.4364273371400381 
-0.2383278126709317 -0.02759642994410157 0.6556587420994815 -0.1938040892701912 -0.4560006439518658 -0.5877801957203725 -0.005676864902301237 0.001667724360124356 -0.4678418263704344 0.5513952756546605 0.2397878308466349 0.5669244364389646 
-0.1673777847130064 0.1716859217000640 -0.1802323148312864 -0.3141253818822400 0.2866241709181088 0.2933595225335304 -0.1106209195600091 0.3881309009826906 -0.2203892186845280 0.1552286159573578 0.2226033156625218 0.8969624611692827 
0.4672530358835376 0.9897664316094116 -1.006588288139095 0.09664649780134657 0.006470665801976571 0.3242744655780980 0.05274600012716912 0.2542229155314381 0.4381974380449896 0.3240797402187698 0.5543002506141756 0.6735516290589226 
0.6335147217885134 -0.8626246742136309 0.7196379424752694 0.6447858178936177 0.2788355696301771 0.6216979927090986 0.02016591103156042 0.2614608350206428 0.1289857906437784 0.09730907160990368 0.1243983967505855 -0.5330677402619292 
-0.07103081796003818 -0.1697137546317105 -0.7249116682561406 -0.6893336336954816 0.03526631248219091 0.6280766271947176 0.3000988782039382 0.2371344725088027 0.1803088420103032 -0.06920016644284444 -0.6664697782567000 0.3047696741610991 
0.6430568608267407 0.5719820798404996 0.4188257035678158 -0.2247448652834134 0.4576958230031303 -0.1692829329993686 -0.2712571054051794 -0.01983343569454892 0.02607677100261261 0.2656382485326980 0.3640637308749682 0.5633706705554548 
0.4275677287719336 0.4059911099781273 -1.131351738138195 -0.08449416479132714 0.3587708461802424 0.08506099756449960 -0.2161023884579704 1.958215277161026 0.6570026828466685 0.7055824261949127 0.1406115778557828 -1.248225040609399 
0.1733795106686092 -0.5688838990392737 0.5097728275397723 0.7084638141185662 -0.4641407192372382 0.6472424286313633 -0.3020845570247796 -0.3178158354366896 -0.2099321074825814 -0.9264581327873248 -0.7054210303941301 -0.3467017893847000 
-0.1238582138412613 -0.2976794596142749 -0.7519956899575807 0.5083843284559902 0.2149928073885667 0.2215125361200830 0.2595393011612959 0.7723060193126547 -0.02975725601824997 -0.1327925906303503 0.02204467934440836 -0.4215341854342076 
0.2512011042055412 -0.02331059957903545 -0.8662163800572178 0.4605057283001365 0.05732879304285699 -0.5359106728419932 -0.1620284570830025 -0.4158372295280199 1.220391525830694 0.2363119089617256 0.1400687651657772 -0.3680053148213377 
0.6151249538663601 -0.3662046750279052 0.1855271644080014 -0.2550048562757065 -0.8487933518895492 -0.9633833090002379 0.3036120673308937 -1.215409604106113 1.034810689244517 -0.7116652753633372 -0.4190012219656780 0.02844874590083532 
0.4570057636487016 -0.001713983786231610 -0.1329285138912064 0.1248420145724135 0.4569007002182889 -0.08840106227979895 0.5821931348235517 0.5333521271383435 0.2854137830647536 0.4459520597385017 0.8502961008130597 0.7405447039129012 
0.04871884635650363 0.2845281206093255 -0.5073038573525677 -0.2363158050716577 0.1559114340380167 0.03060964107666837 0.4339695254276106 0.7241812034737183 -0.4256447195249317 0.4526287363081856 -0.06353792623227944 0.4760069599702739 
-0.2612300771293809 -0.08495399425045798 -0.3298659994353178 0.4315321112429288 -0.05760038020781933 0.08353948886005622 0.2496177731275493 -0.4314710532647772 -0.4513883500002293 -0.2909591883284166 -0.1748024302259079 0.9542509610808066 
-0.4678951589391494 0.04972963968617929 1.067541287879027 0.1148139871698135 -0.5978490080473768 0.3129715955641199 0.1285487378225289 0.2358537028112563 -0.4435660668039261 0.1696089823589180 -0.03012283414452321 -1.042730497878528 
0.4101269346114327 -0.2033109609929993 0.06217996973037671 -0.04366453201238110 -0.09394068864647825 0.3908223307427718 -0.5058270408754632 -0.1296450675584776 1.487511011361964 -0.06437133773951989 -0.05475405734256450 -0.2621526547875826 
-0.3947074182332835 0.5343755016782109 -0.3086707636568580 -0.1104760380291290 0.5001396679358219 0.05792535458032304 -0.1351898851523772 -0.9348445812704105 0.2797692728733202 0.4107653016704579 0.3005429481986944 -0.4408604984587388 
-0.1717568259899014 0.5423719999141918 -0.007525922262141715 0.08609356202516888 -0.1503061628457663 1.271692135844136 0.1853553123983255 0.6693576670048135 -1.153781625767300 -0.1099799056073011 0.4949328350447331 -0.8476241089026816 
0.7327391225271818 -0.2317657265157338 -0.4231801198408666 -0.6503527943370426 -0.1461311701380388 0.005100488108193718 0.09374137461058005 -1.240012509169344 0.1856842832285169 -0.2351800907634946 -0.2307517986434392 1.342194491239181 
0.3921131194306020 0.8924303859893374 -0.2458377672078149 -0.3808847658578772 0.1395246333310446 0.5294125358183814 0.1412948932644849 1.251164126244087 0.1983093874903790 0.7878053727112044 0.07531642124755462 -1.452196792048210 
-0.01903191812490150 0.5293372189832246 -0.3284251802108952 -0.1469917902816132 0.1044483279375564 -0.2165156681774782 -0.005706651020180933 0.5715424777581621 1.120225695824840 -0.06939779313531148 -0.5076873208299898 -0.3278440898560699 
0.4045793736951572 -0.2400133505038539 -0.2314817512667112 0.3610362608089670 -0.3184909760996311 0.02711451410346316 0.08718543127614309 -0.1358846448074307 -0.2912945142935141 0.7056491478180553 -0.3525978615926836 -0.2587060053317346 
0.2262588501426987 -0.5675441952691604 -0.6588833515969084 -0.5855391634718458 -0.1432581616767042 -0.6075718544392555 -0.1859687917851679 -0.4130118865382184 0.6584175890003906 -0.04013325290722443 -0.3114730096838831 -0.5632122698424322 
0.5923600809766966 -0.5469938173106325 -0.07084975303372890 -0.1156374844359335 0.1094801035259312 0.5093280984405502 0.01104438609671858 0.2310262537895170 -0.1516155259780928 0.3353513339379487 0.2522576269190237 0.5257910051521307 
-0.3230342457363017 0.2441272437776906 0.8736870486835239 -0.05741188019000916 -0.5612458533924265 -0.8992907249643296 0.01580803014434073 0.7775637662741673 -0.5182074087797992 -0.5359470790816085 0.02594286612019484 0.8772336623696702 
0.6677942604777590 0.1328881175853963 0.5013894084962605 -0.1495089421861816 -0.6051643949901070 -0.7019556795876366 -0.1868493332127008 -0.2782334705308306 0.3166129800578599 -0.2208654561332235 0.5300076371095269 -0.7480476213193317 
-0.3945429639228055 -0.7242877952895984 -0.3073070962454493 -0.4942393680151006 -0.4555683176836529 0.08108546986090165 0.3893054603496505 1.519852876391255 0.7783964109845727 -0.03482941506904452 -0.4461329569475190 -1.425239506406863 
0.1554398624813999 0.2865780146950139 -0.1914136428555326 0.1781364362820292 -0.04879835787542555 -1.160901177670849 0.2790601164451855 -0.3538149386132745 -0.03462426709189995 -0.08042623657409928 0.2363708218697606 0.07078532535428542 
0.1152478470051108 -0.3289485403682396 0.6811582849969412 -0.2660909032947275 0.1967608194821608 -0.1684596199458289 -0.2089008666083770 1.479809817111087 -1.028731070231129 -0.2765676857218343 0.4203159917732041 -0.8173776159484749 
-0.4437536020349838 0.2712132332077981 1.265367427892212 -0.3864929762989782 0.1549733444092746 -0.9471946274813837 0.3682266845695398 -0.4228858861524406 -0.3724413307484704 -0.2779073835510306 -0.7950098415589848 -0.8638623339526590 
-0.2941884678025735 -0.3656658039816967 -0.5622931142035279 -0.2313231613686053 0.3344620478062684 -0.9520814704098989 0.1542216533015433 -0.09432376511681710 0.5171439062755660 0.004222528286675423 -0.06768880216136257 0.3706994860118684 
-0.4438221034140232 -1.017073511653413 -0.6832575300663102 -0.3609010804600946 0.4340117410525425 -0.1796736377583560 -0.05436790655981642 1.325324580349013 0.2068929171742491 0.1563616402681985 -0.02762259712455552 -0.2219023957047263 
0.3393117930536845 0.6296256597753686 -0.1200119422186191 0.8745409025432639 0.2952381970588732 0.6110270985239080 0.1748512176818770 0.06030808219754356 0.03246581771590154 -0.1708022253068719 -0.02885839267167762 1.175000108308153 
-0.5160045075777814 0.2585185982380719 -0.4169535802269024 0.2755334595968008 -0.1709396416979805 -0.1824939882582783 0.1025096270895590 0.1928334172970536 0.3468034901246426 0.05577482224251538 0.2317689615930171 1.105855522128636 
0.6804518070380728 -0.2618611539156101 0.4487554035136459 0.4732683362789301 -0.2380700957186580 -0.2737501726046825 0.1593969130864937 -0.1088067933644507 -0.7451733962152468 -0.2187085090601985 0.2035351324661962 0.5449763498660206 
-0.7528613434135243 0.04765603041581602 1.845096119891558 0.09413125970390884 0.2012916905550450 0.2362246866093034 0.09851725249678525 0.7239418173516072 0.2123416055439397 -0.04556388293732996 -0.4280143419625339 -0.9265468116917592 
0.7113929079815939 -0.3036659201892169 -1.010970246738461 -0.5622549304106946 0.2370306724278768 -0.6150636921885718 -0.2114555070873838 1.108712051354142 -0.4208646069404264 0.8089635633855782 0.1969205239930717 -0.3720528604302702 
-0.2332503429928999 0.07183690669421576 1.104178929928733 0.5287216675508184 -0.005360047869310269 0.6544951079908227 -0.1520273842334849 -0.1167221956208743 0.1854713459345735 -0.2200390818755441 -0.1209973600859396 0.4254572992699381 
-0.3395520579845213 -0.2609932339359417 0.1872361406562224 -0.3992223477763463 -0.1034728034222503 -0.1519931299255818 -0.1345442175231792 -0.5826180916975770 0.6152002170521668 -0.2182125635741558 0.5481798982461755 -0.5318419710036113 
0.03366108465060066 -0.6178148350653556 0.09768445063606684 -0.5010745315029109 -0.5825167630630756 -0.6158254155898488 -0.006776325581199033 -0.1639105477576804 0.3205258207676681 0.1401404631446504 -0.5043476368725205 1.290914150575478 
0.2181161929458775 0.3656358105107186 -0.2251170180931511 -0.3342965363975991 -0.09481820371162884 -0.1853676062153166 -0.1260262987884534 -0.1933896588113880 -0.6906155616260125 -0.6522159047077700 0.2187863775615134 0.06013387985170236 
-0.4452766743365973 -0.5518431074278343 -1.349408139227690 -0.2049189895156758 0.1757707235707757 1.747529677354208 -0.1669550726612843 0.5550347150115180 -0.1957821948200762 0.2652268237106450 -0.3439538552614475 0.1501178526925410 
-0.9858570196035513 0.8399988197275715 0.8135166178473989 -0.6992296555310703 -0.004762964074843272 0.3975601361681561 0.2727666240757414 0.4870548822213523 -0.1309797700682532 0.2651217732415769 -0.02654301643170219 -0.04732526554248923 
0.9630787309494991 0.1275265870524285 -0.8767587156898200 -0.2871804061759450 -0.8895025586196040 -1.642778555653411 0.1826963551658016 1.280155689871300 0.2159386387558189 -0.4439517606685986 0.04023814946013644 -0.03917434096246558 
-0.2073561174639787 -0.3900531408500065 0.2595356304171597 -1.067952350693237 -0.3778729537872430 -0.1624162156888313 -0.3489498964871073 0.2243575108338326 -0.2119153146352654 -0.5597517415124249 -0.5315609402601262 0.3265615479386747 
0.04729638257693625 -0.09041192290138300 0.2485622050522071 0.1337968209410949 0.1186335231078371 -0.2850165871266948 -0.1813139524323120 0.7547414194170163 0.1862942840267649 -0.8231882975545267 -0.4328950450655646 -0.6453670614091300 
0.02260379033678163 0.5234476836997226 -0.7533221880046156 -0.2166985989332612 -0.02269795710740477 -0.3961476027067162 0.01370723293412449 0.6017503711778136 -0.5801197539754440 -0.3072410647574900 0.1611474256400390 0.1522698705277925 
0.1940769143725522 -0.1125863671793723 0.4831309525737217 -0.2999331454944035 -0.1855099201036709 0.5198883093121989 -0.3401690030099390 -0.5472168375002480 -0.5048613259378687 -0.06508785154141730 -0.2725278874447115 1.123187339804202 
0.01486394669885006 -0.5559396961098002 0.7825492997334244 -0.1166346718912084 0.1825583707998482 -0.6904871914816184 0.001175062136863418 -0.4468480476641142 0.5122977354305010 -0.1793122278179147 -0.01853157576090259 0.1202149012836718 
-0.2404266888659345 0.3581616522549264 -0.6681103484274260 0.1561613662493938 0.06591630771597815 0.2462886276144889 -0.2282542124800047 -0.2077413091957822 -0.4959893440326250 0.1266353114872438 -0.3307966318617424 0.8638513664020859 
-0.1352770519324314 -0.3421468250974536 1.553738459111347 0.5612888462465876 0.7881919782923295 0.4672007655215243 -0.3900933208536944 -1.019541986405991 -0.7418057449438594 0.5842463346782996 -0.1176600279331741 0.5072488602771510 
-0.1189502320361867 -0.5316857904224357 0.7578918197332971 0.1711092925497658 0.2020938562642022 -0.09725872790755966 -0.03941769514468830 0.02302054901639172 -0.5255796045348581 -0.1677405017691384 -0.2998166197521620 1.009964277150251 
0.8818454478434843 0.6836150692465550 0.1097470472431364 0.01874559686798492 -0.3667318025316261 0.6092785005210538 0.2211824859240875 0.3284839074470219 0.5565637298265446 -0.1505655113175913 0.4445657950246274 0.08388069480210558 
-0.3952229761423768 -1.449178491513895 0.1053514439215829 0.1959261429911775 0.3720089120970114 0.2591808903719902 0.2355322723053089 -0.2222665448881194 0.5727240858281213 -0.3328913821927753 0.4379873012991173 0.7214550263798336 
-0.8039181674883632 -0.3358539308541170 -0.8893141295812481 -0.3298250302765757 -0.5433420203903231 0.07712395410582246 -0.04910149170239862 1.456349549562807 0.9233937061457352 -0.2150067969381237 -0.2047146150769515 -0.5151725940260659 
-0.1842820550082510 0.004233804140316329 0.4576721461059661 0.02757231773966994 0.7371246678032043 0.5383783570058942 -0.3054265558648281 -0.1999342957613426 -0.8672464423169031 -0.3140286544148767 -0.4753803930697519 -0.2186446089941883 
-0.09751624170955743 -0.3734141173399906 0.9777634088649021 0.1838368607793301 0.005313434040031095 -0.1945834958007724 -0.1251011359098306 -0.7807035791314763 -0.1697859445685671 -0.3571543100684330 -0.3842518327630538 -0.3781729907953759 
0.008998361612022460 -0.3536880240325829 0.3495527900212189 -0.3105173888646876 0.1795938274002018 0.01021267009380170 -0.03452285743766600 -0.6790021540000999 -0.2496755985702243 0.08389618053223670 0.05176988779335569 -0.3388858547654449 
0.1959033240508643 -0.1264412962930529 -0.08720193429092521 0.4357758882198958 -0.8237168820467680 0.8771832473425665 -0.007983983226567314 0.01111083084291695 0.5218695159888606 -0.04750368333733545 0.2293539200337434 1.446028971879705 
0.7348325612086756 -0.2717127634358557 0.2311027576369113 0.1545432766297031 0.2779507247448106 1.334417469960948 -0.05423983813128526 -0.8052354718423902 -0.6373690040646005 0.3324365932136166 0.3445464899341647 0.08139580442125256 
0.2296041036582641 -0.9293070239289647 0.6111178663265628 -0.2004850771169058 0.3949656026028324 0.4116616322642599 0.06119662995214869 0.5641648692970535 0.2998754915454409 -0.04571653786376993 -0.4396998045305044 -0.9035836826387782 
-0.1443263577555211 0.6765573872409026 0.1572457560901207 -0.2531341321441722 0.04859538960216593 0.9729721073799622 0.3299213960126005 1.139128292411331 -0.4307521532781093 -0.2688066614877473 -0.1290366914304860 -0.7357199642786565 
-0.4771688778600740 -1.394237090980444 -1.359749943026017 -0.3740465356680115 -0.6841637978534605 -0.5757744613998389 -0.03099586415650963 0.6795069797067963 1.216644771057766 -0.1370506262502901 0.08380750895075426 1.432538962177469 
-0.1825657840675729 -0.2978433689606378 -0.8039460626305893 0.7238692491027653 -0.3239253367271114 0.5545642702760016 0.06964926129148215 -0.2340668986008437 1.013364217343773 -0.2130754491498769 -0.3334743553386914 0.2914502161724957 
0.5148051335808453 0.5647467752104816 -1.381403058500772 0.04627750702326159 0.2847900963865033 0.8355889567821748 0.04871950051676676 0.8287842532550320 0.8010977849652234 0.02891855786603072 -0.07832648304578374 0.6813897679010791 
0.1938534589857370 0.2610218656283884 0.6419208499666668 0.5480665592692805 -0.08447760895161108 0.5515980328141382 0.2573739041289592 -0.7068009989644406 -0.2209272178005486 0.05232434454985923 0.3586703311411034 0.5461290189619747 
0.5153286204198204 -0.009139518537043506 -1.085527480854655 0.3496097513783319 -0.08821926857926118 -0.3197768933276718 -0.1248925866462061 0.1661011877844875 0.3149881477977960 0.08331395668751357 -0.1195938720877574 0.3092459905746089 
0.1213209240725863 0.1799649167093551 1.042916684539806 -0.3192695303927993 -0.6261256202860704 0.3111326031557140 0.07776315995683859 -1.088811595948129 -0.08681512569840519 -0.3677022217678670 0.1786663898485327 -0.5994207333498504 
-0.6178497439994362 0.1443349136667540 -0.1270808148124397 0.1664968073537810 0.06711912855827395 -0.2647914613260874 -0.02205827164184860 0.7776460398841751 0.03655810108035984 0.5351251801899635 -0.8244766707626486 0.09591317938151792 
0.1502982397903072 0.4163224304743098 0.6159936517936857 -0.05143582927215680 0.04683220814240270 0.5447052497875601 -0.1611144016953779 -0.7916270402569476 -1.023025867858620 0.3771320881525703 -0.03816809615412387 0.3583721588434005 
0.08083160603189618 -0.4856023954546715 0.7355688688133933 -0.3197163737047284 0.3160029464794574 -0.5166348653526951 0.3211470085557693 0.4536934576457202 -0.8098911816588885 0.6372945730295377 0.08745411848241198 -0.5645357120712500 
0.9911126873798926 1.195374907401942 -0.2783111862878485 -0.06006885289127215 -0.08612076792534680 -0.06061498740161441 0.2454648778207485 0.3044065999435971 -0.8316056912812239 -0.1808026974411402 0.3118856638979546 0.1301503543636931 
-0.2570025759999601 0.04532095622840374 0.5263511822697255 -0.1575530670008404 0.2018202498196170 -0.05596420404147558 -0.4984680888981160 -0.1600088081654007 -0.7322085490243209 0.4163674684965725 -0.1404486092521415 -0.9908769911970543 
0.1107386771062250 0.5199029812695091 -1.188046814430201 -0.4815529687341494 -0.2391092948770749 -0.2573229484392272 -0.08432184149790342 1.053865690198767 0.1320020340868354 -0.4625448528756059 0.001681385111521112 -0.2201313478437697 
0.1332880469923896 0.3411524948485591 -0.6219722991980096 -0.07184504395991110 -0.1772808931846081 -0.4910331344587097 -0.05312972243737903 0.1661007130205744 0.4035737837472126 -0.4951431696140872 -0.5391429437172716 -0.6474298236038716 
-0.4629339146192465 0.3793753251168047 0.2242992748055702 -0.06092596228029770 0.2218927373546140 -1.100248247149843 0.5866746628761259 1.665618446537638 -0.09944882236097050 -0.4600969890485215 0.3180595111174454 -0.3007476935870211 
-0.8792277672647038 -0.3876360802047272 0.2317205805912523 -0.9937315049042721 -0.1055578338910316 0.06908149125561355 -0.2343482665576709 -0.3660100479319777 0.06881989114629836 -0.07768149176840672 0.4923951662852800 0.2778569617998328 
0.7218639834483824 0.7104873052034334 0.2015498632066256 -0.02718881040566408 0.4756790512269712 0.2251904691162030 0.3077227748907588 -0.1127558937494160 0.8799579094325704 -0.1403889481194765 -0.2036908247757806 -0.9128820390095247 
-0.5306687307373553 -0.5490667147676080 -1.154918818109066 0.2731996465856803 -0.5658508282756600 -0.8928133008870741 0.1061789480400373 0.5392414585427225 0.08334979806018067 -0.08414372376419123 -0.6670589096144446 0.6393921576927811 
0.07400283763715598 -0.4187506992124460 -0.7917216813690567 -0.5550513848980397 -0.04899183694788625 -0.1187715564826615 0.08937813777283352 0.6933939397263729 -0.003628632828397295 -0.04374289030120504 -0.1053555479597634 -0.9804068513557265 
-0.04374937895340725 0.9774036784208489 0.5215069225617320 -0.2573763337256494 0.09593987987140268 0.2663561700786835 0.09787253970651790 0.2243709854784518 0.1988280239773587 -0.3943661401247302 0.3213016566300672 -1.049173694542559 
0.2307915852238143 -0.1726795030004057 0.2904743754329223 -0.2628959930870146 0.1662011573129178 0.2143285541385810 0.2269615819005542 0.7651702505672424 -0.3428834295272262 -0.04798350084339512 0.07508092506174961 -0.03876389685109556 
-0.4237200917624307 -0.4559373944420453 -1.763523543831636 -0.04594219917036158 -0.09877570238090090 0.1532336910744670 0.009089972389999512 0.02528296165908317 0.4097619558694911 -0.3612880165859344 -0.2617614923938968 0.1377098431395564 
-0.5249667035700514 -0.2724808414686221 0.1192006067026122 0.1149245396912589 0.3677362086061342 1.185840733157510 0.2914373701748251 0.3328058559647120 0.3049475973029159 -0.2744192424414020 -0.3830092267903833 -0.2145195865536049 
0.5759938273724546 0.3847227035558455 -0.1434452329528107 0.2144411513324027 0.03539115222742344 0.1296550805211124 -0.03887361445134472 0.1600417507187393 -0.7176000161227367 -0.08698085820185134 0.4353096076792886 1.009408321974479 
0.1379773250348346 0.4575462290325459 1.281325941086250 -0.5657449210074996 0.1267542984504199 -0.6279765068288982 -0.0001794517919864822 -0.8070455552278863 -0.2520271726934454 0.4151284634144160 0.3923770158893219 0.07886441314448839 
0.2070365227535375 0.1670791521743777 1.165707566183108 -0.5928826035194384 -0.3155314066690353 0.01014390681642303 -0.1283064372412024 -0.9984570518360352 -0.3168958570155354 -0.3119519093810139 -0.002682561236596555 -0.5359781023657721 
-0.1196661371226396 -0.5218663886225021 0.2679173699859054 -0.3917834092175914 -0.1732878957617789 0.1551183159368367 0.2209064632056426 -0.4578330823025411 0.2355176206737674 -0.3598849108043645 -0.2031847982128513 -0.2233705491585760 
-0.6740594667461303 -0.05263699760999545 -0.3703120464530308 0.8137950952625322 0.08360853155467386 -0.1309969037250155 -0.3786205282453788 0.3166991565792026 1.135603685562997 0.1629938666168694 0.1719610389833123 -0.3468409867151791 
0.3347585263448423 0.1021496637513740 0.2785967151779611 0.3221796207787627 -0.04852885872578330 -0.3360662262212218 0.3030733582621882 -1.382421598101107 -0.1839469148354093 0.01363535540609527 -0.2400335044916718 1.543180747574993 
0.5807919586043582 -0.02075816295736254 -0.6952138817667067 -0.4628421408244129 0.1610361864568962 -0.5012256653110517 -0.3107035881634949 -0.4078516101849989 0.2344772569526170 -0.2336275113336571 -0.5842130138302121 1.069966588300105 
-0.2848272842256635 -0.8840389703420661 0.007828480760261929 -0.2784599101485980 0.4255586876140430 0.7987547833845748 -0.05450771704295597 0.07193103837705588 0.1320547885530158 0.4867068027277675 0.1114803855189699 -1.044912319001679 
-0.5428629431919744 0.1261632792113045 0.5626051215465374 -0.02170363579731931 -0.1350833979113146 -0.8478623959341908 0.02790426504422651 0.3111575977700954 0.3581138884162186 0.1677972305781303 0.4755411914790508 -0.8977684204851217 
-0.4979717968680788 1.012643052179858 0.1769566501971261 -0.4880431138824404 -0.1813787367651224 -0.9007270584243840 0.1174333115475666 -0.04364920856794970 0.6675007329231900 0.05956496519175231 -0.05722318354629474 -0.9186115544826365 
-0.2277798037169725 -0.3996463716823893 -0.1796176650930622 0.1459549922758501 -0.09139705405017935 0.8592901968599770 -0.4190697987090225 0.08022003917426485 0.2631535720724081 0.1589364342296992 0.4496207793932749 0.3931043810497912 
0.6394011312739340 1.314778839487311 0.2208832318322094 0.8019484238294625 -0.3630749824553369 0.2392877569932825 0.4626658234613019 -0.2008050251898614 -0.2520743770475100 -0.1090817999403878 -0.08707947022472370 -1.749297761194184 
0.2576741181183385 0.3368889336508348 -0.2831504793271389 0.007852208556243918 -0.4801159860152683 -0.9766359820041719 0.4009047309052788 0.2147354892391781 0.1056044167076519 0.09901801530591359 0.1030498989671039 -0.6683032538424669 
0.1140989446625373 1.044099679243339 -0.3375942529179856 -0.04630157725146522 0.1186315687977097 0.5267250901786754 0.4866413562282069 -0.5876912818992934 -0.3623842805941574 -0.1011649611666821 0.6899681701344499 -0.5753595544581350 
0.4512230890353868 -0.02135390993746987 1.304615080262886 -0.3186861180827909 -0.1968073244959218 0.1190238249458426 0.2217645357718337 0.1531505522044742 -0.3833027302016390 -0.6444119217053934 -0.1000437314664716 -0.0009236934755857407 
-0.02926655020359799 0.4604256951186108 -1.200476503888468 -0.1513569161589314 0.5708085088672215 0.4523487118242235 -0.5564184624344788 0.7356381569612274 0.3317058487856064 -0.1007172619398467 0.7636849472174119 -0.3720667223180655 
0.1668532200525948 0.3676305053545260 1.099025610169546 -0.2651838114450471 0.09045388252848845 0.4101358507946685 0.1532171524833335 -0.001281427839431082 -0.7121309976068644 0.4031812779379741 0.5338431630014566 -1.160531907243932 
0.8866906575478865 -0.2119846429261784 0.7096453228161526 -0.9116924794011033 0.5711743530871253 0.5370228575846382 -0.02766372575703474 -0.4955162409840716 -0.5419652476033797 0.5446684781178244 -0.4135415394241120 0.5774336043119814 
-0.2047306527902583 1.127373950264731 0.9623766869988601 -0.2077006310297483 0.1487590493899457 -0.05395455574295154 0.2431897069781075 -1.278903243714664 -0.4408273496711223 0.5005129594187095 0.2131986741817036 0.09380946974769560 
-0.04164609216970441 0.4505252953359074 0.3151564901113236 -0.2176747447140987 0.06106695649190461 -0.2118536644024055 0.1773866069022174 -0.2588422170256610 0.2599348155238960 -0.08154157627033455 -0.2104635587033814 1.068870125992309 
-0.2317884333584940 -0.8514543374323142 0.05886351297180292 0.1088063142751292 0.5283016785072134 0.4852649521526550 -0.01189730961194449 0.08204826713745908 -0.3780242912579032 0.06452668133238011 0.1423744447020704 0.2857892157210784 
0.5906728109226262 -0.1598365084779995 -0.3468112757960611 0.05525510140022670 -0.2773610634874532 -0.006742560683162119 0.5115182108337603 -0.1210735635673888 0.7026849396313049 -0.1311870562897021 -0.2820888939996658 0.4783205191017593 
0.2239196163438817 0.7867611551634667 0.05342729701002369 -0.2443970143692399 -0.4997916332709072 0.3866167967173537 0.06461690689161742 -0.09032543132240278 1.001562178388414 0.5807106036061240 -0.03034521950332353 -0.9012136330956744 
0.4469994243255790 -0.4152547564247359 -0.3463576061458383 0.2077475710770107 -0.1561983062960462 -0.2200205501450281 0.2101503824607284 0.2881191697642029 -0.1453579733206239 -0.3034264060478042 0.1844449503613735 -0.2866524084810109 
-0.1409085696857403 -0.1394787053257582 -0.3294507246447048 -0.9052288324778469 0.1588007925779205 -0.2130650076804850 -0.2392449202729463 0.2098739502764276 1.086054600400011 -0.2742041044920381 -0.02331917684770935 -0.04200904631833001 
0.2308770976614760 -0.2118905799891723 0.09436634326638675 0.7451808601964590 0.3129444285744789 -0.1526908627197255 0.4117323527912610 -0.5173282517325457 1.847514470536530 0.5616429902964535 0.5423373498781096 -1.661558151769232 
0.02692551619222836 0.5208776193773610 -1.012918653834813 -0.1769237907052455 0.06797154451287228 -0.4862583915732579 -0.001689667821549071 1.239273786973179 0.7223315372250748 -0.4245365699699188 0.05086758610450758 -0.3633196442420114 
0.3422837850773602 -1.586317447059793 -0.1420276129922148 -0.1117449013442161 0.8410973061281414 0.4142220461143961 0.4484085359067454 0.1128620954711229 -0.01312211554857896 0.1446026556638996 0.4726377674100883 -0.03610416599721548 
0.4157378275413733 -1.159353248147665 0.7793570346922368 0.6096849565193648 0.4431055587898439 0.3103794374307968 0.5318480948438434 0.3796798287312045 0.04755793580609727 -0.1613354756443464 0.01681459134558350 0.04982715936312730 
-0.2365225915831315 0.3936470425375116 0.5365719157308760 0.1562472777240225 0.1644874854694048 -0.3854563550413545 0.6030728648923732 -0.4671058553113138 -0.7947768821683620 -0.02058108529622194 0.5817658275769403 0.9860574284201243 
-0.2103614474035722 -0.2091736515175148 0.5454571080485053 -0.2508039223252564 -0.4374388844163118 0.3975732448064260 0.5880693513619384 0.6486680377410149 -0.3375173510021136 -0.1194761998709186 0.2024491635378586 -0.3574163566145315 
0.2016505255239915 0.5936120556888643 -0.4569249060622090 0.5351633178379839 -0.3752367457319420 -0.7470780253382469 -0.1533536232425004 0.07224247071501749 0.2048443561142835 0.3759946247814539 -0.03665273983590404 0.2552768514698033 
-0.3855562283095260 1.535955491596503 -1.003983174736398 0.3048721906160310 0.3031112604160056 0.5159591323166769 -0.1272775925644130 -0.3018688749321518 -0.1955166599818866 -0.02970602528875400 0.1478981014570889 0.09063190641205013 
0.1464209058254491 0.7464088654554725 -0.008954063911859073 -0.3846357845777373 0.3213967063105492 -0.5523553430772459 0.3833962972827700 0.3188763690567365 -0.2129563700809685 0.01098400779922188 0.3619334816685560 0.7189618945080971 
0.04083486187643322 1.408887249082399 0.4483189035582567 -0.07880034205405761 -0.3461731944745367 0.05269304614788632 0.2044906186601226 -0.2882372952981432 -0.5352938882344938 -0.1529763003821214 0.1434263342197760 0.4991026596207084 
-0.2620459570552522 -0.3686094021840606 -0.3301659031040325 0.2407655882768496 0.4264618119438297 0.9752572288300816 -0.01559071785349458 1.017877593217098 0.6120679453261227 0.7855788293218893 -0.3157137682746719 -0.1434356078731752 
0.4596837177215071 0.2970887476297127 -0.8791216207182575 0.5094283924640675 0.4157878153241464 0.1917382605803198 0.009132030769667704 0.1452173125444756 1.025310904169190 -0.009262997262737657 0.1650645345526066 -0.4363506133981278 
