solver_type L2R_LR
nr_class 19
label 0 1 2 3 4 5 6 7 8 9 10 11 12 13 14 15 16 17 18
nr_feature 564
bias 0.000000000000000
w
0.3945708151628869 -0.3816389347850605 1.819962829899871 0.4490002028274909 0.1931931070737545 1.569117933948037 0.7001624714074170 0.6693706411122518 0.6805621341851080 1.159271071206466 0.03232457796871951 -1.553541223664200 0.9548880985706145 1.425749527265309 1.161195435167971 -0.6454965373398484 0.9240267593293081 0.2017327759634502 1.403762380964875 
0.02904502235228844 0.4114719556942521 -0.3113219085389056 -0.1701008264114360 -0.2283720245571080 0.3651538040822055 -0.02459533898831332 -0.3366416400444764 -0.3379184265617569 0.06439079519665816 -0.7411491165519630 0.4803938660039332 0.9029821708184315 0.07610023832060550 0.8643141694900697 -0.09939212675867616 -0.6813871573405507 -1.769506412910593 -0.02449529027253314 
-0.2541018638017080 0.3239220233585939 -0.5498629534273590 0.8346703394628158 0.2989007073272346 2.414101598958416 -0.1787571443739572 0.6132368055008425 0.3680699350679632 -1.045284165308570 0.5150745693548213 -0.3997410963868371 0.6539310274049058 1.114497014963644 -0.5974935079833777 -0.3719439176082555 0.002095497327751578 0.04589659579943432 0.2155732770488335 
-0.1818759249975876 -1.496044868216321 0.1767294338409291 0.7111537691836457 -0.7491265850980914 -0.3356295708956140 -0.4564337039019640 0.3928768887357731 -0.2073176790823370 -0.9592617536798331 -0.9561581887340177 -0.03393129820712652 -0.1699390010833836 1.011702283743266 -0.1311648306087885 -0.6773571113961971 -1.884120579098528 0.003441596522298925 -0.9894465425937460 
-0.8661029357837858 0.8769269711352272 -0.9008320382221862 -0.5458984322693212 0.09570722246987991 0.7552178670251616 0.4856253664577874 0.01390142357280577 -0.4679500178560001 -1.764998258619907 0.4684870197827600 0.4839874859662866 0.3379056334074991 -1.099159723572350 0.1295273065006317 -0.5043074695906535 -0.5071367933795302 -0.6044881931989519 -0.6347755147604021 
-1.083297894723735 0.09325840143748660 -0.02323449935153027 -0.01288146824803131 -0.6885829397583402 0.6337343253616621 0.5670766603262098 -0.3189413062042793 0.2506513091186421 -1.099882193061900 -0.1231473901707766 1.062807598060574 -0.1913583222299636 -0.4234167121522172 -0.7351012100114377 0.2448733854291152 -0.6167148839343692 -0.7023555904435149 0.3143129048009933 
1.034057774578642 0.6588107576072529 1.219390830303674 0.2343026946143279 0.6137520424123986 0.4229359768137025 0.02677973486855114 0.4561300876694850 0.1525209169338554 0.5373400913364182 -0.06573616424631715 1.731859099048333 0.009274073231890070 1.231511679890396 0.5432006746923725 -0.1271188555033455 -0.1854235935733640 -0.2113135186839976 -0.5908008030689420 
-1.056093018158739 -0.1938942604594873 0.9429661747466570 0.2363637182302563 -0.9371786754343776 -0.1826898162437426 0.8719450892219818 -1.261992955478100 0.4101482400815583 -0.1814213581880242 1.269461193535018 0.01447720689440180 -1.807504955441846 0.2676846224947085 -0.2484501110002753 0.07522896718828388 -0.03190263510619024 0.6824215597368489 -1.181843583818794 
-0.02740122805727374 0.7849399444590838 2.566664045757210 0.1886051472503596 0.9796016070522086 -0.3952078127290409 -0.3930505032312672 0.7173196021618922 0.4338372471669110 0.2619019708587999 2.236596116544593 0.4764333501813374 0.5156969306988083 -0.3221697253319847 -0.1680140779617442 0.6343107094920463 -0.7238968804410009 -0.8377682873532295 -0.2830937967377143 
-0.7655826718189592 0.5735339093275855 0.2648342609412128 0.4420212141381376 -0.3824485541398687 -0.5856543212855199 0.3424970490764904 -0.1784840184026719 0.1499508311470897 0.1771965840699452 -0.7462765025992741 -0.2430793909968142 1.099214202376362 -0.2648449872768278 0.01521288314232831 0.2268740152303548 -0.2245246642125968 0.1689983264592758 0.007558888004972827 
-0.4072916854540946 0.007080380576682054 0.4422183328755602 0.3035881637260231 -0.5410021340034937 -1.966749257356869 0.002923980887542837 -0.1178176777471242 0.3095900185064573 1.287880634877246 0.2972697763795495 0.1470412073534312 -1.557500968602653 0.1772682066519148 -0.01796905870841488 0.1437857432875758 0.5952196229957281 0.3683814838070050 0.2941032938354337 
-0.03337128179191822 0.04977487523421408 0.4095210980528239 0.3126058121452945 -0.2521297522419926 -1.240731466601625 -0.5435452598002406 1.000103235058595 -0.8946766203758770 -0.1147491006951188 -1.267181285512261 -0.9385318934243398 0.9705906718610163 0.4344092576972037 0.1931437781631266 -1.905340385061301 -0.1416818402313020 0.1732912810635953 0.5861941589678130 
0.3589899552640308 1.002626630182702 1.281787480028968 0.7210591558297705 1.831776373193618 1.490383173677101 0.5999732646569894 0.1933891077158449 0.1591267939250750 -0.3758966204974599 -1.231439006532574 1.200818419245551 -0.2555405714831011 0.3210516972455162 0.2944332639119520 0.1093441767613040 1.184181922484149 1.046179832883784 0.7893860389239054 
-0.04120173749834661 -1.113939039984952 -0.9179132482099917 -0.5756744677326737 -0.4136770835821572 -0.01662996076007323 -1.122556690793521 -0.5423745355988020 -0.2528806792370585 0.4551816111120322 -1.233536467547479 0.5563512482512224 1.525097616337024 -0.6982550449966238 0.4288646274969691 0.2386041488448200 -0.9636441608506601 -1.506053315530944 -0.03141398610258264 
-0.004177537118788537 0.7755307686342318 -0.6967864234843623 -0.8921841091358774 -0.6338188949610645 0.2217900874959139 0.2183961785577709 -0.8045334044615617 0.5629627571700480 -1.539123355869939 -1.666180955965358 -0.1422071104636714 -1.631087133472805 -0.01606452225233233 -0.6085382113203234 -0.4223846563238769 -1.194038394133033 -0.1958869450083160 -1.352524363663791 
2.408437730307119 0.5594493354284863 0.4264743068811498 -0.1921156343025308 -0.1597474021769890 0.8829748530331121 -1.015816256769655 -0.7233225328854261 -0.07724652616855557 -0.2265663394982641 -0.4751159655713362 -0.9411660980702284 0.006734266635196645 -1.171752045335327 0.4375330927354925 0.3349194383170208 0.4658951704345912 -0.5920658385880802 0.9296748979337424 
-0.5347223918266351 -0.4660074495986096 -0.07545074885491027 0.3918459090866366 -0.5868368310388443 -1.556618058895192 0.2053812503346187 -0.5021065224362872 -0.6116243322322336 0.4479722146578449 -0.8708664702345971 -0.8044696188937601 -0.6548999369536548 0.2015422248766590 0.3220835656761739 0.6269015978593385 0.9518128674199512 -1.073240535625702 0.3952639858397344 
-1.215346426743555 -0.1225482488752106 -0.4043420989945096 -0.3652004598332878 -0.005339587616381286 -0.3427151353483289 0.2831842127010120 -0.3066666048201984 0.1356308757620227 -0.6131224121855394 -0.4327568956317449 -0.9094403594028300 -0.07974005027826159 1.015008563389520 -0.1117071796997097 0.1557141824318788 0.4108223004114319 1.194414996600268 0.1880078436971491 
0.3851094744216254 -0.6665809512948246 -1.746003684742405 -0.3486064223702631 -0.3620265845293278 -1.810322235566069 -0.09772489532627132 -0.4478854286487417 -0.7466837413597058 -0.8168983196173967 0.8383134218349194 -0.1873780248457074 -0.1364753782135910 0.7894657492523500 0.6894694560156468 -0.4424462322568485 0.2084414270538739 0.2313756783668332 -0.004165448709457228 
0.4759205034663583 0.2779600492876830 0.3580823926533653 0.3052175236365161 0.02303339061641299 1.033777121538988 0.4311780766352132 -0.09909791382337854 -0.5484401135536905 1.078194837871520 -0.001293003702416182 0.6716799177749123 1.229932416804418 0.3991729143501495 -0.2878514097345207 -1.015396941385400 -0.1697136048941006 -0.5827880265532985 -0.04322866483942364 
-0.7195104631045707 0.1306775973188211 -1.046726571641485 0.7394864048635450 0.6728017668868667 0.5640278237486960 0.003558867942528129 0.8177425608072384 0.1111223812480241 0.3166582007151726 1.376009619459767 -0.8575373998429648 0.8971120621521662 0.1402564488631316 -0.1478206704102654 0.4232148808703764 0.07098391310471193 -1.027208343151718 0.4142496512702816 
0.9425365668804235 0.9427555503539119 2.509938853299375 0.6447507715795298 1.220237024498098 2.877732568481106 -0.5635155915592321 1.006788557249613 0.5347176792463906 -0.2365097352514053 1.482753974813168 -0.8652995993036454 -0.5259899020126626 -0.1678616457165421 -1.446619697805212 0.4833806068766706 1.671362447278102 -0.7982562794956484 0.3004128844909246 
0.4334670364796537 -0.1051935641949348 -0.5055456633704010 -0.1155777895412178 0.4462541725735763 -0.2400302688399200 -0.4109788284483368 0.9548452863436339 -0.1528606208842036 -0.5972834728201700 -0.9452834593816898 0.1008898063381828 -1.079333381233391 -0.8323658191394323 -1.176172528031911 -0.2017444373579744 -0.03157112142392009 1.105629860346435 0.1548388078320359 
1.392075732503462 0.5771729587798765 1.443124586373826 0.7570555558585864 1.583806748550528 1.992723351993083 0.8265349088348131 0.4346781289810197 0.6551607148715268 0.3331031859036437 -0.4601692045134768 0.9690403860366599 -0.4359767671517302 1.586367695455659 0.7356504120293995 0.2037665420336880 0.1367891228988666 -1.520176035473045 0.7412760346521843 
-0.1778358345689627 -0.3723235832888131 -1.286747842657392 -0.1563097373648628 0.9465645844096036 -0.4242137912433952 -1.179659158022135 -0.1166729307610085 -0.2965463769279034 0.2452970302840006 -0.3362289366781430 -0.8103025495863037 -0.2650341784608203 0.05399304069697252 0.3001097690934171 0.5465687045714047 0.2141917553884974 0.2038718278577603 -1.595189251258504 
-0.6623306446197220 0.1115891293226380 1.552677845397596 0.4765862022953509 -0.6960172386723369 0.7992521105001745 1.093046018842592 0.7852467409372007 0.2628416989587222 1.455530409377404 0.4635611327100462 0.1615472508622160 0.05700589002775221 -0.8481369626701591 0.9530522099433507 0.2897693856277299 -0.7693051369781052 -0.2603141042235628 0.2547989297646843 
2.200211662285490 1.381411346203893 0.2927672081538614 -0.3345268202661679 0.3038009197056752 0.8168451923992215 -0.2548512294308778 -0.1350141716460389 -0.2104975682463867 0.05375373728098286 0.4920184511025769 -0.1080715578501240 -0.5682473772411056 -0.7718927534009122 0.7611046212928300 0.4783496628552261 -0.6832875841093666 -0.8645273713507758 0.2559839397955558 
-2.100318469771986 -0.1783395638356760 -0.9221704286232897 -0.2193691555271249 -0.5340973750284315 -1.266525570821053 0.5446264234411945 -0.3927173887040917 0.2964845135492510 -0.2392409599519862 -0.2223025310592389 -1.140100612134980 -1.067328028115733 0.03667404499169831 -0.01128408359627662 -0.8878897437705062 -0.6531867946313465 0.8434138129981783 -1.009679865023079 
0.08919786836437921 0.1233582872828741 1.475760733946733 -0.1390028389801952 -0.5533727710797228 -0.03297458822678195 2.031428386189571 -0.4933914016877294 -0.4391046660462085 -0.9074220855161702 -0.3590631670566812 -0.4022189162849826 1.439869316833791 1.195478039268456 0.2113628707928073 -1.156273033114216 0.8385447041623784 -1.604247307295626 -0.6100425493964248 
-0.2367209276240585 0.8955708697387871 0.7722368892664412 0.09956573837936615 0.7880604416752783 0.6253373601416103 -0.3705001487274173 0.2461850938406034 -0.5005715125022687 0.04311195692930234 -0.1282447829685624 -0.8788714525475071 1.674167882187501 1.232034720190925 0.4442638563140832 2.215747669918119 0.1003001789705366 -2.485980195427892 -0.1049208544065031 
-0.05217760356986612 -0.4791493591248726 0.07851980471779622 -0.2347942562552866 -0.1138757942545964 -1.213344764156471 -0.7390593719245868 -0.7092115818208867 0.1201230368222145 -0.5836064360938017 0.8513137627720572 -0.4856035665537172 -0.7433166241360653 -1.175299399238944 0.001352075286975077 -0.9518029229561749 0.7615134793175635 1.209870048756728 0.3300072520650396 
-0.09112625260116480 -0.06780589988422978 -0.4102939094397495 0.3410832973528709 -0.2042499508645014 0.7175074523203333 -0.09456956637423798 -0.7061839637370947 -0.5542699685611359 0.6869410020904941 0.08445122311394820 -0.4244335942183462 0.4172371067425517 -0.6327960051924741 -0.1810499480424572 0.6746823241612040 1.154207836569533 -0.8610457833148506 -0.6278973448564467 
0.1018477782625095 0.5734737865960464 0.1136641477652349 0.1627032434807417 0.7949194115890134 -0.4948735328999396 -0.3477685116313855 -0.006216193185145331 -0.1879681223916472 0.09307188275226734 1.149382328207844 -0.4094667107617901 -1.048807988088564 0.5462371496206856 0.6884872311746526 0.06830169621659304 1.704021724589790 0.4842410508325840 0.3150968702146201 
0.7859031679557693 -1.133245531386765 -0.4162095519364141 0.8020518938130593 -0.3738912909267084 1.229694864951535 -1.106870537097871 0.01570396428869790 0.02088118031716431 0.1317025464927252 -0.5237442587175509 1.987200498023956 -1.711562844278786 1.769485396166542 0.1271289469667545 -0.2445993857640920 0.1321803550458849 -1.359695031549458 -0.3015920655103062 
0.7543724833954758 0.8209640034536023 0.3330306159328109 -0.03324226662763910 0.9186446377669554 0.3132745290717806 0.8611654638190336 -0.1987801325681380 0.7468007924133861 -0.3194733569406389 1.286285211643751 2.650596059767442 2.342586290753291 0.3370448942189578 0.6764285458060650 0.1233852967989262 -0.7698402903667250 -0.5280033623894054 0.3664503929109834 
0.3668590415592400 -0.5400383350174600 -0.2322818626612997 -1.012476073422150 0.03988575819696774 -1.215828195513660 -1.806542892951582 -0.7985377825696589 0.09981634931911780 -1.567458736275300 -1.161572881242635 -1.145586658046411 -0.3473695138886083 -0.2072373886353111 -1.228591796754818 -0.8966328428533189 -0.8103366818399765 0.5034491629756275 -1.233437235743481 
0.4582463605062666 0.8843001973846598 0.4244320317692588 -0.2191452699230189 0.1391921255201937 -0.4346819284229206 0.7699631611508077 -0.5952019666943349 -0.1860787496116532 -0.02236030495494278 1.268800910883542 -0.4106564387618321 0.2637430142350577 -0.3111206729832465 -0.3247041905640595 -1.472225406602971 -1.354656433708533 0.1897832707076182 0.009691236130955350 
1.699939590884869 0.9209054707304655 1.761804964573700 -0.1299400498884033 0.07472895974444785 0.7757282132402876 -0.9528533428210507 0.2752321528079409 -0.3967535967958020 0.8821481978651019 -0.7098425291643029 -1.887320664101032 -0.3590667210822807 0.8199534170358804 -0.2244066622104628 0.1188678106386804 0.2514908559687884 0.2825676920651610 -0.1056582939078499 
-0.06009737012233558 1.208991958643688 2.097969863924337 2.315414487897689 1.044409379712739 2.881960341840574 1.232141774445792 0.8613122394798564 0.4744506703377739 1.272085661835775 1.671108867027753 -2.566906716755613 0.1988500372450778 1.050784106652214 0.7174054008244435 -0.03718932552580362 1.961105353275093 -0.3269530932861569 -0.4021227824749116 
0.2566699189220514 -0.8406229648530601 1.059519654924535 0.6095410041490930 -0.04923907807394374 0.6716143378428516 0.02214272925078551 0.6484915146473660 0.5357324957666518 0.2663211031521783 1.415978856357520 -0.3860480087880591 0.8209362077007478 0.5607161128515572 -0.1062245827569019 -0.2156792586471126 1.844042581805973 -0.8797344002236169 0.05152613885657466 
-0.6641776291250061 0.3206702110532854 0.06056741606241921 -0.01706934643051567 0.1997014303105471 1.585890001666874 -0.05726693034411132 1.324405732158860 0.1911440446878318 1.439502536134232 -0.2644306306921467 0.8409634150272898 -0.6134187876993061 0.9125328042798720 -0.2296972370203061 -1.273652353979380 1.565285776425869 0.1884776833190459 0.2302199042320993 
0.4474063183005435 0.4622681058768464 1.657361716105096 -0.3830192261673307 0.5042159784435887 -0.7056654872627250 1.149646787181304 -0.3826105657733295 -0.4420528243964564 0.5804526791827560 -1.177720027567569 -0.2785877777640519 -0.5127019649737857 0.3307909596500947 -0.8738604765872677 -0.7525099112144923 -1.827733788961128 -0.6168084939986428 -0.3431238210113941 
-0.2346335965094279 0.2334107957175546 1.376340896910245 -0.02737856159437304 -0.6487742297509917 -0.3112314456007329 0.7909016394707110 -0.3281916942907673 -0.2172110380922241 -0.3098076351095327 0.2367499970692216 0.8655973500957227 -0.6277451270960921 -0.1644880673850657 -0.6309878890114020 -0.01659909155154785 -1.387245453660879 -0.5693719741902528 -0.1951280304405976 
1.332813758596006 0.7666182077389725 0.6366033534687779 0.8422125633005164 -0.03733646035584599 2.532286592195831 1.859193844149432 0.1176656574874582 0.3299862614634568 0.9133621414749280 0.1086778267149481 1.134925726036524 1.641934530241202 1.981176229847687 -0.1957725541837117 0.8945211027479167 0.2304881995744920 -1.082767678731130 -0.3984058989952488 
0.4518768015431843 0.2410937072445035 -2.374654378467985 -0.06816300239270184 -0.3421640303157170 -0.9824964145659679 0.2105507992640240 -0.7867492158502830 0.1676380609338706 -1.620604029552129 -0.01097892398312888 -0.7112121725996186 -0.8747104586775682 0.1788822113974096 -0.1795701052197124 -0.6818796654488388 -0.7550788406572730 0.4866963341814636 0.9416645466535967 
-0.6349991132692352 -0.2497257216476095 0.04583497613079503 -0.3077860535022654 -0.4341643577690078 -1.191809719978078 -0.6595435362711783 -0.4356912361128266 0.3278249030865755 0.3920231509001001 -1.026813210170367 0.1150448310924743 -0.02180942305314938 -1.055519558223084 -0.7374750421942260 -0.4607458109306641 0.7958274667558451 0.6307821678401971 -0.9246291811303222 
-0.9430911107217764 0.7484547657627287 0.7476121100403370 -0.3512343161419517 0.4808538999168781 -2.212773530023221 -0.1143305087384246 0.2786093950358067 0.07830780663696132 -0.4475970923422015 -0.3912913273300756 0.4204424900047104 1.280685643664135 -0.2574330008225161 0.1122145824464031 -0.3490032778978704 0.8029853521622596 0.7107030311173492 0.2304359504978357 
0.1910293148654533 0.7067105909072933 -1.518576578329713 -0.2407782812127050 1.151824501212389 0.1342079270460254 -1.103269711968982 0.2631022418477760 0.4378454835937179 -0.5003966358839361 0.8356811563762018 1.109565366779869 1.658515068391633 -0.4463344929954380 0.1141712076242962 -0.04222280619415293 -0.3769481656901706 0.07441214372484205 0.2355989230628225 
-0.3327159767674992 -0.08154089587255277 -0.9358930569039774 -0.4938839364386029 0.5026451285971857 0.6418164271138674 -1.560893207556972 0.1442166096939913 -0.3902007474795212 -0.1501909082436102 -0.1772997988965930 -0.7899063437104978 -1.439943239949850 -0.3342631555635368 -0.5983975164598114 -0.8752108253753632 -0.1737883524911636 -0.2807158947040331 0.09192075787324941 
-0.7652426250100774 -0.3541403067503147 -0.9665577301147958 0.3115107145512863 0.5458519830221074 1.100471505481155 -0.1384712438957587 1.379589812316348 0.4437547321693240 -0.03478523876178921 0.2640080285468793 -0.8560114917054353 0.2747551353273400 0.1897073661555073 -0.4684268089412650 0.8928212560026201 -0.8846683811285996 0.3073472432158133 -0.2456553878989066 
-1.452273797217675 0.2389701762081663 -0.3910637131594521 -0.5763228807024903 -1.443558210362104 -0.8657098486165393 -0.6973340915185996 -0.6938160476314001 -0.3544937855264898 -1.224524776996496 -0.8959227453831532 -0.8189678913069199 -1.919271501648661 -0.3170102679265228 -0.6914096387154857 -1.384892632983124 0.2589574003896040 -0.9472483024015544 -0.7990780892387593 
0.5368057775228652 -0.7986623548976288 -1.816096294742125 0.007177741393797760 -1.345733211922243 1.193771517704604 0.2401783268633976 -0.04064067078427843 -0.3378964317293551 -0.2142946721737322 -0.6455051153283392 -1.155746798756116 -0.6731879081652395 -0.5315542312931151 0.01438521174351428 -1.365245146487682 -0.5782066470476622 -0.2602752301140563 -0.1716332266239378 
-1.173497925210430 0.5492128671806750 0.3630716985867727 -1.136160170577337 0.3080253823137800 -0.5520672008778987 -0.1567783584178251 -0.3145296563217593 -0.6144645924899663 -0.1559889158015979 -1.351247932609969 -0.4164279404667488 0.3969415923350266 -0.003572648680337416 0.06595977285428030 -0.1012163104411903 0.4748609837184032 -1.263979331293766 1.707470104151935 
-0.02034599072800285 0.02888237478285974 0.3176854822061098 -0.4093635435035958 0.5880148087372956 0.2545272530711488 -0.4743020268996486 0.04489077775757665 0.1237777115788740 0.7898187163400804 -0.2252199532901502 -0.8614120948847617 -2.499581150217903 0.6963170783605791 -0.3639399079017818 -0.08093114302084335 0.1072994598510540 -0.9631615342145607 -0.3588742837510612 
0.4681298176367787 -0.3676351245180120 -1.140688369462332 0.2465365828376491 -0.2115683802345223 0.2358925315399561 -0.9582471352026661 -0.2348399582539485 0.4992736627011009 -0.6914381278357747 -0.2458757773218762 0.7910068217511129 -1.351631595759545 0.7338847345729287 -0.5162482109122369 -1.080664683536393 0.1352166263312234 0.6200370731889691 0.09918951246608247 
-1.610699150284086 1.094181633313140 -0.3365923632284207 -0.4799729380602428 -0.3354748200319860 -0.6398214165052517 -0.1923897972507051 0.4252178972426396 -0.2297788244380804 -0.8193912201770704 0.3047228966839000 0.5075918610315577 1.523806633388717 -0.09129386951240673 0.7029231756123730 -0.5290567949361853 -0.3134041229349828 -2.460569594131007 -0.03130654303081028 
-0.9205135871420898 1.311700703068739 -0.8824424924262522 0.4855397418865373 0.5896083036380463 0.8681793704200578 -0.3289390596098119 -0.009132535348470940 -0.2997919594278465 0.6621740396977528 0.2850647051582907 1.541187950052241 -0.3350834442159769 -0.07257540225327115 0.6682629717606173 0.3824123097164883 1.309453304912006 1.121712013200590 -0.7974666425738974 
-0.1523646854420902 0.3634857608760807 -0.1551851707985614 0.1682201892421417 -0.07333071884263306 0.05544594108600981 -0.05344634406552280 0.4434277203329418 0.8393826594910879 -0.7217474844019615 0.7307829617324958 0.4351959186744457 -0.4736077410285198 -0.5383368474503812 -0.4804302445429406 0.02896159362831388 -1.405845501143590 -0.8006928441384149 -1.485731339950010 
-0.8337211552001519 -0.2443585066842418 0.3213005724807327 0.1099068550887646 0.3768137957684508 1.620049959987110 0.3959627170718905 0.6045335740746210 1.012517346521624 0.5351716062594327 -0.5521841632108045 0.8100113219958146 -0.7631189269090854 0.6215715957271320 0.05369507004348654 0.5083026369830597 -0.3457217673391813 1.306125287336292 0.6980689759395325 
-0.9061755809328231 -0.3976550681045685 -0.6419967023552771 0.1104888987916420 0.6465526833241418 0.8803393156182153 -0.07033621489402629 0.6876680691520702 0.1395904121126666 -0.2433003531798934 0.1011726563897866 -0.3527316764154902 -0.8033650527648082 -0.4464310989755549 0.4172952079335376 0.07722165213427229 1.194916389486205 -1.213260895092555 -1.353356466943964 
0.5828673087723124 1.009994849501169 0.6800324383540841 0.5226577749991583 -0.1233526370936308 -0.3364864235482383 0.5332644713921959 0.2973933807197807 0.2142729350298112 0.1411107815410544 -0.9532141581165517 -0.7118555814975412 0.5331999545327268 0.6189471599361633 0.1049518876460330 -0.7265250730744689 -6.757837614915219e-05 1.024363229945323 0.5280883690846424 
-1.138691951833846 -0.8577958839888443 -1.435467828157692 -0.01490915227310557 -0.03660657912693252 -1.508283406175385 -0.3887303071851981 0.1764831904589709 -0.2764726762163413 -1.836362096937692 0.5783261924365466 0.3682528559572664 1.907693264266590 -1.514241222390335 -1.105690376185266 -1.681914353829598 -0.08012199317511542 -0.2144827978243881 0.06487532803232308 
0.9604522854407126 0.2923518495378032 0.04944964566112840 0.02888677265503147 0.04430548009145369 1.059213721000653 -0.06773712273043223 0.1069962014541664 0.4207315536455060 0.7642688144216658 -1.499883661604275 0.7043832270770115 0.0006167091859746038 -0.3653350096948655 0.7462470460794942 0.2870564230275036 -1.501296342788995 1.052492817117789 0.3096252905931325 
-0.2269044603993097 0.9570097167542099 0.4985305155252190 -0.1806595362155389 0.1149668083269407 0.1806997844296235 0.9535448044607829 0.2767770870513874 -0.1102715538744682 -0.02663552938056735 -0.3817692250194104 -0.6405968361318062 -0.9315480741707655 -0.6440759220278239 -0.08325720062742228 0.07035731693164679 2.015238319503484 -1.069374167856131 1.121885826113704 
0.4221359285239225 -0.6588629672553314 0.4743690739756335 0.8541183328393441 -0.2784190302674432 2.100112983233321 -0.2430611320075883 0.3064306671054164 0.2309763914970903 1.276151834040533 1.111087170764264 0.2041421589603334 0.1847502372959982 0.2381258280560783 0.005916238733485311 0.2288122774860735 -1.692911768096077 -0.5268133368782282 -0.7698773841239448 
0.3310907985810458 0.006544797420848913 1.339950403465112 0.3637573933596365 0.8499696995458389 1.152889582543415 0.6627035001137837 -0.1412356672886430 0.5666264958231400 0.8516868119420371 -0.2863600355432047 0.8656062709874747 0.2604711041829869 -0.1807438557865002 1.378807104889303 0.7471340664164942 0.3247301318514871 -1.242192554313299 0.5812443416565701 
0.7398234186842580 0.6237936882973099 0.7607434577701632 0.2101723355305773 1.196742851549150 1.584814857207108 1.340285736517474 1.217135629317781 -0.1181940029509717 0.6611818794610099 -0.3216018128508494 1.390565092686469 1.713653981175944 0.7468303182877155 0.8521380440730912 0.2649497056110791 1.577401595269997 -1.676851543977101 0.1815631135101745 
-0.3923337368931226 0.3460681681923757 0.5649688986276229 0.6025277356524726 -0.03088741115751875 0.2030962875957155 -0.6389530090512959 0.6317133630794415 -0.1073176739386838 0.1138777205988952 0.1036393837133881 0.4225841089437031 0.5075444031035117 -0.3119737543073464 -0.7312380485003449 -0.5147706450058507 1.737176643885205 1.945409417096916 0.2625592052833142 
-1.144961337356595 0.5811883514734876 1.213658688300999 -0.3512761716416968 0.6567746684777951 -0.3654332818441871 -0.3540592934339898 0.7738902244916913 -0.2488935779692219 -0.5367869953840937 0.1797483536761661 -0.4262516185563274 1.395789712159260 1.398924531172476 1.143185587509208 -0.6418124375940353 -0.7393574849389546 -0.3849706179052039 0.4401537420552349 
-1.678290823617178 0.009642134291501125 -0.9361591247152590 0.6127818367980016 0.6497408352156901 -0.3412970592549985 -0.7142344508386029 0.7704382703318104 0.1730432743623027 0.6876294303610866 1.053547829690241 1.286790073628234 0.7365328714074144 -0.1863297606244542 0.5677271185485554 1.159310124578732 0.08957480975780990 0.5007647180095149 0.6139325235716583 
0.6814903859486031 1.343794493564175 2.279561383738293 -0.4182165145975788 -0.1831161336386669 0.8929646625757934 0.4964115175200939 -0.07224639155577990 -0.4330843478956910 -0.4503729700532788 0.8718289277274217 1.665483211254710 0.8989522603208864 0.7508342125256875 0.7920275161969054 -0.08940563150805068 -0.8658268254088582 -0.1292089869296636 0.4440275075589951 
-1.094478550986119 0.4467375330263200 1.038041467582922 0.8747467603548070 -0.2535850620230776 0.6727092643856726 0.08692282208099442 0.2069557265218105 0.02120488165738861 0.9215141020999174 2.144093176437131 0.7280265458659769 1.742008112222847 0.1638779516267127 0.2916564628334931 0.09941134400507134 -0.5636058803238991 0.3879506899334471 -0.9859511424417760 
1.272874428384990 0.4692937526518207 1.528211146449666 0.3209053579525933 1.479744382034802 0.9833138476855798 0.1725776258496554 0.3823891627055405 -0.3349287466316295 0.1422456157222375 0.8376117435960702 2.412425042786098 1.761648017733242 1.030178468525223 -0.09313574472695405 1.277951328413727 -1.181041203288765 0.2876919010740043 -0.1834543468830120 
-0.4271287788994321 -0.4738239248608720 0.09481639472118016 0.6966861260247470 -0.3814445084215521 0.2421823962454889 0.4266103173343732 0.7366907852260063 0.5488955388133407 0.8919116258684343 -0.9219074150736603 -0.2904124782302040 0.6081677768580567 -0.06974964809280106 -1.099722227281187 1.001891803038623 0.5862311158364207 0.4756495456956173 -0.3000538606595064 
0.008270752895192100 0.6047756623141167 -0.2782384010477915 -0.5058740687222772 -0.1855047977035393 -0.8482063554781578 0.5082453235027783 0.8237950672006553 0.08541085259825201 -0.7495273210129685 -0.4845233313682392 1.489251757024243 -1.193798970007830 0.1200396813968735 -0.2782343534972904 -0.6302177851939244 0.5583061783301344 -0.2630365846840205 1.127201374699825 
-0.8664957554584398 0.5620937306459309 -0.4952158131376102 0.2612731392358950 0.5788971130284439 -0.1481995717562297 0.9411434239779519 1.413955267113697 0.5380641471864746 1.340559073531153 1.206882641886566 0.8900751702135359 -0.9103178496686100 1.627081809323382 0.8406424493756667 0.7904710158617436 -0.4293688206428852 -0.5065678876457387 0.5217018356715196 
-0.8598693512933270 0.2802367527501622 0.05225560774410715 -0.3555386168341042 0.2436226966454105 -1.687430102495231 1.111595768884242 0.2367407497318919 -0.2962690746201319 -0.3595372493187658 -0.5952572210965317 0.08975023090196527 0.3006227239714556 0.3133534945897127 -0.4215065381184130 -0.2110790492302190 1.065480417035289 0.4838765829583714 0.6256656995235659 
-0.9471537053900223 -1.107925022535223 1.027814605244123 -0.1875682127011581 -0.1528519560482633 0.1746448572785451 -0.4624393769871318 -0.2021532742433431 0.3869200829497268 0.4595313764774197 0.5451569713963135 0.3956700274466555 1.136612955264643 0.9304040546283170 -0.5358097189941881 -0.4525080398842105 1.160552190768535 -1.529233528451405 0.05449551376229844 
-0.3905283546824935 -0.2201900793119523 -0.1301537614934522 -0.6823125277714968 -0.03783658127130424 0.3835771744896098 -0.1470075737301954 -0.4989496584450395 -0.4397335326250676 0.08802735770893749 -1.225010377726165 0.5204480936739186 -1.102276677547435 0.1540275421610388 -1.372313649752273 0.7346795368750262 -2.115381348507277 -1.393953250906071 -1.385566959784051 
0.5022067498284892 0.06892077888844482 -0.8860201800216035 -0.2549577585439084 -0.7782997105623966 -0.7025412748922927 -1.375385534818868 0.02974343213271168 0.4397227646403642 -0.1783285783146356 -0.4411778214344652 -0.4658363829557983 0.6583633615496052 -0.06037996804258645 -0.6576399144622403 -0.5093764475094950 0.08661535216236593 1.047753352962893 0.1462288884304117 
1.060331007794410 0.7270890448064553 0.1947692825801850 -0.06475845377502290 0.1209175996295660 -0.5078142458047292 0.9033287324081526 0.3149374481452961 -0.1893169280633772 1.439659009565174 0.8309229926646416 0.8500603614693825 1.683839321225974 -0.2261819120721588 -0.1729294914731057 -0.1624891659216391 -0.8167755828746389 -2.818568660581086 0.9898381013037654 
-0.9168291466740651 -0.7193021569085928 2.354926671846559 -0.2172660453686306 -0.3705410309733632 0.5439620650012930 0.6126730472104265 -0.4751994228143117 -0.2286483394847203 -1.622907506146651 -0.08819863041192502 -0.4295671820888480 -0.8165240042682121 -1.131640738455102 0.7031052577679895 0.05253053175429274 1.239007490470271 -0.6042252315259007 0.1846506355309468 
-0.2728369319703916 -0.1194588994049838 -0.009460725902651495 -0.3533511374783814 -0.2474899760908469 -1.098766952055945 -0.5460594069069058 -0.09217026659080395 -0.2956018871631170 0.3649689867559536 0.3192542827268929 0.1222007540297230 0.6766627624891947 0.3335594040961031 -0.6706451067578392 0.01107078486801830 0.008631278138368642 -1.068206189212650 0.04316529672756895 
0.4822371135954046 -0.8610085733637944 0.7149807702347022 1.294224961677063 -0.05631269294411306 0.4193937478940543 0.6440205320377086 0.4859521825845961 0.7145776944767652 -0.1442407815016394 -0.6092190232988836 0.3626899745951617 0.04890640239511799 -0.2247215531073637 0.8569152014181877 0.03228993572798004 0.3623689710392058 1.057568766091966 -0.3726532516574880 
0.4191540614167102 -1.077791839684315 -1.391028001690765 0.1528312125966535 -0.01833416653035884 2.133691810421509 0.4294821919954923 0.4573487995073483 0.05809132944515773 -1.371023381181670 0.04391512202494785 0.2230910745765905 1.294123185505748 -0.4389632167766606 0.001700363136311139 -0.7321688517267624 -0.08794843137035224 -1.256575026375260 0.9515818958024415 
-0.4207382049701158 -0.8474181653187262 0.04573123933000427 -0.6944715225578099 -0.1887630027488708 -0.8786456923684883 -0.5317816057100873 -0.8173575590813748 -0.2459428162794073 -0.7565282925832435 -0.8311606302645063 -1.193832366757216 -1.043546026446158 -1.768122250238750 0.4313531049730868 -0.2224445004239457 0.6821254986991863 0.3823483515491600 -1.396411333036392 
0.2791095277649475 -0.1046513730214606 0.7443774982731775 -0.3727178628313770 -0.6500903753058003 0.4699802063491869 -0.07141754373909213 0.2758075322991195 0.4037354488605309 0.6336876765759892 -0.3589453604311527 -0.2846706862543378 -1.154106472085176 -1.749462036545945 -0.8242157941123617 -0.5907807797065443 -1.007482838718063 -0.4742367660992113 -0.4042837445563356 
-0.5480443162147148 -0.2880445165605715 -1.677391478272060 0.1674944906425551 0.04231800316870991 1.138417687199503 -0.4665801038743114 0.2746084200017869 -0.1943919363930676 0.1659597584320875 0.004722248633855262 0.7679364403492910 0.6829442517917912 -0.3022868187031270 0.3813054884746756 -0.9894143451889084 -1.652900126121763 0.1014323295078617 1.326459764463605 
-0.1714814093997668 -1.117500214048430 -0.7564433370120458 -0.03301755400015111 0.6448475885149408 0.1517165350164557 0.9285636100204402 -0.7608912924951793 0.2864014906668443 0.008352801362750462 0.7377380206455056 2.080961765830458 -0.7452999721440579 -0.04061465308057428 -0.2092669015564460 -0.4815206207217957 -0.2283387499562453 -0.8938945969985739 0.4413818266310924 
0.9153563911068832 -0.1473166786630079 -0.5589323248631303 0.3666866878672931 0.5231190958715861 0.07855282335452224 -0.1187774804302480 0.9600464965248628 0.4812046839226408 -0.4295680428448137 0.3435508350109974 1.499328329158064 -0.7886341387176642 1.465414980089751 0.5694338526958939 -0.2083299335524909 -1.578344204528776 0.1789414807580672 -0.2694066610290382 
-0.1191175319903329 -0.6626114648957264 -0.5068644368710674 -0.2827676631396953 0.2790882964280116 -0.004647311009815053 -0.6450181027596743 0.5467212832218272 -0.4499762859242779 1.481203504363285 0.07131637272188981 0.5114933669623345 -0.3992227834572587 -0.5388348326437830 0.1692200708062856 -0.5759606300413298 -1.429038605230514 0.03948895759533898 1.225459408319371 
-1.665035450884766 1.003757276778900 0.3508264460703903 -0.2533633671981190 -0.6201995305074768 1.617904522341248 -0.9486161502790798 -0.6277283452686735 0.9126265319145888 0.8180745905892095 0.5020830968409752 -0.09304450744398801 0.6865577731830476 -0.6875926531472055 -1.061159971833500 0.08579180355055846 0.2330571564929096 -1.455010206907125 -0.2906133410477479 
-0.1065978658422742 -0.3917155680689419 0.1660283300698942 -0.03259162924191209 -0.3232966828040626 1.524679313173273 -1.512709758381125 -0.4487938162257830 -0.6066762785232107 -0.6558403807362558 -0.4586953215843356 0.1334208266448544 -1.460255756268573 -0.2997087388474470 -0.2473224294170101 -0.3063861120724427 1.821721161405836 -0.5258200463791586 -1.134464414401235 
0.6575148661720415 -1.003588239149413 -0.008948115044271370 0.3171803479109915 0.3148278735525743 -0.2005151332958385 0.5904868438455789 0.3081574784832835 0.3334770024957390 0.3164456438289057 -0.4696040121945264 0.04128298385345698 0.2896261959680092 -0.4465380442890722 0.7096171988162058 0.7020399615830912 -0.6164166198885879 -1.063820732316585 0.6858517634968162 
1.620268163392600 0.3686326080409192 1.118505488258252 0.6389991191791730 -0.3748293041981212 -0.7656853290293902 1.231346999681952 0.8661392864749521 -0.2486502058218185 0.6079840336791262 -0.4126052642509439 -0.7135795287033311 1.208831767067526 0.4386109729973636 0.2767804902044571 1.190823433716641 -0.6264980089199684 2.139877815594704 -0.4620078828951595 
0.7793216177969731 0.3231556678871326 0.01342485019683470 0.8197853753034159 0.3218880554697225 0.6820263949251743 0.02475121064384939 -0.2483895072804455 0.1978619067155107 0.7786135772822591 -0.2009405076356237 -0.3777116824439728 -0.2207684695815995 0.05529685003452742 0.8175757349791613 -0.1137345241682044 0.01935409339611899 -0.7883959158713714 0.5101181333213588 
0.7023327325601311 0.1785040993737233 1.159011937775299 -0.3898338892305444 0.6947485990609263 0.3259353759968445 0.9737894481175230 0.5853701740240708 0.5556335269327280 1.007489939722253 0.01580624064843197 -0.2318489030271042 -0.006503953780506250 1.248401187757591 -0.3284891285117038 -0.04750380879364481 -0.6630245626773381 -0.5564256259907852 0.2354645916897437 
0.5491975855873487 0.5642531598351603 0.9525155482448298 0.2589351551997208 0.6530233185549260 1.041250289751352 0.5130240206690013 0.7199810250021010 0.3254527916999390 -0.07546823071734676 -0.8745966672540435 0.8330605738596948 1.061546055669438 -1.680889079818487 0.4377365139375876 0.4939693573371905 0.3235009985752692 -2.242845517493923 -0.4053947691743905 
-0.2685715727092713 -0.3756376996308433 0.2843607855340065 -0.1506413512829324 -0.6498703630368392 -0.3128891243796415 -0.9472769713574614 1.396952305837837 0.4708882661247799 -0.3035270467694815 0.2611219660248834 0.1013797088769138 0.5461085294724360 -1.456990711530540 0.1649393156337562 -0.1228671153478055 -1.807113341232691 -1.578870884149578 -0.1096474635948301 
-0.8210822078472446 0.7247284572281179 1.065819304164186 -0.5108646089822219 0.5918389723470863 0.5287407658123447 0.01421021240948192 -0.3288539456229293 -0.06237969225922630 -0.4045662999454120 -0.8080401205508099 -1.058536108743837 0.05828220892028226 0.5287644477219138 -0.3536708744976750 0.2772457919005551 -0.6837219960137076 -1.055546452532614 -0.5002974330754194 
0.4076996294195334 -0.4156079456936904 0.7527426140209660 2.045348232897950 -0.02385203521103188 0.7326909652766623 0.1108618497223199 0.3361078251807364 0.7168872510501650 1.558928809557491 -1.170217976772412 -1.184012055261666 -0.1412013924103441 1.719533392966516 1.860577768443160 -0.1900628446643382 -0.2302451019525800 1.880582123567135 1.480110098083355 
-0.3402925864818783 0.3657869193267233 1.121313862469133 1.603093879076035 -0.5944627142410517 0.1224665096528971 -0.3252470577786279 -0.7998283645580494 -0.2971529088638360 0.1323106034574617 -0.3139699124345999 -0.07020030924878333 1.783071086197017 -0.6055340677571251 0.1770039255352665 -0.5299810539263690 -0.7465382500676362 -2.154556666500015 -0.4770085552828031 
-0.1825968286822328 0.7572263018209078 -0.8696737193899633 0.2232775183719413 -0.4473648023769155 0.006730049361635813 -0.5393690780025008 0.3119686026591166 0.2947636646525431 -0.4937128607316007 0.05650731521915967 1.032887514366496 2.170195142627219 0.8727134728948425 -0.1780121105661493 -0.5290111274032335 -0.2634737088234422 1.156746543045145 -0.09012745277530296 
-0.05907568131844424 -1.146339379334177 -0.02323918971238800 -0.1072760984523108 -0.2450969631507667 1.168738539571698 0.2879158020869477 1.531093053783510 -0.07664253239038028 -0.6442367496808177 -0.2053210032948128 -0.2064333499632166 0.3058325623248935 0.5393973966236360 -0.9371287147070997 -0.007289502325593625 -0.8585045393816362 -0.9818198441542451 0.02154827312003265 
-1.454651568521593 0.8705263798559477 0.8105580603369440 0.6254430831326276 -0.3733840113623591 -0.5268739967023040 0.1298049718590666 0.1342165087367760 -0.3656730178803735 -1.844107718184370 0.1832684421037501 -0.9014273456464601 0.3302817505163909 -0.8366061477258919 -1.185919209285774 -0.7961094126237761 0.7538609743828386 0.2867598094998399 -0.7104184980580338 
-0.5253545683581297 -0.08819637013907353 -1.308779147136050 -0.7725544927254038 -0.2168850177354084 -0.6779502738778074 0.3882374028646732 0.6973929755289959 0.1583737705739453 -1.286266306883564 -0.3111201025779701 0.7753887788033703 0.05294860909031887 -0.2865855294768729 0.6414275689452097 -0.07906584613600906 -0.6963966935299378 -0.6444467534787891 0.4930824090338038 
0.8904848304365649 0.5810594116872904 -0.5477176900003968 0.1229828568936068 -0.2619246646127460 1.056431252609329 -0.1317137853183758 -0.1226914252839348 -0.09645630358620515 -0.6028410819214766 -0.2588874799243970 0.4117239764311079 -0.6680508675325656 1.689008356438043 0.8687828110635974 -0.2908864899580158 0.3107938379423942 0.6545438999007329 -0.4783630637601745 
0.2788020690391645 0.3221037795381495 -0.06736462100319567 0.04031400606246884 -0.1724377696679229 -0.04996470848833490 0.6274116564781053 -1.466029180659341 0.4548994948512627 0.4391128132255182 1.408118477517523 0.3825213494271967 -0.6226546021255557 0.3937513505191914 0.1388988756874581 0.6811687176080308 0.8966587764714629 -1.334555639065916 -0.5416604993534719 
-0.4763177179561363 0.7335459525853973 1.854032821213586 0.5147844028208343 0.9440409533897561 -0.6002853179853613 -0.07498958824950393 1.020490134471112 0.3518241796465271 0.01662956951943021 0.8652183869045280 -0.9093643603293338 -0.4923510762471415 -1.209921244945149 0.8546315275142327 0.5731423016791156 -0.6502201823233864 -0.6077118606131149 -0.1091275780138227 
-0.6700561069809226 0.6153258978923150 0.6561530278481464 -0.7772152205832469 -1.130976667836546 3.386138262240474 0.6164748306782405 1.006036653464959 0.2430093362406033 0.05754530160592290 -1.115537261747238 -0.8541004970373277 0.3537745693787520 0.07136145191677203 -0.7248714729080323 0.5210093407596497 -0.6313431538994903 -0.3251190816443704 -0.006658499404676953 
-0.5133718049247240 -0.4504153623473853 -1.729334965519644 2.650573115660418 0.07059374467676974 -1.887932060389221 0.5097100412657396 -1.112646783326641 0.2946180093569236 0.9654699129350129 0.8493939095548222 0.7253479820537467 -2.132003317820371 0.2645300386949115 -0.2700704034204105 0.3517386995616475 0.2877882669264110 0.8078662786975894 0.7308491931932570 
0.06787734642950347 0.3561666330294283 0.4974298974668007 -0.6167760925629173 0.8939229048882097 -1.361949822974297 -0.7130614064695993 0.3402211917983931 -0.8991389439594744 -0.2113075382763626 -1.142212088741942 0.8567939246960887 -1.105987517354142 0.7247901857067043 0.3426545623992479 -1.867377201819737 -0.8018077036117278 -0.2954104169683301 0.2695118302000879 
0.3171268039872119 0.4121051844879597 -0.04541464077177698 2.238131994058214 1.371184533608762 -0.5380691615364238 0.7903458275680557 -0.1708183398473982 0.1393819299256279 -0.3052736856889561 0.1270467235361971 2.806066315125033 0.2881555447706788 0.4219928056774566 0.9737108249144919 0.9129448221575612 -0.4470294977169280 1.030367766854947 0.5632942596638865 
-0.1439410622150777 -0.8299716542568714 0.8538760391829730 -1.716891831660925 -0.3132160862026397 0.4251797144333511 -0.7452770235703696 -0.8666216957836633 -0.2422452775546848 0.4265606929910992 -1.170012751597694 1.056416308944773 -0.03395161394694223 -0.2935819657284730 -0.3119192988829331 0.6752351534994340 0.4242410830541499 -0.6514926232816023 -0.1511245905491243 
-0.3000514899831612 0.8088410168860461 -0.1951565278837454 -0.3953103843124496 -0.9288715233227134 -0.2457159793084326 0.06209778594117497 -0.3997452845766373 0.4266354587198689 -1.453127337009480 -0.9306081094567122 0.1571266115658427 -0.3845218610404839 0.3992537728201391 -1.046416277258220 -1.022240084468837 -1.589688493861714 -2.194547434344043 -1.376492776969318 
1.722786523018307 0.3339700045530277 1.084690949774126 0.5824867091051348 -0.1833421231357813 1.105009824518811 -0.1551715621861755 -0.9883381041451618 -0.1089497248024838 -0.6927670674582038 0.2586225007679777 -0.6297398102896323 0.07412069027565986 -2.001446415515920 -0.7808432283590623 -0.08208539866872255 -0.2325681195484983 0.6504063175863444 0.4173115739361143 
0.5858001808658185 -0.4154325201686174 0.8802650368038268 -1.188272247680457 1.395374598025787 -0.9678995907134481 1.007449527330217 0.3414621631910617 -0.3757902655631855 0.9031395583282429 -0.1212726252780400 0.07666876006908342 0.3980257749472015 0.1974657588878591 -0.5005296126002868 0.5310094547126789 1.784580569468006 -1.640848397729231 1.009598253008513 
-0.4433215127718705 0.7720846458759618 0.6572128025298376 -0.6530189576495404 0.4504300506599241 -0.6724485506333224 1.216500274578582 0.4255649813378972 0.2893531888379384 0.2028670944470818 0.9074173230475449 -0.5466380751492690 0.4401273031498175 0.5260029139296621 -0.4725039177194096 0.2871804665682005 2.217990162707070 -0.6133172680503083 1.190962062154382 
0.3557844900419699 0.1906245035790866 0.3344865435376708 0.1562445962816980 -0.8508101388916062 -0.7120060780067815 0.1723456996410089 0.6806847839558574 -0.5022559713674630 -0.02924725249929493 1.621313970303254 1.249403970320581 0.8057293629727903 1.350509985047193 -1.014949697446236 0.3859714581633050 1.235405944916779 -0.09954630953918661 0.8440438611235781 
0.6927222507486698 0.07055276818385348 -0.4511492836788775 0.7572785450531744 -0.8992625261572331 0.9108958633937867 0.1194304650394761 -0.8843018341142457 -0.4457184293251927 1.053162026179147 -0.2958605155550289 1.887474442843724 -0.04133882029178694 0.6407542778487345 0.2717949509212549 -1.342961725847742 -1.727945549268116 0.4465747166627019 0.1631406009779700 
-0.4885962232802344 0.1378267296651346 -0.3567774238538038 1.413978693371783 0.1185906120612631 0.9490498594794057 0.1723257560047426 -0.5870183857203466 0.1421572754626336 0.3946227721552704 0.9391421101481023 -0.8963369650956585 -0.2665144143977332 0.2874480842618290 1.042734833151801 0.8278383216014623 -0.06901149270012846 -0.5303105187696680 0.4398299866224472 
1.286607836824673 0.8841893526709637 -0.5030492171003833 0.1743995702863120 1.655978287528068 0.9322345691290873 -0.4727839265699205 1.127378599992926 0.3995233683490430 -0.3163417986865467 0.9652863337294190 0.2838683199045574 -0.4471617330151730 -0.3492132698293149 0.3728746034175544 0.2012970156610578 1.981478055948201 1.111530245042181 0.5538640911791220 
0.8658834569642383 0.2749146232719413 -1.559915448376418 -0.8521925313423293 0.2903565929181242 -1.435841587069884 -0.2662823225357053 1.758101058225239 -0.02790224133650468 0.3966531701733216 -0.8603633121755310 1.167270906404720 0.6053302014013758 0.07503930414525638 0.6030807772351564 -0.09130766483464636 -0.6036957149009969 0.9196371606604166 0.5983051472558670 
1.354294289745958 1.352270606293023 0.6632816492816643 1.833622441323997 1.715580943948628 -0.8129075604399012 0.6564044085673387 1.094452111014914 0.7140573498888335 0.3401354552077265 0.2017847914032776 2.523358131213656 1.545067258663866 1.429303007987667 0.4124520914027422 0.4354308422362435 -0.5867814950585009 -1.792269589517092 0.6133468842679872 
-0.5767478419373532 -0.4931506455885812 0.5586223096875473 -0.1402941627690069 -0.1052207996330716 -0.4977948059514477 -0.04663592171168898 -0.4653012320337347 -0.3684193572559085 0.06847227831256107 -1.007997502892819 -0.1391133134715917 0.1251460388099659 -0.3225331601012056 -0.5023011667980170 0.9897672212450963 0.9630152921827706 -0.4291951434877049 -0.9615931860856776 
0.4980855137167666 0.7434221458097157 0.9218034678184772 0.2375256687271440 -1.128007263220795 1.141368994306829 1.254868013861068 1.465831337546915 0.3160207154812718 1.411687613544151 1.221106767448547 0.2107993745828847 2.334986126063698 0.3475051460140915 1.753740347882206 0.5094215598544996 -0.6057235967965566 -1.657926676871584 0.6924702726568053 
1.404299480231258 1.406294603687871 -1.145498242612244 1.541876890763696 -0.6977532484779296 1.400186098867009 0.2870559390636035 -0.2961661741830689 -0.3242043570537789 -0.1780596303585996 -0.3125993592639652 -0.07999722503527945 -1.170245083216814 -0.7341937878206315 -0.2242460913909641 -0.02705595744816258 -1.171756816614616 0.4572626047359852 -0.4724126757398667 
-1.555606198366418 -0.2750617883352057 -0.8551623664640460 0.4477783003732847 -1.736214430248497 -2.143846171370023 0.3414134217228086 -0.09148763912380464 0.2972920295920279 -0.1181803639892098 0.01240204347301254 -0.4596452310264789 -1.010600421159658 -0.01972405766234933 0.3753933473193593 -1.218071957482948 -1.182003068838194 1.555556706109021 -0.7977074742376170 
0.1081978933445125 0.02650129775740606 -0.1263612176678158 -0.3635010294091648 0.7223635417361151 -1.242247751867140 1.843695244442742 -0.6280100561555542 -0.4668190143783537 -1.398794751392576 0.07584238745919422 -0.3844709545128326 0.02190873481611340 0.1366039609243138 0.4439359331229677 -1.232300340551639 0.7966066224894888 -1.046055855549294 -0.4608356488740154 
-0.8076454446283060 0.9689653911054814 0.1900319056715490 -0.8104222909590667 0.7406634692845879 2.625613218500690 -0.6777521793849505 0.03552376129142776 -0.5743330324872331 -0.5282935456453612 -0.7645855090731409 -0.8763488941733236 -0.01913212903573713 0.7155491978121391 -0.4652626797144716 1.610771468784752 0.2436646634545446 -0.06320598151051280 -0.3708558042043228 
-0.2461824652333237 -0.8402376136189499 0.4199633831594627 0.1499217010357835 0.2013808050116380 -0.3881876364908529 -0.6107390258921486 -0.3729904145597582 0.1841409912322482 0.08689378675358511 0.3592495960890424 -0.3595631999500238 -0.2506327381334691 -1.032807031340721 -0.3900400243041072 -0.8207189289882453 -0.3045284660810463 0.3011399259386978 0.03677711648837578 
0.2995569699543123 0.5908033991685929 -0.04808331866082255 -0.8177590907040908 -0.5509563870821398 -0.4482043818552829 0.04455938190083947 1.349730153794581 -0.3715419816024680 1.451525732579092 0.6275814444291520 0.1906710980993627 0.3013689331163125 -1.142512984206269 -0.3197145579112620 0.3456249542519014 0.9525103378657152 -0.4886359915699512 -0.4549760184106994 
-0.6038621005104903 0.2334647656733687 0.7330452145133297 1.256604088938345 -0.5648764387915671 0.2391900682814142 -0.6741169980168255 0.4040885543405411 -0.3197476859622010 0.4230748802082287 1.123950101756964 -1.330989986006243 -2.203569163723726 -0.6108517221166610 -0.7683093153134680 0.2180367801700500 0.9647405350779654 1.028796384572856 -0.2100274463247155 
0.5294450601263500 -0.5497509103825957 0.09141024378761779 0.1215390543570264 -0.02107935024009355 -0.08733467651834870 -0.2512560270374550 -0.5634808421180578 0.1896849520499005 0.2829588575511959 -0.5647070156541387 0.4890348511797035 0.6273002070235778 1.821920824654814 0.6222416007354751 -0.2508064142688365 0.7025176624664395 1.129027279510374 -0.1348474251948546 
0.8555873566683709 0.3063983320981288 0.1491058336376651 0.5962597904355138 0.8314701024526665 -0.8390055770630181 1.046333786367967 -0.08639779836408025 0.7825973209302723 -0.1161329299878129 1.297353397052773 1.539438889444713 1.995101760812951 0.8113347441900683 0.9221611321414884 -0.1920701400282664 -0.3090249639941253 1.633647031115056 0.2365583745437527 
0.2808186531236382 -0.2898829990193027 -0.2877783039278288 -0.1944803091348163 -1.258371545260160 -0.03742848896407799 -1.376293743434838 -0.06005546316630081 0.1623886634077157 -1.211588062232895 -0.6423557434100935 -0.4952224924422104 -0.9722122038547507 -0.2511680389753794 -1.238602952346911 -0.8274955403586519 -0.5144001159882110 -0.4067947284468057 -1.251932787970526 
0.2594396181192969 1.497372070419142 0.4209382580192293 -0.09382691277946568 -0.6815525174456938 -0.9315043444573885 0.2885232085561015 -1.329271166709183 -0.01350592242579668 0.3331096368821316 1.444620416653701 -1.093452863903460 0.6639902040752206 -0.6691654786329082 -0.2430501760979015 -1.422988020953549 -0.5940908171671044 0.7101984499422014 0.2861701761623783 
2.153159299883979 0.6332633694502071 1.062521802752075 1.373049236808363 -0.4660175879723340 -1.023269573961597 -0.8032292590286186 0.2325190791383938 -0.2688810106980276 0.9783480970594320 -1.386831566574307 -3.144624280245345 -1.393231772295720 0.1756460989360127 -0.9054700998133989 0.4369665675156875 0.4934126274099649 1.384446767675540 -0.3839843735260124 
0.7025025692972382 1.569550311662034 1.614211010174438 2.074916890800535 1.175460757015249 0.8321002512514926 1.299580001604512 1.664222162377335 0.5979696267803270 1.445631776321031 2.479550611126540 -1.984747310558164 1.580613394325467 1.129081107998313 0.9482994688922467 0.8126955537927925 3.779600847162815 0.5624195935881966 0.4408187536526577 
0.1888835401500629 -0.3977325853675552 0.9981333486737991 -1.880601158176229 0.6686597569771339 1.619996497603093 0.6761331838547694 -0.1752901935488355 0.4371712066701882 0.1313833980306804 1.116893612349149 -0.6557697738563528 0.9288462381774019 1.328712640737917 0.8909966565826460 -0.2281745858169305 1.924243650463853 -0.1862501809896939 0.004719449442694992 
-0.5861302908177200 0.1396106047826134 -1.095746516764219 1.903427393728893 0.4611152438943869 1.776913844906225 0.03848981913920729 0.1361717007261635 0.2432918863154124 0.9558588909409879 -0.4402166966811121 2.121620540897600 0.2977865467393529 0.8770069948440705 -0.4858986494884340 -0.5064605415448700 1.666451553084634 0.4099965200802463 0.8673107696696196 
0.7676521675053365 0.8174041797294372 1.865794670194081 -1.238236173643366 0.4007550449914286 -1.717941263892665 1.005272095288872 -1.000989015023496 -0.3102427839887180 1.069438575172259 -0.7570245197645954 0.3315228932308233 -0.09525076645357261 0.1749107201402403 0.2620028018994760 -0.3836013208573300 -0.9030107203899622 0.02936296150685519 -0.07135372442245635 
0.2205992907849926 -0.1443564066156152 -0.04721800158291263 1.249217480457981 -0.06994109497629600 1.420758462905063 0.6001512121844421 -1.037718602166506 -0.2277396116050512 -0.4142333096108827 -0.0007446192169480448 0.3542382690010782 -0.5486068238982136 -0.4912840649397160 -0.3332411056854828 -0.5337762343024531 -0.4945203666302235 -1.318465344459474 0.1601831645436327 
0.8489119670518673 0.5877734077040048 -1.429522841772668e-05 0.1966954917535896 0.2773134994420442 1.118951248671707 1.595515162653458 -0.5477231857644123 0.4652573915549095 1.231705101206170 1.007793356848576 0.7160091626775923 1.274820394606368 1.608750905966490 -0.6123668316859456 0.9369183558505620 1.763921795814404 0.7053508815636043 0.1360526450722830 
0.9396606227082750 0.4339641887103590 -1.517410383992198 -2.004382003113982 0.1112523009270841 -0.1073646695332018 1.199246321052184 -0.7617656645561012 0.1832766277922149 -0.8512553903076591 0.5546824051451718 -0.4783217050015294 -0.4223620527296119 -0.6796873567075451 -0.6503711626691286 0.02591127494703106 -0.4368882917842463 0.2064412954158846 0.9250359373458750 
-0.7510405718986950 -1.102162964911631 0.9908299073653348 -1.459133599409470 -0.9154339045696144 -0.1515192578897950 -1.015395753363388 -0.5117981977841980 0.1096001362668731 -0.04778191455023020 -1.076924511427318 -0.7794566230825096 -1.415566744563709 -0.9637730741917588 0.7994760358918364 -0.5212061759051283 1.320663156131532 -1.879567802282967 -0.9586957337236150 
-1.338782304680319 0.2190759340786869 -0.04195962515409071 0.7910061665903374 0.2269644397826491 -1.575434172328752 -0.5976862147869030 -0.1479399116401976 -0.07387442764744277 0.4245616848687516 -0.009579095088739518 0.9272523744861656 0.7616857778040602 0.1397384825932323 0.1859519878276942 -0.3725797722322926 1.249768222671900 0.5810506692690668 -0.05289450789968950 
-0.6788698361284278 -0.1679458933431122 0.2624653564930886 1.032359872335522 0.6324829793748258 -1.032231508498756 -1.712146578499322 -0.4866523989206037 0.3738015240238936 -0.3067797551941685 -0.3409547608670138 0.6722523159214718 0.4316304367328391 -0.07361434210946019 0.1976792352750873 -0.2014187007665781 -1.058988394303861 -0.2780881115617747 0.2728627757978282 
-0.5429208711269031 -0.1224541857940807 -1.350334424477748 0.4643748168732610 0.7538914377133124 0.08134166895672831 -1.477775343259793 -0.7274512379611545 -0.3584480564240150 0.09848294020560544 -0.7034649946839666 0.1107919446493205 -2.932217220085439 -0.3087845733907452 -1.265503324409905 -1.227935418554823 0.1366328278256522 0.5641655561440396 -1.082976729164674 
-0.2162533945424424 -0.6714604478934095 -1.232650311350104 -0.2288825152342764 1.391214846655074 0.2770535556449435 0.4286064396240993 2.233368456803020 0.4629749034054699 0.1568891840636033 -0.1187131266531406 -1.467541538439006 1.297944947142397 0.1538184904747915 -1.507712751895060 0.9350784907574430 0.2910887914967282 1.415934472817501 0.4845446819117141 
-1.788111603730921 0.1088948468502849 0.1027735538215324 -0.9635422484256975 -1.972663922260400 -1.066816559154936 -1.247084652147222 -1.788366968237888 -0.5472724462706885 -1.506588998243472 -1.166076825607567 -0.4652854175605171 -2.063371255179328 -0.6923895853600780 -0.9190155397882828 -1.666252989413744 0.2801307279862887 0.8002389336398597 -1.340337991181688 
0.9630980500353228 -1.044753961975754 -0.5073057026238449 0.3667022868312396 -1.624438611637627 0.7014502863058437 0.3015861319824796 0.5161695356299096 -0.2636386912124355 0.003297203658323991 -1.021850742191858 -0.5171771471962332 -1.014581460938047 -0.6480379225980370 -1.062409172212942 -1.245325206627230 0.07729233592720270 -1.293948155965654 0.3202054872293899 
-0.7498756630875665 -0.06733993021595486 -0.2555036803584108 -0.2500655626636066 1.706990970816180 0.6493747490891262 -0.03264321027701597 -1.038716932399222 -0.7076393600007622 -0.3983282028878901 -0.5301044120965728 0.7956928959483903 -0.2301209021676385 -0.7769867132896390 -0.1272149693004553 -0.02337547044623758 -0.2145955766285782 -0.8155910551339632 1.001041483328931 
-0.5835964921340600 -0.01603602593381025 -0.1926603555281184 0.6074696200768435 0.8466179263996912 -1.322239755401192 -0.8497976396412754 -0.1724693167887531 0.03577659237061494 0.5039456718043226 -0.3708677529707564 -1.230958817061206 -0.7887050184070754 0.9707649219729988 0.7701885810756990 -0.6191098655150196 -0.4001788004895708 -0.8180211909821298 -0.3970634682012072 
1.101465228654367 -0.3810101899534724 -1.464447184779830 0.05615866540373182 -0.2087215251459714 -0.1895099501267857 -0.1148177138201999 0.4998282039059806 0.5440824069468670 -0.1277992457243656 -0.03777398360678072 0.3631319921339981 0.7540478818922388 0.5401523368669775 -0.5968219341946787 -0.8680265931843474 0.3835358307766543 -0.4163135697526256 0.7108548666385180 
-0.8599749411852239 1.498755756518624 -1.518562367906029 -0.8334497577396861 1.288358475503737 2.616932532502706 0.09023511483333763 0.8150604313101112 -0.1908650262787196 -1.106555716185013 -0.7081244777813377 0.4932131085599246 1.288195683878735 0.03794055248494956 -0.7758345574369355 -0.5544772062420718 -0.4601103460647943 -2.187579021195196 0.3201913078278884 
-0.6090482912312267 1.399239371866609 0.8115342886092147 0.8329798099611467 0.4077875752732317 0.7510477768485397 -0.3915158039299194 0.4755183839402839 -0.3104621987082005 0.04342481046711101 -0.3262031111438857 1.958970333698211 -0.5946603209432674 0.7316999823725723 0.5871147851986493 0.7401863732239011 0.8343548862062945 -0.1981053405786039 -0.8284181951193761 
-0.2698201500856992 0.9599425206503494 -1.125458592313876 0.3797040527229124 0.2681995810948429 2.202154559872358 0.1856196596149598 0.1580082149811131 0.7860902618282402 -0.7535297529536161 -0.2661647838914869 -0.5827351237472591 -0.4878075108808174 0.1888392322235247 -0.6181289017624482 -0.6692115067662574 -0.5183162184355653 -0.1574690300352537 -1.528583549930618 
-0.8201266799833815 -0.6835635485552982 0.2836011063783655 0.2436959442169635 0.7755205805757549 1.459870432324602 0.6829412357688212 -0.3829590418369758 0.9555998566634436 0.1163977780711500 -0.3809275008995250 1.474933161648138 -0.8846449662161912 0.6464825634413062 0.9952579665118697 0.03964182728770203 -1.750512960837741 1.027111529659671 -0.02246987571744456 
-0.8706034224296355 0.2665129177143028 0.2086409628412227 -0.3718621174135143 -0.6251230731341466 -0.2720571321897990 0.05405186218607906 -0.5094158118779797 0.07142724892090532 -0.04433971170923855 -0.6104694473357358 0.7598016201826686 -0.9224520115941935 -0.4969533613025801 0.2023880310281400 0.8268802739605616 1.837873803282390 1.318464758587875 -0.6379776829103024 
0.7681330012057888 1.433875317947071 1.902277367436098 -0.7408556299589074 0.1307996231709295 -0.5682243096906780 -0.02476214396937288 1.768089633497593 0.2915773444401839 0.6213020804175609 -1.365521928928565 -2.164710802703233 0.04276362031474426 0.2293597025846749 0.6426255018311362 -0.9917164253197475 1.030296497834036 -0.1095307985376059 0.1247197489147460 
-1.101321612204740 -1.469778015249791 -1.054247653395128 1.689043223829551 -0.8950649861313738 -1.028799953747920 -0.1564320135083320 -0.2081123947535062 -0.3562647634498211 -1.763010106118114 -0.5754986574666067 -1.973511809813398 0.9270615817852478 -1.644136189704122 -1.201202948103528 -1.595766629776881 0.3725571850444635 -1.239044086877914 -0.4429995531894910 
1.134078716485403 0.3680284597107954 0.2322393107452854 0.5059260458017942 0.04026142621210212 1.930320600643821 -0.4083750461162589 -0.2616023708774330 0.2026363897439756 0.8066231639212808 -1.577964933351092 0.4432595608521507 0.3806788482936210 0.1070595507970964 -0.01859669335586269 0.5047377375387699 -2.001229225733415 -0.3921229537831374 0.1083451938214722 
-0.2080886153672010 0.9550697425853285 0.01563238663425920 0.8168918656532168 0.2839041605721893 0.2044468594218611 1.041453189149673 -1.022475501085661 -0.2474062975565093 -0.4395895725412872 -0.9571501405493403 -0.9944713806794312 0.2367425427320221 -0.8564867213271552 0.07250371038897295 -0.4056926838567625 2.120338558043893 -2.148344919855903 1.215455746977152 
0.8985042635865497 -0.1323465014968137 1.953070642435081 1.170691615788642 0.7317325526684311 0.5266506066807165 -0.1059606875121983 -0.2796998248421406 0.2364793064212113 1.262739286458402 -0.3027678885586853 -0.5152063536656741 0.8517944421249333 0.1099609758816761 -0.4671082181827333 0.7817144264241793 -1.347564332403156 -0.9667380744975628 -0.3519052734652305 
0.5792724301931456 0.2510121221959903 1.222087511270984 0.1689753155245503 1.201852440489014 3.392787118877683 1.304027894363391 0.1185817073382473 0.5862436247144237 0.8317845613188655 -0.007491977401390487 0.2102539648392599 0.6371061810449035 0.3693185895223661 0.3948348065934939 0.7546700802793429 1.067400900384553 0.1921315256420205 0.4295660370768665 
0.6902482848903354 0.1259027079677730 0.6278138360720404 0.1432869605100548 1.198556355644801 1.281607865940398 0.8914655845502463 1.280675250626495 -0.09514258234704404 0.2288606550594118 -1.326928940663357 1.107311963263979 0.1393701773631789 1.011227729156011 0.6100366076175289 0.3604902227064309 0.9931049048351015 -0.5264376036983612 -0.2393790757717587 
-0.3059548545059462 0.2235178271952668 0.2008059627534267 0.1509526897510248 0.6267428741323116 1.201657810365176 -0.4701236511218764 0.5472696522902611 -0.1910129411552986 0.09844674449752441 0.3571566923481820 0.4422872925685612 -0.8877190365212945 -0.09984245991040700 0.5627045587974560 -0.5742810989101835 0.8906565711802965 -0.1925620950615498 0.4779445794578452 
-1.290218457484884 -0.2681726526137407 1.349703940577460 1.119626243066979 -0.3943143745467128 0.8049181904795721 -1.145494064906673 0.8953749436608619 -0.1640303686611901 -0.09518026882967986 0.6196136722623143 0.5610493585602928 0.7683309675533664 1.317135304116917 -0.07894410877720930 -0.3808944972228632 -0.9478281754469504 -0.9184595051549573 0.4798533769929561 
-0.8479538987687124 0.5043620231225836 2.159523858573616 -2.094950083459479 0.1035596405038216 0.05241580156402048 -0.07718925578455561 1.744325495067438 0.1653669385768228 0.9315238348818752 -0.5845608555737303 0.6908290888172723 0.3698488803888778 0.2171330798635414 0.6035252647135201 1.867083431524419 0.4552540332562188 0.3661351266840474 0.3360329806003971 
1.016270193246073 2.196509628031777 0.9546606836033553 1.726131408100765 -0.08176505868683646 -0.7993470471104873 1.111208265322648 0.1780409559059485 -0.3592991400003210 -0.4598306626913598 0.7778899715429466 0.8842183435825134 0.4514838430946223 0.05095186407878317 0.2346962165641943 0.4328075377601200 -0.02087327766611752 -0.6841264681274393 1.293545616801317 
-0.6726527261824377 0.1168604500040115 0.8220994864096427 2.907475697405030 0.4079415220141273 0.7594370143162545 0.1042419834425258 0.9762017363002139 0.2962562305251668 1.175042781753420 1.660410338813088 2.638739744766343 0.7257384767030308 -0.3766781279537884 -0.1383786707762609 0.1984667377489311 -0.9604073417915225 1.545338209245432 -0.9210928584852478 
1.307661965609143 0.4703053671219962 0.7868794803112266 0.4665588895858366 1.589270347025189 2.035718046637572 0.1809584701041906 -0.1105399105528271 -0.2889891064748102 -0.4828861985033814 0.7411858796978464 2.384699197163640 1.284350069344114 1.672769161199452 0.01917039888801261 2.072716898814190 -1.985734748954705 0.6469343091450542 -0.3836093431993513 
-0.6113809780519296 -1.170888967346647 -0.4662839408968009 1.296330339783150 0.3775594823470152 0.3547117693677934 0.5641481641050571 0.7421452505730151 0.5423887924175244 0.5321794449011561 -1.179307976721574 -1.452834198346162 -1.002746556773270 0.1673478310446289 -0.4880269771651543 0.6359485121544070 0.3677531838730302 -0.07616445943155797 -0.8127108946364935 
0.04747529999085494 0.9231174671965234 -0.5024517049778834 -0.3387138513430150 -1.396386955740772 -0.9564108984710217 0.1442729482602005 1.099268862536884 -0.01114916802043612 -0.4174284146839503 0.4008999947247024 1.381033781227271 1.070377084411223 0.3877438755540144 -0.009462598573510964 -1.265308167427933 1.272136199063992 -2.158241474396548 1.195669150709863 
-0.7231525360704555 0.4836431272962333 0.2015934334949733 1.044051313773859 1.646345134039662 -2.472363546958363 0.4093626581447873 0.9410621832530007 0.3773602237034078 1.287938218867789 0.6983338062043060 0.8833478562565731 0.7340082754169831 1.615534457927440 0.4598491795464168 0.4082711749427725 -1.113820296731599 -0.1572628663640338 0.2891050968230500 
-1.529017598944571 -0.3553252125001550 -0.4810900361080010 0.6115720383569072 0.4970661308940667 0.7828381890733178 0.5983623480292766 -0.6377374018254454 -0.4248714555475975 -0.9184643152059302 -0.8871601386874439 -0.005916849409973113 -0.5184819273397566 0.5104029751640620 0.2599404290040194 -0.6406219238496322 0.5517406764047480 -1.502376335486951 0.3307924875493239 
-1.193385681629487 -1.377345374421802 -0.8266087185397536 -0.02005967595246966 -0.4058675139305673 1.595904179879814 -0.2404120726790505 -0.2158281616808822 0.4162712693297934 -0.009771114098988388 0.5697312548646066 -0.6956096822695425 1.035129754923764 0.5141398220064054 0.4468886556353771 -0.2354456900673339 1.028032680726588 -0.2111205460488064 -0.1730360894230871 
-0.8153073523089722 -0.2329545689171088 -1.605120172142336 0.1408030170993730 0.5737891081190372 -0.7271896452281075 -0.5927307774936148 -0.4606142049553388 -0.5597423705131923 -0.2767431175576793 -0.4744028706160696 -0.6215660871422250 -0.7219403173531665 0.09716579071841022 -0.8495091430001913 0.2406673099069030 -0.9296974488607180 -2.022447316305452 -1.757016565135832 
0.4344767228757275 0.3691883097794508 -1.165964638726617 -1.271671701227567 -1.107385436066121 1.334521759577390 -1.022509179640581 -0.08592710031564504 0.4796235600231563 0.5722456329782103 -0.05803975673668085 -1.402136444470031 0.7354301165898883 0.3282429133176075 -0.6809091507040504 -0.2403184658673959 1.524639601341683 0.6299890670688275 0.8605514175924046 
0.8589682736218195 -0.1296721654554069 -0.3960115675723285 1.252361709307652 0.3496687576936723 -1.696556236890249 0.5195119004332691 0.3046724039915690 -0.2877598299470095 1.336087984305333 0.5064455736976330 -1.487410756510134 -0.8158206417499808 -0.7488025185151195 0.4148336019481073 -0.5075897936518959 -0.5083571308182262 -2.116715396318683 0.04822638347285327 
-1.194975176685537 -0.3731420953821846 2.299967481666279 -0.8408761769083938 -0.5402244397360576 0.2121822161509840 1.197469740405510 0.4363442510559597 -0.1201299926711601 -1.846075492375029 0.7178496589375565 -0.03279576973805049 0.5507651262449422 -1.849360266577734 -0.1562259362465381 0.01649961991738945 1.261246871656513 -0.2525917631315292 0.5574627777593633 
-0.4963955542002543 0.1193559354297486 -1.345688109625518 1.012347030444348 -0.5858122445198247 -1.563579137427624 -1.247040628411649 -0.5966027371418502 -0.3073495515944607 0.8473504381787680 1.048210841739550 -0.2006729519062842 0.6132963267150316 0.6410846019549230 0.6712687864009650 0.2571726017761003 0.2933461922626063 -0.3819060982459234 -0.5426950882677055 
0.7120249892402268 -0.3590238987898874 2.253524845858192 -2.137563617088114 2.160524806297950 -1.212011328797293 0.5818789585414059 -0.1006258017774109 0.6924095141316499 0.03227122856051327 0.1314123567840272 1.062418505649615 0.05740980141002133 0.2105755937062524 1.003570272200185 0.1791031868796844 0.1753541963428575 0.6717495460080248 0.005700156472318210 
0.4052518562291355 -1.933308065481426 0.8873425572168541 2.860690025019137 -0.1864773836619351 0.7769259437903989 0.3055144044367036 -0.4695178774204730 -0.03111105883642402 -1.558398629516737 -1.272107632593184 -0.5113846348094414 0.2042307052750038 -0.3110688728084496 -0.3653137292596794 -0.7930730813844248 -0.4414835268119735 -1.240946726061095 0.8446620975301393 
-0.7361167353178221 -0.7871471015343611 0.4908385468099226 -0.5731660546447958 -2.103293351743237 0.9380559043011995 -0.3011136226051019 -1.172829719955200 -0.1446712968779776 -0.5630314243004131 -0.7850067459273261 -1.198584636208679 -1.282993246869374 -0.8920682147037372 -0.1768851490755627 -0.2196018100893112 1.219853427931077 -0.3225623804339410 -1.226315888309864 
0.4220415437646165 -0.5686520905538417 1.026530215385458 1.254450689047804 -0.5709770559636710 -2.124215287012300 0.1162704267694387 0.3012186843022141 0.4163818223386283 0.03308458342922782 -0.9582171740632953 -1.563498981333141 -1.917912637864934 -1.440745352247473 -1.476935831964620 -0.9628528547548705 -0.8179078716474983 -0.01506860465446405 -0.5927063203585808 
-0.4281203156418784 0.2673614732210775 0.1481467723758066 -0.7582966175588647 0.8233950929923813 2.810520315904704 -0.3909202841024849 0.06420258254769537 -0.08856657392374703 0.5194140322816441 0.02451112679381484 0.5179950534039242 -0.2956579190450113 -0.1229515584134136 -0.7748962982664076 -0.6824814256224497 -0.9761204086684007 -0.5516712804867081 1.191628518382750 
-0.3806784529723746 -0.5688742106077207 0.8006921342247630 0.06435314873474335 0.06446153092165419 -2.049974091325201 0.8052434907900207 -0.7733998385971876 0.3303084550398426 0.1508292761626225 0.3475655978920136 2.684144642115750 -0.7372949613215758 -0.1729717532225911 0.8476856909681189 -0.3112890133815298 -1.105492230334117 -0.6409756293998418 0.2548307047895163 
0.3422295847288396 0.2725858715170025 0.1266205981427433 -0.1608857615414378 -1.043252928670386 0.2337379389966415 0.3218924737626931 -0.3799918950885202 0.4021563227978309 -0.2798238667203613 1.699624246336556 1.962600176154091 0.5595372408513015 2.054046930339867 0.1471333518313563 0.3168486316683886 -1.115427782096527 0.06961747295558215 0.6780527073382466 
-0.3913501249417193 -0.5214179807791122 -0.1554632357862486 -0.4400395846294244 0.2461002364018390 -0.6144787275842538 -0.1770219388109637 1.183762312192924 -0.3044305081710425 1.439813788747888 0.5612843198521253 2.119945105023532 -0.6204211246293061 -0.4241088691758503 -0.3503278555547693 -0.3513158494366166 -1.943584770431281 0.07026913825646953 1.568373029683648 
-1.559230366377014 1.595683075424749 -0.8595633058631026 -1.618628506434144 0.1473851343805889 -1.250914326099627 -1.319160945411763 -0.1650999801916264 0.9697385212965752 0.7654187459514534 0.5084764715212053 -1.014469869666653 -0.7745406742176416 -1.413620119689374 -0.2461394420956141 0.4039207316918917 0.8709944860154906 0.06874425493173059 -0.6254290817511351 
-0.6999433855154602 -0.09814908696515220 -0.2802717017852480 -0.8563171239733650 -1.433533901140016 1.180806114807466 -1.369427952443169 -0.6846805315542657 -0.7232056301851645 -0.9435715733078510 -0.3468738962258541 1.167871900090436 -0.2954288918248351 -0.1326566838715045 -0.7536229820272212 -0.1074818654251492 1.240147462291917 0.1017594086226142 -1.085832610768203 
0.7755165408449085 -0.8370237138123160 0.7260866080681012 -1.764182490862265 1.150779000191856 1.791926081235923 0.9000067994872823 -0.6254301254618481 0.3521491778275903 0.4238442285734949 0.1542696606919238 1.260303997963946 1.450621487779733 -0.8816283912975063 0.1782972497783255 1.218386788965201 -0.7304559687782284 -1.101122657186750 1.137033614713858 
1.562843161651857 0.6053335400383013 1.875299054100999 0.02085049780074054 0.9035945353702394 -2.059474766653337 1.080690977183445 1.047926318355962 -0.2305831856234916 0.4332100493515764 0.4304758503702730 -2.103890922654228 0.5601422513453411 0.4102890227259167 0.4227278855619278 1.144982858827063 0.5778598830022117 1.869932044801202 -1.046692466099661 
0.7842714445613033 0.5066937989335412 0.5711886926295211 0.1062369199407487 -0.1035302551997989 1.218611390900716 0.03398647796485717 -0.2226888123001792 0.1839021837197780 0.1626104049009414 0.2701296060145221 -0.5221846811439078 -0.1457257447990865 0.4184484802029597 -0.1918838481153264 -0.8849824400624264 0.4101215741620107 -0.8236162508514249 0.4544654034878418 
0.6083784837645992 0.3426414140575244 0.8659526859652150 0.2769957942975678 0.6354770882711930 -0.8839834594169836 0.6371333584265141 -0.1679256757710700 0.5809977232244636 1.370666074381861 0.1556152989570957 -0.06185993407033305 0.1013218049814188 1.284212260160498 0.4202881115045509 -0.002942467017831546 -0.2540852885109955 0.7147684843962606 0.3788654095268753 
-0.2026433032457745 -0.09841691084672291 1.144205747318690 0.08827884933378709 -0.1472546007516304 1.202118762821880 0.2191126528938523 0.1663046130811754 0.1197371796115636 -0.5729110063916296 -1.753672449841386 0.6083746628431053 0.01970978979668082 -2.275164897728002 0.6077380877579447 0.2529230952446552 -0.7859708321874941 0.1092086873757014 -0.7737556748703642 
-0.1684535856714438 -0.3698844402520923 2.255221523778658 -1.249223646740630 -1.008045265566869 0.2750882405511730 -0.9872119537764262 0.2425202645712435 0.3067100654011374 -0.3795327655194490 -0.6569387209061033 -0.5989464031986462 0.4459999099919952 -0.7383462476299858 -0.3576129795952686 -0.07411654704322779 -1.696923630180449 -1.043426115320377 0.03107206025283845 
-1.076865134665022 0.4087940988916801 1.140838758239795 -0.7891323505070917 1.121779302457282 1.078773745723785 -0.4795761015019164 -0.5563780826257058 -0.08133761681353730 -0.5919802104134939 -0.4141871471342681 -0.8639319407062989 -1.473653851978138 0.1238633715711267 -0.2661409849027012 0.2339854304363150 -0.9390828763747336 0.3086546448811309 -1.007823051457845 
-1.168118823991417 -1.558200243221512 -0.8377473384015214 -1.841365170976599 -0.9211303690432400 -0.1740205640200075 -1.922138778861785 -0.8974273740270721 -3.218781611029433 -1.506726181145569 -0.6861005161629374 -0.8368365886900524 -1.059605656430237 -1.178646113399673 -2.141019582283023 -1.343714028777838 -0.9297929249897516 -0.2596294420411321 -0.9445337410642415 
-0.1572637739313300 -0.4438975350507191 1.414959933705469 0.2726698894277689 0.06681671956430052 1.108987057398871 -0.5941608748056693 0.3494268818045438 0.07891235185079125 0.8107043086709659 -0.5000774232330937 -1.627046407781717 2.028627183814972 0.4029821775870872 0.5660407509744265 0.03651840221137748 -0.8026826416764473 0.5448516260695181 0.1716765567138547 
0.2281752163551333 0.7418414688202797 1.249186204043923 0.5117630972721872 -0.2811090495132017 0.6403757328851152 -0.2633743989807263 0.2758144520442277 0.04122485544769963 -0.3102323408782804 -0.5225852690991230 0.9158253660456471 -0.5670446698724015 0.09876546987520006 0.9145166187473647 -0.04342134445431128 0.3824761467548903 -0.2265222581232493 0.5324106683760857 
0.7292272603511297 0.2328117942599754 -1.306122901221821 0.4657979155525194 0.2779283481024052 0.1709811547414621 -0.009984144560903366 0.4030599113274675 0.1153906321593844 0.3285007148159757 0.4153448412894714 0.001393637984786832 0.4690500585567466 1.367386358264691 0.4323342377273345 0.08951633237281838 0.7150804851864506 2.306797436649931 -0.06720546377519396 
0.3487789264040890 -0.5119551796064472 0.3832940951963315 0.4157640565908071 0.3730068891416894 0.9557264417924756 -0.2036703786554089 1.006124034727568 0.2657431677050248 -0.4120345820756239 -0.9566057401798439 0.01221688536197121 0.8171601103010243 0.2988915249779197 -0.1626524386909979 0.02703271582270692 -0.4747508375529314 0.1373134080601210 -1.677958225543864 
-0.9683325080511923 0.6685582596507791 -1.015297113840384 0.2943619702973299 -0.3354506459149317 -0.3705804602766575 0.08791644528127121 0.5392364880052000 0.1788062057122235 -1.736423164388019 -1.130876883216082 -1.036543289200999 0.07822346725089549 -0.6316735102501824 -0.3624205332258360 -0.2356176104401010 0.7041217744562573 -0.0005982537864172022 0.1513649973476598 
-0.6237731681412501 -0.3386833985450312 0.5698118116915930 -0.1319345083125134 -0.4068227973041073 -1.014954387160252 -0.08915805103238877 0.2003128258351895 -0.3307168968657911 -0.7910539790321148 0.3010440426384137 0.1714383582751874 0.1405199718197283 -0.1435592937089083 -0.3241076449124646 -0.2721254309037997 0.09751442845870893 -0.2461012659207636 -0.8579206039475749 
-0.3272641766891850 -0.03946724637844526 0.4735376118357203 -0.1669301410759264 -0.08232030202631661 -0.2775675838798164 0.03055949769189285 -0.06008876657326091 -0.1274147344694650 -1.230647049469631 -0.2071799430486733 -0.09754175825973371 -2.444039573736572 0.7365953902081720 -0.1630769905425712 -0.4903300363624385 0.8014497332106520 0.5079222644112128 1.229144736488512 
-0.7511203532696430 -0.2815144749539036 0.5064973194512385 -0.05442863789033245 0.2394980949583419 0.1181822425552836 0.7476323817082954 -0.1024805818304780 -0.06722536449219277 -0.03761660230180886 1.529845798639453 -0.4573404148731394 -1.606332967129420 -0.3896477122850073 -0.1188693920429663 0.002283752196316586 0.3001742792136206 0.2979328729662449 -0.2039875360705946 
0.9553564647128830 1.028126828487257 1.780675079531751 0.3916789069399447 1.454141099217742 -0.3086653771663547 0.2837757553389386 0.6898065654189934 0.4041921060239216 0.03307613727609229 1.902917943199416 -0.08186903109270177 -0.8978281133511324 0.1344981890335886 0.1315677683454402 0.3427268059477786 -0.4813479006505875 1.020183282960425 0.2251296332149884 
-0.02083900914216001 0.4137813239127601 0.2837429155570126 0.3456019811260388 -0.5395632361894054 0.1344985149101139 0.1290714115015096 0.2218428868001616 0.3295533024810038 -0.3035404463282495 0.006674152621353047 -0.6140337257570494 0.9710532561284123 0.008472326274201018 0.03534846069002006 0.5112768326970423 -0.1840776677731884 0.3569102714905756 0.7794576725215616 
0.3111798588361465 0.3571772833904226 -0.1029835775801708 0.5598025619814605 0.09939931445255927 -0.9710426292731189 0.2011856428121111 -0.4183493969433782 0.03818202497750630 0.6054771293277954 -0.04864752273922234 2.219553613582272 1.670043616973697 1.071249476258087 0.09155436954443550 0.5404484211248164 -0.04157665782693237 0.5605932130929754 -0.07181717971391088 
-0.1890689211230423 0.2119907771018062 0.1245810772925821 -0.4711096657950128 0.3673214054151821 -1.982651764157175 0.3645539405327080 0.5081862396711628 -0.1089726285892049 0.9365468099999606 0.01020715690141824 -0.7263420092642101 0.4681869941862029 -0.6362944734332083 0.1315354060389210 -1.148729066529390 -0.9475520113671017 0.4073412843676261 -1.177978557037414 
-0.1882773890672699 1.062585644433493 0.9003083642615194 0.9533518506587000 1.424530040590510 0.1248532404994900 0.7185483682718933 0.6379945019781194 0.4849170288297814 0.4464965641337831 0.8141176803271789 1.857999508069528 -0.7114376852772585 1.366393770945399 0.8308839531638061 0.5942763915706504 0.4208617434789232 1.745551353989060 2.202641546566685 
0.3032023096706330 -0.9400974553453073 -0.08694856554744466 -0.4416096346980877 -0.7703276376874802 -0.3121939991008252 -0.9692331285830981 -0.05767901801044835 -0.08266261427758984 -0.1613427494955055 -0.9991163045203132 1.502042028261854 0.4054066738957899 -0.7506308567596842 0.1669324917990685 0.2751866245295741 1.004823610118820 -1.942445878429080 0.6772857467321662 
0.2243571468959309 0.2404521368525302 -1.047052584508929 -0.2174543130382109 -0.6054480382700453 -1.121208275295844 -0.1477827728506269 0.5263783587398785 -0.3050624099850474 -0.9032623817701688 -0.1044588903581079 0.7015991100049174 -1.561893325308697 -0.01975805620912772 -0.6097116126108484 -0.6754301467521061 -0.8581488979097263 -0.1812011786642426 -1.246721271473600 
1.375893457844753 0.7558845105206760 0.2291760136705925 0.5693633829207848 0.2224837581622697 -0.3261177371731244 -0.5338467897627799 -0.4470276008158967 0.08783801351373020 0.3621624796755366 -0.5492100663672886 1.149918014965661 2.237406466663608 -0.1014437848644740 0.3832517649380286 0.5354749476289378 -0.4432341694872303 0.02688899397484500 0.6910663798275440 
0.9431919831738808 -0.1360751664659481 -0.3788826624625308 0.05898001960496395 0.4971142151346394 0.3825986014259694 0.6502590303783787 0.1069167560635363 -0.002127510386898378 0.3311124921341593 0.6772038130669218 0.08615581154516580 -0.5919975764534018 0.09229987280227040 -0.01546201487961175 0.4137404731596627 1.655235195323290 -1.028374007197784 0.2331460812023687 
-0.04683117930369400 0.2970974493823671 -0.2973776434828671 0.1614442117272031 0.5995589470776632 -0.5411007241897160 1.170909963380757 0.5205922049866331 0.3992543163845114 0.5122947548553114 -0.07894341365367696 -1.232373699006817 0.6327423469774006 1.282584613039021 0.9306946797917074 0.1835330532218803 1.143706398582571 0.5230539739748742 1.836858727608150 
0.7618694438318933 0.1113792198605525 -0.01814466912827193 0.2095292397018851 -0.1579132237626217 -0.8575230943203151 0.1649677226057355 0.2403842338747645 0.2733043851496831 -0.4498349578754248 0.9003561768660980 0.5280333778698018 -0.4081960290095691 0.8677606085493348 0.3821186579818620 0.2443563204460128 1.105440527405291 -0.2897512968054277 1.005691865270926 
0.2570010931145365 -0.1625855314131438 -1.183784785070712 0.1539065673127881 -0.3931869096265369 0.2346470151867737 -0.3959070789155332 -0.2288226057977771 -0.01781460180304524 0.2044325517700587 -0.5040940566022638 0.07756918937326442 -0.2993187451323493 0.5571571678719873 -0.1369514381124458 -0.8191116087101282 -0.1017837696817413 -0.1194918889355421 -0.3110829449709751 
-0.2994729795025967 -0.2117943956327842 -0.4121146102674874 0.1252278508242260 -0.06634946169420854 0.1948585950764497 -0.1341056045945382 -0.1203376102816303 -0.08972758744895376 -0.2598695152182111 1.932569386858937 0.01654731162735460 1.281333487953680 -0.1316974020956687 0.07492619150226118 0.3912847467997582 -0.02405416306550201 -0.5129038513738648 -0.2180097223411209 
0.6762836596373543 0.6308935381664124 0.8631890406698572 0.5566204234222055 1.297641639222252 1.146017287841399 0.7989070796232958 0.4695720872879959 0.4438647246160025 0.6291344512734638 1.269094643775053 0.9904617846602045 1.129016880591570 -0.6640214901558659 0.6635771731638574 0.9206561782347646 1.826799299721085 0.5643506309474696 2.138068262325345 
0.2478961068053465 0.2041420087328870 -0.3241367012786362 -0.1677046489228826 0.5609618117800772 0.1597918985114083 -0.04911257897696351 0.6580978819858623 0.06727001748246196 1.346702265949370 -0.009949261808486890 1.651564430630333 -0.6070788100312344 0.7851340896503005 -0.06055273227829766 0.1071081120184214 0.7241866475666101 0.6833056413070948 -1.221898276228998 
1.112715867627198 0.9852900923939774 0.6628804894225203 0.9736496058804821 1.127908464556572 0.01910486851702947 1.281167119932554 0.7133701669910353 0.5069879379303254 -0.1362224345822124 1.617006093922963 2.231106051015597 0.7368965283965712 1.395435490488221 0.4829774716010786 0.8231625244860787 -0.6178060846327283 -0.2581463514745850 2.683265345853829 
0.3115952170083618 -0.3783907449012374 -0.6020610090804360 -0.2207534279047697 -0.5139321445131576 -0.4157116848603051 -0.2140863480510173 -0.3747239711707702 -0.05233023471257484 -0.7608156036445956 -0.8814475689530937 0.6890968175255633 0.6292291664398166 -0.1402813008689416 -0.03056939138092636 0.1845359587385065 0.2993613562747775 0.2360133916918137 -1.535859928251154 
-0.3969033906734050 0.06812517091235165 2.119172442199786 1.029324801913241 0.1505335059444761 0.7960864710437419 1.030474227065302 0.6179968393210123 0.3683758157815785 0.8869004345527970 1.392473578700215 -0.3891996201693171 0.1305382637555947 1.283626165154713 0.6589470109458957 -0.07697133524962202 -0.3741780870906992 0.1052971952598374 1.845565097557687 
1.120048189320475 0.6824787648897506 -0.8898661670813224 0.08855204683542343 -0.2732153402460436 0.01938632969746340 -0.3421172324389070 -0.2957428650680424 0.03984571490675991 -0.5559908610905170 0.2192016214322451 0.3793026141507231 -0.2126606016401889 -0.6809496471082345 -0.01105711681462748 0.2282464189674464 -0.9826126361277645 0.008578297811775536 0.5457707275482100 
-0.6088316894591683 -0.2737337189457972 0.4276409768601155 -0.1942265032418661 -0.5484552046336427 -0.5442565060913157 0.4259090502873509 -0.04896659110446482 -0.2052748531918006 -0.4566269895923212 1.348844223811031 -0.1628997787372093 -1.087760413693837 0.1249793322636109 -0.1736030529258346 -0.5923501168734243 -0.6408457884071412 0.3820636601625552 -0.08284071135168400 
0.5149948771071551 -0.3065482917278712 0.4757028929216812 -0.3102483811079192 0.2386055929129273 -0.4468535346033369 0.6802170176109381 -0.8139013529105315 -0.1063992990184222 -1.213037084405334 -0.2065630629120644 -0.3430599431567534 -0.2169167573288642 0.1375483769745295 -0.2203443726511044 -0.6501488454390422 0.4554550514641311 -0.2639685299667682 -0.8216667167988584 
-0.8821581990541078 0.5869512278964673 -0.3421436178227494 -0.05210749965526786 0.1309373469325834 0.8697876611494857 -0.6739393862041162 -0.1483956727625030 0.02210530554627258 -0.1225777188734745 -0.5463160173343599 -0.4796533471274125 1.454992166645690 0.7977553340959923 0.2459975078544818 0.6307276553930231 -1.964140063266303 -0.6005152336766074 -0.1790093053550324 
-0.7064386454170516 -0.3827581688043794 0.3808679913463545 -0.1083231755985512 0.5266999530998461 0.4163017936458304 -0.4568925857664059 0.1975777276022284 0.2306659027911488 -0.2992856631985644 -1.174586030613053 -0.5617191187507211 -0.8924401894863166 -0.8901476483137809 0.2086102423083887 -0.1299573700488407 0.3123801840286542 1.813381594607350 1.566562722813280 
0.9272252256800204 0.1899895946725169 0.08593922218190436 0.2048941560995912 0.4445252982296781 -0.1437632689734467 0.9049284463008865 -0.2892223194097198 0.3222189797275097 0.9480680785199893 0.9061738730140925 0.3740969260688305 1.951449030228174 0.1741797350157567 0.3460077434288051 0.5053706041616868 1.263526945324550 -0.5911971443546591 -0.1285344688495875 
-0.008599560187228293 -0.1085610220564079 0.07457929606026824 0.1324340472579464 -0.4883673176111880 0.5409938572526788 -0.5758229765258941 -0.1784270973929478 -0.05262089322297713 -0.8649562057016900 0.1010931220834376 -1.786762828274624 -1.850160569731981 0.3928995042059664 -0.1400135611602317 0.4176990465913169 0.2558006012610666 0.6381820656757498 1.810629719399816 
0.5697600151238188 -0.4263829722278683 0.005080906606910608 0.6131913637066744 -0.3874541287580794 1.571925807630268 -0.6882664933052310 0.6929764859120082 0.009574786469624431 0.02162397746827906 0.4514822668317221 1.763756550311485 -1.303477278033869 1.444685379803955 0.3088067711032927 0.3714186371211536 0.6984371605397216 0.4234135995132993 0.0003216040991207425 
0.4391339251392781 -0.01508015976055294 0.8522034007186282 -0.3644641610100328 0.3622672183713162 -0.3814139543837193 1.482942621645622 -0.04124522690293513 0.1670476449974722 0.4012294133884964 1.225394316005220 2.221469364271092 1.428838170200644 0.5207633834018163 0.3414896813591868 0.1428518211080158 0.4329867157929083 -0.1309058881431814 3.016238523094829 
0.09184243247872131 -0.06391229057187223 -0.2194476180239993 -0.3510277084927895 -0.6053812472112622 0.5061201356295383 -1.378946742319386 0.2493204862511766 -0.3619673010116620 -0.7328076631875995 -0.3383530179487679 0.1949324367218323 -1.433556680126022 -0.1540150260464393 -0.6884006281755042 -0.9112530678038203 -0.1255013130480147 -0.8866764298460726 0.08656215043772644 
-0.1604555787858717 0.3276986024303796 -0.8394404813663507 -0.3257420288258569 -0.6418818651712769 0.4876392783318063 -0.5499068015576423 -0.6071185252727364 -0.1381017563929851 0.001943683508951516 0.2048864588012727 -1.331019610441149 -0.6283714552099198 -0.1946543606475839 -0.6615956145956178 -1.099179610430922 -0.2689051989335317 0.5163664223114768 -1.631511611569613 
1.338166556245415 0.6232715843051728 -0.3540812598054974 0.4567699198015799 -0.3518205462911364 -0.1567814025832354 -0.1872008166512497 -0.08752250730915888 0.1240450586368417 0.1431836661109049 -0.8301444316986485 0.1520215586920253 -1.107756225218618 -0.09149277121690513 -0.02222237137133028 0.5797258981690365 -0.3875940116923753 1.730032934351554 -0.1290566297492179 
1.322978961621685 1.576342684542211 2.071397941811000 1.492160491696674 1.899405165804915 1.531291428216337 0.9220631072618627 0.4501960865741264 0.6421969017560737 1.315259951193747 2.884372669696985 0.1021564083094476 -0.09383252727852993 1.531753062755780 1.014386308387803 1.308802528560368 2.144048459957777 1.579039300655242 0.6477583618449673 
-0.08278101037233175 -0.3792452452306883 0.8924498338076408 -0.2805100486852943 0.6257860603775092 0.6187399010583967 0.6129246194923819 0.09452675990735371 -0.02968376339105478 0.4740164295178222 1.149982720849089 -0.3227829970953789 1.005776038763524 -0.3496038461103508 -0.1821475511893854 -0.7416028719878088 1.314165323758866 -0.6168093693156647 -0.6221776724506941 
-0.4612735225982066 0.2947406387588542 -1.465794840451662 0.5100395134571856 0.4206995394554572 0.1768121464159458 0.7028205527650304 0.1043173720608756 0.1122439158616266 0.7558687364021898 -0.4010798522401843 1.281451095701468 2.286342356267211 0.2624824145586340 -0.1597845304217786 -0.6344893501364857 1.605873098749874 1.449815602772457 -0.9940738321578488 
0.7601614528604130 0.7871140312438623 0.6382825961950076 -0.4463527854226280 0.03681354061101260 -0.2512021373971300 0.7524037251553616 -1.024570923320855 -0.1735597984787901 -0.2193253688555782 0.1640875938620811 -0.5194560472662380 -0.9557834144977976 0.3468481319451199 0.2469793070579989 0.2769888467063028 -0.8418939017113767 -0.6141102647949575 1.027971803404689 
-0.7086548975112967 0.2219850165613342 -0.2307246180598057 -0.06747622008927492 -0.4266190169353098 1.221146385415739 0.3905840884452955 0.05254801938756602 -0.04212946980511499 -0.4467692258279404 -1.122575777885242 -0.2210737097539232 -0.1390099262734074 -1.164450997404244 -0.2073999494789965 -0.3905001827960722 -0.7567383063861506 -1.319571746913187 1.056213597034285 
1.399370322670519 0.6705944133938493 -1.285513978737757 0.8235121800461844 0.4760838947236806 0.8063138180987072 0.8115330599353727 0.8392294138470927 0.3499711893981759 0.7821210420857658 0.1992202221556426 1.803728824041467 1.894578255987716 1.394096068725110 0.3621234986300387 0.8216625561342137 0.6556364244885722 1.015806334815784 -1.106617438666021 
-0.01336525919324080 0.1934793260444122 -0.9323062367350152 -0.6490347692941528 -0.4217974191436556 0.04991905110338467 -0.5278265083683810 -0.3066317732793522 -0.2258101308884915 -1.126080223766935 -0.3954283066812144 -0.9312438832447171 -0.6270639021637345 -0.07685806514849333 -0.2809003895265320 -0.2961895046491940 -0.3313212765703315 1.048118862392499 -0.7002094769343326 
-1.404494260234754 -0.9983347788357633 0.9777640226804853 -0.01325026719331704 -0.8383695741064994 -0.2754230410082119 -0.2667987847220157 -0.5975512975842319 -0.1408625331424628 0.2647788684225571 -1.136568351465036 -2.156261985211581 -0.1214451106674948 -0.6033687495399271 -0.2206264608750734 0.04783468416105682 1.072099760499737 0.6195390677898641 -0.2762856600050958 
-0.6246379907694479 -0.2034150573467762 -0.1477149154725830 -0.6453999831544919 0.1476520491034014 -0.8264959041269010 -0.6000460980902588 -0.06203728760720567 -0.2008777465409837 -0.2528400429493047 -0.7312963591245845 -0.4580016684815185 0.6848828427288882 -0.8220951225433779 -0.2080444746226687 -0.8324920646277102 1.068114205419216 -0.4875815524970965 0.4701270197675057 
-0.4304421862771435 0.2356869636908698 -0.4336225895715452 0.3786790041385809 0.4346970149169677 -0.7071213183546914 -0.1625592887282993 0.1936086508018977 0.1806585234460699 -1.110361153119283 -0.6146184304578280 -0.9734473158941829 -0.4540538883537716 0.01078181138473771 0.3495144398010137 0.1703575005079943 -1.148489723014639 0.7664603006895256 0.1219286446340358 
0.3787627827735158 -0.1220054704768446 -1.421656271445680 -0.3474167021209423 0.4954587779335482 0.4943294046443080 -1.676247847102359 0.4037438317350225 0.03656394735994831 0.1022601890404775 -1.170931844351637 -0.7424712396728891 -1.237113670693514 -0.4707512059768669 -0.3281707444742817 -1.039168106752797 -0.7792974122057816 -0.3414066626616366 -1.053985502084825 
0.3572565056498232 -0.2901245204515677 -1.282451740551742 0.04783328053961546 1.149274083300072 1.181124849250114 -0.5729363108451815 1.430818353206391 0.2580743424816883 -0.1606798674582374 -0.6229625894090649 -0.4470222566297095 0.9594537986750010 0.2846877967735936 -0.09311965446407368 1.130211008797390 -0.1160720131104989 1.762844998151201 -0.6221827123808165 
-1.111409743315684 -0.4192458466247240 -0.8472584276994093 -0.6430901086666370 -1.354609269861194 -1.313102051061692 -1.721863555333698 -1.352198069557208 -0.6035651336440755 -1.420992695566627 -1.489196154359380 -0.8754401249470510 -0.1253820210141701 0.4050160362662877 -0.9151875534595326 -0.8980441249958010 -0.03447732437005347 -0.1091348508508272 -2.146239865919307 
-0.1425258619598948 -0.4688913654127550 -0.04435173395326628 0.3736483852066631 -0.6187025832903258 0.7346520189358360 0.1913271076818201 -0.3970013116000485 -0.05160312392307630 0.06989912983929336 0.08909431574247488 0.1233726681133534 -1.136512657488306 -1.190220329383100 0.03424169100167563 -0.5107459914947108 -0.1139184370706849 -0.2575296768188879 -0.4809268591243588 
-1.455836071203767 -0.8166770709870478 -0.5654395799071598 -1.077252276868181 -0.01756482539212766 -1.215712500561045 -1.805796645123480 -1.037898745604770 -0.5791528507526935 0.1666649184282243 -0.7077712755116393 -0.3457973378806595 -0.2426896261853503 -1.525490512368839 -0.8936880899993951 -1.230428881197951 -0.7779413091317753 -2.340105612888453 0.1794631686396030 
-0.7003949887440473 -0.6654671937475680 0.5518450995972347 -0.1537486623932511 0.4728460131663868 0.4674975025634146 0.7323737976722587 0.1673910654025264 -0.2061816962985931 0.2229655307522796 -1.175788864941392 -1.046064508970722 -0.6916176644699792 -0.6753166996592957 -0.2603635166884669 -0.7880253196926125 1.006064264614967 -1.390599240793618 -1.068979754244063 
0.9032152795020175 -0.3564095645513298 -0.7978618198653505 0.4350992480530142 0.3720877336296630 -0.1819328984365384 0.2541236871662541 -0.08071269520346498 0.3161150207694942 -0.4322858037396570 -0.08161037329220380 1.222889767605044 -1.375510924714367 0.2247094640622296 0.4368582993504870 -0.1204853705410233 0.5992679378471996 2.426625114068946 -0.2464677726501773 
0.2079907779464224 0.8517474863752683 0.7415805727222174 0.1345803854988302 1.452373604359472 -0.5704617865852897 -0.3270415953199092 -0.1354633975990952 0.05876868301055600 -1.236943876561408 -0.4945708518739236 0.4561859298900758 2.363827505325469 0.2291711686508922 0.2115704507063020 0.1244104815338573 0.5761056571233902 -0.7009806077020936 -0.2190638902625172 
-0.5363019745755392 0.4309870781557465 0.05533656464660552 0.2391267879686093 -0.1934030592634181 0.5350466874320328 0.9711927198159501 0.1012884201049839 0.03681235598789547 0.6606170708093450 0.1304058841031161 1.829110508370424 1.167316079793661 -0.05658577379918493 0.4375878745606713 0.1699923926193437 0.6776752386906284 -0.5545989809440739 -0.09442539820410054 
0.1403720213339599 0.4069941167031391 0.1845616443621086 0.2400068072496329 0.8440422168586410 0.7205497026996037 -0.4699423760134441 0.1158825242313736 0.08487249420449675 0.2106125418016724 -0.3699809454419487 -0.1325031105299252 0.7952639989611408 0.2390450919758889 0.2753981696391061 -0.3075859096749441 0.1533476024170971 0.1234674722346270 -0.8658189854159840 
-0.1325960528900392 -0.2686737426150267 1.154311175506314 0.4812537150422296 0.9428320179913188 1.487012637437686 0.2722799973494944 1.174665591931326 0.2697712653885210 0.7729424998353787 0.8545865360305895 -0.08533380556984532 -0.7368851198735008 0.4259050852748855 0.1768537277332045 0.7042309094134668 0.8778235815128892 1.117850758553728 -0.7166958324274290 
-0.006703923912591621 -0.1531435527157045 0.1733875726927990 -0.4324748249337287 -0.9852705525646408 -1.009923151558593 0.6929816058747320 -1.408694515600794 0.01149170027159215 -0.07657661998766775 -0.9920324238573666 -1.288439669586163 -0.4016107159765462 -0.8665104640742567 0.1058631654408225 0.08282782371369962 1.153362844654946 0.1075299828384863 -0.4206493897687809 
0.6767434376495659 0.5831470165167807 0.06910286501054046 -0.3807212214988612 0.1352487190816971 -0.7922038715342126 -0.3601943568296336 0.09897703160845497 -0.1499008994675518 0.1350685267869591 -0.8511830918741046 -1.530008004399960 0.4323485866022823 0.3322436515397296 0.2812802180727237 0.09182180434531896 0.1851042401255587 -0.01496430429542557 1.497945045750550 
-1.256563423461328 -0.7743313621720436 -0.8047747300603441 0.2912868333079171 -0.4391004795998270 -0.04009154709430363 -0.6511993684254778 0.4092144066041906 -0.1804809114114202 -0.2009239013490368 -1.150883542960394 -1.082961708394716 -1.608281231249780 -1.156512635880916 -0.5383560581465822 -0.8244660276254010 -0.6597729621698607 -0.5251222093447850 -0.5144037237690430 
0.09924347302549459 -0.3133575389019158 -0.09435020612083611 0.09161863887860590 -0.07786154325484351 1.591657845348397 -0.5246574481084780 -0.7417114976499588 -0.04935079924353860 0.1588792543408288 -1.489466664307191 0.4068628944152287 0.1679827592317861 -0.3774069122128899 0.0001790645327673784 -0.2318035358239974 -1.722842088842662 0.6168157181467688 0.1733421202601460 
-0.1431877700508219 0.8862767239822081 -0.9283954372225242 0.1133792901715870 -0.3404395209943660 0.2920324815916791 0.2808409259084119 -0.09228253421578349 -0.1109380022554199 0.6363582518496271 -0.7750023349966696 1.072365390186976 1.772469461402882 0.3302711862506231 -0.02705290855898800 0.4617044107214234 0.07704278080236832 -0.7742793654804382 -0.05438598395338648 
1.032372243638339 -0.4002633953013797 0.8800124994585443 0.4513005625055453 -0.1172445420346698 1.293892834427994 0.3220443854542075 -0.1978001661351244 0.2101024460992028 0.8224161999515873 -0.2228658269979592 -0.5182817595647057 0.8947511035263441 0.6743805465826884 0.07680565385661671 0.3633296918421742 -0.5239695677270626 -0.2506335072070194 -0.3518282537539924 
0.5052624442039364 0.5716881602767108 0.9596874853109727 0.4126400019205744 0.8349719256388540 1.252678537729372 1.135569868697032 -0.1615019033526015 0.4144055880132463 1.127082695416634 -0.6323756015797573 -0.4919645867273708 2.197230423413091 0.2197347160466309 0.3971621521692056 0.6715656130167070 1.125049805660690 0.2997169592833185 1.300887321345432 
0.09557846856094251 -0.4338293307263982 0.5034487642447637 0.1721649770553432 0.3186863935792564 0.6466113839462566 0.5397639395240700 0.8119973425550052 -0.05634863584884244 0.3617254813796391 0.4009813675468845 0.7913973552495889 -1.646484342466819 0.7308358443812430 0.04715313306675407 0.07738382841497918 0.1791070391285208 -1.209286587144809 0.5811717485439990 
0.6349725262872001 0.02543085102639503 0.01144457679939223 0.01157632311415594 -0.2343636015087578 0.7471602828640637 -0.7948193250612566 0.2506167813551437 0.09456218468748956 -0.01725210819906856 -1.277168790747511 -0.1685096227931807 0.05585551583644068 0.06448676481515330 0.1383113494771716 -0.3905877153234201 0.5073388375442806 0.1584058847007729 0.04149423116166641 
-0.7142529682608391 -0.02208491639511302 0.3315535398050072 0.03978960175458356 -0.3635303528692813 0.9002886095483202 -0.2429956479321176 -0.1837561328719841 -0.2123583025037748 0.5162791360953897 0.05686900675066317 0.3474209662342552 1.370085158501158 0.2962986170207234 0.3650645769987251 -0.4607523623960030 -0.6682734696587114 -3.327285235508644 1.066116595174956 
