solver_type L2R_LR
nr_class 30
label 0 1 2 3 4 5 6 7 8 9 10 11 12 13 14 15 16 17 18 19 20 21 22 23 24 25 26 27 28 29
nr_feature 564
bias 0.000000000000000
w
0.1503690556942575 0.5012700037614798 -0.4358565484556856 -0.4728099540951250 -0.4865586160731937 0.3221535840460647 0.4577271510970158 0.4017746983887971 -0.2737427567940314 0.2025114812222572 0.1963783333291709 0.7422415324397285 0.5653013142894023 0.4150710529060494 0.3507627490132895 0.7168420097396331 1.000227771517202 0.2605660234336487 0.7643513399749456 1.090678931590076 0.9913629607350205 -0.6216091434126535 0.7853654392812349 1.167095273112031 -1.347272964049340 0.1041553177009237 1.254195300372863 0.1985579437120275 0.3933874784254106 -0.6675343596192159 
-0.2676785735676392 1.321219483524169 0.6214763898804148 0.3289288458266055 -0.8115959772127886 0.03127907649019858 -0.7104973552246623 0.4053215015549431 -0.5738424527404621 0.2388311563489138 0.5111294465061605 0.2983746847833169 -0.5721432483587453 0.7521498107717318 0.1002071972169560 1.518408834218447 0.2376268341721220 -0.2742977834621362 0.3970217930674079 0.7414643198720998 0.4064641780442643 1.392074006253250 1.209541402875824 -0.6614830619372584 2.112855679362992 -0.04851357462507448 -0.8764055835688307 -0.8775161443973658 -1.402447556095836 0.9426821542026402 
-0.1176360109250239 0.5885410042948903 0.6831880736553283 0.3279192377192561 -1.080213051762029 -0.5592715946722560 0.6361904854890045 1.391912488929638 1.675263093837154 1.312981677074490 -0.7348561846535182 0.03874253547212161 -0.4556374289278566 0.6157812518094123 0.6166915154541944 -0.5508313449237647 -1.496151312077401 0.9825456285943267 0.4515901263748098 -0.6488771768767058 -1.471588135161275 -1.592199318695408 -0.7343954679565760 0.2570688872353230 0.3324656507518268 -0.3765146699076455 -1.072990580724915 0.09148992804468631 0.3179492777065343 -1.076541827972236 
-0.2618776013848274 0.5825723999353969 0.5266544029982709 -1.107704387698502 -0.2033844229573757 -0.8155201610275769 0.1359929358565862 -0.8752947206402064 -0.9530563973111827 -0.2871119665281250 -1.000289741391554 0.01881884425090022 0.2236225433786498 -0.4204823449480802 -0.08816993457978271 0.1058480768596719 -0.4614278755041754 -1.667800665977330 0.006118148141796547 -0.2408856572161335 -1.835718236733004 1.448347634345220 -1.130530140379005 -0.5863268463127669 0.7853762849335557 0.9734699360935197 -0.02387967165565075 -2.003601669717120 0.6611147765768101 -1.110977565059746 
0.1381958225533357 -0.06338825183074512 -1.640503461784734 -0.7510213040812403 -0.5512463593565347 -0.6219953944684850 -0.05149541812966583 0.1285824351035125 0.04363763136333743 0.7697116676113328 0.6347904175753623 -0.4680824086668336 0.2620589901816028 0.2251710383667965 -0.05495213485495592 -0.5387524904928355 -0.5940749121089222 -0.09213691697372768 0.4419275433152289 1.122539927670523 1.512361924444249 -0.5527501644515621 -1.228176394718893 -1.526095154450505 -0.4030212018277450 1.291103804427380 -1.050196155500549 0.09618099913792166 1.779038383863416 0.3580521887716306 
1.743342751110676 -0.6792714451290416 -0.2302648882538967 0.7316625002399197 0.1886383957687675 -1.426420646700999 0.5046685160378198 1.687868000464216 -1.434699521096616 0.1779581431034043 -0.002470682568808467 0.2374154836376435 -1.520554553587311 -0.2982720087459863 -0.04170655904302930 -0.5071524932597502 1.191564110088400 0.7196483967488101 0.01702932364891474 -1.100620188867510 -1.362286307961866 -2.149272831014976 0.5631983331779569 -0.03317630810518110 -0.1254277297233956 0.6914771359083414 -0.6416515355143859 1.236394347597054 0.4347094773460490 0.1757063539550714 
-0.04568512183594966 0.8518220681288850 0.08476608995853552 0.9426392164916164 -0.7125304019852113 0.3533507185760998 0.3523611179706346 1.352936163420048 -0.3782233990158998 0.1276997504520684 0.1458129371202498 0.7423376241001993 -0.6538982114069586 0.1247410508956222 0.02316373751458034 -0.5856949124210947 0.9664228752614044 0.3134757092850986 0.5112569587782153 -0.6064124349019298 -0.4866762670105958 -0.2661248494328243 -0.3453572332998007 1.225260919578696 1.778685384727428 1.351724646718432 -0.4042005737831994 0.6924230522709200 -0.1479492985790170 -0.5225792976783606 
0.6682184227163579 0.9485697511166493 -1.247699413317865 0.02980495429981295 -0.5164419250153235 -0.7453403326184144 0.3533681746889105 2.760696335486072 2.086764951425304 -0.4829957855315329 -0.5249134356493235 1.295780365990419 0.04479100761497024 0.2405470601506372 0.1445819137368097 0.1001208536790871 1.001646965873037 -0.3615429166614866 0.03671481075263877 -1.079605530582368 0.07303899405429840 0.09390971022036082 0.3288354305136748 0.3608985543710208 -1.101978533442104 -0.7406385360650513 1.143669362888021 -0.2318679345331327 -0.9485265839143827 0.2239926804685689 
-0.04954180458075273 -1.227066112325146 -0.1019496124817652 -1.355615068876124 -0.5734497299981831 -1.234331355051877 -0.5261097113969190 -0.09009493001702648 1.020322628483773 0.05525331246580049 -0.3070064020211314 0.2446640975214089 0.1909499652466558 -0.6526466608019830 -0.6035529830067978 -0.2389283163138313 0.03349975417276796 -0.5252593182775468 -0.8757013388118330 -0.2275591830052940 -0.03541490709619811 0.9394468790489668 -1.534952072005839 0.04771963401599918 -0.3787073432667235 -0.6542453929697608 -0.7467803157733284 -1.197535766531046 0.1480078490501270 -0.3062416488139919 
0.5329195570994506 2.454986334283328 0.3271363033084619 -1.292507055566449 -1.078281514986216 -0.04671085398590767 0.8573352167346558 1.193946536851317 0.9177344845239983 -0.6147982654683729 -0.3514163435117872 0.6896960989466185 1.361489394453502 0.3909698122834060 0.8266122787582478 0.5516171558953625 0.08832927319779797 0.5782295354545162 -0.5080783491168981 -0.4122725603177960 -0.3061351919388354 -0.6490560755961398 -0.6678803826412156 -2.322122587164544 0.7033890039089925 0.1982231663534159 -0.4882774345997620 0.5807352049852764 -0.7759810036843491 0.9498300964213261 
0.3413918588127315 0.3901878818931912 -0.3063784406817173 -0.2288796784677453 0.1013280748700400 0.2940801092577107 0.6829371619085403 -0.1629802441048345 2.597730759693794 -0.8258620991508083 -0.6895096789998174 -0.1992643995805787 -0.7739314511229708 0.6816463233611731 0.9555568574361370 1.158989208411446 0.9433687054546704 0.1399207671935063 0.5987171428882536 -0.4084721035579431 -0.5928556604081028 -0.1033171128141974 1.238101920424574 -1.222749011934295 1.885893665715158 1.830406754034602 -0.7904724792471609 -0.9321249722340631 0.3608522915277716 -0.7733542298815181 
-0.4517218765765828 1.459301128997757 0.2297147291604241 0.5038913187647514 0.2206690976814773 -0.5586853656923788 0.02264767148663058 -0.7069439503395488 1.819674007503131 -0.4773995968911652 0.02489495126317992 -0.2726701586684044 0.3551929257952490 0.1663192259761810 0.1839416170002926 0.3018982052088478 1.466789888569172 -0.4235199107969013 -0.01557588369479884 0.07482409348808332 -1.109998820992778 0.5659356931357203 0.8641564718940891 -2.055155534329779 -0.1998568669383724 -0.1339068250494526 -1.612199722603889 -0.3673258793939040 -0.07693793770519798 -0.08627197860852259 
1.046310578735684 1.342483520321557 -0.5780204996610603 2.556701202636450 0.2624646157444446 1.557710219034563 0.9678064427943681 0.04425612147113650 0.5595809773681256 0.3330580268845476 0.9341169593130583 0.5776132703540706 -0.7813720222771003 0.2925167353974009 1.223319267089795 0.7913239485323637 -1.121545387064328 -1.262155935941734 0.8909097012605443 -0.2853745307469761 -0.09845471589656120 0.3771884677352378 0.4546069965105076 0.2528397708823198 -1.262334618558334 0.6435215246794953 -0.08986162333433848 -0.4051560293925102 0.8912690737512157 0.4269665244354222 
-1.050257319858544 0.2591373219284122 -0.2524381312651128 0.9502571849695101 0.8268558377122228 -0.08718760780756275 -0.4786708813803829 1.863046311858819 -2.049221250573498 -0.2321174616639827 1.405582628486561 -0.3368363508575826 0.1583772779561421 -0.04124818495558920 0.1405505201218699 0.2147272969972056 -0.5395926755627519 -0.02318219667821447 0.03675577683273777 0.1499015798050651 -0.3042865542742712 0.5763830018630046 -0.4354459435525783 -1.558309986342107 -0.8142921586611027 1.642412965363323 -1.401882777088110 -0.4980701729588956 -0.6205942367854765 -0.5972026797322846 
-0.08101772156996248 -0.7310404853320566 -0.2044819517776557 0.8064229240158524 -0.7337489686507298 0.4635775683841023 0.6645513401999176 1.711101799019802 -0.8874160942161932 -1.165946682214261 -0.8508158882916371 0.1251645359170442 -1.006390511557352 -0.2358501340071380 -0.2224257987891373 -0.1097035144421142 -0.1322942678767178 0.4546682623623846 -0.6915111128711486 -1.433877056301108 0.3031146625680697 -1.102495270116918 -0.1939843846472691 -0.4275958777384292 0.01748011259187715 -1.026215490909868 0.8404350336678998 0.7890002655579109 -1.225159760181552 -0.09424707940905354 
-0.1772243668378892 0.02914586710194621 -0.03309728282130375 0.3475914729236272 0.1256415888382992 0.1207234638000908 -0.3541467933008254 0.7665822249244906 -0.2351551905690673 0.1888524190464931 -0.1828121201057898 0.4791133457715696 -0.8210536941058956 0.4062371854940362 0.3981708490687783 0.8773679322582885 0.5573473299045367 -0.3451468366111753 0.9431106055419199 -0.5681594652592223 -0.05486753888909374 1.725097999461029 1.168443980697749 -1.552032131535074 -0.3337911957467424 0.9390795035670780 -0.1038135714042434 1.120578102222055 -0.7825613571983041 -0.6684441792506335 
-0.1702023475798652 -0.04491879250895403 -1.102735099162839 -1.167996283493141 0.2236694182164212 0.6897753191853107 0.3464999208742137 0.9292917382466133 -0.9325660824507789 0.1492335916188295 0.3009149651324902 -1.275737926025195 -2.175548279723213 -0.2039876493363080 -0.5643892123093773 0.4874799946977146 0.9959038135932662 0.3206149011179155 0.6216017460385254 -0.3327323509792153 1.141375598263559 0.5451788548933532 0.3931732361907467 0.01115549968162754 0.7453924085584491 -0.04398044003626747 1.349037965111313 -0.08655528442904428 -0.1055014314682538 -1.434891987857529 
-0.4112593712783010 1.889109446143635 -0.2888938510437660 -1.145007604053009 1.183009296507174 0.8004974640133237 -1.090908428752204 0.7953183294508521 2.464823878262635 -0.1998657434089768 0.4833597442041649 0.2129914745067010 0.8593085124927057 -0.3020586411566486 0.01166212797468939 0.7209800954137265 0.5520408477181276 0.6685615538905900 0.9260402038420741 -0.5362212181103984 1.036901288736362 0.1296427015437659 -0.8769018682601432 -0.1055662394190403 -0.1370566949725043 -0.6167197609282342 0.6615846156017597 1.119606849539028 1.411364051007432 1.403266426397008 
0.5590566609817440 -2.690211802256059 -0.03316779723366001 -1.125072764679546 1.089801513262027 0.8872156229999418 -2.016295896965203 0.8529995663706610 0.2206406518132618 1.428121390321300 0.7183551109557813 -1.034960264956905 -0.2869097327652234 -0.4847187875478993 0.3368708281602628 0.5963024971579177 -0.3805620516539127 0.8831275624044008 0.03374867462094051 -1.378595607547359 0.9673991250308140 -1.236477236162031 -1.140008497204065 0.5484639890136341 -0.5524838045133258 1.703994746891776 -1.350295291093772 1.341914694294146 1.514561582162004 -1.051169106931287 
0.6574002919208425 0.5590787366000851 -0.8315521192932644 0.7830645122881251 -0.2139276320642869 -1.266215564137143 0.03145627329108147 -0.1528799462251452 0.5926153650851134 0.5158094431850664 0.8144361665897136 -0.4308508951863238 0.01779973099685964 0.5038741705863663 0.9977573715385104 1.270774122631341 1.421194401590544 -0.2536110517368029 0.8174297244161978 -0.9865043992171085 -0.2188510078749771 1.327712262571559 -0.01876207830667348 -0.3845627991753889 0.5148537412066969 0.007067334431899844 1.098339932861683 0.4371052176624236 0.6185758245457450 0.4345606288258101 
-0.08754107581005999 -0.5794271013040413 -1.158078760948984 -0.1075308920460949 0.06103785410760232 0.06343569612389707 -1.402250691617681 -1.108719189162025 -0.4265729240333064 -0.1672457081160915 0.2890940219825913 -0.05845042499172040 0.2571698590517754 0.4208257765381380 -0.2909314430945020 0.02504588432333632 0.1001139232395907 0.03757994923697004 -0.3457818004623472 -0.8486756715779126 0.7436538327568404 -0.6416818919563843 0.5776441261183345 0.09398210846341229 0.5464718255968672 -0.1314177499503283 0.2584992270415920 -0.3789321284310023 -0.4102698157576084 1.122989650362911 
0.9234432543882566 1.545333268132164 -0.3264954507851227 0.1353295705784233 -1.382457769477909 0.7318843742289853 -0.2180419574266034 2.515905153936705 2.298601076296809 0.6097276003389304 0.5956022023575926 0.7046050959513490 -0.3517397047651144 0.5032107602616774 -0.4608885419235010 -0.1757411136053347 -0.5324591023913844 0.6674012577421240 -0.2928444522514168 0.2370187831620128 -0.4146989915144964 0.9300830238311537 2.249588156561701 0.4581414483446364 1.404477965393639 -0.6451320355427794 0.7153732182676212 0.1420474024321488 0.6482430736449691 0.7880346461590186 
0.07442083269088107 -1.008114229041354 -0.08106203363411577 -0.9876176515417524 -1.494897336676665 -0.9049539854393797 -0.09513920486633733 -2.423845514499345 0.4912468853084760 0.5021755675629743 -0.8980336040597257 0.3220381888244817 0.4597454993411309 -0.03718067608322094 -0.3726340377950296 0.6473287948413479 0.2597351563343952 0.6080502306215587 1.230083914538118 0.9011162180961382 -0.7239071540728754 1.196118854116669 -0.7956583730265387 0.6362284831000873 -0.6874653322012976 -0.5935209326747714 -0.09223264696464839 -0.5726038977789724 -1.145438983695755 -0.2631411888310810 
-0.1293712003236656 1.348852339067191 0.8683016782866545 1.006893963331128 0.4389498998868415 0.5228482544752873 0.8140390727409493 0.4492824101289163 2.251794145422217 0.9708510530842529 1.667352845878283 1.729544146252390 1.488869262360245 0.6718986920869430 0.06938663275838204 -0.2535085092011577 1.128304422909290 0.2268829894747757 0.2779555970738976 1.584011158956495 1.276629912139330 0.7745644596166024 0.2457724382972735 1.329142661777975 1.232413438832655 1.268509714055929 1.477839895368351 1.895481671303282 1.192994485924856 0.9762085196727341 
0.2775235383789947 -0.9914445610557379 -1.255009672401528 -0.7130695250179346 -0.3116711968500464 -0.2332628103624708 -0.5366297324162211 -1.504281005577260 1.426174123816631 1.112958038714087 -0.6622639779516969 1.247536746249301 0.1898165126833105 0.08455063953266885 -0.1471267034251823 0.1613300538099942 -0.4725167985822423 -0.6232838686054221 0.4680266364013594 1.276775631924488 -0.3319341602733056 0.8197870680991398 -0.6999680296156959 0.08666458182928374 -1.036992582387801 1.539471167184280 0.4719657440683838 -0.9619766646468189 -1.089379382234275 -2.433090392398864 
-0.09392798980106176 -0.01007091702252292 -0.7523977432591235 1.297256424726342 0.3776734494673252 0.5672363247600017 0.3670405025732474 1.311980076421062 -0.5391414320659373 0.4376099414152530 0.05977683421086577 0.4134124900753646 1.075029304996781 0.2982660748160358 0.5791936129235811 1.205355316734081 0.4236447576637912 0.06785275925255987 0.3701282510934572 0.5720852110066161 0.7981054359980837 0.8029487077936872 -0.4937553786625318 -0.7091777348490237 -0.3848981898104045 -0.5394184047233436 -0.5460713963497900 1.761699509627322 -0.2085307579517117 -0.7375633314661222 
0.7102532071641128 -1.049980614731187 1.193209807547406 -0.3997223911119751 -1.395152878227253 1.030755155846962 -0.08423884137744347 1.663368215090989 -0.6776499715439946 0.8816096781562210 0.06019230918510189 1.111588103869319 -0.3345522650265572 0.2464528816070327 0.5103728398319733 -0.05265645925636972 1.165264250282389 0.1599345844133672 -0.5706439070616440 0.6828911260372561 0.6516191604566779 -1.679609051864684 -0.1791142669344549 -1.237556790605950 0.1608616887521236 -1.796392218227514 0.05117284140808967 0.8765859644221546 0.4953350838267047 2.342159671891785 
-0.3309692530202378 -1.576299702483403 -0.3689025330386134 -0.8781102043335735 -0.4739373726634195 0.4619195473553315 0.1554341940934327 0.8180792138169409 -1.738572174695444 -0.3812606372473673 0.2142312089604015 -1.548036091524393 -0.8889372792776976 -0.2877964117259077 -0.7167875507492039 -0.4948736956555117 -1.593451306200170 -1.013933119974667 0.1120411904148510 -1.003895225922764 -0.09845729593930047 0.9567550020112780 -0.5086074662403084 0.2484814724249422 -1.079324786508136 -1.209545001050062 -0.9626827673943958 0.7327124377360247 -0.8449224315670364 -0.5020493908981548 
-0.5358317804099617 -0.3061790008084148 0.3857193324223273 2.154034497409461 0.3574873242632145 0.3181706695356084 1.063619284090354 -1.186734489019447 -0.5728099071217051 1.181924263381847 -0.1958156541974209 0.04025162278053147 -0.4080630561537412 0.2434293990363189 -0.1671414389972602 0.2659844986326597 0.05924617485641476 1.147151335265549 0.4176249348820231 -0.2814874951936519 -1.857819725350198 0.3111773292103928 -0.7868327756456353 -0.2942544843486002 -1.718507704303996 -1.660604466437819 2.160245757649953 -0.1453450238942854 -0.5032057962376345 0.4609114421327640 
0.1243053531063139 0.4990705971784059 -1.257023579899610 -0.6450224937618589 -0.8951881415804590 -0.8012213133227605 0.09103436156895534 -0.7229827872601906 1.717355242196694 -0.04097323756469829 0.7901854271719037 0.8840654779121445 0.05116040226284319 -0.4436606957668650 -0.7978689655447821 -0.7102853224608301 0.6856254709693161 0.3583679862598768 -0.04902981762493638 -0.9984525363000426 0.5775395838572186 0.9268104856498142 -0.7378823966115730 1.366349086104617 1.444347064160147 -0.5946874571487272 -0.3813146148852084 0.2199720459337666 0.07015663390544265 -1.345134258911866 
-0.6539192307671973 0.6523103814635093 0.6081390147130352 0.1197112741582822 1.000037207226642 -1.119979233631979 0.7562146439711741 0.3082983803616942 -1.163146364337639 -0.3707676817680619 0.7844204174602334 -0.6993988988343120 0.9655710663561377 -0.1893575727003299 -0.6862509754319889 0.1730821921077684 1.193611505942079 0.001993230389896211 0.4357228541621243 -0.3871549323292962 0.1242993517772644 0.8001930326572670 1.344824786951955 0.5746979319530707 -1.530671262456276 0.2997926494157516 0.6830328132933692 -0.5966607484968652 1.679840399694386 -1.292124852326311 
-0.07257552947189908 0.1088676626659686 -0.8490195469134817 0.5945711148036021 -0.8870721655581627 0.3443206653907830 -0.2866152030640858 1.131757629187906 0.5397655018016122 -0.1059972265966726 0.5915880072957325 0.1859356902146296 -0.4245190271025781 0.4610122761627495 -0.2093466069948917 0.05818162261947414 -0.4444080799573761 -0.3336867583420834 0.03593230999797296 1.203678048558562 0.9234852541236613 0.5360991806327267 0.7832982049719202 -0.4202722448709694 1.093834077211264 0.6800666347489780 0.6229789280327139 -0.1707140792197629 0.3231766502261272 1.186730961080242 
-0.4151296428814764 -1.502897055704675 -0.09942588653033435 0.5904258378836582 0.05087533131501051 -0.09289937765555088 0.6888198390514606 -0.4160715142386585 -2.937268503602414 -0.03512710752021965 -0.7202784426543289 0.5174998287022420 -0.8880097381196079 -0.4500542354213472 -0.3417251287158125 0.0009288252823969438 -0.9015825799572522 -0.2897228567305978 -0.03109765639873896 -0.1979722770060758 2.129667285868036 -0.3356129124131612 -0.4787797294896055 -1.079987882704491 -0.9111094932890296 -0.7881075374534124 1.664369795207699 -0.2542546712071908 0.5034629753707960 -0.2406766871311943 
0.7025097584410300 0.02181764029817308 0.7215013078671818 1.148199138096629 -0.04539356341434903 -0.5119222968182437 1.069349490211329 1.191907318003788 1.169453151553577 0.05248357183087793 1.727591695882322 1.004587599811740 1.781331172876968 0.7937249039377867 0.5739815011843061 -0.5991216556088910 0.5682555031352254 -0.2873670328446589 0.2773114875525464 0.1682037214797391 -0.3895160566127494 1.973006128061893 1.373960102623835 0.6168978543797340 2.025988803244883 -1.000537594597010 0.2130180216200230 0.1167814938413189 1.460861693266882 2.172660823158580 
1.476501885543636 1.185578331460162 -0.1757985501150803 -0.1909858241094295 -0.4146043004349546 0.7678853645802872 0.5747599350018653 -0.7955654327428329 0.9165555845344263 -0.1855304767494540 -0.5853589005685218 0.2221361744988950 0.6900792337708300 0.3406567718353964 0.3053914766646952 -0.06810833836107104 1.029910519915418 -0.9780743345454659 -0.4046256950162043 0.3626813774075098 -1.326041496509968 0.7003689582499617 0.3203652063477835 0.9199293946595324 -0.06014114511660065 2.353165880652947 0.3210450007738379 -1.460884275280774 0.5127883621006240 -0.9762892316257843 
0.4660531376014093 -0.4807608982386256 0.04794733778708760 0.2826771801452637 1.118246551466034 -0.9849377722696426 0.8427902520891604 1.203519564429090 0.02554124852205438 -1.235893832348573 -1.755168996600212 -0.3052589960087579 -0.09589656376029419 -0.2966057687611723 -1.105604819759152 -0.8490832294286136 -0.9232933705340969 -1.120165979438029 -0.7609065183205166 -0.6040754693178366 0.4062882007812055 -1.355828857515568 -0.3518075030665520 -0.4129817488929213 -0.3545485444908154 0.1138136519797788 -0.5203058617115869 -0.6009013686825402 -1.301296667172392 -0.1825399824273774 
0.9010559802192359 0.3048244128117639 -0.2228399164591295 -0.2026404923401274 -1.687672374016937 -0.2524665500282944 -1.050268436262364 1.557938482838759 -0.2281138299204523 -0.7590188133419167 -0.8639140644160281 1.113003679725682 -0.3574242673709298 0.2852068425891330 0.3601420219949840 -0.1984939009678321 -0.02831393539303345 0.3886190639600065 0.7069555123458064 -0.8576139249122066 -1.488089402474922 -1.383698608654980 -0.9426700655356051 -0.03086469172034298 0.9816680936852341 1.308327241162753 -1.602849656915932 0.1689109669984193 -0.03367610959070912 -1.570896517169935 
-0.2366750174595475 0.09250991342726720 -0.4443836580912101 0.8597594853237609 0.2407752311316470 0.6040630641520830 1.274733307209321 0.2739985393047232 -0.1004680670060038 -0.3227147134457883 0.8609536402489639 -1.146026679402763 -0.4274866217330384 0.3028787588276146 0.3491145661635554 0.3233975600999444 0.09520904467371583 0.3118719115450084 0.3237389722363757 0.8079889720791787 1.886754200815112 0.2963908933581965 -0.2133865178082082 -1.273043916865850 -0.7854094392959352 0.7967479458479846 -1.009038829375184 0.5895683248457437 0.7184365587002277 -1.030390116146588 
-0.2397258587661163 0.7942500669725399 -1.494089143465681 0.5166048704504275 1.330448580915078 0.5452931469228481 0.7206327623515594 -0.3334995622232219 0.1605241548038112 1.319571154070649 0.06989794925853532 0.4408641362995845 0.7872025345234426 0.7682346074019528 0.8224726064186946 1.044095374746144 1.063269161253894 -0.09685369213127522 1.063637281637492 0.5571051020470934 0.4816329024127727 3.995125497577023 1.261744934192740 -0.2657959781402956 -0.07614540538374667 -1.002740433505408 1.637221768945630 2.323713311354985 0.07995053289859815 0.1141902184675332 
1.700691400205687 -0.03845846177267156 -0.8433474547855757 -1.156607175806880 -0.8457492650982135 1.094227253557614 -0.04755388869977067 2.669574536926908 -1.268332965970017 0.3553258075279752 0.2373569905818124 -0.2731700790399200 -0.3415904594324074 0.08944856992610997 0.3188998817607754 -0.4004864653296800 0.3603549508247940 0.3481385464622285 -0.3875341277343967 -0.4393385625197387 0.6324987860111783 -0.1113265087530235 0.5406006142093325 0.7692781267089036 1.295731581240871 0.4654141275488558 0.1711978339479662 -2.802654726212614 0.4063329541446265 0.8357454249186800 
1.267154792486632 0.007198975665876337 -0.8337253589726631 0.2212143130868095 -0.2482371049418259 -0.02791957890149262 -0.1331385955444387 0.07615151824172685 -0.2687342758975498 -0.02582902267682375 2.279578021987661 0.08296470788754730 -0.5703465142676986 -0.2807220914258968 -0.8780026408527989 0.4138038727455570 0.2836392377777783 0.3500630598127093 -0.7900304698784884 -0.2911559171135054 -0.6605184720016491 -1.648154202462715 1.800674209924075 0.6699789777124710 0.7021919208989669 0.5179553593359678 -1.427507159325133 0.8175560060952961 -0.2587904711009683 -0.4028743443605439 
-0.1116416224361494 1.853703962029642 0.9943609811194026 0.6652941685355088 -1.019483884021848 0.01239768325851013 0.8281178816424132 -0.5049397357341124 1.452239497565369 0.6310453248519382 0.1736406960312528 -0.1286101491009990 0.6961396320286500 0.3964409796786274 0.3207393416582136 0.2862189261900974 -0.9073471515954608 -0.1928954136521949 0.09189989482014098 1.221210789523066 0.7479033390072145 0.5644497590843791 -0.5146481202060239 -0.6187026790180312 0.3900000186653049 -1.289837131314751 0.4707862066978894 0.1828961795965102 0.5073033295676790 -0.2220285923002627 
0.5980464208210734 -0.1891608422639680 -0.5514389061152826 1.949218509426049 -1.085908776735094 0.6545805722959539 -0.8721913075054264 -0.3998239648924817 0.1640925206571056 0.5637635538599052 -0.1530475934377026 1.378226892562458 0.4648730899165544 -0.5015982878790051 -1.216596054689422 0.7557098022784422 -0.7550454727593108 -0.04170030823703529 0.8863876031890098 0.9084478485066597 0.8899270316924983 0.7120140827004569 1.321209846371946 -0.8020434399709617 -0.05262837940197079 -1.455748537671153 0.1993491645697172 -2.190184077657297 0.9217426365348373 -0.9823967371657930 
0.9726070800833019 0.6696053710545372 1.587295397508501 2.979944369922610 -2.143886030814141 0.03454162464643791 1.168745899034546 -0.4695966106968220 -0.08438000262730846 -0.06005024515909547 0.3217109682274786 0.1140876222087086 0.5748755700176200 0.6614966312076749 0.8869039221804803 0.2962761152446009 0.6538196546506688 1.220208583379972 1.042329998157207 0.3046891917425130 1.674962806851376 -0.6739697097190672 0.8691441365069473 1.419340116334211 0.9823384150626616 -0.1417843486229083 1.434258745108361 0.1842323952173761 0.7280968110869981 1.006255216616957 
1.134975204744911 1.239872376376538 -0.6599578776760636 -0.4076080013651174 -1.266377316835257 0.5920492691841117 0.6273784735513503 0.2065313690292181 1.298815312260852 -1.677561061396394 -0.5469260956724776 0.1212011184919042 0.7604764938681821 0.2308807288167146 -0.06033192159994031 0.05867402620050166 -1.624003334196809 0.3341174942037828 0.2456458132371821 -0.6116484918448095 -1.646553703137225 1.171287590649693 -0.9682690603971824 0.8678688320172657 -0.2892480006373122 0.3257463730124541 0.1210142097872569 -1.697528862876752 1.178139186985119 -0.01484808503442267 
0.1542258829874601 0.2310260467209659 1.561005461334477 -0.3771342634771306 -0.4124726695252248 -0.3254144783837148 1.115896030669215 -2.728048279018868 1.472025671029274 -1.275944706970866 -1.894932061963980 -0.4566679764002426 0.2908078986681672 -0.5393663446261490 -0.2131076607005042 -0.3899005554267807 -0.7048093422791700 -0.7941914826392714 -0.9470620246986559 -1.207422478014034 0.7167737772958718 0.05246761648817744 -0.4337186070584887 -0.1919101107062592 0.1615721783626641 0.2230568368255041 -1.020948057980809 0.5782631317616459 0.3355845802877183 -2.136682220654378 
-0.3650778528911447 -0.05296811121436550 -0.6808278747677354 0.04945929247065785 0.3327075106678112 0.3930421635333075 0.4268586060652507 2.035577541531517 -0.2778289671430970 -0.4939915043598926 1.184433476353392 -0.05492804626687528 -1.615611205113165 -0.1521531968217492 -0.7694988549474326 -0.07663009977405437 1.691020507950257 0.01418319804678453 -0.4133062833500728 -0.4916595188685821 -0.9520736619206688 -1.955387859044977 1.150283526599621 -0.4868121785932218 -0.1716945955919074 0.08342126034188692 0.6622324563547989 0.1387882245724862 0.7480111010226939 -1.129360667529041 
-0.1014826084458479 0.5135150794391565 0.03436419760236495 1.101217665857344 0.08497428355758074 -0.6245290433259847 -1.185379398000714 -0.5815977311551882 -0.5620086471797706 -0.4169966331380247 -0.8002418527696715 -1.190482534533067 0.2805081685958966 -0.3354790910925764 -0.9063583872358226 -0.6975498465434116 0.1730695428636485 -0.7087450687672900 -0.3338635640217204 -0.6689206540654272 -0.03171030078582696 1.965723683600451 -1.658925011839763 -0.2421789764898450 0.1615991702080134 0.1658288201975550 -2.298415154520809 -1.014791223547114 -0.4544643589047912 0.4062300454431690 
0.5434059434566559 -0.3063862420960892 -0.1890672479101720 -1.151392247113666 -0.2761720441926431 -2.215951403880538 0.2291454562427386 -0.7142699014414085 -1.640625200657573 -0.2072178093682369 -0.9502083206760987 -0.5996018607738766 -0.1055372289353292 -0.2034958417360447 0.2114692744604122 -0.4042505978573838 -0.09658037900004512 0.2213032199747958 0.04859719945257070 -0.5516909486281570 -0.3349382059202661 0.7214145418846055 -0.2586728856593697 0.4314245009382267 0.6310001242944339 -1.633173056385647 0.05225918825308146 -1.192086610546743 1.244200278149081 0.9086890058924688 
0.4235311176042271 0.8308896642718825 -0.2734851697632322 -0.1578737448114698 -0.5790278186846118 -0.5366461299724049 0.3127018687189568 -1.676377113735053 -0.5790733399512692 0.4747532742363011 -0.7918977422009538 -0.3002327423911688 -1.188464895377458 -0.6121298903374648 -1.030070118037849 -0.3370192967515672 -1.038948704341919 -0.9059557244932065 -1.351994709810875 -0.2803600664390261 2.000382072531637 1.014408019668891 -0.3803481965688816 -0.8600559633374689 -0.2149751869236150 0.7027374372251818 0.01704233435611654 -0.3158160164116139 0.1399086418364530 -0.6858758000646898 
-1.143464824974376 -1.654775148253497 -1.374787227454370 -0.3553729365168263 0.1404930827948750 -0.9347371854354438 0.5152260747214463 -2.724222354671951 -0.7456785169047543 -0.8356250999973245 -0.5561056451669680 -0.4617233217034935 -0.04263098316604152 -0.7166819372207100 -0.7615721771375776 -1.142998397423773 -1.186715847043761 0.02527968068427566 -0.3976904350354337 -0.5936365835931686 -2.185170456388816 0.7690258212990652 -1.882926069370428 0.6517683482589537 1.036097674861865 0.4538298467207637 -1.124513944000179 -1.234576202484294 -1.083480616676022 -1.650039459819878 
1.209654355232809 -0.6818969147124239 -0.8476587462260864 -0.9845272651508739 -0.5145278260473850 0.5842536740320856 0.4861747440208546 -0.5593348700148002 0.3728903629535344 0.3117539216707279 -0.8991340867799871 -0.03334988420492152 -0.03183491485968303 0.1481054178631999 0.1504175248715086 0.4706830835764380 -0.2331682471586337 -0.2176465570502950 0.8770461489060820 -0.9023259367628880 -0.8418854644814056 0.3387380166808509 0.09661151590318957 0.2259482425453666 0.6243064000330621 -1.074056727935622 -1.465554545731662 -0.6054107817681422 -1.407332852136071 -1.160021197077441 
-0.5831418417720444 -2.524557290029863 -0.7813934837206120 -2.347057226971374 -0.6677046434648876 -0.4580995207282625 0.9946319091071932 -1.219321388249035 -0.4257277902735321 -1.643654264660867 -1.638671618288542 0.9250334182040291 0.6291395322415786 -1.307322285409341 -0.5335091578149174 0.3115675753626691 -1.676528561184554 0.2576971687310936 -0.9478713369370052 -0.1909326631724811 -0.4016111326039111 -0.6852900940163178 -1.776369028620714 -1.026766061671301 -1.316179333112310 1.386611872849875 0.003410787690174860 -0.9703036172328318 -0.05735643977964992 -0.9915399450054841 
-0.2390363574060552 -0.7288079244081527 -0.6219830364778184 -0.7014414652960133 -1.470977799480548 0.07266361529324256 1.457206689926868 0.4715715970203718 1.218784755674119 -0.4479920477712507 0.3956057603374656 0.09519132359466534 -1.657158923073279 -0.4760470520141134 0.2671983084384006 0.3562814475972960 -0.4428190760241385 0.6386263587127603 -0.1775050684448427 -1.629326225097153 0.6556366484937591 -1.633096562879318 0.1868934055154241 0.3228739205776958 -0.6903069201967486 -0.3415762582252875 0.7920090900330260 1.457142864177631 -1.341520707410511 0.9235628709734619 
1.070328597716439 1.284385582056298 -0.2851072488282492 -1.736071563979933 -1.136974389685258 0.05821574287678394 0.02957592777771351 -0.5133153838724229 0.3656540945690054 0.4126510563502663 1.105964091987858 0.4404323468367692 -0.09063110295470052 0.8292573536461967 0.2206652151104181 -0.1287055245289331 -0.6829739815808444 0.2277818250554336 -0.04661217961926264 -1.255885542214653 -1.584317516646928 1.498497969272966 -1.060398624892500 -0.1869908386939724 0.3703259882616000 1.016541844517028 -0.8322687536575888 0.4268395880677847 -0.1341595009722788 0.5233463976935615 
-0.2600345300010279 -0.4808459134697440 0.02001140026471304 -1.210173232393542 -1.129922383479269 1.078998067857553 -1.145302611349732 -1.851299634439045 1.274412804388178 -0.4290543184818977 -0.9224182918998673 -0.1689176966229180 -1.244802521836656 -0.2790777138976809 -0.8794238974305592 -0.6355704444382967 -0.7096412568453434 0.1010960887860964 -0.9090407313965532 -0.7640973764764180 0.7243927843275734 2.578698419760569 -1.912264127995359 -0.1641786032702115 0.1015218601024684 2.707815923791948 0.2700174475192312 0.7780996005107814 -1.853643681430045 0.04262640916938135 
-0.2421624872275620 1.886913071808517 -0.7939246743304391 -1.296522733356286 -0.3828913660984726 -0.01215300786819140 0.2372743043293714 0.6907309112346380 1.598503945419346 -0.1472286896668325 0.7386700980647375 -0.5549170727205457 0.6861666934951280 -0.1955020584416458 0.4403854689530655 -0.08000782214703328 1.200606205115972 1.596781349127558 0.6483724468792130 0.9844014388870795 -2.760425268624329 -0.3329209993907140 0.3399294778156186 -0.5140585596293215 0.1832353960134950 0.4255093972734624 0.7445873487908720 1.626011842088084 0.2932875293601041 0.05597894436925458 
1.047871664027002 1.654310875382501 -0.7846137723503012 1.298117391279662 -1.161865445785084 0.6750011731630955 -0.2119613686303078 -0.3780837709339235 0.9500611845663646 0.2305401873775612 -0.001696770949775750 0.8833684100640888 -0.5919291889269362 -0.1607272168348400 -0.02134080105516742 -1.220717751643582 -0.2267808496566197 0.5336193944477942 -0.05493567875313322 -0.3260089415268590 2.066395056213429 -0.5497264371548836 -0.4075155148272188 -0.4226766552397587 -0.6477422232477753 -0.1103462428622703 -0.4504056322611916 -1.269309122659403 2.608074255919929 -0.9797555467094117 
0.02552479334394753 0.7018861924627940 0.1939418518270850 -0.4409809229917691 1.178138514073275 0.9343247251151247 0.5192271480286744 -1.038527951099690 1.871243741388572 1.308071282851634 1.896134490906150 -0.09246931936676409 -0.05835991325503143 0.7032046457976918 0.3816182224009011 -0.3207659035169576 -0.4077856289911310 0.4454064660891854 0.7001023990064442 1.593393501122189 1.085703176849634 -0.5504420496991613 0.4083116246751877 0.1594487511401318 1.609282460960866 -0.1459309686540187 -2.508300483462836 0.6059226134583087 0.3937213687276628 -0.09512237109994981 
-0.3605642034527878 1.231387970873754 0.6414021524809731 -0.7007473029710054 2.194546730691602 0.8950093047185185 1.816962596853690 -0.6234682573978412 1.278949031222188 -0.5795902310812658 0.6254461796641181 0.3576941290442559 1.680392057795139 1.095600673708945 -0.2729966678060085 -0.7558166890464963 -1.383658719285483 0.01935025136670154 -0.09953634150797232 -0.1157541947552759 1.315796442161399 -1.160371089869198 0.1183078729115459 0.1593745868503868 1.657335718977242 0.06162560570123590 -1.894265983894798 0.9677153224639360 0.2704896277513348 0.5567399856564718 
-0.6565125827380571 -0.2656714195416146 1.625014367637099 -0.1619201102091896 0.1119549271438225 -0.9504500583396119 -1.417806063963446 -1.714545650950052 0.08600219176732032 0.09822525582679220 0.002655347653515576 0.4438708414843881 -0.03871674556382287 -0.6695868285626480 -0.7965512746932182 0.4882769208598782 -0.1335677917896092 0.3732482215387649 -0.2017601300136939 -0.4872500441127109 -0.2633089706290995 0.1318074724685664 0.2453101324043919 -0.01879127976427488 0.8681235024087101 1.012074608428166 0.7069833553615112 1.099537554719833 0.3818479358860791 0.3075773855845261 
-0.2704349319497833 -0.9107339118997830 -1.096036174117820 0.1607409566334862 0.3592593908077870 -0.1776510596782176 0.4242744900889722 -0.2907108058920396 -0.9278332105478110 -0.9026925709810177 -0.06979673827789926 0.7004101491749317 0.3503392933068430 0.3369122223310491 0.03648775537568065 -0.6238322423708231 -0.5592766517766163 1.673419477145467 1.113435503445028 0.03632846084976756 0.3927620759733530 -0.7004316340499640 0.4580050011458306 -0.8435912524388007 -0.7319676200050318 0.3692939724488688 -0.4784295032948202 -0.5369057395764666 -0.2128225853762870 -1.240763945917042 
-0.4097612915971834 -0.7861521592304606 -0.9605934046345663 1.081249952106880 -1.876279688339378 -0.3836983224421531 0.05644137037131712 0.8514174564511151 -0.1087750877034190 0.1546874789767641 0.4905421087249507 1.462104980281526 0.06856464967750853 -0.05919989091212140 0.9957003813004348 0.9758083691525625 1.021250047449773 -0.04604299319114563 -0.6667410121076907 0.03482120302570576 -0.9600268711441318 -0.5298623764634858 -0.8681866798082511 -0.8173257937652076 -1.353050089814479 0.1223369443388506 1.187808082776671 2.507577292767365 -0.1201318244722494 -0.7441405423612618 
-0.6347031055941775 1.494717975997365 0.8572962730160975 0.9137076716122783 0.4455138191581408 0.3988817599355349 -0.5880874860626116 0.1107240875611130 1.234909440033109 0.2370989159505810 -1.425755532826880 0.7639522513217802 0.6781505815139739 0.4535296785752048 0.5926382157643947 0.01873988654192203 1.060202493827824 0.2486345031329746 -0.3437488474233023 0.3276779872931843 0.02802654295148356 0.6335969602899829 -0.8919058097021351 -0.6277672649825078 -0.8457096859428536 -1.039958606823409 -0.7516182470161201 -0.1136464769620474 0.1464980033057688 -0.08255914508324919 
0.08243526813131014 -0.6418263142059722 0.5865158700390024 0.1816499651351575 0.6907007493288262 -0.7299929992152607 0.4299195052396564 -1.901841093450199 1.075286008249372 0.2908461590465184 -1.095163454502531 0.2484046748513787 1.367217764847328 -0.03990231938511495 0.1741029416802770 0.3537595097424061 -1.317321826771720 0.4891224624266055 0.3568207559514665 1.727005500646104 -0.5352061240691076 0.2469554649339250 -0.1927393698494847 1.194644706239487 -1.098425223738921 0.2611181036944754 -0.2484447218121786 -0.9544607518022330 -0.8223573563276735 -0.2646756661282217 
0.9912507744039494 0.3178931767938612 -0.2148342136855302 0.6778235015024539 0.6261751524898272 1.155099145364563 0.2475373512159159 -0.7186899841275375 0.9859420454325141 0.5166235671122321 1.645867439352081 1.829511931801184 -0.09926088819830846 0.3542907041163700 0.7042515135309781 1.475950365705270 1.150700343338857 -0.3760576997317947 -0.06306278738433074 -0.09624443444298680 -1.045771041854426 1.183526947392219 0.1592914812813151 -0.2253385871453870 -0.6996524509389659 -0.5117887032577414 0.9454998057507388 -0.6645612195468789 0.6464340744586230 0.6653764068356437 
0.2122419849650104 -0.06830337415617878 1.040663202874798 -0.9820955467939788 -0.7661607955479309 0.4168591997923032 0.9009548495944092 0.3038060161750684 -0.4312204067916550 0.6526261781381568 0.1053099421738219 0.005505425052848314 0.6417179588873262 -0.5453655196533629 -0.2353465873878112 0.004738963880694218 0.8451869180263860 -0.4790720557957426 0.1987433391134769 -0.6707885118387222 0.6910247103958419 -0.1384677391002119 -1.137015522054233 0.5943446133550540 0.6408625764999861 0.1729055857124086 0.7073674907883800 0.7534104323107474 1.390523010265037 0.07583972418522172 
0.1081514623965731 -0.3078811831877811 0.7572598428951036 0.8410828890491155 0.5241896101889855 0.001009039602444438 0.3021801394259361 2.305208535565885 0.3806757325068587 0.8082223981477681 -0.05425031757866142 1.236092067735193 1.650088498131378 0.3510265730526247 0.6064737260329957 0.6494750144377145 -0.5455017694417564 -1.817624317424686 1.166808104154403 0.7491012898735255 3.756981406184177 0.05965780117928683 1.300096980845777 1.686666318150437 0.2224784687349291 0.1938804003880759 0.7597682027304833 0.5939284372904831 0.8359585437136440 2.202318987071831 
0.4833089532319072 0.7441734501099393 -0.6250280126084260 1.347708667249142 -0.3644187999395819 0.5695880429600390 0.5897622081870256 0.2585646297297662 -0.5086170226568073 -0.7755988493566780 -0.5813286501816550 -0.6698746733298608 0.2831160582951100 0.3200042265834669 -0.1645940048797313 -0.3401240984860092 0.3621375599460073 0.8656866762693167 -0.08754694156629550 1.052593858823129 -0.7048983096697234 1.001306998754425 0.1785226671636878 -2.069058907672898 -0.7975727484412425 0.1989218205005348 -0.7417341482430846 0.2671925015764234 0.6240715886656433 -0.8571620552204513 
0.1882633697252852 -1.054241738130855 1.070452625148571 -0.07484043303832603 0.5743166026121249 -0.1564807453239528 -0.8520477773785535 -2.042997875896179 3.963725433377863 0.04367222740521859 0.2106577177923883 -0.5145212650134182 0.03115788684604978 0.1149227895362485 -0.1074013362391530 -0.008438015529197231 -0.1245155474459518 -1.402461393651030 0.6825558387410730 0.1556501116874078 0.3859696776345891 2.249049545949883 0.2869607021052059 1.685841863236973 0.6807042188853305 -1.441919811355301 0.3148507069098385 -1.257872501386132 0.7510653640810536 -0.5440645992628470 
0.1921458337093915 1.104774109985407 0.3102260021880876 2.411202841843550 0.4654205808936040 1.736245221005678 -0.1721621723143487 1.614256523634129 -1.869592395901805 1.208780731444298 1.342968044777236 1.849080973448334 0.6056579078853405 0.2333215437109859 -0.07877833771841145 0.4365542129470590 -0.9762542561142816 0.6791775158732547 0.6128507676710700 0.9271917797138700 -0.3911127776931674 -0.4277192320072237 1.249607410067972 -0.6289957804919337 -0.01246954722422513 2.187002874072289 0.8726883829070111 1.057180573876857 1.070443317867461 -0.3002495286769698 
-0.4780910110729549 2.543427371102588 -0.1804304981711008 -0.9500119967859633 -1.042553624959953 0.1452000887581132 -0.2544610571794867 2.244946169655754 -0.3194252905362183 0.04998924328224726 1.563651590251595 -0.08331414566750775 1.242504404886972 1.012239123167678 0.5066858672127712 0.7913463760252920 -1.086461501211482 -0.3977558318549075 1.234662289000992 1.169857657176244 0.9998772521688248 1.668273547528902 0.9293038802044485 0.6667234116649760 -0.04147489334709441 -0.4925737405464858 0.3502170550095091 -1.127306406706014 1.643911558545381 1.015122331600665 
0.02601631263633795 0.9683755976629959 -1.505989582954616 2.287733903368786 -0.4615837941617516 -0.9032682542999283 0.9217897108243867 1.096122405636248 0.4698526240241281 -0.3549559954750079 0.8840206308000840 -0.1607566221560311 0.7826140130319985 0.4602787656391565 1.138044527715921 0.4974101508851258 1.252916188889524 -0.8632369752328004 0.1550307765036948 0.7084467481585653 1.201249966848036 0.6018959300347810 -0.05508771231762159 -2.273721688987466 -0.8198395540790515 0.8347765057654771 -0.3783208220517614 0.6970682206342246 1.036707160076031 0.07391750120198844 
0.04065631000809370 -0.2864825027316433 -0.03562111207374930 -2.847720860116479 0.6785343554063293 -0.8148559748641903 2.066802680994357 -1.676529893992540 -0.005188603700929013 -0.01098213777884675 -0.5477952777763613 -0.2328923930032475 -0.02365547930026437 -0.1003936768944257 0.2073393078069911 0.4379315574704651 -0.8382427696900014 -0.2368430526385958 -0.8702350508461696 0.9704549598635399 1.095304327713564 -1.590956711424024 -0.1740660517977268 1.125857047022307 -0.6681395728521160 0.6399183612299372 -0.3446088331922699 -1.484903922408377 0.03756938441404976 0.3608042914106872 
0.02650372991604430 0.6659363624107821 0.8708348705820466 -1.514389755612104 0.07721143484230335 0.4152931585046546 -0.3028391429013589 0.1598154698201813 -3.152125431678242 -0.1311413016001666 0.5044196933351782 0.7227833183303617 -0.2615849828021557 0.03413105484251501 0.4949067192091000 0.5367677618749000 1.299775533780532 -0.7723389462171488 -0.2859864380216107 -0.3216879302883448 1.000660514772635 0.3485912073152829 0.8946623279473981 -0.3712980096592457 1.321597342517284 0.3856898159907976 1.141416813516788 -0.04017290476300721 -0.5159004085943243 -0.3499070769603130 
-0.1466285648639053 0.1023232698112179 -0.3750226273076813 -0.4287243334700811 -1.092838075369293 0.1260138882425362 0.8664486046876861 -1.788558803696230 0.09255823284649425 -0.1598646712955492 -0.01139082047364272 -0.1558837143176742 -0.07926437293574501 0.01050589535457669 0.6523763410541603 -0.4455556166353040 -0.002065976323037067 -0.08306767277821037 0.6715168077711248 0.5749030400778543 3.809477240298404 1.292270514042843 -0.5665675461694419 1.742243389829936 0.7585320244725803 -0.9804995438389479 -0.2389364688163887 0.2203252463062652 -0.5248062459076879 0.9342005388439356 
0.2540201402382754 -1.571552851340232 -0.3652465744757745 -0.8744166988515920 0.06704664298540026 1.685324481662248 0.1975119199143723 -0.8671460064924661 0.2304499396003725 -0.01216970314007065 -0.5876136223932945 1.186703000700088 -0.5632693050347296 0.3964892378647535 0.1585864963136957 -0.4992228988904632 -0.9391419549884088 1.166538901057178 0.1841143171416622 -0.03603809330071217 1.748215394553365 -0.4095269565620255 -0.3831697785381796 -0.1050395745383179 0.8551850719719127 -1.255336184701878 -1.703572416761580 -0.2269277774031439 -0.2236014967799001 -0.03756502107749007 
-0.3416505349294459 -1.073873669105341 -1.059943321554475 -0.2755101520480315 0.8855368987450423 0.3038852570715410 -1.563170900199320 -0.5927771099743095 -0.3365737735589729 -0.04161198301559814 0.09167974848001509 0.8032462498203468 -0.2343785376857004 0.03065268705679532 0.9872117073006947 0.3211287258286694 -0.03260682456402650 0.1400935360632304 0.4390541230630399 0.3624230918986983 4.255912890668575 -0.2532099414168743 0.02369359651671965 -0.6146453321306358 -1.049280312882626 -2.161996410626966 0.8710114988482324 1.113857754960203 0.2135630065848089 0.4682961441178989 
0.6587347596611448 -0.8638025088847031 0.09736429723891746 -0.9867596081960647 -1.180762827051267 -1.021749063745413 -2.364620599258736 -1.102529646315021 -0.7238319198033809 -1.540557879744121 -1.515330176958848 -1.537694021856144 -2.322572795288390 -0.9696359730062278 -0.3465803399187720 -1.615387944893091 -0.4422151839052113 -0.2033767871985981 -1.209401356284366 -2.244573220695491 -1.703544044484876 -0.4361977128032122 -1.140297394334087 -1.823559287469434 -0.8115210162751122 -0.5139843809933090 -1.557109385091739 -0.1352176216885115 0.02985007408244620 -1.705869127139596 
-1.874884732366648 -0.4795074466192933 -0.1837856324363920 -0.8862200455828791 2.634086109792658 -0.3157620933501800 -0.6072342874297323 -0.7548080982662516 0.5319043393374210 -0.7401421775802096 -0.01534535294331684 -0.1092498336480817 1.007964437996175 -0.4279384515119469 0.4311863285299556 0.2289186415958565 -0.4492066995256839 -0.9043561582569658 0.2568121396608420 -0.6311091936834557 0.3395176821826741 0.7024655272540772 -0.5368782431784195 0.4382366570749846 -0.4021110969697787 0.09278649527906938 0.6087176698980759 0.3465685606979188 0.6276170642294805 -0.2914205317212667 
-0.9299515012494475 0.2683900036853167 0.4948357716012481 1.334761677521618 0.3919037783014251 -0.1885532578638761 -0.1648273454051382 1.069228469666002 -0.5446573023052238 -0.5340950447058312 -0.009477203178558212 0.6656897746175580 -0.5211825981146930 0.3192280265924513 -0.3941305724107302 0.008991095180352397 0.6679389169568768 -0.7109664567799475 -0.2435176221708642 0.6054898292185278 0.5914020615990910 -1.358604099499332 0.6821971035755898 0.9732783416556373 -0.7950787325562828 0.4071513658291476 -0.8048670249483060 0.6502630763619723 -1.283145639981209 0.6499580162006326 
-0.2225303670027098 -0.1140809881946445 -0.5189895800068602 0.3742728559864735 0.5400977477274131 -0.5789084390504600 -0.01710067016480450 0.8319966739985859 1.516719874575613 -1.281322151034330 -0.08005180584508548 0.7663213285652355 0.3750186361406760 -0.3045427934213211 -0.6515339133652213 -0.5749521605206088 -0.6178417180605640 0.2463446886103586 0.4411962252374812 -0.09642123990132916 -0.7247630185357699 -0.5004158978237920 1.093422661381810 0.8837325151600228 -0.6877089626223006 -0.3917159855996313 -0.2156109467802454 0.1800190882925293 0.4457515329455312 -0.6118198227092052 
0.3214397784604589 -1.581030450369160 1.828424917190811 0.1768460746353194 1.048439656746316 0.4050908183057768 1.160831640469081 -1.442231758523314 0.3451282067928293 -0.2558025403401275 0.5157242668092190 -0.05887587833199431 0.2858895697942886 0.03030701218955773 0.6419799788217867 -0.3740603868831877 -0.2136868608100150 -0.2024684139660148 0.1250935412777964 1.104237249450319 -1.573905307243383 0.9203903388750492 -0.9522029025234996 0.3360246803666393 1.138665471942393 0.7537613194587808 -0.2422940907438669 -0.6254544856355087 -0.8746525488709144 -0.3927883289186135 
0.2939116872529617 0.2121610890418056 0.8966523296598455 1.035862667156923 0.03269650755899019 1.201192234734105 -0.006237380140239501 0.4902535033960687 2.788985934003361 0.7925071582360502 0.6842576566176528 -0.1161926739424375 0.09918327818465686 0.9073791915738549 0.9689501248064362 0.4217987247322976 2.342715063782289 -0.8786745373072168 1.004240110888102 1.088931212538958 1.675903616843688 0.7800151149937808 1.084672944946529 -0.3074833867491216 0.8693082674904109 1.154699194747760 1.362917942502729 1.662452652539962 0.4589466279369254 -0.8661034460704053 
-0.3106459479937893 -1.869000906195348 0.1407710037938031 -2.014946601729133 0.2250457841380578 -0.8410212106322429 0.6395885225957731 -1.158097150493048 -1.737329523479366 0.6881351069837665 0.1667588971104137 -0.8775819271934302 -1.538035515969241 -0.8060835942669293 -0.5797388579280857 -0.4129417043600306 1.102383613372259 -0.7035202007171212 0.1455287541790515 0.08219675758903480 -0.6699561721033549 0.7477010053798716 -0.5650299965059100 -0.4293476762074102 0.7245654520591638 -0.1433457534406626 0.5266787531948274 0.7875563804088956 0.4826908848903941 -0.05124493499971571 
-0.1651791794723341 -0.3739459375732033 0.4973231632767068 -0.1124868080965113 -1.778863256793948 1.119225479309501 0.8523352927704833 0.9771566930725162 -0.3608904637861899 -0.04579466952577635 -0.1197909031817149 -0.6298689830077733 0.9221536110468123 -0.4033630221262228 -0.9000682855815700 0.2967046605784802 0.008201438607295046 0.09483628395413768 -1.100692996840215 -0.5529873016033147 0.07854607708577077 -0.09873157108157336 1.239938477322745 0.4439204269211516 1.524231932065199 -0.4339838493742508 0.1000252910716816 -1.643405864837041 -0.9094795180096523 -0.8080965277115247 
-0.3969691138541558 1.264376226649392 0.5231873690075046 -0.6486980962373825 -0.7976703038601284 -2.060514978996957 -1.057641971095177 -0.3322713457268683 -1.406845835039613 -0.3852903278986333 -0.8251850737247859 0.1894928210850210 -1.203391147150718 -0.1527659359261159 -0.6854872696887205 0.1649350436811978 0.2037967484974983 -0.3969660283604494 0.5172303971820005 1.244656425657742 -0.5005751290583147 1.200500315789619 0.1309160038663204 -0.4014353480353503 0.4404849357849373 -1.097145726372228 1.330353404958060 -0.2480168512709822 -0.5682561424178160 1.290134933079499 
0.6283446034534648 -0.9174928981186847 -1.425945113864636 -0.5717821787662691 -0.4333759424873785 -0.6354082298744897 0.7618496000568175 -1.602803340181375 -0.9958814570753789 0.1914233556245707 0.8379491555294669 0.02519654452201635 -0.3176397625875913 -0.1185714769530012 -0.4586166118370602 0.09352951098574161 -0.6345590832584829 -0.3570312868884870 0.3964371060495063 0.3397854273011831 2.037631292076125 -1.579201097399406 -1.463007990023010 -0.1109477194755485 0.4781422706507864 -0.2095728987839731 -0.7699677887812162 -0.2051184996816690 -0.5195539960812380 0.9015705344199838 
0.2116940174809171 0.1544538722365503 -0.6445675534495688 0.9544937446174764 0.9750652190766880 0.2378466319114245 -1.285846057635864 1.650028643211438 -2.345213936077121 0.4496052059158692 0.1071326098994523 0.7741869683369013 -0.7054291184609242 0.4149923147353375 -0.9028005809492291 0.8092509788486781 -0.4505004153823671 -0.4843528544450503 -0.09334268771532266 0.8106550820913976 1.387946974065046 -1.340947870718719 -0.8639606265202577 0.01799959500588318 0.2166726879290185 0.3149770138966188 -1.075351883320437 -0.5967338426477682 0.9610351583135145 1.311800737874995 
-0.1976909906307953 -0.4146107802601559 0.1951192179862904 0.01341718320392592 -1.325113034762261 0.02499360328147591 0.7553795907825336 0.07201529755747728 -2.279615613215209 -0.4272291967331816 -1.089896531387964 -0.05790439531974290 -0.1748180385134409 -0.5056606338538906 0.002751179665966559 0.3294571967124937 -0.1656519637385846 0.7307387553241160 1.132021440759273 0.6794186136248106 1.130991256516214 0.9095879598725257 -0.8273514528437051 0.7154193061939799 -0.7880737407261664 -0.8535995314586000 0.6180426320439399 -0.6056765136324345 -0.3616662649644193 0.3082676099675984 
0.4130525983994391 -0.2212838047368113 -0.7998810644400967 -0.6599475802627272 -0.09126412074779376 -1.404442139398415 0.02246023162369648 -1.995871313967393 -0.4009628545476417 -0.005030365025812316 -0.3747571522336159 -0.1833832323320691 -0.8685799343482399 -0.5787592025178643 -0.4939981527627898 0.2828567499620618 -0.08327780144790446 -0.5897315249923787 0.1267541287528803 -0.4548089469811607 2.399560514252765 -0.08566965633950635 -0.5088186143914330 0.3938894653937159 -0.1142657302904034 -0.1069795806453266 0.09531708768252264 0.2065408750244716 1.109430084380918 -0.1087511126635487 
-0.06538005271296803 -1.088468148245186 0.3674815870547796 -0.8889811110526213 -0.1600908979870150 -0.9394368289574289 -0.5086106851284594 0.5975649574671936 -1.450709968989023 -0.5840666366654312 0.09746316963864764 0.4261794764946359 0.8915306162901127 -0.09312542950286086 -0.07259442726104856 0.7310038157505976 -0.05405823303366170 0.3817639180917130 0.03712385111651929 -1.351136565771879 -2.674505585914895 -1.346649654877426 -0.1820816432690429 0.9344853418328480 1.211156220416881 -0.7335553059424363 -1.752507887648091 1.003862645150476 0.7999056105086924 0.5335212287035620 
0.6365890807192532 0.5310722819243596 0.8117233281533549 1.788393873751328 -1.610828450133888 -0.8139294390797008 -0.2288284834536823 0.3694122079334938 0.8915758764896985 -0.8672070025165777 -1.647310288109272 0.4331315226572735 -0.3241067658859416 -0.3565210880454915 0.01504830140077689 -0.5790865526916333 -0.5085580177477036 0.7735697401229811 0.3203318198073483 -1.059791234798949 -1.010480438086511 1.505185358277336 -0.2229012160778322 -0.4733760069345466 0.3824964440979540 0.4297189899703896 0.2906240384893001 -0.07484118935963690 0.1454842866759264 0.4714720249036785 
0.1065867091447890 0.6578734461355402 -1.352290411192176 -2.082383615062937 -1.302672943903019 -0.1894820698580785 0.8428587399165471 -0.5831140594914710 0.8879888027240296 -0.9110541026957212 -0.1852445605683145 0.5919386236437879 0.7555915386692822 0.3687404185131671 0.5470104070953391 0.1038329408877614 -0.1205165189764914 1.299421652452908 -0.4671046233442208 -0.8860775834471676 0.4591575334168248 -1.153858029416319 -0.8711833805414352 1.399294006486003 -0.8994659850940967 1.766035388446322 -1.281329587015380 -1.035780254006613 -0.8333853369268204 0.4648465665694309 
0.2924804770177260 0.4263902791020908 1.244957535861572 -0.7590718819590251 -1.248923561335143 1.356505819066611 0.3562840598575788 -2.270289502983176 1.876014141250104 0.8882023692837556 0.2359340772545530 0.2987460825728195 0.8530757124750683 0.2805665373907620 0.2248446636681769 0.5229049971309050 -0.2740719916682827 -0.1835433471927072 -0.01792174444106866 0.2717066445961373 0.1649247979481561 0.04623851797323729 0.1814170744828988 0.9038166786028966 1.048827745962692 0.3617569891775401 -0.5764555443506953 1.266353941743621 -0.2300637777758830 0.2974804274998064 
-0.5942859168064640 -0.3947713029779831 0.5418706786693260 1.467578191754909 -1.991248433942683 1.027118076429826 0.5455987423478756 0.8113075256780533 0.2571226435813120 0.9087499013763489 0.1128895009612393 1.237860711454155 0.1386009922328201 0.2706186680320838 1.030219253573793 0.2807647890849485 -0.5696094454166236 0.7615407153891314 0.7814004867244997 -0.1302951656383642 0.5212532828673266 0.005603301182979498 0.1849600902584907 2.242617958276975 -0.3808023293119746 0.8265715005277134 2.097349379338414 1.723205722432918 -0.6735393761683883 1.281325658720417 
-1.158045626221601 -0.7015771507626357 -1.314785174544747 -0.8895913925621397 0.2970392430101276 1.034356605362371 0.3593055566519829 -1.437618657813542 0.02971086476268894 0.5782973114454071 0.4617259517811169 0.7268440530115382 -0.6559411875690548 0.1677542002513378 -0.2289968637569716 -0.3127643625516602 -0.1059583257144767 0.4630302404566100 -0.6533799152894585 0.1955861335237136 1.544031277797240 -1.761516210082862 -1.172060132664611 0.4863284453949365 0.05488469099121833 1.400496234284093 -0.5392016923512458 1.266553183063034 0.4061264286482049 -0.7275656852606510 
0.7443589811750085 0.1269271595563613 0.9708473637505669 0.5012328238766910 -0.06593916565563973 0.2315201286624130 0.1109190019747725 -0.2889963221694190 -1.022336505934745 0.7626270553503802 0.5919999742140301 0.07682418804987248 -0.5177787951685543 -0.1051104945144016 0.3047438764978204 0.05482589182093352 0.5861139486880823 -0.03133899062217938 0.6703934782646840 0.1594564307591332 0.4398049330367492 -0.2277440443831823 1.522444183652939 0.1602700598996771 0.7632794191579748 -1.020901863172079 0.7211168307443570 -1.510462350033770 1.135677582478154 0.3725535364877773 
1.390941180437489 -0.5092435402048521 0.8428664239739395 0.3631432437997296 0.2576666231571870 -0.8384198379185965 -1.627094567484592 -1.477380953615841 0.7125922106197051 -0.2542385270502288 -1.759744272684922 -0.3420128232623193 0.3636250336340873 0.2420000994431890 0.4164892236409939 -0.2448923313727790 0.3445102266045505 -0.06944649252606654 -0.09853257688432047 1.247042410778753 0.2358873209405230 0.4927645650967639 -0.1497365690586129 0.7284374772829725 -0.9959798810022629 0.6751360638821524 0.1395194183614595 0.4809708372290092 0.2308155668072549 -1.543920100793962 
0.7820843960550405 0.1178626617659199 0.7924249762203481 0.1497197665564700 0.1955651196014891 0.2124284471540481 -0.7458211954972311 -0.6642936092523792 -0.8895157156343323 -0.4181468643437858 0.6882596457543377 0.002086584644699081 1.015542867532328 -0.3894467714710332 0.4903074874661975 -0.9761294599457457 -0.1617093236317150 1.340816938118214 -0.7720301844465709 -0.4764495930316016 2.418207954287132 -1.068299252052430 -0.4385705687405406 0.5553630911415090 -0.5526230405926758 -2.345664175768969 1.261892010327422 -0.9937810182421689 -0.5499141702270750 0.2614809095750149 
0.08516225114763806 -1.348312855239623 0.1467849189175146 -0.2107442190182416 -0.8511632694824306 -0.1850140938284718 0.5809078351881356 1.777261815359483 1.122002735892469 1.624690836479260 0.1708583611071851 1.834782545528951 -1.811582584553811 -0.7466409833593440 0.6819587825364813 -0.8970280523199464 0.7342302643613399 0.8285058360922122 0.2885083581258570 -1.751244673427460 1.888158251916042 -0.05633064629685933 1.427032095413397 -1.334879589259348 1.474168370977097 -0.7132535333672168 1.565024952024771 0.4906553500046085 -0.4494921678668033 -0.1160029110068663 
0.5748807233376763 0.2684837716312714 -0.4602521363360969 0.2424382367173396 1.363445957058264 0.9647880909514007 1.036300152351418 0.3087202418652560 -1.685021981131855 0.6446689113924741 -0.4510562696623467 -0.2336065669161798 0.2114770850232835 0.8702808897082686 0.1030854067194783 -0.3110233937496621 0.005251830578066982 1.751012122397705 -0.1008213458584309 -0.1678170000986027 -0.4850118010885656 0.1665410805304909 0.09699561337796975 0.8056667378641869 1.174603331069391 -1.481262384726153 0.6054651190986025 -0.2820825075840811 0.9946984243053028 -0.1877865150512703 
-0.2935309624873281 1.700582710033860 0.3143594508056105 -0.2845221684301003 0.1702443115916484 -0.6569030355847060 -1.426888073317874 0.6577636605507635 0.3869293118400874 0.1416303356807419 -1.008561838154112 -1.833941511285516 1.846356395176459 1.514366524536327 -0.1289078559849155 0.9670062392912145 -1.071095139922872 -1.311781610275342 0.3853288466642989 0.9154446521061006 0.08453937366488937 0.6111861021204896 -0.3551489506252676 0.5516806191197867 -0.3909949806709799 -1.559431279215209 -1.825407893892586 -0.1866374782060878 -0.2085813498159853 -0.1587030595620293 
-0.4456310479253531 -1.694135852872223 0.5890732620995542 -0.4835313807280578 -0.07824326813615826 -0.3114612249259754 -0.5609009502808621 -0.1114558219804557 -1.437296415177617 -0.2605859685385145 -1.511546926820157 1.057951954904085 -1.119311473197645 -0.06783194669291082 0.9818196598467614 0.1732484463576067 -0.2095384324759249 1.101994505608980 -0.5546773416864148 -1.157009404839827 0.1163077561520675 -0.8316931113572081 -1.050677695882325 1.096052310974382 -0.6883012710478100 -1.410764332782270 -0.3597180245719649 -1.903320524018722 0.6992877623640633 0.7946208094088535 
-0.3247100143885934 0.7170353906971710 0.8746667481398995 0.03922535106568453 0.1274628026987815 0.1416042621392931 -0.5688280271160753 -0.3909173754540543 -0.1385102271226128 0.4248274484268221 -0.1965753519358139 -0.3520915057262761 0.8304628665588135 -1.379411806606848 0.7741213769902728 -0.06640353338400985 -0.2784235092452227 -0.8416003545999695 0.02237354151271853 0.9680686003006131 0.5536241771529030 -0.5815730084034076 -1.418023768343088 0.6882944412209184 -0.02853776194282483 -2.254534902982717 0.4471388653618655 0.07078556645779810 1.417741438870784 -0.01393373744210288 
-0.4849923094595322 0.1460402485900254 0.2254316631202652 -0.5834009689946782 -0.02714721821973719 -1.600291552336280 -0.3146662895124322 0.3781737480292219 0.3148431451568774 0.07311705163067067 0.5703845452713094 -0.3603473223342139 -0.5967266667588741 -0.01279490688924875 0.1649764065252767 0.2325034280149418 0.8729706221950679 -0.4735043369571971 -0.07446566259114003 -0.2343853937875985 0.09388544769269327 -0.1242043431312189 -0.4862585681431866 -0.2503119991121229 -0.8177843227233890 -0.9303942644791513 -1.250995862192870 1.326577671627210 1.680546091146637 -0.6336569790253223 
0.7018827189066512 1.275661550206375 0.01138582811956799 2.871943887011617 0.3194273034773429 0.5202074165673585 -0.5554667282510612 0.5203780229304960 -0.1720419463833072 -0.7238278304635087 0.04557908158871550 0.8924065537664599 -0.2588861929442942 -0.4794288980471242 -0.02089140430386930 0.9795146700648503 0.2073051758318257 0.04098974307846529 0.2253884546552824 0.03929231376046047 0.06828966020124550 -0.1282416125182470 0.3598443115846231 0.1753568808177341 -0.5812507351431615 1.108871149749229 -1.136407947845366 0.6579482723075297 0.9537239224209566 1.000243506635199 
-0.1874030909935991 0.9880402173911256 -0.3135670890215703 2.088734909991798 -1.156628913515546 -0.5729750621996954 -0.1513625877331727 -0.3359359050164475 0.5313649263545362 -0.4947272141735382 -0.5020167056929266 1.441729982805347 1.031379433820517 0.5431453558938240 0.5139446271890732 1.227111582649675 0.3029577096563029 0.2031064895322473 0.5088246419291791 -1.335077689684902 1.129389844903317 -1.144787136411693 1.813765713921496 -0.3857826609148524 0.05054506705109257 -1.257783547957845 1.241368725938850 -0.4137959190743991 -0.07216525036305643 1.051349061046429 
0.6779653770516652 -1.271259293548765 -0.8353911019772939 -1.702781064121789 0.6807208262639317 -0.6919222885072425 -1.259381489126598 0.6073316231617364 -0.3291069229519727 -0.6171767675619458 0.2671436252342634 1.329190866306681 1.558401184848260 0.2109135107964169 0.7972864057852407 0.1387051821447460 0.2870039827424277 -0.2239534722344801 -0.3163496208889122 0.1046650498830948 -0.7619311720284986 1.191523391080378 0.7361813790297318 1.884571729719006 -1.276177000352542 -0.7544654648956267 -0.3620048378428196 -1.587693769639609 -0.5856830755520392 -1.120407948583220 
0.1862403519418967 0.4476094441070945 0.5433827058721471 -1.229723699123281 -0.2076837732264065 0.1445127556853088 0.2589789457759913 0.6245147701557147 1.283521798953728 -0.1241034672569889 -1.140697872131793 -0.7580811067191575 0.6780922591934843 -0.8047166283755605 0.3772531113712944 0.7782732647907026 -0.1944394967768563 -1.604173256668328 -0.5337842773703578 0.2877861119116179 -1.008516175855404 -1.132590415541760 -0.5487286490357792 0.2518744685233172 -0.8347857910729332 -0.6868086306108899 0.5439924372352325 0.5742089667350114 0.7878968333564328 -0.2912454362091919 
0.6852871158538681 0.6623085600054933 -1.545721415714974 -0.1830311103816355 0.2140125464767568 0.3593532487073350 0.2086631044419014 0.5222759234328698 0.2114438616564571 -0.5599572676125131 2.170054306770731 -0.5238697353501541 1.127341397548515 -1.325880179531078 1.237075175809490 0.4103860489073465 1.009660589784637 0.8386364951248688 0.8567216299371075 0.4434445110180764 -0.5903204144931758 -0.5289384584634647 -0.5521222955582007 1.096187352779538 -0.6869557225605276 2.524432315904728 -0.1043267159169366 -0.6186004798141727 2.032919467271596 -0.8166338475425169 
0.9425832745455611 1.509628063135342 -0.06641416686628898 -0.2745756477169866 -1.107387377383759 -0.2466749001485795 0.8332830700017788 0.06705107675667028 -1.828334146890595 -0.2194430084128203 0.3103544859837576 0.2803229191405369 0.2327264500729262 -0.2027009849822445 -0.6728769700202013 -0.7430826552436374 0.7848874567089255 -0.3093926508398696 0.4558802812404091 0.5636946863628924 -0.2220968820397646 0.7065384104052352 -0.1484928372759589 -1.123261226950329 -0.1902362812044363 0.6181859787586658 -0.5227752114918293 0.1807959306556196 -0.3524955968512879 0.6304958231656892 
-0.6120068468195015 0.2853483337570111 -0.5021655004166139 1.802803139267831 -0.1467953914240229 1.201756039739246 -0.3638527223534281 1.570110499248350 -0.8012923252652059 -0.08867438299731518 0.9747370993282805 0.5286112547570947 0.3814396957653297 0.9906760146335366 1.301367455221324 0.4727534453501671 -1.120473658452401 0.9756505501271623 0.9819190465556894 -0.8940529055485584 1.221964444834167 -0.2796616060152644 0.4088443169366898 -0.9048947852182190 -0.3631375554098164 -0.2712650102079432 -0.06696849235174747 -0.09956115005370975 1.302850841812270 0.6019636033032273 
0.2453621838284532 1.424846442748052 -0.5718586890420589 0.4193562784735265 0.5380689783683487 0.1460997274504128 0.1947260228383634 1.397243824221054 0.8357237194951663 -0.2426563511406085 0.8254063795219281 -0.7107917093471385 0.4725136229521739 0.4547207883669635 -0.3656648682746748 -0.008155882309457282 -0.9671532166143831 0.3849625641370583 0.06010612671615304 -0.3851637493069459 -0.7113912300381332 -0.8407413205677405 1.212609966154985 1.040167570739356 0.3701947614486478 1.393954628926981 -0.9140628134139531 0.07849251614247556 -1.040671986373663 0.5571438862963402 
0.9916528847451224 -0.6891537324235029 -0.5494827956060877 0.5422068422986842 -1.560339838978699 0.9067263798925892 -1.419527653622389 1.270200030541696 -1.876675254476453 -0.8649504731715291 0.4364864129643123 0.4734648537283361 -0.3225529284155723 0.2146342729310621 -0.4010328550682851 -0.2928333811223506 -0.3653180855087949 -0.5965426068470081 0.1712872227648862 -1.485241868981792 0.4471632159605374 -0.1937919386175062 0.6792372930913054 -0.7881927604223674 -0.3469721223106032 0.1006597622880029 0.8084575197936964 0.6371313034960412 -0.6611293711656866 -1.208447068230322 
0.2903964007068681 1.030699048556497 -0.3635068477126001 1.435698644695893 0.6836911965620160 0.8938011454343091 -0.6057738101735063 0.2800159143213311 -1.875985583390676 0.4884005565620995 -0.1807207269484848 1.458580261820128 -0.4109640649160219 1.378202104337842 0.9846631988911220 0.4747985295555666 0.7660847296545982 0.2204826134499879 1.023051888915342 -0.4975974289839166 0.01463108892221214 1.903381254925404 0.1786046488616214 0.3086421627513278 1.321664735912630 1.033658146897254 0.2680421214745704 0.3769689792460778 0.2481254276225101 -0.5526382578517254 
0.9045191747501724 -1.798032910451463 -0.1475955222219191 0.07815237144464413 0.5585706197238276 -0.09317319137612014 -0.6177227710046089 0.9166524974222869 1.120139286375604 -0.008014602764712865 -0.2804170615335423 -0.3254902225617879 -1.021203998024135 0.7574156975109997 0.3352016898644935 0.6310294019338252 1.575958590888575 -0.1183183864316587 1.547659415808939 0.8136123340348294 0.4835893451387301 -0.6957306331838516 0.4659518885275655 1.463113814637804 -0.2870547154800424 0.3600686521581050 0.8490560056407855 0.2662216972132034 -0.4921778619262303 -1.169654783606487 
1.464136519156558 0.5614109701194933 0.8997595104601538 0.3140093669857196 0.3294921664379132 0.8695295593139322 1.228923965907780 0.6206283830254837 0.5484815809032457 -0.9104960769154307 -0.3462726839862123 0.9124154716551668 0.9090225475714719 0.4579662186934436 1.214839229749255 -0.4156240025833295 0.9459789542418875 -0.9047759065523093 0.7865586530218512 -0.2053525171999639 0.8954591423044193 1.518788334600719 1.016580037721961 0.1386576632857577 -0.03559346141389665 1.009655057618175 0.7466609793426284 1.028433238295533 0.5089708212420796 4.035319116043000 
-0.04996099796497829 0.9424479694483110 -0.3226471318068847 0.6329014090716261 0.3727942244774347 0.7976820966156968 0.8276836195586578 0.7707377899456191 -0.7089596723520021 1.106159268169547 1.453699368598082 -0.6732316331505144 1.145526891878002 -0.1467174144273525 1.240547663278358 -0.2865437725274452 -0.07601235349474718 0.2372778380025992 0.01591490812339190 -1.085538230739351 0.8040306663875455 -1.286738020261502 -0.4428959560908036 0.9868239742707753 -0.6135864548342727 -1.170955100501504 -0.4773157363108370 1.261806383400707 0.1864317961584597 -1.251693085945895 
0.1226281666182250 -0.7366878080963452 -0.05162725511475585 0.6808288813999323 0.9063352023251613 -0.3901116534739327 0.2998474458670027 0.4329090143399554 -0.5079010672037303 1.710856052149042 -0.3464018421321721 0.8368699726469980 0.4795814616893989 -0.4022648923877567 1.289576038415008 1.213044047914625 1.456038351895214 0.1150152924726084 1.642767796192340 1.484976470398638 -0.3948911630621678 0.1460830541547743 0.2630344401596730 -0.1066026597573155 -0.9996179266421067 1.302152440508498 -0.1037835926470252 -0.2335809667673235 -0.1986730964954852 0.2296692834915673 
1.256273420932762 0.01283488436551210 0.4714502254280564 -2.528153763494187 -0.2603503447765901 -0.3863639397722107 0.8376726385977864 -0.5681336187565262 0.6324969937120830 -1.013381236735094 -0.5779775828814000 -1.297010329335131 0.4741956383117210 -0.4772953787118443 -0.9816293163996546 0.1762363476286524 -0.01289965476219088 -0.6144487325457430 0.01128867890049032 -1.161645831687944 -0.08211897647452852 0.8065043061599994 -0.05014347217512739 0.009967955368433739 -1.127322686607190 0.06409388109666436 -0.7131428807443917 -0.1691720354236728 -0.6674498368025173 0.3907692446056234 
0.3532916693935220 1.079792140355973 0.6171771033875059 3.222552867438207 0.2561880490819274 0.5064966051494630 0.9460298798343698 3.015500608614400 -0.2124591615198233 0.6988583905685826 1.252734271435806 2.156969979037382 1.186607670836416 1.696469074047093 -0.01904214750827445 0.3301594229236879 -1.085643290805550 -0.2945964925908446 0.5709941877072331 0.2544310730889959 0.02051095899689422 0.2689420578953636 -0.06719075362225024 1.464460774737741 -1.581523081781782 -0.03285693383989355 1.115400064940548 0.6991560345974132 0.3715351239883819 0.03863623298872595 
0.4317448050506734 0.9287110779383647 -0.05397568280695889 0.6391360570861842 0.1405784021995668 -1.468650069776609 -0.2030876273384503 -1.627320047229849 2.042383845502554 -0.07261978633344157 -0.3316494944319678 2.014362968517830 0.5310632803644039 1.823462995323242 -0.4430957758625172 -0.8327046489553420 0.3974901962295309 -0.3216480761563054 -0.5709610661009772 2.529319685096899 0.04069406392332478 1.044165481894569 1.855500025802253 1.575810845833036 -0.3868783524056612 1.874027355866774 -0.7698576867926161 -0.8711868885032397 -0.4001660316099407 1.274490093480260 
0.6284702515622878 -0.2029089100909600 0.1864265350235270 1.217697120164974 0.8198571713059936 -0.05010023494075126 1.741922666396507 1.387492791373088 -0.7652688297215440 0.4966169290061697 0.7257069889911200 0.4121626559651263 1.308000509630198 1.381403299296161 -0.01544629638036914 1.020645000081175 0.5636066092401699 0.08751879088588246 0.4691122801746734 1.287547713863351 0.1458373617887021 1.082423810354259 2.214080782588189 1.446865786354534 -0.4934516753456242 1.023603033817292 1.601943927886240 0.9765054322032270 0.8465112266356603 1.122330374365954 
-0.4004370607803445 0.3311890964256440 0.01146996600927271 -0.7309034474347290 1.154490811622762 0.3136960769880625 -0.1151158770313033 -0.3007644184552016 -0.1078421278626827 0.7992529025941182 -0.2450977484319472 0.1200371637172674 0.6165087026479428 0.2019312320214598 -0.3544642088295461 -0.2002258756337622 -0.7898492843594949 0.6779197236440616 0.7203158893666664 1.220188478159326 0.3395025244872663 0.8501167216800110 0.2296513570412556 1.317402399022805 0.8825399297276832 -0.2803134895593782 0.5094419974414699 -0.8753470204844602 -0.4419522898007041 -1.521939833308618 
0.7112614042938890 -0.03073877488942611 -0.4874889767599569 0.1084173897340973 0.01437713436532477 0.3655212539556371 0.9015944993657490 0.4496747716676987 0.001804238054689461 0.8186545264895632 0.5773280280969705 -0.3463493083114398 1.493992638916333 1.045636340788647 1.193656042890704 1.934736058561319 0.3091468097355175 -0.3201339933599821 0.5045972197913300 -1.797556385640084 0.9412382932552718 0.7887132890622700 -0.07226161850693741 0.5340658429390068 0.7589568306996549 -2.365537849825635 -1.768513176014111 1.509239377319581 0.5580514905343551 2.022458280991850 
0.7420364840397168 1.239058137682427 -0.3934304156388721 0.1294148146362565 -1.098083824409786 0.4816452969246645 0.08147686175729374 0.06278151458787781 -0.5870238906699898 0.1249972563252434 -0.1155692338342141 0.1948136646576641 0.1669875852040129 -0.9197598033151317 -0.4324915232873687 -1.020530196843259 0.4923934496859892 0.5606260466657166 -0.4173571864348260 -0.1230574775364797 0.5047214145483980 0.4298693323443260 0.4635268807399871 0.3426882783293188 1.012963795297244 0.7314643803349725 0.4892329886092027 1.553425461123348 1.716972400297220 2.439362357557110 
0.1038288671459495 -1.971685430215893 0.7778813016688191 0.5780658910142670 -1.795365694620772 -0.2947338074957593 -0.04420130665478622 0.5544270137644156 -0.1229900993821647 -0.8962848827522032 -1.167461711559741 0.06513510261640541 0.3737398285673379 -1.407851559082637 0.2120608542451585 -1.202031169025693 -1.399579668920956 0.4435057645372208 0.2077028695533751 -0.9281491525590617 -1.962076730057971 -0.6768956009195146 -1.200737397124885 0.1815091361337144 0.4378443934411956 -0.6029294483241197 -1.345045463357595 0.3848342018377540 -0.8528362846286054 -0.8035602789052310 
0.8386369497525816 -1.006659193425826 -0.6470384035925252 0.4356696157921899 -0.1995185608943713 -0.01776128684490809 0.08739582613488595 -1.317985433952382 0.3503671222625318 0.1568407040420026 -1.014151159244859 -0.8733851460271856 0.4845407450006440 1.867258847610081 0.4787887377400397 0.5853870770288263 0.05945635730168793 -0.7842611681243200 0.2630432624390140 -0.7953180558644422 0.3996835882844246 0.1037790729304362 0.1689882033273007 -1.078174764457284 -1.425168920546998 -0.6797306922320956 1.550957781423164 -0.8524455201872613 0.3081370595179243 -0.5381972366870745 
0.5378462160249772 0.3159469956112059 -0.2248151021885810 0.03016276970283310 -0.2863342891783116 -1.014625156615326 -0.09626990959054410 -0.3591510175295499 0.7680475478714368 0.2136768148312570 0.5443308398415800 1.631814059680601 0.2987955702431412 0.3793121812977154 -0.9306907520316873 0.1482789474223783 -0.3072224412358064 0.1559679109998842 0.1144826052262521 -1.149405281236401 1.396216330281102 -0.4813999472923769 -1.426235380102523 0.3988602244996474 -0.3537824997264972 0.9301373146651778 -1.255662222767987 0.3320396763623484 0.2681079969282267 -1.097885385266283 
-0.3102133769825125 0.1129992126281845 0.4386531344003171 1.311900160193308 -1.221510637440495 -0.6781499534219215 -0.08012966413870164 1.816461905016385 -1.165517273786338 0.1235472305943863 0.8190660434739971 0.5785338457028962 0.8499071631489169 0.5769521923471972 -0.9782339295374447 1.261362183178551 -0.6426862151994795 -0.2306100234834621 0.1216759393350208 -0.6850888139367054 1.132172824689779 -1.343937203243931 1.022376059472566 -0.5089584838088852 1.018047750952415 0.09221065910111950 0.7900889170639357 -0.8712734274786476 -0.1450521496551272 1.043984357866707 
-0.05818514800370849 1.095674971030358 -0.1135139420734336 0.03150875556099821 -1.011091930962436 0.06046514742703380 -0.5500954887028240 0.4152851706229652 -0.4286689406737402 -0.5150033996349267 1.030504367498702 1.454470325034521 -0.4930171485719310 0.2095687973460947 0.6750767184224774 0.1258010914877505 0.4580298290230631 -0.3095858272520402 0.7840228515845404 1.191015370407117 0.6672869768112382 1.803318173831069 -0.9061251789037891 1.288725578456774 -0.1452581941468560 2.000796702090217 0.1104882475654955 0.4219263584212885 0.7761832765209271 -0.6283902614125071 
0.5356066802656908 0.6226229863183257 -0.8519258284014145 -0.4025987480438841 -0.9304014357759375 0.9179882056898166 -1.566541692034045 -0.8195019030629946 -0.8358101478356121 -0.1907646662452512 -0.2243568118831778 -0.2987937923947772 -0.3748140914780129 -0.05955912344721775 0.7730753496658737 -1.095564382740936 -0.2442682021455118 0.5988289227666066 0.1200203518289829 -0.7749281363190254 -0.8295775788269996 -0.04672035151747261 -1.671097951426677 1.159022688145188 0.9529672947713537 0.2372344809670159 1.131815435494256 -0.6597166957712229 1.712692478058046 -0.9481909568039291 
-0.6905261218477524 -0.4868239865945674 -0.2478989047228881 0.8797366061424394 1.557903057003296 -0.008520890692411572 0.7231793514540097 0.7253890024195053 -0.3083644138520306 0.6392787367604639 0.04742669219180672 0.4370210835999458 2.845352837745314 -0.2418840265726825 0.3837101749436372 1.644469156058644 0.5987430453464867 -0.3309265155888035 0.3911105076556150 -0.4378898706148653 -0.1524543718650522 2.695178964375806 2.249838578548344 0.5290441215526898 -0.08309722850879675 0.5302192671867754 0.5034645079742943 0.04707790523500809 0.7165793140367185 0.5478970842400145 
0.7537494870918073 -0.2421804527266935 -0.05760534597092268 1.044321329581382 -0.9363486423948315 -0.02167621054215198 -0.1470951131732105 -0.4001845207169003 1.759816450356242 0.06632924192271158 -0.2394293088324163 -0.2722974838010200 0.7916842338678663 0.1318774490418222 0.6174964348631740 0.6308259430371560 0.8343302328881825 0.6386914362154636 0.8666531589728758 0.7484988754934803 -0.6926912002510262 -0.7005227886362646 -0.07147099731948942 -0.2222595328551527 1.354449167865784 1.268472552233645 -0.6876329876977488 -0.8642358783448472 0.1946477160962754 -0.6013815898877928 
-1.564288866222898 0.3600230736436930 -0.8123771918381719 -0.1907184913014029 0.5956884336330333 -0.09470600429304367 -0.6455803679493106 0.4685739039909005 1.212725004790757 -1.235539597282594 -1.935264894354853 0.1443922332466188 0.7348751919715105 -1.896098907844997 -0.7816237482238722 -0.4466492895908958 -0.4083740258378842 1.035609046476205 -0.3308250188652131 -1.185537169544108 0.2048386048065981 0.4786921756736751 -0.6939241491963031 -0.1907653699035430 -1.504290593541987 -1.689553050927991 -0.1944396890376355 -0.09583230680423035 -1.030804857206149 0.6821207666232374 
-0.2039381081825814 -1.200857732036358 0.06547069069284239 -0.8417940586798327 0.7207417867522574 -1.414014144140818 -0.1437633715142439 1.264016185056827 -0.2028282556843483 -1.486406417785945 -0.8501632768838288 0.5701819889536922 -0.5202875673465762 -0.3321266103671296 0.2951466539244684 0.7736769032543462 -0.8571380086324851 -0.4690210591478003 -0.3537795603974899 -0.8827668175506801 -0.7742689223435713 -0.9013695376334317 0.7743413450186564 -0.6063216432364652 -1.518335506203629 0.3059980141233087 -1.546779285416909 0.4309666357555484 -0.9127577566681397 -1.758900856842653 
-0.1562054272971975 -0.7075465432943726 -0.4789383349867520 -1.723317730992448 0.5233670070758214 0.6719448407622084 0.2352140391188578 -0.04417440377168772 -0.4697770805010175 -0.2429782711012754 0.9808221555589082 -0.1240815444100047 0.2109924420948784 0.7287282742419199 0.07784287669254593 0.1130640320001353 0.1416356773822806 0.08571987469235162 0.1797041723364787 0.2454566947849609 0.2879013736075956 0.3698405207920603 1.209400910667237 -0.5493410966317233 -0.9480466500389270 1.965174116429933 -0.2141209653389523 0.6423573565976444 0.4196076450027950 -1.136119573426390 
-0.2182525932329152 -0.3630304634911476 0.8937929942923619 1.232005060047519 0.9261839735252401 1.676537062073786 1.376247981736587 1.359149684272604 1.788437765913474 0.7824935733383660 2.761163125471117 0.8858550123185636 0.2277424153122295 2.825487149953016 1.254693725822332 0.6462263590796389 0.4995600169635344 -0.3918769587405017 0.5342071501969567 2.579705126134643 0.9912596339214692 2.188214842795639 1.057400508834686 0.6657471321073819 0.8309289374953265 0.5128124091171910 1.510667376696409 1.150625631082985 0.8615082029917431 2.074887385410636 
0.09604973719982740 0.1655798865883814 -0.6947669736123101 0.1257804533949532 1.286004369917341 1.083614104141885 0.9741525080634986 1.731558423383110 2.903735303468394 0.5236143760349110 1.188834700222519 0.6073221446048276 -1.296193763815548 -0.1867075864948226 -0.2886723093618047 0.3671942762109864 0.3319730886921026 -0.6492861281676665 0.2759096644904399 0.5733295173113157 0.4140534226212706 -2.825510126187865 -0.8017890368419773 0.3769943147842626 -0.6713489029532130 0.6349056713360266 0.9669458372532942 -2.442956817540182 0.07231061695156356 1.482359958579834 
-0.7594752679735051 0.9055669256863791 0.1715640969158650 3.436238943698057 -0.2774408168104493 -0.5732104693542870 0.1058550588122875 0.3037113540972242 1.548194601176483 0.2603049779702937 -0.9685688942647130 1.051773188340109 0.6100872126692755 0.5045878301873792 -0.1233359472079881 -0.1418957431316690 0.2386749381120856 -0.02074803594523850 -0.2432075243838139 0.04572295193491704 1.259756628576773 -0.4709596316175730 0.1023470881885934 -0.2431434786294255 1.057612849302386 -0.9792782300278917 -0.3551581891587078 -0.09446186184552440 -0.7974036237489196 -1.293213150220286 
-0.1896539323719400 1.637609372326749 -0.7851047777642972 -0.08659620136151458 0.6841338686279805 0.6855776603281362 0.1652499722655595 -0.2351035956752409 -0.5408563512544273 0.6376355539720933 0.4366567975206280 -0.4244260144412476 -1.293071886199346 1.594336484448211 1.644543108053196 0.5507131793283092 -0.9411929530022455 -0.4750148400182086 -0.1851299842653484 -0.01922908709926983 -0.3485481135634360 1.309727565857853 0.3895707638359940 0.4855412925391384 -0.06596785383799966 1.147246139138206 1.009772724056022 0.09292223288216372 0.5152915533250931 -1.706453178235959 
-0.2627406676251592 -0.1052028773007236 1.246332185692763 0.1617947596843729 -0.5542253830661792 0.8849709113081170 0.08073234818424829 -0.2087053721962052 0.1292590765899774 0.3563784419291329 -0.8444586673895272 1.272402385711163 0.9762809019765989 0.3459147710948031 -0.9358096974694661 -1.482895345548914 0.4899507500501933 0.4315067740341723 0.7239541735339893 0.7174535300245813 -0.5018813754797734 -1.116400853580239 -1.150737292760281 1.779251159510263 1.579033106957485 0.1985043959295617 0.8392529798804249 -1.606848846535825 -0.07586957820166226 -0.2400363697293008 
-0.04099524155882087 3.714370384059468 -0.03907942747989163 1.094754473578815 0.4263740939254158 0.4019126044336696 0.1081002089447439 0.1134639091382085 -0.08117874308647023 -0.4201497289829010 -0.6184157982602695 0.1583427014243029 -0.09319699779311674 -0.1764546202230304 1.278860446026912 1.107619921593882 0.7927247418377746 -0.4150786256188693 1.540937910052965 0.0003416893946493471 0.2069018758133830 0.2480737128448973 1.655963508843394 0.5612311164961139 1.098709886747595 1.651924431502724 1.759119134087604 -0.2491758743855008 0.06280514208450036 0.4057645468930474 
-0.3452131558300727 0.3094333245992315 -0.3806694021102960 -0.2417416135027657 0.6031267921066368 -0.5889978820530922 0.3759374652297637 -1.915002659617080 0.3143248975623157 -0.9195630509863895 0.004350542192525141 0.1265713399720057 -0.3929455977328598 -0.9437599689887671 -0.1422901454014050 0.01409358389211515 -1.362386949441959 0.1255959366380624 -0.05649308075535599 -1.801071716034125 0.7284593582981463 0.4518208019779811 -1.031548726014224 -0.01884627796134853 1.530453698522020 0.7214195547686149 -0.3224689985058088 -1.479392961302694 0.8536825256044420 0.9368932555705838 
1.582601902793485 -0.2280602978644822 -1.946276202631181 -1.190109352053193 -1.347697751627110 -0.2998106345718427 -1.475374726362798 -0.9724242838579413 -2.361398590921358 -1.277050917102604 -0.06691681782898129 -0.6535894369892793 -0.6454092083674733 -1.096388002317120 -0.9688335737977641 1.368680719877273 -1.045069815885825 1.302812757416556 -0.4795909947391464 -0.04457403699132961 -0.8393672590857395 0.01163452481183291 -1.070015151242167 -0.5127299718449720 -0.9707330552110877 -0.9798551698334442 -0.4785916698581377 0.4993787952294277 -0.2733404647471424 -1.233434656668978 
0.01931998009704836 0.6583647852394874 0.7608399877282199 0.9951464466532570 -0.9441294236433830 -0.09458034882964819 -0.5354093646460402 -0.03429298486471855 1.016292564997706 -1.810704549571903 -0.3088717957249062 0.4899351617312602 0.4697655068710601 -0.7299214563428085 -1.515150944275342 -0.4561306070003893 1.352612965579007 0.2935219088535777 -0.3099637063922976 0.01844103106126618 -0.3956272429631872 -0.4129238135056059 0.5585966840167689 -0.3273152809312961 -0.2552134710934477 -2.633480561639809 0.8864669486006174 -0.2026441325404404 -0.9616986818076471 0.02525647549771388 
-0.1238964362517955 0.1530817760158009 0.4403333953913676 -1.175292673066370 0.4068018014886918 -0.2841779112776404 -0.4477245243172324 1.463461090647409 -0.01792278860092120 -0.2308443938944345 0.1741126028754834 -0.1622467696721258 0.1230981108610181 0.4154031846182912 -0.8814498618711772 0.01734901493079862 -0.8894738034198254 -0.5842784951488149 0.07759804089551063 0.8807938212239484 0.05007283687367264 -0.9640884966199520 -0.7672887748176964 -0.8591409580241435 -1.204081699367265 2.433625448276615 -1.601612365054315 -0.7859972453466426 -0.4892428072817022 -1.257390330762852 
0.2211580551447391 0.04231043735168996 -1.040005129219932 -1.745260518107302 1.106741705755455 -1.890778869728632 0.01377797663630398 -0.4920048420090967 -1.098234850092676 -0.3062076890801631 -1.627763244582786 -0.5322095172830226 -0.8242408312778067 -0.9482771323061634 -0.1487824990913696 -0.8296114540947211 0.7404846641360285 0.1052937054414660 -0.2196793486453790 0.7111637964340983 -0.7974607273754994 0.4207813315158516 -0.8415884101105905 0.06271032675026130 0.9263027206944954 -0.1166160489001492 0.1246894710892590 -0.2234501894717190 -0.5826071014260368 2.625029764205786 
1.001718961086805 -0.8922901073939724 0.4714487801075633 -0.4533977765021249 -1.755452452029606 -0.2981124935735314 0.2625833709252758 0.1298677188726269 -1.217100360844015 0.2752460819019101 -1.242044735677226 -0.8779460310941886 -1.328329393603456 -0.3258107678058926 -1.420354725700222 -1.325960909767651 -2.045095346819149 -0.1283131095478791 -0.08686633809991899 -1.304583471644213 -0.8431750742462226 1.098318915560208 -1.126307329799298 -1.195959637972083 1.149752674195223 -0.2697870352410734 0.1648051327839306 -0.8054151281911598 -0.6270245355188162 0.3894364770839251 
-0.03585951589913539 -0.2499485927142564 0.1413462371988926 -2.061297897040816 0.09725938574064075 -1.135013293950221 0.6710121100133609 -2.359616197636729 -1.438094991599533 -0.6828850140513045 0.5380480257753946 -1.302821383182892 -1.115074318010629 -2.087135768838040 -1.198818456165086 -0.6498691906855307 -1.596443055672728 -0.4999876947723471 -0.7485211099608877 -1.346440804512362 -0.6251997015462832 0.7759555602647378 -0.2243417844860656 -0.03602428806258228 -0.6997663281970399 -0.6534301519421570 -1.851303057364583 -0.9164978172652625 -1.768065997396636 -0.6057495146902444 
-0.1551868865241370 -0.9940913077407567 0.1855188723517218 -0.3473882772323230 -0.3065943207627755 0.5440811012088845 -0.007101322928439846 0.2384134001865654 -0.7361951975398415 1.594240815050292 -1.461706942551658 0.08842538950031614 -1.209036782871727 -0.7505927888072821 0.02871440560830631 0.5343480282615184 0.7080162315191290 0.1985428423912935 -0.02864537142349191 -0.2411717908928034 0.8753973529546538 -0.2775353852124197 0.04257470406316802 -0.9040487261650558 -0.04649506305871430 -0.4632861279979297 -2.103003402009338 -0.2061583178268408 0.3164658109529362 0.2102191507695411 
-0.2273438305406484 -1.209142158065177 -0.5714864686456232 1.285860492680958 0.5299654583472997 -0.3298003933939745 -0.2755259310737164 -0.3076469577586999 -0.3120584777285708 -1.565188324301072 -1.248999620457218 -2.096018343364459 -1.296052265600859 -0.1897579039547243 -1.856793754473660 -0.4166718788373188 -1.614181190909198 -0.7825791198451932 -1.071474261900572 -0.6544330588722165 -2.048241861080315 -1.445370177954151 -0.4717169704999762 0.1412151290841815 0.4277432448331242 0.1070589228963634 0.2418991938323380 -1.741843065043516 -0.08985392036348808 -1.360417130937766 
0.06844142248159091 -1.364458619417298 0.3628785879049818 -0.7992789106710821 1.433327439993637 -0.05963114330819964 0.3663771928122417 -0.5006014509353502 -2.132553695345104 -0.3927189316743280 1.135427302506667 -0.05009830901929983 -0.1048997080405906 -0.2452417664728818 0.6073196632642098 1.015127170093531 -0.4711492161370268 0.3608184078539852 1.001680480930193 -1.301058698940818 1.221988907793380 -0.8146428120381820 0.8589994677231023 -0.4000877458429381 -0.9871481239016239 0.4895410607644909 0.005634866863268292 1.349184143589364 0.6615667585468418 1.729654898033346 
-0.3573094731773355 1.390798169540794 0.3126138732562539 -0.03010984069330513 -0.4015660584124898 0.6429083833045365 -0.7141758683011741 -0.5974047998443625 0.9057598857458621 0.03706741877825089 -0.5034479580203822 1.081957809736826 0.4899456800840472 -0.6519788742561239 -0.1260920822049870 0.8192294265140462 0.2554970347013880 -0.2689203850505870 -0.2986502044053747 -1.002130251649736 0.4432854722242762 1.792942028391061 1.232313587787260 -0.2945107385211808 0.5746823057360108 -0.2399462788391472 -0.1059507762154583 0.7987580466351011 1.021663027966375 1.728625453104079 
0.2200631293014379 -0.6605951074229220 -0.5597267735005931 -1.745536445916619 -0.004431613117540562 1.113317649972965 1.003286714879198 -1.357836335985724 1.791354223585571 -0.8715638206375586 -0.2351074674700895 -0.4966707262082394 0.9391542709959556 -0.2329261068948053 0.5377299410573652 -1.192866110753293 -0.5547136122751445 0.2440717848489773 -1.460787087673320 -1.772409233154531 -2.443402820186743 0.9104445373732362 -0.09782501399835652 -0.6096297153444521 -1.925043506645239 -1.100549894167271 0.6127742854287958 0.05807545847157178 -1.472984092447413 -0.7331416893926431 
-0.8709834214652901 0.8733281339682535 0.2464770524840886 -1.018559452604567 0.08182231566586448 -0.5178968757091659 0.1177478378280016 0.6058797830415775 1.785652481649741 -0.9441911279995236 -0.2371594976019513 0.7385917467555440 -0.1544896864978823 1.179127520954897 0.02311841116122895 -0.2404003771722862 1.685328724265524 0.4027170187348880 0.5127805932435004 -0.1014177999545089 -0.9900286406310869 -0.2586027228067735 0.5569726279907394 -2.256286016034430 -1.017321507787504 -1.185166799028621 1.011900143795141 1.276048067690658 -1.005180955618033 0.3693466555487669 
0.6067345653258565 0.7792052573614946 0.8343021342674402 0.6120335887717686 0.3398332639408884 0.9126431633008847 -1.002188702633303 -1.296657046395478 2.245927983407525 -0.2431399755517309 -0.9106214515690205 0.3670962647339899 -0.1406773014554046 -0.2447686195903472 -0.3682074719098327 -0.5228341547146238 -0.5509486802043860 -0.8730768526896312 -1.087163483850749 0.1635408716779416 -0.7801302953125228 1.606387327753299 0.5010667552927062 -1.233599011996325 0.3922850133607785 0.5050296451978382 -0.3693362111192327 -1.329131659543478 0.05646488595264076 -0.7574562240693409 
0.01012609209618005 1.013803243417623 0.6062334106546221 0.8342071066159302 1.191150447492102 0.7865883568119757 -0.05431481241068202 0.1428332362639819 1.333171000738417 0.7521387031804960 -0.007104772351605858 0.4593791070125038 -1.460515920353636 0.2200743672490466 0.2542341054005406 0.7124890896803434 0.1203015342098773 0.3897781705154835 0.7161409614120938 -0.4449183472981207 -0.9737450456852365 -1.348156051258707 0.1893287234575045 0.5311374626428594 -1.195313511114609 0.9070983476342879 -1.683068847007866 0.4117036989218539 0.5281466238177747 0.2207816055774030 
0.6842810464139153 -1.538200231894499 -0.3752459102262767 1.396267099199425 -0.09377163174837877 1.479334536900776 -0.3909241618986689 -1.585820097602940 -1.243614208265985 0.3673981918502699 1.362825960072305 -1.720909583383802 0.8126054921862559 -0.4052121171856212 0.2813445854076163 0.7506077545519096 -1.891424743433292 0.7333542845276192 0.5375634936549699 0.06819539777461456 0.9523718095246352 -0.4053367372664282 1.676617708560346 0.1312188871832886 0.2721499704999945 1.100519415893510 -1.701677127288556 0.6808870817615919 0.5768464344939492 -0.04938469710467155 
-0.2485952415114537 -2.157972119813764 -0.6579640363423734 -0.8236575740910361 -0.2045949773539058 -0.05979281752226929 0.1004372971662461 -1.374050520223043 0.1249151164090470 0.04016801213654930 -1.108412374264753 -0.4428969388876317 0.1872951504102096 0.2558888321546604 -1.062765823224678 0.08098112662015033 0.4303358021603628 0.2411832026914521 -0.3204798462641312 -0.9202083337978251 -0.1752952627422363 -0.3893877979006680 -0.2034359435638854 -1.240912872119985 0.4919435846420441 -0.09084340809590719 0.2272194447447109 -0.01173000778610106 0.4291316547626752 -0.1795464811732235 
-0.4452963061566700 1.019302813450474 0.2898869811834400 -0.3879628265578926 0.1492586374151750 -0.9812134382712532 -1.120559252302194 1.242528066587114 -0.4235088343362630 -1.055428533929542 1.571270260015565 0.4741549533250875 -0.3680461845219817 -0.3146339500517918 0.3665327164683498 0.8602501896459630 -1.102969152336028 -0.4825775098179713 0.1471455073178762 -0.5730418038130140 -1.569998853904933 -1.076829066050200 -1.012366317886818 -1.453522865568775 0.2281643132274255 -0.6793967262596473 -0.5556236431256674 -0.2336723356230712 0.02990310671211010 1.089687806338257 
0.1441368135789616 1.118391425002725 0.6907056228562116 -0.3702819092299354 -0.5225932364791306 0.6209361230132938 -0.4100132361022264 0.2701474159509426 1.545750309089011 0.6055476405788511 0.02604079442113876 0.2947127289442471 0.1248779684153047 0.1274953563221688 1.364844471346141 0.2780993858122673 0.6590542488747533 0.7792948636042152 -0.6971779049652067 -0.9060791057503863 0.05080873769992926 -0.8065085762210291 -1.517709554162615 0.2380541422001836 0.006781007429842723 -0.2559184730356152 0.9125753728401766 1.986601728816281 -0.06468216327291243 -1.556274186380447 
0.7701404020621785 -1.148976221755561 0.6071321273062589 0.1410044062931037 0.4491649349423175 0.6160625973635986 1.444638723247190 -1.154124156380863 -0.2035131725664488 1.161201286151907 0.1318948947103312 -0.7678743321847792 1.682368999408747 -0.1555942941432321 -0.3786270249041731 -0.8454663313387296 0.7210516209230357 -0.7013578770813115 0.3305793797758052 -0.2416087978055577 0.1405510223285808 0.7810591167701206 -0.5564686294922235 0.8786910138649010 0.4647191809698265 0.2442468790335260 -0.7456112872772491 -0.9870171374945724 -0.006626444071888825 -0.7383399548115170 
-0.2581023082007004 0.7670218170201124 0.1903117331164904 0.5359975052177479 0.1519409801888719 -0.2671483241585625 -0.2727432307809676 0.4244125936534846 0.01040522381442058 0.2674868061653254 0.9937358920486921 0.6445074486054777 -0.2022191914148701 -0.1581263056106703 0.1991234833396553 0.4510755646956943 -0.2155094606765931 -0.7753057592259522 -0.2570215103851183 0.3459268049211147 -2.081878934300402 1.143975575358151 -0.4434248499435325 -0.1139999201752378 1.169756834148925 -0.05508867957433597 -0.4196115787274390 0.4750079264280820 -0.3774614988844344 -0.8207998036944950 
1.387732678324683 0.2965545249414449 -0.3360400810501992 -1.760077334775053 -0.1209069477383332 2.126502247646044 1.825426796115685 -0.7456497617489005 1.445127850629784 -0.7306722613870551 0.04286786875383757 0.9569111557240408 0.7907414568093929 -0.04743097170540263 0.2889125390805737 0.3217111104680226 0.9874029906007422 1.497097106518744 0.7255269093297384 -0.6170545196554502 0.8095209923780547 1.236016887348373 -0.2991205226023285 1.485225756383757 1.041623279766289 0.6742513831039967 0.9153542044694402 0.3858516406915553 0.5912412840319993 -0.01918824590577394 
1.123485182521465 -0.5047170559447429 -0.1046620315263584 0.03295933079992437 -0.3751697127601473 0.8550785528891851 0.09882417339373822 0.2077014825461351 0.9094642373599912 0.4923035318367690 -0.4700279060591028 0.6700281340891323 2.301695252742870 1.074980029587659 0.6421207212553390 0.5255147703984914 0.9824227234990118 0.04785507913362970 -0.06279519264872968 0.7142298287499255 1.611980796311192 1.946055792672135 0.4335058904169907 -0.7221830271606069 0.6893972919689776 -0.7815569229895483 -0.07164969588200165 1.480724866382745 0.2868774759703726 0.2505525186067354 
0.3180648217452516 1.043752829222640 -0.1685649080064361 -0.2116216826339172 0.8282128166941140 0.1311468452508300 -0.1700591495491475 1.589104983206512 0.09353615181343972 1.456405924214248 -0.2241374940296876 0.9597155268820303 0.5767913211814542 0.7193215977212386 1.691522905119249 0.9097579555790865 -0.09720206373397006 1.079130664449251 0.4650197925245536 0.4315257107246123 -0.2610576381253493 2.091810280878872 0.1027353364320622 0.2567141884149767 0.4016433993780428 0.007340256792873014 0.9369941081361266 0.8716028753433134 1.548043120632723 1.477871333263958 
-0.3809928639473293 -0.03666846252119088 0.1576931324530020 -1.146104798477246 -0.1613953961256540 1.513675769261576 0.05913727620496406 -1.063484984496693 0.09392682820291812 -0.9131513315612838 0.1242455462880787 -0.8441048504438851 0.3149768265831150 -0.2493852924047005 0.03821601703467092 0.07621084999934008 0.8172889415627951 0.3213172918136705 -0.7964289167675632 0.4284326391626798 0.3865358555919997 1.477551463037139 1.025618664051444 -1.661415309101839 -0.2599955559379553 -0.7504899223032394 -0.4546897564719534 0.4023981337231607 0.5266974091121948 -0.06423192148018728 
-0.04490560198425626 0.8514454923890777 -1.413170182968600 0.9279174626131288 0.3518744643924023 0.06479937610221041 0.1436747434718650 0.4427438304354388 1.681617091341289 -0.8309732633309647 -0.6653106188294252 -1.370027774119948 0.4800047649420938 0.2069538092860633 0.1379882000052482 -0.5015765131380229 0.8459570911567587 0.4584954541920735 0.2883475440326822 0.06895621273536978 -0.04880057265743612 1.063860382749220 -0.3863668266740818 -0.09024288505618318 0.4723683876970489 -0.1722154690368102 0.1064171479859829 0.3393066867237198 0.9002644372951906 -1.355452851007735 
0.1717920178041995 -0.7386478331992815 0.5266049719273093 0.4979634322770040 1.191796161957407 1.376218499179062 -0.3100647440414319 0.9208372836458271 0.3501835861799398 0.8637389371015133 0.2038421033711197 1.328310912866711 2.179420696946053 0.6828713502157373 0.4329825493389519 2.242993585197800 0.1512157306751615 -0.4404274914232134 0.8854556268888495 0.6092859150619592 0.7747880685476486 0.3560921514710219 1.777299632897505 1.007401104835489 0.3057400741660635 0.8606824672164233 0.9500021357788041 2.050361316116351 0.4018371342361114 1.988318720579156 
