solver_type L2R_LR
nr_class 21
label 0 1 2 3 4 5 6 7 8 9 10 11 12 13 14 15 16 17 18 19 20
nr_feature 564
bias 0.000000000000000
w
-0.3313409137014952 -0.1066083728715018 0.3287816188140751 0.1150889997455150 -0.8154513775396088 -0.4569326661584190 0.2234026759242421 -0.4006928349691155 -1.178558776533321 1.413323675751355 0.4714192951008999 -0.2016078852348518 0.07698446877945941 0.09952433555134799 -0.3312618086947227 0.1479923765194583 -2.168641975469506 0.2326730252259433 2.696643315373844 0.06632713055305530 0.4432978438640369 
-0.1918530587562461 -0.8474769707745893 0.2695264434503460 -0.3030120656658894 0.4332588412764087 0.2461131451556476 -0.2040397449629596 -0.5699587124922928 -0.4939428722786842 -0.1554058293132314 -0.3628765520027061 -0.4047259263961406 0.8072717554870127 0.2077230756708256 -0.2549126721228206 -0.4131794769421817 0.3279528708100594 0.4297285049700125 -0.7297635933513376 0.1703250889364234 0.9718698350969789 
-0.6607309139982569 0.5163567500637759 0.02060336707512735 -0.3292769892902965 1.509866280480890 0.006830282568258503 -0.4637209754141773 -0.2366554526018824 0.3693315047836541 -1.311125555112072 -0.1171232623785867 -0.07317367695823035 -0.06471487855437576 0.006451047232196409 -0.3050309011424558 -0.01319650582746289 -1.152029542634953 -0.2829243704283420 0.1055640187054014 0.04112273136112425 1.027843927217882 
-0.4987352581568462 -0.2749973826316252 -0.5759561937420408 -0.9598475342952910 0.6662968396208383 -1.135564492313263 0.4654447070559606 -1.001429424377420 -0.06115497278236243 0.1532877484934772 0.3553245142503994 -0.4066004296123661 -0.1893918062753769 -0.5318130145313146 0.4324393286897175 -0.7097923516535910 4.848458697778709 -0.01822511056264970 -2.138452931755746 0.1758688151717649 -1.367553819833994 
-0.4927172356251541 -1.715688933802065 -0.3084760136889818 -0.4255794951094591 0.5872956454794717 0.7689221195503700 -0.8519188574371079 0.1611495427749187 1.331284612117547 -0.06125190673783896 -0.4545996940423996 -1.275849056709292 -0.08377420868229134 -0.08501997758009780 0.2292064373617661 -0.06583471657748975 1.549219969995807 -0.4389226147812514 0.2375454699519710 0.06602704394371253 -1.734319350152737 
-0.5269639907863704 -0.2218942286155911 0.2913304792130130 -0.1785677177690219 -0.6519578813624927 -0.6863955322041229 1.313560004913504 -0.5636236403907485 -1.452978901484213 -0.02733356064131498 0.2127582016066612 0.7347840126317110 0.1176835482936188 0.8707028150861421 -0.2207316191210812 1.400165263939638 -2.986756879628518 -0.02252899791833317 0.2507785001681889 0.5317393033927448 1.930273655402241 
0.07783757853715227 0.6939634559390186 0.2172914290801337 -0.3376746024448235 0.5116421024585937 -0.0006344520199835259 -0.4873683013819824 0.4774129154286865 -0.5350407589613818 -0.1348707629992068 0.1800546929877347 -0.07456476855859065 0.05711812282738386 -0.2442400680393825 -0.5625729764171509 0.2281852435982996 -0.9786626396074393 0.3651161834671912 1.026716492092686 -0.2844854231974737 1.682539666503398 
0.08202237036616392 -0.1743999936258997 -0.2518060507276618 0.4491302394195603 0.3795753421165554 0.7174266542934955 -0.1987461594819607 -0.7618893476037201 0.1842533650998540 0.5256960338736960 0.1939429730332048 -0.7374789172211543 0.3723006134393240 -0.2056765817543573 -0.1510285811863347 -0.5106674480804686 3.521992815414090 0.3839134224269026 0.5234942616651788 -0.8188373904948510 -2.117084019127384 
-0.1639054262361098 -0.2341503113402914 -0.08449359293108033 -0.4557475732101882 -0.9214356396305297 -0.6160778240016483 0.3853164333484663 0.09521534762924848 0.1855004934830073 -0.6380087096483927 0.3895032208124151 0.3668983291974768 0.4065849850768882 -0.1050961749990775 0.8777720955899235 -0.3773222325707789 0.1191165842089342 0.2076911384223176 2.047735626288918 0.2702274772048871 0.09470495851189231 
-0.3872826751447811 -0.3575391826391478 -0.04627370575147197 -0.5206319593566693 -0.3349452557524895 -0.4831182383552672 -0.06101518519998829 -0.9733620901483071 0.3057935752738704 0.3644501467603846 -0.1682285086189152 0.4507941977914717 0.3013595463649505 0.6753343995361404 -1.015311395491950 0.9642083594278247 0.5101743182792944 0.1068621984450497 -0.2317650598069620 -0.003077479541723254 -0.5189399654405928 
0.3964339137066775 1.816152997525307 -0.1243587704259695 -0.3275725131092958 0.7155197867595792 1.068180727880513 -1.639030429544488 0.3370070578740106 -0.08644486347015623 1.238470762709600 0.1777497584698684 0.09555029432126741 0.02670216913052349 0.6167135419925596 -0.4827053944659452 0.4189973913523380 0.2868825127393205 0.2280554830118856 0.2673929750182818 -0.1255428894802034 -1.064117696809391 
0.7876367444776274 -0.7930972388169371 -0.1707994390945317 -0.2911240102130534 -0.3142875585115454 0.6173300613005290 1.070756432904167 -0.1797257694885901 -0.07894059416414884 0.5845872600268746 0.1027484138794790 -0.1540027945998162 -0.4254158472696752 -0.3195763925957975 -0.3642757593046408 -0.4365377094341653 2.272724460900912 0.6317089568086057 -1.876082035226434 -0.3913524757245531 0.6106854259101366 
-0.4793282694254248 -0.01387474753495254 0.5372975293413536 -0.7327792868307152 -1.194357489082544 0.4663329858881039 -0.4550867051317223 0.6114585667401865 0.1228329145960705 -0.2326104445249167 -0.3623544742729503 1.190251563994354 -0.3549606629852296 0.4472938741508694 -0.1159254355775393 0.7868684243615028 -2.592909874356441 -0.3490413817913212 1.001880048599490 1.225993355762232 2.679727569364772 
0.5171764476765430 0.1403130065743294 -0.05087163086189488 0.3023741581602779 -0.1029136753974225 -0.3417027128731541 -0.1299285446647418 -0.01454672519447575 -0.2087373755034493 0.4683914308277881 0.09960117474970114 -0.5433506264629534 -0.3750799566199865 -0.06735783416307353 0.3556235097695253 -0.4936312808135603 0.9461725863654988 0.6803499031658601 0.1349733185870211 -0.3785690363302117 -1.429498107022775 
-1.051781165266312 1.456475527621743 0.2077801414321772 -0.1611738821616628 0.9554816917882023 0.4432478684079519 -0.4698350039758270 0.3691075740341361 -0.3141990623450102 -0.7819743131636001 -0.04395848317176664 -0.2179917929711688 -0.4472012369800839 -0.04711536072941330 -0.9680286972374844 -0.06126652701804601 -2.380605855058894 -0.2078418060991433 1.779270596354737 -0.5295401869401224 -0.03968703010024303 
1.142463771599736 -0.9237316407834322 -0.4124985575169295 0.04045286832153656 0.4327222871427850 -0.1235192342888893 0.1456475927818877 0.02651716868101425 -0.6681899536411654 0.2533158516731099 0.2956397627959519 -0.09879689216039200 0.7943478117253091 -0.3694505090038377 -0.05916767168636018 -1.431732037691468 2.739871838105628 -0.01224138265731423 -0.7058652521754473 -0.2822421472665571 -0.1444461100046655 
0.1301990875749650 0.3212127470238254 0.2478583216625866 0.08076328955753662 -1.051310632161760 -1.107117834553981 1.032497747716448 -0.2950102287919547 0.5546347731143598 -0.07702729089269690 0.1884489974278720 0.3353063562295199 -0.2513923596793886 0.3739875619929580 -0.5126748309205391 0.4775457150580573 -1.520415956332320 0.3006705564163034 1.100853859835361 0.4500806093922545 0.7700216723678699 
-0.3608996314485898 -0.3858223810526467 -0.1548258311240056 -0.06556849533281842 0.3666724015248019 -0.7913299269733846 0.5245707780046960 0.2737173166306681 0.08218095280044257 0.4090557600279825 0.3130283446025308 -0.4440765698249766 0.7532225595752561 -0.5719554298691426 0.6193421520733469 -0.9096697099589315 -1.042265956739318 -0.1706609458430253 -0.5986285340481389 -0.4838871826945657 0.5722247676084187 
0.5386697021752597 0.4734995321839030 0.1404784936896252 -0.3805918105989143 -0.02094220068828208 -0.7447875341129638 0.1413626677603819 0.04758429624372212 0.7044080547622427 -0.07987296160961083 -0.4518478781614202 -0.4328605711230555 -0.3378484236864372 -0.2288745732267114 0.5239730878753223 -0.5187010707953499 0.5401385312999758 -0.6350945237250222 -1.109535524505787 -0.2271642523696663 -0.01122201918352815 
-0.3275812788453506 -0.3982800894279029 0.3152768369924564 0.09435456861554713 0.2497031242705677 0.1340465828659932 -0.9185820054312626 0.6736434865947812 0.1331942868251408 -0.7687040549514175 -0.6316594215174163 0.1451039392534801 -0.4037813576757580 0.4852683210960423 -0.3496214073205531 0.3905233291780427 0.8530080237497495 -0.2088416294028391 1.578504233655399 0.09608367922765776 0.3842902476770908 
-0.1634576788708834 0.009847263781510282 0.4743933828212136 -0.4895325845847444 -0.2458056675883276 -0.05104745892382151 -0.3471297103726632 0.03877589173099637 -1.365486560679433 0.2347010954312927 -0.4373047896206329 -0.3012621729059980 -0.08644132668091260 0.2203765831719151 -0.08796836435018181 1.155399489479914 -2.158738151745227 -0.3791136286909679 2.099976008791203 0.7065908132019570 1.084051427109877 
0.02014343667246300 0.5399564960293585 -0.008395746480191051 -0.1531557066703627 0.3118883431012757 -0.02116880492366910 1.071181843701564 0.7151984836653704 -0.9082210973461056 0.6106510007425388 0.4896746305684340 -0.3364971351489769 -0.1102431470200006 0.1175599819893198 0.1347063678162483 0.2110238972718081 -0.8764293686968161 0.4150070159501568 1.053923790011753 -0.7552159792260830 -0.02060318115995366 
-0.6311836621692257 0.1445472069704495 -0.1914870057845131 0.7369326389482589 -1.237687370719067 0.02556129686613205 0.6279337805463852 -0.1826340740722320 1.188427713797825 0.9242451401397432 0.2432744128132801 -0.5703902284148914 0.6668153968977578 0.1406570911894071 0.8917618507836729 -0.7128998131595967 1.299445667465534 0.06351371127565043 -1.592110802051243 0.6154052844454860 -0.4088905234323295 
-0.08082169041881851 1.571705197391711 0.4013498555610280 -0.4627229356323445 -0.5107623304121532 0.4913038602768149 0.3060952077839706 0.5106768921732301 -0.2557220978613117 -0.9022122515730340 0.6271359605789306 1.224376340408690 0.3139052850639060 0.2061416712084683 0.1378112300807501 -0.2519729948374889 -1.457269204716559 -0.3692320041195863 -0.06849019989108335 0.5327502381152170 1.776997327136594 
0.5315075941763197 -0.4512135020195476 -0.2073430772590319 0.09208516501897508 0.6681625236225484 0.1909725325653089 -0.1715956609978417 -0.2224032580249534 0.9579652803051900 -1.188307349733552 0.02640881902175809 -0.08613189053105700 -0.07989542652295253 0.03492112620974051 0.1426507280908548 0.07963888893506445 1.382822135997819 -0.04958155991746135 -0.9249697400268195 0.2191682504985193 -0.2495519586100893 
-0.1261789564760859 0.5427285577566800 -0.2400852923639315 -0.3647313575232228 0.05610624284900917 -2.101000097909487 -0.3239594725749456 0.2513608712965013 0.01290976637980378 0.5920309794818319 -0.1082769188579646 0.07616166353073148 0.07929540320646905 0.1064738626289051 -0.1223728872308176 0.02525127620132529 1.046570966471635 0.7511130234375929 -0.7462910105753393 0.5955358708097109 0.1216757254412316 
-0.1695536279200539 -1.541523660414610 -0.1348640048674652 -0.9659920570155417 0.2126699847628985 -0.1839975174752457 0.1372723088525657 0.1144568114311186 -0.7952530484688857 1.235986061960073 -0.2663507761422782 -0.4552130024007746 -0.01067805903837369 -0.3657678642133734 0.02351053317117240 -0.2173432308594415 -0.3157140989120317 -0.2560448488291078 -1.278147380429889 -0.1082857383770265 1.176200115235589 
-0.1146135534292082 -0.1674142836609984 0.1340659591753517 -0.02124965976508224 -0.1719992436604632 -1.661536580049785 -0.2722236651835080 -0.1962733265733013 -1.425946043696725 0.1607403572411125 0.4131337876804741 0.1932147195382132 0.1061684701639735 -0.2968101083446225 0.006085581966736822 -0.4674783807621045 -0.5758684845134516 0.1722832042413973 2.348565536304514 0.07633678276329961 0.4245112458006773 
0.1327632629590671 -0.4226580078041676 0.05792215228300184 0.4791277996952821 0.03946730064598097 0.08150934098822313 0.3369421897234525 -0.2185079617484519 0.9244714311689824 -0.4385782961688881 -0.08643678266725713 -0.2084345982163874 -0.6112800164182354 0.4175838886529945 -0.09682705678121883 0.2643794517802126 -0.5648298879637250 -0.6111632925937780 -1.471905001267134 0.08143716136515543 1.332986398531660 
0.7477274649061292 -0.8509841921006261 0.06552843578862508 0.8806161452088226 -0.6307214177699375 -0.1813314072552973 0.3483959076876536 -0.5165016032975180 -0.8375309560874500 0.8513842008040005 -0.05077643968837065 -0.6491127611450468 -0.5047515174233985 -0.2645152261879064 0.1523203849456643 -0.3039555814800400 0.3728937031708848 0.07780711484264925 -0.6463756379637384 0.06548250927867771 1.841529390815863 
-0.1484512441815421 -0.4058938392208329 -0.05854930206911578 -0.07712742707761057 -0.01700560343969787 -0.5885334234821019 0.9029264911835644 0.008885550659995071 -0.6873382348121962 -1.075542045402386 0.2255443215268472 0.3787695051871130 0.2719361715637360 -0.06594419403646730 0.01670893169817801 0.01593885081496669 -1.207122274527407 0.02222380637830260 0.9974016919313853 0.3195685129759159 0.6916538271751552 
0.6088364872664931 -0.5979028508142993 -0.1920119123539003 -0.2338211042315923 0.7983196409303328 -0.2042187993927404 -0.6954013150547268 -0.1059253162022853 -0.09613294204927122 0.9920134935877415 -0.5457656068246083 -0.6298761632485030 -0.07480468047780733 0.5851592235444598 0.08394903828309945 0.2872517880682295 2.478634765437804 0.1088888365621648 -3.417899643404582 -0.2657936951900640 0.5071622210413318 
-0.02311021990891927 -1.201594719822469 -0.1751522608009815 0.4986306928876531 -0.06504082430858553 -0.2429068583923957 0.1092390216651541 -0.2663342584960207 -0.02292649259197247 0.6615637399700263 -0.3401659741821942 -0.7929401480708114 -0.3669873774656908 -0.05161277913119833 -0.1306657756677531 0.2687203868799094 1.119713827923601 -0.7084922553431177 -0.9271785495848437 -0.1952938515646390 -0.5400716672399613 
0.6485538485717038 0.5138729557368998 0.3935872528202614 0.9606845462647322 0.6291276227598136 0.06795541342419420 0.6030957829033900 0.01885310518874817 -1.036047108041033 -1.369378072783062 -0.03648506484604728 0.1164416583624439 -0.1247560664983945 0.3098270224156374 -0.3410576100792255 0.2843477983917182 -0.4037912259404704 0.7244570414657661 -0.4614680614848284 0.4552632793053758 1.264325849191582 
0.3072427147430635 0.05345897839644162 0.3111091248928354 0.2059497595251849 -0.8469121658935428 -0.1062525622479198 0.6893382344122866 -0.01975888154013289 -0.8760286903519657 0.1443570104225337 0.5281101564793093 0.2189364185035773 0.8484031195640257 -0.1672040716291340 0.4741543400397731 0.06011430009655931 -0.1596878708258454 0.04950839152811759 2.329264737715903 0.6549050435461738 -0.7709566948625439 
-0.01644843125273376 0.6907641597982183 -0.3908171030437043 0.05579416144806542 -0.04101425968376052 -0.5618986402689398 -0.7357192342863690 -0.2431115185878641 1.248604843676060 0.02789549069580687 0.1409863428783878 -0.4152719599321413 -0.2991647501422445 -0.08174522150508111 -0.1315984760318099 -0.2292788806626692 0.2277448167849612 -0.1497986717078253 -1.921313452911968 -0.5422347085022883 -0.2677415979372620 
0.08582268871219884 -0.2119956926410288 0.3650402611840453 -0.4023756401365868 -0.6332518413272893 -0.6802312598901677 -0.4013911610379867 0.3040233374468829 -1.348106465875228 -0.3734353720851621 -0.4763636853169567 0.4671059310216209 -0.8041894815539624 -0.2373531389345264 -0.1807425577061406 0.04024615153741441 -0.6317752792720450 -0.02662595649751726 0.6195978733900000 0.7771736730079769 1.749890177818081 
-0.7429876522572557 -1.035547243735603 0.2229741552083592 0.09447862468519184 -0.5695759452314791 -1.212502612325058 -0.2986757121552484 0.01323259367941706 -1.265755789412318 0.6284057039283322 -0.06483523968642294 -0.2357374434514745 -0.3742906308236322 0.3321443172376720 -0.1982821820721203 0.6104236873878222 -0.3109289829016544 -0.4071808039333885 1.690471364205219 0.7854965417367213 0.1672575764535996 
-0.5508495807213689 -0.6692208619506124 0.1085798365988956 -0.5291473068575043 0.8926947788412125 -0.8165950421904087 1.250906257186388 0.1642739802109413 -0.9713601938504566 -1.241629842443174 -0.0003687545097142025 0.4544102421620382 0.002679944390923617 0.006045900407007219 0.1411891242561842 -0.1498401262254618 0.6502864083685558 -0.3435697183050209 -0.6470822012601236 0.7703693981308104 1.253009633472753 
-0.8219298930940235 0.3450923504379495 0.09219394299365198 -0.9337161082609526 0.5585918360400198 0.6685507798525114 -0.5437368462701614 -0.3227667018020577 -0.2803440113009501 0.2739204659922889 0.01052625700110086 -0.08688023952216736 0.5355051270922127 -0.3979664543181290 0.06355439098454253 -0.1776724696416806 -1.404180681059911 0.4647508690681930 1.297762669643925 0.4163332823507789 0.6019689210903417 
-0.4444499001558203 0.4824632420356879 -0.3027885637517228 0.2820671105614080 -0.1428423267728012 -0.4613132970699773 -0.1057581297365307 -0.7308737099684492 -0.4883365704570471 -0.1087413365564716 0.3982042326745671 -0.7806037302782738 0.4257706209404977 0.4604330201587029 -0.001611052761559328 0.8558215418833897 -2.631474595681976 -0.1257528844419626 -0.6443646250016394 0.2383094306470998 0.6018658872042262 
0.3730913383581962 0.4369491190166055 -0.1584061790146743 -0.2626519442041730 1.164160587583603 0.2917539480135379 0.3683159679225465 0.02691881782827051 0.2521660455523130 -0.5757580372008544 0.4698448069790791 -0.8128052668156167 0.2596013136340181 0.2478672865903935 0.2251417405654044 0.1677796129266714 2.834467061878871 0.1648431672331591 -0.7939231733679899 -0.5289530164838057 -0.9827039190380373 
-0.1781962801515431 -0.4111523359606900 0.04499157426216988 0.01519257277022183 0.1114250173902381 -1.227210482147401 0.6385387728868223 0.3230157214012885 -0.3520910607639693 1.020110736545516 0.1913602033364350 -0.8187064887407335 0.1782771555882861 0.07024712966611368 -0.4636935643006594 0.1333850154663670 0.4062930869289859 0.4713711545912854 0.8485704837762021 -0.4819127925446126 -0.4842120449690798 
-0.6719463697522138 -0.04178502260109945 0.2100122239988015 0.6413036885527807 -0.1035665392624182 0.2036586968194727 0.3275117710178139 0.2314726649486555 -0.2202849991792651 0.1945059686110442 -0.1433568342171561 -0.2710194077958358 0.08123761566265067 0.7156903413280765 -0.3158266000618653 0.6309876981615645 -0.5803716307838732 0.2550814325505239 -0.5158270034651117 0.6381811852882593 1.736664393219350 
0.1692172336034514 0.01933441849754643 -0.08585876984377094 0.5274936736451555 0.4180347692357266 0.5007474779093634 -0.07825775695969915 -0.2021709025827531 -0.3131855243625131 -0.02971500055349700 0.01658582362179146 -0.1970690803392198 -0.1065096914010877 -0.3682369493927749 -0.2360970472746053 -0.3750013395425926 -0.07522319061077504 -0.2311372311998904 1.375875383622868 0.006796504221382869 -1.316944786730077 
-0.1263772904973718 0.8385877665503665 -0.08757081637038895 -0.9703487047760705 0.6663055097474262 -0.5174273008982399 0.2088388180709349 -0.1680487137209381 -1.282181921826457 0.4008978177784502 0.2997453480026485 0.1914681334635717 -0.3901145104594024 -0.1982672335749181 -0.007211600564460727 -0.6839940173840401 -0.9849908959596724 -0.2766815103334965 0.1789213556626358 -0.2133119406427450 0.06714529132652503 
-0.2318084607342485 -0.3116470806822963 -0.07068205519534411 -0.09181285242207439 0.8350267102889708 0.4203747181220026 0.09409327162324686 -0.1860704799522877 0.2039319872757308 0.3363949248554718 -0.1879251585598919 -0.6186103553304717 -0.06446716635551564 -0.07339071898783890 0.2938448347325733 -0.4058132176676312 2.423721540070608 -0.3075661804426738 -0.8238031398654299 -0.4988390575180284 -1.282284443193738 
-0.1153088753986126 -0.4052985548260782 0.1193333010154905 -0.2442998474938976 -1.223850442738057 -0.5797565720443448 0.7723500997049828 0.5390060812673748 0.1836978988994305 -0.2163393562302599 -0.6556913589373526 -0.3485729956780705 -0.2551700935542326 0.6288308092649585 -0.3262575049912996 0.6140844336949890 -0.9044440528398616 -0.4079291024236511 -0.7056245741571858 -0.6570528987944593 0.1018798756033309 
-0.9339550158935465 -0.3379024280411971 0.1750886728389072 -0.2680988336259631 0.5929874183496568 -0.1303371964852421 -0.02815125112700874 -0.007299848124697028 -0.4740474745329454 0.2572349111730302 0.1039150785214919 -0.9606677809219624 -0.04570439947287198 -0.2429194482391683 0.7474734104698977 0.05391771672424220 -1.611466426897040 -0.8599346769516275 -0.2900814469300652 0.1500652504034656 0.8427494988497357 
-0.04611360997485603 0.3615605419454154 -0.03553310619610919 -0.2209404290777911 1.024716841451383 -0.4008744591452276 -0.03826581183014575 -0.2200468567656083 0.1693196611165969 -0.8152395154846606 0.3364456430990883 -0.9541354111437145 -0.05893196784491273 0.05155866064991199 0.3502640679312750 0.2324524114273384 -1.079846042429429 -0.4015220721190727 -0.6199285688347929 -0.1668502881038128 -0.3248315859183975 
-0.1150575181398175 0.4773051703553576 0.01734582985571463 0.2471306366890394 0.1926338747820702 0.1613579813488817 0.08536985373081153 -0.9660307979604370 -1.339200751993093 0.6143986346018963 -0.1144945708111498 -0.3939135617450640 -0.1511679498057368 0.4654295811496499 0.04990391564301391 -0.1180791585158977 0.2106913952271201 -0.4751247650850763 -1.988904436261322 0.02396170683569009 0.7218199151313909 
0.4533239442972720 -0.9168418134949485 -0.002464735516751109 0.3906436974057491 0.8530167434018578 -0.2203759603043949 -0.4599921829779428 0.5565808806383832 0.1228305982391106 -0.7057058332517507 -0.09696223818202354 0.001546114614507883 0.2637423330373498 -0.005633803544462621 0.2482534636373402 -0.1678915218771271 0.3214179470912040 -0.2487364283904848 1.899964149985262 -0.6008608330697878 -1.453591375762350 
-0.5442994338751470 -0.3009456718914440 0.1976285855588284 0.2618158489162086 -1.836815404091689 -0.4243432104755559 1.066932388336858 -0.2609340879531055 -0.1930371728306579 0.8499075122139879 0.2403508417069563 0.4480671512432621 -0.3811829807321681 0.3555213840484045 -0.2425851874168638 0.6122561093689899 -1.592509345562146 -0.2535725143195350 0.6788353072505955 0.05033933988857462 0.7355227120055873 
-0.06166873198221325 0.5358631719229068 -0.04598096966090517 -0.02066261118286025 -0.8272327605000109 0.2782665580044514 -0.4240386252016166 -0.1573184705476722 1.634747983056716 0.6912645313576891 0.1394012633527833 -0.4233571008699253 -0.04056982311373156 0.02108188935680728 -0.7928012060034455 -0.3017051043344959 1.483814021833484 0.02364716162237652 -1.985410550871782 0.5135258747509196 -0.2514389113862398 
-0.001287531279824949 1.235235176953767 -0.1307552791020281 0.1708482004354858 0.1656051576468680 -0.1326689366542889 -0.4509208562947920 0.2966117690859887 0.1354736511206338 -0.01518319856745166 -0.2356230722712801 0.05318345435987337 0.4052451710792441 -0.2540529734288917 -0.1124945303713616 -0.7646674963752103 1.484486461587671 -0.5829001238343929 0.4806666798728637 -0.05806689609783131 -1.453120152802065 
-0.7386991709419283 -0.1326061255165525 -0.2371456701363305 -0.1669573222176553 0.5078435114047104 -0.4319695814649893 0.1629984139662649 -0.001818102261958495 1.074482924705327 0.2786290528465009 -0.06660992116777617 -1.060201395304916 -0.1900202399573955 -0.1401297798169893 -0.2980918934646016 -0.03863193341619374 -0.05074630713387556 -0.7094766794755557 -0.7769540675532177 -0.3421619572088436 -0.4251288359041666 
0.05200054649745523 0.9249875667359871 0.03692055923272689 -0.2608743175622657 0.9342587011752541 0.4161725204409552 -0.02515106124909917 -0.3793304911754077 -0.2262462091141159 0.6056230393227249 0.4471211641885298 0.2064508020718896 0.1838526488241667 -0.1183503074880497 -0.1629513338513716 -0.3904114203099945 1.031861682273211 -0.06922993484508280 -0.7156397968194548 0.2142529391334607 -0.6730864515666544 
-0.6361972886757981 -0.07993069759621778 -0.01041926306202190 -0.2021314171904816 -0.3946062417476706 -0.03149714470580582 0.09280194227919193 -0.008912555626193175 -1.113833502080558 -0.4496500294492662 0.4142910189722280 0.2711656387724936 0.2465755514694760 -0.4138128442410675 0.3462491888216360 -0.4864388285203279 -0.1149218452215082 -0.2945155325541242 2.498974399182352 -0.2054705993442153 -1.154705594370105 
0.1167584464558590 1.162809734021440 0.2411076713157138 0.09120928566248547 -0.3256742725642798 0.1452092769483813 0.6599720994123160 -0.6916671437851334 -0.8846019647972199 0.7857005068329220 -0.1325774814282306 0.6825331298377283 0.2013710869056784 -0.6542235209564504 -0.4910032094691100 -0.08881511066520950 -0.9008534521840550 0.5834181085763394 0.4867814211880142 0.2222188481048949 0.2774618171629889 
0.5528351471805595 0.2427819426630952 0.1591172930662952 -0.2991581202798478 0.5444200350455572 0.5083531939152780 -1.300269764448849 0.1876822211540631 1.146932524771935 -1.354554051414467 -0.1121244931246034 0.4120621952397147 -0.3293157717712826 0.1100844411470425 -0.6208330862812101 0.03839620140938968 0.5397601049231006 -0.2641414591624742 0.7040242747902372 0.1309485524773671 -0.9472429927336831 
-0.3027775630768422 0.4970462947397096 0.1690660854332047 -0.1612496531476521 0.4081059996951152 0.08306470221245783 0.3155952336915763 0.5470392885224750 -0.7552426759615537 -0.5494232554525356 -0.3044840487407770 -0.1506722893599964 0.4519598338777204 0.4435047278616591 0.3313438298267528 -0.06217748263398151 -0.2059234722178636 -0.3887627415900318 -0.2339690724369435 -0.2557868930483219 -0.5870150376095373 
-0.5341571705191498 -1.120434070117347 0.09234649940950002 0.1952104278206923 0.2951814095342795 -0.5676130944314691 0.1858903558025525 0.5006118552221821 -0.7122189748525551 -0.7068564581737361 -0.2706153011968817 -0.2402281343328831 -0.3681807043604780 -0.4730809003997508 -0.2620486484622595 -0.3621091502683366 -0.8780078088787968 -0.05519026614535303 3.342923532560852 0.1488978742433315 0.8614401774264210 
0.02362024320338082 0.09760895940311828 0.2749907096765705 0.3646345313477471 0.2006109925270771 -0.1679095978273630 0.1445282336357956 0.01101683505529896 -1.147459176673667 -0.2500255369747128 0.05338858624100763 0.01420170248536821 -0.3538679661573760 -0.03338081235439373 -0.4563413869399655 0.7975449179606378 0.2349342098574316 -0.2025592625465098 1.292868846001831 0.03767378416424342 0.1239450498809875 
0.8441537057218758 0.7735674650340090 -0.1765048143932959 0.7497172224378660 0.4672096622969208 0.2830117663559427 0.1684847973561019 -0.5207357745994384 -0.8045384141406607 -0.07647298850287737 0.1861361181431576 -0.7325791659762140 0.1635633533922656 0.1344288119733938 -0.06051083432429586 -0.02180529729125669 0.1219739543424971 0.1052747805423801 -1.529819279495244 -0.3064651963291732 -0.4139721589688609 
-0.1065489978062733 0.2415256970344887 -0.08894720152613857 0.1454655641555557 0.5333431235635315 0.1888891730144843 -0.7767351760656193 0.1972431306606880 0.1176200053816457 -0.7811405770860844 -0.5700895280871983 -0.4672883612897010 0.2468043025790146 -0.3185033734706319 0.04104902879711307 -0.1252398381931090 0.8795046260634471 0.06338549977912200 -0.8261863045845704 -0.1909757975700942 -0.3984457507003884 
-0.1230742708287736 0.01733623954729235 -0.06576815461100360 -0.3548076444625850 -0.2200772302409024 -0.3022109768155527 0.3221601060247368 0.4890434377943048 1.528147435392969 -0.5996230058268766 0.1530543719939146 -0.04285762118552022 0.1934350384755588 -0.07987886254672377 0.06185773077546231 0.5424284877488951 0.7963627607279139 0.05139047355419598 -0.7989564275367780 -0.4818173603955170 -0.07439689604237781 
-0.5199043637028318 -0.7304605506771296 0.1953788655858862 -0.2196274160360279 0.3780845403429812 0.2541748385210246 0.4895271397917194 0.4569404542141545 0.7259069707374574 -0.8590939171707881 -0.4411123476700512 -0.4724238773869001 -0.1858258904263951 0.1604423106138651 0.2770490206540975 0.1642136886068789 -0.1596570438394393 0.007455272099964938 1.114746800715975 -0.09308583603285947 -0.1241281838710746 
0.4316354144109150 -0.05403069240527117 -0.1713478114492215 0.3884401478022973 -0.03268945150937708 0.3801823546669054 -0.7218872631089636 -0.5362467363027981 1.414961313707586 0.2663488838056214 0.09154935641733007 0.7150564953097881 -0.8617762564319702 -0.1999050475169633 0.3941233546051570 0.3221894396800452 3.956826622725965 0.3680153359170014 -2.546096593607027 -0.1699736114142974 -0.8707551607196027 
-0.3441101296961826 0.08734017069066827 -0.1507268922220469 -0.5396796961344333 0.5838799591961595 0.6445138027729727 -0.4041418269735025 0.001150371638622326 1.040545742182337 0.5546816540015097 -0.7844596051015783 -0.1806494651480803 -0.4371574283721599 0.4166813242945507 -0.3546734226860079 0.4276767006676057 -0.6573749629159997 0.02514543174544346 0.1248228926149114 0.4106817718069918 -0.1424983841966738 
-0.4499564268594324 0.4782360513938234 -0.03013670625072000 0.1726804574114977 -0.9333224240975634 -0.06052468990338240 0.9004715333965160 -0.4999842926207744 -0.6094180581874403 0.3297379862233212 -0.2040274543557631 0.06818466602824320 -0.3626828870609590 0.3984753549500343 0.5985797063119341 0.9473014392858488 -0.4165703610814672 -0.01018214778069914 0.7957987609448172 0.6157388552377642 0.3868166113533791 
0.4599639753140214 1.546826145557467 0.09409469982620270 0.4271005725458199 0.4920608282644686 0.5001060205244113 -0.2435112945563688 0.1633055249700719 0.5736591811806463 0.6663183713658143 0.1221752427731240 0.01393145277708641 -0.7636490642116865 0.3505283980217184 0.5229291041381126 0.8635511091913053 0.8051537905113180 0.2453053353407546 0.1781039200082039 -0.2107904504975451 -0.5977919512813000 
-0.3996575334244177 -0.6137954999455997 0.07130291537022414 0.08321233618844075 1.337117594088751 0.2982582527381795 0.1191230600040089 -0.2550990916158895 0.4013567577362829 0.1026247860790737 -0.02802012714656507 -0.1325282990388000 -0.6355324624598222 -0.04611653051433128 -0.1084449090273897 -0.1635338648904463 2.807265544961872 -0.4634270733890940 -0.1717179529089783 -0.2392982039740403 -1.224344530890462 
0.5375809942710794 -0.8772185515655011 -0.09454536081151785 0.3060473598947135 -1.058701701588312 0.8378652000263640 0.08070885032757354 -0.1098299965151278 0.4211342301125449 -0.05169788671560396 0.2691946453850259 0.2848677153561139 -0.2670638035933623 0.4707617943355847 0.4234845441084428 0.5933680954785137 2.418431612630976 0.1874281763011348 0.3598176222367520 0.2186260592603389 -0.5117679473480887 
-0.8133623323671648 0.9159118835356288 0.3001859341061919 -0.2640369057485782 -0.1789622915416808 -1.312666299596806 0.02047300618256733 -0.6505774707559853 -0.2599815491773717 -0.4283497837747515 -0.2625294578451682 0.2851330332514955 -0.4344914036625532 -0.1132933428930594 -0.3059987262653569 -0.06018753136065921 -1.752781625942658 -0.2353943978618718 0.4616342754746400 0.3448062358341305 0.1058223326071925 
0.3499638046113611 0.4513847460951450 0.02211480115650574 0.8897993730593671 -0.4315086231806671 -0.1591758677628169 0.4796440659245056 -0.5346458180755843 -0.2946177318875288 -0.7279375200368547 0.2504178255881606 0.3675570209932136 -0.1967763210327860 0.1971234249104704 -0.2077756674324949 -0.1029429794695201 0.6739994890893461 -0.1880078784075504 1.737906992616731 -0.3377218001112660 -0.1157170449723434 
-0.2060391367899099 -0.7286116311210952 -0.4626340191838304 0.3377861283493270 -0.03959758922050873 0.4556366775374636 -0.9562723779544684 -0.0004231515423891753 1.126400694749676 -1.037292600542596 0.3105879980904058 0.1171921674083818 -0.05813177063697456 0.1492154198517141 -0.5199346789487639 0.1816621969430609 0.3076794887045109 0.1197831770588393 0.9422353145185080 -0.5046522115077868 0.2294419388944270 
0.3753545990299103 -0.7329199234067410 -0.2241518324794274 -0.6671160387620373 -0.8522960729771034 -0.6927629892175563 0.9170548851018896 0.2844384797797789 0.3421789316779479 -0.1393259575170021 -0.1508162526127827 0.3393413438756518 -0.2399801651244170 -0.8151021862076075 -0.1097366787761200 -1.012589907869367 -0.02284589196161251 -0.2910688992491783 -2.125542200749047 0.2334136149373824 1.959758520895386 
-0.4683130623617769 -0.6894006204419018 -0.3495814886219250 -0.8077386099782855 0.5505225100274852 -0.8718575058350122 0.3690143121808943 -0.5834586295522906 0.3973927537021850 1.236708621030878 -0.1915811851766676 -0.1449958013490438 0.8708351716772533 0.3452206583358382 0.2480944753253684 0.7632356297033642 -0.8085368128321175 -0.4676300403326131 -0.4598538398966378 -0.3132329115683838 -0.009422773347876869 
0.1250699794623380 -0.2300733503866853 -0.1987246572596968 -0.5142359455457846 -0.1696502612165747 0.2366397171273734 0.6047917046772870 -0.1650058777608298 -1.037079770898886 -0.2797178480527972 0.3205675182327420 0.2727335777875513 -0.2355269321288291 -0.1235645839893109 -0.3356266186488380 -0.03322370549783817 -0.1913895756453402 0.4407201261882173 -0.1333755803327914 -0.5708727825072637 0.1018179378838865 
0.1705120083879509 -0.1817264701832691 0.2295535427523780 0.2700315055474316 0.3436937389667085 -0.4482932988025379 -0.1861668234566953 0.7135358052245758 -0.9758434293949458 0.5642275626417261 0.1356194160342805 -0.6792245053654888 0.3998697011886046 -0.3437856459521472 -0.1741104523561778 -0.6048430301627098 -1.060253234613826 -0.3703627036216146 0.6114520239438255 -0.2075812197154374 0.7559792433819719 
-0.002869222167015243 0.5140756769767240 -0.2699020302537918 -0.02081447808688249 -0.2963302835712234 0.5535525671673159 -0.3456647268574702 -0.1724076751808739 0.4864715905604161 0.5884247084665815 0.2544793297115385 0.06713479193639746 -0.3965383044527805 0.1568409864439944 0.2955786802070228 -0.2478862766728552 2.572567160098010 0.09259199587971614 -1.046308291247258 -0.5392502415383365 -1.842834254024913 
-0.2841792869161932 0.7040727787765411 0.2160434826212448 0.1165292344056044 -0.4951448008659063 -0.5552423357886205 0.5915360831806137 -0.3599913714524299 0.03955069258617527 0.3165946967852049 0.1697888697439803 0.4431505131509886 -0.3844688038559512 -0.4914200590389263 0.7263188051186347 0.1686600732253492 0.1037849787206316 0.08680625842333528 -1.002235042586404 -0.3863388619849024 0.3355974043128864 
0.9685769684476271 1.214387570673728 0.02588176063049865 0.6393943798038411 -0.1400340832871508 0.3498702593558934 -0.02502919562086739 0.1044493551208302 -0.07952181367496350 0.2356857132068578 0.4734712497858326 -0.09085337985272139 -0.03382203933457986 0.5211169595721425 0.4988142558938937 -0.007347187024745253 3.460699771293356 0.3511989461131757 -1.837026346835740 -1.401953783601197 -0.6544710320254779 
-0.6521937677155999 -0.6064716270742865 -0.03322809798502197 0.5731459740646680 -0.2183331560005256 0.4207167652132477 0.01784112701696421 -0.004282286103753457 0.2496980790758468 -0.6447292223105063 -0.3939516931474402 -0.2865472106630936 0.4155475005432946 0.6538102476940691 -0.3550480873105908 0.3761037450822143 -2.971939617404759 0.08966462195691842 1.386365181514365 0.7219188267634613 0.5038635732088991 
-0.2031611593091581 0.4781378534109762 0.08064046526839948 0.5830601832574895 -0.6213578856240387 -0.4754939589126151 -0.03503851811909770 -0.3421753361473208 -0.2688553365844827 -0.09811632559441116 0.1820258740304285 0.7618313875959640 -0.2607515808840740 -0.01197940151891491 0.3509499582516096 0.5209973412271426 0.4671110017173853 -0.2264214609505882 -0.1753585299148135 -0.9246871346123707 -0.2917863959828251 
-0.07024703458554604 -0.05878471738402478 0.1247564541939566 -0.2035715785928874 -0.6848551157695106 0.1265120533775053 -0.4555167769264170 0.7578469347648361 -0.9772884962718671 0.7712157490987300 -0.6175874298694006 0.1737737749733133 -0.5474146127182951 -0.3495498319012202 0.7090083137472195 0.2405391863366253 0.04455537707199833 0.1669566609926554 1.188014098014942 0.2461002207597925 -0.4944899855845767 
-0.3225721191928407 0.9087816638868278 -0.2784121785028903 0.3975937172146080 -0.9193815634699230 -1.102696249627159 -0.5098281581196837 -0.2166942814465528 0.6847831060136861 -0.5057595669426624 0.2154630356779293 0.02465497733649439 -0.1817591303606820 -0.2888960053590629 0.1207351356772047 -0.7737972687172673 1.792808634626312 -0.2315546405239769 -0.2850974261098163 -0.7237404005507295 -1.325956088648283 
-0.5494025342002999 -1.065812384612096 0.08067031791034725 -0.3181871675245016 0.03477433464598211 -0.4287059601956264 0.5219586217109423 0.3115573441675610 -0.4808330636629985 -0.4433568946360221 -0.6780662380799929 -0.5216906043440084 0.09985152289132047 -0.1746869217571722 0.06615501228971646 -0.6531330080051475 -0.7578304424524915 0.2777470920625798 0.8848009974565791 0.3418413246997918 0.6636434703588634 
-0.5617464142027366 0.3849867385645467 -0.1213337811704145 -0.2292028577419793 0.3888628648782962 -0.4655886351363749 -0.2676790938996012 -0.05262229512594539 0.2998176783139507 0.08723403430450731 0.6088852681686006 -0.07017241931393803 0.1663229558445777 0.4940544315015549 -0.07973941033499110 0.5748013051120893 -1.775082394127817 -0.2883064898129495 2.170248966857784 -0.4411146056893325 -0.1210486752893530 
0.5380694738329126 0.05634690084789379 -0.02552389147054469 0.3343199133082889 0.6987136724532479 -0.3256439048626174 -0.09441766570765282 -0.01213265851817739 -1.190775018320206 -0.4538622585172523 0.7431796603506917 0.3513308261908023 0.0002358879798261639 -0.3592906920154379 -0.3741054771890487 -0.3961978757694759 -0.7612088717443953 0.3445765192205716 2.553161380582927 0.04903608774509909 0.3664514863485862 
-0.4373266192520602 -1.800107660847391 -0.2249777251707857 -0.1387263143714962 0.2108676823412757 -0.9597185253667095 0.6100404951682303 -0.08896272277959885 0.8593513954257396 -0.5344076226885883 -0.2234033891896686 0.1688222809225067 0.006684179381110241 -0.3702381661840073 0.8031303700173815 -0.6544797701485042 0.01742122119939055 -0.5150371832096967 -2.008219181499365 -0.3616884005103477 0.1980128117793459 
-1.019861247354107 0.8125369844556163 0.03353311780429215 -0.5471160602513798 -0.2129524385104553 -0.8049060717311741 0.5177618191543165 0.1326450642571210 -0.7102175852030543 -0.1541011818325915 -0.03786951756906622 -0.03905296480381938 0.4939461179087206 -0.2625450500208959 0.1436720055830355 -0.1138366783644124 -1.499358851495038 -0.7442533019306405 1.584552873103476 0.02356052715457575 -0.6567691646649404 
0.6149937150018879 -0.4747726129118833 0.2024763264436203 -0.5139794077082828 0.5150345189105869 -0.8718650629492206 0.001784844717214237 -0.1276582055131877 -1.035806898091526 0.04086364254039221 -0.09685192785046637 0.03474537672347391 -0.6402069477639518 0.2971600405577269 -0.4159424949602100 0.04509867791049223 1.376800136455911 0.7154156506784067 0.2988509275753198 0.6364283368555044 -0.04777503504145143 
0.3348874889222948 0.9061072257802086 0.1242746306138681 -0.6108712638803341 0.3724008125999888 0.3322904718352026 -1.148063546692294 0.5229244083441961 0.1726840199663047 -0.5261097757054433 -0.5739710448833563 -0.1932797754373559 -0.2323198434051430 0.2713389567508342 -1.022268644580455 0.2847703074308597 -0.02465012643040447 -0.3169082591797005 -0.4126158030788543 -0.03630382014432430 0.4146949268070143 
0.5664536795733060 0.2509727876010168 0.02881016655162356 0.1877668039196569 -0.008188340612093961 0.5044579659935051 0.7727024196057530 -0.5327384403151778 0.1735592327194474 -0.2157845581950880 -0.3792100065316474 0.4488827363209826 0.06693787956001386 -0.2350624714193986 -0.5384377557606291 -0.3772175035777673 1.195285778530908 0.3222776150069430 -1.676144157516009 0.1736967922246570 0.8636716966439727 
-0.5970991435157259 0.5027843258401157 0.1898886813346271 -0.6000051522140290 -0.6280052330968307 -0.1673031809816800 -0.07004854990629314 0.3159959267710983 -1.111338291886396 0.1631906582464895 -0.09903632628103902 0.3563010956855152 0.01897118164617999 -0.07603138505262619 -0.4278112974087146 -0.6571378858378106 -0.9736961020395659 0.3757179652508329 1.724568304697779 0.3493328546987712 0.5940415349129335 
-0.04350744984704458 0.3233872507490840 0.1595699341058177 0.1610209548179098 0.6188665711905890 0.1181990241370783 0.1729011332530200 0.2882865889670001 -0.9173104994320957 -1.244812961532271 0.2852378547107853 -0.1273378988134802 -0.05491718512864269 0.1815164252247091 0.2668686834370235 -0.2503561087655086 -0.2371835824636430 -0.1341000199726948 1.097934179177990 -0.08437353767921983 0.2242296425774998 
0.4772925946469555 0.01605669281758326 -0.1363032817777214 -0.1698093340483181 -0.5786126250677730 -0.3594914494853719 -0.1872772737803288 0.04913732829112104 -0.9881914441149657 -0.1237122696114886 -0.2933413479221095 0.6075440255441240 0.5066956756686931 -0.7284898578826866 -0.2284550034831882 -1.438825110186065 2.183196217948583 0.09960648704102786 -1.340424617323198 0.2004647927824481 0.1720007082862497 
-0.1069743387419809 -0.5028098678648065 -0.2171730351553617 -0.2795378297302159 0.2870474167306700 -0.2215894642201073 -0.08011039310299628 0.1395674865152896 -0.09133689880397962 -0.1858468272574945 0.01447274553070010 0.3383067105105699 -0.4559190105554919 -0.6480220291052076 -0.1781057010652329 -1.055407849940835 0.4027117377008677 0.3871611594311712 0.4935087673369057 0.5318911726533604 -0.5429804825689353 
-0.4981442088356660 -0.9037383521957667 -0.08034604823541612 -0.2049529876274642 -0.5986313916523364 0.3930536861665722 0.4023647720533421 -0.5165561356931148 -0.2235829787007773 0.1743619837222645 0.007221922616859743 -0.4227372345058492 0.5850486712036264 0.3637712502048700 0.7406656458864506 0.2718896166457819 1.230925165547043 -0.2686783468293882 -2.558236339534362 0.09838123230450334 0.4624102641291122 
-0.05338276841859287 0.2018416158190132 1.384594721582802 -0.7922442253518711 1.088257179003770 -0.05767564810646241 0.02351117291421508 0.2216904974612776 -1.161154349696921 0.2725569457523646 -0.3163311128739876 -0.4808990566256769 0.5026142369967117 -0.2421729574791954 -0.5024557417453149 -0.8102977141637289 -0.7679742522219297 -0.2648041926935040 -1.934259298473220 0.4295512255754204 -1.323820478918786 
-0.9879990296935502 -0.1459068373763209 1.039874072054663 -0.3237710099090491 -0.2512627152979844 -0.1046289744355083 0.7260231966948608 -0.6799668672976011 -0.5936703700531188 -0.5264702272359283 -0.1707987770052441 0.5324042227690083 0.8108034289539853 0.5664089925758428 -0.02119976192414515 -0.03087840681791840 -1.377432111950863 0.2658808506743595 -0.9296706714699430 -0.6974760079568660 -0.3772012845379208 
-0.02324215275468890 -0.4420026633040559 -0.3877227115690254 -0.3614598396589488 1.837718650857158 -1.253174746772264 -1.151877156061560 -0.3583508233436146 -0.9336742010877890 -0.4010456610256584 -0.3886256719824835 -1.568706777749069 1.465424673643592 0.1765824447651430 -1.109795587413056 0.9636475088073575 0.9337628700131904 -0.6284291053504628 1.911464528862542 -0.8341310029980391 0.7948955131195276 
0.6865221228659814 0.03685214926128942 -0.1044336284560566 -0.2876510706152939 -2.892334600556161 0.4045571241690753 0.2413318596265009 -0.6605476232822404 -0.1443854957895372 1.541755573514262 0.004934736298089115 0.4513312757781484 -0.8158060080435481 -0.3317210837872914 0.5486253670812137 -0.3916692876690189 -0.1471699458934508 0.1845996484195845 1.750341970316633 0.4955500566586756 1.173254512510618 
0.3684440069545240 2.089190492391632 -0.5620331861648170 -0.7197152060119818 -1.176163076474146 0.3739231895836673 0.3895947179981322 -0.4458116508739804 0.1587269293504958 -0.3371791404206480 0.03984390668186329 -0.4197155864473218 0.03685143387943268 -0.1377797846662682 0.2436653539105179 0.6865307720659541 0.9912545931469247 0.06979277059022673 0.2963189248028607 0.2677261751582775 -0.3556034648889588 
-0.5063733587554730 -1.286614506382118 0.3208054595955074 1.231376134470633 -0.6969703536905272 0.2202479190885906 1.299280008849481 0.7181091254276660 -0.06209911304806723 1.241767202162451 -0.2909654188262315 0.04977389154599328 0.1886975186516842 0.2564878570256812 -0.2733703454733585 -0.07741196632246189 0.4476493484186820 -0.2618906364364804 -0.2377594464984024 1.089154193879326 -1.156967125915395 
0.3424744450038120 -0.5658308442350404 -0.7077152855865490 0.2748633736557495 0.8033443754369233 -0.9329597583402237 0.07258110491660522 -0.03485103044044170 -0.1191096565492629 -0.4240542148436565 -0.8346089468781246 -0.4304121183773432 1.820194678557973 0.04325655460858995 -0.7977482607899324 1.357209898791705 -1.977248070829323 -0.9037212292425312 -2.218423887068699 -0.5818176571643164 -0.8179043147564998 
1.940757213780528 -1.075502025753154 0.3800078220312866 -0.05184788893025604 -0.3172287123660629 -0.006620861616839502 -0.2103095036336752 -0.3502539875177051 -0.06711824173357867 0.3305096300340130 0.2273552683200050 -1.121118529368048 -0.2762204232914714 0.1329335950143878 -0.6698387350693455 0.3864378924814523 0.8078840420127469 -0.6255110532310887 0.4772906664906963 -0.5670215540163027 -0.9151296025580520 
0.1559001535917239 0.4101017337332505 0.3370542302082050 -0.5660795746033710 -2.016161119122442 0.9006092564781519 0.2762580275914575 0.1278108331257285 0.6690884082699078 -1.509350397293663 0.3705340398609093 -0.2868972127147197 0.3436065602477963 0.2415227357792338 1.162680988346317 1.130377628521991 0.1759624597313486 1.632353332214598 -0.5869976322221926 -0.1304437247062221 0.2597458886505229 
-0.2153582695411546 -1.579012890534782 0.2670533983080217 1.884246021586545 -0.4181033403450639 -0.6301516284089815 0.7054932786051923 -0.4588656948264296 -0.3276049190021050 1.079315861805042 -0.8524547730972222 -0.4855961133868455 0.9216008115370916 0.2037244868211813 -1.019205169296189 1.542935212276641 -0.05519158140989061 0.2597826415378275 0.7644243365226903 -0.1799945899403109 -1.189988337100230 
-0.05945846769081846 -0.1133756362613419 -0.5508869189072725 -0.8970160450184882 2.324259195975065 -0.4050917905750427 -0.6166901196585912 0.1246110539746482 -0.6604416396204832 2.395396065889579 0.2677876302184071 -1.758282506250447 -0.1850242126404433 0.5959805235065244 -0.6234024875909929 0.5295459743273668 0.3781048557372990 0.5043371825020110 -0.4873595698978320 0.02064421637999053 -0.09262830920223718 
1.491875719022929 0.7920029238461477 -0.02358585270801682 0.09350954856551555 -0.3519103550885662 1.214144171768185 0.7322521660118080 0.5060549078328995 -0.1536915193370977 0.8620379222353857 0.3857253360916566 -2.031112385809407 -1.061673132695497 -0.3137546058030758 -0.4600177351262126 -0.1499066351540765 1.055017518468708 1.062459729829406 0.9678377050314932 -0.6160647180755002 -0.1400997671878119 
0.5448330032258597 -0.7575930815679317 -0.9904827553854373 -1.962729680413308 -0.1916661582179525 0.2183736402057898 -0.4904615252734060 0.2284988835103409 -0.09197954844960071 -0.2680760186358130 0.8554591966952317 0.7321029423346925 1.529687980156447 0.6602607945872155 0.06586738458290822 1.455613720908684 2.230761136315210 0.7093973518961498 2.675743748392568 -0.6054970771474281 -1.012097223077795 
-1.018052053038421 -0.09398098030970288 0.9107446149560263 -1.204755864758343 0.5905055467857288 -0.7722095886906797 -1.371542115957069 0.4258632630884561 -0.06297239062464968 0.3485239335813165 -0.4800676956788362 0.9339810881776738 -0.7870649888338002 -0.05036328695526894 0.3286411915397825 -0.2061088573510736 -1.771868587189816 0.3732325108803696 -3.261186727735986 0.5870890127602696 1.735047824754099 
-0.05041193989145688 1.842162591225795 0.3494463234867526 0.9280329778065525 -0.5678911306972303 0.1705213164762391 -0.3835137475072127 0.4928460370817245 -0.2579634619951629 1.114619153744098 0.3485652796638633 -1.448153280276301 -0.9986494470415550 0.06771380137755798 -0.1121747835129430 -0.1350400648158255 -0.02876129439943748 0.3498975263815541 -0.6686534158867363 -0.9084850265059610 0.02576411757812350 
0.5926672516137271 -0.3436194460948508 -0.5887752456917337 0.3230760344695325 -1.955402125468072 0.5882846449400438 0.1985558740768012 -0.5407386812102428 0.3514466297370857 1.282465072211852 0.3572013577103734 1.338465173858378 -0.1316628693704922 -0.1188635812752285 -0.04087357751133403 -0.2003928758281354 2.725396332864763 -0.7552602322386707 2.819772087025739 0.002216085037703406 0.1172314966921736 
1.100532038925510 1.280594463593895 0.2745742426475112 0.3747871078537687 -1.620631486290958 0.2337222403422981 0.6667897443236259 -0.1500623143737291 -0.02730579435418891 -0.1396824073140927 0.2267933272863325 -0.7200236802428036 -0.4457017320130629 -0.8261998149987742 -0.6317439473876605 -0.1444938062764817 0.4340762953912207 -1.077348299632380 1.490649563247876 0.6411641063378876 0.3346998138515871 
0.4500949118473253 1.184655060816577 0.5981465140731346 0.8425304925521010 -1.115345996802474 0.07340103298049040 0.1461102055365940 0.2194318437415568 0.2412171896763709 0.6605140371058018 0.1910403115284885 -0.03699892436676106 -1.360647961071184 -0.9624933318655080 0.7556183926432070 0.5700209689000355 0.5175706940267706 -0.8350875513192977 -0.6557948467157084 0.2159604856647065 3.417582498429129 
0.3327231562841931 0.1857174875979968 1.190935304539050 -1.368804788992940 2.484531324484862 -1.291702246410959 -0.5694720916396600 -0.8287549126282149 -0.4290416438601512 -1.560639199178421 -0.8532497918980188 -0.7391334327398666 0.01956941505431493 0.2630517684562483 0.6968026503039650 -1.140505125541691 -0.4833905392545858 -0.8102460038334564 1.631088398150728 -1.186724550002646 -0.3036534095547215 
-0.5829496853348057 -0.3254522744550658 0.3470355464138121 0.1763040718065533 1.347509317629725 -0.1151593847804634 -0.04405806914715032 -0.1385325528495183 0.2103471225327152 0.2886023567865659 -0.1811364839061056 0.07230218659508394 1.466804178064999 0.5929671915622794 0.2703318716141357 0.1023326858591017 0.1886143247116889 -0.5324195649821892 -0.4000795407780620 -0.4557749455949897 -0.4140306068954107 
-1.337122264016842 -0.4068554398362885 -0.1948773665782619 -1.076905052408154 1.795924465706276 -0.09281471805993967 -0.5353798273150474 -0.6875344363900752 -0.6872338524554703 -0.1343248196293481 -0.4374066601371742 1.116026303378408 0.003915450736489808 -0.4167442535989860 -0.6000366228121533 0.8979797635221876 -0.1396039637840094 -0.4501204353739182 0.6014596871371469 -0.2395393448429174 1.243571627869120 
-1.359229066827693 -0.3813250819656541 0.5226284890761325 0.08504564190964536 1.194401301675592 0.6032017990013557 1.110591257292258e-05 -0.001492502642612108 -0.5163847024541344 0.3461427249327116 0.1608538597210641 0.3384223648867296 0.4582578440560393 -0.1281362995415735 0.1718168612006470 0.6025407419960555 -0.9777236059917807 -0.4542897608897871 -0.8806630740535285 0.08361765089445602 0.6628280773251973 
0.7959121521196009 0.009668375025972925 0.3982751218450664 0.7460704847802765 -1.721559572045726 0.01337961035978405 0.6589383615363592 -0.2486095526417415 0.4787901325847254 -0.5451279901107778 0.1830579659144387 -0.3291103348278589 1.030600863907495 0.8693065562570355 1.067907887258224 0.6168191894326780 0.7391585680942826 0.3204970904977397 0.4945579592023859 -0.7809782929268192 -1.180865751663156 
1.390363591519195 0.8513990551812589 -0.3582437577335378 -0.03896535954692337 0.2421390364003935 0.8760658409743847 0.06360296217447935 -0.2893600759948102 0.7355628583947853 -0.7222625238606448 0.3123981174865543 0.09833371732281077 0.7666653853127374 0.3599221857682817 0.2819239942464370 0.09496240321228960 1.479401919981234 -0.2861490879073760 2.211373127681704 0.2514222420544736 -0.2646194141313701 
0.4861742461334498 -0.7451927349405363 1.410829488224685 -0.2173541238389402 1.600119259215303 -1.441787989265646 -0.9982725793364647 -0.4737211534783400 -0.2952322285790544 -2.452241108713908 -0.6760951026472376 -1.018321485731607 -0.2163939280445381 0.3705033679115326 -0.5802164498567900 1.729539576322120 0.04135274073733730 0.4269875917960837 -1.138906025587268 0.4867193986331775 2.216321490473708 
-0.1569061967506470 -0.7519499635131109 0.2227102550980243 2.299926452813969 -3.728052351013142 -2.228590900385296 -1.231656729237817 -0.06736629920920090 0.2855809414109739 -0.2499774735722700 -1.392694643357325 0.4183374293082801 0.6334546051623420 -0.3772912537823487 0.07468213639480127 0.5642532101922034 0.1077992217068038 1.144777573755830 1.511892447838109 1.057312721861280 -0.6001969214365186 
-0.1518219018295014 -0.8167693924656860 -0.6461047918804536 0.6020698686942535 0.3531583274665348 -0.08458447080631307 -0.2135730938078866 -0.02143908662777942 0.1396413608745974 1.492110108005879 -0.03754079652224823 -0.09037677883855408 0.4906663574413586 -0.7302193870041354 -0.07421162183430599 -0.5544986894019733 -1.225915674817474 0.1946954614212724 -1.202926143274968 -0.6286894499114270 3.100385325607148 
1.156921085972743 0.01312904792415934 0.1155181616703719 0.002998271990422749 1.735026363680618 -1.064092767638455 -0.8255833647775197 0.1579548347421002 -0.09611028490176092 0.9245026921453806 -0.3376374383014651 0.6318190735597667 1.113068116883001 -0.4863863754740793 0.5449405966136207 -0.1575109685693029 0.6861604943231484 -0.08795036071621064 1.013870143875962 -0.1795350442584554 -2.060619867828892 
-1.941519470498123 0.1116913432184000 0.02749639157674560 -1.011792590411101 0.3236335139751843 -0.2320486010986705 0.4138849311180946 -0.2281383328059128 0.05857125934549618 -0.3710866142790339 0.1647201097381864 -0.2686764089029901 -0.08475496755237990 -0.6463369489419782 -1.036840802080709 -0.8407610256846193 0.1637868659990927 -1.058789102871021 0.04119621656641133 -0.01120159178465648 -0.1428269973293874 
-0.5246380263119952 -1.034623937027712 -0.3096659048907394 -0.04846024552266250 0.9991239946595700 -0.1498556287259362 -0.1117776990152426 -0.6809753812697545 -1.491376200690676 0.4068586515463473 -0.1380275646914125 -0.8750779139327699 0.01908008581153336 -0.8408325696641074 0.2404512336786980 -0.9906612948164024 -1.682454310413492 -0.6261124447788156 -1.383427254714155 -0.9706613651384827 1.636926175869182 
0.2861274642510918 -0.04446065906365812 0.5003270651459478 0.9278765870578962 0.4026512866139168 0.5215941438680507 -0.1077464831767222 -0.4350980647239674 -0.04892033133153868 -0.6209696858260386 0.4861617332292252 -1.681652064378536 -0.08115646495162171 -0.2051497686694536 -0.1567118914575061 0.7830423467464784 -0.2236526559342075 0.6141417414918728 -0.7255499523463126 -0.7623152026273360 -0.0007721343261778840 
0.9278052603833116 -0.6524989243442469 0.3587546103762961 -0.5434576362170889 -0.7567192235296866 -0.1096611090818304 -0.1943363897204729 0.1529947507916399 0.3568244625460930 1.436451930790938 0.1795811436787570 0.7918875532457635 0.1747591035773047 0.6792646437108727 0.2595301261884233 0.8452713696762929 1.671298921051519 -0.4058007732286510 1.598789908027969 0.7024851744704000 -0.8126890306856072 
0.3517413209303692 -1.355669307003642 -1.203297799882188 -2.087659146181528 2.148883501146961 -0.5783913464352551 -0.3683252765115411 -0.4407654606536580 -0.3572002047605020 0.009302209135672070 -0.5612215025048495 0.1281845037981748 -1.539746341565740 -0.1113182998846971 -0.02683176629656522 -0.6388791533705517 0.1898371432478806 -0.1159706784481081 0.2888882785355103 0.08712329964533781 2.818192667244909 
0.6021346738240400 1.035598913184176 1.474283375932998 0.8604513049655549 1.073851112269264 -0.6284673734562723 -0.2312400836434586 0.1932537924996802 0.1531449644324360 -0.09464242807651999 -0.3817206084200566 0.6824978936789946 -1.501455741420496 -0.1240840205196813 -0.3044288921477879 -1.317740476036787 -0.006223577990713353 -0.2095976358660882 1.222795244278864 0.8812876668722361 -0.4294265837358245 
0.6296031930480396 0.9098722183484088 1.909936202967263 -1.300089147519349 0.6616954295277397 0.2814060799565126 0.7474051466643856 0.4561033121222244 0.09120164212022261 0.3071958417620386 0.5335504637626411 -0.8457781552108913 0.6644429636475913 0.3131239282088994 0.9379887394406373 -0.3939665518824190 0.4020906999902569 0.06067792146507783 -1.226104444383015 0.5473693726082052 1.619307059649465 
-0.01461018627140756 0.7413126801661850 -0.7926320677846854 -1.287734243072753 -1.380800234488294 -1.805309325747044 -0.4797434694935028 -0.4816445013589272 0.1714219460388742 -0.6099666639785587 -1.304492261943065 -0.1110744070999890 -1.251865892221364 0.4500693645897445 -0.2139659285637887 -0.3125285965269287 2.337679881576889 0.1502671961677695 2.627888808300697 0.9330968623740648 0.1468233593253212 
0.6455531757571883 -0.1201337091049975 1.071297347336872 1.375999329507880 -1.727473736526602 -0.4432439669987601 -0.9674015735963264 0.03494975336179719 -0.04332363278973647 -2.117141082898449 -0.2869331045841268 2.767329169996834 -0.04346249345280438 0.09022986866579410 0.2589956201944269 -0.4501530129298068 -0.3061504644108400 0.9886265111950461 0.09124673172804125 -0.4449662309401658 1.423751428513462 
0.4928258232531392 -0.3489354047943963 0.6264766952936796 2.435143665787752 -0.9196122909233599 -0.5687915071012516 -0.5068044450582414 0.8221108399843459 -0.7966272838009550 -0.5659770340792150 -0.2563163592512939 0.4236651315295168 -0.5408812620783620 0.05831985156577614 -0.2900064604027263 0.6398776211354940 -0.2593285527955761 -0.3977660180668521 -0.6855024828193755 0.9020422076801607 -1.267145064746398 
-0.2001071737245687 0.1265819977799957 0.2296393316562123 -0.7190963792104788 0.5561428839423725 0.1399263137238488 0.9858378172691112 -0.2279182556813174 0.2963326087642756 0.5149935832832481 0.1657093958981439 1.182746619774450 0.6046298876579685 0.005719404425322781 0.3002992241055422 0.3390275181815268 0.9548913231370428 -0.9290037834293721 2.030842716733228 -0.4035782909679159 -0.4947828714445517 
-0.4736292400554251 1.379093982926240 0.2490030895524957 -0.1369390167716547 -1.339687090595088 0.5491094006845931 -0.1601918429120079 0.2843065417993347 0.4938780718253568 1.427195846625794 0.5547986104284783 1.011475778541958 -0.2247234785521261 0.03159289448237967 0.2059039768015587 -0.6417566187679647 2.114983529627520 0.01771836701907904 1.410566333325146 -0.1202011312098813 -1.497243109533197 
-1.696846077860662 -0.1904484044326879 -0.4916638113054627 -0.2176175061038896 0.9086848745459529 -0.4371470424883229 -0.2570305815442815 -0.1822636756349328 -0.7324849835025313 -1.750491318259364 -0.8534316998961980 -0.3507361355659898 -0.3739609203605080 -0.5873591937219778 -0.3526122662023271 -0.7793727291289633 -0.8361194465134041 -0.2939628714766307 0.2189992364381352 0.6478533743852787 -1.816685093878174 
0.07295561825156727 1.849982422915885 -0.06660615307877396 0.2030011876876149 1.494218533481964 0.6274074315820484 0.8531109124192517 0.7152245541718800 0.9615586536403816 -0.1407696270757725 0.6685373595927124 -1.351178090050528 1.388108359370839 0.9102247134196613 0.2682205613842921 -0.9502176253488945 1.451255831307172 -0.08253374904104097 0.1820908498497186 0.1918454466992835 0.9814907254033833 
-0.7615347626951574 0.06886122666657714 0.4548065249092888 0.6923214795176955 -0.5307314555658253 -0.9217571999101557 0.4956144577172393 0.2770606986911661 0.3701291397710029 0.5920982674054556 -0.2756743742419728 -0.8302254248568254 -0.04754455163570576 -0.04702244242238649 -0.9596593174851843 -1.237827729416953 0.4258407997139325 0.04023517104738168 0.1206678840480108 -0.1699420773149039 0.9334282971076570 
1.047827556905016 -0.6097080950736339 0.4527037712839517 -1.361440405627423 2.848355060512897 0.8726437238008345 0.8132466815227686 0.2029168050637777 0.09185192598384780 -0.3047739821982437 0.4152901339249294 0.2657801480228876 -1.022655757342325 0.8542862540958378 -0.1028749967797153 0.3857401819781415 0.3257511327201950 2.035100142769837 0.1036226192815083 0.6185170837872838 0.1473823390208514 
-2.063070104256758 -2.176462573090854 0.7936089878911110 0.08847790336826747 1.865929388806844 0.2333481515871159 -0.8550753143398888 -0.1555811877772712 -1.051888781977348 -0.4979268392246317 0.04882537164041929 -0.5536315531912471 -0.1400288825004437 -1.685702166242415 -0.3219318679023040 -1.814969694057540 -0.6770684142227806 -1.287065230064783 -0.1695194127775850 0.1291047041043887 -0.5822225114354147 
0.4747697304582590 -0.07413103720552610 -1.094110503593531 -0.4094348030395844 2.687700906735896 -0.6456549903345525 -0.3045603238549833 0.05248450059002985 -0.9986095429988272 0.3243615203272204 -0.3792292441592203 1.232569178342770 -0.2745771709938086 -0.1715588228672866 0.2533759932141668 -0.5773139693750362 -1.320107154683671 -0.5239832438082584 -1.637295156066220 -1.432380693300221 1.440361419390520 
0.2078950524575590 -0.2638323759399671 -0.2109967752615609 -1.726659891757256 1.340026559699600 -0.1143145925842913 0.03328870473815872 -0.4469191828694459 0.007385386196289221 0.1092636037438423 -0.3816269383009696 -0.5966504355360760 -0.5068616304159952 0.3339828354618556 0.2538198335038663 -1.101324820274314 -0.2290466184485490 0.1411545725736342 0.4398876175664455 -0.8990699666459391 1.530413620473733 
-0.01286862217262058 -0.5594645896163777 -0.7655065217504416 -1.366653616797555 -0.7905539258784660 -0.3017095336660020 -0.008937668307303177 -0.5523109980208143 -0.3978832290043449 -0.9563034771844149 -0.5278682190853305 -0.1832596242070974 -0.9615157213198243 0.1400331695147816 -0.3176164680484445 1.717980963916337 -0.3979192001040710 -0.8176637372154575 -0.3227397502525959 -1.011491943708857 1.406820428593632 
0.4683834992109833 -0.3745786062425767 0.1307909995437940 0.4932491846141988 -2.519179170690303 1.463270478898386 -0.1159761376594247 -0.6563510724240988 -0.6646341065637854 0.5582841464686206 0.9508803315011145 -0.4503742122139729 1.388841615352329 -0.8515261552769445 0.6445680902710833 0.5492466369960698 0.07673806379017499 -1.315208556914299 0.06470942428885881 -1.228157708064458 -1.305204534567486 
-0.9389460106241245 0.1381467364811234 0.3873070492778422 -0.3587626452009359 -1.387556719694271 0.6461849884013966 0.4001840467058555 -0.05850554136611177 0.1003598581581194 -0.06498855448054068 0.2646665011701133 -0.8414619598115410 -0.3799261709590754 -0.2422803455407960 0.8296570095223347 0.9582342080368900 -0.4044769715053040 -0.02186936207578009 -1.123892968552662 0.07927671300863987 0.7290252087520095 
-0.7537958331538543 -0.08364958127802050 0.6321612919015032 1.645901821862981 0.3346835572063482 -0.2075215757697378 -0.5128383842507879 -0.4486503254957628 0.006490215040946961 0.3567215035317728 -0.2020017677283431 -0.9469545295749559 0.3472525599008944 0.3926995433115444 0.1062020945607838 -0.9825509236867935 -0.8315023801463267 -0.5924284777762027 -0.6136546464099280 -0.2741746998585253 -0.5459709832464510 
-0.4635243986474552 -0.5426345501657213 0.6542452938621802 -0.8909900898231964 2.519662325167536 -1.273475083885455 0.2544306442871748 -0.4904638388455818 0.1769919993135247 0.2799590296540357 -0.6474138921011938 -0.4223110247962949 -1.421497794585871 -0.3620101756026959 0.1439240948561717 0.2012058752871162 -0.3137688107867775 -1.133758644829387 1.493404909342537 -0.6071631606447658 -0.7867475789034478 
-0.8290310055986928 -1.969737253200296 0.2277504230393608 -1.799736353803802 0.2080141135219062 0.6821482752701075 0.8802931910968583 0.04403439416740637 -0.6607377617919681 0.3950382762796357 0.6368941034341505 0.2497779494686624 0.01903203775757001 -0.1716633990511796 -0.4047194106321302 -0.09815225789951483 -0.9135877471973823 -0.4369170439378488 -0.7030984742516373 -0.1880537399178082 1.214586707320124 
-2.150542729708533 1.241505495109452 1.052389801737669 -2.197029390547892 -0.4829838949925497 0.8946769653304418 0.1647059621225595 0.4628899879388335 1.353454730494833 1.648213809089806 0.4605565262454978 -1.172425911377988 -0.1111767405870114 0.2500128530478367 -0.8431189395159492 1.373682253248606 2.777504473464170 -0.08385693122905995 1.252819358674719 0.1453151849905478 -0.1652919358047055 
1.883512725252657 1.107444989092608 -0.8233535560224177 0.6650368597666124 0.5803063506258904 -0.5734790813325625 -0.03530396785852378 0.1272041085940883 0.4650227832189710 0.3475465822760904 -0.1522231346404123 -0.2751575463932180 0.4070988638367348 -0.1955550222427639 0.1113290563811151 -0.3293768488263115 -1.155412320118468 -0.8211696336073626 -0.5712251012842864 0.1871977421707753 -0.1925487859115557 
-0.2122911470273678 0.02285486730719419 -0.3629994318700070 0.3833659876610687 -1.234147968973022 -0.06630958844528431 0.5583830553775122 0.1302381504182116 -0.2304228919242911 -1.187844723538495 -0.1359238921994547 -1.077758327345086 1.287171215141287 -0.4843799893506492 -0.7521125936325374 -0.3198801330025732 1.152040107445109 -0.001435798023957491 1.037828575991387 0.08754450378952494 -1.626581107637661 
1.454509937659182 -0.7535951403777311 0.8031075086346884 0.3729010541368620 0.1318452440820022 0.3984323287341620 -0.1617488635479784 -0.2922850961912819 -1.498814183932361 0.1549480874160840 0.1379857781728403 0.3919985613397319 0.4487854557301543 0.3099226900694869 -0.3116053150145370 0.1389821379197765 -0.8433953093557067 -0.9575608782799447 0.09021855794274518 -0.2425725048069206 0.4745122336649373 
-0.09749566185411226 -0.9773900885624235 0.003963908193643978 0.3598436001430881 -1.068178359947550 0.6866896027898647 0.1333630956130821 0.2099569782684603 -0.1226264649274188 -0.06247572292092026 -0.01544211211712901 0.8242790027638737 -0.7760905649867706 -0.7198823250241714 -0.08247843248265845 0.5196224117083460 0.4681451236457943 0.3055301336802409 0.5959153525176498 -0.2372892207538416 -0.06240740484883515 
0.9558604986210004 -0.3761281330986606 1.695660045857783 0.5448606603413406 -0.3909907848293630 0.9484229804841670 0.5158211393061233 -0.2000823483056071 0.6300844009305703 1.978093744605761 0.7764664080403669 0.9047926527516872 -0.6200169633607719 -0.8342444833943244 -0.9473868162089862 -1.193048150109597 -1.147579416170237 0.3157213301009029 -1.963434311532564 1.154498509300128 0.5271269792232482 
-1.070474815278891 2.730247685128937 0.9229684379698457 0.4502065840931767 -1.452296956785105 -1.001508916266777 -0.7273146267603389 -0.3571700534280414 0.9154849809754996 -0.6152597127016529 -0.5462698197303989 1.054431755913121 0.6681310795826283 -0.1348260457766879 -0.7999468230544942 -0.06354913980119478 1.237843405073718 -1.411388559465711 0.9824089594912048 -0.2745506794795085 0.6607411050056107 
0.1555573978952245 -1.481896495217239 -0.2994013953155622 -0.3489464744916861 1.084346578690937 -0.2750700936734414 -0.3999606648330816 -0.1205993166846512 -1.402241792754557 0.4435690399943735 0.2008344393796183 0.5986471177924549 0.4396159961531490 0.4616790211287156 0.8033163370530432 0.3075974827596767 -0.3606685903028327 -1.723048682767414 1.666067231345897 -0.6415057491456633 -2.182191522064119 
-0.3866013277813130 -0.8164435150341147 -1.115653631181107 2.338570996317590 0.9254685251539001 -0.4813592127730448 0.4733509649608312 0.08643835427693448 -0.4794344927164041 -1.160579309791163 -0.6236330182834475 -1.573457310786319 0.7619465373785083 -0.6675967856796251 -1.028748383511231 -0.09108955375272240 -0.8755181483203262 -1.043234176005942 -1.568773508989653 0.5749882165324756 1.019264463074298 
-0.1431746437284231 -1.066766170326545 -0.1183344567465796 -0.1207169856326847 -1.178742830096838 -0.2074114286259086 -0.09374144503996086 -0.03582151061069405 -0.3693287753923350 0.3137931997166902 -0.1538268826738111 0.1760380709734419 0.1906594277145671 -0.5664697788676127 -0.1218380522433501 -0.6582719195129920 -0.3399294597935125 -0.8677059054561161 0.6417174219020222 -0.3774117804345276 0.01763639433928671 
1.422007300532699 -0.3406979866569285 -0.01362200896091890 -1.188722676497207 1.501729254325671 0.07462518599203861 -0.1162718496830948 -0.3781711410824341 -0.009484797428021370 -0.2951403197499799 0.4047612108517193 -1.085405331872911 2.205307891447242 -0.6960149304358614 0.1736722810592761 -0.3639720200150510 -1.053913919359437 -0.4031481807429371 -1.539312813220378 -0.8868737686428304 -1.659891402251189 
-0.3858073307579186 0.7206829169849953 0.5025312661567450 0.6912404353771293 0.6897748011391405 -0.9858837996141414 -0.3664182082753165 0.1190313053134921 -0.002977435281652224 -2.110992096711183 -0.2528615966739238 -2.353467144156396 0.3609171958324914 -0.3424088753971970 -0.2050084570920323 0.8787352761367103 0.1580314383695480 -0.7569534653889340 0.5719142216352922 -0.5586369082135303 -0.7953491619437796 
-0.3078234815245425 -0.03293209788670690 -0.6658847807185233 0.4122188238546704 -0.3553242692325939 -0.6144135676304077 0.3258228097430239 -0.5572854683769520 0.1386932095068185 -0.8592728241434202 -0.4322278238672152 0.3911669307122948 0.5320815218728892 0.03760139123374641 0.06076782076355312 0.6468181396339844 0.3899852631987569 -1.000769210423957 1.421698609439281 -0.8080169991499614 0.3710101533091915 
-0.8682525826334794 -0.4928666718212902 -1.073961963227479 0.6079408159574478 1.607925707908343 0.4678581037177402 -0.2004905299353440 0.1048923298979053 -0.4136557358540301 -1.330885340824999 0.3679752871859761 -1.441962459530416 -0.5767508395876251 0.1379400662425208 -0.2684868738835026 -0.08565870256160785 -0.4798237542614864 0.6143103792185454 0.7065542365664729 0.5378448227126529 -0.5615551973156127 
0.1065293507187543 0.7447362348716579 0.1263022183530982 1.351947299166988 0.08768751014165163 -0.1404976069680338 -1.214606009337669 -0.7464194871389458 -0.2970093279839624 0.1054933794108015 0.1477373296281027 0.5030187168297047 -0.7487594436630766 0.4687143451634340 0.4829462296324563 -0.5251757635815143 0.8956602969249037 0.4771064182057374 1.597533298915380 -1.041349407721209 1.639339870982032 
-0.3497668584447940 0.6253101009697408 -0.1681095956116785 1.002851925736950 0.4525234731091018 0.1259817484315875 0.09000109029409659 -0.4094535535421981 -0.03603923080725541 -0.4942057175041261 0.01123220140021938 0.6769836366259911 -1.044189211027194 0.5596450873555555 -0.1311902776622446 -0.2512631873435971 0.1820081464008240 -0.7486895828480271 0.8712106681051770 -0.9785177992817079 0.3812343222567489 
0.5857243399271577 0.02802039655918714 -1.397531110971817 0.6811642937836612 -0.03796202727165220 -0.5013291922470307 0.2648112848630597 0.7904799570022142 -0.6651733245419429 1.129255777927954 -0.3608823472701169 -1.827549636973420 0.1438223178724931 -0.3386610864054609 0.8876174462847313 -0.1024920690023494 0.4435619790789801 1.055898667325797 2.540372720838163 0.3820206632972975 0.002976337406476563 
0.9066350788818328 -0.8481519653593970 -0.05259438066491771 0.4532170982419169 0.6387278315543299 0.4197514726076125 -0.3797861160675681 0.7832274006233961 -0.1143303844135148 0.4073659477333870 0.3453694408891402 -0.03725539879672986 1.486065446166678 -0.05531185750565489 -0.1954860129496583 -0.4486730670392349 -0.1418393014849231 -1.015011218145825 0.1629227430112147 0.1882711209685465 -0.4138028354511590 
0.06247268930658928 1.755816514172838 1.081392812155247 0.6068656172882657 0.1995289819785567 1.002600458941489 0.9436517652004641 0.2857998638922575 0.3789749582846517 0.2333908625447317 0.6884132742711614 -0.4446110235636932 -2.173040062519030 0.4483567685166124 0.1910226125194683 0.08119892561556218 1.876997322267367 0.5002034794367353 2.019344935850515 0.005836740023025040 0.07565226796943866 
0.7248121970297542 -0.4111088835170992 0.07900247825417210 1.772139761133937 -3.229891715213636 0.7069475860843054 0.6649932007408625 0.6306336858832358 -0.1165926673032265 0.4062881730336399 0.1154852440764589 -0.7222124018912809 -0.1953810704077112 0.2308392293074829 0.7490107143779251 1.061476245413285 0.7144848539274173 0.4155710416135362 0.4780853474961522 1.087609090086999 -0.4008802443801469 
-2.892840678715237 -0.3534463703526998 0.1471329938366839 0.6157100366772024 -1.167346574744947 -0.8826977063023091 -0.5296464897630966 -0.6337766813419117 -0.7884396260542771 0.2676843470824072 -0.2236514923255804 0.7221185346400147 -0.6008308955673262 -0.2574914156696882 0.01675854802980505 -1.084917551858870 1.292287845832445 0.2566563009285858 2.616299292554315 -1.204871380010913 -0.7800963472014264 
0.8805511013447991 0.6637040427568623 -1.126930973040873 1.920339422172081 1.297380167216911 -0.6634423502606673 -0.3165928311788624 0.1599117404037891 -0.4918294877618340 -0.6644388011639230 -0.3086781102076513 0.4470354808129224 -1.480325844412937 0.03631738191813193 -0.06248688697771088 0.8654345288167539 -0.5592822006580789 -1.512311608107979 0.5155889181701055 -0.1616285258862103 0.9245746130763097 
-0.02880501263356987 1.087533127332940 -0.7020713718675086 -2.410967844527578 0.3027230330306743 -0.06714963002711110 0.03994557820749393 -0.4441873157447751 0.6224537677794758 -1.059317393711718 0.07874564589050442 -0.8525553937327850 -0.6208734599773944 -0.4097385921128681 -0.5015691607465729 0.4997563149959373 1.230217530902407 -0.6425935045713916 0.9361051367816747 -0.2115236952707507 -2.123825085744747 
-1.265664281610727 0.9366572581833028 -1.373432645433148 -2.217208087272357 2.374738786936943 -0.7482432934266999 -0.4668705159714678 0.2344323341895236 -0.5796373911925504 -2.221939340189736 -0.4799965134318394 -0.1560072873857069 -0.7285073592518245 -1.120367162047274 -0.1448152098732525 -1.598405190560061 1.018068621461695 -0.5074770752295132 0.7663247343828924 -0.1737177155322407 1.154961846847133 
-0.3819957724912597 -1.638552848635237 0.8826267775582255 -2.774904990943895 -1.579475050141282 -0.4637889119834202 0.3988401023336267 -1.163975822580796 0.1989368349426476 0.9579639560592466 -0.7290524583532451 0.8176164613317729 -1.177137811576965 0.6971543404580612 1.031528924975469 0.4114139609927470 0.9680788483120137 -1.018861526376440 1.754090102297278 -0.5602935034965766 1.039718626887041 
0.5364343623508045 -1.314524009012852 -0.1819469862518808 -0.3980903560243702 0.9476993397267457 0.6366982707257358 0.2019572809406360 0.008504713478817968 -0.7345203313614104 -1.460165430309424 0.3508551155128632 -0.09552241245821833 0.1114457529686813 -1.022682422178775 -0.8144237331903535 -0.04832072604362861 -0.3826250308596773 -0.9076133349456776 0.09767985204672158 -0.9220738634552867 -0.2518571614375567 
0.8134052636819247 0.3323438576450706 0.2445676797186392 -1.415049812222367 1.962935692676647 -0.6748537933807064 -0.5995025801777638 0.3494959078483897 -0.09132325744458160 0.1517287782037482 -0.4330008441223879 0.3097318011677994 0.9809138268491342 -0.3404853663573618 -0.09151727496190654 -0.7704891011865417 -0.4973963855696291 -0.4972225350631411 -2.119549392162106 -0.4097985614732700 0.3115208918172008 
0.1531538086235976 0.3017763130697641 1.366357591914513 -2.375687982481519 -1.436300631469185 0.003101925379513121 -0.4888263515404381 0.5515235309778719 -0.006790148850862168 0.4144261372305491 -0.07987543624509622 0.6422702303253404 -0.4454076632638027 0.2105042021984299 0.2262345718402994 0.8502430343683166 -0.5598835015709276 0.05349015848734027 -1.413336278266344 -0.3576026280476177 -0.4752633495351341 
0.2345319223597703 -1.333167965875735 0.1007578751826091 -0.9686927730103913 0.7900480004555670 -0.2368580975674547 0.3099589819672329 0.3595241421251292 -1.077172715076721 0.1551758380085027 -0.2671556654458388 1.007535767676625 0.4428452196062484 -0.7019128517456198 0.6626543603426458 -0.9363131316397229 -0.02125730897223849 -0.3794748152602325 -0.4304770354387631 -0.1725858801089852 -0.5311423966893563 
1.345653442923963 -1.886784964618405 0.1837703444908576 0.7486439721174857 -1.053904860624295 0.3215637475789132 1.050251731611545 0.5677109910976429 0.08355521106920243 1.832792731874607 -0.03107694226862025 -0.2658962209483918 0.1182918500911365 1.174555379602075 0.3756807292160128 1.046650722981900 -0.3707025072236933 0.9676961678004035 -1.109856114111735 -1.091269610797096 0.3984642807423005 
-0.3088441382800936 -0.6003181396732986 0.9838082903399089 1.645695631049987 -1.501722618005426 0.8827406164400668 0.1544105756357503 0.1609743676859902 0.1546879233736616 -1.788255498448522 0.5206919539404206 -1.880761352149548 0.4075573703567764 0.2797984108624856 -0.1542765698865074 1.099837430234393 0.2135842122170740 0.4043641762304482 -1.701830228397809 0.07011493308072941 2.491584376840563 
-0.01931145514785008 -0.8825727580107922 0.4727045723696378 -0.4663417079475805 2.044100041531151 -0.4983044628691407 -1.268644663801625 -0.9602526311782054 -1.529225866155848 -1.132390624220652 -0.4779039186516179 0.7575234646055038 -0.9844938879548807 -0.2548897068850899 -0.07646098836856255 0.06408701917387381 -1.164353245203569 -0.3649027464965741 -1.198513583882177 -2.189465028774029 0.6647315750099416 
0.7204406699281520 0.7152995541177102 1.020222798932560 -0.007219028343361203 -0.4835128591747905 -0.2219819439080025 -0.7030730293518971 0.02078224877289467 0.07295015180467096 1.145896309808218 -0.3150863377566126 0.6133774378814048 0.9693468515040514 -0.4315640216952151 1.298163535079383 -0.2431614381956865 -1.265615325859545 1.346594793767380 -1.977847493606633 1.099233475637530 -0.05275340429339789 
-1.343464975549664 0.5608741841320142 -1.231358449305146 -0.2157312674322947 0.6607904733111267 -0.6224900356196772 -0.8579941647770448 -0.5908980677947615 0.07316361385624069 -0.5889778838493619 -0.5019970816645853 -1.810650173979024 -0.9096140475968985 -0.3407781814860163 1.170831561136420 -1.096794325454860 0.2290019856431218 -0.4768998210697203 0.6400510780841760 0.04912215886708408 -0.2207096833233232 
0.2405791141001702 -0.2018008829343019 -0.3514300811421167 -0.1004446507079631 -0.3176191611827645 -0.7304414481100614 0.04523518045675695 0.06848419809091479 0.5627217236773090 -0.4079871875581966 -0.3191448673792511 -1.194398973403291 -1.144450038942751 0.1528481757924239 -0.09474322626238295 -1.227809274230614 0.4281141040016422 0.2141543887809113 1.220562528495301 1.434720364524553 0.1639748112526138 
0.3431881029576976 0.9776582796347207 0.8391349252935487 -0.1083050365446453 -0.006471584198966048 -0.3241237405844509 0.9909062186575467 0.004883050548672179 0.2106491780694763 -0.5362161490722016 -0.2235290867733766 -0.2900926025289153 0.6195628832747860 0.3872812266659453 -0.4165090866063537 -0.1103966685310002 -0.8887501811414948 -0.5199188366728286 -1.332843271500760 -1.019567467237995 0.9712137986130472 
-0.4028332323588929 2.172928219330358 0.9853093882109444 1.126708464256763 -0.02824105118059656 -0.4762054017526112 -0.4076634483163544 -0.08225511189066692 0.7186396231725628 -0.01261924613152496 -0.1108264499930398 1.345928678111820 -0.5588842678107828 0.1778014833256772 -0.2496291131994660 0.3619974450396586 -0.4512953593147623 0.9396647766314071 -0.8648990500613624 0.2343205601005570 1.043450277653923 
-0.4415600747845221 1.744461908392035 -0.7861405417857462 0.6985046595573830 0.07568651724882111 0.2410710188009209 -0.1349979080202953 -0.2671296340600901 0.6696223103992084 -0.3373485010699820 0.5176869888011003 0.6018358401172159 -1.286938700246034 -0.1438570854593088 1.173057284671261 -0.7778005293074444 0.2665292407874640 0.3241021492675345 0.8072472847443324 -1.611660479259106 1.504042942521046 
-0.9711932212177066 -1.643754160135186 -1.401824163670641 -0.6712010008554866 1.147824365996585 0.2365715587531296 0.03156949222542281 0.4399840624571625 -1.152050396263378 0.7632227039452881 -0.1630616251253843 0.4899446720994495 1.169952138661366 -0.7045959217936651 0.5426691013701886 1.026213495947865 -0.5783378484376510 -1.006312056383496 -1.277815258098620 -0.07451482559976338 0.8828291106018277 
0.8749432312021586 -1.867610827291703 0.6686739301463962 0.5364404480187763 -1.604773433561133 -1.326123637471678 -1.137239534004358 -0.5404679016225320 0.5023398301674707 0.5264548664673152 -1.018431365076943 0.6160742686480722 1.874247859049505 0.1046468402043005 -0.3617160369633076 -0.6225086959563920 0.3859321809134659 0.7655377041073329 1.089554312035789 1.174476787163085 -0.5947293440020511 
-0.03740196840392715 0.4296013931872753 -0.06295854845021050 -0.4391294057045453 -0.9262736591430885 -0.2213275452433557 -0.8332858566788730 -0.2269679116419848 -0.9530318549207335 0.4858832740665607 -0.1574804897279722 -0.07143491488684445 -0.1599028159202945 -0.3508740494294567 -0.8742526636505701 -0.6274433701202313 1.118585124984134 -0.6242565954250276 1.707441452230236 -1.003400950430259 -0.2009475443576935 
-0.01991720458988009 0.5461202576345834 -1.317820682653529 0.1494898975936234 0.7724575739117638 -0.1272075123090685 -0.9521800125524710 -0.4426749113273918 -0.4605721721543353 -1.636064103670211 -0.1883768333967647 1.196699243252200 -0.6972277921734100 -0.5054864906209949 -1.099215033700665 0.04019682113813836 -0.9366851181274403 -1.230022487013868 -0.4061820994906145 0.4163294025044949 -0.3917342546255369 
-0.2730790167721999 0.5445110895870487 -0.3290407591839663 1.074279420888697 -1.352627045038488 -0.2886238502180784 -0.8542421121200396 0.07355640155876651 0.3477963201025245 -0.2590174854808460 -0.2651988753089041 0.2221611319841341 1.251877059972835 -0.03428305225502097 -0.1219569268585186 -1.673003022326806 1.033058614013536 1.281044661214231 2.252450699901591 -0.1363203998287415 -2.525843234199366 
0.6730979462231175 -0.1493758827577616 0.7075333424009351 -1.553954610462126 1.175877495794987 -0.08808896312780998 0.001784518272291945 -0.3563625169395794 -0.6892751679907210 0.9761994297068373 0.03570113307424052 -0.5901360951641588 0.4430908383061229 0.1921015587706258 0.5071042091296784 -0.5451537951813229 -1.458566217345365 0.1060159510937234 -0.4169117773782978 1.198993030591547 1.192833761917512 
0.7314214401313655 1.290295294395984 -0.2393953640626980 -0.8134655770054440 0.06085239249179431 0.05542781089649981 -1.026869893426768 0.07624055706410579 0.3970187665925537 -0.5872423225947009 0.06156568735566168 0.9366774640426273 -0.5077847091185799 -0.5467930318758523 -0.2167107349324274 -0.2402175732418210 0.4747119384805150 0.8399315618405667 0.7289781982689596 -0.01129563756456915 1.816717748767610 
-0.3184700739328994 1.071304581195957 -0.4705210993827300 -0.02048873237286098 -0.3905065739178187 0.3316498403539863 0.1805996259524598 -0.5165333361175820 0.4435121022328318 -0.5737260583193411 -0.1219066354315116 0.8053870653190641 0.2893497340086873 -0.09526834757316163 -0.4769816222366732 0.7093782403308878 0.3885340003208253 0.7394157158086739 -1.101054733498434 -0.6987252891113895 1.444795208569921 
-2.273227146732957 -0.3071576173218998 0.04748478316791734 -1.724755880091962 -0.7615079042853315 0.4318155549073360 0.7720675720299209 -0.1402476818795491 -1.189684034670324 -0.8229552600135887 0.2796447710820044 0.6610603702900214 -0.2739788335993399 0.06516991546314393 1.135628804241564 -0.7729341674914530 -0.005856612308563755 -1.017836043660786 0.6616280849934595 -0.3370809417981119 -0.3360812827531679 
-2.668260053026182 -3.190015363490865 -2.588388961439502 -2.135488800207044 -0.9833536791705481 -3.301401589693878 -3.251355897623564 -2.998282451600968 -3.171859013158993 -2.647870720541993 -2.842009413766431 -2.119866090563578 -2.699514595339565 -2.516245047573304 -2.968391021135407 -3.648349856198504 -2.992511375730885 -2.759316232525272 -3.907930191010676 -2.841987338242062 -4.706805172777938 
0.004643274759601218 -0.3510911447212219 0.4517398607834259 -0.2690254673892357 0.7014904455843874 0.05785102655167711 -0.1361062806334805 -0.3479302568643554 -0.6742980399797701 0.4413090091494112 0.2800975285745096 -0.1751991421924374 -0.1984262397925651 -0.03598864964889833 0.02080002734921227 -0.1807410761639720 0.2789494017210897 0.2561335539941654 -0.3456037631871951 0.1122633091913758 0.3391094994303961 
-0.02360098924574730 0.9424185483728120 0.3500173684896568 -0.1132881498547109 0.6141621054660698 0.5337542008120185 0.04639624331357103 -0.2882009087830741 -0.3616714413575599 -0.3662421526384263 -0.2989456753745209 -0.2310796990792693 0.2759254518972478 0.3028688980365103 -0.2559000080395076 0.02592844588545684 -0.2699751077908561 0.06895013021534925 -0.5948262638678756 -0.1157301935257697 -0.2686889631686451 
-0.05871686268490362 0.5488553291711152 -0.2453393467865582 -0.2129102126620079 1.177810943609329 -0.2880200900602613 -0.5524964440714921 -0.3469852619202090 -0.4897651714449849 -0.4241310281454797 -0.4409149843839572 -1.214192898313053 0.3942259935935850 -0.1495442688173152 -0.3031564074866726 -0.2802905352413070 0.6792327069112851 -0.4799838184204850 1.454521522272068 -0.2074835828481522 -0.2827193583414362 
0.5019708883737414 -0.1109352446795424 0.05815363059565738 0.04564887681675910 -0.7723053055096966 -0.5842979182655349 0.4304038339478211 -0.08308983270649406 -0.5735020925846223 -0.05031705838897345 0.1781124781724066 -0.07890432091808197 -0.3148581295116948 -0.2835938041579411 0.4489796828766867 -0.1945549327737802 -0.2504143362479283 -0.01411180379088547 1.288217868607641 -0.05844990026211776 0.5903754985870726 
-0.01613913415381398 -0.2035751557615093 -0.2728858681452763 -0.1647836644551267 0.06876488286655891 0.09324230355352764 -0.02658020930143243 0.2575869542899021 0.1037937659002224 -0.2720884515243357 -0.2334421543796976 -0.7778722090302390 0.05065552751248573 0.2406154625032708 -0.05473032208438103 0.1594597755861457 -0.2879218841730396 0.01717989614367213 0.9287682247568824 0.02391762824230624 -0.3011386576981893 
-0.3420546302322727 -0.5144653382935762 0.4633657242942647 0.4975701872123842 -0.9348846499463083 -0.1916222572573135 0.5375007285702438 -0.3105921721627428 0.1773718552046628 0.5218193140187364 0.02767994710198755 0.7697826180349665 -0.2140215714183251 0.6059542110674950 0.2172782975880170 0.2742421975413572 -0.3908475660178951 -0.007480817340927259 -0.8167381476379667 0.6600109690581412 -0.1382402454854298 
-0.2284170394199674 0.06219602245593489 -0.3026409190216456 0.1370301896695904 0.5864507096123428 -0.4109572990924265 -0.4624515099199841 0.08573235978495945 -0.4198146815461226 0.1322838636935549 -0.2941316736815504 -0.7180731767060899 0.3267448682285411 -0.1359365915789245 -0.4193204787203069 -0.01083929740212032 1.039930857679777 -0.2055454504244501 0.4078102570506315 -0.3852237261378358 -0.5182437382542710 
0.4393457038680764 0.05245986971903567 0.04556024893676362 -0.1813446097199394 0.06647128177361518 -0.09676862310556483 -0.02402823855452568 -0.5307886281128004 -0.6156701446964944 -0.2946160813517792 -0.003509281042498474 -0.1669458011703217 0.2227847301626860 -0.08679483043378610 -0.1962951033199078 -0.1308102649436721 0.4205021078846067 0.04123450295608154 -0.7219090458669686 0.07774233364837538 1.001119223301120 
0.2501623558957894 -0.2394422815634343 -0.05927752963755877 -0.1990308054142079 -0.7033419408076902 0.04809220266299912 0.2977623588068264 0.3088262571236397 -0.4384213665175332 -0.4036632459839374 0.1812053375922071 -0.4256967975580187 0.04358975506302966 -0.01123855145500722 0.3912140744904628 0.2188014259160151 0.9225007242702122 0.02838401606799466 0.1975493248130677 -0.08549291604907601 0.6327069433546055 
-0.2205647278999319 0.4138452611375264 0.1399648696674553 0.4475904926422969 0.1337578634648985 -0.1539328349581630 0.1547596071751488 -0.5595425179822615 -0.1765962361457991 0.2047037615312829 -0.08690503407104493 -0.2502575457320876 -0.06253262754736670 0.5667768349898470 -0.3286462449148986 0.5552696755698449 0.2752870770171357 0.02395922296720575 0.1466358287687013 -0.05947605257672620 -0.7857332953200151 
0.1102639891381951 0.6381837371474411 0.04550329133081441 -0.02590566131112583 0.7960362872187884 0.2866478192768917 -0.7158507459045306 0.4590137946874962 0.2386388034690168 0.4828794448146302 0.1173150944192931 -0.5287652734105611 -0.007928859389138730 0.3145151277100509 -0.6133789415272031 0.2168741628560171 0.6264015790441216 0.4196641153516129 -0.5648075965859021 -0.1003312571837184 0.2376995531533754 
0.3480473865279302 0.1619760617825377 -0.2768791226291659 -0.08997195017507983 -0.4124892102507418 0.1120349531265684 0.4690511648516667 -0.1485498096259032 -0.8800558873790002 0.1652737813325431 0.1899112755449021 -0.7681273127994399 -0.3030524135176348 -0.4809636635401777 0.04317283196068210 -0.1353919672943204 -0.5857017025846893 0.2441725655156371 -0.09490750674058368 -0.3337655025633635 1.122519632421929 
0.1863817376022632 0.2431784189496662 -0.3395810899949937 0.005544591834025573 0.1739350806211387 0.3957955380157698 -0.1209530454616389 0.1304263764196973 0.2808952901252625 -0.08414395101865177 0.1765523966288840 -0.1453421124424066 0.1794992738825935 0.4618162165881509 -0.2143008861178227 0.4741489985603682 1.187051345123962 0.001411656634569027 -1.257170428064950 0.04338758316550547 1.289173928242298 
-0.3777776216221714 -0.5708123420210626 0.5015639204917152 0.04032061910751049 0.7053096127379788 -0.07256001788720347 -0.08124470062805893 0.1231983204281490 0.6853160252274161 -0.1050986299867724 -0.04504752259842412 -0.05053528122001795 -0.1681236664364671 -0.2078237043952768 0.1398035012656295 -0.01189377153958959 -0.5168292863523660 0.2126614404267215 0.5975797719629348 0.1049838834651328 -0.3242131006657746 
-0.2638917303798976 0.1084448721373013 0.04935391135450221 0.1519552021160937 -0.1310269924011749 5.140126567318611e-05 -0.3670288975893426 0.02208745951450116 -0.1917608576669127 0.1308274375312086 -0.1042661822761034 -0.7431498057960666 -0.05572605014197682 0.1739126612512328 -0.3810067728219879 -0.1793373145004013 0.2871615192914214 0.2687995846704308 0.4668058284812705 -0.04439536398481259 -0.3125470620283795 
0.4823649726370231 -0.3232159339187137 -0.2367097666975751 0.2792641536898687 -0.3044202426486884 0.06836669965574832 0.3654736405580143 -0.04093529899366361 -1.127591245517460 -0.07519237082995797 0.1914554126179513 0.2999746229511014 0.2624616966181190 -0.3554209785134173 -0.1260049078468987 -0.3464647007863965 0.06148400416001831 -0.2426436850757812 0.9685539615268866 -0.07454244217436570 1.583083363199974 
0.4172346542334001 0.3871096462141633 0.2365227888139085 0.1134492598020724 -1.522982932590464 -0.4099119445263509 0.4987906979869875 -0.05696715466462197 0.3676536468414314 0.2398482932621853 0.3805508246099217 0.5968599975266814 0.2264517530715877 0.02350017289167671 -0.1877202533208240 0.06536922762318256 -0.5505748167975388 0.2573026912665977 -0.3104681238875845 0.2363267326326392 1.396616263173707 
0.2358254028090943 -0.2172371354773531 0.2913444667385234 0.1743651730420740 0.05983398325609329 -0.5222835951409679 0.5228526496718724 0.3817458462218887 0.05765088993989663 0.1630743602804527 0.4052558979472185 -0.8599224385090053 -0.1008881557827961 -0.2557273744054839 0.4859256896270714 -0.3275769076544805 -0.5525028075515838 -0.5052810192835266 0.9945956197191723 -0.006891563158245894 1.097168779511523 
0.6061544388035215 0.4352166438087872 0.4261275282219385 -0.4202665568275380 0.5128887678150404 -0.1892572127085608 0.08647872880796616 0.07697026550010250 -0.5481159059444840 -0.6996502449201103 -0.1766084701355618 -0.5737670210810945 0.3446791511716705 -0.05539669849945447 0.2116352652418057 -0.3925732764795288 -0.3771522488630156 -0.6310129528340866 0.5974206836598743 -0.2805710616630386 0.4550148782269699 
-0.2769557247361036 0.3264524021838146 0.1705840376930345 -0.03679702940447468 0.4836006244610611 0.4056632357228688 -0.4645220771586316 0.3442594511667380 -0.02315248976950415 -0.03882290410416956 -0.1225715199747657 0.3966738324604391 0.01322969199435338 0.3208748750263193 -0.2746788903860293 0.2186307738439036 0.1571901693960059 -0.2410887437354350 0.4374951326307132 -0.1962667719516403 -0.5005394686418490 
-0.1039469560848116 0.5002495752463714 0.1177485688247203 -0.3090397137374983 -0.4859986330608814 0.5708018519012440 -0.3083634162529191 -0.1570210867788965 -0.6756998612171877 0.009429088272032100 -0.4128394689784207 0.4669869314320644 0.2342534568505578 0.2823346948077178 -0.3716310150931805 0.2518540959927906 -0.6074732609081303 -0.7504479809556176 -0.1179164282519543 0.2883008692707202 0.2800618320121037 
-0.1312701320188584 0.6949470653655225 0.2303365015979221 -0.4044696431281118 0.05874429733936595 0.07855395466284353 0.3234503861599782 0.5218316235342484 -0.3688700563907321 0.1465907255017571 0.5401337459472141 -0.1051048474679651 0.09109392103973994 0.004429865902358703 0.7499564047230699 0.06509780468325746 0.5061380526329612 0.2434796803203556 -0.5366468330234619 -0.1735056824761634 0.4999790670571138 
0.1560743262906054 0.3208936738507692 0.08030586293750977 0.2855830000475182 -1.409474699316978 -0.1972343033963643 0.3047421728159209 0.2902413331515139 0.5178283500341224 -0.04680034021442169 0.2824094319566834 0.1990172722904847 0.3494099899077006 0.1516418482653204 0.4776766821888681 0.09462684670890549 -0.7856226649821434 0.2923443035980579 -0.3197600928447519 0.01571267565077440 0.5271657700181495 
0.4131048657234140 1.998938616828351 0.1206507248050805 -0.1613393272022574 -0.9366072748533557 0.4806460526113215 0.08281957359708277 -0.01491650624357877 -0.3064684532421094 -0.2132414011538111 0.3761430824939288 0.1887955033912010 0.7345640999907342 0.2207451152356503 0.2091965405429156 -0.1685521817722908 0.1604109715017305 -0.3132707711279000 -0.6514515614765705 0.3666007249414767 0.6431971581102831 
-0.05811568658311553 -0.4368363036299032 0.2329341341727856 0.2709172140081175 0.4090489413291925 -0.5228233278279460 -0.2187777803749212 0.1182347079712282 0.8112045518229453 -0.7187135250823200 -0.1710845645919162 -0.5958167281854085 0.1849583803455936 0.1979591281928273 0.01321299392250365 0.2146758765306832 0.5005350724957961 -0.05555070170202246 -0.2701969976918104 -0.2056492198270743 -0.3172238332571746 
-0.03086127939758199 0.8056687911032215 -0.05877921822190363 0.1578474649440790 -0.9744170891806447 -1.261625474793233 -0.1654447184591028 -0.06314015648741730 -0.9103313249132751 0.1173378117419398 -0.4348129274565455 0.08224087664405572 -0.04040029961155888 -0.2077789346282885 -0.4305095336938172 -0.2056817829955315 -0.4109760681565082 0.8602073979089652 1.314771230456518 0.2321847667707569 0.2457077394930323 
-0.1663543348464525 -0.7280996066173253 -0.1378664366199192 0.01380062677267182 0.2935848049642404 -0.05303101263054847 0.1334236541632353 0.01517439672028863 -0.03618322748853824 0.4035609849128735 0.04637298332447064 -0.06618810397125466 0.1802464743280918 -0.3149744631638940 0.1118312770577452 -0.4183191501095173 -0.2861050880610488 0.07005945098529912 1.743666963739006 -0.2786021421832234 0.1556284252216603 
0.4472721565738257 -0.6611506512337373 0.09500161663536125 0.2177820904744769 0.2199565388030388 -0.8158823959237173 -0.006841996070589211 0.03348133695156314 -0.6681416806768640 0.2928199839372256 0.1458330907518862 0.02859833741784346 0.1494189375076932 -0.1766786963425680 -0.1553176331160018 -0.4937215893656513 0.4725727995343975 -0.2745220752442822 -0.2203398432882377 -0.04692707232295574 0.5859064953969652 
-0.3680704755680463 -0.008756558331628098 0.1579909832934214 -0.01410202777210345 0.6336902088447831 -0.2693950105874187 -0.03625316613510604 -0.04648532986929946 0.8325481011776312 -0.3389617756283785 -0.1775292595518570 -0.04373143586535969 -0.3246021857085112 -0.09135647690409857 -0.06606419069505413 -0.2139132238381211 0.4179965305524602 -0.5526222851007264 0.3246686395644455 0.2391556197542028 -0.3194072092490786 
0.1190445634051528 -0.5265884199313832 -0.03174348172072700 -0.1875945102478688 1.262725660626832 -0.3841846586630705 0.1497444745952428 -0.3613962496009796 -1.150565951757816 -0.3333580952921307 -0.009659518380409198 -1.022540393605724 -0.1581769239577859 -0.3043714985499378 0.005620252361026116 -0.1722188314932140 -0.9063424692823170 -0.9072907150144030 0.3821929186283570 -0.2266749248572945 0.5875618685217456 
-0.1162230816807266 -0.1403560535621708 -0.06184523688990913 0.1273750904818973 0.9154994483672763 0.1385453751863549 0.2270770256352240 -0.2162402175308863 -0.7113769786520407 -0.2747706587348487 0.07392076532813184 -0.7364691366645962 -0.2561679552494941 -0.1597696440522385 0.2906588340941452 0.1252251900266616 0.1014909329633630 -0.5843847721729629 -0.2843081756758081 -0.3615241084259517 0.3792816495820423 
0.6128635173575997 -0.3080919713004135 0.2448896273809309 0.03017208208278601 -0.2677285405074844 0.3373673591431811 -0.02142804458915391 0.2951366270371304 0.5568759976786836 0.2886015074618687 -0.2126930094572510 0.5607336366236281 0.1000676020164296 0.4088506070146607 -0.05259911024892498 0.2532631509661731 1.706919511555295 0.1016978771936163 -0.6730659969484654 0.2303611185010303 0.07279769715222435 
-0.1735442890526855 -0.5836330763012532 -0.3934265989893940 -0.04226764079777394 0.5645349364099363 -0.5024795534708464 0.1721429580687443 -0.06218886899924989 0.3451661739948495 0.1448105346849063 -0.09317032788698607 0.03151769222484658 -0.4116890655117887 0.09230143206258723 0.2240275591921724 -0.1783822214216275 -0.9870868422639874 -0.6116107333248532 1.436772775579090 0.02744168179130250 -0.5647121845529575 
0.1652401391165259 0.1598614413720804 0.4068401965026349 0.2390151538687121 1.018740683529749 0.07347145128883753 0.2528044925587389 -0.1349710990125265 0.07482038872518220 -0.1428486435100488 -0.2446837705162731 -0.2688674494312817 0.1350581241307252 -0.2651026645131859 -0.1879066665222993 -0.5029624535924186 -0.5294820454205160 0.2943231745725748 -0.7513509501209993 0.3746277345334881 -0.1724025372142175 
0.5566848368761297 0.3098663723794822 0.5726242055684508 -0.1124624033653781 -0.3547831842160168 -0.001654191852890636 0.4203285078968132 0.1678407963915665 -0.2996586538587344 -0.1169010425176938 0.3363357777547468 0.04054360927876120 0.2994710774335604 0.07100980547065112 0.4886469939439500 -0.1544954859916762 -0.8582184034676741 -0.3411650733933617 0.1153700493599183 0.2491451213508600 1.275538572354942 
0.3330733610685126 0.4559441292467851 -0.4367617271647445 -0.3119858757188371 -0.1420472091531879 -0.8503635518031627 -0.1654569067341606 -0.5272558175481461 1.069478504049273 -0.4956348781402770 -0.2216417390521029 -0.4856934270455676 0.1267608942153253 -0.01352856381562215 -0.6743864002172043 -0.3261762721404479 -0.8942576262335282 -0.03596344731815613 -0.6019145333163579 -0.06551026144538803 0.3827778383196576 
0.1213357712127339 0.4220525497284178 -0.04004409265177047 0.2924045919510099 -0.9535730994914335 -0.03525764814418894 -0.5531822628934660 -0.1126123910736572 -1.144767801329846 -0.6774334134459088 -0.3146929436628311 0.9959336221114496 -0.3765726599687614 -0.2746024701856972 -0.2782046096151776 0.07869828913106824 0.06021608589588021 0.3626750062667591 -1.507731130507652 0.1475208250644346 1.256241278293182 
0.07734044904887813 -1.281210140099735 0.2773735342177617 0.3581374463404303 -0.5023729277465954 -0.3140993458585976 0.05710895194338800 0.1193143255322593 -0.8595832910969796 0.1078805358661503 0.2410291740483044 0.4587266149972472 -0.1867006850850977 0.2971602387850361 0.04224116335548688 0.4281593428587083 0.2683864866947223 0.05403590659704476 -0.005525237022891431 0.4957755404074530 0.6563729147219757 
0.3951643740545988 -0.3776336150200063 0.3199848588715658 0.05471137634055127 -0.4000180770337251 -0.2755672164174555 0.7328535181294782 0.09364793379262452 -0.8635919162170641 -0.1834134369001578 0.5137126333769249 0.7315510402951100 0.3131481806494957 0.3034619943507950 0.2487239053409038 0.01428770789318341 0.1636165077594724 -0.2049704269441960 1.005672317506475 0.1544048095446046 1.193152907525459 
-0.04071092902164853 0.4752067192841418 0.1108673388160677 0.1307049416848492 -0.4893704901669945 0.2529851604020834 -0.2548906842937115 -0.07274687806550091 0.06396708385097499 0.7635465559348458 0.01925414007740571 -0.009303116796578845 0.04480648793790520 -0.2130378830386785 -0.03363204252422684 0.1324922505222783 1.217268043707167 0.2335371059733521 0.4248529780764774 -0.1428471846018157 -1.289368985604121 
-0.6405717178608457 -0.6244748343500570 -0.02705279179325670 -0.02131377790993901 0.7871121935981625 -0.1015936374658427 -0.1783433595539026 -0.1402682430336900 0.2360501387939012 -0.1564569555121897 0.3031704320828929 -0.2535931587759431 -0.06919436209045335 0.1838104115965838 -0.03436355431117620 -0.1302696893352941 -0.3638548267240783 0.5518207844576140 -0.08643613749015043 0.07835572025547226 -0.1388485987477077 
