solver_type L2R_LR
nr_class 10
label 0 1 2 3 4 5 6 7 8 9
nr_feature 564
bias 0.000000000000000
w
0.2787358009474606 0.9899470216997937 0.1472257075893901 0.1399058780834920 -0.5808454545980760 0.2147667265986185 -0.1213996788346414 1.804406812008299 -0.1221918356389252 0.5923733598424747 
-0.7097636454659326 0.6636919431553019 -0.5948376519351022 -0.3389329310075429 -0.06815697109227356 0.8692471735745446 1.179847205985614 -0.6531494146304015 0.8876469500896030 0.6432439797395038 
-0.2777938754681675 -0.7639812475526690 1.558796472244546 -1.613647653549474 -0.7407727371922260 0.5946982267021262 -1.806398684192381 -0.7961909935065887 1.046703358229231 0.1526855586795616 
0.1339632835645344 -0.7800377049522924 -0.4804545492801650 0.1601526641939278 -0.6393071701679125 -0.05389801207315340 0.1314105172784459 -2.500633798956629 -0.4695750672352947 1.681978275022360 
0.6239629177172094 1.376113673009231 -1.178268750590303 0.9898071842489363 -0.6124424847902118 0.1997636415270851 0.4438067235162058 1.109430896458135 1.659303235548615 -0.5873453627394928 
-0.3172630695681871 0.07794163161889850 0.7060846148842217 -0.5874465285119508 0.1213805180751742 -0.2004124421860715 -0.7645713815661388 2.560273102759400 -1.420424603927520 0.2819791008702173 
0.8430161571593622 0.7806278194011040 -0.5677380218448509 0.4441583847546237 -0.3925905594786926 0.2425736625534500 0.4387180213741526 -1.035988586465079 0.8943254339981105 -0.7180801661558973 
-0.1467189337859576 0.04527223415049152 1.179572305720885 -0.8291623036054204 1.232190146993236 0.1169467640453155 0.07721571021256735 -0.9158247571411046 0.2450461738534173 0.1704723387170230 
0.06721780376744338 1.326018769708570 -0.9570244069282965 -0.1883904833365079 -1.813653368255585 -0.04040711485063615 1.387520587471179 0.8055149346386496 0.2829293629271929 0.1870766236559064 
-0.5524203569951204 -0.9160891477881850 1.134228698909657 0.9914365580935948 0.02570649574280654 0.4867658418437485 -0.1156809779309957 -1.289062758083332 0.7120616828770358 1.047265443226033 
0.1197440733586360 0.7668233912791398 0.7677349701856547 -1.494406259619312 -0.4632739662539215 -0.3399859514624823 -0.01420657307050292 -0.3685694695197201 0.8239021887708913 0.2807831692810809 
0.08067521864278307 -1.031060506717471 1.324977842958337 0.4882127428642063 -1.192241139131832 -0.3865161379157482 0.5290072598862293 0.4835862901887721 0.1590854860412317 -0.3583491238663965 
0.8915741486615759 -1.334996959654295 0.8007489873645275 -1.265902431427480 0.2649046782862738 -1.148715906368118 -0.4135746665012898 -0.1407658730948244 -1.365707979439063 -0.1564075136591588 
-0.2822683489078758 0.04409089654235635 1.470657285594213 -0.9728512958070330 1.050963061227386 -0.02391223708829987 0.5467147874151239 -1.355790716270806 -1.269434890943774 -0.8011625760917601 
0.4350981234203922 -0.4667735858423049 -0.6018369450492174 -1.558435499073169 0.8106720541393756 -0.08593170993836508 -0.8706486507199144 2.068926382947300 -0.7188170707490029 0.4442871858148192 
0.1248979920323986 0.2881026249546569 -0.1120702146492490 0.4948084489327826 -1.562547361819143 0.3251493748562357 0.05829751154616336 -0.5177911321166630 -1.262772299995354 -0.3141366429521623 
0.1951481946144507 -0.3568029790518262 -0.8329283510708080 1.862851155527042 0.6703678739683423 0.03464497411928003 0.8848534258326464 1.604518528687172 -3.406070263729283 0.3801579340368586 
0.1948889934056070 1.034158217105087 -0.9782136844281120 0.05527518199548420 1.294985498230934 0.1476911813811485 -0.4736097092665071 1.974684294575958 -0.8489729200695033 1.824273506684645 
0.3976873630053432 1.000536983050299 -2.312250890264974 -0.3594936107479225 1.983325095566848 -0.3682612768555459 0.5213522164523393 -0.6101974943043956 -0.5118897399142771 -0.1336924604769181 
-0.09264453600895833 -0.3377926202748717 0.8380083187804996 -0.7764727589287150 -1.141893478854096 0.5023877151601347 1.179510223708340 0.08547046477704141 -1.200513957472456 -0.9061990417302721 
-0.4274588256353458 1.007194601762559 -0.5214313045848152 1.522205027089553 -1.747691060942531 -0.3504498888768434 1.308678949260987 0.3901431553862954 0.1528847208910249 0.3746839031994079 
-0.3957835654209663 0.6886824573766571 0.4935472843995993 0.9265517900722658 0.8251485044100054 -0.06337388915893533 2.135437052667125 0.5116923544660252 -0.7018215057809025 1.349807433432268 
-0.5052861132998463 -0.7098251014812774 0.6441203455527980 -0.7719266317738599 2.027333707614760 -0.9541732208266902 -0.9028454053721005 -2.531816985086133 0.9691916087482125 0.5524153853015511 
0.2287547965394745 0.8403749137357263 -1.935070995494031 1.498195167808474 1.540140180108701 0.6273141205307076 0.3256236011647796 1.382200865890888 -0.3837314131280211 0.6358543035597134 
-0.7030438983603041 1.753660630539975 -0.2533377928478335 -0.2327090215533684 0.2618322641314497 0.7738543644891975 1.106350590813225 -2.017842713272038 -1.315077863161362 -0.5691190727906208 
0.3702364583308722 0.8160808128557776 -0.2135924018881572 0.2677003838286130 2.254296223925508 -0.1220493620876042 0.9724679303539661 -0.7286995498847080 -1.922884860367654 0.6731215992573758 
-0.3202688752485059 -0.2930834405884861 1.655408848071972 0.01161254429499431 -2.091483099724536 0.3153954832520369 0.3288140692600373 3.041832960641127 -1.613531353157665 -0.8550108836915458 
-0.3092290086690607 0.2844560126192443 -1.315505409819689 -0.9639841230057447 0.09678250977461017 0.02849947513410588 -0.2513609415432228 0.6780781143234473 0.1272085244775117 0.03382361574258379 
-0.05092283288952846 1.700699343103421 -1.477074070840380 0.3301168823467796 -0.5050200529472721 0.7959406325050798 2.274107016623129 -0.03621524861619613 1.366101331099403 0.7275699564479614 
0.2631278379253926 0.5248863366072241 -0.3530327665834367 0.2034052959254277 -0.6809145633985958 1.193638088190692 1.076097156313060 1.270650591355954 0.8432255559546852 0.1648134850217951 
-0.3096542605260002 -1.067748873097217 1.192267432568220 -0.2463226129180209 1.271636783413847 0.4618799004431821 -0.5394956393039265 -0.1648140032009220 2.119638540713992 -0.7344764316736169 
0.1319782824434144 0.3754611770698204 -0.3810695490433830 -0.2517992169482852 -1.037021632936451 -0.1075678153481824 -1.855587009156129 0.2149318982184372 1.508130908479595 -1.013582185911022 
-0.2137824586570901 0.8713240670523534 0.7478980154938487 -0.3961086022453906 -2.222540221292851 -0.05272738510057615 -0.3394452632357763 1.742343505885804 0.1163097395078312 -0.7956881120967739 
-0.3587647189052363 -0.9121933600574512 0.4230666693427880 -0.7451500038434455 0.7232926428053849 0.2883910091861625 1.544249027804614 0.9853576144660052 0.3109332157238844 -1.489903071715973 
-0.05615172414034096 -1.458952572474025 2.285898946969834 -0.1946340823318967 -2.668090863163385 0.3059983487042199 0.3901575438504198 -0.4657435297929175 -0.6677115022736080 0.2211103628657858 
-0.7086208731657500 -0.5368254129062181 -0.1900973522841669 -0.9153981247405387 1.532991569603454 0.2137326032606494 -1.636709085004016 0.5690181800402466 0.9187377806000455 -1.281452707641832 
-0.1027827967220678 -0.6941323647052003 1.072543455510366 0.4344892273618149 -0.03664176007335776 0.4049208189960367 -0.8223389646477818 -0.1508925736612326 -0.9560631424499971 -0.3476260898142634 
0.7206278843543572 -2.101511513595748 1.114996767265146 -1.944779213531312 -0.6266867682267241 -0.1175146575334391 -0.2285060373103098 1.574105927043617 -1.906923891997020 0.1322326042402586 
0.1908785264263470 0.4559404283719345 -1.045276336634095 0.1347522174685927 1.032855839746736 0.2719502589519027 0.3480951531221075 2.555327796792316 -0.003747943066948617 -1.010591999171723 
0.6925065319398079 0.9133514971901306 -1.576251918393800 -0.7946599263082295 -0.07519098500167157 0.2836934958424103 0.5693243586470216 3.039950038214561 -0.1829990153473307 -0.5220498151500725 
0.6996818653830784 1.341335820704375 -1.035340965376549 -0.7695312115168688 1.453176894083400 -0.7348615294587661 1.282990530100800 2.201943410741776 -0.6642042224247688 1.474070190833996 
0.1758504871978554 -1.851331265161470 2.046500459640500 0.7007035336493223 1.283538295665252 -0.8943758799551131 -1.184686283751812 -0.2658292081369137 0.08701752308538774 1.484782137492161 
-0.1394139618427362 1.440197558154796 -0.1482297777052251 0.4454677463922985 0.5086570426275029 0.9791907327659107 -0.6169293713603815 0.4554072575777453 -1.853876016986130 1.098904892207693 
-0.07143264723736290 -0.6064067927288250 2.280223123166042 -1.748712819801652 -1.397197284256757 0.4947611507189920 0.8463146317563365 0.5751226068713733 0.5019630175753549 -0.6374960230136704 
0.1843513669130550 -0.4473558001273065 2.601218356315322 -0.2968241635831167 1.273291779403567 -0.2075169788042565 -1.124288328178009 -0.5983866427488873 0.4067810705135507 -0.2532848181042137 
-0.01332705395716380 -0.05864507949075309 -0.9391803863076982 -0.6197224244846946 0.2474643950492296 0.2088885941035593 -1.269531118359746 1.304992830570438 -0.2211734725642996 0.2245053677436165 
0.8347037714191994 0.5815272717948353 -0.2116945947687945 -0.3397415926443265 -0.1709567126019167 -0.5545229630628071 -0.1357519548957655 -2.672602196037887 0.6625878658444689 1.194508372971389 
0.6130276597044476 -0.2725714042467818 -1.574703383586929 -1.013205609609202 -0.07109099580032478 -0.2851149120211226 1.070206157927091 1.918311420782751 0.1733017871904639 1.283026620759995 
-1.087024240368463 1.018705152377714 0.05576195011128571 0.9915595532243182 -1.808635277796428 -0.3816763880938635 -0.4752782727792199 -0.7499927835003697 1.166338696034302 0.2558649253830834 
-0.2597329744352177 -0.3196285879978484 0.009337860274511472 0.2452170556197901 -0.1976618799140197 0.4374483074392852 -0.6306783402668480 1.966872058301672 1.340387599281176 0.9940201565861561 
-0.5743037651203287 -0.9506573836626537 -0.1895498974012143 1.299094819726652 -0.9725135056303923 -0.6743960337515456 -2.219436759187923 -0.01662467282764746 -0.3047775738810818 -0.1654489638026462 
-0.2276817578381566 -0.08929284011921111 0.6629861642089090 1.496032890308441 2.094494423256348 0.2390489448100059 -0.9853439886289990 -2.064738762115895 -2.180980487643291 1.666976101196156 
-0.1187683926458026 0.9668356159946497 -1.783958957683212 0.3376817035619975 -0.8130109144994164 -0.4426096949747865 -1.285772201423915 -0.6995890910380900 0.6973566883325046 -1.042071709125895 
-0.1609413041549023 0.4942851503802678 -2.010268176216408 0.03545925931626096 0.4081577982128354 -0.5831938833264869 -0.6329380928124595 1.652134565176721 0.8034945071141328 0.6808567713733298 
0.2405761394835260 -0.1330775797008451 -0.4468336823909850 -2.342766942165802 1.153737136050252 -0.05721676892112916 -0.7927244610001227 -0.4889536839074725 2.643621173905997 0.1963362352855140 
-0.4078359205658002 0.08855672393606137 -1.602468020904384 0.9109430820375064 -0.1564015947122780 0.09724777194640627 -0.7756054245328450 -1.181963768587930 0.8660279545421116 -0.6537230108593671 
-0.4633467862177849 0.5658336155067009 -0.8857708893067733 1.737164537033026 1.533492519505300 -0.1766962811208369 0.6695718012066469 -1.926805609989563 -0.7437626515537976 0.03035287989212293 
0.1432183311519454 0.1505161078144026 -1.174370714087270 -0.7197782657447942 -1.139134534698429 0.3876531733847696 -0.8479079636816289 1.725537717031989 1.070627517769970 -2.432993779095241 
0.7399922254508232 -0.6859578089291418 0.1784488929002896 -0.5665735894549878 -3.376840592415907 -0.7554600798564637 0.9458918957205324 -0.07487320083512783 -0.9134493547797894 1.042686111222140 
0.06845134430366914 -0.1903116972019668 -0.2624404584192611 -1.151625868984706 0.4192217044360457 -0.06501242345603452 0.7291779629005688 0.1327486504749608 -1.152730137368357 0.1956981114068818 
-0.3645620304317758 -0.09563504687334845 -0.6444616278526560 1.405322150352570 -0.06598544626142433 0.5542095247412172 0.1759129000535590 -1.184553653851179 -0.7977423637957969 0.8470998032302930 
-0.7683398649639854 -0.9433854655192688 0.008809382648832131 0.1439316229306191 0.2339135516055365 -0.5580437926853644 0.8295069124267888 -0.8050107126091672 -2.202093293133024 0.4270306044902388 
-0.3571720466265713 0.03988735747191539 0.5366770216946397 2.752368428746798 0.09766156022424109 1.147164978542217 -0.9005163695470346 -1.186459522918215 -0.8715492289507409 -0.4378781560129395 
0.001485094861192228 -0.6694701388229659 0.2586584526135419 2.052118951018001 -1.348594994610844 1.004664051413629 1.247585815574881 0.5531639014145899 -1.135703497574950 -0.2265445292125099 
-0.2657217721845323 2.283732311479196 -2.044776450100461 0.6848096576298914 0.1079373308768291 0.9697678019892613 2.098966797839351 0.1761806323195320 0.4708128926948038 1.327146161753429 
0.9732829679959989 -0.3992420817891800 -0.5770499413277838 0.3036456410021409 0.4075706143620592 -0.3081162557896449 0.9033907151043321 1.756589909365024 0.2529841184537189 0.7441685879984445 
-0.07135050784242003 1.577072433234275 -2.098438146237148 1.960103394820039 0.6735448908891337 0.2364953290206876 2.142929890403587 0.1863759693485211 -0.1535565577714041 0.9069311460312182 
-0.4365657027419800 1.913755053162003 -0.2439270874913364 2.460728351201976 1.267408236579531 0.07666204927414039 2.943386261018577 -1.461331415340095 -2.710767679306981 0.9140435974712803 
-0.6057892212115106 1.051759675972781 -0.9982136497724452 1.759055183448173 -0.05439711609384849 1.493784660451433 -1.004368368533748 1.024075212998042 0.2402300054480072 -1.169682964910261 
-0.4054652268744245 1.579495064345789 -0.8364123451076144 0.09820901792759909 0.8043748191728348 -0.08835478275645176 0.8517729492333297 1.232604534945552 1.114046672749697 -0.8645235268872840 
0.4910499122326228 0.5356789147042291 1.003241535702056 -1.455614174125324 0.1123196289745287 0.2092910468789857 1.621145488481682 -1.102155465252326 1.205560822066405 -0.8913471523838690 
0.7260852173869660 -1.595401187322187 2.111433266920283 -1.660335096552989 0.3328091974096910 0.6522499093138769 0.2381040642742478 0.1047174445416291 -0.9161204542896723 0.5940759138059832 
-0.7747257477959568 0.4892074748641100 0.4711535796001223 1.776309684910704 -0.5756281458412478 0.7050333396591346 1.888304154173573 0.1894610149612024 -0.5522733269029145 0.9247436228559985 
1.364860994645035 -0.5930514933487699 -0.1416831459920137 -2.301101686546024 -1.712363054256596 -0.6601763689961440 0.2644847307012362 2.405109970319823 0.1433630381441889 -0.4856405426638980 
-0.1501479102642917 1.136827986262663 -1.989359134311294 -2.636460994223064 1.156417646969613 -0.3931961314801937 0.7878733752664149 -0.006795141877077804 -0.1896769734469803 0.6948423294741396 
-0.7825306727923231 1.669878877950982 -1.392034683529295 2.337478935791092 -0.5371372471510372 0.7889730595642319 0.5084700503543257 0.1154063166234037 1.833874437861273 0.7023877211552207 
-1.150549666288270 0.8387856381909910 -0.6122602371233661 2.196895653849555 0.2621076766765276 -0.3196419617496079 0.6906675006637450 0.3367475781616974 -1.045944699927466 -0.05674815617073481 
-0.4359294149349057 0.4219619743218059 3.598130469171482 -3.081977622819867 -0.2237325670544532 -0.06320246163876950 0.8268058565082275 -0.6391401038536922 1.188256265366640 1.398054596373444 
-0.8459575365373521 -0.2791984207704628 -0.3108793105117949 -0.4061923440609336 0.3527595344296115 -0.9396696854474816 -0.05989067261852843 -1.512118658999496 1.223720123456771 2.511244890615012 
-0.2532070712424588 -0.4394461617651159 -0.1464943624575436 0.2485707266494161 1.960134992364160 -0.7610007478554213 0.9957072698768114 -0.5718481313147395 -0.7384721405016856 0.4765837597964168 
0.03796612723168988 1.050815855062125 -0.1611993107102201 -2.523756961064348 0.7208634983446379 0.5829113289895473 -0.3708413659225264 0.1330499431603593 1.407163692972192 0.3427194702660816 
0.1112390549678677 0.7961385433289775 -0.3346531074427798 -0.5599904390303132 0.9731409429491213 -0.6312967206487354 1.778795674310492 0.2002782685367405 0.2152517479021340 1.165309643126564 
-0.4807978464138737 0.4936355200933166 0.8757892742649026 0.5944746112645319 -0.8116390844777326 0.6651440036770928 0.8830506212410804 -2.224147770938405 -0.6691133127090331 0.1622777101107562 
0.1256258986736625 -1.130572842605535 2.313321816338577 -1.260530853348287 1.456652930027270 -0.02397120738184894 0.5467481978168404 2.339659892211287 -1.796883265970949 -0.2406363226962976 
0.2242185492397318 0.2431143572864566 -0.4972912100088975 0.9349384226648143 0.08094478307372419 0.1391163280764672 -0.6927023219175094 -0.6445366485402055 0.06449970442763381 -0.2056516445038696 
-0.6845996034851971 0.02615755209379239 0.6034518074908806 -2.606247784880230 1.907132407029189 -0.2998759347880578 -0.6353870147610645 1.450822023921845 -0.3005205477664143 0.4916448576898354 
-0.4594095921698386 -0.3452820167476933 -1.149729114851073 0.9779128125805279 -1.143680225407695 -0.3533833772213088 1.157647217740585 0.01534370349066161 1.711277842300744 3.153816770532417 
0.005982960155058281 0.2106053538903704 -0.2013754021943020 -0.7314834234710091 0.4672645267092613 -0.3614406786205059 0.3134911927186510 -0.3482256700093792 -0.3809096089208670 0.9888861510675753 
-0.1537579872734350 1.500058037870526 -1.147181478604877 -0.9853623802254772 -0.5882395778341006 -0.2031364040708023 -1.035968755737680 0.7633828093249240 1.138575030132637 2.471168389865815 
0.4050346631921009 0.4514237985345234 -1.694736014858662 0.9725686259621739 0.4107985782191396 -0.2561770196394062 1.098078879381315 -0.3766795283030935 -0.2327946050463144 -0.06008686856320417 
-0.7544678990892448 -0.4441753871268206 -0.4910646489185850 -0.1625486717133429 -1.048558204568328 -0.5187301290736335 1.986436701275016 0.9968167584442784 -2.020278282141750 -0.1570660923421978 
0.4642011481977327 0.5770860884965815 -1.113940528912457 0.04357191567064199 -2.089077292383591 -0.3326739678160788 -0.004442469458735221 0.5680266344960208 -2.008612040509988 -0.9534547147241008 
0.2276950862731891 -0.3016007322499111 0.6518062466584922 -0.5302520474021479 0.7079135897332308 -0.5060571951418660 1.528330323447400 -0.05749315910828418 0.3906786877474640 -1.389960830430296 
-0.1507271002035945 1.002116300948882 -2.149622192255241 0.1966973401297451 0.4182066355030649 0.9600883008486079 0.4168293333961413 0.8979585991336588 1.433193570079271 -0.5630836775647639 
-0.2858859647607233 0.1140786662395394 2.110303929023645 0.1084314766134832 -1.352166308215622 0.2711114710307058 0.4595770757942167 -2.521441048924064 0.2359984119457440 1.100360421306226 
0.4624750920257538 -2.247448382785333 1.438935162994284 -0.3068996895799283 -0.3758476760192268 -0.2818007180343859 -0.3780029812526797 0.2868775444298229 -0.5335207782318939 2.694142631899784 
0.3513318504154964 0.5899460512735776 -0.2786865972158860 -0.09172713774400076 -0.2508615731130824 -0.1755064051950147 0.3137301300585471 0.5895150233538013 0.1220435729441099 1.270868812411763 
-0.2549163423668026 -0.09103460613623761 0.3988750746481406 2.020551906067762 -1.081185394997848 -0.2702210850568241 1.426398751646419 0.2548990892552053 -0.03473971966351894 1.073270184502562 
-0.2069697690037719 -0.9553867324165148 -0.6746553543500129 1.348758180126381 -0.003298650619916028 -0.2812705047751506 1.262073060893716 -1.132653497646317 -1.885508874382143 2.163821931023360 
-1.191157523087388 -0.8611421225936845 0.7262822773310796 0.6545604086154528 0.03427436964657152 0.4551285720704965 -0.3143122459336981 -1.443684531841666 0.6465709375773887 0.8108079499408908 
0.2035062969615663 0.3053326974921012 -0.1643201789189642 0.9801438658524908 -0.8236561867444006 -1.367333374593782 0.4645632189668628 -2.331790749462765 2.641958910354452 -1.489683452053881 
-0.5941489171272094 -0.4970618694382218 0.3813529345406364 0.8514968206756419 2.700319100110812 -0.03908744380997803 0.9969891528377985 1.826128760270206 -2.893395531175662 -0.5382180126362647 
-0.3115469418835241 0.7788164023640330 -0.1656872346635269 -2.119247300079600 -1.547093491756313 0.1850188744864393 2.117432386418145 0.2774559018724392 -2.355046343860820 0.2290290314176839 
0.1765984847409216 -0.6088798672887393 0.3072030193985532 -0.04205732643495008 0.03333681011089264 0.3935527933280429 1.419123361940033 -2.069188538162327 -0.8676264354938013 -2.016147672292654 
0.7132606317334004 -1.469532834032856 1.339693669222901 -2.256172858787937 1.133486712384841 -0.2929108509942184 -0.4659381646348830 0.02232869839531287 -2.311650941999189 0.7540626164468067 
-0.5069730948939640 2.004110674021807 1.433425765167760 -2.936799625626808 -0.08416231957627422 -0.3943666221410609 0.5287829033557578 -1.894963050672381 1.022729099860160 1.424360829895420 
0.5697085141503588 0.3260135264493453 0.04611534543902646 -1.309336051278547 1.667883854252080 -0.9284837907911474 -0.6885099052656553 4.161406903098007 -1.054425797083832 0.08240781882509139 
-0.1205776598620163 0.5602555080104625 -1.200030698610164 0.4198552855573011 -0.7040006316035269 -0.3283330827754997 -0.9082026496254534 -0.2938147857775152 2.211174661020971 -0.5175004704074013 
0.1487490879591397 -0.2372468271883079 -0.4047875774044707 0.6333619311240719 0.7760891657596076 0.7141540081490680 -2.923561297682921 0.4068150457126732 1.136491133889751 0.6839024359358112 
-0.6042917630496946 1.196363594517409 0.5047331352015513 -1.195589402393058 -1.623864475209352 0.6630748628536538 2.757162598486666 -0.5317316057750944 -3.847736829631218 0.5653952884690305 
0.03211640811757607 -1.467011118924702 0.7712956231615417 0.4253251180551439 1.876647816707202 -0.4641266489449643 -0.6403970589642893 -2.311694024021703 2.628191701005862 0.5013872120520823 
0.09275633054959632 -0.01878034912957971 0.1464859881901425 0.1684205255681873 1.280701299732621 -0.9112091642804802 0.6053121499468863 -1.542521120913756 1.644960294424692 -1.153241374537992 
0.8873370250852293 -0.7593233070936588 -0.4970648479249369 0.5600122953281461 1.508358322645372 -0.07637517243108724 -0.5933570556446885 -1.061331166672741 3.309796250906597 0.1070893831898453 
-0.4236809099270600 0.4296813738373483 -0.04762454299593982 -0.4020361077297369 -0.5783332520188297 0.07523429498310719 -0.5898208949039182 2.707408588151183 0.01098172107022455 0.7498754642003453 
0.1365408225716338 0.03552260331187182 1.729686034720757 -0.4979121690153869 -0.8052142825718169 -0.4981237073325580 1.420454592730950 -3.212690263439996 0.2023740395636671 0.4669843329759619 
-0.01269369549512945 -0.5507503041747200 0.06594104082444813 -0.4530613905628594 -0.2201426053788335 1.343859846068377 -0.4845584363090248 -0.09613132303535447 2.513860507740175 0.5558411600811956 
0.1390656115503127 -1.131263494188429 -0.09089444683547479 -2.442602601240451 1.072658443999977 0.2589054073202681 -1.333423919140002 0.2853304416216186 0.1184367327441882 -0.3089770950968224 
0.4073035009432076 1.098314805760309 0.1875385041227470 -0.7164228961837615 -0.8082972105461026 -0.5489399681010934 0.03236642280181923 1.596151318500256 1.379523546619405 0.3572898844977064 
0.6380615073499389 -1.141398331509104 0.3786123663904726 1.483475279362397 -2.220247088280963 -0.9843901701253674 -0.5879884467692584 1.515688076720637 1.287695709273683 0.6942528943837628 
0.1494652105299700 -0.1992758517185065 0.7041665766094272 -0.8956078362373258 1.350381175923816 -0.2230473045908667 0.4384373365687556 2.662765699750959 1.203044217034659 -0.3394153514475168 
-0.3072720886735681 0.7393868270744164 -0.4481175578318672 -2.857979284957793 -0.5610183855750542 0.8825134140382689 1.322491913532008 0.2604641603788039 0.3889051879280063 -1.328169892679598 
-0.4561342445537426 0.4875584869412154 0.4378897023062492 -0.5308414388974761 -0.5282648923016297 0.7963892466929685 -0.6664827969669161 0.03878650114061988 1.944180890252943 0.7075253280538796 
-0.2553014765403545 -0.2749283635646667 -0.8423431480256549 1.205083690525038 -0.7384300836836283 0.4800375948810825 2.062856323638954 -0.008054993869233750 1.279397455056461 -0.9848423294120930 
0.3088120945828373 -0.3844445202034252 -0.3398839765342858 0.7409825318801581 0.4396390749362675 0.5982631560380506 0.7116487418123737 1.768357987173696 3.227384241493082 0.1621966481159878 
-0.7619097652248888 0.02694932037532505 1.444305819427397 -0.3955461205518238 -1.701247655849377 -0.1076821990243685 -1.006011594814884 -0.4582988957140193 2.151515068157569 -2.367724469857717 
0.4481060491024986 0.3887100899530543 -0.5890626405932693 2.020675391591797 -2.902958130412814 -1.254450249080181 -1.596401514889099 0.8232370247301427 1.050334362317420 -0.9248025685075812 
-0.2047911176292749 0.8286831696860905 -0.1819115946411887 -0.1234486997955213 2.657984319125265 -0.02485918487582549 0.2265465374331770 0.3202996869756611 2.297167400732993 -0.07193847028388665 
-0.5202542186423101 -0.5434133265502077 1.205967124996406 0.05451704412159403 -0.3529458738627020 0.5819400332330443 0.6087801241598843 -1.825316795532513 2.201014039382293 -0.2514125807842794 
-0.1376219937822547 0.1201602394138600 -0.3825353703760621 0.2343528659217227 1.953372106750598 -1.042854170717294 -2.629048239320583 1.122993371636730 0.4938298862540242 0.4118265939992604 
0.3072151078663842 1.153623880819575 -0.1598853183651405 -0.2040007587215597 0.3983808637125055 -0.07466479296284753 1.529491412343154 2.405487085919499 -1.738993747267225 -0.2014758217795589 
-0.05462122827798961 0.9227868291571781 -0.2583001379629923 -1.067190445392442 1.321844894269432 -0.4906500150457873 1.573004181436037 -0.2554836482836687 -1.382294330328778 0.9766297831923838 
0.2031907013613712 -0.7940730695865781 1.074908241263922 -0.9144428698563891 0.9389304014062190 -0.2381500298421982 2.226085721568013 -0.2157373668110089 -1.561147553759871 0.03219052768079930 
-0.1970422786813221 0.7314171386089119 0.8481410948912315 -3.191131557351511 1.091435978978773 -0.6131448782539201 1.859860887315184 0.5672047935126565 0.4895086955975353 -1.615113855677328 
-0.1649328400267076 0.1724284286237396 -1.084110776102792 2.330447130861290 -0.8969674165840138 -1.020766167964941 0.8225255005174867 -0.3231480851823785 1.962840438577384 -0.5663801481832372 
0.007335192626882550 -0.03663543059343891 -0.1498408771816678 -0.1368799593485700 1.094659735188762 0.4019534090272079 -0.6382035178412937 -2.112868202068172 -0.4135738312372522 0.7269625608102040 
-0.6159923069938855 -0.6746174788751653 -0.3621885423181330 0.4705344622002760 -0.7065016114939869 0.09609503225290321 -1.578669325903327 -2.225720769070700 -0.5292229081156086 0.2424733211143038 
0.1182693754101776 -0.2417906860691392 0.2784635594088483 -0.3574843959671407 -1.375401324586034 0.8067731091625960 -0.04083042324860811 0.7202026981897558 0.4623435310398523 -0.8645335218122424 
0.8495643341956556 -0.2256311206542210 -0.5121328683946230 0.9156133186614960 -0.3192833591366162 -0.6268662094064666 -1.253708625343860 -0.6499059745810082 -0.5729627789506280 -2.157196362639775 
0.3347370628564519 0.8446592956835757 0.1650184102674505 1.170218688494005 -0.9353486718158230 1.206485278645515 -0.6398232955400088 -0.2534264509539183 1.860719830877385 1.048110080155589 
0.5069647836188715 0.5752460827927157 -0.1109918533821999 0.1055714656521897 -0.3312576732497007 -0.3292242691518547 2.136354387261934 2.600944700071636 -1.794592085435899 -0.2560612001570530 
0.5565655750104824 -0.01096761687617134 -0.6375379556243512 -0.4444023657404808 -1.954650257571320 -1.280049231142668 -1.322319623585802 6.588123883627190 1.937453770872391 -1.441639118943098 
0.5530259315086717 0.5385245500614941 0.7211357312921085 0.5632170270886610 1.712371631070789 -0.7584503762288605 2.502541798662668 -4.613328748768602 -0.5197092390914705 0.9858892987798146 
-0.3960101065416007 0.6317937894777066 -0.1573856452994352 -0.7308294961307442 0.1013289491552603 0.6635447639704177 2.161039292979277 -1.730990704086805 -0.9324288002850105 1.761907758430936 
-0.03297873601427179 1.043385298799856 0.9208918380815864 0.007353644699154671 -0.7127491095848819 0.8565563243580905 0.6560750082283694 -1.349595847534745 1.677589859021392 -0.8947456297518368 
0.1668314625205622 -0.7161337925441418 -0.5102514950359041 0.6682837378401143 -1.323191883389411 -0.6753413769411925 -0.2776729979538588 3.216337453633747 0.6568538185151974 0.2783205575747648 
-0.2772597326464998 0.6926058586748598 1.339543154829996 -1.109609283131650 -0.1576965084754445 0.05272876865217076 0.1305740036728175 -0.7034151809462124 -2.348839331939492 -3.427516031203967 
0.8381311782443012 -0.04323431745980254 -0.1272150431275759 -0.8761131599728034 0.6640550012737956 -0.1644413003969628 0.2746651626567142 2.058112206685794 -2.044726004468190 -0.4200936936194582 
0.7781461419476711 -1.225204389844590 -0.6063107170438280 -0.3077653013328721 -0.8478809236535892 -0.5625571891413870 -1.765204807860372 1.030692466449034 0.1393192251338630 -1.452298523063916 
-0.7647531853044202 -1.404036718065961 -0.1002707319891115 -0.2379152688008021 4.270606352692391 -1.047237914515994 -0.4851503031098898 4.766536631867038 -0.5181705764187027 0.03724827738473838 
-0.2115666476589235 -0.5266222946249267 0.4415020790266385 0.5698047354816642 -2.160088397547251 0.2887025347614244 0.5487336133259393 1.846027189580218 -0.6809275103570366 -0.5983840022762489 
-0.7637695890383288 0.005286846760309158 0.2428314502939235 -0.5422355051577821 0.8218640261675384 -0.5380058846912072 1.591377741207908 -1.474976652163719 -2.944736003184339 -0.5211647444009647 
-0.04686681947549437 -1.002544583402722 1.115441008418969 -1.033183695399622 -1.973053469313193 -0.1748599428246176 -0.02601980800478494 0.08367373320573660 1.727869996607557 -1.954349633969351 
-0.3173624056030193 0.8280374127753493 -0.5552127654850632 1.113782004506581 0.2180120522451085 -1.022749948698524 0.1266380305185691 -1.599517812825833 -3.571550927745097 0.3240234411341137 
-0.4922666287396749 -0.5437134263794613 -0.4863524745416022 1.283849063515221 -0.1979663964719446 -0.8561098441191284 0.4695336721431260 -3.733832030911014 2.942958945079068 -0.7424496677696845 
0.3389687681940505 0.6450444796287951 -1.266025874345957 2.686821539885433 -1.606415552192317 0.3730115361869121 -0.4384318644787142 0.07954254022260720 -0.6024641625951673 0.8057081566863870 
-0.8342316726833561 -0.8825572689353842 0.1535774417589934 0.4930064963072774 -1.899873350537882 0.5577284094194167 0.1466503533768760 1.701078481928845 -3.310379258674948 -0.8288292595555039 
-0.5332377858947802 0.4147615961564123 0.006611643959089197 0.04065069213735514 0.2631621931760399 0.5565987436123782 1.136562415497967 0.2439375489040027 0.1230944093625467 0.1320708597663079 
0.04333100059338989 1.598821325000011 -0.4835628342842462 0.6239535512031293 -0.2736368422333653 -0.8101822490918165 0.6395623820715849 -0.7486199649748739 -0.6138370829561783 2.316773366576798 
0.6802382092844512 -0.05919989488643487 -0.3718095045673998 2.163537241715853 3.602318711872980 -0.07438995562069406 -1.292444272085370 1.927651609234474 -0.9505002571079031 -1.562545548093317 
0.2317124906051845 0.8159345469338756 0.04470945338145285 -1.419054362800310 -0.4428766583921195 -0.06771423969284546 0.6956866985728036 -1.858030748454432 0.1651940398987815 -0.1179238856380762 
-0.5004946476924559 0.9640738553491925 0.1442749419779873 1.454636252696749 -1.038899239345507 0.1244374273446444 1.125148414361501 2.089587492357921 -0.9509395540163632 -0.3263543910551615 
-0.6529633488047513 0.2528887145472958 -0.4635388113652757 2.005714104187329 1.034419665304202 -0.3502328421911156 0.2374026559170178 -0.6350451744665149 -1.254992750667926 -2.863282332948723 
-0.6405497380815977 -0.1223912991028106 -0.7402916445604839 -2.723437225460617 1.662643022997101 0.5863929012126138 -0.2892235864221809 1.539822129903236 4.889207161713857 -0.8220298187903856 
-0.01424374248120714 -0.9604539056565738 0.2464308501071913 -0.7421665208363585 0.5536260530776891 1.133992509008270 -0.7656113780474506 -0.04836838868382778 2.838529538778241 -0.5180758308582553 
-0.1120190819544196 -0.8728954161186694 0.5421892206055955 1.385337397486364 -0.5433457976977776 -1.124188673459436 -0.1660509958978758 -0.1285299890233827 -0.6325827846738210 0.9060443341561627 
1.249833677439636 0.5880557245452966 -0.8672494734341244 0.4860249736190010 0.5480180805558266 0.2950319066225490 0.3999246715763488 4.401823281414475 -4.032037548639766 0.8359947466428177 
-0.01979833409426350 -0.4850433741322920 -0.01956056746842710 1.222856207243170 -1.559242917417897 0.2983178915697386 -0.1550632576422793 0.7728690501729304 2.820271859993536 -1.405743100576250 
-0.4000462058077695 1.294636568206210 -0.4248124976946168 -1.669643415810374 1.702714043615977 -0.5942768318374778 -0.4538310953710393 1.918812173215039 3.085949771328209 0.3832239534717135 
-0.5843582422555244 -0.09262987912090531 0.8506440893680975 -0.1736533538458167 -0.3140954572468001 0.9874065051063203 -2.012601259903923 -3.984193500581318 0.8582618653746958 2.236632437160669 
-0.3314655168266786 0.004630282571148059 0.6592193999967373 -0.2075739534466469 -1.440171528376141 1.133175267929873 -2.071921423839402 0.4926516632398743 3.886810793089426 -0.6192626990139283 
0.4545147747558756 0.7538163837263505 -1.174080398095331 0.7745426070649937 0.3474296610998643 0.6946181979684933 -1.136393206988417 0.5699253253826557 -1.270048337341220 0.8710238463627078 
1.001263828946911 -0.1108702676239091 0.3153748386184085 -0.4549418394205229 0.6749467494634170 0.4740618977740327 2.523381547231937 -3.290917363282422 0.8778349946799198 2.188439819598750 
-0.5412739676351317 0.5067573918593358 -0.5989766683882004 0.9998188935374760 0.8548105045263357 1.352101685817740 0.4811678411646613 2.887576694961239 -1.460811291101847 -1.093644239752994 
1.167025689447433 -0.4980857753322510 -0.3766212254180503 -0.6435427700066734 -0.2503657114311599 -0.8321536224224757 0.1494669679485084 -0.2598035444892125 -0.9456627445752521 0.2022770488055699 
-0.1085451930953915 0.6991014067490535 0.3178622618105349 1.469467988111170 -0.4785079458372794 -0.4134552592321094 0.6498538799241780 -1.643174067539622 2.447931550283753 0.2888212260480320 
-1.044531079266033 0.09817891232616802 -0.1052451169208695 0.6461429832840610 1.624341066458785 -0.7971939714984565 1.748196148928632 4.614794408670606 -1.116965273394556 -2.189637571387219 
-1.255943213588366 0.9164759922220029 -0.6614986122404554 -2.141832825048794 0.5275654714209964 -0.05356030366543260 0.1736277231575115 -0.4459810463691603 -0.4535587275782668 1.372305569080248 
-0.3662886573090562 -0.4622718639652209 -1.078876169733435 1.511391113086267 2.158572711736972 0.1629054930156583 -2.871750364673963 2.073653317874702 1.418539040029704 -1.991706635065171 
-0.9227833767634009 -0.5242457100319956 1.241220036348167 0.8712402088602985 -0.3321869358806679 -0.8497232173332516 -1.546276239150100 0.7738837289860743 -2.597384123980554 -2.962289494257567 
-0.1748408662402816 -0.04256535635908925 0.9463397770800788 -0.4355097876470790 -3.510567773865308 0.3634958598495824 1.801805908958369 -0.2304575886559523 0.6495527828386262 0.3475041610871197 
-0.1092787689724702 -0.4330491512301836 0.1466446891543128 0.6084804508420474 0.1201763254192221 -1.791107156118335 0.5547832491946263 -0.5566118093542358 -0.1226014458325415 0.02554071934318619 
0.2973057225799577 0.08847693322927622 -0.08663097887976895 -1.566396498185594 -0.7610931309619375 -1.410145048874473 -1.136730271998900 -0.5841899338376264 1.958454805809594 -0.4120478494785560 
-0.4223229002229607 1.409149371724809 -0.2337876013655490 -1.742389820147323 0.2330377243329393 0.4764161064460775 0.8944339709520331 -0.7754207382315317 -2.599201170983011 -0.3186803100543493 
0.04686274767449761 -0.1533814259974468 -0.3229987544908652 1.750633675437347 0.5843316779831323 -0.4372520552046223 -1.136249026535495 3.392985482512176 1.224229059803119 0.2180739644132195 
0.1857014491750736 0.7324243462129088 -0.01967634273176875 -2.002200115653446 -1.251158837940471 -0.7422942480920060 -2.017120237774233 0.1756467702918420 3.280710811232763 -0.3753934913070336 
-0.3408569854748397 -0.05167342146083201 0.3217669660671887 1.428736361755731 -0.4272763140354697 -0.4579738657662952 -0.1646433652739219 -1.867664959583949 0.2985940449896233 0.6604652165978067 
-0.3277882286594279 -1.285511743420143 -0.08433699669987871 -0.1613813452756470 2.763589926837867 -1.095757353348130 1.144118186063313 1.714371321957167 -2.903869140828334 0.1118066225967495 
-0.1059651819931087 -1.047622120957051 0.9844334783650629 0.05130250734982350 -0.1607074190916327 -1.499155752133243 0.1266763257439771 1.774117134987684 -0.7375823677445523 0.6031838865005282 
-0.04957372771944756 -0.4122958275272816 2.205935290075144 -0.06249986902468457 0.1176463894540780 0.1644833028313392 -0.7806460918328191 -1.188816465030865 -2.531031811837620 1.002858362548602 
0.5994215810964709 0.1534021300600494 0.2423735459771048 1.473851186978649 -0.7483430075602026 -0.4915458563954281 0.7672076911968572 -0.8447245348728702 -1.492458751339682 1.406560119942182 
-0.4754999242137661 0.6627431297970636 0.9469223729028087 0.05891117407080387 0.04073144390550861 -1.447076127604562 0.1743880037025382 -1.917394156102990 1.443944948595481 -1.191782935001321 
0.3403713365570718 0.3419740443970140 -0.4206050252473829 -0.2222447065545667 0.1644445642567138 -1.128490182643076 -1.507123839999502 -1.116788059433251 3.415153092489335 1.424478140898559 
0.03016063077930481 0.7494801758590728 -0.2114892285536772 -0.7718210189582244 0.3407129869090463 -0.9438002554667753 0.4226628335334474 -0.9927151106878959 -2.399058059543143 0.6759414350697659 
-0.3292265098439768 -0.005547312718687068 -0.3763175659579715 1.270187011808225 -3.118206781745771 0.2541984624688524 2.219182904130793 0.08794268752020798 1.452930646901667 -1.057383864059856 
-0.3553471709038246 0.2062260280230595 -0.2336724287251157 -1.900521724369308 -0.3131649046262621 0.4727359492464428 0.9748762790916392 3.306413923276778 0.7065808336593487 0.1104447866101264 
0.6231049992742670 -0.01281198068691802 -0.8492005187787783 -0.05663129556538134 -1.302590112939573 0.4084819284851873 0.1960545009677116 -1.126443494654411 -2.618231494126628 0.1302184831727291 
0.4055118704737912 -0.4086664550073876 -0.1244136519649869 -0.3674073030814126 -1.383991602167031 0.3503309412866544 1.100213161266050 -0.4795551638225383 0.4101405379169569 -1.524560012681135 
-0.3367500883612352 0.3703150164041319 -1.258228416320124 1.601597474977479 2.839732042341777 -0.6408260160625135 -0.3318448375188237 -1.546882038553624 -0.3847515466553585 -1.193020998368336 
0.08874866425040145 -0.1271417455546186 0.4944149937017581 -0.2985026872938547 -0.6896400579487938 -0.07555339280636630 0.6296020713194247 -0.7586053135502197 0.2399891062651964 -0.7770489530678525 
-1.185263598582780 -0.3369789809831157 -0.6047577213010937 1.213146131079170 0.9735740082575848 0.08967157762750327 -0.3568215087172090 2.547137522541590 -2.509147042914083 -1.617340481196885 
-2.275271512590506 -1.485334119201073 -0.5266654477322125 -1.752995097525171 -2.345508712075414 -2.601110969483003 -2.687224388528618 -2.782745143302516 -2.239306903770511 -1.879924210989161 
-0.2157107860910870 -1.805294213756586 0.2495466386097927 0.5376583162035186 1.489447326493115 -3.532980753261012 5.252058759809168 -1.073940449348176 3.730236277571804 1.601271920258808 
-1.293487815163910 -0.6357546483259118 -2.604515117488631 -0.3950640527699300 0.1536223820690088 1.707043085642242 0.8864041240453793 1.411886759213124 1.417357200562776 2.589581360760307 
-0.5870456476487300 3.805345284304466 -0.3980087579381922 -2.642637333873399 -3.661982629382522 1.509610866205481 -0.8206974419670072 0.8746209416535228 -1.715937765592582 3.467958186899837 
-0.6585125134097645 -2.463717067647051 -1.208739258764330 0.6848655702679192 -1.806203217421672 0.5937077475268884 0.1024135987741297 -1.915558367948662 -1.456342270373765 -3.884904923743542 
0.3673407591963321 -1.886697595125344 -2.587293728429187 -0.9810999243958506 4.455051841493670 1.760597966118321 3.322643115721343 3.732121447996030 0.6097134504327483 -1.265431782447000 
0.7067437427483862 3.102720896345076 -7.403478675219709 -6.041458829260082 3.419672649711124 -0.2983300081772358 5.154605378134832 1.997584584081269 0.3367139274078467 0.7645797958840193 
-0.1982188352041565 -1.585156021108681 2.576916003207707 -1.323555654828218 1.662146884960137 0.2052314713769146 -1.434204739369055 2.527890201029851 -0.08902152192808854 4.432097385064767 
-0.5368813347173471 -1.929185165115106 1.952616362698220 -2.518509304776637 -1.527025865068284 -0.6533207155208256 0.6870255242895129 0.3914528047296295 -0.1274996826734506 -3.883252193284632 
0.6710467466879668 0.2158271899014287 2.015565961840921 -0.2970805236015391 -2.490890085717525 0.1696897465855179 -3.612628755323913 -0.004279616177248008 0.9618745937276578 0.6290393183261918 
-0.4560403182495778 -0.8254982869180141 -0.8398615113059004 -0.3337807724695814 -1.345093847933535 0.8852289525805551 1.847185304669090 0.4436422630189553 -1.413847551167539 1.579427982002462 
0.8745402509857398 -2.103584497086460 1.593910139489979 5.061832196299282 2.684947109512620 0.05040270530201609 -0.7296470855751066 0.2193763548723040 2.706695832091048 2.109410466322509 
-0.009901003168017120 -0.1464408069429743 1.537208649970082 -0.3925037017705424 -1.229482770756916 -4.444623965653836 -3.052338814353723 -1.478174248122997 -2.051139154931932 -3.273752946449077 
0.9675094851735263 0.7942004353570475 2.262635921040724 5.512164989785163 -1.892787735422198 -0.5874112923257833 -3.206895312560972 -0.3971227238895037 2.240579362668047 2.566599597780546 
-0.6430866678996305 -0.4613319961378071 -4.069077328885520 -2.589540714023992 0.5597438591556035 3.434243531827502 2.793917018956428 -0.3592674278130453 -0.5952685569091284 -4.490467947413407 
0.2002469487757600 0.7225514091528807 -0.2014713148714855 -1.075955805925714 5.753571407085418 -0.5072104522105911 2.543424944165565 0.2495649400906645 0.7646399818391101 0.2828983159336802 
0.3669247692058200 -1.888262140296378 0.5102897681991876 0.1416646869531354 0.9609707270711355 2.424282127464817 -1.356488033893394 1.243907233603645 0.06805052457169003 1.228747778437363 
-0.4426075847390979 -2.202480367941341 -3.321310372841302 2.274720160720303 0.6202926060587950 2.650705970617059 0.4804080236839280 1.285189651554607 3.125303994981693 -0.2409690707678875 
-0.4545633287309435 5.019629012092165 0.7520462768720111 -0.3634109180930632 6.640334769765532 -0.4461542322200451 0.2627729036429266 2.172213659652309 -0.6495594690320297 -0.07803430663866498 
-0.1310137551918998 2.501678530034558 -3.183123445314820 -0.3745958167028833 0.8818816996356750 -0.8835366228617061 0.7705415547308284 2.118771921014401 0.7910448439290352 3.794484250607354 
-0.1800579745031888 -2.515749863134280 2.227231169604333 2.459906067809362 2.431747880672250 1.205653822538978 -0.9439019643029491 0.7229262827638640 3.201649144164103 0.7275555385052279 
-0.02107272411401759 0.6585779877203200 0.2294438928507804 -0.4143918173665007 0.1205377878110683 -1.443479808330136 1.760234409499281 1.319095717665072 3.673167067607128 -0.9403473663797406 
-0.2180512364588491 1.635325779672588 3.641329875440522 0.6346141496392389 -1.423538475660460 0.7496334940925505 0.5746910267519130 2.281056553527250 0.5975724579310572 -3.341769017638649 
-0.7203509794153927 -1.362821297766814 1.266692524040416 2.845850874066748 -3.652018300277829 -1.047352400998721 0.6503370075422722 -0.3039124812846936 -0.3901125702565326 -2.956787647531208 
0.3969606421186459 3.851462178950733 -1.822501498641986 2.221105080994859 -1.234376308661745 -1.727591675844342 -1.337605735368749 0.5605270065467545 0.01149460185869616 -0.4099657429566082 
-0.6954452711713040 -2.178320705374752 0.5819009270930406 1.742900102473137 1.936017963688986 0.5707274089852318 2.441807516681050 -0.3374244286356025 -0.07352560193912774 3.642185111663309 
0.9940656349958490 -2.744863293162266 0.04944895716527920 4.280408742983160 -0.2771475969011824 -3.078820226054069 0.6868411319448426 2.635159928587664 -0.07808081652720852 -1.270589393723152 
0.2720522970178937 1.715951006824589 -0.9290438905100153 -1.790733052855358 5.287246357476057 1.082734714729557 -0.4705040959603006 1.043667207714340 -0.08970563011325500 3.394025621491705 
-0.6009827143883538 -0.4092379673692094 1.120351811770796 0.07810115393951400 2.014729780118666 -0.6094468325484687 1.380604085663394 -0.03894931128467005 4.414645061665592 0.1631526679033477 
0.2775263759656413 -1.559149292463571 0.4409007417083244 -2.915323676327152 -0.3304358012809049 0.03214953696186443 -1.427490590629572 0.7120394783754738 0.4359063603939057 -1.064868847421085 
0.5285914919839860 -1.754125074258823 0.7754050625839091 -3.338456967218011 -1.573229302356922 -0.9473569321337834 -0.5103032658477702 1.216239888716793 -0.04584601126308097 -0.3907633593187038 
-1.025780860229520 2.302970793478424 1.513501691535820 -2.145785598952299 -0.4279632840911234 -0.7408541877694553 0.1234575916362012 0.5869281429190303 3.853779474921800 2.984231381531289 
-0.09603258688031639 -1.902505103213756 1.789105875922781 6.010613341050393 3.795918032968848 1.090484260252354 0.5975370485741192 1.280163704896884 2.223432086840722 2.140822029095290 
-0.2232086883865579 -0.6809675856425054 -1.190739212884618 -0.5471771651896195 1.489480770885423 -0.9172306758548782 4.480429016163379 1.163454899043529 4.086687943387957 0.2150503161802004 
-1.128604447542964 2.539191270324327 -2.859399849872998 3.208354064222417 0.8361179314216688 0.4467104553130331 4.835142167625230 0.7044691660945648 1.314299618620641 1.305851052086346 
0.08584996233699310 5.208250113205819 -1.748552898323024 -0.3106767515054817 1.648823746026667 1.904316477491382 0.4930597149362789 1.885520287413822 1.626988689921059 1.288573144602221 
-2.137616588615917 -1.511258434446124 -1.654354853236121 4.065802799410689 -3.061860890386138 2.340008607680390 -0.5190996288777240 -0.2636475505915630 -1.557214684527161 -2.031668664592571 
-0.1108280723464175 1.303544855762692 2.018341392311996 -2.453128226091806 -3.173217802228526 -1.960500848610763 0.8608301039178143 -0.8932634987158043 1.743714047704697 0.006281588722188558 
-0.03855351505357441 -1.152688645169906 2.019653517558057 0.4876804236525559 3.043231650286941 -1.153727963340952 0.9194144628992371 2.529113465191791 2.649712379780309 -4.869483752917875 
0.7352518374701946 -0.06581663648260933 -0.3832051911862681 3.002137401821786 -3.467745602588540 1.611136586416326 0.1684618710679586 2.721935992536187 1.099410339675082 2.889181984782438 
0.3573530617064795 0.08501887114117668 0.01294171688376339 6.601373576285561 1.403864952192492 -0.1337341367837752 0.2118894800026755 0.2434965932358494 -2.127986670084672 0.3365849014893991 
1.005854199472386 -0.06378182507206420 -2.958418165044771 2.012067175188856 1.837884916491264 -0.5760756706051444 2.920778352602573 3.615259710286580 3.649720579002885 0.6225508015527945 
1.100133593922581 0.1555712151459553 1.722192275458020 1.580401349405922 1.973568877237689 -1.188469077318257 -0.08839070708710040 -2.618482993452337 -1.447539330639019 -2.351514024724077 
0.7761906029179537 -1.333216316769130 -0.8400179462333481 0.4303458964946283 2.452082442119308 2.124995617864509 0.4106930248907378 -0.8293654108765517 -4.724019318664779 -3.911429323522220 
0.1489187815741142 0.8200186395145724 -0.6043389810444156 -0.4898061972365408 -2.377984625783355 0.3773842650454230 3.001403134701274 -0.5645088615464384 0.05611685418860417 2.505095553795133 
0.9321976606298044 2.327636758430506 -2.114153432971077 -2.485295984075379 -0.6266643795516782 -0.9204466575938444 0.9311277405442554 -0.5179576711006706 1.825317787888721 1.670672910401891 
-1.405689246800113 2.601876252161508 3.879276737875354 0.4223467534248933 0.9810857843775130 -0.7303150033756205 -0.5836294884900373 1.051263880194362 -1.963928425481344 -0.1452716251769746 
1.038518270467187 -0.9858657168266112 -0.2836433226952299 -1.683760538896111 0.3891487306696481 0.1496743186926128 -2.429464783715228 0.8655302435097533 1.063111495562013 -2.085249166187609 
0.3092708239933273 -0.7186358551833093 -1.708281680184831 -2.072358426281287 -1.852055983432535 -1.307760955770186 -1.289715568335969 3.051158549531747 -0.5298261313208614 -1.627102270354303 
-0.8665630137702931 1.750650059762631 -1.217327846751264 0.1551505173663467 -2.033945676494597 -2.853426566949298 -2.757031743368047 0.6051765963740976 -1.834981708017360 -4.281920426571671 
-0.2147470614540308 2.125013694870122 -3.180764896924625 0.8450189255999435 -8.259045010200206 -2.008614370070216 2.504640556472391 0.5754345947763114 -0.4550404867013406 -2.645381720962375 
0.9151860318032039 -1.900820530021171 -3.348194252725089 -2.109729207803646 -2.106513647176633 -1.788193915476206 1.125729912594042 -1.859932520301229 -3.233699823185558 -3.669805311507280 
-0.1108880237372366 1.711383275409205 -4.799711359806478 -2.440879559309384 -0.9328335253135527 0.4546768037939636 3.580612480330868 -0.4164755592422231 -1.748405825905433 3.445388799743571 
0.4150084299231593 -0.7803105681280889 -1.614439067190820 -1.823516874739434 -0.7094406843507315 -0.7599193126209731 -2.803741242441989 -2.082171633382975 -1.521504203562003 -2.048659019950950 
-0.2598596528726744 -5.459496133724475 2.720206499724549 2.066510262311144 -1.952621354572039 -1.144349304407160 2.644894057232931 -0.8961117762367534 1.807057863095394 -3.767130905451759 
0.9641959140230515 -4.378018250009412 3.947382604371883 4.171824789983608 0.2480104180378963 -0.1159709285232817 -0.8247727234198784 0.6413314773475509 2.855506742456181 -1.024833870828204 
-0.8328189097638347 -2.387572080006624 -0.03008151249328728 0.8517276265222004 -5.408891141128820 2.091951646966553 -2.073283840675499 -0.3123732622916652 -0.7480412148621911 -0.7416065333772948 
0.05339608449503577 -0.6250823798272573 1.117559249710714 -3.384122022828796 0.1032898350856845 0.6181778276742260 0.3653307438754073 -1.358196200678317 -1.706736641626432 -4.542497546968662 
-0.6601176542155582 -1.882425639348608 -1.817178588946470 -0.9464609450608693 -1.974698567880033 0.9397999084357803 3.571509723217439 -0.5792682806632201 -2.756512840055446 -1.745049360764750 
-0.7278006620996205 3.257980461961528 0.8345425435442173 4.291278243322275 0.08948405538544096 -1.693989212325414 2.789312809283112 2.689629332884093 0.9016935882830263 0.9962980649674101 
1.771324879744050 -1.784093069449257 -6.094989024596375 0.7152822966452870 2.274904055877003 1.677560282211540 1.229813274814919 0.3348240572877197 0.3230077338623870 -2.037861410130895 
0.1863302312437266 -1.094786187946180 4.605128255629834 0.4812272898325380 -2.610320003485629 -1.706557963992384 -3.051655632535818 -1.702992737269660 1.698255737891429 -1.083991156331268 
-1.802855769900955 -3.296725873356252 5.347144595014699 2.249620678752862 1.274089516576963 -1.339219276071665 -0.3365251856102694 -1.134911041015126 -0.3867937956141534 -0.2633346798373342 
0.2397427490023829 -2.138248059289342 -3.737576606340622 -0.01957776576869913 -1.468761030672125 1.749936715397544 3.170922135632029 0.6194261779085250 0.5474967488108935 -1.188474751545773 
1.215183691517614 -1.556257386459517 -4.603350816955496 0.8135294377069704 1.845373555452753 1.383306708456346 0.4005468023583576 1.853532050985623 2.004877019818135 1.514825853866441 
-0.5159825804886933 -3.047937855338875 1.926434644033483 -1.927414327205921 2.262081172489655 -0.2654068348148458 2.433501190000284 2.395255095375820 5.207036144320355 1.661207129048983 
0.5552960782538776 0.5605869953160200 6.278026828308978 0.2214484632037381 3.234823927964266 -0.8022181237406993 -4.221086257051836 3.284786088075595 0.1262989320354547 1.334644861882116 
-0.1374308491270879 -0.6691169172799419 -0.9204152828222898 4.130221724762710 -0.08149375369921790 0.5629243979469583 -1.630161864536845 0.3333115699016814 1.891868848649069 3.664707055519581 
-0.06578740258582610 -0.9664628107256464 1.119323545121106 2.273932852899686 2.300230578763494 -0.1569569448805757 0.7804321926705908 1.190085135050278 2.615291930108358 -0.4758489378880266 
0.7317747790441510 -2.045867569187784 -2.496849147370486 0.3638852740189178 -0.9112954952603581 1.900861111587877 -0.1822696725803808 -2.822019956730000 4.264282012586782 0.2706330647250304 
-0.4203342379735237 2.405307622844865 -2.641640570602492 -0.7577279220078870 -2.286621079060890 3.511691262405072 -3.133538582293283 0.3638468011175233 3.302833395271600 -0.8519759047991851 
0.8179761995612346 0.8606027541550282 -0.7330948994132277 2.315054179568376 1.017365225025191 1.478936166038950 -1.199723757803782 0.6930273339824494 2.316475081999487 -0.6885148180984544 
0.03560627857709713 -3.544309627600613 -2.890422533431413 -0.4896627428334763 -0.6494916767468194 1.891399955505043 7.339971802896505 0.1224549356576021 0.07039300503468910 3.172005168650279 
0.4348664920561548 0.8335969949598895 1.606556873787212 -0.1709421260069077 4.088478194546171 -0.3891445965037187 -2.406375253578965 1.795236602414560 1.168340121520897 1.025300211606144 
-0.4484378521779662 -1.288047407973366 -0.9640903038135448 4.916222357265335 4.038496842370745 -1.204594356197787 1.761093278464948 3.986722913422505 2.436238722769917 3.874002977624218 
0.1809950880879300 0.4964874590876711 1.375258471458095 4.745925698952818 3.750902022593265 0.01204546640526283 0.2669348574255640 0.2552267175535026 2.245480234572988 0.6517033989699187 
-0.3021570862015077 -0.03409149319352767 -1.145848090451746 6.201291059549291 -2.398409042203073 -0.8684548005027046 1.461950250455392 0.9712670551239678 -0.1127835490899301 1.865627689213850 
-1.212962788312393 -0.001853081041492177 0.2873935690068369 -1.724074059133970 1.372002405345480 -0.5877239629631066 -2.952348571303307 -0.6498251995579802 -2.078769688170055 3.638906570147125 
-0.1478667392103572 -1.319374151399394 5.887883152125680 -1.668751881399486 -2.158257547356776 -0.2131129263552045 -2.931307398417238 1.035225900646868 3.253425855219162 3.349749792048240 
0.1442983964168298 1.555829049460146 -1.261305804551901 -0.3703787900221645 -3.757118873627383 -2.388979226979404 -3.681673163437909 -3.998372736536833 -3.016768606334257 -1.378293764502189 
0.3444855189707639 0.4846070272480326 1.183962591790357 -4.849551694151669 -1.655445103980172 0.1920087119057093 -0.4201776532826272 -0.6030186792859249 -1.526410677562665 -3.131213829809227 
0.1906642571883234 -2.638440315980723 -0.3447978655319950 -1.258169175871381 2.948742201498043 -0.7731935999568093 1.662532308991338 -0.6019393012952009 -1.862138555498857 -1.473194062115466 
0.3927755535101616 0.5434898245585134 -2.176612813499439 0.1474640079551876 -1.070453608033422 -2.419272203666820 1.304818955419326 -2.463423019758566 1.780607898781002 3.604729960094589 
-0.2792225130708904 0.03450610913118601 -1.455193366436794 0.08820446255914294 4.701449194564353 0.4294191064969468 -0.2175453503102489 -0.8974201255660881 -0.5154759351549578 0.1293851370442340 
-0.9014102645874780 -0.4842970997428130 1.279118852500805 0.7097909732267691 -0.1247373969553244 -0.2043117269116667 2.875582353548264 1.717193463186286 0.8305120951899196 0.5918956866634939 
-0.5200408285304716 -0.4293641870388217 -0.6789979182192877 -0.7250467597412247 -1.788015926653171 -0.1814066980805754 -3.508806205872279 -0.8139256769269564 3.403477377380797 1.859120399491885 
-0.3752649990189270 -2.224903530004296 1.095119328501816 -0.6833106760806390 0.4955449470122880 1.646273345717604 -0.4376472423760640 -0.2784491834234864 -4.873708073360943 -2.127175089560758 
-0.8958984891581613 -2.786360498010132 -1.829472721979716 2.835432390766816 -0.1637778170126004 -0.2816737541663663 0.5941156599105020 1.325732271877327 -1.573776257341846 2.863832745709614 
-0.01222628477543394 0.5975742059726021 2.039686163042019 -1.169694159210730 -1.055758807423672 -3.533838530529175 4.210156902248990 1.260042321441800 0.5285863091575618 -0.5618715692336008 
0.4927210689364017 3.900970205567286 -7.196655594456459 3.495469677344242 1.099011715855560 1.381604710807458 -1.023623652429227 -0.4172942607436669 -2.584849639762037 1.421165213378975 
-0.04702067142577240 -1.042381120129450 -0.7822631408564169 5.510548904608983 3.082069735729340 0.3717196043548871 3.929587838337959 -0.4328017548401062 -1.241564656373561 3.770256271206617 
-0.4091704854297535 3.622069380396101 -1.557550773422067 -2.910611178468745 0.8852389650723876 -1.947520082715785 1.552731718800232 -0.1658252373815509 0.3343296360070446 -1.324530380151132 
-0.05782495961096267 1.352289099477932 2.130525760864270 -0.8998883891124965 0.1237163205215804 -1.852013330258327 -0.4730440431202711 -0.1726992712885176 3.633552709002674 0.4930424362843639 
0.1070707540426210 -1.152153273082513 -0.03087830724442353 -1.945419521859433 -0.8512728506807863 0.4663528870134328 1.482026284870446 0.7498747690484375 -1.900490365459524 -0.3257221410766951 
-0.6323098920362609 -3.968455679938103 -0.1469902994462880 4.285409340263493 -3.077793594587373 1.241191597285848 1.827064634321699 0.7349253029414500 0.4898988280667116 2.000532511142491 
-0.7094406625852630 0.3533870486363959 0.9774394009091420 -2.357626272556419 1.052937722522624 1.050365653105819 0.6354367977593180 2.677991142607686 2.975107242175777 1.146379959430557 
-0.3537953115152581 -1.356573332610080 1.447688536610360 -1.015172656606085 1.467401786457545 1.539714564975792 -0.4858670290543524 2.202659638458955 -2.988414278894887 0.9799013947211166 
-0.008058003382965300 1.451011929966666 -2.424363757898708 -3.637514004092282 -2.607548356005253 1.920416770926062 3.003944244237483 2.439761769808532 0.6309781073837390 -1.109220756997372 
-0.1454406826855719 -2.099959709507970 0.2820152702294825 2.385379419561795 1.874480357156681 -1.052165289350951 0.2677236479199377 0.2200674964750055 -1.800880154367987 -1.913904522809146 
-0.4406754125726219 0.9083180272400955 -1.322008735179008 -1.468230496340769 -0.9082158996942640 -1.108964299634770 2.387970915232152 -0.8393048467196457 2.133693922691068 -2.493049344487839 
-0.6284403208128104 2.092654278232503 -0.02329239901521513 -0.3528399967860909 -4.734520804853357 -1.012935106166509 -4.166040679428432 -0.2632944868158883 -0.3614456493835460 0.09141265361676401 
-0.6353282241954169 -1.117304767434289 0.07814615670500310 -1.242408634397358 -1.479624569559920 -0.7325738284306831 1.338560073428102 0.02682109568626634 2.071192399773754 -0.8394758903536359 
0.1330186092666151 0.9684846866307051 -2.504779139230163 0.2406032862869851 1.305733923864520 0.3073530511246386 -1.129905130678861 1.742275182005900 2.098956317988441 0.1736553341621664 
0.3478867423644527 -0.1084414663628526 2.265649504863198 -1.526557362832844 -3.419222553123062 0.1547339010784876 -0.6938613798155043 0.9282958584185109 -0.8160614435119333 0.3140608126610910 
0.3178067010789772 -1.267049749656525 0.008000947485538479 1.729441419699060 -0.6273487815134787 0.3546338148208933 0.1965298032446255 -1.211237959583624 -1.988898478800298 -1.417436451172728 
0.5538678185517723 1.827323273435426 -2.771593874984830 -2.556232057215263 3.586040694253380 0.2679641299555742 -0.009713910258001696 1.432407287726951 0.07892724539123142 -0.7770863160758752 
-0.1967559414215215 2.284075241517378 -2.317351572077153 -7.337561265916595 1.077570860466157 -0.5716974685363194 3.222669338014562 3.149081057120044 1.823129202154682 1.996399277868120 
0.09704828947042246 0.2368345942826354 0.07865182056764769 1.328776210934292 1.418202049357040 -0.5582558798176602 0.4415772644665286 2.416265352220471 -0.8661575578545524 0.06040852565659927 
0.1958807769074166 2.720460101246674 -2.694392425970734 -0.6707072106150825 -0.9508812312480613 -0.9902219617439374 0.2700753134424415 -2.350452417394103 -0.6290729502497451 -2.001664373078945 
0.4213095542781176 -1.011961782195535 1.507857818622285 -0.4924124761414081 0.7717134233267195 -0.1736987361534000 -1.625267378156887 -0.9201980793958910 0.5908861408784010 -0.1837050440999088 
-0.3396125512978482 -0.2020343119882524 0.9949058901538625 -2.318981669320010 -0.5723571825030592 -0.06660327981739883 1.557110591166174 1.839914193092353 -1.348035206961013 0.8637526175156270 
0.4297347256478563 -1.107360995687072 1.434097328989749 2.151573712296283 1.078433862826791 -0.1582182927082797 0.7435468100754383 0.5626783620818165 2.574932298184848 0.5196822641795390 
0.01895618177711832 2.350490770885553 -2.297723204164041 1.821535100033961 -0.3751245931591206 -1.196427297987641 -1.454796738512493 -0.7610928154512007 1.376155087876609 -1.211928623400848 
0.2343329286951098 -0.9625511315874153 2.490845509495405 3.967408095753519 -1.003884617369951 0.3876185404916463 -0.2977028252921151 0.9384186214290263 2.504003159417617 0.8573096325667285 
-0.5038121997146690 0.7888927232288869 -1.109742963849278 -0.7647342380204953 -0.4437513549498705 0.7894083496670239 1.064596865457627 0.3049080667348854 -1.330788567156538 -3.014675559580604 
-0.2379039764774635 0.8253853829218528 2.674936499083791 0.6575520997119885 1.257289202484820 -0.7656472610174823 -0.4956967588794135 -2.357861805387345 1.132277718103536 -0.6281003183787583 
0.1683640417686803 2.061570574362674 -1.444624550540851 -0.5293188280152128 -0.7558335488532049 0.6997241234916944 0.2593823691779978 0.5267757899999153 -1.320514241095916 0.01248778837858333 
0.1222688986821856 0.7154875320269318 -4.133776580000538 -1.789751146008938 -0.5315050470612747 0.9854957046283710 -0.9092503924628210 -1.106856489418626 3.247990375302650 0.05742779134728374 
0.5947413815809601 1.745278001977562 0.05849829488347215 0.03369339643534386 2.290901349346308 -0.06920417592406669 -0.08713761936234540 0.1749830254717855 -0.6777426042041117 -0.02863965423741910 
0.5303987618121964 1.430177889037114 -1.100526801381547 0.4745731734785822 -1.577029308681184 -0.5496412065026219 -1.072096820325809 -0.1256144938186661 -0.07448504767519148 1.353953212588932 
0.1556566235128414 -3.327560483268043 0.8368817878030501 -0.8672456530121437 2.330925547102914 0.5907432384817872 -1.209363869152635 2.338745140931579 1.754428284119572 0.8066968362279230 
0.1040798489257271 -0.4410885226235381 -0.3642641222903498 -0.4221063838853646 0.6866991689526680 0.02947547684561302 1.529339954524955 -0.4109526505960628 1.632270370473061 -0.8991829367891805 
-0.04964725802046748 0.9174646481353366 1.286309782342048 -1.178062569016908 -0.3323916805713278 0.07943721090085804 2.932046656735160 1.265979560672804 -1.254988510831545 0.03598085232890047 
0.07580688315907103 -0.5346304514732307 -1.937920372122519 3.139919773728339 -0.6279997462100162 -0.6747195571962572 2.041402804819607 -0.7376843277632570 -0.8754422969457056 -0.9198620446772606 
-0.02038215618256288 2.374569241745481 -1.855732453775759 -1.377988432848305 -2.225966226616279 -0.4044691361078596 -0.7512656922193263 -2.047455770685303 0.2232827536531929 -0.9373265145502330 
-0.03390585511333089 -0.7432646094278458 1.034578209451395 4.621223827871394 0.2471266404231958 0.4797294967596655 -1.036789633230596 -0.7337778904557392 0.02157721839962062 0.7409056286608080 
0.5659799785319430 0.4272979398356834 -2.181631845117544 1.889819305923081 -0.9503985758307993 -1.059806626051991 -0.9456963433961882 -0.1302531729503307 0.7657543827871994 0.8096183606408514 
-0.1177572316559864 1.261996866910911 -0.9677403353039538 1.446240811820446 0.9221397201553917 0.7088571562157295 -0.3893164523391888 0.7219443457031388 -0.3334553443048498 3.222112457888335 
0.2306346655543674 -1.501085406176181 1.185764283647387 -1.517101528113200 -0.4485285171744143 0.2900264393410169 0.5775596856734182 -0.06604495918896130 0.7544744453201995 -0.3799589176410054 
0.1275453253472350 -0.02841417100921767 0.3848066143416493 1.370233381519150 -0.5960554824867171 -0.3940866344325634 -2.218586606410876 -0.7339714428378127 -0.2705866241531720 -0.9974024260748833 
0.2621544944992498 1.267801846091030 0.2851548296695525 -0.3637377207761776 -1.221497937075311 0.4938980345448981 1.570142232759831 -0.8348915426827344 -3.053954485147505 0.2757461595366178 
-0.5067315372969177 1.033063870455843 -0.1134127850851072 0.01068754968979313 1.244413215047350 -0.8872116853517966 -0.6446633529182039 -0.5465517039432244 1.352789787280423 0.7711920347886317 
0.5327082523693550 1.043289750338591 -1.387124493932454 0.6699512878357088 2.596032928580264 0.6003162517932887 0.5291979547895711 0.09065531499943566 1.500610087057901 -1.291178884294446 
-0.03468857643887840 -1.683363391664683 -0.2631333600460958 1.702684644397699 0.1321540300905696 0.5984059267925456 1.295960274848895 1.171749542091592 0.8183035953646106 2.059341071427145 
0.1403102785315173 0.3321274584306735 -0.5602929582893974 0.6464551096741626 0.1589626560989155 -0.5598628266416005 1.393296343596066 -0.9854104624344526 -0.7639046007703390 0.1426295833248421 
-0.1567393537930663 2.939093100003550 0.1452391035184897 1.900399430736405 0.2544861491420116 0.8789717832666486 -1.009737372588077 -0.2244943985653697 0.8762183502217131 0.6149616504120107 
-0.2929469009480028 -1.866112345301394 -0.2534605315153413 0.1810473664957740 -0.05891705902859068 1.181247000684488 -0.6387963139041597 -2.574747130013111 -0.8023355570307460 -1.386765952577332 
-0.01845940561518918 0.7895605869602367 -0.5616411603244185 -0.3335292587890952 -1.616801315897911 -0.1372594339510451 0.8517235299494614 0.6773702883972589 -0.07812674375853407 0.9545554248395371 
0.02414599753782713 -0.6428549559615666 0.5654853987026494 1.024863316821002 -1.224164666699590 0.2314037201713399 -0.8518837570077364 0.6525994525669122 1.972580714591735 -3.646513741818360 
0.2078379023817016 0.5789344867643185 0.4123618886852012 0.07728766603416740 -3.223325489363268 0.7279107046512125 0.1220325420537721 0.8864112263207925 3.009092818874841 1.013676681570999 
-0.05455916296149550 0.4239851273086747 0.2523427976744572 4.080129895207727 -1.607480443647817 0.2902683741783723 0.4213336429627327 0.2226137398437105 -0.2087944908307487 -2.093962441357919 
0.1685830125149359 -0.2495657627896399 -2.153259898466253 1.642787801786129 -1.567125452858413 -0.2337130934652071 1.333029974115527 1.284024527182658 2.352141182417268 -1.658211335235821 
0.2668998295238874 -1.575595017532510 0.3941313012676302 0.9067879547961601 1.113498294270411 0.3655893242541470 1.841230652245337 -1.989785669258830 -1.528818832267449 -0.1504099769967167 
0.1755307974855535 -0.3727234166293893 0.5363701223371989 0.4703026299847606 1.750619241255238 0.6418483892497604 1.627630357613029 1.202367294286469 -0.8970522150550737 -0.4203553245533639 
0.3641643605138834 -0.8875752695121133 2.835932137132389 0.6817369705915657 -1.424969954261261 0.2207138348192954 2.475914570483972 -2.222959883489862 4.124019946194309 0.9495318782037161 
-0.01508522679918870 0.8859434630796557 1.090500856292161 -2.613437421895477 -0.8605723733287571 -0.7315645185628004 -0.8044769982794385 0.2948475716123482 -1.931216509897096 2.626444175336988 
-0.1745928245796607 3.384695552100313 2.147351971562296 -2.043787314883933 1.339192457019663 -0.5861832905318093 -0.4727988008887125 0.7832296855223357 -1.058051606712926 -0.6241179893753608 
-0.1187093218221835 0.4021326065301766 -0.04285359326742282 -2.266507738053708 0.9545230789396031 0.2327927079774533 -0.5358569852074335 1.694824234487330 -2.503677049167198 -0.04487568982096526 
0.1515490120000496 -1.252906675605938 -0.3937191480569771 -0.9265947828074709 -0.8824814703303436 -0.5241045086661187 -1.999245828876196 1.203866342601539 2.048801792794543 -3.369777474237875 
-0.4434637759762327 1.612459239213119 -1.102270531267299 -2.972623141000891 -0.2059755380327929 -1.255722664218455 -2.105151877545530 2.184598184982623 -0.4889543410627366 -1.610120164252049 
-0.2585829125728796 0.5050043576109888 -1.262104371957854 3.006231376239115 -3.717377135430129 -1.059157163254122 -0.8245059393393703 0.1159030663186067 0.4859342251631536 -0.3992535612201872 
0.2436100558569087 0.1109098923231305 -1.588992544896411 0.2770106750425011 -0.6415352193103494 -0.8780764452327008 1.748814712014100 -1.161939743657765 -1.939670938833685 -0.6816362436093264 
-0.1414360723998567 2.533936313773846 -2.779300378068689 -0.4490410518143774 -2.392331931387050 -0.3274685363620477 0.001961261817481963 -0.8989948532272735 -0.5151383793407355 2.181091351457280 
-0.2015201709578103 0.8404144143909658 -2.901764396486991 -0.8746939908777789 1.336778861617243 -0.6027802035973919 0.6231525229043475 -0.2644507901438213 -0.3320659827057908 -3.143330644290496 
-0.1419468731706282 -3.149431714811076 2.708530019665850 0.1666981079546896 -0.4219586530795622 -0.3094326273152407 0.4208786912719520 -1.692727344790439 0.6728365983348746 -0.4944241292741939 
0.3129335198669020 -2.778023356349183 4.073117498278438 0.08239670696969015 -0.2898148378181127 -0.3891213026356969 -0.8461503002004368 1.044796071197541 0.3820925774933005 -0.2229841558880272 
-0.2718776201189824 -0.4171970689374806 -2.077327684398581 1.693737171804191 -1.954472048040048 0.4902969876246746 -0.7658407294910249 -0.01013240000883420 -0.9165617534141273 -0.9401508607470453 
0.1605951504547363 -0.2114453207504396 1.642873339836497 -1.384867309099746 0.1759340588665378 0.03818794891035252 0.4775806530817885 1.556917821631639 0.05489869811539063 0.7964221492630057 
-0.4465744692796228 0.2061961616961170 -0.2372382287194274 -0.3729266138265726 -2.625762972170052 0.7008042667265968 0.7612578855262182 -0.05039394336011999 0.6751185695380246 -0.2942079806664957 
-0.3215267927185881 2.256066281496407 1.844498836491368 1.003608523582455 0.2234880774164203 -0.5270168779017307 1.195737732997638 1.745501632536700 -0.3877475710761786 -0.08474159524808936 
0.3779358026815844 -1.444676241025679 -1.663055203398041 0.3828342409784866 -1.718965257655345 0.2420309823141218 0.8752426036519231 -0.2206004233988957 2.536638392372194 0.5909351472072839 
-0.1844221735074711 -0.1521241755785280 1.390892569321865 2.185739391317283 -0.2695559756387593 -1.139849362667052 -0.6746121580266571 -1.026983180712394 -1.700866141610272 0.2340180399998436 
-0.4492438567460806 -2.862528656920794 1.342129192240074 0.07433965414557753 0.9584136592102498 0.3077224307462008 0.2313156308111824 0.3463648236747554 -1.689691284842076 -0.6959630544106338 
-0.5543389879198299 -1.924553824632454 -2.112967177847783 -0.5199218693154180 -0.4765121461573340 0.4014651846542411 0.7088974474615288 0.3888070981537342 1.802202377956298 -1.554132608754367 
0.03874054379153600 -1.731348684795275 -2.421827709736558 -0.5889724345968540 1.093865440613491 -0.2732201586787202 0.7334351220180834 0.1732691519444453 1.052164975421277 1.467901096158488 
0.03649170184922183 0.8261310092132669 2.196075874840792 0.1679419714527785 -1.020169640015085 0.7172297476253158 0.1669269146297083 -0.4893502022017358 3.300471898085891 1.317074148299525 
0.4628518824424499 1.076183703558804 1.880388567701200 -0.1235780138663442 0.3587821752968709 0.08961617548636170 -0.1600379802070269 1.037861357777324 -2.285437157636959 1.438838775616265 
-0.5071565313554117 0.5472194664933618 -1.854869113354378 1.828232715386715 -0.9061712278849438 -0.1312027576164778 -0.6729226053491810 -2.100278351433774 -0.6221370871080977 0.5662462489879836 
-0.3339425162223700 0.8175937115582932 0.5226213641976427 -1.942718062078878 3.754051716696778 0.4259832389610946 -0.6678713406776297 0.3627792193043631 2.198589337585869 0.1235460319009079 
0.2861353193658182 -1.453924772112928 1.624293483455501 -0.6002254799131300 -0.3983316965759042 0.7622545519819925 -0.03643908016320534 -3.113863130020312 0.8240598532802220 0.4762763402165777 
-0.2059543236800322 1.216154694927163 0.03467524625231799 3.701959334960907 -0.04971582266332875 1.715245220074993 -2.762007711056169 0.9350746047292345 1.932251303964347 -1.674138351988350 
0.4974755956717856 0.1124530696554171 1.236136871029331 2.981795362414760 2.108585313585149 0.6791747785710448 2.786342056005981 0.8445256662106749 -0.1646014494940811 -0.002666681824118222 
-0.1409122138576920 -1.579982186473566 -0.2932612620569848 1.297511452296454 0.02551454890657087 0.2573720461144216 3.443981988746510 -2.661620801464157 -4.265768193873037 0.4928066059128416 
0.07866113845795819 0.3831882217800720 1.788921024330548 -0.05823633540833700 1.296243682260395 -0.1585526247136843 0.7716413184721439 0.4794343091011415 -0.2611034877348267 -0.7298278510175371 
0.3816562581908265 -1.518527804472362 1.314559569294033 1.170018753061602 3.223643707090709 0.1893242371328950 -0.2091037380737391 1.742140135655605 -0.2445107878993669 0.8638669068203103 
-0.05438737263861615 -1.568363046281776 2.874353613723057 -0.1980018063222214 1.717165113902574 0.2734502991690687 -0.3052196137600088 0.1597054090317448 1.656851144745390 0.6578168847304777 
-0.6324659851511014 0.2746576116428665 -2.696848386853381 3.199411834798958 -0.1932530968101169 -0.2099191784260302 1.276257958619349 -0.1147715990335698 -2.779853118663259 -0.2187764264395420 
-0.2429166062993627 0.4650661026939316 -0.1775890222588352 0.1623227532442030 1.367234223738772 0.2481358928180060 -0.4235317135541403 -0.7962758137945691 -1.678761714009498 -0.2795768329637719 
0.3211958439805335 -0.7220459370584121 -0.8312940242137035 -0.01215985432136245 -0.8218825945496253 0.7847493389646736 -0.5245802039245400 1.844702978026010 -0.09576439982929613 0.7857431101301084 
-0.9700488368627278 1.912104326991645 -3.961600350899331 -0.1364717710484082 -1.460021132879943 -0.8054126430551175 -2.752035188061209 -1.503083786544054 -0.2407521345605943 -0.9251307486532272 
-0.2013359044293623 0.3014420691853547 2.965415660930457 -4.016708450827897 -3.653877286205490 0.2175789555880105 1.690991373435280 0.02646790494931592 -0.6343511269848436 1.505064188377453 
-0.1257294518875959 -3.255688437351593 1.475477422009952 -2.073204792815740 1.891161900650174 -0.7056961973718984 0.7509893056871648 -1.307677529211372 -0.4755245242258060 -1.793043370714536 
-0.3514994936284152 0.01387351387943056 -1.711808195438413 -0.7944810831894342 -0.6408880807840734 -0.5795143133817044 0.3265250391093988 1.201839405685063 1.395374197113309 0.1726639855959009 
-0.1961106224120612 0.2527724891762055 1.523736701870984 -0.1162823401491681 0.7120416554631560 0.1492515670417409 -0.1707164115747027 -1.343723615413508 0.7652855275288302 -0.3692333658993751 
-0.1560153032105948 1.335182340584350 1.376280647948178 -0.6299872610847270 1.126233609222344 -0.2990453765228476 0.6941928857203113 0.2814349663218610 1.826025630491042 -0.8604962743400377 
-0.2812686216121428 0.6971523097103475 -0.8692010282977252 0.3365431353679133 0.2802927948060592 -0.7066145721113921 -2.521101320266256 0.2911783815040019 2.593903234701876 0.9848067894642608 
-0.06561233328051387 0.6188370530876120 -2.567275415177675 0.8871494948954983 -0.3209012934923562 0.4033941520079867 0.5957730403541508 0.1075402922923769 -2.123814408474461 -0.5112874780621193 
-0.4475693327438399 -0.2092753947350174 -2.242803177301294 0.8600814660715027 1.095577349895826 0.6753257216480077 0.02404246606574922 1.642176467887605 -1.581405370389682 1.566320300098699 
0.03982131750909870 -0.7722844945670266 1.740366235777601 -0.2713751536689630 0.04445349345280550 -1.274181888472193 0.2747913987671054 1.105427359648969 -0.8423463610494648 0.2057151225865354 
-0.1018003641521716 0.8912977209617036 -1.139585793868020 1.746488250549709 0.5361391442896993 0.8231480344029364 -1.595450480508621 1.481869730563153 -1.954624380861280 0.4926262509360226 
0.1868893551293918 0.09136742838340250 0.4501475083830801 4.758678882575175 0.3422963489157460 0.8053251419016114 0.5381419771650707 -0.7112831522266895 0.5691486216330945 1.954445188638224 
0.2640493606231649 1.566176055367503 -1.315346828025190 -2.158574292165390 -0.9004668966059813 -0.8575761472892505 3.035567719777472 -0.4064581130922624 1.745308782957521 -1.975730820201628 
-0.05619687047452592 1.932106494216118 0.6310742091197545 -3.851026073368150 0.2688605632641548 -1.260947333251463 -0.4275694822770983 -0.2194821178198473 0.5663597663984099 -0.7961099379733556 
0.2443115841103830 3.667108342306522 -4.643309618412670 -0.5892322303221339 -1.030288579282650 0.1544144816256957 1.406562341711705 2.194364459695040 -0.3077225291039997 0.6409584679971216 
0.2237234799599875 -2.299373055543089 0.02975743555051628 2.382514835839879 -3.356090806106947 0.4107337431058497 1.754321845252979 -0.1118409292910259 -1.600163301434963 -0.8975256826231468 
0.2238509031216960 0.2449524181233707 0.9778011642946753 -1.666810278942635 -0.3157534240225869 1.281807797510644 1.136760102072811 0.9577191735799839 0.3402655361950334 1.308959370290010 
0.08914318227302112 -2.833997930944268 0.6059760694970590 1.238091825691023 -1.001037159773097 0.3938096071144089 0.02897915996696437 0.5059713377642481 -1.313515832497256 -0.7351602685316420 
-0.1211115553966932 2.582324993627621 -3.367965603096249 -3.514813615382837 -1.497370308793074 0.3549102823829177 0.9272955879825953 -0.9786302609835882 1.165547973950097 -0.3242730592308009 
0.05545110600753005 0.2390510852183400 0.3368149123764658 -1.669504557363033 1.951065090509146 -0.2776101153792255 0.01759011619974488 -0.1933411392826617 -1.503926714782961 -2.212868992328778 
-0.006934758801563350 1.597360252208898 -1.093221004019437 -0.5245273246012279 -0.7438132728217184 -0.3355297358856098 0.5242276628159882 0.01720285560321611 1.146147958467531 -2.187085321266923 
-0.6201854812884278 0.2838433376130314 0.4531149224215965 -0.6209570442635743 -0.1749627777051006 -1.274763339847282 -1.825459461005499 -1.168008028714041 -0.7797151986229018 -0.1465644796750999 
-0.3664760040340911 0.007879299010709717 -0.9317725733465569 -0.4836771126857850 0.3314126743562161 -0.9526378452501878 0.5244818481575932 0.2159602100402528 1.785247877508497 -0.4156814768079066 
-0.4262630871704046 0.2065990070120018 1.205832343507249 -0.5966765223976898 -0.008303642730322747 1.161911403171390 -0.4693156535575105 0.9847597167908219 -1.250495471770466 1.289351729341088 
-0.1188839997577355 0.01562042358380716 0.3230774839478203 -2.165083565812815 -1.304474521353496 -0.1853989816792099 0.7801684477487011 0.8070756319334718 0.9131570515330395 1.682081176617999 
-0.1053109415310775 -0.3147326912576145 -0.5493579199596811 0.3216717038696934 -0.6260500009124859 0.2999777195975421 -0.9286279459908237 1.147082677694644 -0.1302947087369116 -1.944199693290118 
0.1620972446974692 0.1326465753620320 -0.3194423290709433 0.3774003328488801 0.2900808297879785 0.6573278819840604 -0.8407735608466724 0.1745691770397433 1.548176406081661 0.1755099152063245 
-0.02351241677534272 1.372406761658702 -0.1078580154048912 -2.155296102563876 2.355891024418674 0.3596888423193890 0.7533895155473643 1.580155705787109 -0.9654940283393886 2.369723555206927 
0.5281726451279780 0.1925817762096267 0.3065833168070837 -0.2597965355813316 -1.288883288493996 -0.3085031021557516 -1.353738143943006 0.3387530188752437 -2.184871565751573 -0.02652436830290871 
-0.2727198843823655 0.09940906967977561 0.1489493623782416 -0.3362151886219440 0.2659395298833164 -0.09636479537971723 0.2019512672911363 -0.1378263383294890 0.9749045415875269 -1.928627909716645 
0.4742102297107518 -1.476846045351911 1.568665418713125 -0.4007324630053706 -1.155191455448028 0.6803033951378845 0.09619868371725983 0.2581244858233130 -0.8137919822365871 -0.3069107323075431 
0.1379040904295899 1.288359390382919 -1.216029611471038 -0.8272848379932680 0.4245943729576962 0.1586528954479530 0.08078955685714984 -0.08892961865608895 0.2146252590338388 -0.3967326756970907 
-0.04745231623891055 0.6836919498020750 -1.302714761578607 1.319413511578128 1.616497748594594 0.003591801624154976 0.9082164431300570 1.688132263435831 0.2688242982358268 0.7397761961625870 
0.4688518006217710 1.624249603555734 0.08672515856220908 -2.161031539813470 0.1917312162204167 -1.891920528958729 -0.9869340301449725 -0.2424100267058457 -1.501795650435889 -2.408526075250480 
-0.06270592437043931 0.3613549826703586 1.326157989630221 0.7489646059906039 -1.354194316718710 -0.2822228351793580 0.5018687165871039 -0.9143602012130729 0.7389462970915495 0.2279483505408897 
-0.4127820073695022 0.02450814021885056 -0.3762918395552213 -0.9837769653170490 1.731517546514939 1.150404006397393 -0.3862448408165736 1.229565834347507 0.3415827006041295 -0.9289843056061412 
0.2456618810676815 0.5808127451910305 -0.5174133243222793 0.1543128452893800 0.1526790315214411 -0.5286791036025643 0.8489164187517525 -0.7566526571857988 0.1213003815918764 0.06033234407166307 
-0.01414947688545887 0.07183363506087237 0.9288206664237892 -1.911120892138384 -1.231674010906942 0.5552537613990672 0.1052058368573936 -0.1861968145560119 -0.4357421774516683 0.9294406576043938 
-0.1551490269751702 0.7985845195674239 -1.729783406729738 -0.05689273467666237 -0.2132763841688539 0.6267768182634168 0.3006720009471098 -0.4989535752133699 -0.4565112839424758 -0.1692705688078424 
-0.3499737203458086 1.596170411232430 0.9423431546000597 -1.988935029407277 2.259349293262440 -0.1515228810919117 -0.6525503791037182 1.076856664804543 -1.898239459012110 0.2887225902734380 
0.2978568779003448 0.06692181995320258 -1.187601121584683 0.4206327663899357 1.560158910172586 -0.6720569226123375 -0.09288873915957305 -1.494108250883426 -0.2943237017711965 0.5652086893776465 
0.4227298506324251 -2.950662087886065 2.725081925947557 -0.4336659526399296 -1.682245069580562 -0.3011046941728110 0.2137018092981201 -0.4174831166079374 1.509361483532304 -0.3167567035812572 
0.4375606382053281 -0.1141685408748545 -0.2178279134537776 0.6339388445680910 2.360067717854915 -0.2554900971766893 0.1070504765899727 0.3973239313921170 1.583661389179579 -0.7622385943332812 
-0.6867238589878152 1.242195585721032 -0.3278555353612986 0.8976732308985160 -0.1817039993833416 0.4178190717407995 0.7810649820607957 -1.638012139419380 -1.925592242951653 0.002560216973285817 
0.3114961240017318 -2.387570555046263 0.4849935287563769 -0.3328359855863219 -0.7823789408365780 -0.8004966992811218 0.2725179092111453 0.7344069931219350 -1.579267339265942 -1.297206534234908 
-0.05121684365526902 0.5014346743190929 -0.6639084062465825 1.130441847866149 -0.2422625157606820 -1.254897345849249 1.173323285855510 -0.5582277331414400 0.1212091365537602 -1.387786567089407 
0.09255245082793406 -1.947302808627016 2.188938029851241 -0.5464365063478500 1.581527964405893 0.2337136156453769 0.6110817902085615 0.1585551494425435 0.9105026256778139 2.169042740159168 
0.8445091057574381 0.6508256761896640 -0.9511304702337205 -0.5544072323696353 0.1064172045595570 -0.9461831153656977 0.9460456731026559 1.450889741375350 -0.7675886220138041 0.2044607615281847 
0.1017773878217755 0.7569486635989511 0.1622831794662407 -2.484736319373787 1.312755059567546 -0.4026317122621788 0.7809778385830060 0.5624816536030117 0.01179737846612428 1.685076952172526 
-0.1554527442359522 0.1418104060556455 -0.7140429931848049 1.288980480774917 1.605420629495523 -0.05086121454922533 0.7029150770804321 -0.3751314869909387 1.636895593002136 -0.09988228747661215 
0.4113248389194597 -1.010561035788951 -0.08909553076483079 0.1873352762805284 -0.3223689467477344 0.5865644461082153 -0.1100050329221479 0.3303241744441383 -0.2201847378541484 -0.1568804490560206 
-0.2819961209253729 1.559937109287662 -1.386568765145915 -0.6021620374742312 -0.8504278539394031 -0.4127885390481214 0.1638422112358794 -1.167325108376780 -0.3446683003477691 -0.1505080576642700 
-0.4518159266531697 0.2752798644976963 -0.09133359710595046 2.054209956129982 0.6308769614203380 -0.02977183498883103 0.7244792396436500 0.7652377595417443 1.323991035942303 -1.854693633533521 
0.2088158699379542 0.2322682775434818 -0.2809287435137854 0.1587408591305527 2.220937818451203 0.9499576860323855 0.7377133330509575 -0.2402651438387944 0.4693033907611958 -0.1548086429888593 
-0.5552906573657996 -0.4459499830713879 1.263961904520152 0.7984739103075610 -0.4863850125151977 -0.2409655047365675 -1.067748383065925 0.8878066126283506 2.041697146755303 1.599257587205703 
-0.3221975763043946 -1.005679816639267 -1.197132601080884 0.2892347784702696 0.7273578471622398 0.6264145808399550 2.545740096880347 -0.4392394677402686 0.5964109875892343 1.133447815472368 
-0.08961722152944757 4.241819729112243 -2.986876650588289 -0.2631208055749700 0.8016503845156068 1.042543168862438 0.5362722513117435 -1.273539165573126 0.2682670512241501 0.3237749331521344 
-0.4817781046710948 0.4747232196484504 -2.621763043979571 0.1511185944289865 -0.2890483006606591 -0.5286549274744750 -0.7023590767234749 -1.133359812362557 -1.457707606587363 0.3919995330163218 
-0.002200846841627170 0.4499368100186743 1.145304261694442 -0.2570041646375494 -0.6237123719801454 -0.1518614861769092 -1.426795832663076 -0.6825824319812892 -0.7532923182202564 -0.1264878168090077 
-0.1453169108462707 -0.6802915518768982 0.2925509109142602 1.412041844704206 0.2005725651206599 0.01720305646254557 -0.03072974284228419 0.6558217015819356 -0.5206635591759328 -2.838606156001346 
-0.1404159006217404 -0.5116718869398602 1.069649244798703 0.7256003536806112 -0.3748358599882770 -0.2168244051555239 0.3327217706926343 -1.531609142407804 1.086811740126709 0.6831257637775703 
0.07866443334075450 -0.5478446600684104 0.007197658267109303 1.727330637402166 0.1664864684924579 -0.04920118631349074 -0.4036370222518708 -0.1005612852151272 0.2396870326467891 -1.050233010684732 
-0.004670767327633413 0.4086657809227469 -2.279082875804522 0.7309175949752826 0.3538766442816146 -0.02825326438570856 2.162904098532941 0.9462367489445400 0.7993774054400915 1.940326569013223 
0.1533607591402455 -0.1070647669760044 -0.8214172019464621 -0.4954971033566600 1.115872716728556 0.3689256287627604 1.146578322070439 -2.402658940126802 0.7696568625449908 -1.082508430044482 
-0.1127828639643856 0.6847227496688799 -0.8566399973952454 1.068140129642321 0.4157466900910340 0.1743558607921000 0.5081447475769432 -0.2449079971747490 -0.9565227478539964 -2.580618794625407 
1.539048896438910 -1.147121937348321 -0.7166669531989077 -1.610285631205290 -0.4272305815563315 0.02407886391952583 0.4164396793678093 0.1538673214464741 1.932979045328215 0.5952307824484571 
0.8159271542052373 0.4343736694451511 -1.333313575425053 -0.4524831203091144 -1.002567548136341 -0.1568000872317098 0.1389581538685860 1.669760210104920 -1.025909223477369 0.1987480758696742 
-1.184964170870349 2.214579596586789 0.6905709883338177 0.3312760103340890 2.047637144663118 0.6586737655847177 -0.9348026910504492 -0.8730165942763671 0.1709793532389358 0.4039648477246060 
0.1741199039265910 1.468826031267239 -3.044072197521778 0.2493402618788087 -0.4027586595917124 -0.1533223912786024 -0.9448216232852737 -0.9445001742738135 1.071898173730777 0.2850279617850728 
-0.7826264381475361 2.344169566675349 -2.170641348584197 -0.3837010463260375 -1.711905516293867 0.1198603991372258 0.05761358720692694 1.036797891626133 -1.864674639122677 -0.5384466227592684 
-0.6457442363129531 -0.6015944796205532 1.491407734042344 -1.782072475698720 0.5772522819258773 -0.6636910475036213 -0.7440708849754756 1.738622714703324 -1.400434400196746 0.3589825659642224 
-0.2589460868532112 1.072706015158464 -1.287078699365448 0.5739351879878551 -1.673273688240479 -0.4816109980254049 -0.4471412177650939 0.6907635432440905 0.6645354632614711 -0.07614739292608069 
0.06728586127571715 -0.8172651370785830 0.2470322985427393 -0.5375010943499698 -0.1347890778618169 0.5316212809409333 0.3906306600793183 -1.060199461748300 -0.5146026331455752 -2.244714422696498 
-0.1065667834786950 0.3700261116933143 -0.6812433952478736 -1.536292164942505 -1.007338135924054 -0.4624559033688194 0.08649575412382877 -0.9758825247140880 -1.129282338801489 0.1204843667479016 
-0.07215746066335256 -3.421772567485040 2.034943340464932 -1.329365158762110 0.2886072031209293 0.5619743978463461 -1.303944402445722 -2.034931773268184 -0.3385725516451090 -1.545585178074401 
0.3683818154140262 -1.305905659227254 0.2274054736467920 0.1419783791804187 -0.2104612295950877 -0.3244845035586382 -0.2200523224131903 0.7341071696440166 0.8164133596104626 -1.143741692550806 
0.2001129180243109 -1.988131122579949 1.944204591957439 1.079229935490963 -1.354644301739715 -0.2627873122334518 -0.3993854460397045 0.4057678858314243 0.8605480767092955 0.6447610298729100 
-0.2235009021463463 -1.503326277126689 1.237007981013125 -1.363737304821984 0.5133245627016512 0.3802871363267088 -0.09047744604618227 -0.7772146428719374 0.9878352220330083 -1.011754865556816 
-0.1945422551775203 -0.9998230563745643 1.622262119139662 0.1662008305630769 0.9911399056394132 0.5720159528731588 -0.8136262358808863 0.5445889556045120 -0.3399134376890470 1.233486867984395 
-0.3067647267118387 -1.070678716305476 1.503319992932575 0.7196313902560938 -2.584861024338949 -0.4586421341237322 -0.4871397130420095 -0.6597721025430523 1.275315724143095 -2.087706593947685 
-0.005123089313236462 0.7952348572071811 0.8689153047829694 1.491709830787661 -0.08265678566769519 -0.7742748577984736 0.8052839489215529 1.075570206121382 1.519821829410573 -0.5661521178390534 
-0.4150278703381711 -0.8734281214470427 0.06390257684827116 -0.06204682084119268 -0.1995206415265795 0.1736635404128922 0.5073104626751870 -1.174736719080896 0.4829656625583449 2.181808247433560 
-0.5642613242353302 0.1552247112992931 0.9714830099938783 0.08668006146080724 0.1147572243157723 -0.1372024145095603 -0.4790093730607497 -1.268253893381707 -0.2226764771510445 0.9866623968192838 
-0.5735293676445916 -1.571250858052974 2.044181072260060 -1.058049469809248 1.141752834115476 -0.3443275638584621 0.4561530702930752 -1.156976377539068 0.4559942493914178 0.02239704567446174 
0.4039689756184843 -0.2287642416360335 -1.301543791063934 0.9838486531835662 0.3650845224507385 -0.4654535624721189 2.073716816568794 -0.3741939324153614 0.8796466168060470 -2.455371336215588 
0.3504763491028677 -1.574295068349805 -1.431097950046674 0.6449463987811842 0.9800350360496817 0.4619758168739800 0.7691895561786687 0.2725200246487704 1.772383393911265 1.571663372563441 
-0.2352552704853654 -0.9054324403679346 0.7850269415603508 1.731526330506148 -0.4605191433959328 0.2007947607477469 1.932957311092631 1.109803412595565 1.232555588582242 1.035470009436163 
-0.09275757107231938 1.185161238538417 1.078035778981552 -2.131784513911046 3.521724902219717 0.4535518282517415 1.031330391175350 1.048056386307962 0.3920389833407061 -0.4831375961320438 
-0.08198004074202690 0.2938527338602319 -1.455756375520033 0.6752738049421037 0.3777770876004039 -0.1519584467744116 -0.4334745382296658 -1.255277513379622 1.192363958972124 2.188334156968317 
-0.3637756788513575 1.399004617762933 -0.7441025558476674 1.218445922959670 1.935307786227097 0.1722145385015424 -0.2930215080378292 1.234849092829843 -0.3220596983192949 1.357530655054548 
0.2975541708704362 0.4784158282960336 -1.885511929178335 0.9826128185850004 0.3614594902401636 0.7394637857002673 -0.2767260380226168 -0.9974304300761120 -0.3825161056219996 -1.914013948834551 
-0.01482048428711468 1.660471996248137 0.9557690177725110 0.07713860892202648 -0.9986378701529695 0.1764074745146724 -1.414627548948347 0.3111766085148009 1.005181221235169 0.6968956281296490 
0.003424258395240382 -0.4796778442774142 0.7299264694363679 0.8828472598369804 0.7530500016074229 1.270107075809170 1.620390021948543 -0.2937988476121264 1.904679071391729 0.6730754774373013 
0.3687013896225380 -1.662683096802273 1.154983534854221 -0.2095616924330328 -3.023499112923874 0.008949808564838874 1.186370955464110 -1.245881198641822 0.01850290135871477 1.275628021529307 
-0.3251243536295221 1.466813281819677 -0.8717891504542434 -0.4401399974862129 1.358196038741087 0.3625526501823314 0.1247935954902558 -0.3819761097558732 2.376041474316960 0.7304403001612013 
0.2804740328661666 -2.208112924088631 0.9541380165917093 1.978865516592981 -0.1503947084376274 -0.6112862296489671 1.156182365677497 0.7738488675693443 -1.553647848697802 -1.059529248830325 
-0.4628226702467875 0.9770776411782548 2.413948291403397 0.5775116717814315 -1.061717281671086 0.2858233385277306 0.4365068864579577 0.3444110813185064 -0.8634665209183806 0.7001190518724248 
-0.2386074909996343 0.03673527834014859 -0.03560914773350610 1.529302262303451 -0.7895846571130747 -0.7084517725337068 0.04032294121286988 -0.05276320153802341 -0.1663192733427045 1.135181343497725 
-1.003927025089340 0.5751517750516721 0.2206326968254799 -1.801825888550047 -0.8600364660236280 0.3449585537169326 -1.653778123683483 1.358378061305685 0.1684929481961396 1.702974020771402 
-0.7177118344361368 -0.1847905398845072 2.295801784488008 -0.08497336975669174 0.9226462564987580 0.5360352941726132 -0.4425856418529695 2.267308482857523 0.07234053148749581 0.6243952629995537 
-0.3994632001577484 2.102201581777896 -1.675817412483270 -0.6324053014043534 -1.865393311396414 -0.9605671148035744 -0.9462098797692760 -2.615072165179878 -1.797574757716721 0.9031224649436906 
-0.03344189179647111 0.03284200541001515 -1.201119994871899 0.6732033211515474 -2.150593618430995 0.2975078595390355 0.4480709508440565 -0.1412193497632590 -1.364297288126835 -0.4281003603757774 
-0.1042132012413124 -0.3857374213879361 -1.266750823512209 -1.128234298506750 1.024055880237971 0.8989135955743615 0.1887167568488632 1.226590657470885 0.3994323186680839 -0.8031854134987590 
-0.04545947097366028 1.246000718171130 -2.341891819276877 1.286722276213754 -0.2328480999677702 -0.8730476487263865 0.5612087959077602 -0.6018222048420281 -0.9534058457513461 1.556665844810311 
-0.7099052002908183 -0.5433092010564917 1.810161676345815 -1.013224931946123 0.2654137908799731 1.429542068911746 -0.6928857555540207 1.719254983979384 -0.3908058497213913 2.020099408512187 
-0.4853169769082907 -0.009110914489846870 2.878635188450598 0.2492458120056832 -0.1800351641636748 -0.5537709253215315 -0.1154962462085776 0.7396795196822741 1.492250611498856 -0.06478942172615873 
0.2829095787585625 -0.6331082760693548 0.1717163273414989 0.6402311663892708 -2.266575728626449 -0.3000326417882533 -0.7445129833104060 1.016110096879099 -0.2043877057653007 2.594695957690498 
0.1729512500213730 -0.4045125748585799 0.7844214052381558 -0.9805116898272540 0.8384672695742058 0.2973188361492884 1.024759093703890 0.2934483898503962 -0.3194858098131116 0.9831024087295346 
-0.1597785295283341 -0.1061166565957739 -0.8403237061370761 -1.116472654263334 -1.178970597346819 -1.197269487194692 -1.912258984029736 0.04398891808092337 -1.135768544309274 0.9040150876774549 
0.04956151379828019 -0.1196304864432552 0.3120652117066546 -0.5271503810193028 1.470955982892032 -0.9679939257205432 0.6365586858077878 1.381093802906314 -1.638651664882818 -1.248890515953757 
-0.7416851281701224 1.316066367906691 -1.852044939263603 -1.117911145480354 1.277823263590251 1.221160553226907 -0.1383613709664401 -0.9136921240380320 -1.246257520277414 1.068322948373417 
0.4832528544334398 0.1009571961770780 -0.5991656963818436 1.578221037743435 -0.2906264474125552 -0.4660294157253697 1.422145430833559 0.3702682188450751 0.5623694504373876 -0.5586078470352970 
-0.4734556162828812 0.5052536369997686 1.007655322440027 -0.8068999879921622 0.1882260329106570 -0.6106637666727257 0.4169873510599107 -1.187301785144677 0.2959943618606245 -1.502223098189242 
-0.1838869885805884 0.08629052937636960 1.725583638346500 -2.745784296624915 0.5088789067421480 -0.1743928670491377 -0.3978102813545494 1.238865227561028 1.596860768078710 0.7825420520305504 
-0.3532476965766107 0.6638552103461164 -0.3374431462841217 0.05725865276001665 0.8979828066039974 0.4921657234094731 0.1278952262072828 -0.006816144790532941 0.3526341595576867 -0.3939732925201468 
-0.1077503652987332 -1.191980257379412 0.5183906794195429 -1.171155015173651 -1.396737572650155 0.1238123647976490 -1.050529881458700 0.4590615358834028 -0.8995803369336797 0.5484909349151238 
-0.8330502204986577 1.231425953065928 -1.283527509168764 0.6464175484881365 1.025407193415436 0.3389226490603822 0.4498292851955087 0.3150274941378407 1.483405047561942 -0.8563964118891346 
-0.6340496148153508 -1.886767284513574 2.155290607029880 1.174116423675531 0.5974073948513724 0.8962088820450734 -0.2085449627275552 1.985779111994507 -1.085140251883727 0.8999042051635253 
-0.03066917689569400 -0.1428423037777177 -2.521225776145968 1.761446913992838 -0.2715090231288263 0.7331005558305494 1.622913762540285 -0.06084786771942374 0.7294563781356024 1.641381907885570 
0.2011736814435795 1.354059900318291 -1.796122823593596 -0.1929326423157969 0.5109579338894016 0.1073064073921968 -0.04260429587926676 -0.3829796288037322 0.7998313731774955 -1.366757826628916 
0.1346662439031903 1.185832018355575 -0.07286262163017405 0.08424320084869902 -2.152811078403941 -0.9071968136091170 -0.5185479552034469 -0.5400697664030812 -0.1123383218912835 -0.7506591602985777 
-0.5323389354662067 0.9955597289118545 -0.3921541965569130 1.369070435781531 -0.1214297769682231 0.3847528474825327 -0.1778195302642370 -1.415768176989177 -0.9701217078673371 -0.6646487640590812 
-0.01837175259174858 0.1992049782462378 -0.2892376477885180 0.5206180224610472 -0.1169964847825721 -0.09341108566856493 -0.04094445527700751 -0.2794677964929810 -0.05179007365148038 -0.04038188913922230 
-0.01302797849977585 -0.1020107530057168 0.1702330188594226 -0.01432919946026598 -0.1001772952119205 -0.03036463780720167 0.1693554581702209 -0.006625467239738783 -0.004502907917507957 -0.01434637039035543 
-0.6254998445417597 0.5586214442738013 -1.675404089080007 -0.6782180893190846 1.662354094247347 0.6221338606050166 -1.655389889012394 0.1280656429794993 -0.2450266836080944 -2.264169367372214 
-0.02122760891295308 -0.1991318560968117 0.3954898242182527 0.09561871597255076 -0.2462644999555403 0.02527316479405656 0.2435784008784804 -0.09801114774163974 -0.03982829593887311 -0.06480765853048566 
-0.03444385575205883 0.09191771069946378 -0.2630221910117112 0.07350820671190908 -0.7541402344185211 0.04747644656126857 -0.5069913573714264 -0.1384615211554251 0.8616816943727819 0.005878170879565769 
-0.1361875774618530 -0.6515205653024476 1.019120037601523 0.2336140075178184 0.2413045188279654 -0.4165259918572875 -0.02726938936899920 0.1220173743594522 -0.4370331463405399 -0.5814957925090314 
-0.07823962453441972 0.5282659654725765 -0.5011531243549850 0.1582940579749909 -0.3596144072872631 -0.2118863850775908 -0.3271130274352001 0.1890562541278496 1.607875985054241 -0.3814303033155199 
-0.1050692794980501 0.8443938891191991 -1.223847694522475 -0.1676194025970189 -1.020240322375776 0.9028463732015843 -0.1205698267802393 -0.4900962767317871 -0.4458471922635587 -0.3185867743751350 
-0.2449712679235422 1.404956488908422 -1.441496786406101 -1.125990758474036 -1.541572623157655 -0.9418984977578259 0.3869670640974786 0.9395760957473431 0.8065431802280282 -0.3804895381200826 
-0.004128488474843706 0.1935167142786504 -0.1224250301363867 -0.03764246066054244 -0.07477587083935494 -0.01788804066530950 -0.007029294886866891 -0.01775617102099662 -0.006722212823329288 -0.005117981903253993 
-0.02371447234748146 -0.4733725308314416 -0.8686862908048856 -0.8792345783590181 2.226973805304139 -0.02948247854873278 -0.6780235669167629 -0.2003587698568214 -0.6761718902819456 -0.3573479671446395 
-0.0002833685353099180 0.1082461941929900 -0.09455794612273288 -0.007844217086970820 -0.1274730364794768 -0.01895882066844602 -0.002367367378947789 -0.005965864577598014 -0.0004894149835128889 -0.0007107680752064276 
1.992416975504044e-05 -0.02284860851194720 0.1248727727088604 -0.01150346718124671 -0.01311705381327161 0.1607085116173204 -0.01582067688075178 -0.0007136551472355352 -0.0006059820698720954 -0.003389648878343148 
-0.0003018209841516667 -0.1912514051577181 0.01199925966773516 -0.03895724979345596 -0.6102928421095734 0.3945339367272833 -0.04220891907976113 -0.003274244832153514 -0.003076412460547537 1.213651637148813 
-0.5908383095034198 0.04171263696591038 -0.09146318761946823 0.09250383932800882 -0.2279204092729677 -0.3682504443354005 -0.2166595964054544 0.6395269906290226 -0.04629422845566042 0.07497942601874150 
-0.3706207904103862 -0.1158513103755897 -0.4880409578762123 0.6832612434829513 0.4025810347831060 -0.1691426442413780 0.03154983689923036 -1.266621566510602 0.3273008009784234 -1.250551200438200 
