solver_type L2R_LR
nr_class 9
label 0 1 2 3 4 5 6 7 8
nr_feature 564
bias 0.000000000000000
w
0.4163832307806289 1.197756528605969 0.4473625379965072 -0.3137123651518374 0.5433418598698874 -0.5311974829819797 0.8469006838373243 0.5003233693586876 -1.599474634671067 
1.071872866076864 -0.5843178440359688 0.4103981587681661 -0.04850476946379830 0.4307242491139890 -1.326069422096813 0.2129819964855870 0.9974215271303890 -0.2589218212832541 
0.3070408985733170 -0.5018002306708892 -0.5250838085360140 -0.09630814718783863 -0.002059115452321479 0.4297191812097808 -0.5541200182594191 0.1621199301802594 -0.6336522037413732 
0.1224203794224519 0.8763339796124254 0.5484116243501167 -0.4184669453675298 0.4134421128395833 -1.173985740577703 -0.4525917747238471 -0.3243816522768309 -0.3887547623980989 
-0.02206218169107928 0.7008530113231861 0.3397150464236823 -0.1915558722036055 -0.02439849022299840 0.3346775149980517 -0.05288456356514858 -1.768799761045458 1.136198446914253 
0.5557390014782541 -0.3153491060925204 1.348127944889946 -0.6206617585807201 0.1144197498401342 -2.462845777072767 -0.5312023016611237 1.346250618415746 -0.06354799168498387 
0.3811710694745627 -0.5280010951816329 -0.2348522393246607 0.9275986128770881 0.3763668530066786 -0.9393390350734827 -1.124338487505955 2.894037045878470 -0.03784273128251002 
0.5172343983080769 0.9301744848274949 1.246281057658002 0.03903477552884235 0.1703256512530894 0.09290504318933572 -0.6935216329261337 -1.262957174924796 -0.6651597402000864 
-0.3681360243620656 0.6924350825872845 1.104810064070144 -0.6783331736284509 -0.2519634498447386 1.284459947832604 1.126730711272716 -1.932794821451208 0.01376092250572145 
-0.1347657496266069 -0.5564185759784583 -0.7267897745815395 -0.2144134764944334 -0.05797340620308844 -0.9128476586438811 0.6609078689651755 0.7333781947348126 -1.408977022906354 
-0.1288217020269802 0.03648658698642723 1.043527137989029 0.1113873568756577 -0.1241522957909876 -0.9356342062444014 1.435943988304708 -1.128246105805410 0.8175780230984202 
-0.05673150540606006 -0.2604791558227951 0.5559714772571251 0.3939756309239937 0.1699408896439583 0.4814674843281053 0.7830195335302563 1.804110684273797 -1.527166000865567 
-0.1655563453712320 1.138900337593866 1.049227793646335 0.1427581550222058 -0.08459388859618766 -0.4901944235960936 0.2304980480524215 -0.9870712306002041 0.6615700780373366 
1.188920484333024 0.2563581553384249 0.8873107657347008 -0.1642207469701718 0.1774242280126663 0.8334548339881153 1.288295422452997 -3.167740926205288 0.8369490838496821 
-0.5338979861787891 -0.7548104199157556 0.9900253313840240 -0.1938421502810490 -0.5148901714744508 -0.3217652360592117 -2.053390919710068 -0.5667590583093706 0.6318853856911570 
-0.1376722389162940 -0.9552941184314764 0.3881011568814713 0.1447534697702574 -0.3251952718278929 0.6560200962483832 -0.6526272397835151 0.9608995369987983 0.3431912757369656 
0.07559954563723265 -0.5658091348601639 -2.198436174814928 0.08674509226409320 0.2351631534907206 1.012118956150619 -0.1854437503030584 -1.175279814401697 1.671013786494211 
-0.5308229531953506 0.9926380719966523 -0.6476257433520634 0.4026423288618894 -0.2465577682015702 1.449241279704638 -1.352323047403160 -2.238957552104247 3.316188109084148 
-0.8232764424368498 0.1128564375139912 -0.2069757998863374 -0.07370145334072396 -0.3524444378547421 -0.1470787255952464 -0.4343202624133314 0.5399529570119536 0.5396093838415018 
0.5138728839141923 -0.1283378510594316 2.456473238068361 0.03613499208680697 0.2701725570217935 0.4916508436871110 0.6097111182294961 -0.2322233059170641 -2.509015490983869 
-0.2707623545494808 0.6376949106545637 0.7101915384712442 -0.04749880708506735 0.1943552251753365 0.2949400369406578 1.239733293766345 -0.8214961506824291 0.9918371691008182 
0.9702206610327494 1.280465541030668 -1.504489581765709 0.3276039300750756 0.5211002057115273 0.4944961099753903 1.343670143878096 -1.386662435786618 1.759352229984152 
-0.1421455641917076 0.05224108294321232 -0.4764642533804986 -0.08685919751647318 -0.3037321748023580 -1.115002546355485 0.4811499607236994 1.058479962119652 -0.1216322525515282 
-0.7858474714315489 1.169201297046317 1.065501086314257 0.5678560182594746 0.5373162224523146 0.1627705999730446 0.8049891369908706 0.7894529684053130 -0.4172804097170111 
-0.3503096888866910 -0.5824862184494348 2.584114801930884 0.3197962149576613 0.04926495151922791 -0.9922820869422580 -0.7944239528656056 -1.275495914681271 1.463599256336308 
-0.6501819344020111 1.147024608902053 1.235921967163243 0.7990036681584414 0.6083220499086008 0.8624135630410413 0.3443512769616356 0.1033879263417695 -1.873111571319670 
0.6016093013438276 0.7017211305647587 -2.042050156257555 0.4379402501596920 0.2466919378553514 0.8919950120914066 1.370491820701289 0.6509556018333928 -1.808503217644231 
-1.000778486152966 -0.3242556946802613 -0.7335791731451605 -0.2233960967673357 -0.2911829305488662 0.5435493211824465 0.5480435802815335 0.5992839884123106 -0.4692618847625468 
-0.1038379632303690 -0.6831610774672465 0.4466287507637841 -1.043630485440089 -0.1994971862263658 -1.896922955028205 -0.1482141197899154 0.7652181646049364 1.046882365935204 
0.1248458981302404 1.067220397949596 0.3208265012715870 0.4513264614011639 -0.0006045307321321247 1.143603019930027 1.900050681771179 -0.9859709116938398 -2.908761611603076 
0.3920247506525046 0.6793134173854082 0.5821171151112572 0.04254412847949200 0.05345066559919894 0.5482962402091516 2.294263353870419 -2.504843477174231 -0.8088352808448457 
-0.1348410497774722 0.6301502782809703 0.2538260706295605 0.07127392418934311 -0.1798335431521967 1.431756305946624 -0.1281655560080200 -0.09359510240638001 0.2614286470024088 
-0.06449989348551939 -1.956080816775373 -0.7436768504128022 0.2881686556355656 0.3398772630587483 0.7617429899424604 0.2271478547326823 1.026196814667823 -0.5662141154767454 
0.2530363369537770 0.01946988761583981 -0.5694846609678597 0.3765697694131632 0.6703251450406420 -0.3232612895290029 0.1659237382491446 0.4957773694117186 0.7762497826062186 
0.4683184743030768 0.5808315823144890 1.190544030465994 -0.2122241108547188 -0.4328499950115020 -0.5795595628006507 -0.5968985808899699 0.8440277618745268 -1.193071933972188 
0.04824562893938661 0.01499177298722351 0.9411851279934711 -0.2419364822417435 0.001287447788087168 0.9139973132871346 -0.7397562949304826 -1.092777042089005 -0.3249273358454535 
-0.1398239832858691 0.04048056364875632 -0.2205997551949509 0.03905151397137534 0.01980204016656459 0.3817206366142423 0.04864648943650957 -1.276809113756400 2.899056489456624 
-0.2838484889333405 1.010959896189342 -2.498676551416295 1.566926431908386 0.3824705963685516 0.9327621768456758 0.5907996802151667 -0.4423118194010610 0.6777631001655884 
0.2537069358089872 0.4557584138266249 2.091756267740940 0.3319150269925905 0.6655241425905715 0.7294971458545579 -0.4451320995813395 0.3160144739628093 -0.1872289655920762 
-0.5006665916789116 -1.068118952902979 2.141931699598112 0.07091570052051699 0.6255247172166882 0.1183301262601911 0.1490758305306019 0.3817557275403339 0.8364682991074953 
-0.3030885207804180 0.04664246620666095 -0.3003032585856095 0.4190833848442263 0.01443488070718790 -0.7029335829643221 -0.1624561477653961 -0.2213009356484867 0.5258073204313473 
0.1561261624472995 1.332018936782518 -0.5914522959287318 -0.4719211615273006 -0.3298675617979805 0.6810396885172345 0.1904922851247564 -1.218240232033453 -0.6427630726569490 
0.4943021909207255 0.4868363771512062 -0.5657732062606615 0.1435293606653957 0.2750197703474041 0.4915483937822341 0.8553195574482184 -2.184212864995020 1.233833026217626 
0.5302779302074000 -0.2363346984892086 -0.1141275606418790 -0.3398269643751763 0.1743605416622309 -0.5124202778774908 -0.1139634254422115 0.5368063690550423 -0.2660961516127122 
-0.02423656000474425 -0.3061119944093142 0.06104143113877800 -0.4602961273706899 -0.1569852621958345 0.2081424130886793 -0.4581815673750156 -0.7695986597314666 -0.5328214644182997 
-0.5830906751915310 0.6975214122767990 1.643640863748361 0.9580038755647415 0.3388864662428392 -0.8727912596067332 1.842065524998179 -2.117219830971523 -0.4943090591834923 
0.8052489123842657 0.9008970342434026 -0.6643677520781937 -0.1215964859611258 -0.1681184775783550 0.5761405611720659 0.2785805566786740 -0.1017556714596251 -1.040447352465898 
0.07265434982543807 -0.3104838625966954 -0.09767275559681274 -0.09709681113451198 0.01207845738466091 0.3934265896252649 1.218593469599111 -1.817859472517787 -0.4710748475414417 
-0.1502524910517629 0.8750765622183095 0.6091283180617982 -0.1166919407778627 0.1152606123112421 0.6188191677883954 -0.3470216265898531 0.6481424625695826 -1.685956304362216 
-0.0003961563331505713 1.799338997512114 0.6575670663214815 -0.1841741041947641 -0.1693886754561259 -0.9552962540387262 0.8522698794822362 -0.2081279401608687 -0.3254547602108687 
0.4482573278544544 0.7529253465942355 -0.5679183711295341 -0.3989014859006215 -0.4144910625075401 -0.6218442861995982 -0.1095235431410875 -0.6843159342702091 0.1874587952369800 
-0.5701414305832626 -0.7709914078336365 -0.9953702393925048 -0.3187172101588627 -0.03963454884738203 -0.1196370985081337 -1.065547856376927 -0.6145629017149484 1.265376742407512 
0.8774153447075387 1.122023836013190 0.4866221975432140 0.03735042199024388 -0.09268677252124710 0.5358379565500432 0.9796557559260280 -1.988618015376347 -0.7526378364138528 
0.3357496547554362 -0.6529633373899358 0.5065435503303912 0.2122815498887823 0.03069940481224362 0.1662555350032992 1.016350758028508 -0.4522694129561685 -1.097884252819345 
-0.2636558774344978 -0.3500873534220210 0.05327742107335870 -0.9054526326087656 -0.06691961426961385 -0.4179711751876247 -0.9251417558812584 0.5155480889754365 -0.7774828369790415 
0.04416555918375847 0.2762821665836477 0.7370675002556998 -0.4889186875660517 -0.6770705950553332 -0.2850347433056983 -0.9478421426329349 -0.7630050186962702 -2.037342691189377 
0.4179318241603610 -1.243624704075315 -1.053670962321152 0.4659304533758177 0.3496920002822744 0.4847535902255338 1.522372782181233 0.2150221238985651 -0.004099759108805057 
0.5247609972292702 0.1162333582992826 1.725918154598855 -0.2994016462154074 0.2772273157817944 -0.8587802295189388 0.1006459755754335 -1.664342277824295 0.5128073537848137 
-0.2863160819039890 0.3629618425733248 0.1933831223483884 0.3197699584439811 0.2258311669398923 -0.04885279344961706 0.4086285502237256 -0.5894552264518409 0.6385366808205901 
-0.1407979067581606 0.04628594333909135 0.3456397778590146 -0.3092605387505319 0.3633213633299930 -0.1692067275956530 -0.3752448068103976 1.992416177571846 -1.291112156701318 
0.4788993909396250 -0.9789538305473696 1.199459808769050 -0.2486748501070625 0.04162332931508244 0.2672793251545729 0.3041484720166625 -0.4834594199037538 0.06978214458884090 
0.1788546345910026 -0.4577234068553924 0.8833680703351536 0.2361732264494219 0.2690987323281369 -0.07100135702507833 -0.1564136932457354 0.03684929853578242 -1.378656079057112 
1.048029865453270 1.159235867678230 0.2126944655712382 0.5986434686742202 0.4012542916526060 0.1036428848755291 -0.1205386675285279 -0.5753264409466222 -1.496645581378375 
0.1473939034478060 0.07879048968690919 -0.4045233269370575 -0.4521502525938536 -0.01996760182129594 -0.5094822312900177 -0.5461591280627831 0.7402153143414539 1.371931504502371 
-0.5771395748182006 0.8969829093607139 -1.641295165566835 0.01892007642289983 0.3188287727073842 -0.1349945632704142 0.7163664653450970 0.2841098297146213 0.01936508944660056 
-0.1739368999750443 0.8871539147953260 -0.2969214953064123 0.2076160155143418 0.1349424401517422 0.6239676006280135 -0.1824808833872906 -1.084007649656221 1.670323485625271 
0.02500728547924129 0.2045273861269737 0.1508305033350449 -0.5886162208781281 0.4724863782928928 -0.4298072327947937 0.1769652784316857 0.8465354318782469 1.208853883152539 
-0.4604540508070997 -1.583359224828386 -0.6423348374244038 1.225034805336313 0.3548994259200239 0.05976301340749886 -0.1330738710511687 0.2621804079669630 1.418362238789503 
0.03788909820282863 0.7006614801830865 -0.6541289714075185 0.4723945581813845 -0.08304801354412916 -0.4887057405702894 1.069136220954976 -1.609333666156901 0.7284104501914564 
-0.2377191178732251 0.3006666762341044 0.1677964802953572 -0.1454382429469775 0.4032893202740543 1.056648139838640 -0.4325881890642513 -0.07059045162921560 0.5837341086330267 
0.6157145450193493 0.6016882588396061 2.242282800456445 0.4121929578833704 -0.09304532177944472 0.6844597684446032 -0.2226682163542363 0.6279965431468724 -1.496305374523316 
-0.01076576371767095 -1.333775027011154 -1.694797208068672 0.6354208394029070 0.02171226342113343 0.6281359950395651 1.512993508770133 0.2681548767544915 -1.575557895366396 
0.01724649427972752 0.9208712436210870 -0.9229210522976675 0.009890433695427237 0.2428969291643808 1.363153506677133 0.8986645688753516 2.130276615534732 -3.007506901649225 
-0.7707945503440954 -0.1486213742497441 0.2230836864955574 0.09811274236438170 -0.1464456236143074 -1.883312925666023 0.1777473852113825 1.176372800965201 -1.835924140389673 
0.2015667997764856 -0.2707106389256851 2.275873281558678 0.5290876309356840 0.3808893236877473 1.117564752553114 0.3211388266744554 -0.7766256860589784 -2.319281616773163 
-0.1849585028712544 -0.8697404499529392 0.9290407161625578 -0.6514863409140673 0.09952966482907680 0.6844458660459171 -1.559802408885394 1.048065610058755 -0.8307290820065083 
-0.03316824337809236 -0.4171808573004778 2.552333855579004 -0.3720645270810376 -0.04972734345919798 -0.7484052083900672 -0.2732426541311986 0.2781759001560223 -0.3143482933680268 
-0.2596976789459488 0.6476999057650925 0.2678002179110599 -0.4204043694165728 -0.1649723288773984 -0.5932029952387667 -1.465753238854189 1.623703828617561 -0.1022666795535897 
0.01161338485369393 0.4750250827677972 -2.070211328071010 -0.1427500469826912 -0.6481108933364855 -0.3591692153772165 -1.208955969412485 1.356080969647605 -2.083849374530575 
0.02749858270872417 0.4876785580210625 -0.6041213739481819 -0.6733926291705628 -0.2765155526538003 -0.4774799813546217 -0.7855705255822601 0.3776885068055804 -0.5865078817906441 
0.2754058186343620 0.6999578622977232 0.4958296382068358 -0.4491365421706030 0.1524330398794186 0.4352600025935596 0.3157592039369543 -0.2376347545674540 -0.8733414881238820 
-0.5828456212558749 1.132210685129083 0.3479916271742530 -0.3207181063663880 -0.4494559086868125 0.2523080345449743 -0.1246538838575347 -1.826803055144725 1.037992218377783 
0.4809998152661147 -0.2366906165966625 1.865429755193184 -0.07966428973177378 -0.2813066933027055 -0.1682400034822788 -0.09039760664139503 0.2462136378723092 -1.272630380806443 
-0.08018022773413354 1.713348959708446 1.188397499122055 0.02163917405500809 0.8204514737680704 -0.4822595093149292 1.130076153149135 -0.6172847929885580 -0.2994016376141943 
0.07975543576694161 0.07695236617637284 1.905255575653166 -0.2679090649299830 -0.1069462776326059 0.2996190296978797 -1.616361787387534 -1.665985469064866 0.8291766684512405 
-0.5075781893550190 -0.2461720491541181 -0.3676493358222132 -0.04939886000489731 -0.3604790787122995 -0.5513497813463825 0.6217584379079115 0.3605911563233831 0.1627007847619944 
-0.4043583696988999 -0.1297436426291885 1.430522675907435 -0.8862785893048368 -0.2071251027993056 -0.7184682682596049 0.6070570197346721 -1.532602463140014 -1.707341868102142 
0.1690861886742663 0.03415848805594823 -1.016428920835085 0.1743569109374518 0.4026635983578095 0.3600679805636322 0.06040087625013528 0.5578343280784196 1.683981814772291 
-0.1272111720813282 -0.1271680999635458 1.273382998449992 -1.242944010480523 -0.3559160620966967 0.4473197241904001 -1.928872503704928 1.452503843537121 -1.226043945754511 
-0.1276501999423709 0.9376897629490050 -0.6213200036162018 0.2503420596337798 -0.05867219944780228 0.5268671527422080 -0.3882923669396607 -1.793379783461198 0.3291054096587484 
0.05475708792285650 1.375870875275742 -1.766373473060496 -0.4411079657078850 0.2900753916685750 0.005274878209370476 0.5304188227017278 2.653197912425772 -1.655414326417602 
-0.6919087040513106 -0.6571071312629074 1.008469782049627 -0.7849526456020539 -0.3117937936579660 -1.019202290038747 -1.509940015682481 0.7260379584656911 0.3114405433791049 
0.2828897963677631 0.3471343803987906 -0.4508963731613846 0.6322382280914259 0.2250847504731259 1.158556288975760 0.2807039103933662 -2.440143815602748 0.8673199813337623 
-0.5467191772812178 0.1805664426639134 -1.213525606211552 -0.03997944529530934 0.3288048197869128 -0.2582017663621688 -0.2332405871738089 -1.665157692498934 2.772810882083775 
0.5315617411813943 2.001042473933992 0.1246877070992670 0.5745063700660815 0.5546263589136085 -1.491630572073816 1.409353808534237 -0.5111024842609357 0.9755221156874898 
0.2476608233824676 -0.1614253405316232 -0.5613164935656236 -0.8223570319042419 -0.05716665866516336 -1.373713817445476 1.241272706021739 0.3680143835873683 -1.134904366771330 
0.2854429684950010 -0.3725170537837241 0.3821404527494864 0.1242671106743684 -0.3357956147860112 -0.1325805696325050 -0.8417680205371616 0.8107554712128688 -0.3121993955720458 
0.1335996182463342 -0.2325343077829480 2.000003125202165 0.4012097480036906 0.4322248407876300 -0.9024812101192919 1.090300397044394 0.1216386887738529 -1.949368514679451 
-0.4809779611956875 -0.4110961615972638 0.9971997691927342 -0.2346690941310800 -0.02373487279387007 -1.574992968720708 -1.027126059804101 0.9590952767089229 -0.01497594578615056 
0.6962644898607225 -0.3097901051221713 -0.7034509130123947 -1.045745706010725 -0.1133864320146430 0.1537370644288219 0.1662348122472630 2.419133280029153 -2.284427709527449 
-0.6657301435012399 0.6936004229451651 -0.3159506479807373 -0.9986111667924193 0.9989191203834517 0.3320905304871546 1.255552425471129 -1.047385656529327 1.789461173559369 
1.511458951767460 -0.3694185274520910 -1.102068785200167 -0.4139649414492788 -0.03133323569347478 -0.9987140079231266 1.024682585312574 0.6565708021578175 0.3779202193409856 
0.2336223859192495 0.02199510330234443 0.4184984318940185 0.1658938453918669 -0.2416004409474458 0.1529538769628162 -1.566962925149817 -0.04828224569526811 -0.2183015203616673 
0.8796219115119838 -0.8907923763683292 0.3630799745988799 0.4947744258140757 -1.683469039997043 0.9205795469891963 -0.6725678007490133 -1.148532891977786 1.482929064129009 
0.2501459875780398 0.3484186212656440 0.7416562748191458 -1.427679314308036 1.946688412261284 -0.1667090725779281 -0.3965878628465845 -0.8013437798198697 -0.4421278866955375 
0.2996822566325106 -0.7954601059705413 0.1246116189132000 -0.5597338433816241 0.5550295547325305 -1.337980821596850 0.4072701003320904 0.06186296937632213 0.7464779019832966 
-0.2457598174270715 -0.6064635364589513 1.221168350250943 2.154967808812902 -0.3301064881578814 1.524539022335192 0.2199431168538330 0.5957818549865470 -1.695454528420173 
1.030692589015086 -0.1352372266154749 0.07619276248290527 -0.2801443275576742 0.3899116320219866 0.5277424575980527 -0.6174218817372559 -0.8942932040867101 -0.5362172365657047 
-0.6505160065751588 -0.3854266969333719 0.4936437898521365 0.3303895190956910 0.2093997059912297 0.8527340157018698 0.3162777992590245 -0.6560758542882993 -0.1389922372975704 
0.2102921033230738 -0.1324427002653760 -0.1592689178298238 -0.1010414402832380 0.2135778910730253 -0.5715210298521519 0.4223248290592472 -0.2878979376076372 -0.07873262460368971 
-0.4799314434008786 -0.4018762072298531 -1.181062227259700 0.05328767618527765 0.08518202627533830 -0.9064956302469913 2.062470638880856 -0.5023542784833125 0.7778734529575551 
-0.05389076238758255 -0.4243356155569188 -0.3507838738456670 -0.09987232490527398 0.6742838792018215 0.1746222226536976 0.4094400748458313 1.313977753481048 -0.06166309817988275 
-0.8155738455951016 1.257374419030751 0.3356707515688057 0.7001848822800054 0.9055829846002296 0.7050594841069033 -0.2857316089658613 -0.8738584584630049 -0.6396445462024052 
1.652074374048554 0.5984646112849765 0.8694589670003167 -0.1725841506292831 -1.313461955678854 -0.6873766895682868 0.1919259065568377 1.059285630399997 -0.8958851084728268 
-1.002627192892745 -1.069660013732999 -0.7738827112828591 0.1191818492332751 0.1413561682985339 -1.083886179788527 -0.5359980403037711 0.6041187536676044 -1.559361977021951 
0.2029321774578569 -0.2890383444469066 0.6414072297909069 -0.6701927733926478 0.2603401201111830 0.1780303320506613 -0.9851603588901250 0.2682521199066404 0.2791086700742617 
1.274682802207385 0.2857955921040196 -0.03914769100173689 -0.04035787145248344 -0.5238727385582450 -0.1468756557616109 -0.6871633755715876 0.3077130577749431 0.6431644525002922 
-0.4454418423244849 -0.6992144073538490 0.7671769013410485 0.4013447802352508 -0.8167001771050960 0.8485126231029962 -0.5045242897967812 -0.8229734041163418 2.101665378967540 
-0.8167697145805723 0.7639994830749013 -1.294256411653276 0.1662283733269931 0.2722627732441015 0.5059675255011088 0.08291651776496112 -0.5706450345274800 -0.8272427618161269 
0.4539107968827779 0.2167223778708150 1.266351980649731 0.1649701593837587 -0.6683446749963465 -0.1323937948073717 1.351571647303548 0.7589134900598746 -1.834262621624334 
-0.7307543904720271 1.315616855932754 -0.5326957774137580 0.5367617795217222 -0.7575392182429641 0.5391239240344295 0.2511414151996557 -0.03574888371410990 0.3604976209629415 
0.9008296219400189 -0.1323206674841543 -0.4654663009834689 0.7571081964261432 -0.03448302570562014 -0.1129491678057799 -0.04295267741859993 -0.04904812991160491 1.596920193471651 
-0.3849856416534918 0.002769550501045458 0.3313530173954239 0.5257919366000464 -0.7618376409521024 -0.1002257032504013 0.2311760125848407 -0.4355321884685803 1.287950336938954 
-1.462974388164666 1.269166255964354 0.7988113457783723 0.6962078043125683 1.243543954937312 -0.04749194604139402 0.4511090329002595 1.685036491947638 0.1556630368908352 
-0.4529501382108335 -1.188601273202365 0.04030260876137520 0.9999462976786105 0.2503225458787234 -0.4489847989065182 0.7875031690685602 -0.2073286909136151 0.8176368341632034 
-0.5990384613481263 -0.5767392562610529 0.3372605503731024 0.5457522753564963 1.321565085844082 0.2100374328729384 0.1053457937338972 1.248664990121785 -1.370662406628452 
0.1927710977322832 0.2875894828265357 -0.3372302192735902 -0.4780340610172530 1.417306797069414 0.9316192751918120 1.003607467118655 0.7049178544496376 -1.561271747553796 
-0.6876266382050222 -0.6713069838054851 -1.709311115300116 -0.01301478132962761 -0.4058335974353919 0.1134595096721015 0.7200359658485802 1.186720437272092 -0.05703958937100599 
0.5176767610362663 -0.2856359608011435 -0.6913754046064399 -0.7453186107363354 -0.9609094330290838 -0.05255924079906528 0.1445105099193202 -0.8148638124723637 1.050022808734319 
0.2394800050414495 0.7058083059829808 1.381093713978308 0.6150195305245139 -0.5493771718307746 0.1017640458624289 0.4328772546993494 0.8801672600127894 -0.6853161822290376 
-0.3919533222391623 -0.6978504445157350 -0.8583497908566278 -0.6136043287458184 0.6922165506578466 -0.05251921964509914 1.766316435355113 0.04567118705731876 0.8151695564352140 
0.6754914009147671 -0.3340376303191821 0.2667757649204497 0.7305582743996426 -0.3160450072804967 0.3320158649392692 -0.6758320365354433 1.213788933330846 -0.5195246542391686 
-0.6418870118940171 -0.8499936148910977 -1.370032599919458 -0.1327668633265822 0.2647186058196831 0.1640373879742480 -0.02127551074790904 0.8127356639595296 1.077724437014469 
0.3138557352192370 -0.4932317913484125 -0.1745955845448809 0.8644353137904701 -0.4923196184523924 -0.1792314448747498 0.3832563410153281 0.5769410508733832 -0.2100661809555415 
0.3655751048440591 -1.002224025214533 1.068918721907707 0.1385226220293073 -0.6794437958488170 0.5412197624652300 0.2781598645872449 -0.6806901746462545 0.6006496780940507 
0.07470575841434623 -0.3093257681497548 -1.413624091383587 -0.8020764960876834 0.006899075156797939 0.1360958558267369 -0.005460817215966474 0.2404523788057091 1.529803538474025 
-0.7212821855993008 1.232725404567860 -0.2773235499707287 -0.2080925811285133 0.2200169282407807 0.8721819625472126 0.07084654029902357 -0.3233166243267874 1.502349782702624 
-0.6840709138645096 0.6295410319590171 -0.9672500982773166 1.535389466963683 0.7586031148501199 -0.02741577197074709 -0.5442221255131708 0.4666238985797638 -0.8442592613033955 
0.8730514141317853 0.3180307184098477 0.3275497903662639 0.3460586085949385 0.8667102830517616 0.6641304215443372 0.2568556541595813 0.2106265490928756 -1.323220957413485 
-0.1377905818072049 0.6104084066378433 0.6381675769819775 -0.04196809636098323 0.2476520020777765 -0.2353441461972542 -0.3886305689347119 0.5796698093820548 0.3642649786596635 
-0.3272704021224357 -1.579221759445035 0.9756255924076005 0.3025258650026247 -0.04403010976243925 0.07139674174756999 0.2983045369831993 -0.4559420607791611 0.4786221421629073 
-0.5965273880127524 1.623953232507049 -0.7939123426862034 0.2244884677236130 0.2584378688656615 0.2624876777265702 -0.7164850754947051 -0.5841818388539745 0.5455606157993486 
1.523435243263257 0.03694041006637516 0.02614206496832229 -0.4359246890516856 -0.03594670292802164 -0.7043046650113687 0.1505475943009916 -0.03177862626753304 -1.266248991658117 
0.9599786653012566 -0.8055084784402674 0.4268605041944134 -0.9544837287901786 -0.2658839461302755 -0.3302415197645305 -0.04176332827207438 0.5995129249985853 1.452921249825139 
-0.07664724836260250 0.4480991649919661 -0.3208460861131668 -0.5285931851302887 0.02153212771749240 -0.6687544314357057 0.2676496285582329 -0.6894138156932391 -0.01225281052520692 
-0.5285321233768522 -0.1808901679906213 0.6861459206359704 1.013359154101117 -0.5138920781760029 0.1177686056914030 2.134423684755925 0.1845092926729431 -0.6331385501545788 
0.06266180879175731 0.8970726844959778 -0.8881146107446874 -0.3425358984161468 -0.4925375508238082 1.056446226418241 -0.2777578139664991 -0.4045910427544722 0.4557729424817213 
-0.5576420836444113 -0.6015661077447654 -0.2744682820876714 -0.03532802530532155 -0.3072694781141472 -0.1940842087418711 0.9134227425213335 0.4269355486779228 0.3363170222497607 
-0.2868237316813918 -0.4588261581065982 -0.2684670187845420 0.4935243412369346 0.2150008657406021 0.6609265669627985 -0.7739833845501701 1.258609173876901 -0.3482368336617143 
-0.3061293454065462 0.7302187273820320 -0.8313594539806790 0.1173697340848199 -0.6101797003150515 -0.3499550963700644 0.7637717836801817 0.8136373050496126 -0.2524784379223464 
0.1053010368131127 0.2990419264622963 -2.058522660880143 -0.3353342384608231 -0.1230893342113453 -0.8396117988403843 -0.3689791502494619 0.2201632228051039 0.5508065088416246 
-0.9865448262564930 0.04656495241177594 1.215442799171543 -0.4647928806745861 0.6900421723191362 -1.053886128201719 0.1515856558385703 -1.217252166743964 -0.7458258408231680 
1.254409820968729 -0.2255545258584066 0.9449514382661041 0.6328225657189057 -1.021292433958724 0.6135347395212496 -0.009708270808676478 -0.8774436415496634 -0.5087167137181966 
-0.1714995249009851 -0.7529880627174055 0.1787450755296136 0.4698756338532990 0.8592774289089442 -0.6014422185181015 -0.5897299142365975 -0.5998164043607007 -0.3287822740547141 
-0.2619321647127383 -0.6427753045253842 0.1211667636239048 -0.9048531290351282 0.4156377382407064 -0.4086256008986220 -1.984793023112612 -0.2576072295981878 1.329022259910770 
1.130339986878424 -0.9302576811490746 -1.347174909875209 -0.5010850107784243 -0.6991513600137151 0.02633926627640833 -0.5889690558221854 0.8978581652055777 -0.1134593556559381 
0.5992092755684635 -0.9902536456639264 -0.7905663962280065 0.4005466633581819 0.3752605110223704 0.1561119632580038 0.1867916728289716 0.3271848662454385 -0.05961339302234581 
0.7075560833197218 -0.8682260173200230 -0.9537540605051027 -0.3226423154646698 0.05259672585340305 0.1208699218254123 -0.6610870768106766 -0.1680755028871631 -0.7679702696538909 
-0.3278442017204105 0.1813288753275222 0.3989732138720886 1.693313178502893 -1.206432816122724 0.2742748376998416 1.357302869527960 -0.5923583966890215 0.5116998412246350 
-0.2771125234141358 1.388095224920756 0.5413739605800906 -0.3543169846923275 0.9388444509863570 0.2400526993001969 0.1854319800988107 -0.4385513499010658 -0.6806890111926565 
0.2156676309722985 -0.4920066678725431 -1.005092135837699 -0.8446116703815005 0.5505146350000786 0.6131290664220614 1.093992114066536 0.08895653142780074 1.285270653626771 
-0.2753771213086224 -0.2154919115123122 -0.3486459817622277 -0.07719475184756000 0.7987523172623730 0.08730130654689905 0.9221425508695094 -0.6213292469039735 -0.7516974710008458 
1.170853429826329 0.08121374584007470 -1.569099338802918 0.3267788163908758 0.2461503548733518 0.3049595209367843 -0.4068555728335096 -0.4417778478654032 0.3506868227349458 
-0.4995699981023533 0.09247159694967994 -0.5754480818424579 -0.5331259048290335 1.296701959480499 0.06394254625873594 -0.01296003458756051 -0.7156838632031490 1.417307443802980 
-0.8315952969374548 -0.5355079945592678 -0.8130536227283177 -0.5374045425730757 0.6454515866753077 0.6881507502416930 1.226888412027787 0.1491666476754332 -0.1903743083439272 
-0.2485418051801498 -0.5939841156286186 0.004490136698466637 0.2065024409927204 -0.1047983768784815 -0.5346401128511162 -1.086927669033347 0.8733391904957304 3.018358789492802 
0.2865997988545057 0.09926138000285313 0.6875126343604551 -0.9130783036945145 0.3482539274145949 0.6288700743146033 -0.1669185287659546 -0.07152148799251828 1.472206676945410 
0.07963405281088692 -0.1860801641660821 -0.1709689057565709 2.192743304464228 0.2389500870960342 -0.005172838079557630 -0.4713919646565833 0.06217579403237582 0.8069144051804167 
-0.001024729240985060 0.4075468268401697 -1.473260443732979 -0.2850279032280076 0.8153874797726324 0.0003079924757220381 -0.7023461168836396 -0.4563828938396079 1.941480543069886 
0.2069124101403468 0.4806422371470062 0.04376293792181227 0.4299222300894535 -0.3885881005768480 0.8512829679714408 -0.9259193130769512 -0.3045621140666036 0.2985482581318012 
1.173685614816505 -0.2831059162995088 0.9066691949573811 -0.3820235868869455 0.5421263720120066 0.9117475940767763 -0.8851233405660668 0.3303196642423538 -1.030950899617501 
0.4050852249075168 -1.611639575326674 -0.5734680576983820 0.2519820046390102 0.7194671096560896 0.7633607009189329 1.144196776065822 -0.3034535618728497 -0.6048883624950065 
-0.02990992338670268 2.539928023991643 -0.4459489675719548 -0.4797430845452714 0.4328973157103849 0.6535049734015951 -0.3954290059887340 1.762585723166157 -1.540331047831941 
-0.3642968985762087 -0.8867083870238730 1.023631830672034 -0.2431626049084667 -0.5137725578390542 -0.4582741740789182 -0.03827701435524962 -0.9492172035060936 -1.054592232409943 
-0.8728533566204615 -0.3827917440292560 2.078171811003545 0.5508441194752467 0.9072323482367054 0.4843921346449839 -1.134876118670945 0.9364640447762860 -0.8561742470082720 
0.09080592519126399 -0.5930621769848177 1.611834977532480 -0.4288782084544748 -0.6134239015850697 0.1208165089286515 -0.1316821006341137 -0.6481843397522498 0.8988169326070719 
0.4651729333702933 0.3454909052839242 -1.483105081198317 -0.9720979266752335 0.4799773784552691 -0.4276643155861432 1.332595984419309 -0.09199583193204264 -0.005394400858013584 
-0.4434690063276258 0.8979620395830804 -1.220108294257270 0.1543688272845820 -0.8935386964846435 -0.6878202248793626 0.6191460733937135 0.5885872796361131 0.08508031159254038 
-0.2743945469238248 0.1054961840609298 -0.3773199647100298 0.1564960039510264 -0.6869075343485437 -0.2667460989545312 -0.4581456667577495 -0.3347092010829792 -0.3460436312881478 
0.4023070513641028 0.3755590590532312 -0.5468634218068094 -0.5125164902213839 -0.6648091689482661 0.04731455433853704 -0.5449840427567642 -0.4296434715377300 1.790094670131460 
0.5225897770930035 1.296671034505040 -1.078634635810274 -1.154293069464567 0.5484252769324482 0.8712736873380690 0.2033365499590532 -0.5967178269255791 1.054884563332158 
-0.4062343325787743 -0.06466821384541138 2.285538129964807 -0.1544981731606081 -0.2975759043802200 -0.1314706348005044 -1.016459245015812 -0.5316453327039053 -0.001076041465750445 
-0.1040921523396335 0.7562581063864404 0.7878597245153849 -0.6194628611494074 -0.06460741352479630 0.3977776165735724 0.2468593926777232 -1.123616238233287 -0.2856432756672301 
0.2494283435764213 2.396514334103690 0.7624311652910340 0.2870155164683131 -1.328014101422614 -0.2847946179983665 2.319633907005640 0.2449822201955605 -0.9962484432406363 
-0.08489682711304422 0.09545849782314375 0.2257911267695233 -0.3770492834105027 -0.1624459027097064 0.6327621937893247 -0.9582815960596627 -0.5307569983489214 0.6427325220890516 
-0.3741190038769678 -0.7412678964267168 1.181402380119017 -0.2450162395687755 -0.1320253573308488 -0.5258456779143447 0.5752282215422043 -0.04364952259385298 -1.165836068576595 
-0.4547859425074302 -0.9591040412039200 0.5084078865899670 -0.4622992323189830 -0.7270293638696593 -0.7366971904919982 0.6713582792270156 -0.1961799917611742 -0.8153787747508927 
-0.6842486472552849 0.4035245078278874 -0.3919254158930357 0.5786169946660759 0.7428811879280836 1.222986915818935 0.4330042133125752 -0.3646184864653820 0.3210947969422665 
-0.1996719662510650 1.289998916592429 0.2199824424861204 -1.422639555352171 -0.6109290463437456 0.7011124996337093 -1.839024809779370 1.480398229645134 -0.4610889247866380 
0.01919145468907341 0.6724817589817940 -0.9685265102832179 0.001293182906027444 -0.5703257388181384 -0.4842206232077521 -0.3672742526055416 0.4123776341149829 0.3528188251470645 
0.7329966516306825 0.4896207025291327 0.8160347737844355 -1.007534645475162 0.3422250243304319 1.051063735887967 -0.4538896087104318 -0.4052962112224383 0.7795949482505419 
-0.1138394837021570 -0.6685507650110270 1.609867738589841 -0.9766418668200898 -0.3926186708285916 0.1607438346131828 -1.593341929058484 -0.5315493082396970 0.2193946295733235 
0.2072179848777609 0.3072892974454025 1.251479303183744 0.4741136713096136 0.2128536183730820 -0.5858335306529272 -0.7221902271768306 -0.1649827613182656 -0.1241095567036951 
-0.03700464662203361 0.4433702651192900 -1.553923603001969 -0.1382036407665624 -0.9156714274764839 -0.9941108141160480 -0.01582901982398489 -0.4612260518004019 2.916031576576041 
0.3450419043123324 1.610925310921412 -0.4301204744545209 0.08382383710480822 1.143504759645655 -0.5629175606650199 -0.2491330967648803 0.2182244820716369 0.7564146753883174 
0.7391451971721552 0.1448754621099127 0.6941422999868085 -1.692882265778084 -0.003652668237749318 -0.5691345348236949 -0.2484290014337721 -0.7504546607439639 1.032539841076621 
-0.3114939399386499 0.8328460102824607 0.5217064965286597 0.7514871130373135 -0.6333132666108636 -0.4547723409110974 1.064499120567337 -0.8200282303219886 -1.355891447364202 
-0.03657666940822861 -0.6683134237215254 -0.3579412960288200 0.2433527168441070 0.6968073670291481 -0.6240996338860141 1.257995528807401 0.3808761969853634 -0.5478124271218033 
-1.095539952718352 -0.8747630055425676 -1.541655063252004 -0.3274548806737939 -1.316655232604651 0.1998620615272523 1.921575734082597 -0.06445599602444424 0.8520190350084074 
0.8032752072882956 0.04755407347740464 -0.4359425609624154 -0.6126439058233440 0.2260799576735758 0.4835317785736859 -0.2211675561765650 -1.665384338889044 1.585678839246396 
-2.637108255784302 -2.393491891675398 -1.332790613374411 -3.476751467197067 -2.998560259573958 -2.648837447573208 -1.084956626663019 -0.9463034003806149 -0.7917989103852016 
-0.6568411228440787 1.354493326711311 0.5389040110207888 -0.6561522647050579 0.2354825496045004 -1.259643258536606 2.351792453923211 0.4677838503356731 -1.323137159484798 
0.7382983036793488 0.2341540332665252 0.9050522457086602 0.1789382785362657 0.1211111410106819 -0.9554608837394486 1.349777560066663 -0.6178282721256758 -1.076786309800877 
0.09746883180540292 -1.043240731917684 0.9073164660284719 -0.3444298666991228 -0.2087064862362829 -0.1068071185836272 -0.6118303797332505 -0.4854329593460937 0.2034179088510063 
0.7438209688770199 1.165277667601976 1.261482654592948 0.6457312433919091 -0.1529142407295570 -0.3819330090374614 -0.5037292208857908 -0.3260783148301519 -1.205719997637787 
0.7048294765140283 0.5482592521591263 1.833514001415528 -0.2859130944105126 0.6473371100557344 0.1723858436783275 -0.8236293566312483 -0.4307342116683746 -1.644511898900687 
-0.03965063513544372 0.8998590731074608 0.3108722721425560 -0.05819829739093240 0.003898305112436636 -1.171039841085491 0.8934809910263337 0.2070198166572731 -1.400690650503807 
-0.4003250696628409 -0.8942098671943530 0.1924554233186356 0.7254478842317564 -0.3370764544979273 -0.9038174005587477 -1.004092741976249 1.426784573290487 0.1332922792082409 
0.3366606884380362 0.5005457239541604 -0.4121771788273306 0.4477274475239971 0.1440358619262100 0.8860410241749872 -0.2464199985322199 -0.7982471975918517 -0.06192021776273927 
-0.3173931444597346 -0.6187721214759327 0.09941426956371127 0.1559499284238478 -0.08954991738228521 1.160195919030772 0.01059364101270788 -0.3661376897567925 -0.7185891633331690 
-0.01577258705662819 -0.5152528982109350 -0.5896419467166769 0.3147051683862544 0.08312172189785143 -0.9058747846316912 -1.326268803225123 2.046894272165310 -0.4673026036064636 
-0.1666657938487742 0.2377983753692519 1.050021886352335 0.2215529845954857 0.1929731385180452 -0.2674690313231216 2.533021951245457 -1.480355047172030 -1.006946174722702 
-0.3357561149909496 0.3370168806651513 -0.5388794038143663 -0.1684673368156027 0.2331582505283094 0.6749292784438471 0.7579271156001007 0.2072376142484426 0.1311458703090345 
-0.5296619204893632 0.4184421926748478 0.7913765483098908 0.5436756916408396 0.3527701711030413 -0.2716289082315804 -0.1740925839547549 0.4434709355818234 -0.01096332049092033 
1.110963568152261 0.3538145225335609 -0.6008505229665679 0.05195011250790462 -0.1961451222074523 0.8600334697585224 0.8899674993547593 -2.491728186586940 1.813586646535259 
-0.1187927170385366 0.2566025772955745 -0.4114908025970658 0.4989225002113926 0.1956296661699712 0.6239663747722771 0.2096092057546883 -0.3801230201889776 -0.2146381329012961 
0.4699106117941020 -0.7526025116561726 0.07608117189586089 -0.2175487377494030 0.2606452156403836 0.004630442898839855 -1.897734498133130 1.009666182194232 1.610169776050594 
1.061296933027984 0.3172267684918378 1.315901909558465 0.07400139742372541 0.1788429158458882 0.8831140927981300 -0.4749152729490144 0.5699987722554458 -1.356626129919474 
0.3366975368847146 0.4932808089489306 0.3136901923950231 0.6560631282371137 0.2268241436105933 1.777799558463748 -0.8509622010569705 -0.4936300073756230 1.615423259466015 
-0.2531258005889026 0.07709255689965497 -0.3506291001096135 -0.1259219689517700 0.07021982822825573 0.5660864152520791 1.764704576075934 -0.6593275992041211 -1.239392588228729 
0.1203144666691268 0.4977535904483841 3.773476056854113 -0.03765257266717562 -0.2772628650496680 -0.5176166794654048 0.6838651091727183 -0.9577762324918349 -2.791586803244185 
-0.4115626040922663 0.6600498931297589 -1.834646021630859 -0.0002895592809256803 -0.08896238550408080 0.5220749134117711 -0.1892334821535356 1.005281949767401 2.114593817170696 
0.8264179522763733 0.5866033474525472 0.2582542999693831 0.8259338994645995 0.4474893200198258 1.143606831206188 -0.1487952628245648 -0.3540710189960522 1.517819355966255 
-0.2220555272491168 -0.2626986755929683 1.201098697926382 -0.1159091166627382 0.1173140206915681 0.01009536033685261 -0.4789327989933763 0.1314618357032373 0.1296007951688058 
-0.3911751167088389 2.090093217651009 -1.463094874775989 1.182367277776818 0.5694439000908389 0.2911182368597342 2.593511875912101 1.524953114653704 -0.7676898920670858 
-0.1805208862037674 0.1012122683068307 1.504450586694705 0.3473192094548787 -0.06195348142313201 -0.2652374148829675 0.5082143047056289 -1.586767857300423 -0.9576628094196793 
-0.7076072548760505 0.2908021201569693 1.703353884833093 0.2897697862675560 0.7368006254436971 0.8771325817743622 -0.07551763334400005 -0.3061491806119524 -1.081343874013956 
-0.2481415024717729 -0.5614372813720783 -0.9101713236511859 -0.3084558302868907 0.2057381165827774 0.4842849832798132 0.3996233211822975 0.1413668087276309 0.3501001376201703 
-0.3860502292147790 0.3865075946889292 -0.7423994785531280 -0.04926334278135846 -0.1084774388934444 1.120588407154887 -0.4912860731668635 -0.1731904606301764 -0.1021163514970002 
0.1336946028122564 -0.01656119347257722 1.066284990658385 -0.9726321157820597 -0.3131197174406981 -1.037659098528542 0.8444205263940578 -1.822960914317695 1.042530571211964 
-0.1410673417116211 0.7568814583035068 1.140447395307576 -0.1752977256021033 -0.3874783875797533 0.1491674258638643 -0.2763897255323876 -1.558465451048965 -0.5619339667911001 
-0.05305397829309870 -0.8875932319620454 -1.143424133669199 -0.2772139733049314 0.1276331754323654 -0.4220074587591449 3.257625746279620 -0.9583378329737785 0.3286571904638296 
0.5188394868449384 -0.4419948515514655 0.3296752007842686 0.4315150720899585 0.1957030499019976 1.545520703070078 0.4012837529162959 1.070837385713013 -1.806747892074549 
-0.4774142099115346 -1.172334368633192 0.2609188025248450 -0.2294204734636072 -0.003500083389247167 0.3337556274584478 0.2712886448068688 1.067745823393886 -0.2343863700949234 
0.03010745884583681 -0.1863960552341008 -1.020649418890822 0.4661864721703904 0.02772594327524489 -0.5968483833337939 -0.4028249420739560 0.5792689473687684 1.385570359671307 
0.1568783650693052 0.4863670447654521 0.3854121596482347 0.02480193933461029 -0.1273268925260723 0.1175150815969700 1.934903825662391 0.5488326965916938 -2.066543889289051 
0.3288713003125576 -0.3314887392933035 0.3352644401181516 -0.1029363236717371 -0.04223294227035015 0.4683820099328837 -1.672572440632508 -0.1487323923628314 0.4112810184823152 
-0.7000214318078094 0.4530127693359200 0.006567692375953921 -0.2853644850416280 -0.04352915761628978 -0.2422408658749675 -0.1931850079035947 0.05291769747821215 0.1739020546037376 
0.2543185372644984 0.7653376844165304 -1.730790076467800 0.7730400201362979 0.5369722677624159 0.7087163111488021 0.2087925557904744 0.1739663422269391 2.147837562230680 
0.3051282512239769 -0.2569009572853518 0.3407777619014027 0.2424185229957860 0.3493054821984492 0.5217555757578054 2.045772006618507 -0.9519442092362378 -0.3395678216354633 
0.1138810033342353 -0.6912235568958728 0.3081775146852943 0.4964220081018357 0.2454866197662303 0.6736087944067118 -0.02078308398596118 0.8959842962546185 -0.8499702166884268 
-0.1773817023418466 0.07991589876976340 1.124621695311710 0.1843149881357666 0.04766505299623693 -0.4242952049621832 0.2336597626259152 -0.8434599064518503 1.141662324115588 
0.09443968023684360 1.040143369293061 -1.319799256330059 0.1488225880047479 0.02488594645081819 0.4123967586874675 -1.002310700930775 0.3143648225690686 1.728638170140328 
0.9500622023694500 0.8042432418452272 -0.6863717086066493 0.3199835554683053 0.2431415180044848 0.1088505326598092 1.828572494012129 -1.385028688995877 -0.9877645419703622 
0.2647606563823868 0.4995790531638459 0.9469216433379437 -0.6285068945671346 -0.004900712256121015 -0.4127942252454957 0.2093193109618800 -0.8983786534309499 1.076936565055759 
-0.3158926122098311 0.1018795218222739 -1.561327312487186 -0.2764235173645161 -0.2818517454934891 0.2514379269524367 -0.02524553673279117 -2.159754034485167 1.557113775228269 
-0.5467019609626347 -0.6458288520504218 2.596783636066718 0.3804185738852082 -0.02030963306497548 -1.080263566593995 1.393185558917479 -0.4622467280962906 -1.173276560605592 
-0.1142853006228771 0.4089138274912771 0.6209923115255876 -0.3214852532698785 -0.1722273660575785 -0.2374699291545843 1.331640686257167 0.4489807693981704 -2.573850970261653 
-0.3365135666272284 -0.4642126029692567 -0.2689635731084251 -0.2917251898292376 -0.3378343186836357 -0.4387543546540645 2.024451205037173 -0.8631921858840881 -0.1983152105933881 
-0.1249861583188005 -0.5397261594471847 0.3775341507989352 0.1226142747211831 -0.2380213572203855 0.2523539202951431 -1.391015101027538 0.02166590091713924 0.2577780061847330 
-0.2608662110932356 0.4830690176392835 1.660868730272793 -0.07598918974760883 -0.07177251354415291 -0.4352745450159082 0.5903689499926239 1.425690086008593 -1.737316396323642 
-0.4439574260988774 0.1080332499342088 0.3057766428514019 -0.5998580201414786 -0.5860803801269548 -0.6930976353459692 0.6134683399570642 -2.157379721536556 -1.313111612133601 
-0.3602635572988930 0.1859920156037658 -0.3412902007117613 -0.1240430913645206 -0.1048892141758183 -0.009422945144533360 -0.5338067000284079 -0.6019052159112412 0.4741804565246168 
0.2045533306308247 0.9953687280309649 0.1142811431678582 0.05588056666386508 -0.5777769599131439 0.5183152115744376 -1.548630116132338 -2.098650050060662 -0.9716541182385335 
0.04886513988255684 -0.3282543946883295 0.4125503377746675 0.3663530030744943 0.1623031733155909 -0.08026598101101601 -1.740822279203372 0.7748254943095969 0.2586464449801020 
-0.1605934878183427 -0.1682521632062382 0.01911024242761086 -0.4398307345697110 0.1442209730792785 -0.1068185251621736 -0.7969240804526476 2.121839644271825 -0.8333557062375203 
0.6470379478484624 0.006880366413384673 -1.031372540669641 -0.4336306636055295 -0.1277906767028013 0.2224655531436873 0.4911755549539487 0.8684453829297757 -1.074384236283661 
0.7105774587790615 0.4125295672452249 -1.309349590124808 0.2404598856456259 0.5197309899050560 0.5636311177585513 -0.7517810831529484 0.7260565384030180 1.692860630541995 
0.4426867204142045 0.1467154418114949 1.330386512545530 0.1767854249089101 0.1880772894668373 -0.3097314362085612 0.5066697430841030 -0.6942485611172179 -2.068174851813114 
-0.3843649941198654 0.6373577131498803 -1.544163936810836 0.6645646665492412 0.09361311342336924 -0.09456493036145619 0.2690166402841356 1.886165464931877 1.520286625963228 
-0.03775936180106981 0.7731293975372450 -0.2433900538334075 -0.1110342481659411 0.006974401478222757 -0.4567792740020709 -1.815200634774451 2.480452267676337 -0.5758880850945021 
-0.02847356215942983 0.3090037319402400 -1.244556158814727 -0.4014961007342169 -0.1085367738467791 -0.4369875029348934 0.9650766529332924 1.152001160715984 -0.006327324257287117 
-0.3744275134468791 -1.223987702326741 -0.3318516900156846 -0.2123393950759552 -0.05362578924924053 -0.09265487934035034 -0.7096956107342760 0.03162642492860338 -0.04765982650129998 
0.3357800072017835 0.09179310623211227 -1.058948903012762 -0.1225514795617449 0.02660936572358913 -0.8140489249098174 0.6830729163784497 0.8724218076585186 -0.2845723898942133 
-0.4227152205289033 0.1433445050357953 0.08059666006295450 -0.2759914846840441 -0.02503398384839168 -0.6757799880061108 -0.8672017092609575 -0.1046078633061867 0.9702782574088806 
-0.1080972505206993 -0.2096143435431830 -0.7165561088892952 -0.01641283427302511 0.04856893541278577 0.1551618398187518 1.993121549057781 -1.393826625319467 -0.04282071105012265 
0.2019235618650193 -0.1444128254577835 0.4624376312352868 -0.1838183691821407 0.3387376594409349 0.3185589989796558 -0.4605620983924929 0.6898893929984730 1.839691552937784 
-0.2218265840766037 0.08784849606061726 0.5167837268667864 -1.317287916583400 0.01258007381816942 -0.3832121179786054 -0.2089085232386251 -0.8679519691186829 1.360089523519593 
0.1361654720656272 -0.8095807685212135 -0.1348336624114426 1.378964016049931 0.08546203958906272 0.2259829462823764 -0.6631023334340141 -0.01746366382700765 0.5210267656752964 
0.3012094317740872 0.4190035190391183 -0.4184326274798417 0.2980653603370983 0.04280130215053594 -0.9772669888294550 0.5587582796112129 -1.866591674473423 1.814365665786994 
0.4964657925589670 0.03567700991819507 0.5245888051456639 0.1868257399335352 -0.2144973945580735 0.3298795434401011 -1.016571981692054 1.343013907070545 -1.576634998163939 
0.5228895769297922 0.1244707519631246 2.695206996859117 0.01343258781213567 0.4089453205733050 0.8582399673611535 -0.003375818198747438 0.1367443390912169 -1.395344517571842 
0.5638988782190840 -1.108701178743858 -1.294528337487381 0.4487557967496227 0.3316912207870668 0.3252123147707220 0.7304404166270235 1.077721284920742 -0.2106830136261578 
-0.3761063603437594 1.148974452689561 -0.5254081912752505 -0.3803685341858799 0.2153910812626739 1.344458845070483 -0.9185767430218444 0.6485836719172028 0.8428742064531229 
-0.03569944397866867 0.1283989073101656 -0.9766001152271431 0.5517085332447159 0.2648253420294057 -1.080507790018824 0.5624070906041192 1.152830690467417 0.1251938436448425 
-0.2178996061744389 0.4017533293866038 0.4094251397885628 0.2630147727403312 0.2167544130229877 0.3786427563812439 -0.7178484923546544 -0.006104226540225403 0.4387832340407347 
-0.4347090872745483 -0.08558300412819941 -0.2666794201239429 -0.5110472425496058 -0.4429871040439567 0.1448934572253119 -1.881510395781712 0.3673689251895842 0.6930249743505388 
-0.3502458222223912 -0.4377942246120225 0.2617559080113722 -1.076721712816618 -0.1151674350071370 -0.8260070109913936 0.1317313491558367 -0.5126158085953275 0.8926649951729024 
-0.1344334252960800 0.3858578611184298 -0.3742902447205451 0.08233204766834597 -0.07013305397720355 -0.3399927303749766 1.520141720392438 0.6514452042787084 -1.265511112961128 
-0.4850212704214338 -0.6645661930997460 -1.669707706051176 -0.1812611337986610 -0.6137799919378206 0.1517944578212377 -1.580243566657110 1.292247272025942 0.1822096814180530 
0.1247762413344780 0.01647912441044167 -1.587125561169474 -0.1202322056276871 -0.3772371243447448 -0.6633262140717715 -0.4853420691572407 1.680673056566357 0.3963885844137772 
0.1110389010336600 0.09316112669147482 0.02056417814311315 -0.8287713674579664 0.2117275751034564 0.1197587936414334 1.085809159401722 0.01953844227528699 -0.2050378640524523 
-0.6132024545646834 0.1701122418719223 0.1910694114386514 -0.5271411884038828 -0.4169717681436917 0.1881373911087948 -0.7470854585766562 -1.278884483169416 1.549495855760069 
-0.1138407061347113 0.07509430211581523 2.162411985845725 -0.5492532687439613 -0.1178021265181368 -0.6207559298482598 0.2909204357376397 0.2843010360095977 -0.9950356631404574 
-0.05935091877117789 0.9770677808454092 1.340552121721162 0.3814053514630842 0.008050776831385767 0.1292426230402888 0.5166414690026977 -0.5280557967849444 0.8147642041074363 
-0.5052201757403120 0.3031836568416441 2.561013476939289 -0.3706324251925693 -0.4770225502019798 -0.3060610555788917 -0.6099499410473952 -2.769963051751146 -0.6882596527558300 
0.2124285480663826 -0.9833739295529524 1.012811190291952 -0.7298107660445836 -0.08378982063244868 -0.8027244339291266 1.023593560086031 0.4135711929111255 -2.169931131134476 
-0.1730142259298508 -0.06274282293227060 1.277214942206573 -0.01400778859998826 -0.1283644221020025 -0.1219247508587664 -0.5493048314934943 -1.274092657469097 -0.4669746842594972 
-0.5312721897251956 0.5853385952741605 0.5875146636858628 0.3013971443948340 0.1751594783654282 -0.05722790631941100 -0.9678807916690979 0.1983890269153699 1.179104128735572 
0.04432263030401875 0.7733131380110481 -1.856598787741080 -1.255883425994100 -0.4648159940826274 0.4294707867413357 -1.564602301816514 1.641222217624546 0.2541628101995265 
-0.4940495931102358 0.6928520956913109 1.254784485407139 0.02114841586564636 -0.3468881354013646 0.4845967340031528 -0.5615411949931217 -1.997294714313195 -0.9079019679855651 
-0.02528102567028127 -0.3922421793544774 -0.1754927763248858 -0.7779796207869039 -0.008502781803124797 0.3895284935114889 -0.2403207941670092 0.6136856468184795 -0.2469671997228338 
-0.004516862434613810 0.1365714931810561 0.8442521929171067 -0.7087781768171605 -0.02209418092955423 -0.03022205407183025 0.06939953099844572 0.3891272100117085 0.1873712784111613 
0.08195401113268759 -0.1724097904246227 -1.981617100938401 0.5922912537414784 -0.08291364385540247 0.4846777446633662 0.02500137994695478 -0.1720182479942342 0.8038285228279146 
0.2062348978259434 0.08406037248398672 -0.4518634009919544 0.3273917705832500 -0.1464233834959685 -0.3749593828289900 0.5091447999704282 0.1052797181020718 -0.2338261996402297 
0.5105523359539120 0.3909177038788690 1.706442836860044 0.6560763441304310 0.4384898021528883 -1.094211447342754 0.9140725379838346 -2.315278005264085 0.6939759105974628 
0.1129787114787907 0.4003305602819773 1.369286972829239 -0.6311369015107409 0.03341167757874317 -0.5945441997278916 -1.639630971071535 0.5303833438061617 0.6348147798830936 
0.1261227182359501 0.6900056385619490 -1.071814105164127 0.1810037686312245 -0.1238070848655211 -0.01200227587918009 -0.6305854350799706 1.562476130650830 0.5074629695806331 
-0.04990168167332383 -0.8154301652093430 0.4142863338289911 0.5221417479086163 0.4071010241871906 -0.5241755679051172 1.381559035718504 1.272419244065434 -1.574328664192863 
-0.5287512925917304 -0.8562118855592656 -1.890937058723313 -0.1405489841636002 -0.1639620750221933 -1.269715037856986 -0.9915561662308241 1.856294949763811 2.327856775704242 
-0.05566145997806330 -0.2150269056064560 -0.3626055363621760 -0.8480974725307830 -0.1633234398943634 0.2237340159694347 -0.5985478707796809 1.975238610970200 -1.802776852772966 
-0.2497881007598544 0.8799200348499856 1.224826782332836 0.1017115246228121 0.1864783518754895 -0.1846492362425528 -0.2481889636566195 0.2998683020286447 -1.332844971948271 
0.1766557884852533 0.2520640069806539 -0.2779801347672882 0.1519403754115488 0.1432218412525803 -0.4779490105472269 0.4964993160322470 0.3870872678236846 -0.4552250798220276 
-0.1030186746117222 -0.1481917087332981 0.3857108693806712 -0.2406059129214955 -0.1228092686595128 -0.3369851921634826 0.6850707177908226 -0.1932128428413941 -0.2678409108202710 
0.3945768881526227 0.4609066575034955 -0.03291117690354881 0.3633521015465384 -0.04910172009568173 -0.1312019352291484 -0.5043807146116626 0.1810662802677777 0.3312413121266656 
0.3743522185847448 0.05370605174576825 -0.03629228641300904 -0.1250341310748213 0.7775943188330663 -0.1701563218708665 -0.09753624264545722 -0.2498857204396698 -0.1269246574037018 
-0.3368424618777755 -0.04360852973847364 1.236730261848819 -0.4540188324371957 -0.04686996680800035 -0.5404946487795665 0.05873696196938888 -0.7142571747425429 -0.1825488987821046 
-0.2099893616733816 -0.3930802631212838 -0.6238396423642516 0.3580145335808072 -0.3931171284170082 -0.4712593919550802 0.6701392488300104 0.6126970267586775 -0.6538188713175191 
0.1772907293342219 -0.4218691638373158 0.2406830422769948 0.4485003196589523 0.007870605698549398 0.7483978403629090 0.1113915790314400 -0.8283007126514053 0.1089741082916675 
0.06725642202861334 -0.4026865341275135 0.5293976182309541 -0.2442443558184431 0.2957992258202747 0.5933993450002515 -0.05326387423141356 -0.7251600870823031 0.5299628088043584 
-0.2108237615201978 -0.1687167871617535 -0.6105238136859709 -0.02533114804024752 0.1073278853561304 -0.2366308357403175 0.4709612175609235 0.4654331845094133 0.2051305766939008 
-0.1865008874074469 0.2165176610708748 0.3465474564922814 0.1781901170155247 0.05034425060401549 -0.5475125961030147 0.8550806202735499 -0.7138175147877550 -0.4110671475115613 
-0.06531767818272512 -0.1363071130145411 -0.1163689126684581 -0.2952672449840416 0.4530388255957121 -0.07534618275922651 0.9372074135087645 -0.1833723263927652 -0.07120450064471692 
0.09660948828679618 0.01607788886546076 0.9983785117451233 0.04988630502351061 0.4738405090739938 -0.0008467607005221076 0.04035467678780946 0.5027982598703864 -0.9855786036960520 
0.2354325591881695 -0.1679239840930903 -1.430992619877691 0.6472601512709754 -0.3094086139326205 0.7078178843853882 0.6614421024430786 -0.7181384796941540 0.8373732257587745 
-0.1946223098362241 -0.1661516096313213 -0.9125630811104173 0.1033507726726974 0.001973576993297206 0.2296920759434485 1.010926152179621 -0.3367122765263731 0.03120100066114814 
0.2274968731727501 -0.007493559390728282 0.4629001750105529 -0.5806083469175239 0.3638793078316254 -0.8640920875242659 -0.9515336310123935 0.8519832991053846 1.123309001685732 
0.3594609286211860 0.3725556872312559 0.3031541116490473 0.4401664111616641 -0.002885774664505115 -0.1238629500953278 -0.7194428784707732 -0.1831325237710164 0.5413165304239107 
0.6799343127705386 0.2619290826563160 0.3316389631018499 0.3188675641911265 -0.009334307133100177 0.8837115788534357 -0.5289604236213904 -0.3311300666866919 -0.2085414026248428 
0.2870333271718956 0.3634813026811687 -0.1506863484655121 0.1612825348938507 0.1474836529226687 -0.3402971075048258 0.8556900394113764 -0.5896920802177907 -0.4290760288106638 
0.07757740032603229 0.6985359822348336 0.4461419362084255 0.3367574088171802 -0.2092578922080098 -0.3411996815796239 -0.002239606839051112 -0.5077046236704779 0.06395857992134554 
-0.06588927861781904 0.2887943245335891 0.4485480184646218 0.07228542550176502 -0.05770541669172390 0.3148908961685589 -0.6779942835509399 0.04658746150267368 0.7291143913067311 
0.4000845752346501 -0.2676270653097942 0.6459830418664146 -0.05150549619207428 0.2558707261625042 0.5452088290770594 -0.2470274893205338 -0.09271420500772923 1.301765072754965 
0.2100403487854868 0.1794583207115830 1.400203603844291 0.1991525641208229 0.02485488885929078 -0.08589680882232863 -0.2464952731145196 0.2975254278933315 -0.8175236709262976 
0.4621939601987888 0.3149993281533973 -0.6589331134251029 0.4782901773339915 0.2009727424502751 -0.3196230539094384 0.2741083312550110 0.2431180450825733 -0.6262206333765772 
-0.1911123322314589 0.3702091257812616 0.6348845779836214 0.2007247758809804 0.1306753954105943 -0.5838403470427918 0.1434811476763726 -0.5089497240786160 0.03248267245131213 
-0.02246723672773714 0.5643628745075306 -0.08257982733042862 -0.05978860828256970 0.4444347557555582 0.3413529981419389 -0.4023075182034892 -0.4963901272824122 0.02303896811659236 
0.002583055523773838 -0.6082512983058573 0.09504862124927280 -0.3317821874161990 0.02067543681248964 0.5481233756033043 0.04628321789493071 -0.1070314597970617 -0.3978426179346407 
-0.3456511977059789 0.5014657474030954 0.1691293403997633 -0.1046465487569148 -0.06321205817429831 -0.1447117058839359 -0.7275897160655046 -0.1625976570620577 0.6587293224503389 
-0.02924277000559658 -0.2302826611437855 0.2561114181720696 -0.1954928986139317 -0.1916236048546871 -0.9648797253243927 0.9446666741341938 -0.1056534964715760 1.516225897971838 
0.1726084111634150 0.2954805140795056 0.6862051116786396 0.09260723938370369 -0.3033124554656240 -0.3999008757396031 0.03813191354903620 -0.09142574383376711 -0.9389842055858161 
0.1108483755222620 -0.09853145969603197 -0.05846772865397285 -0.2533419605634362 0.3588520841721243 -0.07921640691317000 0.8686925117002811 -0.2929174745165762 -0.4274464498004751 
0.4676886074189167 -0.6291962863002699 0.09262750913836074 0.04674900788815666 0.07109045368343797 0.5762475128675336 0.4990141543928212 0.5159220529256086 -0.6312036606201237 
0.03650896838613284 -0.8777246511606202 -0.4112055882909129 -0.2332600854017287 -0.1240063759735810 0.4376487086455504 -0.1962368988834101 -0.1678412760245567 0.4660088932604293 
0.1306646969808932 -0.04950096919548647 -0.3149119410062969 0.02977623595179538 -0.2241317233369320 -0.09919171828274363 0.05465802414402627 0.09561458769119298 1.303141051727032 
0.1835041650177492 -0.2450470215750610 -0.1566513736445255 -0.3998126528956600 -0.1302493745996845 0.004575939437399479 0.3272819738907543 -0.6373620197184388 0.8881119679762334 
0.1663538408599922 0.07262178423787058 -0.1219278911397058 0.2738058734727583 0.01948015891599076 0.3350441557722919 -0.3662351532212642 -0.5060871783112508 0.9045265714400025 
-0.1611920397078599 0.6685295193266007 -0.6672065847710795 -0.1099272154780883 0.1953911718565697 0.1971517207707149 0.2421729799318070 -0.04469667348195437 -0.5394063745648346 
0.1924950726062382 0.1173637116290881 0.1755417899942721 -0.08899566215585647 0.2326813398607517 0.06507897646606997 0.7383312141504610 0.3960800564345949 0.2288238786558628 
0.2295203580123984 -0.2281500820067317 0.6898060274346094 -0.2005279196454892 0.2546579999847535 0.5295194495226108 0.1430579788506429 -0.4156287097140204 0.1583519572812250 
0.01114220554993249 -0.1848729579143326 0.8066208276246020 0.2992051366044836 -0.07836172389647844 0.1457027321394391 0.05808510219004670 0.7882889122837331 -1.045530706710747 
0.08204095205863769 0.002018891082268236 0.04827700249769257 0.2478559656079883 -0.3821744407416096 -0.07521706815136361 0.7767541505150805 -0.3185535246546189 0.7700730096373516 
0.03697113660236768 0.1817944044173567 0.3143466429612281 0.1320061917297500 -0.2283296145666102 0.7446240654669969 -1.255163664650433 -0.6184593094519161 -0.1854850208479046 
0.2869757323932590 0.02999125984328613 0.5120636034877288 -0.01694059779407381 0.1353141237846646 -0.3593926940963841 1.286123690892337 -0.4832344306126215 -1.661940193292145 
0.09398603565724728 0.3045432974835418 0.1633289655455567 0.2245452018187051 -0.1514233543518198 -0.9516702568884181 0.3029983532993540 0.2713033220352562 0.8041480439231683 
-0.2234670160539689 -0.1822954910769107 -0.5975683291633144 -0.2912612859883855 -0.1689407983217900 0.7721620284930693 0.3088663990864701 -1.072914352252312 -0.5652741682149219 
-0.02987746594077182 0.1465149728245115 -0.2650588850605360 0.3407169374680109 -0.2446319173611304 -0.09281457177461096 0.9610392966280782 -0.5552129914424894 0.3583341615708015 
0.2399533067071363 0.09502984001687777 -0.5868609238843547 -0.2471918581696880 -0.1181569251044786 -0.3925309499122249 0.9598078634446134 -0.4357211770017206 0.2355377044306144 
0.4289159013311075 -0.1021722355434320 0.2377707253413690 0.1058752766301306 -0.08915830241871690 -0.2510779146426954 1.043259811502801 0.3912194571113955 -1.191574417613069 
0.1340968967794520 -0.5184823412600666 0.9487574083801550 -0.04057586877057555 -0.05663948728388676 -0.05559268445490849 -0.1464686140901586 0.6850788291955351 -0.01794719538714417 
-0.05744278162543238 0.001702525812356755 0.9012579038187812 -0.3123296807124882 -0.1971188300905518 -0.1469952822391555 0.09495738119679993 0.3093618732943014 -0.9485947207702642 
-0.4023951502077633 0.2712406025848404 -0.6880048306478723 -0.4512428261302368 -0.08800136067397167 0.1677988173432952 0.2254751330783240 -0.9043576298713997 -0.4135125907172177 
-0.06813788828529167 -0.1136170004342605 -0.2755695918170560 0.1476707253218727 -0.01355451431093207 -0.4831675051005658 0.7355803800061258 -0.6804247861761828 -0.1413090029375736 
-0.3492743488726170 0.1201421532518261 0.4637970079489473 -0.2696648167700246 -0.2200942240914489 0.7086231980935442 -0.5821225118512418 -0.3080668087276307 -0.3791679672484269 
-0.1295993234275231 -0.6889728791280969 0.4667235052894993 0.5022071711746630 -0.07898448779407030 -0.1172499702081512 -1.237397920491521 0.7469358929108454 -0.1443247190619791 
0.1585759996126367 -0.3696879713890773 -0.2744140017292233 -0.3463732221817946 0.09435623197221440 0.5859940691528578 -1.021369203376245 0.5997525402002325 0.6984382723985737 
0.2395895438602851 0.1458616982541043 -0.5227365342382949 -0.1543834573261733 -0.2604403373690208 0.03586939236214166 0.2079314092506901 0.8920143306879030 -1.004203491209178 
0.1585106054932346 0.1472309391220311 -0.4142856977266500 -0.1245923717447318 0.2077367618100072 0.08204127362910080 -0.07923471884633697 -0.1686894468436522 -0.03807583093401788 
-0.06421402633803183 0.09418483703194230 1.026429722140424 -0.05529352510697756 0.07440366453241956 0.5537285317632216 0.5643711653505662 0.3745997023396057 -1.626253087162106 
0.07508644223497765 0.2253220983924582 -0.09857091184336836 0.6733527944879059 -0.2620665508894960 -0.3440223192926678 -0.7602522024313844 1.487788413057663 -0.1408497405153406 
0.1521629160334098 0.6607551677738961 0.08486372159264667 -0.3611843266327990 -0.09131571604866916 0.4893387711439630 -0.9271439219842590 1.378205215979858 -1.414605472262259 
-0.2153564027349393 -0.3572066722964446 -1.208379232295322 -0.05845989219204370 -0.1600574940892134 -0.4087268742910102 0.6311205078198283 0.1079025729957495 1.068953182384655 
-0.09207893724497528 -0.1115280230381070 -0.9930767186125612 -0.1730588992352318 0.2034712020015445 0.9524587477528661 -0.05483900851704097 -0.9253427953505502 0.5640660972082967 
-0.08556045384750460 -0.4307684135637906 0.2840731544817393 -0.3932990718054136 -0.1095990549316846 -0.5155372649263793 0.6068876107178061 0.2995166929909012 -0.4905140813154538 
-0.3285680983442562 -0.3881748207354099 0.0007286976073694225 -0.08908691939551772 -0.1373373716872877 0.2132816038292622 -1.026365199946988 0.4222911889147680 -0.5706168335875185 
0.02052771178471695 -0.4943514227969991 -0.8039766122314501 0.1683536718671282 -0.07430097776168589 0.02841601597276052 1.235526681022492 -0.3272092682845282 0.5229709235571195 
0.2415680870490044 0.009123917415850627 -0.6716476527244849 -0.08322232780580745 0.2022518599556784 0.3277606949708319 -0.1652414738528146 0.2124416086984868 0.6356491212716062 
-0.2550330822189091 -0.2734739922444969 0.6187379582677136 -0.1750482542865041 -0.1178600386112976 -0.2311320353499105 0.1032753765473060 0.3475245972380664 -0.7811643065695358 
0.2102193483064167 0.09859764504119711 0.5104923265325079 0.4071139685340008 0.1249347256063884 0.5330567364579472 0.08344459900807805 -0.2227085568997805 -0.4035202022043411 
0.04998519620166039 0.2158922057796229 -0.2035580167392796 0.3812686789767426 0.02401854811954680 -0.1829149218870327 0.1001384166783884 -0.9419556701719132 0.4896545511008571 
0.09506636790525189 -0.01331714202374740 0.9561075564982381 0.3896799650372587 -0.1759125732496919 -0.3540353658487485 -0.09255592941691394 0.1366614645525262 0.1207143462912775 
0.2060309989535789 0.4346613017805070 1.561194982909260 0.1270171354236093 0.4233882887116907 -0.001863430908668397 0.2004847527556543 0.2923342207315995 -0.1281855593524752 
0.3315734542798202 -0.1135794944760100 -0.6607202325635344 0.002236133550295241 0.2987820934020494 -0.06747355334036514 -0.4797000993423607 0.6722499218484606 0.5273853862740709 
-0.09374398714794485 0.5224454995160165 0.3436234108327684 -0.2710839502236500 -0.06320209275786363 0.7688139365581388 -0.1393250230580043 -0.7216819926112116 0.2011816197040374 
0.2502397887165178 0.2864401227455283 -0.09694776802624730 -0.03663489494838307 0.2025994200478491 0.1081360292296717 -0.1497176286801131 0.07819579855502977 -0.8247062227411874 
-0.4095638374531300 -0.04928588349612059 -0.3486281657910988 -0.1116293702466213 -0.05245303657914688 -0.3648347621351265 -0.1468960650932421 0.3936994263214088 0.4131732931914518 
-0.1385031574371064 -0.2725950551835374 -0.4673161481710679 -0.1240870710161282 -0.4832285396580636 -0.2116965299489170 -0.1115803724935348 0.1774712693383899 0.1010908797669432 
0.03385490625011339 -0.2340767969933469 1.298389968311007 -0.2004215193478169 -0.1610187214688522 -0.03237924815981892 -0.04642695687759324 -0.4380284215473159 -0.1214633143117571 
0.3817805150703741 0.007043211865765543 0.2116983832451232 0.1876115864249843 -0.01554392726349022 0.6024282519912894 0.3409296083676067 -0.4051728142841904 -0.6830662056014426 
-0.4998595580292706 -0.5865280407379634 -0.9088204016413358 0.01511368046775915 -0.4383248796390856 0.01591823621794953 -0.5295175761242457 -0.3258703315440356 0.9437176975191292 
-0.006768796852692861 -0.02224833170083287 -0.8495578302341831 0.2715561822857648 -0.1512181503623871 -0.2076571204746407 -0.8252389447821831 0.9346112636234839 -0.1995287649816587 
-0.01441845048249079 0.1014702457545050 -0.1645377494417074 -0.6682230279173266 0.1801636985497682 0.1936588269702717 0.007478929870652587 -0.06883055493627244 0.09692048531643255 
-0.07441562368555227 -0.3465612299986553 0.5929640178900059 0.5037542000571971 -0.3417378383374212 -0.1860877252541171 -0.4281955417906349 -0.1954508214880320 0.3944235860964402 
0.03339838809622742 -0.2451959601814598 0.5098840014440890 -0.4576800834452635 -0.2783104974678203 -0.3739931407731290 -0.1705218072042813 -0.1124116258864502 0.4929760785251981 
0.4188901373602877 0.7424477955994312 0.4393148998316007 0.4648314429556785 -0.2629025455553407 0.2325843118215088 0.1781600062211056 0.6689049628751358 -0.1862294773037471 
-0.3620046374498561 0.09272879993102125 1.035452837115108 -0.3072652819489964 0.02229421109933610 -0.4889071086663591 0.4755515567957279 -0.2903246326801111 -0.5884628404870071 
0.2877114649985647 -0.7242105448509158 -0.1071203741812965 -0.2170780636678877 0.2040900200095221 0.1636998479579356 0.8512380710121201 0.1587570328763955 -0.8522508055324924 
0.009624536834887322 -0.4225979067222332 0.05319793463219885 -0.05769329675432884 -0.1854222373528894 -0.1685916139468385 -0.1953947240637563 0.4950904694266060 -1.195218731501931 
-0.1147094060264084 0.6664870358140693 0.2961443681994816 -0.006205786060125045 -0.01795298666840484 -0.6458703714925857 -0.05634137870286973 0.5831004167159618 -0.3829931799127005 
-0.2238832036498275 0.3682509641559828 -1.576710350599429 -0.3322079741816321 -0.3953457338696023 0.5558184289485733 -0.4607124969198663 0.9656424028179104 0.02761488054313076 
-0.1497674946088107 0.4857588170135520 0.5364644980139341 0.3091282038186330 -0.2466871229719696 0.4431294295897381 -0.6454178601436343 -0.7542402295056465 -0.3505623577603803 
0.4242707380744004 0.05597629134207130 0.3267197512917317 0.1177715562528920 0.3820248247501188 0.5761165035128162 -0.4502060550214994 -0.3693373318222389 0.1865630322309346 
0.09292395871447674 -0.07367778555726003 1.474463968453902 -0.4592243233744268 0.03782669241355838 0.3069673975788834 -1.145272137239159 0.05010387863051921 -0.06574310008634152 
0.07373784665031981 -0.4228995731052984 -0.6949013864919145 0.4836248527984598 0.02274327283667599 -0.07366549241411435 0.1350457918725070 -0.3364512940090440 0.9534326882428342 
0.1516666059611947 0.03990583979408381 -1.236728465647857 0.1054249636966369 0.05897140591668474 0.06107875682194178 0.5264362185502834 -0.1082043147542034 0.5610212413889267 
0.1307988694359650 0.1457625009134232 0.4389716498299920 0.7229826942216129 0.2029443014117335 -0.1756656080430945 0.8628986539762689 -0.6893948373404170 -0.8182530835104027 
0.06564108248898000 0.4102445085842196 1.610980569580486 0.02784797825416415 0.03539560747747084 -0.1625442474478707 -0.7457428823615576 0.6868373816893789 -1.402688622532247 
-0.06926019449421218 -0.2696958037100576 -1.272238935926240 0.2859334630814669 -0.2233057517858614 -0.2947212784516259 0.6233813493080980 0.2416790711813993 -0.03328590791061334 
0.2502334549706164 -0.2479463286004723 1.383034851659530 -0.01389088284927783 0.1424012805004489 0.1309930538907732 0.8501163090825798 0.3584248536943550 -0.6486763484818726 
0.1296779702980060 -0.05338795103520895 -0.4475845788078819 0.1580823763746715 0.03176480524005795 -0.3752848783415412 0.9603648232846320 0.01573496694212789 0.4231616910796313 
-0.09023261677531176 -0.2685490838533591 -0.3049645228509595 -0.7088089577311237 0.1495512052486086 0.1488609246468052 0.2971481202458827 0.9190422744136028 -1.676588588288786 
-0.1573927513427379 0.1799629488440242 0.4587548664695531 -0.1444955276610718 -0.08424691488409033 0.09009849805882761 0.8111422977657601 0.5783364582349455 -0.1858804279761549 
0.3177349604071649 0.03462213616487733 -0.8115945993300758 0.3340172155532193 0.2315759306505267 -0.3254687108600846 0.5177510029930508 0.3197560505579020 -0.2048806334745493 
-0.2536011287132616 -0.02786919015357307 -0.6644476301536362 0.01143626174817121 -0.1440600218834108 -0.4662383006375507 0.4027715519191729 -0.2721536916776774 -0.1466386596334289 
0.2091930211240731 0.2109819995745972 0.5234340462834973 0.2613719167937772 0.08171781858421412 0.02774271300534058 0.1717198392590474 -0.03808196312713512 -0.5887104579546381 
0.1640284006933059 -0.09951640964955244 0.1955027308533136 0.3278238547623144 0.08477285507050937 0.08152677540328244 -0.3338491622470339 -0.009839970374078827 -1.203210577226610 
0.1145827239887835 0.04516333936727765 0.6053183487962068 -0.03228258760971542 -0.2408124227475973 -0.4256037531644920 -0.5544034031612828 0.3267691380367398 -1.003444751998572 
-0.04672043958427653 -0.3620098171606592 0.004712561114916337 0.1393554934117390 -0.09324207535704679 -0.4689981863837782 -0.4893494162959089 -0.1030770375319123 0.03174360225005950 
0.3222438144119919 0.5551312242474531 -0.6232533138781462 0.04467027575109585 -0.02531645082392084 -0.1806484169924860 0.5885860155312177 0.1098711385114275 0.5331515875088114 
-0.1252333695633255 -0.03816137409487712 -0.6342951700900062 0.3968900649696866 0.1229630527744254 0.1289334355229437 -0.3452881848043181 -0.8932423768487260 1.306509962684695 
-0.1253348959412107 -0.2047087005270453 -0.6250964872759988 -0.01794890879513165 0.1731552077660853 0.1099049900248478 0.04715367675184601 0.3789306970754337 0.05465288964791666 
0.1069227526252472 0.1393499597781703 -0.4624467281990740 0.1149541577303419 0.1183572893070456 -0.1447893377513017 1.149636339743323 -0.9239458599773790 0.06231782340162138 
-0.1483776862427096 0.1543643588678081 -0.5492860152377159 -0.1279274009620569 -0.2593423287040658 0.5223026860937918 0.4226404608460706 0.3921702942413417 -0.4975491438247279 
-0.1595844083630261 0.3507973752427683 0.1136920062869914 0.2005970247475925 0.1677380039254916 -0.05543046150422201 0.2439150844855620 0.08615230925932114 -0.04957282267836084 
0.4719908936098110 -0.06222699332762897 -0.7260426254500636 0.08591325663826468 0.1764508256509794 -0.005106468647184396 0.4944694612612215 -1.223969840420860 0.7087840390622815 
-0.01703163764049367 0.1090584484726004 0.4127544406253354 -0.08398335669089935 -0.1883494514357699 -0.07269454685162369 -0.6315600970669824 -0.2030647976555454 0.2274458317300295 
-0.02891089879412771 0.05219723827263322 0.2214718974371804 0.1675433536898189 0.2591962082595345 -0.2521974567669780 0.07151742075448239 -0.1834385019530417 0.08657443258423575 
0.04363242906087637 -0.1663424632110462 0.3402280499505767 -0.1019615745602414 0.1108068505939154 0.4188820565814562 -0.9431408675502099 -0.2398992381982754 0.7235736868150935 
0.04190728234926347 0.1303146114642783 0.1799870352697471 0.2779894887404588 0.1945290255679911 0.4523652937677090 0.2023895656448757 -0.3075797213842818 0.5942490723120415 
-0.07287510548851736 0.04776963248198585 -0.1729931731087597 -0.0008015589550223329 -0.02131103542645612 0.3467252464929987 0.5366695269498067 -0.9419258099390084 0.1677921655953270 
0.1788909924459928 0.09995772121718910 0.9091539162895204 -0.2359544468690958 -0.1129208178008281 0.1378139875232287 0.06252949604521202 -0.4507111769324929 -0.6443517794510961 
0.002006441913565116 -0.05183224670713792 -0.7544201985719945 0.02220860903124859 0.03059583420651119 -0.06406688337671566 0.2265084219100949 0.9328457079416898 0.2197121956408511 
0.4228786072944946 0.1782455340321973 -1.184123347384035 0.2761557890889788 0.1552900439287826 0.2171553201873990 0.4385685776463286 0.5402096618355792 0.7427658054959830 
-0.02960894323087305 0.2068211772786522 1.381015174293436 -0.1288226198216558 -0.01870254436686600 0.3761324111855675 0.07322118636012734 0.8916547870843964 -1.076246788026883 
-0.1459505882162674 0.6028024481679966 0.7906228689934506 0.1090390413337725 0.06067670609109539 -0.08735584464600898 0.3717444944393232 0.1634591667780763 -0.2722513160121490 
-0.1657727057205883 -0.2121026467745739 -0.5192461416472047 -0.1764109104407653 -0.1483702868641995 0.1293254323453613 0.4496737686226028 -0.4311800484090484 0.2359365427927740 
-0.1621892317884533 0.3593609473887308 -0.1416595593371514 0.1675952622174828 0.2953223807499075 0.1210984164985284 0.4977758769999923 0.9511213014974673 -0.5248541858235007 
-0.3492126979832944 -0.3342352582422533 -0.1334960795093142 0.08577569501346548 0.1453359572392684 -0.08431286902040201 -0.04805251020267984 0.4567156462196166 0.04413345962453436 
-0.01894904270585709 -0.1235150468547475 -0.03773303929747753 0.1199008810083989 0.1128185035592481 -0.009113588907524370 0.3631618353244421 0.1292863168730800 -0.5408392019611473 
0.1988669696435706 0.1114419627708631 -0.2372515006923703 -0.2434987283782521 -0.1294378979617460 -0.5348093727321296 -0.1040153744211699 0.2302672815583136 0.8014284725076963 
0.03817693054967597 0.4760965983647368 -0.1110804449971920 0.1099109815520350 -0.08791789628514138 -0.5078992305097110 0.1534496397787632 -1.233608964765768 -0.3937726601990874 
0.2767057919557583 0.1633042057205949 -0.004129913014313958 0.09800202415757574 0.1545770683506176 -0.2847701096007567 0.8170650961294530 -0.4256040388332266 -0.2649779116047935 
0.5226990464682103 0.2917203463283203 0.4677241448113589 0.4090315080170578 0.1170470481212452 -0.07936000941179710 -0.7924523941902091 1.067462411990635 -0.5524662241843921 
-0.1891262460773147 -0.7803758908372920 -0.4095976640065647 0.2099585335880810 0.1022246190684607 -0.04880296442564993 -0.4040827983130484 0.1842496135771975 0.4127703507703789 
0.1954613084145828 -0.01085204309287405 -0.6051709027139032 -0.2488077334718783 0.08531225948399140 0.1371085337471769 0.4616120845608864 0.5597382964294023 -0.6168862876602585 
0.2415205324251133 0.4515933218059596 0.4536920310835009 0.1020850455524472 0.05905792580112666 -0.1834601617123813 -0.5844187653627747 0.4770575658905943 -0.6529452552427661 
-0.3471505980416973 -0.6801909050924787 0.07177935495641297 -0.02965120477199254 -0.1485499617834560 -0.1319600535023806 -0.5853257526430472 -0.6868824396914488 1.080505568653700 
-0.02457362813738695 0.5302600908448405 0.8751472113614592 -0.01560628086741976 -0.09741726320797266 -0.1380827381231960 -0.4158134296947426 -0.05789182395172053 -0.9637575421610958 
0.1195894263050117 -0.2125982845157612 -0.8482565679560153 0.08004196263634457 0.2415966497111587 0.6049401595211065 0.003360481693460871 0.1362171540480628 0.3993567805113055 
0.09334897270428370 0.1492322345170073 -0.3138746826493032 -0.09180571138197602 0.3366714195401542 0.02230541805831492 1.129838450160343 0.8130433922291826 0.1041204977203757 
-0.03221748983574742 0.4419133218327800 -0.1349804385932985 0.5707236276473503 0.05229700877895510 0.1856086054472932 -0.2700614155528758 0.09947849928950278 0.07850369036289231 
0.1522031311691496 0.1739613669742698 -0.1234976576244531 0.08134820263222930 0.03987334120257320 0.07218322033543548 0.2149525760457528 -0.3353087591766943 0.3677248865345068 
-0.1074063534715504 0.3786442548118175 -0.4812233291665785 0.2140372406895978 0.1622283174395721 0.1790780138609074 -0.5181846781652599 0.4432920881095947 0.5664325981359175 
0.4411150527383885 0.3880816325471514 0.8937170901922358 0.06958186935655498 -0.1045574723268182 -0.3026064892377277 0.1673567747455520 0.2975792363199884 -1.180328986149619 
0.04966879525025087 -0.1471248364617377 -0.07559142783516812 -0.2124455937262124 0.004566138471826272 -0.002855389185900574 -0.3330734309891933 -0.2065766264432457 1.278844296690210 
-0.003684912169774018 0.07352837501434784 -1.083647289215006 -0.3293184265979733 -0.2042284898094502 0.06100353032870542 -0.01361101381218727 0.1476086350499001 0.6635489876184154 
0.3217882175417992 -0.1284333978827820 -0.06178289209695442 -0.02553036837598330 0.05741766431020630 -0.1677840949738455 0.7701065851571418 -0.1143865690233011 -0.07823125594205549 
0.2309957152165454 0.4644104215055573 0.04719008020806711 -0.09844547826811553 -0.1195762361782543 -0.4814585358925333 0.02249904520726586 -0.3384286085911550 0.1605499765332570 
0.1282663497873247 0.01602061181090980 0.01976024657609291 0.1178262548170067 -0.2405466801442494 -0.1409993508285786 -0.1709532827623849 -0.2060178724988267 0.4340565476379087 
-0.1375614339039510 -0.6746026274821921 1.269629366051221 0.05248210293950215 -0.1479384279685422 0.4443295748124185 -0.2624310390583513 -0.5332519031803261 -0.3290660144508909 
0.03931934068033043 -0.07812580716824143 -0.5701527838093136 0.1874043377956345 0.1742636765760993 -0.1363619940525409 1.085506004139742 0.4085511009980369 -1.031379911743466 
0.2110434899071135 -0.1048307065185135 0.3912133552624821 -0.3615105657420630 -0.2329446930915713 -0.04837080223247300 -0.1615522480435027 -0.7675510673158074 -0.1272016348619593 
0.09670015248851382 -0.004561411896960237 0.2018848287904194 0.1519931774962663 0.01774924964562162 -0.3838645389175274 -0.4442304278692655 -0.2741971543344165 -0.2144048524584012 
0.1708370291510369 0.1557609099999706 -0.08027504418262790 0.01581915304994820 -0.1085801731598645 0.3216175279498894 -0.3722824327553348 -0.5532593014984123 -0.6967411823256685 
0.1291669882457571 -0.3487610185322589 -0.1166633784442191 0.2466644278368356 -0.1472720792028325 -0.2928726428706469 0.1978595021323005 -0.06859003441506771 0.5987449191087190 
-0.1644748795418317 0.02594570102779020 0.4437469390420666 0.01181766512248995 0.02042119058233413 -0.1904501515323209 -0.6378156972317204 -0.3504290948841103 0.3674141668196718 
0.3570444729268187 -0.2672700008133828 0.3396141008378255 -0.07463824252211872 0.07377549335144076 0.04191246785934556 -0.6011267639545156 0.8630304109673165 -1.168532556942627 
0.3722489703910554 -0.1255409452813430 -0.3307592171307499 -0.4802159707616771 -0.09431719860959253 -0.2226561744238721 -0.4883906240184429 0.7107862317987735 0.03981127763608620 
0.2796950436084702 -0.4054213855416424 -0.1554368812359470 0.007916919282828897 -0.004283582860872948 -0.1009891523794386 0.1898817382935998 1.065022188232570 -0.2348966416900890 
0.02082600149846004 0.4361804269417041 -0.6069346437909577 0.4395245018794616 0.02665938797734132 -0.06397089735856470 0.8469174241965742 0.3366902161986043 0.3227870775278616 
0.1028387722570878 -0.06444383187941964 0.6599128447796583 -0.4875946052644871 -0.2328285733367046 -0.6581798658938270 -0.6394976707745949 1.020130239656099 -0.6909610306377755 
0.02999236909379931 -0.2406262685249937 -0.2459809114021126 -0.09977043689707149 -0.08227032420142014 -0.1464096985084380 -0.1614044589706015 -0.1582437797610769 0.8258608223114117 
0.07976693665632507 -0.05940186349198348 1.256673895584563 -0.02860725761218189 -0.008371187422807095 -0.2577217661177250 -0.1942437791178072 -0.6137544040623651 -0.9804038384332485 
-0.1048435564308305 -0.3611714008828488 -0.4484821928091608 -0.2679553592150605 -0.1868990817198427 -0.04443334717444486 0.5454454646607293 0.3184819071840743 -0.3374958792218822 
-0.4090795733665733 -0.3845070788085013 -1.062432895533686 -0.2131760165389412 -0.04916330705857501 -0.05855691043839940 -0.06787021710616020 -0.5551238360628217 1.527371208652738 
-0.1901671064640275 0.2729043113876570 0.6670814106344427 0.1285814488361374 0.2399757113461459 0.08931766259615452 0.6901556330528610 -0.3939557982536219 -0.07875385291793115 
0.1547424917953616 0.07763635146849929 0.2928232027848242 0.07059748061947044 0.07206157167063185 -0.2106185030163294 -0.3073148332755967 0.8880402054578667 0.5457001010010494 
-0.5155442742643657 -0.03949061265952391 -0.6875504267972535 0.08134007077528965 -0.03109218311819897 -0.4750641631482019 -0.6796003602296133 0.1137876284325349 1.296197109643389 
0.2409048853904138 -0.1901918467395516 -0.8382467626466705 0.3036250551596393 0.1008662403121453 0.1169378634728734 -4.450546722233051e-06 0.3173629765345420 -0.1739771806541597 
0.3090817010247673 0.4827489012235180 -1.516704112201712 0.2815005131846525 -0.2438826257201636 0.03845538544605445 -0.1164191911750080 -0.3083126679895081 0.3619186114657600 
0.01907636619504433 -0.1113959521498988 0.05100591951069457 -0.01753699047063881 -0.1970934183529025 0.1060697372796503 -0.3452299833752789 0.9957803411008652 -0.6181167380327348 
0.3395920207432035 0.05925593758968897 -0.3362411030440404 0.01395491621414988 0.03516483529648859 0.6857613734944493 0.05254507411885115 0.1924178604837423 -0.3260630378404671 
0.01946978084353628 -0.3004207958258021 0.6159380681735824 0.1217356225023581 0.1427191264467621 0.5564680487720197 0.09248130767275245 -0.2239924331587266 -0.4760253575751980 
-0.3507405973474801 -0.09257159457391723 0.06891874190203462 0.3243183101426994 -0.04846427000963220 0.5069774055050312 -0.3879055682458558 0.1902869551780116 -0.9226308649303940 
0.2882251640466627 -0.02464104585179418 -0.3603167707779348 0.09080543986159700 0.01080513592834675 -0.4018392287782772 0.7916354858877677 0.1199230723540888 0.3272797536082222 
-0.1229212557026924 -0.3291964383962317 0.8218963113667787 0.1617938137582874 0.1407755379616500 0.3408784013009168 0.2209270174770446 -0.5105024253130445 0.1051540261819906 
-0.02196897396222058 -0.6018493136295042 -0.8516192001177627 -0.1330685731755257 -0.3726207122863250 0.08797757821907890 -0.2141456805710063 -0.05711896273265067 0.8764852612420190 
-0.06638785062478068 -0.1778769932561119 0.05333117385041938 -0.2479984358582247 0.07279343117780168 0.05407905001185728 -0.1607756551050434 -0.5001687890746873 0.1665407059494400 
-0.1139160107193105 0.1630034236639132 0.8314433596769113 -0.1222182555828063 0.08035349347513860 0.3826097727235809 0.1189612484866975 0.2967864457224815 -0.5675638960582040 
-0.3362195480154890 -0.2884209279830935 0.2309556737527282 -0.03604284660604937 -0.3735837985269094 -0.1452636258688864 -0.5134089329807092 0.2363295377766209 -1.622612406900298 
0.01447487063262379 0.1063971739597268 0.4752776597613592 -0.1786808313616646 -0.1095553969669054 -0.5168375111932164 -0.03380460891977864 0.1312107500669330 0.03961231745999302 
0.4859185682413237 0.06650388627331695 -0.4320818124024292 0.07955071404401673 -0.02355423977170490 -0.3063616990682570 0.1824658023347647 -0.1286976186589287 0.09207589419961744 
-0.5077920111929058 0.05055804231539138 -0.3545436693340565 0.1554824273315525 0.02686698656411372 0.2765801333686921 0.4367087408339357 0.008871210456255635 -0.1537931875575016 
0.1902902845515732 0.3677558975849329 -0.2493239207251252 -0.3060193600047380 -0.1068692618958839 -0.02700514631941467 -0.7405443977171490 0.09632341585915338 0.03571477177603706 
-0.5340813316510621 0.1697056488154941 1.794691174183358 0.5259157644300052 -0.03633604043390182 0.1334814047082179 -0.3341821023053114 0.1710778547595775 -0.6600150173075743 
-0.3014295854115571 0.03721797858489987 0.2219155676197122 -0.03483224555320814 -0.3349154873638280 -0.2563228657573538 0.01981091749838072 -0.6401583531782259 -0.6339431905649160 
-0.1271271394082434 0.2148561660319033 1.500054489897705 -0.7289728339103280 0.1048815175967500 -0.1100659704488823 0.1798492618849125 -0.8554673227537745 -0.4317312815268260 
-0.4419566084668326 -0.1019793204946380 -0.6442889726819485 0.4030397691033548 0.09475571453716217 -0.1009570290543069 -0.2100645020308142 0.1774603596042274 0.02464952771018696 
-0.2497477803250357 0.1375882113947347 -0.1056691768102304 0.1110284362682440 0.03228548663386589 -0.09166902608478913 -0.08454557914940752 -0.4744967398509513 0.8337415531537544 
-0.2777198659089032 -0.5077257079517760 -0.01291168556308539 -0.4523118770243825 -0.08957419452003970 0.4957623637821109 -0.8818331889692741 0.5547559634218740 0.04402299904336108 
-0.5461486519499947 -0.3128224515837424 0.8936521247502460 0.0006222591792639683 0.02996323765892684 0.3502635934952779 -0.4297693047805147 -0.1573803878030309 0.07698591410320747 
0.07795737478749867 -0.02711622490024318 0.3347928614516944 -0.2317171013402550 0.08857707997247626 -0.08255134837213367 0.01118411497094352 0.5242306694745844 0.01608244952422049 
0.1470692920311820 -0.08671705316361072 0.01428366327994392 -0.1018274794975723 -0.04625640888577666 0.07891371992631070 0.4666925650871638 -0.3623609420656136 0.3473848796934793 
0.3340779678525472 -0.1279271184844797 -0.2013015774654311 -0.1855016889639749 0.04433575427141972 -0.2167997607603335 0.01197744355769671 0.1714527868124457 0.1370850965097571 
-0.1740469325464092 -0.06736065598844672 1.068113301371210 -0.1579137102506095 -0.1916003769646243 0.3326896654444652 0.2326574127047850 -0.4808983069374955 -1.078343986805116 
0.2097954225378682 0.6642399666733669 0.1293544177547036 0.3825222479501966 0.1627036754193871 -0.2240593442283412 0.5796191602556888 -0.3600600146548233 0.1305172508207975 
0.03498342529581933 -0.2607189585244725 -0.1054215518273320 -0.1432958441628350 0.02838373023163282 -0.2461192753919216 -0.06636448467147471 -0.2252844678808862 0.1222679550268992 
-0.2745202019783392 -0.4012069755069209 -0.2802968701626908 -0.3455527480307055 0.06031684583579190 -0.3561006204846294 0.05975270160203509 -0.6313281724670736 1.085436754859576 
0.3416200341668207 -0.2452675824396741 -0.3785553658552027 0.003952081162788890 0.2208265577937373 -0.04799457389021491 1.023725899809623 -0.05589654533599678 0.4275818570035952 
-0.1744016254867422 -0.2114986629316998 -0.6095375060171456 0.1437566362112716 -0.03216206390114826 -0.3218928023583740 0.09403203913987804 0.01105681307070626 1.176700353626339 
-0.002583721049516544 -0.1442466978614755 0.2537150002112621 -0.04282998407887807 -0.1093571476587011 0.3656779470341006 -0.2132491167181410 0.3131514704672840 -0.7926617839171647 
0 0 0 0 0 0 0 0 0 
0 0 0 0 0 0 0 0 0 
0.6718818276500914 0.5233606091012303 -0.008784837261450393 -0.1414798605074216 -0.1016058388034476 -0.2815459030034069 -0.6438944782929893 -0.5837546230314368 -0.5503653477350240 
0 0 0 0 0 0 0 0 0 
-0.01116124864182426 0.7670305098644891 -1.005966716690427 -0.008587907492946856 -0.003048645673536691 -0.008208317800839022 -0.3845602309059042 -0.6708141413101025 -0.06811068765956920 
0.6144739375804807 0.3197756613127191 0.006236745204933412 -0.03071754432240737 -0.3564257715681322 -0.3774982680166954 -0.6142358650561967 -0.3092533050162442 0.04579379547244029 
0 0 0 0 0 0 0 0 0 
0 0 0 0 0 0 0 0 0 
-0.1186797593415587 0.05873071242954595 -0.4531724692402543 -0.09674329715678033 -0.01825841274832367 -0.2554854983095284 -0.3722510494419665 0.1786535400803354 0.1372892916920172 
0 0 0 0 0 0 0 0 0 
0 0 0 0 0 0 0 0 0 
0 0 0 0 0 0 0 0 0 
0 0 0 0 0 0 0 0 0 
-0.009980970300460128 -0.02164848274121181 -0.02714970584140355 -0.02132183700718656 -0.001459237797406277 -0.003877236841682913 0.2403745370930666 -0.09148632288090527 -0.2517828813681192 
-0.6467596404249092 0.2930625514851941 0.3208116224939945 -0.09174747105927102 0.03232250629106254 -0.3473663637218496 0.1040822818397740 0.1608377194929279 -0.6508150015139449 
-0.07794155898404313 -0.02773774200212754 -0.1618908507129643 -0.01474228508744162 -0.02977260655624020 -0.1422751181964363 0.5538846188062570 -0.1838805867386667 0.4998466488064855 
0 0 0 0 0 0 0 0 0 
-0.002904589502374859 -0.04247584827073794 -0.3589908106476785 -0.07229813317778910 -0.001645728001610593 -0.005366819316401386 0.5119594358697384 -0.1011435420190888 -1.037837203760089 
0.006389592169845242 0.1511880273860298 -0.6614466620708086 0.5349185860449702 -0.03574864761525419 -0.2654598861521106 -0.3235978283780468 0.3196777283251477 -0.2656748077860550 
0 0 0 0 0 0 0 0 0 
0 0 0 0 0 0 0 0 0 
0 0 0 0 0 0 0 0 0 
-0.1768581208394854 -0.1180575862895710 -0.6083168851826976 -0.1181891359671573 -0.04097305896591657 -0.2388768205424001 1.274191109158913 -0.1436549799533617 -0.9190466524062600 
0 0 0 0 0 0 0 0 0 
0 0 0 0 0 0 0 0 0 
0 0 0 0 0 0 0 0 0 
-0.07794155898404313 -0.02773774200212754 -0.1618908507129643 -0.01474228508744162 -0.02977260655624020 -0.1422751181964363 0.5538846188062570 -0.1838805867386667 0.4998466488064855 
0 0 0 0 0 0 0 0 0 
-0.003444620229746966 -0.004537440257730702 -0.002269656556670695 -0.003438469279512279 -0.0004040503195024055 -0.0005097384471267924 -0.02507733761789460 0.009623807292213045 -0.02083723849545865 
-0.0002447566415632546 -0.005484069480738294 0.2228671313493137 -0.003839388166822434 -0.0001878770108928363 -0.004365369591970881 -0.007698384776707660 -0.04708050876787000 -0.1811875800085425 
-0.01592169241578739 -0.04506142513955944 0.6278440575139850 -0.1461855220605367 -0.08363632252162186 -0.03064744382770293 -0.1176409995006434 -1.018147137741138 -0.04490843660453898 
0.6513763366286396 -0.2052213580961897 -0.5549937225358241 -0.1728294385430761 -0.07294454070058495 -0.03854689888507915 1.649659137872732 -0.4345264028525153 -1.398209851207378 
0 0 0 0 0 0 0 0 0 
0.4613819397695748 -0.03277752252864873 -1.493275962402243 1.124731766125184 1.142111904985372 -1.050826634560321 -1.486144290094773 -1.148788185426468 -0.3917876150994256 
0 0 0 0 0 0 0 0 0 
0 0 0 0 0 0 0 0 0 
0 0 0 0 0 0 0 0 0 
0 0 0 0 0 0 0 0 0 
0 0 0 0 0 0 0 0 0 
0 0 0 0 0 0 0 0 0 
-1.067003761392866 -0.3860209234270164 0.2261630300952770 -0.4836422907198544 -1.308448437584732 0.03996372163622827 0.9174090170024891 0.6395072487414069 0.2117836941696211 
-0.08258638182286034 -0.02165807301776301 -0.05801586142398048 -0.006388411415227771 -0.007691436291157091 -0.08684790774075274 -0.006950144992254043 0.2232316643930861 -0.1084359775890796 
0 0 0 0 0 0 0 0 0 
0 0 0 0 0 0 0 0 0 
0.01535404317435519 -0.1196438448172804 -0.2370810362502647 0.08033387593298767 -0.2812615723241280 -0.05824442571485766 -0.3541903799004015 -0.01410297146742703 -0.1160678084104564 
0 0 0 0 0 0 0 0 0 
0 0 0 0 0 0 0 0 0 
0 0 0 0 0 0 0 0 0 
-0.06507663783311675 -0.3242705353727198 0.4364205854467159 -0.01432300696700797 0.01643088813569474 -0.01775598510614210 -0.4659518219192146 -0.03205038168448329 0.2466238060809660 
0 0 0 0 0 0 0 0 0 
0 0 0 0 0 0 0 0 0 
0 0 0 0 0 0 0 0 0 
0 0 0 0 0 0 0 0 0 
-0.02658319774587564 -0.09791319092376090 1.806302127762869 -0.01332719828449460 -0.002299848089558970 -0.004655087350114395 -0.1947724730737265 -0.07075075394406560 -0.3868905892229171 
0 0 0 0 0 0 0 0 0 
0 0 0 0 0 0 0 0 0 
0 0 0 0 0 0 0 0 0 
0.7261483235731124 -0.4665196414775367 -1.133450979325222 0.2865871691366258 -0.1456082188397804 -0.4337117895512593 -0.001757288321089637 -0.4484025917741358 0.9476822632993304 
-0.07623788647494101 0.4427599744917693 -0.5695461312437111 -0.02291091445995483 0.01338224246215805 -0.02596430290698112 -0.8505120528251189 -0.7028645229945858 0.1785131184213968 
0 0 0 0 0 0 0 0 0 
0.1016087602996553 -1.003913075702404 -0.9747112144558504 0.7389521410136510 -0.4291195618768017 -1.121296006370805 -0.2308945175945608 -0.3191901012243014 -0.3220060485212119 
-0.03332254339471368 -0.08669823474094546 -0.1973679977329879 -0.07734842671109080 0.08249410021383774 -0.03658493926981760 -0.06848178013278960 0.3114027645917762 -0.2943326199918170 
0 0 0 0 0 0 0 0 0 
0 0 0 0 0 0 0 0 0 
