solver_type L2R_LR
nr_class 28
label 0 1 2 3 4 5 6 7 8 9 10 11 12 13 14 15 16 17 18 19 20 21 22 23 24 25 26 27
nr_feature 564
bias 0.000000000000000
w
2.107761095528047 -0.5158578850944140 0.3469220361614259 -0.9100184400504780 -0.09124658919151885 -0.1692160450770310 -0.3898432318120405 0.8006651182349643 0.02243767998754689 0.1552182608677136 -0.2239256912779878 0.4143316931934575 -0.5838518152677944 -0.1780467276655819 0.1102079427350165 1.881767471803913 0.8015079705265614 -0.2326783026541326 -1.965393883092928 0.4295142802705585 0.2314353128301165 0.4215503457702369 -0.1177254479090013 1.160974169985134 0.7448717318160002 -0.1944092903279990 -0.1838872790322841 2.601582018706953 
0.5446688857568834 -0.1901832945344728 0.7478232004256792 1.102026564354985 0.1135599070739708 -1.061945449912055 -0.1282470983186621 0.4405941751655523 0.5165860665599101 1.751797091836848 0.8911972182282659 -0.1698283101931281 -0.4904651729172044 -0.5373829772643925 -1.280843151932677 1.240911584320282 3.397550340554031 0.5992942135112485 0.09039442656321764 -0.3670392672903932 0.6027411445081470 0.3595696543377160 -0.3546395376679996 0.2147398426075088 0.4638645190990570 -1.753664701915876 1.665330155450041 0.2751517540642163 
0.1567600538618849 -0.3191695500880243 -0.2601488041634107 1.083609682569783 0.4100490157771936 0.1018816747271501 -0.09243875129884530 0.09999326805588106 0.1643288217303518 0.05932195300911115 -0.9269755264974257 0.9971056676170649 1.170490786877554 -0.7586462552367673 0.2888928511951655 -0.6034759463177696 0.5139628565336156 0.3153727315361239 1.576010361644206 -0.3841798575276251 1.319568096285514 -0.2440585288292233 1.179527026997066 0.9496429207090364 1.162893109613087 1.849974450456373 0.2041743319104479 -1.369103021109523 
0.8173602643198693 0.1492393582987150 -0.5223641143547120 0.3523744803304969 0.3855535970863864 -1.249007536514412 0.7958128356360028 -1.278767311176530 -0.2331203474107088 -1.064424456755405 -1.235176594296430 -2.069276059693317 0.8362638545301387 -0.1425467845337395 -2.113901040464199 -0.4333488050177514 1.297827442151178 0.1015682343176359 -1.499118018566586 -0.2199822491633492 0.8533939979684109 -0.4932939687554164 0.5973405170316802 1.178478081327684 0.08922123161119733 1.670361705872197 -1.603203018458361 -0.4904499134922484 
0.2130300108138082 -0.09373023317249601 -1.263151111824500 0.06408650281834091 0.4678832701891011 0.5951896454237389 0.2512801776616668 0.1967979221170749 0.4177783378813803 0.5506916447548473 -0.7707383551582468 0.7457740405802235 0.9914231886775525 2.283991101802303 0.8034677528076200 2.473056415049512 -1.517924375745482 2.176166899329147 -1.715736644475507 0.4734150106820967 -1.472683485151216 0.03311188379348864 -1.261183998312097 0.02413566826928636 0.3088664782142235 1.486134023515088 -0.3213378725009543 -1.205355881702557 
1.786490120072228 1.018336393153725 -0.3140315535472623 -0.2232695812679532 0.3456932027282185 0.1843111215860517 0.3422219452992666 -0.3361711027910134 0.9063784997220812 0.7624664440929114 0.2817536336891267 0.1857967899816287 -1.490005292556955 1.150325180985871 1.306485967291988 -0.1215815056271805 0.9303146992591926 -0.7093186778884022 0.2954537449909461 -0.8054167641381064 0.6558989654322107 0.3898195726772121 0.7720681124128439 0.6944688988388701 0.6508610544718294 1.285070668072679 -0.7459725666522099 1.662545581873910 
0.2662120611550601 1.092334160290842 -0.4062265765149616 -0.9879737550800797 -0.002505098834352678 -0.8445442376355891 0.5588136960142863 0.08148043562473284 -0.04701656195418211 1.021430744599578 1.661124673905345 -1.692467675484248 0.1876009897392330 0.5368137632191883 0.5482480029998260 -0.06015874463473100 0.5258334939580280 1.805467869381765 -0.7021836350522731 0.03801437120289534 3.293525461412081 0.7186973613702908 1.369837877626961 1.289670736307155 1.262378281220465 -0.6106427109322143 -1.673553111917528 0.5429589230452776 
2.125610313219888 0.4510894866020380 0.2460577235559628 1.510411833755970 0.2339790735409593 -0.002738816968511373 0.1746744557469954 0.3355898995739030 -0.3047077849806104 -0.2937932797933183 -2.345746896268595 1.763989409483556 -0.6279832876305781 2.480719152321378 1.180170700591557 1.004331550313053 0.1173038749222378 0.4034702975614539 0.1400812982855876 -0.8096848949076134 0.4978503221344012 0.1065499305644167 0.008437170100682456 0.02468973154367770 -1.017576983408701 0.3233795263211500 -0.07783332956842559 -1.273611586326683 
-1.026484812929527 0.1794940998657567 0.7686966906284767 0.9597267667500425 0.06195851794678382 -0.05288155279234055 -0.2533689041700291 -0.3125431010818160 -1.688573713917455 0.9092586276528519 -1.460991054923627 -0.4007102196339939 0.1316290422285533 0.06321425881667780 -1.116626876870378 0.07724444100260087 0.04859116085205589 0.3673311944130799 0.1813595796129970 -0.3253493049272714 -1.574992071714682 -0.7430722631309994 0.4974255122459785 0.9551595210720899 -0.2375089261912166 1.599216190964792 -0.4131857444712886 2.295158888918235 
-1.014486051848364 -0.4663544819872577 -0.1697481703744980 0.3586287341910421 0.1860517540144255 -1.090243774894255 -0.2930551936327629 -1.003849112160163 -0.6317417100875690 -1.805422560723661 -1.917841413947050 0.9239235846944476 1.052969116609561 -1.049699083797730 -0.4506584450694719 -1.753268689625056 -0.3662732311813484 -0.9632639256052514 0.4127816222258067 -0.8895273280087048 -1.270216937853881 0.1995656917471014 -0.2870682849219272 -0.2743792306356364 -1.606041806722085 -0.8513588982934257 1.315906320543418 -1.046721199299802 
-1.029195256003063 -1.419977131829872 0.9360943151706753 0.8242264726507289 0.5360974414571399 -0.04394850053679933 -0.2953263468847157 -0.7832651845461385 -0.4948359494318834 -0.7192587728455333 1.361697800581313 -0.6931607744210813 -0.5928275068713225 0.4279464753104795 0.5940534942657117 -0.09062122439489155 -0.4822699836863578 -0.6199212759913578 -0.2282054708870653 -1.274514789448039 2.717493627333792 -0.3337626867717292 0.5513522008611607 0.6895413493473267 0.4234922884759800 -0.2973277566160816 1.034888532086756 -1.468655903287933 
0.2998331429114803 -0.2325627415997871 -0.7092267603365603 -0.8902524234372198 0.5601653990703936 0.2633010950677288 -0.3949361700431408 -0.3432141774063146 -0.5046823655445939 -0.3475383771607455 -0.4011824289291874 -0.04794656175319166 0.4419331348917091 1.451995304630204 0.1406749728335372 0.09325294452903393 0.1795346837703646 -0.5663464902015953 -0.3587886415331936 1.270109526312124 0.1439726874474700 -0.7031264024562474 0.05185878620687733 -1.057419807775204 -0.6156679888210218 0.7820926191680007 2.206654120910212 -0.4700659450359227 
-0.3217374093602902 -0.4513467772689242 -1.729305671819697 0.7977535541902041 0.4006092538769643 -1.312532713678324 -0.2769602599245105 0.8797383667036824 0.1662316466343629 -0.3402088758756493 -0.8888388805031036 1.177416592541167 1.064161412073815 1.310910685999644 -0.4589367164835542 -0.1525350841930558 0.1112924979296851 -0.1962977254242557 -0.3309453019644152 0.9133691941419746 -0.4135963137727892 0.003711740777162326 1.378910730393838 0.8977711355983820 0.4327736115729761 -0.4391569911457142 -0.6955447281902084 0.1587556577033901 
0.2936454633553210 0.6383985240954129 -0.01273137560532431 0.5222510841947641 0.7867956108562318 0.5800956435364129 0.4960943062387131 -0.4059118787885389 -0.5182224609099114 -0.1634340815222214 0.6466460650836638 1.202587938334873 0.7370691957579749 -0.5781590477398426 1.999979198889779 -0.1806565823514117 0.9629770536739454 -0.1924417443607639 0.2887618181543964 0.4722143478966229 0.4231200041949009 0.3941152744209925 0.6123112328476940 0.1378812713586013 -0.1666476262102412 -0.2780005122850962 0.8747994406531069 -0.7053823219240012 
-0.4190896534376878 -0.2176264367207010 -0.3796980964219916 0.2428990161351278 -0.1933170622049646 0.8054843377984945 0.9584475256528625 0.3822854809442585 -0.3147140129604700 0.09054259502571022 0.07809074920444352 -0.2611533871738996 -0.7601993031318367 -1.581428883473043 0.06961428596482747 -1.033525028798502 0.1745126445535399 0.6233490316600250 0.7188733413584035 0.5609697881525687 -0.6097677982394747 -0.05063289015828400 0.8013559912506085 0.2640623683961725 0.5087276660262410 0.7938424222830166 -0.02129992203824654 -0.8478988097096407 
1.263064858387011 -0.01608211427450836 0.4909571948257598 -0.2149477581714312 0.1904448909875194 -1.519456386652470 0.8572229923256046 -1.866135445146070 1.000177224104480 -0.3386051733125953 -1.198776153686191 -0.1666458816288162 -0.5281212110341448 1.086678888472659 -1.271267340890741 -0.2991970301634634 0.5499444128668496 0.9827071686014572 0.008108582315057039 1.191241497325020 -0.4434192180571805 -0.5030569721287901 1.468690096061058 1.598584919352492 -1.107741592264588 -0.7061208096214879 1.273144062859213 0.03167060396151844 
-0.9279482623296570 0.4585708878249755 -0.9384720999358713 -0.7249762475835604 -0.4412202853552191 -0.05191897576413565 0.3826473636229513 -0.5553512758048357 -0.2736380520090392 0.7498758335292279 0.9747054777582858 0.9426956889784740 0.4059619521768144 0.6275471747865456 -0.6057646978263203 0.08205227553075220 -0.9989667727890464 0.3233870269762491 -0.7981491413867490 0.2199063020380083 -1.687843219025872 -0.1088574012264732 -0.2382244129627770 -1.535083853208647 0.7801176394375875 2.173442152236359 2.077887550105052 -0.6483316447610593 
-0.04342382323534130 1.177031224293954 -0.6059159818860038 -0.3369663153134196 0.4226700539106933 0.2613376262739870 0.04126140812465846 -1.131240274569622 0.1446549495775926 -0.1728491457512946 0.6053819894229530 1.071349455669955 0.9785847095659539 0.1121926522746585 -0.1360194249155713 0.08636408468667145 -0.6112291546701564 1.939900472884481 0.5136984767173090 -0.4656992983136438 2.671557976399157 -0.6075718051260246 -0.6677733513535560 0.7018488673502159 0.3941441956546193 1.182080214398794 0.6584257280827444 1.273750212185568 
0.8281416009368237 -0.2863607997483214 2.379400588328204 0.2572084995940159 -0.9523746757236545 -0.4594613314486288 0.1107754627417304 1.173568592339678 0.08691157176780920 -0.6587522401046790 -2.290157221635155 0.7339056755484422 -0.7879308506276356 0.4024214829016198 1.155672483301618 0.8840146558491341 0.2909879584681936 -0.7165774548679562 -0.6789118452364866 -1.904721194104359 -1.151132134173802 -1.174873847557784 -0.3249758501020537 -0.1503554306727609 0.03404053644536229 -0.2446040186863318 1.329189914793755 1.360608711573480 
-0.9042053260116801 -0.6092262586273466 0.8116152260272943 1.077398615147088 0.1620539310374180 0.03738523536028589 -0.02224648736192884 0.8960427887088704 -0.2309705029651005 0.4339779925187765 1.349023233775630 0.5491302870535875 0.8261988162703603 -0.7251499695296344 0.08201746173334756 2.011677363172249 1.846541594507693 1.074243167599446 -0.3514120553193971 -2.647601181382760 0.6754806279970903 -0.09140352841386915 -0.6939343342094325 0.3045812024305740 0.8433322967553134 -0.04855116529478848 -1.365080175710264 0.6612989393740528 
0.4219718797600118 -0.02840270458453315 0.01353858762997628 0.02950294691410967 0.05044062837363897 -0.7192590262816095 0.3575103201845991 0.9054063066977178 0.03405834062924057 -0.3639877060783954 0.2165218038175326 -0.5243733314813941 0.1752830250483830 2.110926786745418 0.1581322343951103 -0.1663041382111638 -0.2482580809762023 0.1877657725249547 -2.061936599239506 0.5288455343025236 0.5068368554579430 -0.4466024394082185 0.05291334803075901 -0.8971584255210948 -0.8942556232966350 0.6671188234992336 3.347420739999496 0.4779265645084977 
1.653549388357424 0.6557148615722129 -1.192722222488073 -1.420315653952953 0.1048772135082574 0.9565295796972739 0.4771728340627753 -0.3378849837884789 0.1522131211433933 -0.5132986073515893 1.889631836526686 -0.4371345411365888 1.693388717990413 1.024436626511720 -0.6008985847020009 -0.6552168642566674 -0.1293193036285066 -0.2597793778244950 -1.267848750358849 0.6855932302186521 0.8820325517254333 0.3643851792632795 1.138062953852716 0.2346033716245350 -0.1603675089067012 1.013407566764286 1.094982976600696 1.402129369113941 
-1.239024201588610 0.5733779859338536 0.1695740531012902 0.01691192991309316 -0.1750261502505717 -0.1881776216863417 -1.030696770489769 0.4794036076961143 -0.5224011154874179 -0.3376411024751081 0.8475928945205479 -0.02284338015492393 1.500898742440955 -1.058639446502737 1.242040490501883 1.113737515579046 -0.9922704053276862 0.2926725300976140 1.389843102706062 -0.2825012546464342 0.4352067527407247 0.2735927164045278 0.1259737531789510 -0.3561448282021517 -0.8320170862403876 0.4304666967266847 1.326550844678316 0.9095750280343784 
0.6938471593977581 0.5247160973152384 0.3107072869688589 1.173802372362099 0.03387171241887751 -0.8497295026551154 -0.009409016012416047 0.2338708667755338 0.2990856402430940 -0.3129345809672502 -1.563861947427299 0.7086097763219327 0.8421202407593418 -0.9334080846841432 1.673458837801389 0.06918652359364011 -0.1631654973385944 0.6699263620686857 -0.4898817692094120 0.007478242666464963 -1.160228372644428 -0.3548359427471866 1.340971547477534 0.4344112870579540 1.194988119348048 -0.4307301408270139 0.3749729924401157 3.309239453004049 
0.3366908720600024 0.6105483801520669 -0.01435125638465407 -0.1264378871546281 0.4712495474470917 -0.5018875634088996 0.5111943033094806 0.02962138887412357 0.05768190692240660 0.5606434094415872 0.3640589434827780 0.6850395618479697 0.7607328408210364 0.8513081001368152 0.5608579467067429 -0.3822905650890008 0.5027104525911882 -1.029591971601421 0.6318558012267099 0.9127666277949602 -0.6559358779378380 -0.4504618562955188 0.7939183786222901 -0.2826485544825680 0.9366477489670068 1.186421336591515 -0.2557960192057026 -0.2631475396472222 
-1.194200490989808 -1.080149872753276 -1.629025727272544 -0.2777643231850125 0.3772080783492633 -0.7136618661621242 0.006984039681509499 -0.6864119245275900 -0.07643138322292842 0.2982591186178049 -0.6045301719072502 -0.4525594670606835 -0.2945905269563843 -0.3855060121165825 -1.517445632871685 -0.5240150149881370 -0.09161044477989912 0.6409604105987063 -0.4780071431443070 -1.801434249079802 1.920635251154538 0.2603845024754312 1.506602922837630 0.5845560618537702 -1.320492725120012 -0.7427193758909982 0.7555148438476547 0.8775336349331355 
0.1460202665155711 0.9961964731805476 -1.594566288487359 0.7108756857610560 0.2228501698420823 0.3386978366802276 -0.01231712639227407 0.3411916009331688 0.1434452296310216 1.161139970176810 -1.009998974503764 1.102357853014704 0.5179968853640475 -0.7309811729291238 -0.2938799985512575 0.1557544440185306 -0.1234684433912968 -0.3179141467527512 0.9686166881872227 0.7557454975309149 0.3641696558493185 0.6556431880235760 0.2515866952080418 -0.6072457204280266 0.7185121386125630 1.271643256870829 -1.304487796907544 0.9501541585074738 
-0.06683380835106273 -0.07269260468490430 -0.8765513498467687 -1.192845287415397 -0.6580462031644004 0.6950532899138354 -0.6192881607967498 -0.2197378201356621 -1.065309839114914 -0.008884159893627647 -0.3749346861475449 -1.317264851819607 -0.02741138472697324 1.071034438624694 0.1753895922727933 -0.1954119986645751 0.9060691844845645 0.2710078846420553 -1.068561393611074 -0.6043228658077573 -0.9236182827750011 0.2740022864678072 0.6830061677709225 0.5198389762656249 -0.6189325194720455 -2.830435584567722 -0.4273370782378207 -0.4763917384436183 
-0.8245980549577152 1.598115954013898 0.3867448587360588 -0.6068092739918506 0.3127602962839916 0.8857540315766604 0.3611629452975803 0.2553456457025841 -0.6935161957719048 0.4525911993456053 -0.5401659828746465 0.1268300045798277 0.02822019785165739 0.3414698174194790 0.7301365147198959 -0.4897696817948408 -0.1575347246189421 -0.2153120425243322 0.2137590798349986 -0.9833938256133072 1.633056376355984 0.7216195869949567 0.1076945086638247 0.6491945409818626 0.1042718605603398 0.9257136539236424 0.6598553733700145 0.7401011509404213 
-1.422104153050819 -0.04331982392660009 1.162736344871528 -1.843932387626856 0.4277299944571359 0.2872900406727218 0.6178740590399143 -0.06102604066216084 -0.8728223951856469 1.241131272701009 0.2489015756672321 -0.2539143770231924 -1.473678850583968 -1.177559644488837 -0.9659480948173325 0.5302967452582079 1.280581382503212 -1.400317866511968 -0.02904164171702223 -0.3205641490159662 2.207700852823693 -0.7963353216051858 1.248866181123404 0.8001850300282771 0.1932599138619202 -2.265788347928338 0.9180295807262602 0.2592846209675021 
0.7940911932122823 0.2774773053380270 2.355491782215583 0.2824370252036558 0.4414727980549776 -0.4846191470235640 -0.2666281789091946 0.7115396684772647 -0.09944928040776548 -0.3575674120655591 0.3345692209945347 -0.4859098341960917 -0.2919078298933796 1.998804722363018 -1.136684327196463 1.595095109473802 0.1174832361959689 -0.01185728014853758 -0.1681521270148074 1.329068712463333 1.413195957032569 -0.5106519853734137 0.07436585778493343 0.9704094909216892 0.3938508246926946 0.2678487619549261 -0.1225562687024348 0.2515454206571720 
-0.4798740750729629 0.9659749353520636 1.385324273767654 -0.04914284079973935 -0.4355122720758728 0.4761838009802036 0.09212207948450392 -0.2175121203851375 0.4323305165664155 -0.6447116696124120 -1.180699428234149 0.2824579234267939 0.2009133587149380 0.1864143679648434 -0.005176804979184560 0.5274713706010381 -0.4543151467894128 -0.3818795499603885 -0.3050622947581183 1.288234966371052 -1.371915262566108 -0.2679031339774917 -0.03745159564499491 0.3177332816144711 -1.050097361245358 1.910926373647492 1.194926583263018 -2.098750967950762 
-1.412314149404857 -0.1977980239920547 -1.551772063828877 -0.7532414427410338 -0.3888645456923811 0.3645031863210595 0.3157060484897497 1.171417326944347 0.08021151631478828 -0.3869509377234722 1.671134983344918 1.165850976494749 0.2411890377451931 -1.664614036222926 1.361688376885987 -0.1877493323050140 1.226782657308088 0.9655274751808111 1.699006141517581 -0.5444415436923695 1.385080463823201 0.5957527686423734 -1.110298815386000 -0.7461294398371330 0.07643011977353881 0.03497942498470641 -0.5508179421265068 -0.2210822034543640 
-0.6068460411736970 -0.1028771658185976 0.4502965214755923 -0.9445414796246868 0.9908663231201024 0.09793414710764449 0.1436545878413719 1.348343798165390 0.6951440574210279 1.093798967038151 0.04096868310282402 -0.8283700714354907 0.03422863059429411 0.3671267730666549 -0.1432391091592029 1.399859286357061 1.184905193218049 -0.3458650975150865 -0.5133445200082467 -1.530779019187682 -1.119312247101397 0.4226447588547345 0.1505501613343471 -0.7951495713895773 -0.1721339774304450 -0.6154628509159492 2.167606010478510 -0.1525500106488970 
0.1547665470298246 -0.02945843200898151 1.472271194609640 0.6816686903566496 0.01650289049033304 0.7645966418591857 -0.6815082855656903 0.5816843282154500 0.1123674789905058 -1.122556009663988 -0.02886883766128718 -1.732448737491351 -2.117999086076907 -0.7886334449163153 -1.572094848529434 -0.8870140949556711 -1.127126799484045 0.09536381311906994 1.687764778144492 0.9076759761743884 -1.465520900110183 -0.1565260716144608 -0.9469099161281427 0.6373777127632465 0.4105233032968734 1.953723860993964 1.478856700467889 -1.547583048940553 
-1.063260018577329 0.1312967580999348 0.8395304215506993 -2.087823578583029 -0.1430481604263496 0.3663858551585849 -0.8416735563783021 -0.9143739962696035 0.09783519153602695 -1.096967757616141 -2.007157891947444 0.4994091915105509 0.9454744401734261 -0.4248500095740332 -1.580179961516348 -0.2461211246434781 -0.3784015679489858 -0.6161252730322764 -1.069160185902244 -0.1660190241099689 -1.169547719129598 0.3232827349881078 -0.6908626253346615 -1.443520972000188 -1.056170962258157 -0.2949206803592330 0.4896059495137861 1.346604999391922 
0.9574688546224804 -0.3386429871711362 1.178737402052032 0.09730931652703395 -0.03577592955318063 -0.1463392156046476 -0.2303866539031699 1.028855589230679 -0.7389920426132239 0.1523306816922269 0.7690976149958575 -0.6934916817392442 -0.04176964708889255 -1.896536825912952 1.677318166199254 -1.129719683377368 -0.4998644073959572 -1.447110014245017 0.7879977784487976 -2.560784561775593 0.4243445221850430 -0.6506522020129044 -0.2641423363480781 -0.8200557016334744 -0.1371790351737308 0.8612893085313084 0.9611793941038462 -1.420146819012481 
-1.342117608603004 0.2312574106793677 -0.6089571999707686 -0.3252140471053925 -0.5428163679663243 -0.3063944872840941 0.3816827981554967 0.1202874507659074 -0.4754794592331945 0.2446443364507020 0.3454515709754211 0.1199693485921844 -0.009483750520510176 -0.5634538797817785 0.7006283860249172 -1.066857568771638 -0.2064486599286526 -1.081926676104849 -0.2005146985167391 0.5274490461764350 0.7313592881837210 0.1913629173842354 -0.4809165824414770 0.8166433509642446 0.3692996651277693 0.8545787982545181 -0.02194309605882226 0.2983633807237912 
-0.9411364891468625 0.5028937081963307 1.010326183001296 0.3155362180634780 0.8484201884621964 -0.8738930376054590 0.7007101600492304 -0.03208255614322681 0.05806274819775431 0.1266171871359442 -0.3388595186481465 0.3572671091033235 -0.2311647566083866 1.289845492914746 1.232539855456478 1.082358949885340 -0.04534069275249971 0.01967694869804930 1.268914484770716 2.421895612355392 0.4948824964044264 -0.2219508561499616 0.1521472844428390 1.415260090552862 -0.03853057026879665 -0.5481713779784770 -1.709355737388392 -0.3987210985778671 
-0.3880833672176088 0.8902105014092714 0.4280426761584588 -0.6317820003883634 0.2728210271003803 1.912367004685620 -0.2376956935419586 1.357058985828851 -0.1155882891164013 0.3604478814513906 0.3737129535947952 -0.4447541793012848 0.4979642302682720 -0.6367382245087472 -0.3444807079459171 -0.6155749321350470 0.4967490428872424 1.832343900584660 -0.9024024265239281 0.9168505779045976 1.227245676780270 0.2437286231027202 0.4709795161467976 0.6333315354914133 -0.1664573059635531 -1.109430407888171 -2.438685870295279 -0.1069958210355386 
0.8519069607396555 -0.04438432904137795 0.4243956815952266 -0.5103822190420387 -0.007882970551010548 -0.5144569287847595 0.5962207125171786 -0.3436342228688136 0.2367223481105709 0.1945972743292605 0.5636446156297833 0.01823074998753525 1.865279015925147 -0.8028143395569384 0.2182547131099593 0.8449910465459954 -1.888201942567418 0.4228856887308685 0.6763950867620445 0.1880695136058857 0.8500514513958150 0.5948214002906947 0.1145488546906453 -0.9138669053446680 -0.5084553571004283 -0.7281247254825701 0.9420834833161389 0.2118701701303561 
0.8576266481212502 -0.2317045515884331 -0.8301206591963208 0.3414746416582745 -0.4770566437349615 0.4939390221080173 -0.6029949684286600 0.2580079842395709 -0.07063404474092047 -1.054326421014035 -0.1561496205295241 0.9716616315160040 0.3044380318733735 0.2507646505616609 0.3653294154668006 -0.04740179156625056 1.551445854569746 1.370197270764785 -0.9015413454912781 -0.1710830408584125 -1.256571856927551 -1.063120796452268 -1.130417075399543 -0.5019963522443855 -1.719620180902084 0.5509337614609349 -1.336615246882623 0.8730176464927016 
0.7047274615692928 -0.5355846563762353 -2.555566874462428 -0.1521931754928115 0.3630345859508729 0.5246673171147374 0.05538647919306726 -0.03611250238500355 -0.4026096896208778 1.221773666224342 0.7697356536720088 0.5074906179305931 -0.09551592394983208 0.8503296717918772 2.065627347120285 -1.351853169138110 -0.1606801991368682 1.044205078948516 -0.01044385787248831 0.6738712548804444 0.5105821739358475 0.8714135469554845 1.879483495502910 0.9229691583724069 0.4935973246223224 0.2701783468422063 -0.9861364311296705 -0.2532468154293759 
-0.3542994034960338 0.4236537337232710 -1.184098845772011 1.115821560357190 0.8721839226654390 -0.3883623582330197 0.3352383372745473 0.1399338690993424 0.3048990951132898 -0.4922591152452200 -0.2429913391755434 0.3737463903432500 0.1957612897614933 0.3561454372399682 1.839963707324496 0.8324854265532852 -0.07196656671934136 0.6268473846437060 1.358427606906778 0.06503749479264034 1.314937157468378 0.6345584807689488 -0.5693413096438272 1.085700262676097 0.2434401126442477 1.315912361682856 -0.03294058393274652 -1.096615885605521 
0.6253951660840965 -0.1615158699241187 -2.459584185378971 -0.09504749231383305 0.3303947641907065 0.7775688139982414 0.3021801503308235 0.3541223200773387 -0.2795668526215621 1.206525833073962 -0.8259764531406818 -0.05081548139663580 -0.2974864042224855 1.145849013648040 2.347759869027963 -1.706850482373368 -2.193467066792996 -1.209207602911846 0.6088596733614922 1.042645628765779 1.079115552172047 1.097710385397872 0.2472945120208128 0.5797979219028893 -0.6346021922398885 -4.488043562459121 0.8049162688424237 0.05675040203428510 
0.4500137432548184 0.5490699657404639 -1.705930103190997 0.4058024492573778 0.2223536975284887 -0.4963927804369617 0.8334465116812821 0.8092567634196861 0.3511017429276277 1.232573327986898 -0.5032845227726945 -1.418291853371517 -0.1695720802269802 0.7179228534216997 0.3730757212924700 2.281669019097616 -0.3030286272431592 1.067196740910038 -0.9710581301991020 -0.06071573334422010 -0.5484096169202327 0.1328378356240231 0.2169480442328652 0.9736773320944947 0.3704771845003426 1.262169216615888 0.1994809987934081 1.652156473548788 
1.788922543492652 -0.1571108618825282 0.3309429427454885 0.4239121565710663 -0.1724458070016206 0.2735442419372727 -0.7735237128391298 0.5652139081590230 -1.560023575274873 0.5208646317513860 0.4965685264116982 1.769378503135789 0.05413394419923315 1.364225555064001 -1.490164907867774 1.040265286742926 -0.3384944658154933 -2.355365754884397 -0.2130669771629684 0.9914505019945123 -3.867797241915884 -0.7184826961598321 0.006801564662296138 -0.9759194649201512 -0.6698563348629583 0.6657954482768360 2.454100532295587 0.4916716110338244 
-1.191828125094689 0.09981701942879825 0.2095406842013738 -0.5145099248560746 0.04901869305193810 0.05987791210792494 -0.08244640220876566 -1.064890468154493 0.07546415547267042 -0.5832483570486960 -0.1132291542650547 1.687533623193860 1.079946271047807 -0.1243231037705719 -0.3290790268235353 -0.06209019726994061 -0.2708841257088754 -0.3622932568742383 -0.4430359961906751 1.404688422852635 -1.453471172902327 -1.010557024517233 -1.818586332679411 -2.549968723019406 0.5636863540083025 0.9060071861016219 -0.1681732102975835 -0.2067074547490781 
-0.4016573652702165 0.06412710490858686 -1.853262203834163 0.5448298785748124 -0.8580104188072044 0.7384676934865071 -0.3117673871829964 0.3840879000684052 -0.9182443939965697 -0.1784101292335628 -1.020523823252838 -1.195707700984056 -1.323097849065379 0.6482612018307401 -2.274198807675943 0.2458602606300043 1.219185979144511 -2.365076029831502 -0.01031491322109907 -1.204878275269816 0.4035899095094860 -0.4567886149347502 0.8639194505787228 1.145835964752580 0.1091706456464251 -1.611131063019067 -1.842686044549148 -1.946425613691219 
-1.783605111242775 -0.8966536127592851 -0.2761406912852750 -2.252234743251474 -0.8969051358013828 -0.3827809775621656 -0.7649890109724089 0.2589733880742528 -0.2581680961321538 -2.210599600135824 -0.2871858419573198 -0.7775741850982594 -0.2479424475640721 2.017186320332479 -0.2616168575193300 0.5724094879230267 -0.6283537049492124 1.456239169479922 -0.5217083222594958 -0.01552906995620064 0.2154460925090473 -0.2543276274503559 -0.4402471424934689 -0.1145236217010224 -0.5083659551194769 0.9964927008347557 -0.5520335446172051 -1.098383900117693 
-1.191465505071250 -1.062459196972961 -0.9638576720077219 0.1021052374769691 -0.1405935930334508 -0.7581730919257810 -0.7523672718340321 -1.390926982883440 -0.7520769314465012 0.02063656407729253 -1.219255286815657 -1.317077560140993 -2.657447729826842 -1.002292704696899 -0.3327851082999095 -1.027870572720399 0.3696455842670533 -0.1022507307890327 -0.6923411351926106 -1.425871232107929 -0.5080067743268211 -1.372944882239529 0.8630383467776047 0.8573830979456005 -0.9901697478920164 -2.454512606311903 -2.225593921590242 -1.188904835664536 
1.571367580646998 -0.4590350378250036 -1.261503744924799 -2.241947985858725 0.2807489204937514 0.3642952145167082 0.6956568609042246 -0.8412853184227427 0.4873066295371518 -1.008416268515189 1.146722501629061 -1.141419567819139 -1.511886059082298 -0.3171408270341478 1.668197624944440 1.035292146724333 -0.2868270264910898 -0.5696034378978727 -0.4989377397558386 -0.05843971991308511 -0.4990659917350864 0.006191070654966380 0.5937789538115360 0.8804576911352757 0.3099944792870162 -2.446061669854561 0.2341257271419137 -2.637094147093599 
0.4030030908649199 -0.04705929697037155 -1.795094069326569 -0.5700337205037502 -0.9865539384924714 1.948423637270459 -0.8629166150958096 -1.286166531231987 0.3884122443032085 -1.386071425932159 -0.1324437029974661 -0.4535082585942307 -0.4121484569946162 0.9822105286584328 -0.8230272924696183 0.05642165707327477 -0.8068251668527442 0.2166298234969745 -1.964479838864879 -0.1329901596988335 -1.390816569628595 -0.2713350819816754 0.06994517539150338 -0.5731459210513615 -0.2972273795822243 1.076160913418538 -1.676339261200485 1.308740769888373 
0.09002133760651793 0.3605927697945333 0.9712185002362247 -1.123589687132073 -0.06829018718643692 -0.6506082349868774 -0.8014724274805849 0.9133897498169006 0.1152802867191743 -0.05646360307623303 -0.2621356379028998 -0.1335222666989256 0.9566407654125068 -0.8289245714713308 -0.3942496712181058 -0.9931956949868590 -0.9635798820549091 0.3456121986954344 0.2433866327784034 0.6228557837922383 -0.01916314376383452 -0.8100715351278228 0.1624462144223043 -0.8906087283339503 -0.3291668448089335 0.1457983384945646 0.2673477130740199 0.05132916564972795 
0.4959781539201892 -0.1265579397608094 -0.5496811746271031 -1.453505237539290 -0.3701681503293316 -0.3134472871116308 0.1776970788246837 1.471139008273143 -0.8498268471610364 -2.423987563376806 0.1379788256703804 -1.341440591277171 -0.01084450557968814 0.4905064908943599 -0.03377152654521452 0.8210185913115461 -0.002355535870247378 1.076403947007743 0.6377223035022302 -2.278765857671740 -0.1497017743841969 -0.2902456474094430 1.389920454234610 0.3813981395307710 0.3314919527186428 -1.539208582147431 -0.3464652847890297 0.3006888242202263 
-0.4105819923207971 -0.08420034007527284 0.1293324498684625 0.8609441755009575 -0.7862040005401640 0.8857593516819248 -0.5656835222511060 0.5112635294240645 -0.09081314859485375 0.03452407426578854 -1.161309133825409 0.08365208907277794 0.4087162180693210 -1.841011663025575 0.5136395715922234 0.8201070019241972 -0.5944065334262949 0.01002806066712814 1.516748388222513 -0.5109286734174008 -1.160258020617843 -0.3644215805614102 -0.3884059371240625 -0.4413968444435141 -0.5401573783894611 -1.380584678040387 0.6145743946874774 -0.05045775418548509 
0.9501395537992277 0.1485183631008619 1.057269202894515 0.5169490253350254 -0.2017938639801490 -1.020961692738827 0.7537967560230090 -0.3799393088020595 -0.1502899655897195 0.9669116269594943 0.8253936027987636 -1.773897554530613 -0.7668753851802610 -0.4717931013969649 -0.03844713693983917 -1.378907113408418 -0.3899154300321226 -0.7562357706961331 -0.9461699718410282 -1.259311907345061 -0.04411244614596140 0.1762613543983400 1.443458986722512 1.546062524056447 0.5064085838233516 -4.382403123242227 -0.02296337570645698 1.540622367265101 
-1.230188472939427 1.087029870138701 -0.7359395522749446 0.1455789059574882 0.2960574304538640 0.2884376423155989 0.3079227363723276 0.2296042302420439 0.2553898183167517 -0.02462927945979343 0.05339845694592080 0.2086543339554725 0.6493002828375125 1.194611074358539 -0.0004526542435000502 -0.03662106040033974 -0.2791059351148480 -1.002853089859166 -0.8326321740977210 -0.1850685865672609 -1.763327540741989 0.2261053174787204 0.5071270342031065 -0.1603456427782650 -0.2078950009257569 -0.3203199923229503 3.259981708051732 1.213932221989611 
-1.372621075050789 -0.009442705007083012 2.607090594146333 -0.5531787889831251 0.06841451281104828 0.2708916640772520 0.1656745990592377 0.06063295394614757 0.2278810646756387 -0.5786467555437464 0.3702192224726728 0.8532150224789763 -1.024512396695587 0.1284366716834806 1.131196289898067 -1.234823438266248 0.9628562361623483 1.212992880857201 -0.8699618339379213 -0.01818832525581796 1.434742213814091 0.6535109500787002 -0.8315519117320989 -0.02769975974809971 -1.088453000548745 -0.08031960868872304 0.7509521533988339 2.208982579625153 
-1.270715563719689 -1.445588290885429 0.5735511177221723 -0.01281014956726125 0.05325638620721993 -0.5751524758568416 -0.3108367643578128 -0.05303395167425951 -0.3115238186394835 -0.07141079591881662 0.05211280174626305 -0.4937727359282315 0.7428255483700934 -1.452919341715095 -1.704924900361864 -0.9954147563480722 -0.4831417637223991 -0.1512135985475661 0.8299079154248150 -1.476430536157048 0.8636419950888413 -0.9037058932354739 0.1222146136980155 0.1772604296714697 0.2843608566968163 -1.476291720136619 0.1161605355200397 -0.3617256460459637 
1.436871246220117 0.5554324559452917 2.188452903115913 -0.03615964717088173 0.1593442588493159 -1.433436288829020 -0.3006872144130502 0.4145033100178021 1.290335704127870 0.1452037846605640 -0.06043734273257368 -0.5074937982505365 0.3822507502274001 -1.427906175940753 0.6076868710462822 -0.4133170487444781 -0.9988140106851117 -1.363001652890112 -1.113322056227512 0.4129623505677115 1.548372192654552 -0.6584280380321352 1.232510599706626 0.2923576021610780 0.7804261998072816 -0.3384541131342186 -0.6719120765806921 0.6040818846453408 
-1.084144386783766 0.1240965560583764 0.2495903814845659 0.7778908272547985 -0.4147773979215720 0.5410630783741800 0.2600569181741161 -0.3213579564033682 0.1604872922015932 -0.3136752180743987 0.009738462001792292 -1.843694035597468 0.1522846474757975 0.8745088635379819 0.5307510471690995 0.6159434615248662 0.1571847681199870 -1.833147528070876 -0.9993483174868314 -0.8745498413809972 -0.8107890313448594 0.3223646711167367 0.4325975217758604 0.4683545934794307 0.9077302147493164 -0.9595171927321020 -0.2986972780282248 -0.1358205099305554 
0.07017134032895070 0.07794916392844385 -2.014425857817575 0.8102380460653840 0.1626994325056751 -0.1824932069319422 -0.1519571697241383 0.5817829334583365 -0.1386456211160354 -0.6732135391511119 -1.566348736496052 0.3502921143232971 0.2290452237321423 0.9211326661270838 -0.4046279224628709 -0.4892580873204082 0.8119762613131961 1.486586807388894 -0.4184057398068627 -1.619459925103035 0.05200843605623987 0.3201240842627468 0.2922584796251087 -0.4663241083021110 0.6533808601196210 1.152945809585940 2.124088456978335 0.02254381659031826 
-0.8645542149924792 -0.8682226662477744 0.7875054388859286 0.3007978535830027 -0.06195529879194502 0.09258939701389958 0.06866201491723127 -0.03177704418125940 0.1668657367597947 -1.160735230364819 -0.7564606830519204 -0.7227516759466248 -1.007650910649763 -0.2196784397199962 2.159826570933002 -0.1324026923338882 1.002189129113987 0.1501970453302439 0.1269472916539115 0.1739555215676919 -0.8334469256712637 0.2891557877494694 0.3834769008780651 0.1475366870594581 -0.9495173091323693 -1.241177276642989 -0.1845599943305584 -0.2152134775672473 
-1.002581299186081 0.02918581105739675 0.1273593559088670 -0.7035554049230445 0.3954046208983290 1.137707764162235 0.2242140245019663 0.4466222969875519 -0.2338820453015240 -1.126643695138068 0.5733046362199760 0.4278230461851868 -0.07266547809196114 0.01388083664437209 -1.861295526112028 0.1313782591926596 0.08161370297148667 0.8653993613881364 -0.1663977250243677 1.953628945836287 0.3630530445380833 0.6914517925425527 1.422338952470881 -0.08783875894099019 0.7770902859111158 0.04140528067447111 0.04557114325550116 -0.4636142543607120 
0.9961211498318606 0.4009654159686983 0.8922039686236583 1.245846237947610 0.05213595320696926 -0.8311171330548422 -0.5826398028597840 -0.9728253963221807 0.07831609428787192 0.8998019329169960 0.4251449576044704 -0.01678047818504560 1.215538785193471 1.412780269997411 -0.2149715382817311 1.327015150406651 1.059905757010596 -0.1707740984011715 -0.4818342427454865 -0.09850985127790002 -0.9728427563328025 0.1574262805213566 0.08867866264956796 -0.6054142844400685 0.8603213850946694 1.965227752462782 0.1459580537014896 0.4736765511440148 
1.027493801950015 1.356237990893095 0.7141483328070737 1.528378296068627 0.6023862945228777 2.249870633114378 0.6637489670601435 1.177763982402386 -0.09868234981347414 0.1185308211105813 0.007710144286112344 0.05313649827541273 1.670336230529399 -0.7049428159476704 -1.647593051033928 0.7467626088563298 -0.07855459932636408 -0.4328615221585956 -0.6457910300796870 -0.3933465450129889 -0.2223758794250580 0.1769242755084396 -0.1412464137002137 0.004249086432837940 1.193399975695641 1.074800029015011 0.5634670954416656 1.881088890408567 
-0.8857607679050556 0.5558061978263885 -0.5589340523331261 -0.7162389433082853 0.9479163089502730 0.8579354041479876 0.7130448972605439 -0.05129815507893856 0.3695161731532969 1.031682505478919 -0.4903048954755681 1.735596845464144 0.6568470344604572 1.247692254572877 2.272194375337229 0.5431394424833357 0.8492724305825620 0.7961035082430886 -0.3882763435976304 1.672231941727909 0.04116468844698906 0.4085929231786984 1.097906218070492 0.8391305130862753 0.2147110211973666 -1.190113045331903 0.4102527414346499 -0.6499720282447221 
1.153142269389047 -0.4544906531929791 0.1163760301127348 -1.140510962926403 -0.09718437374021202 1.145883503497585 0.6074706033993638 -0.3803773210124553 0.6125191450403769 -0.1848180047090946 0.5688469059880403 0.8312655312195029 0.8913751497053232 -2.387682788070653 -0.1391270954127161 0.5224707579320593 -0.02620582886980965 0.2459603799158656 -0.2372237858202643 0.04695480972877589 -1.582186917324751 -0.4914463121842478 -0.9299586657405037 -0.7475461738606044 -0.3587453347821136 0.2814825829773556 -0.09096045800025727 0.2546052042316697 
0.5150722788110815 0.6487613664480042 0.7209380632664666 0.7561714762189305 0.2408489556753249 0.6528858074551224 -0.01431656788811228 1.082353586571163 -0.8508421422094529 0.9318516602772078 0.6463762617006635 0.2428958133801658 -0.7752552934555167 0.1615787638986085 0.6625019525374279 1.444210844970905 0.4836194840973662 2.003906613911000 -1.130432612480402 0.7161197714786660 0.06513955122092668 0.02341816549536406 0.2272061833572846 -0.3045002215603033 -0.4458227265696814 -0.2265886844325408 -1.919811762398730 -0.7692222360824594 
1.033652621968695 1.214042358465380 -0.1390851358563681 1.450727557972005 0.2695292810352483 -0.2906046246959108 -0.03623417895871620 0.5746098546789989 1.147468659269347 1.015619139011224 1.360875098881504 -1.406399774789422 0.7062309835061675 0.8260124922778741 0.7541805022091289 1.321749798578488 1.159609016863194 2.159068821827062 1.039013070370871 1.368477316544529 0.6336599903567273 -0.3649264735545039 1.023980407356296 -0.3232790319732378 0.06083396524986251 -0.8418247683253699 0.7882804810833589 2.195372639608748 
0.7668226904917792 0.3260680396026258 -1.385995311717789 1.857180762928529 0.8770043207701383 1.167492537800087 0.5772961343983686 0.9620602715307001 0.01479007150982658 -0.2408909845395771 0.6060894619333018 0.2937576524634504 1.662885220412190 1.211525524348093 0.7415549038255310 1.057273750755528 1.409424407052155 1.149004192310636 0.7658734854154370 1.444976040000091 -1.697264298747530 0.2476271278264481 0.1986633567780511 0.1200462346498920 -0.2993597565871981 0.7486659398883588 0.7467673662389804 -0.7234764830692181 
2.180771997451781 0.3656681825663579 3.303757517695974 0.5040581682509618 0.3759060649717093 0.3804214364519048 -0.3312947017218478 -0.8707065943486784 0.6635379898934946 0.9825664487554882 -0.8964895256831249 -0.1755319085584739 -0.6383350410909728 -1.240868068834643 0.1767067039018360 0.4622186064298188 -0.7836457670101479 0.08721369712230974 0.3347956979255803 2.173335301203187 -1.871594768771674 -0.5257053436073942 0.05528197948741200 1.560679074864031 0.5369067152463658 0.3755896047708164 -2.023920671005712 0.2423525905911081 
0.8511342508563944 0.1087107294985852 0.2825805381635464 -1.018703138908565 1.043943397188671 0.4642284678546610 0.4512023807444672 -0.1611586636700900 0.3324139374360284 -0.6915402012965716 0.2233112339510082 -0.8919606643628247 -0.2208209035542019 0.09600380402708483 0.1983296830428001 0.2017928286996048 0.05378462664652824 1.311381348239218 0.2717453572463325 -0.9590028752682963 1.047073267728572 0.6570234587462966 0.3939451350312115 0.4846492389957170 0.1924204272143272 0.3458980815877349 0.1723820796948302 -0.1584992573616814 
-0.6396159823205355 -0.09306849642959324 -0.2780714460988586 -0.2013499536125520 -0.3036704192452033 0.7428968366307515 -0.3366798674731757 -0.07841575317079230 0.1110141896715752 0.8554876487886444 -0.5287709033716098 2.110413030783420 0.5733670983739343 -0.9430130482841672 -1.450584903300684 0.4119857670094533 -0.2431970192181456 1.612519606125886 1.977653927694518 -1.591906968546949 0.9145479719942604 0.4884055721160550 1.243693602830383 -0.2539333507135421 -1.191207523828462 -2.711674030038232 -1.594722159857626 0.1398380644327595 
0.1159473465359642 -0.1917518011547690 -1.270423795773510 -1.573306883003628 0.007060068170545143 1.576470167849966 0.06902023980614923 -1.209434861922157 -0.6927124161539915 0.2718810129773764 -0.4676730824685643 0.6133341178783737 0.8005760624356867 -0.5875979569889925 0.5602752967384205 1.507527532813940 0.2562979759216758 0.6432876269803529 -0.2145164002125334 0.3470318926994210 0.8167522241842429 0.07066082648659822 0.007192836877371558 0.1478872205722056 0.8627088890947472 -0.4845122588585646 -0.4705108873490719 2.217583075144758 
-0.2538378173257844 -0.6438016534994738 0.8294562274952852 0.7840107298591044 -0.1891333636902272 0.9752699768465588 0.04751906593438311 -0.3294941872371112 -0.5641179762831089 -0.4911911355985594 -1.002257901652151 0.7359723989760194 -0.08314566083677510 -0.1088286324479824 -0.9497284180185881 0.4187368216133004 0.3140296217995555 -0.7621472873762429 -0.04896830567650201 0.2095447442760118 0.2238648400777133 0.02437411277115442 0.7088432177856415 -1.230265085753941 1.451480137418323 -1.748465881093433 0.6653453401222139 -0.03287178461761217 
1.454980362462063 -0.6103969487538761 -0.09118094337274665 -0.2026613200646253 -0.1019636183294583 -0.6839988099562863 -0.5506931166020484 0.05907224109469615 -0.1230249763963528 -0.1995033117178104 0.1040308236587313 1.687086793259088 0.04644199295618404 1.325885837443584 0.7770048225174534 0.5228825105520538 -0.01504164121092916 1.211019884061301 2.066686794087863 -0.5382800762811704 -2.085173453388224 -0.3272639288157139 -0.6550533851802539 -0.03566300718032505 0.4742238408817045 1.748047129475916 0.09521687394404628 0.3318826374535793 
0.7444230721187235 0.03523191438759736 -1.606660590956790 0.07916608502742144 -0.4629017743815868 0.4492518860164074 -1.179264692518524 -2.885684427389616 -1.240347216151744 -0.7361209601594880 -1.399483609467625 -1.352395643766139 -1.220977505275583 0.07019431392713707 -1.094978929476616 0.2219749899159710 -0.5497898409668095 -1.575632400957644 -0.5037129590679628 0.4016954396350952 0.08828094805988623 -0.4080601452207446 0.2258334617774080 -0.5889411275458691 0.4295324971824120 -0.5831523890542984 -2.417799125782419 -2.847421540932441 
-0.4566606785226043 -0.3600354867196764 0.8507836421150803 -0.5031701688140807 0.08663427163792776 1.042845263355252 -0.1602008034131912 -0.5060989988568684 0.1082160161357100 -1.168580937710343 0.8209321688310041 -0.6863214551644895 -0.02895342372956822 -2.403788718798674 1.454674921741459 -0.4179638252318873 -0.5069508391895454 -0.6154983022550790 1.793876675744857 -2.401160842711248 -0.5999960835782129 -0.2007825509641882 -0.2457020395822331 -0.06516689629091929 0.7250674947226967 -0.7876825194899699 1.785626782041870 0.7815717154723802 
2.372185351566577 1.076378325426150 -0.8443564235983161 0.4350452152124664 0.3062989754462898 1.063790532401445 0.8366744433810427 0.7305858387129731 0.4062356558473017 0.5573987095627569 0.6126430035628269 0.07978186019031444 1.494494338977495 -0.3110206410264282 -0.05554951729326354 -0.02524498971637947 -0.9694325105395665 -0.1066875781378722 0.3071630922500013 1.017078985268531 -0.08152012085412946 -0.1185333973380412 0.5917115182012506 0.09120354224400644 0.1782281444473597 0.05303848059173716 2.037217820384580 2.733761199115487 
-0.2616195063541658 0.05638750810295076 -2.144825634313611 0.1683285828829986 -0.4751430713698033 -0.6920935533015904 -0.6036488695276367 -0.4696911098980011 -0.1955240638223099 -0.8842228426397196 0.07018704006564461 -1.268920803212955 -1.091902079678226 1.507080808276865 -0.4092042998289536 0.2543460008813012 0.7293724038070503 1.196188473801299 0.5970358795952759 -0.01240406198279318 -0.6452959188930600 -0.5389053196417850 -0.009473143008581819 -0.4985839402901747 0.04837675678726032 0.8923342954618453 -0.2045895514361907 1.804130512774262 
-0.9130955114856155 0.03194834212107485 1.122269878488776 -0.5665496146956143 -0.2998497821070765 -0.6384238271056554 -0.3320328635655999 0.3600091829527697 -0.3950880188044669 0.9073379399081567 1.318809492998589 0.7458949203871550 -1.745206948809261 0.7771606793667005 -0.5622509613095947 1.117240388206907 1.814593203422433 -0.3023683570453283 0.7766012582335300 0.5346099542190019 0.3168176228400701 -0.5407192299956426 0.5373370583159298 1.063158289327861 -0.2123988419548075 -2.745672928789983 0.6535278716787734 -0.6517794606088666 
-0.5335495651838109 -0.2927243791788053 0.3105224951913066 0.4051922751157938 0.4069171649832395 3.293120974231922 0.1972857996320954 0.7771393114101316 0.5878902243048051 -0.3227822275413397 0.3823955294252586 2.326563336890433 0.3342601665856555 1.334882251628345 1.417336632294357 0.6090786943333347 -0.6916653075190110 -0.6234501480392329 -0.7472959648309940 -0.1931606232277186 -0.06801257941639760 0.3517920832127961 -0.7600192242786834 0.4049260399523436 1.809088965967135 -0.1973391314775956 0.2627445727778950 0.6916953894810998 
1.232241260015395 1.484896291186885 1.580766617148967 0.6887120378394102 0.2759604182853297 1.096316504497970 0.3585455864257560 -1.019904132586603 -0.1727509140956931 0.2896247390033813 -0.02693536297528110 -1.112420615769020 -1.242573719609199 -2.287136706673694 -0.2460585903719129 0.4250040696342944 0.1510021962109346 -2.376239388553054 0.5257987818395198 -0.6186831698002740 -0.2190512931855959 -0.3810715266537545 0.7236494855390008 1.060468093199314 0.8856725833559859 -2.754530876179126 0.7352526756956731 0.4282328241523160 
0.8190390886865238 -0.2466397878616825 -0.1830723789591695 -1.887908557190642 -0.006916436139396057 0.8497052215264189 -0.9192093405677211 0.05031921757302013 -0.4373843655080271 0.2841127315649485 -0.7643318140495960 -1.453369151507503 0.08191967911583363 0.7538948045808749 -0.4661400002778552 0.3750140473300090 1.814986468635892 0.1304517708717618 0.2402454888562476 -0.1794928565816475 0.4666378457959600 -0.4233006014379091 -0.6441187203291066 -0.1727684983421510 -1.434397300936196 0.1929116682235407 0.2623474941260984 0.3848772967341015 
-0.2725877478098666 -1.237078369935345 0.8365431237246914 0.7796492297533933 0.007614084215375971 -1.011665842942161 0.1303261161206727 -0.2351863888475668 -0.9779993914036276 0.1145289435418989 -0.3858786488973773 -1.513858527932584 0.3672848564321379 2.016210546184629 -0.6018655489903059 -0.3256073846845975 -0.08995242878635092 -0.1913196722647717 -2.037370643363780 -0.3267881028051463 -1.240639988109872 -0.4284137912432581 -1.305319996910898 -0.003021862004971121 -0.3127407564227009 0.8382898141191465 -1.071710402383838 -0.8398002453884352 
-0.4496592918514960 -0.5697801773328703 0.8549046209355804 -0.2747439318790281 0.1515556289494638 -0.6414760051193048 0.6257345490481195 0.6918380427860472 0.8543857244712809 1.036876349615540 0.04220381605364261 -0.08771308112486234 0.2661121339097003 -0.5471978715201338 -0.1088895214576638 -0.4537817426442889 -0.8739496500243887 1.621074055352458 -0.09270232179121614 -0.1577571526814992 0.9032516153970681 0.1994880856624200 0.4393864092725133 -0.3438292546980810 0.3423730354705643 -1.280922234587248 -1.946802412833918 0.1687239311275982 
0.3756196404209751 0.2115948214391093 -2.000418948638131 -0.3769131392276436 0.08214390898853914 -0.1154431890949174 -0.3440926537023926 -1.005821274658956 0.1938009898364251 0.8896778459078469 -1.084904496484304 0.8163581034664510 0.9804041466057437 1.843154594560995 -0.9558991694105870 0.1281992945673164 -1.069297710950932 0.5554367262742234 1.262648958736021 1.576460187613695 1.161394810535319 -1.030944206143640 -0.3592854763851068 0.2458506764048871 -1.059108467745968 0.7085121834399549 -0.6931648596998886 -0.3011691365665339 
-1.490842839042299 -0.3257920454788648 -1.828353211033759 -0.1774053535037946 -0.6639011146873003 0.3846524669902283 0.4779359941379870 0.3445194517317374 -1.229709310834170 -1.358608129995122 0.9262665768529994 -1.222677745089098 -0.1275881945883397 0.08607985351819925 1.593386217357129 0.7001346550944035 -1.093376312104436 -0.6897162487427412 0.1011844697822590 -2.242560180996230 1.133959967758433 0.1420942610505050 -0.7401989119622484 -0.1670365537632221 -1.558914360803470 1.587680197063387 0.6250130059994746 2.494945057034324 
-1.166578655455294 0.5373808885198962 0.08592508416879187 0.08550127232279095 0.1137697381622098 0.7061950761489204 0.3671230480702938 0.1239168735610112 -0.6145503873410437 -1.326108168539087 0.4026415885571032 0.4940300418561516 0.4463650581824649 -0.7463083152173726 0.8245072981951914 -0.9553064440154495 0.3044144227696454 0.1179384072361571 -1.270450458196748 1.781253658453378 -0.1276082380496188 -0.6893972618876794 -1.549310352866610 -1.174439985075815 -0.2688787869127499 -0.3024717047312894 -0.8601269033327833 -0.8291363796926816 
0.5549099124401339 -0.5148254981324102 -0.4217165409479933 -0.2745343862133023 -0.3498255754854558 -0.4645319911981133 0.1199745500988824 -0.2309958326872568 0.3522497153173134 0.4465295811127581 0.1542022998207820 -0.1573442644506132 0.5828562519777487 0.1019749720166641 0.4399721720201960 -0.2094714163464499 -0.8036886510464661 -0.02407496857401136 0.0005247689880711337 -0.1094822650873305 -3.246413789871752 -0.5322602297010517 0.2102215048435317 0.1258067688630972 0.2115289191515446 -1.273771407144421 0.7111595019643906 0.5004222008863275 
-0.5835021866720883 0.3984226662867834 1.543890911245361 0.6210536159812097 0.09427585834441604 -0.5780205146371433 0.4109803299253043 -0.5748461992375161 0.2474972472803770 1.552998949656453 0.5181601452962935 -2.246879835467571 0.06193604967530372 -0.1928582138836744 0.8061665566448167 -0.6532060415925388 -0.2402221378614926 0.7670355306597720 -1.086682557029371 1.237193276017661 0.3108325325663096 0.4261346184232334 1.072115627002095 1.049846045152030 -0.6575652503942392 1.711475305560238 -0.4759463505488647 -1.519463383567873 
0.5028852707230658 -1.315195170439007 1.392273872577105 0.7487612202476059 0.2521166697565686 -0.8739126114985825 0.2905150274219410 0.03721863340275122 -0.6876380912208722 -0.05042634110203088 0.8260105339837293 0.3719565213620563 0.7410106764207371 -1.775115601335036 0.6360134200160099 -0.06111721784453621 1.417364247402376 0.3989945078249810 -0.7895886267543321 0.5170944773790744 0.1435865417153296 -0.02588870330616587 0.7951906230140982 -0.6416996906310097 0.5273255111154136 -0.3229552443459697 -0.3939412644023935 -1.890210023888106 
0.5560112318920090 0.2232849693326712 0.2872195412883130 1.034745069479900 0.8579960797862382 1.529155179181518 0.8402854866278738 1.286286747747400 -0.1741119475657977 0.6400850197616289 -0.3648734162044079 0.1510274535359247 -0.1328362893586865 0.4874493310756956 1.755698095453243 -0.4120360768300644 0.9597683660731995 0.6900435765467066 0.09383135389989072 0.03691659475844006 1.537725802368874 0.3736429144282800 1.841405938875824 1.537324228726599 0.6499955853824152 -0.2449568389594213 -2.624628951402026 1.176379987417290 
-0.1733036858910090 0.1335986700910147 -0.9964436908291765 0.8893727336697158 0.4337217677212193 -0.7043336207748094 0.4206626498262047 0.7827840719497676 0.1291881750269271 -0.4860774257337575 0.8313359056582373 -0.8341903218977386 -0.08586619630038106 -0.3463560743435364 0.4656614388596240 0.1376247092435957 0.7351868031592435 -0.1842774923623666 0.7288383327856833 -0.3934721486122073 -1.391024503182297 -0.4161007282811589 1.546197068353662 0.6882210037370704 1.207925713610778 -0.1823808597417684 0.6485044478548517 0.7885642913697697 
2.401305900323982 1.256429616537646 0.8268986386770243 -0.06403132002670862 0.03333287473469405 -1.064116228761697 -0.3268575304187076 0.4140898977977029 0.8510728209275368 -0.7133978736580115 0.8529255714044922 1.076502964289299 -0.7069098594775721 -0.9017611153469740 1.577908884024744 -0.1414113571858119 0.4765629113171142 0.5780769565226124 -2.099792406300225 0.3008876483580858 1.746643845680199 0.1095694011171737 0.5003625828161163 0.2515561648368676 1.007758566831076 2.227354376713198 -1.924229010271808 0.8946841518818377 
-0.4173545018092850 0.3579031823293924 1.156894092808727 1.118763105951351 0.5574277385988071 -1.843641372586957 0.7836015973349018 -0.3787787279608968 0.4264088437473980 0.4581490732129627 1.042165938992920 -0.03053189426617891 -0.03539486347522711 -1.068317557239029 -0.6366912828304994 -0.6008961528026401 1.271966020326841 -2.013690920587708 -0.4565897133567501 0.6015657170955487 0.8337778245911747 0.09466541996880294 1.663637526807017 1.134031143944566 -0.2434563414435431 -1.081093920115147 0.9815403849160367 -2.480692805680342 
-0.4552378879774479 -0.4321912467126841 -1.301750090345912 -1.856110914615534 -0.03867568224867388 -1.020796095691230 0.5882128626452728 -0.1682404725255570 -0.4093470446295883 0.1497447888386217 0.1418405206353452 -1.367416480716267 -0.8172806576447118 1.228248395650439 0.5706729582177452 -0.7548312036770036 -0.5670800815614537 0.1766298686422883 -1.162014197998523 -2.309437639374842 -0.2914354956189686 -0.3494119844249300 0.2673513975973737 0.5275659375944713 -0.003130212344518882 -2.140734749106414 -1.519299229520489 -1.360024994668254 
0.09956536645796890 -0.3971772802806443 1.061381333758497 1.082263097660065 -0.8801727710190270 -1.658060414047176 0.1666642245403640 -0.7207593760028911 -0.4631814269056722 0.7060059294287715 -0.2857908962576926 0.4578181178363749 -0.6583438138042245 0.2994631124824297 -0.8704122111636357 0.04265366076311809 -0.6082593713783119 -0.9823652810790963 -1.113794800839860 -0.9617933368935463 -0.4460988379569097 0.2232242818962734 -0.4683434279723800 -0.2596047562311313 -0.7515348766132173 1.387240692454466 -2.572616889863990 1.181912032944450 
-0.9440401646424598 -0.8423235888028359 1.550009853916494 -1.777732186462760 0.8313855152852275 -0.7568343854695535 1.356755561377949 0.01385068279760948 0.1853688140712325 0.4092094913254124 -0.4631036934169837 1.459181328389699 -1.303311175490690 0.5581472174539688 -0.2235980246175764 1.290045610467480 -0.1924030665967259 -1.273904180201027 -0.8865905542519337 -0.3653478401803320 -1.698966992371958 -0.5412956081068164 -0.08828840144071250 0.06044735570048482 -0.01710282292368712 0.9811443491985818 -0.1674950589607369 -0.3036086460478079 
-1.287464628350886 -0.007249568238311648 1.077238356331202 -0.6663074937609327 -1.423428662400779 0.3040668667455360 0.2085922873783762 0.2197097455217265 0.6822032572018887 1.348908575214816 0.9617052769399204 -0.1892443196981062 0.2772545289287957 -0.7644935721573767 -0.3905944008051409 2.406281098815202 1.867625924039754 0.2408476487739899 -0.4894588948038527 -0.6158864644312252 -2.035319744304491 0.3041327913945797 1.041146772626864 -0.3286035360498147 0.7406469666680939 0.2073152685574596 -0.5882466535073982 0.2043594934614738 
1.292080281963626 -0.7391453176506734 0.3564573959508736 0.8088205149837725 0.5781288230682962 0.8187906643064343 0.9413088435345411 -0.2805719627420400 0.1165658238625348 1.281624949453902 -0.6224718274070288 -0.06116409408909732 0.2818387598749839 0.08782461181954804 -0.5684389639069873 -0.8782085000188796 1.796606721586640 1.477244746961066 -0.2736667353794801 -0.1205922977647723 0.05591767623028718 -0.9035215032424555 0.03811591115715465 1.803614815348029 1.706598205245779 -1.325206145457709 1.007265093798249 -0.1887195084260621 
-0.6470604675462157 -0.004639212746023587 -0.3095380004355582 0.2414196365896625 -0.7587503688343054 0.1052432112568232 -0.6280420743628137 -0.4755720746894481 -0.1745278081787551 0.9934411220521520 0.1879751748416099 -0.03125556330990481 -1.342983856858869 -0.3733309668592103 -0.06522131550792706 0.4264272633565888 1.527240185896749 0.07787530430164658 -1.335466782090811 1.230357208423433 0.6175331471078924 -0.1630940091795670 -0.2083873415295801 0.3310267713384243 0.3525342217754366 -0.4782248102660751 0.05473080965767191 0.04818899583568688 
0.4109750694667571 -0.4759212823124189 -0.9948999981800166 0.4044529534822682 0.07771449453688780 -0.1866818705931926 -0.8365315623037384 0.6971988295841913 0.4652784959639826 -0.3112130493830656 0.2460085418828643 -1.067292669117237 1.969337735968572 2.367147582604452 0.3779676660733076 2.145989224234834 -0.2740819834255979 2.264299430660815 -1.329094035243656 0.1450776015722745 0.5855612369570489 0.8369693541866532 -0.9526905881571097 -0.003340431049316809 1.326684926009698 -2.014702071064201 -0.6930193366455235 -0.4910420548214818 
2.115135941964804 1.431894588142889 1.034949910045180 -1.203742282016739 2.420798465309893 0.9179220193509062 -0.5711373839608499 0.1225189472634672 0.9583665239899337 0.1674190830851454 0.4005221587661777 -0.3526545635405506 0.7675543493126887 1.086535946163627 1.596702296146058 1.276779082534032 0.8976793695934623 -0.6341608730419712 -0.6760883099440560 -0.4549988838523110 0.8493788594527871 0.1000834565520255 0.6743384904501832 -1.201390332077280 -0.3841934423981582 3.488470347438759 1.239029233671350 1.766338613026034 
0.7424959189384611 1.232094323649163 -0.3108827622842711 -0.4614667332142439 0.02746642783180432 0.2586785674549320 1.306898462510616 -0.01726033795827198 -0.3129944161604513 -1.313404946589600 1.308798503347541 0.1794377929856146 0.6541916652955124 3.078231484560225 -0.4380736915862146 0.2654946745984326 1.538339252121118 1.761425479213278 -0.2248090489101230 -0.3551827198392239 -1.912454996790610 1.031555175562681 1.010182355569236 0.9259236736898278 0.4556045267567684 1.702397443194400 1.385689181357266 -0.1876734614688508 
-1.255754534143563 0.5013718284585961 1.875195664408588 0.6865689135349486 -0.9903098184191524 -1.144893579427785 0.6523226953522788 1.021545184328320 -0.3632471587424313 0.6701917914661736 -1.549626911926753 0.8037092380606983 0.6271654156973150 1.956029541339225 -0.2650036738545554 0.8803782419550951 -0.4126715982061048 -1.112274236916559 -0.07760001898545565 1.342401340394674 1.029478216131406 0.6500413445555466 -0.6207178441730624 0.06294478032668740 0.08553775884124673 2.195576507319143 -0.2993008586839804 -2.391987832062046 
1.680575252820117 0.6620182053009943 -0.1885493842254489 0.7052566119018583 -0.4002921067273188 -0.8264774224975989 -0.8516031620534286 -1.209830281611136 -2.037538871287781 -0.1332462832485823 -0.2075323502397123 1.190453289256012 -0.1671347029340504 0.8851157464661227 0.1584652484051793 0.2665954122709945 -0.2634539090444550 -0.5083507323670082 0.5161278157150280 -0.1163563482953985 -2.080451048630996 0.2351105939542046 -0.2641279810167524 0.3176894951267106 0.3390565414377376 1.593826250229029 0.1021986696071662 0.2256523521336900 
-0.1992440676326956 0.4600295226451217 2.973930440832236 0.1937940992811595 -0.7103381293554780 -0.3269174860861357 -0.4664612171364529 -3.146220626485357 -0.3584245326969349 -0.1579154033564121 -0.5764605400769115 -0.1007828269216432 -0.6766509454910462 0.4208708150741373 0.3102030876143299 -1.190563039655843 -0.4235774718548416 -1.924061879054612 0.6539021287297617 0.8956855382387844 0.6755339546810821 0.1583250498049602 0.1147432368814687 -0.1596766160271625 -1.161436118330670 1.944592207627463 2.026230759717944 -0.1504210375309132 
-0.5088414297927659 -1.270196847236811 -0.2935272822453362 1.016785061608183 -0.1441943604730800 -0.3269005063531703 1.242420466589993 0.3176679681388356 -0.9228168345285725 0.8855560831969637 0.2457059749800474 0.1703469280620993 -0.7063465758535521 1.133392916304908 1.230799626600226 -1.297907591989587 -0.3201489555598323 -0.7227313549272892 -1.765934438199976 -0.8950653443734332 -0.8957560052176345 -0.2528631714003364 0.4378987392152075 0.07629822162625727 0.3953412869966864 -1.898587573330012 -1.723991029799773 0.03184494042985579 
-1.053411785973402 -1.408309475076620 -2.205422740396181 -0.9537721939632076 0.04561781958918381 1.263120107918522 -1.157834444886552 0.9892235969014209 -0.6236936160560719 -0.1204013656572991 -0.9517019052351048 -0.2848866236782360 -0.1252245054277643 2.130656458796362 0.1568048072607712 -0.02652729623653093 -0.8266990160667924 0.04612334676881094 0.01187399579114351 1.495376006947273 -0.8343619652109135 -0.4892971610686935 -0.2056893069549650 -0.06012073464768943 -0.4940786817301812 0.7637564916617159 0.7927647647376248 0.7322788415145798 
0.3562551100789141 -0.5151536882048897 1.707921476440840 0.4822621131500751 0.2069749452510524 0.2375939953224247 -0.4900478698278098 1.025510659398944 0.04573581594557961 -0.1704912976782262 -0.9463056684802545 0.6013192808047634 -0.5557559859669688 0.3927472244791568 0.3489112181108804 -0.4273796645464708 0.8972299862113590 0.09494955442556574 -2.458945581682284 0.5186086196506800 1.768682601533225 -0.7042393583824416 1.049101896357077 0.4713653052448532 0.07981798132541011 -1.883749887948943 1.685868633651774 -0.5404572040163055 
-1.018064348660131 0.04578703035192248 -0.3839915564123059 1.099639925683094 0.1943725302566884 -0.5931377991734996 1.484730136511208 0.1901248449548044 -0.7607285495673858 0.4256243323569551 1.083804899497279 1.296624403053269 -0.2132159834485832 -0.7469627920990572 1.249192173862803 0.6334351675634459 1.627272523955539 0.6602490179199192 1.282679187740075 -0.9741585156569705 0.8437168702871836 0.2837569958514673 0.2525298219532539 0.1225001187125939 -0.3355847353662371 -1.698327306171562 0.7080793075799401 0.6871885737210388 
-1.355161414086737 0.4485595353323109 0.1790264401790162 0.1823025065841047 -0.06596189518636810 1.386846064232822 0.7085000292997874 0.3657273362537665 -0.5978350648859820 0.1330627255892927 -0.5777341103576284 0.3726972075308604 -0.8174118640052074 -1.904061817367900 0.5018274613837805 -2.167080530685785 1.422795083627098 -0.2312768943041363 0.8468332005017596 -0.5679626775427401 0.01797494594235900 -1.021650578386280 -0.5079468042101476 0.2996071927367247 -0.06013364959892464 1.570679817292880 0.9860535959906748 1.530083264122800 
1.290658026552988 -0.7852447473044460 0.6450324567369119 0.3918747432892059 1.374518646444636 -0.7086501806328307 0.1297209759741435 -1.616083880874936 1.454225195954930 -0.05796456664181116 0.6150310259390728 1.595523437438246 0.2090277781679316 1.565936090536356 0.3914425962372438 0.3533866857312764 0.007654329276490804 0.01700427039909478 0.02630546069003824 -2.312997239588031 0.01321922333998042 -0.5276049529125333 -0.4408986622862189 0.7377034079014316 0.2556600839647154 -1.070188324928045 0.08579785444830139 -0.2012133246604493 
-0.2074164651765311 0.4930996881054651 0.7441823945451113 1.287076636999303 0.1614048380682696 0.3559195169484227 -0.7175321430105603 -0.1657532889713064 -0.2686651359988186 -0.5020656257708553 0.5543259047103768 -0.03545759582100561 2.130408444411976 2.293423362251962 0.3061690404493089 -0.4480026333193369 -2.590575080319681 1.392375774690727 -1.237319215238505 1.042133896679913 -0.7355907456403453 -0.6575995169115721 -1.050249020265301 -0.2401639970649313 0.5975135625994333 -0.8397254335286550 -0.7438596928605561 0.7902600978475577 
0.7181420960473412 0.3421194827069347 1.653549171580725 -0.08049139356570384 0.6884156976233706 -0.8019037163562497 1.346292473779637 -1.517051436116249 0.08073829931045608 1.178032654858032 1.782964061215134 0.8997535071241483 1.107109025981819 0.3814187315941221 -1.086095016034737 -1.105476254952849 -0.3501546862364577 2.062874703671168 2.214021137391641 -2.393263758644453 0.7120471470103429 0.2877743206895985 -0.5223496986571459 0.1586257590655943 1.601017940250325 -1.380643774931300 -0.3692060907713327 1.530442906209085 
0.6729284272045748 0.1726813332187927 0.1785991732017660 0.7910588149844244 -2.072048826380659 -0.8579973654270091 0.4550836648593862 2.723815711759119 0.2987304795445478 0.6545855349469043 -0.1794406308501108 0.6420800669280526 -0.3817751080307318 0.4695698668886811 -0.8560874759838161 0.5363169830372354 -1.014903767180657 1.380275561617351 -1.058331393488836 -1.406466703299390 -2.271827048716329 -1.386676553259203 -0.1244583560516084 -0.5458135489613613 -0.03205054990722418 1.039702057111360 -0.2322273427421842 -0.1372742703261350 
0.8970021132247359 -0.1628051944418831 1.082355115367536 1.684265368220302 0.6564600644664372 0.2931850260479183 0.01634080877464028 -0.8480949546400918 -0.3052408227822965 1.230564357691274 -0.1745875357443361 0.03548475615182399 0.1345854948468033 0.3037558758068352 -0.1891031772302750 3.074780595220659 1.156181796419027 -0.04096614986397501 -0.8667075645718069 -0.5464109842928424 0.7364902946053605 0.4402282414134396 -0.1071497379022680 0.4762334809326069 -0.1586291848233915 1.415933994226283 1.015933428799357 1.681899347688662 
0.2851950802540176 -0.4654151931964536 -0.8700011497023233 -0.1343412438119268 -0.03588381651017593 1.371664230518366 -0.2017595497062070 -0.5796092546237047 0.3137089934357654 -0.06720896325225564 0.9203489581622702 -0.5099668225860532 0.9980196593179288 1.279423864303328 2.001529357311824 0.8880430525758388 0.01459228709128429 0.3134155134698534 0.7471035565122035 1.146698165197070 2.286145240835101 -0.1320852269633925 0.9016016319394040 0.2703211888015767 -0.6346074554068170 0.2702231939010226 1.447122659513725 0.5603083508450308 
-0.1383503947055130 0.7971788811611854 -1.473900525806466 -1.047826770907976 -0.2994653966678924 -0.3509859918731822 -0.6371439255879142 1.472928197040596 -0.09419965259503231 -1.664282367031496 0.6473081391959669 -1.639846081548911 1.748566916435755 0.3415975270216641 0.3685753304881744 -1.083262369018230 1.126733050956550 0.2425884079289399 0.2928317123517599 0.7081855984737825 -0.1513634137010384 0.9572632926123604 -0.6282481725049857 0.5289778103668326 -0.01772106226364017 0.2855065610881170 -0.6055748441668555 1.431384794162732 
-1.040771015820776 0.9435738518642531 -2.461947581719586 0.9237519860154225 -0.9599331803414486 0.7660961785184519 0.07742520925544372 -0.1239086447240758 -0.5790215643831392 0.5655694299129554 0.7438625962310538 0.5199732880856368 0.07094230960403994 0.3966763762348912 1.019162612940068 1.138760040350024 -1.113609909119107 0.5684545668472996 -0.2887290002556809 -0.2719912016618073 0.3180088427757845 0.3371449390036607 0.02718737166651636 1.098433363272062 -0.1463886756987784 0.5936889277109703 0.9909571982141708 0.2057087370189850 
-1.469634684149044 0.5798491444754651 -1.630725764943241 1.352149830012852 -0.5943440202285909 -0.05931317893521657 -1.075647294489206 -0.3841329494171416 0.5057169690494405 0.6440596121577239 -1.014801360333995 1.636942090284655 0.5529399431054267 -0.3597247670414648 0.5497700394956079 -0.7121490374065941 1.103833324869508 2.547485927964659 -0.8888080384319856 2.212947679737229 -1.444672223352923 0.1703799279033956 0.8157826779164083 1.469590326285625 1.435443404845426 0.6978880962413895 0.9880177874657460 2.875106346782367 
1.571286511589330 0.2446452074775231 -0.8875522601642505 -0.04573399789098333 0.2492177496092572 -0.02500264715800060 -0.1210216523419308 -0.01626677160900512 -0.1388714938031259 -0.7249318597798327 1.674668613608069 0.5843204795055027 -0.6113347623009995 1.100782783807895 2.366778731802508 0.4456480341155706 0.9033238132218700 -1.098005040017362 0.6892724095869434 0.7711902930906105 -1.335885538780772 -0.4380616217528747 0.6063176890926605 0.7707023485744894 0.9721038208725334 0.6136842981206030 1.334942307663424 -0.4734514605864310 
-0.6953433337132150 -0.4856332943987329 -1.942211998590843 0.01062934109857577 0.7325933138345218 0.2315703886187784 -1.006827641578040 -1.182800206933530 0.05663974954975895 -2.143898592320184 -0.09051672306915692 0.8293165412607193 -1.514233864728564 -1.393929757701009 0.2760934399044375 0.2305415125686511 0.04300190704254538 -0.7046580868848683 -1.157188402995286 -1.378915545476114 1.405919498907221 2.000939176998582 0.1568682903156324 1.591342613270905 -0.7239361922327252 -0.04274976571610378 2.138383018265332 -0.1955495702874722 
0.3009178179467462 0.2648930664425048 1.598415048244605 1.036142956385699 0.008971773926050239 -0.2168557224660292 0.6616297429411793 0.7857722891066632 -0.03078229458452279 0.2779539354750774 -0.03367180081158668 0.07241470236706068 -0.3636266581966727 -0.7735142223394418 -0.4557369952247177 -0.6784679994669837 0.4783473243591330 1.066641771878383 -0.2110041563458967 0.9688559514594507 0.5924629697677386 0.6889130342380029 -0.3127191017168061 0.2468410503663602 0.4011667124510169 -0.3991850170881006 -1.329730672392099 0.4497854727025189 
1.231957567470767 -0.1456438911617658 1.575953709247987 -0.5363837112949761 -1.371309079887781 -0.7344862430512334 -1.150591987309494 0.8659597625194483 -1.355622311592759 -0.4061297958744931 0.1672852082853513 0.2830343524208691 -1.767469893915806 0.6543768106610681 -1.237476931648149 0.7074055789307039 0.6182024912069607 -0.1031142970400168 1.270847301473770 1.868876238761542 -1.261365147567231 -0.2986490478658924 -0.8659688409217935 -0.3426791145976293 -0.7954983212757919 -0.9865618535857742 -0.4509227687693566 -0.08263539000593197 
0.5001927418577437 0.9998601170755946 -0.7109309943687457 0.3022794449092038 -0.2761375295926607 -0.1781742182046543 1.219536712461941 0.9085766624971914 -1.026648444565843 0.3500813999137157 -0.05967503871833681 0.8471099973735156 0.8003590372820567 -0.4320041977856821 -0.8007108636640375 0.002008663767808394 -1.159893426121198 1.384216274067654 0.5583429925397883 -0.3773252340279495 -0.1619137751215007 1.031630904863421 -1.710218309880928 1.602236515294110 -0.5721402396259153 -1.773938475708697 1.745466921707307 0.8683626079424676 
1.670608741325101 0.4736996096290238 -0.3404639033098995 -1.185455666444893 0.4084807782951544 -1.660326995232200 0.9796455963844659 -2.209180541430961 -0.9353188851569691 0.7278381608384845 1.102360350047357 0.7303529544061536 0.2488558917372545 -2.624521448067817 0.9410202303184819 -0.04800219959389700 0.7843784737153849 -0.7512200682469187 0.9132558311808084 0.09235563696303534 4.415213357464396 -1.257039881816329 0.3803262346687068 0.3539300087358752 0.1024935665082607 4.762528780030657 0.4672418267566224 1.089621413832981 
0.1334054447826365 0.9507453709344660 2.368909111647327 0.5734407232832675 -0.04469110816551698 -0.02376601358660041 0.2844795815359259 -0.07470269232969940 0.02637534998653426 1.466063114087083 -0.1300897591753944 -0.7911867814001394 0.3673732753006397 -0.1725256896807352 0.4297551171831779 1.721853999717729 -0.3212799717657205 -0.8535579357518970 1.152263657214355 0.5960810880933246 1.559222911700012 -0.2725441471973687 0.7733764912084721 0.3196594028695008 1.085430223917336 0.5161356261634480 -1.042982729181328 0.3713847997501307 
-0.1911753048465499 0.7361394580909997 2.264498666146360 1.217686763274427 1.092366617948294 -0.3601356753100442 -0.4897357695018875 -0.3566227625313680 0.6407057100534349 1.780048250663713 0.7099021849100590 1.407569855375594 -0.4078525159727883 0.5511166440850730 0.2353384652009177 1.471315539042076 -0.5558190807500825 -0.9987261454987185 -1.686930638022809 2.386196877195343 -0.1666083839907768 -0.1228251758039872 0.3838425914156812 0.2164352154403302 -0.007798285646525800 0.6594545245677703 1.643752725615150 -0.2462893292222024 
-0.08672012659344763 -0.9868514142856785 -0.6130365766092412 -0.6149597422123929 0.03304017427548749 0.3523058288216980 0.2634183123232496 0.1623437187044066 0.05661081184585213 -0.6676813860981099 1.206716002207299 -0.8430735499662356 1.073050941670372 0.3569956680076317 0.3771578248936977 -0.05873085898928209 1.457691452220742 1.099358808155265 0.9765574110312817 0.4988567603729671 2.764649841612286 0.6797317537727704 -0.5891672680662352 -0.07221324129934083 0.9418125662262298 2.491700686212951 -0.4605387376827134 0.2962617926180775 
-0.6795252609086228 0.6459236242884618 -0.09027435860123400 -0.5862835604697887 0.08941034307570975 1.124982816318948 0.4869662166581008 1.503838462536999 1.031414410053805 -0.7695045718165476 0.04340058663323505 -1.042121414913103 0.9649405079485179 0.3142295122213118 -0.7457694417350880 2.451303569407632 0.4753967684883702 -1.070460971802668 0.7439905895832994 -0.5901626888986960 -1.322982997058883 0.4202020103042021 0.3726384773925013 -0.7331216760088505 -0.4326610139902163 0.02515129513684274 0.09414720631230467 -0.8763593325540202 
1.587081125858191 0.5286773656879754 2.869531539693494 0.1879421132871382 -0.3735695064362383 0.05955238827728522 -0.9557357031595577 1.005066845342274 0.01653029546351004 -1.429483383345500 -0.1807406321370693 -0.09141825540196291 -0.7903403028538060 -0.5268344707466878 -1.363239858725599 0.3697865882532477 -0.8111218707047830 -1.197412054806175 1.246079787651921 0.2481814913614307 1.175105631316227 0.2986499880267005 -1.438299320464881 0.1293702221164086 0.2245115705810716 -4.199207603499684 -1.275795233633176 -2.246419999845478 
0.1647686349414246 0.3432569166656619 0.07842109312315476 -0.7138207851594813 0.7328671042257684 0.1230553420177898 -0.7756253058384066 -2.324601748421346 0.3437967860120474 -1.209948347988389 -0.5939897030818482 0.8413670668210325 1.619393130398886 0.6012300281570458 0.2853016794719209 -1.115866168119231 -0.3828149114171547 0.8305265046196343 -1.049796467528162 -0.7939860302849908 1.753621638734020 1.052864267403850 -0.1368538630073931 0.1222278560360906 -0.6674074752682647 -0.2689802781252461 -0.6098419033019472 0.6653190303078117 
-0.9544527934263553 -0.2852261560167427 1.061860154999039 -0.7888186160088839 -0.6810293254217630 -0.9303856739751333 -1.506392941221268 1.288054047899382 -0.8570952255388480 0.3642969637538128 0.02254782364921588 -1.447030030908988 -0.5385646940230779 0.1920278842439408 1.330273445330012 -0.4859009484210065 0.6646935745192952 -0.8365726316674276 -2.996114402444154 -0.5500039006511843 0.1828222410958566 -1.177389470758208 0.6305888265362471 -1.148851851832653 -0.5613208306029880 1.400469395095066 -0.2901310595560105 -0.6716521920123943 
-0.2689683732296329 -0.4245901265158042 -0.7027976988944044 0.005599649199092595 2.188777435103786 -0.1209923679088645 0.1410549341280057 -0.1685014803505820 -0.5712781131131108 0.4802847222245045 -0.6886633568810070 0.4755225372343990 0.4376716765161983 -1.308795162746185 -0.3974691459391403 -1.122338859164696 -0.3885804558433816 -1.091081866906271 0.1070723812906613 0.4222058213503375 0.1116154062330013 -0.05001508764961218 0.5076035235385022 -1.070573238561724 0.4048268168421906 -1.413012490887013 0.9494896315442581 0.3479105762307019 
0.2983729916954224 0.9729122069736407 0.4762259593497700 -0.1824848534308492 0.8422937317172253 -0.2159814033643346 1.422057368643341 -0.9837602104455986 0.1989806066939747 -0.5973819993994037 -0.4049773464515164 1.185653590399510 0.6111215631697162 -0.1451405246795995 2.613512820620989 1.221073937944344 0.5429961216373477 0.2897442194048042 3.545432276465244 3.078834983653120 0.4348730955937802 -0.3824070407084163 -0.2766392303348409 0.2377432720368321 -0.4986170924956696 -0.7899024028469512 -0.7371504697793709 -1.661480173422578 
1.351683976604666 1.183876311880021 1.341712807440930 -1.043144243927416 -0.09599364134766006 1.179005684881272 -0.5891923660418646 -0.8429662290288259 -0.1235576591191243 1.974091559959593 -0.3319630999836561 -0.3381686250541033 1.228861472003302 1.186421971568640 -0.5987324932598614 0.3800244540577560 0.8179488551397316 1.918578560298456 0.1966887191839817 -0.6622476064543981 0.3863029380898032 -0.5479335055467431 0.6913657586519619 0.1569377469575975 0.1804668584969576 1.631359037066047 -1.813399817917373 -0.9610080861925366 
-0.5964974409654308 -0.2110886861285659 -1.866633942892542 -0.5504483438672966 -0.4772720301159975 1.422742111625985 1.634432414088622 -0.6977850883052360 -0.03321894652014418 1.249550928787020 -0.7455037823388205 -0.4750207156694338 1.499386205700857 -0.4213695313599798 -1.780655323809615 0.7504724976222903 -1.279192225301009 0.7856715249725925 0.3677028195284700 -0.4238710168879973 -2.197686333678001 1.601357997424247 0.7348621118894617 -0.2337569356382636 -0.3693147702517727 1.638383983068226 0.03566689992267880 -1.194720479415901 
-0.2884804692680840 0.2065174049772746 -0.2260474791982288 0.6170058492765597 -0.7547901964546440 0.1016712228341024 -0.03553320973732498 -1.082817467614682 0.1376783420399233 0.3465832350953032 0.4558272572271900 0.4389491820037161 0.2722000260009135 -0.7334525248416681 -0.1804184256964941 -0.9408379203001577 1.195567928270774 0.5728342391568942 1.206284375623481 -1.509580533013987 1.028706270061039 -1.032699340189639 0.1451849586422195 0.2269459893892255 -0.9400686144956628 1.273905347613397 0.9095250648701526 1.515568934989499 
2.224608952489756 -0.03724633406966726 -2.221064932235894 0.2544698933402999 -0.01678492301585086 0.4870357894197978 -0.4413532593388851 -0.3755230015501605 -0.5006749480517528 0.7843378848363116 -0.2623553777051044 0.3310023843808985 0.7857897028230645 0.6632071143695565 0.2971233592898379 -1.580410326188277 -0.002985945578051178 0.8451282178990789 -0.7608332770809118 0.5371745358900550 0.3210367677447019 0.2330550511505474 0.2203909513420770 0.4315301670907628 1.161595630172351 3.703210604991258 1.373178925614443 0.02505450430675699 
0.2522396802731649 -0.5247845244815479 0.7589046602289836 0.3429135890134158 -0.2251042025672010 0.9505056489059578 0.6586020062478537 -0.8674269819031775 0.3082489159841155 0.4379872371000667 1.934593629878505 -0.6572018228742392 -0.1764998236881346 1.585116255350990 0.1244548003645171 0.1733784966200379 -0.5530464400427776 -0.6859734396423469 0.6551797741106731 -0.1833997394184339 1.227791812417810 1.761344603303591 1.374407585404994 -0.7949505036779412 -0.2857381547754042 3.160889708965979 -0.1118525965299371 -1.503931713753595 
-1.044395426699316 -0.4638704790023942 0.5829048775210194 -0.1412685655277509 1.240140818843108 -0.01965263649980108 1.116300615640252 0.8158682404074277 -0.3859460277134818 -0.6486934271208809 -0.5932896760139511 0.4937957203385154 -0.5664273743929636 -0.4784138609936920 0.2700302518220095 -1.256234387017751 -1.478244104501412 -1.118279754052436 0.2005904369823424 -0.8921468035860898 -0.05629153762913004 0.4620013568408799 -1.806796104548857 -0.02239673951918821 -0.4920115048123822 -0.4770711428397948 0.6874543851273679 -0.03567931356172538 
0.9952022157753220 0.7878925247891184 0.6142253607926085 0.1926912949665333 0.5004379929455398 1.424454708647896 1.079250830794193 1.153068341680117 0.4011433123347998 0.08425810189811217 -0.04624489811002437 0.09565037295160358 0.07248494194238480 0.3730172402743218 0.6219212859724144 2.160493645468546 1.030459239771314 -0.8201539967248211 -1.696218328536045 0.2826752003405756 0.9385530319668145 -0.9660602162237071 -0.3776196742690768 0.3632338227293350 0.0003312877566953292 0.9263315030125965 3.020131917058832 1.706075129995821 
0.2608362455054141 0.2693815721134659 -1.615662398366869 0.1380949831802997 -1.014028797394429 0.03364952281268363 -0.8006677254523383 0.8611361725926406 -1.738937614081937 0.2267462958513323 0.7160619123316705 -1.098556247046985 0.1222825423873698 2.157987797000594 -0.6009165037175512 1.216510288757484 -0.4980987555766622 -0.3436389984958352 0.6493507042112785 0.8655298685215495 -0.9540854370821740 -1.196422851780607 0.6490720398425276 0.08631346620632727 -0.1645194380849002 0.9373642154760918 0.5266204280636223 -1.686097507374473 
-0.4271966364974571 0.3118810643423369 -0.2137273935522090 -1.417671166288608 -1.156706711050044 0.2105402394869364 1.230592401522413 -1.015046420734466 0.5717144013484312 -1.490865723003106 0.04005663060201661 -0.9844650132830317 2.148384572456822 0.8727892255903770 -2.207756907777001 -1.546311367851128 -1.068317690626949 0.6376903542516249 1.081392420737825 1.362733591148509 0.1957481440949478 -0.4775890047217863 0.1592981399113283 -0.2513731958208502 0.5176050173478107 -2.024913112837246 -0.6572666002410944 -1.388143423080986 
0.03633962947973397 0.5771631769841348 0.4670726534593013 -0.2298342399959511 -1.558290855322535 -0.7050513198920422 -1.493883776050066 -0.9529653325961435 -0.8750085472059794 -0.4090019239310442 -0.4951892833048621 -0.006365298874152020 0.2079473489980548 -0.2937643144567251 -2.399742620900069 0.2777616074063900 0.7195163249812968 1.282636373477819 1.828381050616112 -2.574129666403290 0.1341494239039564 -1.167213432828801 -0.04813974405348073 0.1710066147166805 0.1255764525601432 -0.2699819598077042 -0.4736850207036688 -1.216566006670793 
-1.731211407086894 -0.5296671643130834 0.2753784827468535 -2.581584263050968 0.5383462460787728 -1.618355706948909 -1.124818186661613 -0.9997618269133610 -0.2130915570643122 -0.3599302262929341 -0.6086295698318739 1.147474420652606 0.6432940163942946 -0.1328579082606502 -0.3314540182006089 1.544851045505586 0.1112105224927080 -0.8198088253531304 0.8279333233484942 1.429948216600356 0.2758025342004575 0.6050594758281911 0.1309736885738977 0.1234398196824871 -0.1620490945837887 -1.067750599201825 0.6129206031733078 -0.8046304449350599 
-0.8279007713810970 -1.051541127756788 1.123703737224156 0.1956872649628058 -0.5615327227908600 -3.147312280938890 -0.2455642929322706 -1.206301602179720 -0.6654123859003298 -1.042608754180693 -1.263302636340142 -1.102122720295380 -0.9718192694005421 -1.412740797447859 1.348807198866505 -0.6026902276539815 -0.3820501380564295 -0.6463983695728090 0.02562373586388528 -1.244657115380266 -0.4409452009577319 -1.027484759326075 -1.163015701880087 -1.064643965584037 -0.8433459004263046 0.2447721784190523 -0.8443200433466074 -1.226009369918964 
-0.5575216710579967 -0.4434069221971596 -2.194410234949134 -2.025521011497571 -0.3262411043800840 -0.8322602036179044 0.3542447374380134 -0.2216559098465764 0.7399921378542529 -0.1637181340246758 -0.2527814494977648 0.4489595933606264 0.04374795329616361 -0.5299805479554944 0.5660064955684728 0.9617380587933362 1.269663691913845 -0.3270843399318886 0.7277530950998425 2.466060044438765 1.089475945800853 -0.7452213364511446 -0.5106057447279256 0.2896017854356893 -0.08343521133275449 0.9992875085614114 -0.4330707764569610 -0.9107216430672543 
-1.248068433851956 -0.3770638663363351 -2.057669427707464 -0.7913641573213894 -0.5048351878410751 0.1800403030242745 -0.8077290448442229 -0.4377736796822462 0.2315236365296691 -0.2988874554965428 -0.8670984593041418 -1.190434112563650 0.02114426319284368 0.8944724452757291 0.5274541906177954 -0.2993371521151420 -0.8891762937011328 -1.635558116893056 -0.5118403493104328 -1.016987434892174 -2.438482782802284 -0.9773602610335936 -0.5384150422439241 0.4002326332515848 0.1528199927832338 -2.051261066659141 -0.5941558543725526 0.4154418284581091 
-0.4866265183630559 0.6680400894750128 0.1006049211692913 -0.3638573487341157 -0.7193775576022392 -1.199056535036448 -0.4139533015298119 1.826736399490873 -0.3521797304444353 2.234601610676282 0.2684769868858190 -0.4010238050103501 -0.2134092361733896 -0.6697352949439440 -1.327451786137093 -0.3594413147022551 0.5109779993668697 -0.8475957205526579 -2.920899665277204 0.1064364208961559 -1.383844004054273 -1.116916688749619 0.9793829042354270 -0.02937068135338201 0.6985370537193967 -1.468401766527625 0.4100281936310239 -1.134771198266635 
0.3640181707535417 -0.1020332417781191 -0.2511329717185704 -1.158155662140229 0.007469064111783485 0.5599328971452876 0.1997541860824721 0.8810910510153040 -0.9717040798539054 1.287266045209180 -0.6253179987167106 0.1999494195305765 -0.1511778643392865 1.310774502683989 -1.033367501972898 0.9888909918734541 -1.287368706011815 0.1809787304258512 -1.048529827047243 -2.008881169720945 -1.183498018989909 -0.9381476925347241 -1.121820057610044 0.4261241160019780 -0.3321792854299598 0.06262417546761417 0.001372366586680704 -1.424374307563618 
-1.281257235199659 0.6645273013731592 -1.832177580537769 0.9336820385892001 -0.6178306458438460 -0.9612610024946283 -0.9793193457734685 1.543719078484125 -0.3681124149272056 -0.4779773963873452 -0.8123564329368881 -0.3963897786906119 0.9735463048654475 -2.138042895911142 -0.5865968375182042 1.189123160716846 -1.009866194757156 0.4501625033375583 0.9807240832327875 -1.372924300291360 -0.8058161007145773 -1.143467487485510 -0.6020836547767023 -0.3878703973161765 0.6094601728830730 -0.3349046375023362 -0.3391624041245337 -0.8377558387496002 
0.6181130950984502 0.3701735051473865 -0.9434632767952410 -0.8582409976198984 -0.6697238011901848 -0.6703813098226958 -0.6223134737407590 -0.9879466454916730 -0.2103894296757776 0.7730597386883600 0.8010750086487086 0.3941365429742564 -0.6693368488696517 1.664471628496393 -1.790906146191595 -0.8395572269032845 0.04225697300035217 0.9453198163001709 -2.128587884871883 -1.666431808446395 0.007093383149798418 -0.3923718408686099 -0.3920577027487263 1.028451546060536 0.4520860722371162 1.653793753592467 0.2743227004298608 0.8128916876889495 
-0.08918637623209266 0.5490849613923339 0.1303894532108315 0.06008456127463072 0.3027704162233018 -0.4062605467955492 -0.1470015078658191 0.1188599198534828 0.5409592104131351 -1.017292474031153 0.1663192328127396 1.048860430876674 -0.1339134334898928 -1.131911590662725 0.05700853967098511 -0.3587823914848365 -0.7226872203357166 -0.5033804283601108 0.3214287375634387 0.2918104824142134 1.600856126982827 -1.357530121064920 0.8714525711618194 -0.09491285758886789 -0.3159579864465206 4.960332446902503 0.8027383768402817 -2.322117744899575 
-1.210415737087334 0.07137010200810173 0.9419550019464954 0.1765670395651603 -0.4921979797272348 0.1861956887923034 0.1671019850694071 1.388901267785313 0.1399111875688354 1.297861474095775 -0.2038092935646894 -0.3775767537870190 -0.1699187181923173 0.08075566333673297 0.008218181193282492 -0.6313775265103967 0.5111445600422388 -1.690091509275100 -0.6377621523729049 0.8885098313808243 0.2791957911544338 -0.3211652861092768 -0.05585301596380315 -1.416109664706266 -0.8806094481172861 1.396929008798122 -2.406618242671274 1.246025991559129 
1.130184788406989 -1.519797175876367 -1.297619543878644 0.06403524497112496 -0.7889730913282438 -0.9741429334295302 -1.268752878324587 0.4245197206086314 -0.07106162822710460 -1.163915967327223 -1.401584995374558 2.016126351243995 0.5617501992525420 0.7098487384091697 -0.9066562263537257 0.7389675111623523 1.103718767433646 0.8518771361535596 1.183385881591062 -0.8507378095163165 2.028499526267714 -1.909101705470170 -1.076273029718509 1.031601594213627 -0.04780396000924539 1.433320205182248 0.5293860977084531 0.1021955412528102 
0.6440376410914155 -0.07291770029901194 1.427558904378358 -0.1563208726799689 -1.316502465273910 -0.6399692042011653 1.008882536884699 2.386942358053014 1.578986165558264 -1.547762710854409 -0.5265713486506293 -0.2165413571749933 -0.3536983622675805 -0.9656094190753763 -1.329345772265330 -1.709537503340737 -0.8486617432379902 -1.462319275731006 -1.247569803328229 1.319217904793332 2.906467219310494 -0.9213894278299359 -1.331164587800447 0.7260366759919510 0.6817449291242891 -1.457047393007668 -0.4292839389458963 -0.6497804808301098 
-1.128123327676797 0.1681868972772981 0.6775108243725603 0.7144297260312478 0.7858400058699445 -1.961803030492576 -0.1588710981901761 -0.8308219269445556 0.009681331535832380 -1.522971586317806 -0.3396224087518983 -0.03718408401601192 -1.925151886789846 0.5484020837848981 -1.213205117563420 0.08100118325423064 0.5216164655434268 -0.3736210264415205 -2.788791420820188 -1.502167442613523 -0.2011975904465216 -0.04057462412289482 -0.09922008612049263 -0.1116064157363235 0.03706896533684438 0.2321722343032550 -0.4828624393291436 0.2519481154409317 
0.2887708631017192 0.1490584851063905 -0.8031794982886145 0.6981791451287763 -1.026236906310325 0.01976959495839661 0.08889245728555759 -0.3089774965027830 0.07156731345104665 0.4530032820953840 -1.091089806723648 -0.4008954788792157 -0.2102701843671388 1.148943801506575 0.3797833949369461 -0.04209305425763907 1.138439214486230 -0.06293089953418554 2.246564824600306 -2.931263788948265 1.520475012943568 0.5566272944517690 -0.3596556978641373 0.5598710525265429 1.109610624146015 1.624717903076907 1.444680959264615 -0.1048071189337639 
2.647009472042286 -0.7003264328477988 0.6353400329931881 -0.4580008358138452 -0.7992804402469000 -0.7748368079188074 1.978579366162165 -1.756476157545531 0.4096376952241902 -1.011008886058704 -1.433812484560537 0.1338027966716788 0.6166426910099287 0.1237080454796244 0.6063620180330918 0.2318996812387416 0.4837876148023633 -0.4425044481815751 -0.6312334129183206 1.836362725654723 -0.8952334379928044 1.199706321665601 -0.3456735562486634 0.4615685088203244 -1.042844544458636 -0.05480152859812845 -0.4941601149334927 1.750126534407192 
-0.3522868815787034 0.07545152585696970 0.9313541204350582 -0.8850259197111917 -0.7252794809795222 0.2278219841815219 0.7918790373935508 2.186867691673329 -0.2461826568296218 -1.388873171662294 0.4838201943641550 0.6843620582491790 -0.05642647618704266 1.424379634234378 -1.872471894044167 -0.2151922733423912 -0.6092539614832487 0.6763442155317099 -1.286065538096973 0.6881575067530113 -0.2748172514355377 0.8878877895990442 -1.006419844499441 1.605620599864213 1.220414962449130 -1.350733033964248 0.6878163883927845 -0.5561239405669725 
1.407379283069428 1.649287502362282 2.387049693168716 1.529020754551491 0.3143846336806890 0.1522265022402388 0.1495115407600027 -2.515135218358473 0.6166495265181937 1.341390391225306 1.008996835508444 -0.2568222145204832 2.956701715004313 0.4897096217587550 1.227074776893495 1.543876890569038 -0.4614728697428907 0.5770167770795751 1.959672344272410 0.3643032990508885 -0.2860863751805484 0.6859682168917720 0.8508954808111753 1.188787570656552 0.9938811132507267 -1.445319306650310 -0.3270241696756154 0.8057938367565016 
-0.07704759007291330 1.853912195069399 -2.734884988711678 2.347828083401697 0.05543143171795114 -0.3348894346255951 1.279485193734484 1.044746670238234 -0.1833901193038426 -0.3820882804845686 -0.2322300739404730 0.1589298597036269 0.1509747115042663 -1.451597038862960 -0.04331575915815598 0.6432180970571832 0.5071707498722469 1.271385770505454 -0.2372092822462207 -0.5109884115218569 2.363448699911376 -0.8020966024694892 0.8730368317218502 -0.1911895239984238 0.9030176985691173 0.1630868524431593 0.02170754844786058 -0.04503152331035121 
1.248798496518976 0.5239735391816718 1.625246643927064 0.4830311088702063 0.9512917393006589 -0.5327459517794715 0.8266791535141687 -0.4742709612771325 0.3025252011309524 0.4531823620545982 0.1585251838785841 1.899487803058043 1.029537598430982 1.230206181316590 0.9793722465175894 0.8822940172543716 0.8222728000323798 0.01579286381132752 3.276321515134013 1.073255938039394 1.554833421484265 -0.6794777475127246 0.8826898769528929 1.335895318334225 0.5967573335037156 -0.7538699522260730 2.004316373883041 -0.4790651072777579 
0.7057954643863960 -1.387530822144250 0.6472564720293319 -1.725571716667307 -0.9917390312084904 1.152122462437517 0.3403033868761439 -1.069381791085055 0.8952605799928043 2.374650700822035 -0.7530411903683277 0.2750425573825417 0.4985923695329839 -0.8189072466595920 0.04753237294655144 0.4829886864366268 0.3618893082246999 0.4325835944274288 -0.3597393418315052 0.9778244552667502 0.5358857145767828 -1.337714980865696 0.6865056304879104 -0.7819032680893029 -0.04877118394932156 3.252645214707827 0.01258459726954189 1.472952126851980 
0.5473214536872241 0.7043873824186893 2.134133050712519 -0.4945349250175868 0.6891933310538736 0.1644957211481717 -1.055227449721651 0.5953034952264551 -1.341782779689217 0.4630172385767931 1.142956932255704 -0.3601435472817549 0.6616824064020100 -1.150766409134574 -1.496833866387885 1.082675725428823 -0.7903387664206680 0.5383524070284011 0.6710179427658659 0.4110951958106334 -1.303623273140511 -0.1087673610345126 -0.3025071777119510 -0.5916559385149005 -0.07993834088702807 1.290037438775511 0.2017846712888052 -1.432054882957339 
-0.8741164584398204 0.8957618030931417 0.4202152301775306 1.546805464269425 1.313249230512333 1.186207627034576 0.6644953417887638 0.6032996576160368 1.438310779993016 1.434788240711211 1.870941106416905 0.9743993894202002 -1.246399173220035 -0.8784127659568488 1.108164698033805 1.100277025343116 0.4083650740348341 0.3063114355740587 1.223426196913271 2.542046892753069 -0.3514609960386285 -0.8998254641497089 0.6536238192239431 1.366593619006964 0.3416669265893226 0.5077313016837314 2.886093837164682 3.285212418799342 
-0.7016597105004189 1.077107862675900 0.3113451098338056 1.272880882456185 0.2689886483360928 -0.1111588207699304 0.3613245177038187 1.825349725595591 0.1297242743482488 1.171380849115305 1.041114683380946 -0.1957657185059628 0.9510858609148236 0.2731001548861184 -0.1495060625603872 -0.4479913958612613 1.519941035238423 -0.4588996958320878 1.139281138279665 -2.896790644968134 1.531691413233506 -0.9033545979047675 1.181107996212907 0.1570437611939536 0.4446337947718927 -1.033922929187266 2.033507188926195 0.2310743938918897 
0.3809608173328423 0.6489569859079368 -0.2842918613041759 1.565740153457288 0.4516185428449273 0.2704918305204814 -0.7330461764854004 0.04993409875885246 0.5596219618116540 -1.528676835998367 -0.2138964243147526 1.035243234593739 -0.2068330918411964 0.7871255966738799 1.302221429245829 -1.148489544528149 0.08424404081455820 -0.9101541815238658 0.8809728848047136 1.671911572428076 -0.1699952431011046 -0.9369842435626833 0.4601538839793561 -0.03897171321355653 0.4688268503991165 1.081688775578247 -0.07205116104831538 -0.6897763601585125 
-1.101478868837505 -0.4314086624669332 0.8933991239573148 -1.629886511749232 0.1192365376332499 -0.7707495048231578 -0.5587570794313770 1.855869800816510 0.1583604107274020 -0.7255275751134922 0.1780191453916948 -1.485123040101900 1.321862585170273 -0.3660757166505060 1.488440115053211 0.6500647097174604 1.058143304586696 0.8800988344219616 -0.9832184919549135 -3.262621392451823 -0.5844527061492697 0.8364273753073457 0.4908587316034627 -0.2757701916660821 -0.2415203584494209 -0.3883466495718806 -0.7264215789417630 0.1098121897830969 
0.1959547034948037 -0.2743283748956203 1.605047308083880 0.05894690785911020 -0.1395514388842769 0.2052159908950741 -0.5028489322924947 0.4462108086617052 -0.1010420759389346 -0.4931154861094234 -0.8859228369378930 1.000572643468233 0.6827418392857454 0.4541487141090125 -0.8471684519582890 1.431881297586069 0.8014341595305464 0.2150541680836660 -0.06386195558779567 1.643124419763718 1.318618520617515 0.1560482093709015 -0.3052294577685920 0.1571481125767840 -0.3788207744169192 -0.9493171250457928 0.2603310897201295 -0.7790951249793265 
-2.390069228786460 -0.1732699448335125 -1.498015713078688 0.6280742651412388 0.1722725615096218 0.2060484787065165 1.200216780525599 -0.9546607901197110 -0.5790781500211694 -0.6089685921776280 -0.9266493373724660 0.1848508730791727 0.9116736226165469 -0.3079818910001295 0.1958945090145166 0.9854600749010298 -0.7517778286328124 3.401533451193698 0.3900087860032840 0.2172149843469592 0.9147476837026125 -0.07119359354787451 0.6327315793624748 -0.2509049872146544 1.401180256077792 0.06220945555436264 -0.3954175816383745 1.306536533964852 
0.8651899050922327 -1.086999536595814 -0.5830619085335519 1.330942145781184 -0.07776721378854498 -0.6561768709205462 0.7151295822662296 -0.2363513825078802 -0.7290115724548181 0.3451454309501121 -0.8986286059051950 0.3648923951697995 0.9860639406378574 0.8707767116544676 -0.5904520799764897 0.3294792673164962 0.6663560160851260 0.9541044789242469 -1.721560822644430 0.8918397164923664 0.06412572559542923 0.2852760414115272 -0.8351011517711954 0.2290839713686194 1.299007002738492 1.449945099466125 -1.704368709684277 -0.7565090295615820 
-1.736392595649386 -0.8100190417582771 -0.8919464053651499 -0.1041999662445679 -1.055727722961683 -1.197448726408311 -0.8854068291869492 1.289142392041424 -0.2573710280800763 0.04523876590210320 -0.1314121299840510 0.5754319084517641 0.7710036838164294 2.216669057025847 -1.238574262803002 0.4239584744678248 -1.347675598027686 0.1145341845529411 0.2103313533963173 -0.1532857527037095 0.3993118248574684 -0.6995640495330522 0.7008322252288604 0.5100793625054826 0.1170704525445483 -1.086271514572113 -0.6883836184823672 1.616684718958973 
-1.704730552537343 -0.2358777988487036 -1.606040246531194 1.180229018880492 -1.029148575568445 -1.221860745883965 -1.293026150850266 -3.379616808731191 -1.717804175417583 -1.176855283772273 -1.553067938220298 -0.9966165011860192 -1.725488668096603 1.141599468327449 -1.329417272046004 1.210147596923028 0.3162385617864895 -2.900090249444527 0.4721152284019252 -0.2133116343399198 -1.211098744166002 -0.0002544414702350534 -0.3877790687932491 -0.4126850810961866 0.7971702280536962 0.6519517344061847 -1.356001481385908 -1.961753708824244 
-0.2357473489939722 -0.1353819332540143 0.5997505187710861 0.3559370151145604 0.4184735944288574 0.2062725380212915 -0.01856438894474091 -0.3866932169006566 0.2646440652610584 0.1983056813410326 1.888433726962703 -0.1412721943984456 -0.2562572294572675 -1.505697435435147 1.248919124627386 0.3489327085496430 -0.7566700210503131 1.010694071007077 1.625359253831511 -0.9393118230512666 -0.8395942309534103 0.1182857797810287 -0.6931650433255587 0.4767471459577891 -0.3709833936215403 -1.344972555701213 -1.049806752419756 1.058679650273282 
0.2738405324771488 1.340157869611726 1.186970435610698 0.1763845576118288 1.255000326193315 0.2385170033614792 0.4685307759110032 0.8895285531253523 0.2058390913871404 0.7523340499454958 0.8188342381146498 -0.2985054806308805 0.2612228942568023 -0.02259095289075629 -0.7528535380697131 -0.8738849598070675 -0.6163155659592940 -0.1246746166539378 -0.3533643781431363 -0.01505494870494442 0.6494490988701862 -0.3551058706648813 1.113764180709275 0.6368775940990958 0.1760452127352830 0.6791942005827027 -0.7265296317015761 1.923435400627475 
-0.9699694143419877 -0.6962902174056627 0.1877859157682710 1.056306851500688 -0.4814522306161283 0.8240675089095493 0.7230991596114985 1.095463807037925 -0.3413331932773114 0.7244033607571565 0.3615683893673858 -0.1026910709239268 -1.967811509599824 0.3400257112055116 0.3390486559006679 0.5470834426834220 0.9210899016102404 -1.319173928613724 -0.02103763177966395 -0.3208576746948672 -0.8695196964370592 -1.286492450718898 -0.5131835789233772 -0.5691855867911058 -0.4909489868745349 0.1711308470899438 -1.537433951486699 2.224293091321130 
-0.5597458970665625 0.0007620034394461295 0.4243806676260131 -0.3334043656791634 -2.068625476203309 -0.2842602507008286 -0.9207295038760992 1.512517111226421 -0.6042713402525115 0.9956737156550464 0.6317569568129980 1.334588563794044 -0.8295324000864555 1.811086964274656 -0.5392901285771223 1.175914267217523 2.354530261196615 -1.785349123287613 -0.1083985812488623 0.06089206609480639 0.8803284525462773 0.08185273150921094 0.1139772880889734 0.6880638506641366 -1.001518173752260 0.3529385300314876 0.4644959834598658 -0.8617852795777232 
0.9822742900191761 -0.5865503747103582 0.9636757928855264 -0.5146675690873962 -0.1993710357333219 1.275496650062928 -1.225675938798301 2.118483231033530 0.5361711678888165 -0.9776856369835818 0.9890994121897400 0.4617402495780298 -0.1211474994689373 -0.3687880996666026 1.626061027913722 0.02045376501172522 -1.579769179799075 0.07887451793363043 -0.1352581075328085 0.03446854622244362 -1.092026671167763 -0.6800551995878148 0.7770175578296354 0.4631575202602616 1.730145068272493 0.5478794553020590 -0.5766586693487896 0.2536476027244108 
