solver_type L2R_LR
nr_class 33
label 0 1 2 3 4 5 6 7 8 9 10 11 12 13 14 15 16 17 18 19 20 21 22 23 24 25 26 27 28 29 30 31 32
nr_feature 564
bias 0.000000000000000
w
-1.007148178869092 1.286649084897468 0.2120646629746773 0.02050820249639004 -0.2106497984721777 -0.01875353570994034 0.7638289419679213 -0.7818920740340070 -1.246303507215969 -0.1666483093739342 -0.5740924539464124 0.1339184288180125 1.604499380408504 1.662133937823765 1.108519098434542 0.4340041226201307 1.813454382800876 0.2012931243654153 0.6504978318154583 0.3693560000540469 1.458646073702918 0.4177339072965419 0.2271413858436056 -0.6833229813972480 -0.2356300214264953 1.033238583723720 0.7639468915602499 -0.1477107276661958 -2.538522701218064 0.9082907136893210 -0.9932776179449526 -0.2657284604990526 0.9599562187517473 
-0.01290607318613534 -1.243128887411187 0.4963465455106869 1.055399148703616 0.9691652753392901 0.4589322484672387 -0.9775754718615527 1.221012522256993 1.250052964691334 0.3556150538698344 0.6255328485933142 0.4875532300914144 0.9005606240143441 0.4108060116966992 -0.1428068887302849 -0.5494139692307967 -0.6903211393973256 0.07951758766119600 -0.009931691862759003 1.812439595314646 -0.08253897861540370 0.02359205601630299 0.9942426198609090 0.4282164190887594 0.07317455712927456 0.2961743147270507 -0.4801821604309802 0.1504863417099888 1.385265834925566 -0.6172474804077672 0.3249352942146273 0.6703166773649695 -1.453457468299881 
0.4603815941375870 0.02179413974464475 -0.3642538023495698 0.08644292069419979 -1.173814455840804 0.9578737361079850 -1.083077148022907 1.257491130258916 2.407458310239217 -0.2464227936540451 -0.2197272213478212 -0.1209446496718868 -0.9008773535833795 -0.2104143194872677 -0.04462016805343963 -0.1034451666798335 -0.7634025707251670 0.1584687633610033 0.4816435030719635 -1.413142259267021 -0.9189140741471661 0.5967619675997248 -1.333157083459282 -3.063281097389511 0.2969166238561600 -0.01281338660401630 0.2015143993644598 -0.6111360934597444 -1.133795339617125 0.3430816834566608 -0.4326937663042672 0.4056867061158507 0.2702470412614682 
0.5026584029716177 1.037031169142570 -1.538732856895872 -1.425249472744722 0.8539033950519932 -1.890004468074822 0.4923148212685763 -0.2248320029118538 -1.169260063537792 -0.3321957322958281 0.3781674772398920 -0.1629545301993425 -0.01338560945199634 0.9745737375929212 0.7009650541972187 1.075099458768697 0.6860474866504100 0.4623083783324474 -0.4214683150522283 -0.3814028536783876 0.2706841862226793 -0.5344153368924665 0.09413706195967177 1.158247904356390 -0.5600050717032062 -1.010682376927366 0.6445357811675038 -0.04821592601539049 -0.7058372500522831 -0.7244990648167999 1.197010851063685 0.2765570392848145 -0.5210156576543800 
0.2704183681468294 -1.830985895074478 -0.9621667206449909 1.434167559647600 1.391167104488397 -0.5708739253035101 1.185560890523906 -0.8077538312004569 1.564543052176397 -0.2555553821226324 -0.1102997823178195 1.124929139717358 0.1888875338711358 0.03905002051152194 -0.1581410354714869 -0.3110221198997334 0.4405904378345940 0.9777383269301352 -1.347151106410588 -0.5254229791904859 -0.8943290087288690 0.2134324423969148 1.804601181548378 -1.117060657283739 -0.3250682597511760 -0.3627521801625502 1.757606364968847 -0.7159405830623959 -0.4451330812458165 -0.2593466514942884 0.6938258064910952 0.06030484782618387 -0.4734867871645332 
-0.1433544656258551 1.210445423502603 -0.6841612523993316 -0.8117824223572151 -0.3034506733841574 -0.7325223549134334 -0.5938704438480008 -2.774597823578335 -0.8912717280015867 1.204277657485536 0.2919477747959120 -0.2676881455992926 0.5938254736437146 -0.9069833585011348 -0.7419261879314674 0.06257846425550725 2.131474863623003 -0.4233314478071725 -0.1197642250894793 0.5794557756151594 -0.1946178386721138 1.074599562754217 -0.2004869749014692 1.095672184518711 0.8120004214292232 -0.5205643114309153 1.080552565178343 0.2286749345984356 -0.7484356253070629 -0.5112316840170634 -0.5807126281866168 -1.511219042030780 -0.6338565376787112 
0.9215578000241968 -1.344174967113066 0.7688802727120312 0.5981067214031646 -0.8016289742586150 0.8708000605576435 1.055988290453704 1.212345725171851 0.7985275966346674 0.7633562199397216 0.4009213915495131 0.3934853876670820 -0.7224056104796975 0.6006069427582390 -0.5177786320436683 0.4777133066505550 1.590134077259676 1.045254209372020 1.007127181209493 -0.8134235724363763 0.2357307468896237 0.4442633762833688 0.6976091897795891 -0.1683127049642379 0.8167048423825899 -0.1229486247844102 -0.4554413325317157 -0.08058763577298883 0.8409016700650538 0.6933942328972441 -0.2704176981269292 1.234190349869473 -0.1480543697348440 
0.1906479932573702 0.5932202685698867 0.03022087053426362 1.310331920406062 1.756016061028855 0.2831905450643119 0.4018294420970355 -1.741911659125826 0.07299350536890521 0.8502531978966089 0.5870825708296238 0.6881775471072384 -0.3352530788156524 -0.3278221254344002 -0.5163923512749254 1.045646763185093 -0.6435977558916199 -0.6933750726440444 -0.1582641855748496 -0.1926803941812826 1.160630234337851 -0.3654112981889655 0.4060193242505152 -1.164177922303826 0.7831452566077307 -0.5215794237530693 0.2500317163248089 0.7837966240819394 -0.4145733829720207 -0.3839192098864559 0.4285439924829890 -0.8703287833100043 1.447561776105785 
0.8309440317347917 0.8653994338847468 -0.2266969141294123 -0.5540219113373777 -0.7876323677510874 -1.082255857503037 -0.1201739925882845 0.03482611820297475 2.102856944470247 0.1914038296889328 0.2570994019857851 -0.6115579559075617 -0.9679529384042223 0.8257289889960373 -0.4193700391322153 0.6505264915215743 0.5312775383013003 0.4069594286668901 -0.8626831295449097 -0.2618833609608078 -0.08913389920276493 -0.03919502081654550 1.299627640915263 1.566990548581862 0.1157176688107748 -0.6848593602513336 1.115840262437403 -0.2060665278724478 0.4754693373697417 -0.3093419540262982 -0.6841672222252139 -1.045590684168280 -1.317469487593013 
0.3579133811962172 0.1796840789752862 -0.7783479681791287 1.068079500365554 -0.5698239507165732 -0.2319887408259003 -0.5891590931043227 0.3498996640646570 -2.058794836837977 0.2513090878036977 -0.1589111114591303 0.3165958411843454 0.7981829891107404 1.404993351085553 0.3506759882541838 0.6959362254365755 1.753919234841295 -1.052319061512234 -0.5343504667738251 0.6753560021651370 -0.4467912194541462 -0.2231882048076375 0.09185090812937595 -0.09554196359858744 0.2284935337385350 0.8827034730631795 -0.3889234460606672 1.048966742214155 0.1813308000309779 -0.2433885061133688 -0.3743288842850590 -0.2483661912434747 0.07840543078636240 
-0.3504494302145856 -0.7718517866012777 -0.4337099693239772 -1.160435396948081 -1.618363502490114 0.3239602973926140 -1.058276960253138 1.867931619419280 -1.659196322726364 -0.6249266349388621 0.1559446401302574 0.5507392874558042 -0.7815461530033110 -1.080336588623496 1.397507557994353 -0.001040684279484880 -0.01595184327417613 -0.02258643243060743 0.9482864408828412 0.7040743196470586 0.01243312133809580 1.048138619961285 0.5373987115195680 0.5922813463453324 -0.9607827471312835 0.07348823935760045 -0.4501428285948329 0.02048449353201094 -0.1008332407954381 0.02720754543855836 -0.1861540984153394 -1.047641666466383 0.05535695733804028 
-0.7481927812466502 -1.183443943141288 1.317196317980047 0.08852837444892044 0.3115490445476646 0.9607754823093336 -1.097328793502903 -0.1507377224131138 -1.592069675997016 -1.008166736192311 -0.2363401171063380 -0.7140362908073903 0.3129903303626973 0.01482664918731372 0.6598609625502337 -0.3061493315604285 0.6790889375666045 -0.5585478480294345 0.3547500917665469 1.621661049066621 0.1131158333451179 0.4961714591454496 0.4567216114787987 0.8939842104902901 -0.1257644983585518 -0.4065471061390811 1.462313648500524 -1.284212299237264 1.166655587980249 -0.04679754934113760 -0.1204666377085119 -2.185331366050165 -0.2062735035551712 
-0.5332268026102450 0.3443329680296666 -0.2131330109208068 -0.2797422200046093 1.643232695678546 0.8868390242775447 0.3169573883685953 -2.029524494353245 -0.2444566890041836 -0.3301862103971712 -0.6048701933641608 -0.1466863016065593 0.3408699604501135 0.5355131532385341 0.7881745184798892 0.04732010110114435 1.058122030522074 -0.8865354410607509 0.7741107641858358 -0.1270351566427133 0.9234796498612681 -0.5677797748571354 -1.026077883485820 -1.154599673274948 0.1792949250805188 -1.023628166636549 1.290905516612333 -0.9453292756882524 1.693411199736349 -0.6008260929081070 0.1212490842632281 -0.7075336629491227 2.839757951249298 
0.1144092697201923 -0.5018987481386937 -1.479806286291482 -1.129573355778747 0.2109138487505491 1.560949300210487 0.4045503545390089 -1.011775466782684 1.182417529241259 -0.04985950236898892 0.2420694176917236 0.7358944612624759 -1.791832508505344 -0.2802485091978325 0.5583419392381692 -0.2085293578815816 -1.238573854578692 -0.3016785040371214 -0.1431725629344404 1.915888581731367 -0.2169039357825000 -0.6798250927900843 -0.4877330722844990 -0.7289853185203381 0.5027040910265478 -0.1901243143775774 -0.4744677788892652 -0.1139108638297160 0.9299710885158321 -0.4002332636420934 -1.069112116847066 0.3902471703721458 0.3122209717896497 
-0.3170111886925506 0.7017778744410759 0.02285795070071879 -1.455388281320420 -0.8069851626144328 1.422885067560722 -0.5499824047594717 1.496005820601436 -1.027779434303554 -1.062508815821231 0.1493839425751037 -0.03569438382734368 -0.5678534478957030 0.4564403084542775 -0.9651377428359831 -0.6589504228442534 0.8184046142159243 0.1459499509152802 -0.3072807479668582 -0.2410895830801622 -0.9545459237317491 1.686315717781147 -0.1051023823214547 -0.3681449614828851 -0.4230165803152500 0.07664748598051233 -1.566379504605281 -0.3794846410874286 -1.063121918432264 0.3533213671139656 0.1320974908324542 0.4559858214433962 -0.04394728086289661 
0.2348094526320768 -0.01981830739632954 1.377300136980404 0.3990473680035307 -1.163537526550205 -0.8756161521186001 0.2848690082994301 -0.3427704883195368 0.3544833998404745 0.5783390450742846 0.3793413299515441 0.6462069954379072 0.2022580763463120 2.132670994651595 1.017437120522804 0.1018075327264668 -0.8670756424017418 0.8037141813871466 -0.07742701195967658 -0.6680416214900601 1.232696497844285 -0.8476913327595333 1.139923784285942 0.3350488654522495 0.5817827981214470 0.2051748676556025 0.3636856711958973 0.2567115637028725 -0.1795373789473403 0.9562554240413808 0.6146652782690496 0.2649299419537516 -1.037928119727296 
0.6499080511975568 -0.7838254101361093 -0.6077000554996805 -0.3422362210748112 -0.2935182426757134 -0.2013594812956792 0.1950248780729253 -0.5216472625553947 -0.6131273710318083 0.5121027670561225 0.4891094898818206 0.8707684159291263 -0.4352849189929622 -0.1200538190789795 -1.114395330908828 0.7744616463055601 2.158029254778042 0.2181076083012686 -0.4257078397362779 -1.106127312031227 1.692377582890515 0.6156129060407493 -0.6705270350562719 1.027641671531393 0.04680599673425893 0.9397162849196730 0.2624872368277041 0.2002809354338805 1.251236474878299 -0.5475665971173815 -2.099113587825646 -0.6664282798760928 -0.6762947561298064 
0.8217481574362541 -0.3124275152793601 -0.9664427508523790 0.9303900932318755 0.2671397555961748 0.4336570418785534 1.063263268522881 -0.06822165427207132 -1.548517835744363 0.1647918681625334 0.8806905985271459 0.05349481625156586 -0.1931759838939679 0.4926583918476034 1.849361526890717 0.7566140116831870 0.2463825416290581 -0.02159164360811705 -0.03124916460808695 -0.8617601740416205 1.132405687343268 1.536907822459621 0.2104230155020103 1.340760595069428 -0.4344971341844249 1.015569766671332 -0.8386297122942254 0.6997543058684345 0.8201459078217070 0.1806595190374428 -1.083636848931173 -0.2329027556199781 -0.6711315321831335 
0.2873434153017508 -1.695996559766574 1.347350449400363 -0.2584084383633446 1.621286581928578 0.1657917955537609 1.204340940830391 0.7334022972221592 1.973837606596517 -1.209311267548198 0.1602021684716209 0.1089061140488690 -0.2282432287054637 -0.9791409117929479 -0.2484757424766089 0.3142704314260785 0.6870615464909863 -0.1015990220685320 0.4853709190332630 -1.094203541903034 -0.2322542629798328 0.5577871358092551 1.488258208505514 0.1515602245690670 0.2511720272059040 0.04514536340579224 -1.140760330640593 0.8041630704073228 0.8036896695110538 0.3548429359073092 -0.6271677367594044 0.3644676525137876 -0.3334086200085438 
-0.2065375025035331 0.3352007104266526 0.7693044803393242 0.1894876786880285 -1.558955537446641 0.2945500770059957 -1.663963815171268 0.1218308609567556 0.3687827065480682 -0.01949135793221044 -0.3491622050889197 -0.2024480903853856 1.226329867194250 -0.1999530264669216 0.7977072955971186 0.3783958328194321 -0.2473756136869240 -0.001988761599909794 0.2398700061810896 -0.02211641376110640 -0.9782570876835607 0.002871530696169453 0.9893725160883411 -1.025253043518901 -0.3255421763298246 -0.9242060223442686 0.6822870930575163 -0.2596855055529371 0.2233200703621083 1.156680386023517 0.9624887700603370 -0.2244052968835894 0.5245843897819406 
-0.08248720898551577 -1.569219997943743 -0.7978422137065669 -1.551084665184387 -0.8205778409114697 0.7640110699209156 -0.05170568635909470 -0.7813598965609851 -0.8209069163316969 0.2764070169748462 0.4171527791003373 0.4612071661574154 0.8070573183329769 -1.560915585312179 0.6483294788045012 -0.07243741969767996 0.5658556487883379 0.8550570593959881 0.5103437195444608 -0.03146730121770495 -0.3081811738124967 0.2825245229618582 1.337393275536286 0.7433541319840461 -0.8076107614916195 -0.5618738306051175 -0.6516253534994523 -1.391245301105284 0.2226490932839362 -0.004580509016506695 0.4840462570623754 -0.5061854663079458 0.4372179426478466 
0.7925301952851065 -1.304985597220223 -0.3761833274287293 -0.5055816454936681 -0.2357885481333348 0.6329619273829680 -0.1800878130422057 0.7305335108599842 0.7062915712295446 0.7598463789980952 -0.05469441555068592 0.3363253174672837 0.2179299744171286 -0.3520216547446055 0.3212736423840487 0.6465760568784581 -1.060072049023735 0.9223191809473879 1.062206583999963 0.7269994636234349 1.595928059564641 -0.7448242452786120 0.7052400429938067 -0.5004377060917722 0.1373724659512047 0.5374303016217782 -0.4485143338333920 2.100429799269447 -0.02581732999469288 0.1975771605449383 -1.005892513453302 -0.05988523722762350 -0.6378074992365946 
0.08737816882343971 0.1197336002495186 0.3147943149725508 -0.9632713119637398 1.269813696972834 -1.201600632103927 -1.613366723465344 -0.5939499697693498 -1.815810858918153 0.1128229361774900 0.6371956884202915 -0.4438272755733949 -0.8067350431480508 -0.2227565197838548 -0.3374191787528165 -0.4162588169180211 0.8680758418381709 0.1204588096703021 -0.1328559472050144 -0.2344300621398794 -0.4362483801035893 -2.259940206057820 0.1597002252694880 0.3293295635185448 -0.1048481430228760 -0.5354428962824936 0.1539607827978901 -0.2543000984921451 0.7604200542372496 0.7354241563593996 -0.1259563106238619 -1.359293024930370 0.2815693615638214 
0.6914218130208470 2.113271434052102 0.4671499763907459 0.8218211150172162 0.2466037055205422 -0.06226458419209210 1.011492242329578 0.7635165276987921 1.702922892788282 0.1278899421940873 0.8598178437463960 1.131649009310814 0.6937458815568054 0.9343034814213881 1.001630836875412 0.3239204432093313 0.4836686360087792 0.4587208167909005 0.9706699773819293 -0.5905211302583393 0.1133353770910862 3.686107481186426 2.881925482974894 -0.5027441111684162 -0.2551042307891763 1.012692113985534 -0.3283528217354848 0.7492125388128623 -0.4524679283653437 -0.1020977491752540 1.415066165044348 0.5631568397982976 -0.4425265286034125 
1.181185368215297 0.3401719863244939 0.08707298457681570 2.466819458781449 -0.09042098282458666 -0.6859782835824516 0.4422380044009682 0.8036374061869509 0.3820023304497581 0.4016501277392894 0.4936792138747997 0.5867246901671714 0.03291974647670663 1.200761777597497 -0.3019745422832529 -0.3918899204086854 0.6862679821241318 -1.209045098755377 0.2372716375301236 0.4642728639305593 0.2785392661008709 0.3979601970614322 1.161773875429428 1.239985358130132 1.606173730133393 0.7284652442442097 0.4144113313973894 0.6516527408810282 0.7313863223186852 -0.1365797318165136 0.4987521419508905 0.1018855501990571 0.2907118625544138 
0.3903539224899437 -1.404812015446056 -0.1519470957021899 0.8375848096588860 -0.9938304830760297 0.3413071695123824 -0.05221872465939469 -0.9521407922128790 -0.8134832635591585 0.07206160220956301 0.3919807592661561 0.5700464097950670 1.012198440512572 0.7871776549744832 0.6996858896375735 1.891172599058519 -0.4000344064334255 0.5604975999905270 0.1756116438669202 0.1146135036733658 -0.2252796496327577 -0.5693287403844252 0.2001099288434424 0.6713548779324939 1.256713550548550 -0.1861874354137041 -1.181928443560453 -0.9473823336395416 0.7013293545729334 0.6857545512672727 -0.4415783037002753 -0.4413630144867808 1.359336331554464 
0.4693892095186545 1.079252940016008 -1.243008354385501 0.1457411538862944 -1.549142906604432 -1.634153984451782 1.656365274141539 -0.6606617937869939 0.8451381355195531 1.002305943924866 0.5189622388568083 0.6104328135779885 1.084351015344832 -0.9454695205142303 0.1918509083951353 0.4516628609539454 0.4229220863453967 -1.524068852172982 -0.6490021600071406 0.5500444886990219 0.4603264799952835 -0.2041071650887585 0.3339132261097664 -0.1666321418556853 0.8889783964745012 -0.1196303465477235 -1.176694280352442 0.3482535330800638 1.061248005324936 0.7575425138447835 0.2625218763533823 -0.5191441918266022 0.6603336102045930 
-0.8561823061811572 0.007126132439635946 1.212353904576474 -2.362972312792495 -1.554093089776181 1.809648861763713 -0.3599103100120839 2.210880903332802 0.8879612136646932 0.6604985283879877 0.4087253493210691 -0.2143188241405337 -0.4228682061607869 -1.655217839660022 -0.4187089957361409 -0.4448787911465200 0.5589576978335412 -0.1542811831798791 -1.235732486339813 -0.6294171554277904 -1.998691027302472 -0.6533019889217985 -0.6241766323867189 -0.7077294282464913 0.01459710903905381 -0.1324551717441886 -2.385509168588610 0.1400255365025623 -0.9039297121440430 0.5054405412918476 0.2621552098392001 0.6164148737656185 -0.9868135604118674 
-1.095777965571254 -0.1496834349929374 -0.5186320363085802 0.3611536251096175 -0.3690701734034005 0.04434088842935938 -0.7624116243995454 -0.5964327612419676 0.6765695759790589 -0.5587389539147994 0.7786931518645854 0.3575100210932074 -0.7861578681979701 -0.1061715438618457 1.019660612157563 -0.3470836221799130 -0.05818327529089507 0.6696053571328798 -0.2743736417459428 0.1759869673320023 0.08226223140381667 0.6758842367214047 1.726882604544109 -0.2095725399485280 0.1642612587188224 0.3564065175721856 -0.9899872166902585 -0.1075673328950625 1.175871856414528 -0.001812146824792943 -0.4333048458686175 1.043215703112934 -0.9749424694032209 
0.5939207949889570 -0.7004495723601692 0.6569260140778774 -0.1166487920708304 -1.095298068559011 1.765435887496424 -0.1629398937856327 0.05497874210380554 1.290917260200724 -0.1745877622218999 -0.1596222235870866 0.6715798717916095 0.5768584455967268 0.4514571335022254 -2.111448151918629 -0.1091451911979615 -0.5230254444577543 0.6293669899454876 0.4521686506839291 0.3200323247019764 0.3714468147344289 -0.3752291228978356 0.7856586805711960 0.05119698724007804 0.3861944221693499 0.2007074271010447 -0.4165613562129592 0.4107658098356848 0.3077788752134203 -0.3903253622469309 0.6142788309469552 0.1142151704245759 0.7696431698407739 
-0.1679088934240731 1.549773680474374 0.5137018009812806 0.1694458916714608 0.8296552661854083 -0.1772525064114232 0.3480982580883282 -2.130067056337537 -1.565901515075070 0.4014957839653905 -0.4679956390807158 0.1521241529939600 0.1428484101777393 0.5686889092088844 0.4995708680425793 -0.2967788612250349 -0.2230532325295569 -0.5465812396005807 -0.1217830910997321 -0.8048657315961967 -0.6423894384208252 -0.4172776458930463 -0.7891497575222092 0.05519487086884287 0.3977029598892218 0.4789224805382853 3.166900831476712 1.084377733568156 1.592973035539139 -0.4386072094610550 0.03214406634981712 1.595789471298239 0.09764070349245967 
-1.346742537567626 -1.003245844637345 -1.973282723616983 -0.4764143820738583 2.341896028375327 -1.059448441678438 0.007291671273761052 0.3522276798422258 -0.8967143223211784 -0.02982927449316497 0.2325480822026338 0.2395181797365262 0.4388822392424202 0.8088215991091966 -1.687289446191412 -0.05564493909849266 1.128625906196827 0.2684807800989729 -0.9110623724314311 -0.003838186304364499 -0.9658566514973450 -0.06215777705897485 0.4950313764639802 -0.4383590351648091 -0.6128677779319528 -1.269018781098467 1.917121883425057 -0.6982648664773223 -0.9832940775275353 0.8065702564949427 0.4979777534126584 -1.087810850159663 0.5799009134331585 
-0.08092462191052782 1.835087835049631 -0.3078537482489970 0.1468573919733007 -0.7891879579865794 1.012209418591194 -0.7120043647923946 1.366646937059113 -0.3078700241176964 -1.298482443224226 -0.7171186147682848 0.6283567913476431 -0.4172601426116063 -1.307797573334060 -0.8511190358305466 0.4926231482776228 2.607026520933311 -0.1866504995821041 -0.7502997733353293 -0.5483470205088748 -0.1121779240768600 -2.442615478293521 0.8886399941461995 1.238934613239429 -0.3589379673857690 -1.431875431426377 0.3098966980667438 1.057839899480436 0.08430515316938039 -1.124853886171254 -0.7137069970465262 0.03292864200892751 0.01694945906392800 
0.2685773541109766 -0.1774826270965761 0.6280850188817702 -0.2037664225313643 -0.8634813125436650 2.486490581942742 0.7557054335212813 1.027715720693049 0.3887153486654072 -0.3842961691207433 0.7551591434951278 0.8415142470885065 -0.1170725288650362 1.037164659298882 -0.1085077936745751 1.282666460890154 -0.3546524196862705 -1.226014619018757 -0.8824231121332451 1.008973887923848 0.6857847286333163 1.942300675408169 1.022512244430751 -0.2112615401823184 0.1010056944431318 0.09233885655989019 0.2652981750324052 2.337175602873324 1.363004701933178 -1.011040569388972 -0.3947043714266815 0.8164612494596020 -2.157207913979091 
0.1376725342241281 -2.841310118595513 -1.224596798397005 1.251955125300995 -1.621768179996749 0.1731814494009909 0.6257043229242947 -1.287681266484592 -1.746883541326944 -0.08449081569031547 0.1360104308989189 -0.06616285932931439 0.7810712670310821 0.1093541555103577 0.4045948656092522 0.06457149615889571 3.871879732973954 -1.487643833837268 -0.6685510114525859 1.135651434132044 -0.6306937866372379 1.958281603814952 -1.639655362545471 -1.831694580405335 1.890284444508066 -0.1751536435205926 0.5760606092089298 -0.2458975693886280 0.7002616073797880 0.2986923658803334 -0.9538171994465360 -2.452608465910520 1.609324886928475 
-0.5810895983979082 -0.07636638085698799 0.01522073329722297 -0.1434137674011746 -0.1598270371274890 0.5555478343428232 0.4701805156661862 -1.804092775641856 -2.059179373287885 0.5550604173045022 -0.1083293346690424 -0.5126384273969380 -0.5767297334001847 0.9874941126047393 -0.3637953373254541 -0.6100074985289733 1.231187872780763 -0.2204048873921414 -0.4583606820557468 -0.2618095146411053 -1.306805260653538 1.015966508871990 -0.8676786483664534 -2.579725793915902 -0.3790653367140921 -0.2961040990171436 0.6678099695421548 -1.578038222284475 -0.1864897680133814 1.316510484512258 -0.3431551376792516 -1.366128062809434 -1.729961571533387 
-0.7093335948068139 0.6739883188035250 -0.7601731425565028 -1.059423568926473 -0.7637617593073371 0.05664396516293296 -0.4758934973749667 -0.1731617569027502 0.6172484858257097 0.6277946902403264 -0.1237256208041082 0.04098818446116228 -0.09219371533848444 -0.1759051640128406 -0.2356056536523864 1.174903275100045 0.7584319548517503 -0.1608721865573607 -1.103366461837520 -0.5758420502391374 -0.2422008606508673 -1.111424200332833 -0.9714788634770634 -1.297092115610075 0.07695670172138633 1.354349813508991 -1.737500467047237 -1.868395690768787 -0.4778127739759385 0.5791220295544919 -0.1151104290766177 -0.3608789762078401 -0.004386713742194176 
-0.3341927691685449 1.947294937042870 1.158137333526153 0.2070549441834426 -2.107103431646801 -1.356223314118489 -0.03491314343395993 1.348453438179249 0.3535006262402235 -1.301388317547876 -0.04852823746156572 0.04777190776359456 -1.202742393534442 -2.025869992613551 -0.8646320829949704 -0.3012802236483873 -0.3274767552656380 -0.8882217416339492 0.2001793652096227 0.5819692615075154 0.1815467979679898 0.3622267009584078 0.9856403517666235 -0.01067588494020542 -0.4483988295159250 0.6381629161263542 -0.5764518925899288 0.8229326148567873 -0.3334449786780040 0.5868323113761396 0.08564886104591923 -0.3133820552543745 0.6501935458993072 
1.022591954779564 0.4226123193251831 1.810189903438082 2.275767984602666 1.199804352204851 0.2584744823342057 0.1031112169018869 2.011778194620996 0.8623855221650503 -0.6624705631461681 0.3232145555227266 0.3798613655823628 0.8393084074250527 1.550946501668205 -1.424015290363651 0.1632109779649307 -0.1364250869085485 -0.5892650657750916 0.3282580074387507 -0.3609487754949156 0.4403094092844093 0.1113713455993993 -0.07881468083951082 0.3022393050105726 0.3013738975213114 0.9069033169544616 0.4987153978657430 0.2584732363620361 -0.4645801215891416 0.5323813884185439 1.019278646862322 0.9448674726178765 0.5987965174574961 
0.8372424503390984 1.571461851897339 0.4499386265646760 1.334008515318293 0.6800011676899256 0.4876789201619820 -0.4441302654735863 1.424037188579505 1.489614881871099 0.2123457136791790 0.5684206682816385 0.1487108693528063 0.6049627860719270 0.1685516111989262 -0.09768044690707088 0.4153182300202442 -0.2133038437250503 0.5883738533236884 1.485384997868932 -0.04023112804216797 1.526963584857670 -0.09298107064103273 -0.7370956556513897 0.08800583177826518 -0.4727900622848218 -0.2098943705216234 -1.031589119288642 0.2937075353069580 0.1913161570459652 -1.198790331822477 0.2434063947543999 -0.6543961581516302 0.0008944789991205283 
-0.8114929643373101 0.002660903292398653 -1.217074070893442 -0.1702779400449107 -0.3109968920779215 -1.078885276884065 -0.2984733967022119 -1.674030895466658 0.5559656049995808 -1.187143610576189 0.3131244641703132 0.4923893189289317 0.2564258021477147 0.6980391137365192 1.108829075115376 0.1061213936211271 1.323073748946621 0.8161525595484767 0.1616912212472990 -0.5423053506376505 -0.02612460632303821 0.2134139705913270 1.414618202395520 -0.04072841864908058 -0.005222597763309925 -0.8904392840124118 0.1774571201262582 -0.4697929605911744 1.347773778005177 -0.3044843878860805 -0.01984562235146638 -1.379071516644910 -0.8741800737030280 
-0.8696343880933245 -0.8887035662710082 0.08554055376697820 0.1182571263979233 -0.3602223229530500 0.6435146436047565 -0.3885000852025561 0.2040614778314900 -0.9972344475814697 0.3395551939637607 -1.216508774832118 -0.5836882718302022 0.1463590668429028 -0.9148688011991235 0.4149097114373452 -0.4634847284802385 0.4784646028881860 -0.4709853818036043 -1.090584727957914 -0.3619087105303588 0.4236303988819171 0.2686295007283756 -0.3086955928778601 -1.504551216260098 0.8469693603194982 -0.2142830363984816 0.4578801957314812 0.1136889492503028 -0.2898943718187472 -0.3238542516460880 -2.750048126115653 -1.391261727225199 1.332804359103516 
0.3195169562994054 -1.068698288509665 0.9253851847436122 -0.3528796653977139 0.03319982105347046 0.4147346559198299 0.1244908438549876 -0.6169632055584223 0.9103279644187623 0.3108917463937040 -0.09090839246663898 0.04078446806593707 0.3045793662957244 -0.4288945686659164 -0.2809868170782767 0.1111070500654161 -0.6189199941861852 -1.216201662948169 -0.4703310305311565 0.3992351598371952 -0.7001435162425226 2.976049373674992 1.377485509381910 -0.1283587395588624 -0.9138014683288828 -0.4215425498587764 -0.4530584882765220 0.7047673566051924 -0.9101198717284793 0.1706976584710275 0.2027146865450482 -2.045954911176995 1.046474974780728 
-0.5738821263445547 0.5505550297146625 0.7391467042566830 -0.2620044334931976 -0.3776645100586308 -0.2757331421642230 0.2370802972279021 -0.4726685394490552 1.180518685804896 0.9067223726188377 0.4631261258224062 0.07960261136383702 1.236336294792177 0.3902330859851729 0.06685792254014167 0.7015929677920779 1.686988743858223 -1.117887791379028 0.02465604810287810 -0.1939006461709464 1.611964379761241 -0.3271407902686874 -1.004169950823418 -1.405466928122723 0.6143175403348327 0.01049401762465410 1.462075059864089 -0.1638087352193407 0.4144034942358705 0.2476225410629283 1.173731903645115 1.665679319867376 0.6219954971878966 
-0.8149255465920657 -0.6558600178355748 1.520493640309720 -0.6402909660268291 -0.3600436652583598 -1.009352624254883 0.1812230960107276 1.307185205338668 -1.176955310127195 -0.4024612891640416 0.2309821441446668 -0.3730010924842369 0.1415930908355411 0.1770323769675959 0.6632827047506533 -0.1162366644823897 -0.5210087547473592 -0.1736978243607167 0.2251774676678149 0.7328390137683067 -1.357442467843538 0.5061684940790638 1.068341300208148 -0.01658715909126880 -1.013089391800253 0.3263123916451782 -0.8869827996602867 0.7647935232287106 -0.3698559064462110 -0.9640608385272345 2.036513902972751 -0.8254853933704384 0.2659381268999769 
0.08368401286621428 1.609450279934285 -0.9706081764966262 -0.2635789171672505 1.518668787745793 -0.9612103392351895 0.1451265564677857 -0.6513911238885085 0.2600568713852936 0.9260689712821999 -0.4443563965790709 0.2268733562283889 0.05040166884601305 -0.2071630131568204 0.1175859987477821 -0.1440415328748554 -0.3367504335370395 0.08576975795013284 0.6463616526575592 -0.2007801922456567 0.02605878723977165 -0.7721476519748585 -0.07961225163994658 -0.2976959341083681 -0.5024117984026789 -0.06307691927470643 0.1135001982608488 -0.4111388663677766 0.3009615910805751 -0.3240075178439743 -0.4170437542207484 -1.259997586200451 0.4142074460905838 
-0.4770473411449218 0.7614051845569008 -0.8758659350115765 0.4635021057094265 -2.064053497044128 0.2464010850144213 -0.1005166974065327 0.2613139203166709 1.331753364740647 0.6402128945194633 -0.2862438577633221 -0.9802076920382734 0.04870716794934497 -1.737825142785191 1.806393016965713 -0.4720816292533252 0.07659747365575936 0.08205526641114713 -0.5557223261482523 0.3070638798451811 -1.683785017489755 -0.4248020831086140 0.2385768922786316 -1.184344222434706 0.6495835238341481 -0.3443232066487341 -0.3948917554223980 -0.2169127606091949 1.211801198733770 -0.04365198502769171 0.3321079708129097 0.3338240607034441 -0.8831690251539000 
-0.1451386535467372 -0.9927139409509054 -0.7074538314918214 0.4804312628818606 0.4029292637265496 0.04517427135232192 -0.3821543008297405 0.3569071512508460 -0.9578174757641733 0.8772341914340496 0.2447590869101025 0.1585528379766664 1.878716554036010 -0.4423130424661645 2.190795163702746 0.7916591481997644 -1.335667654246113 0.09383690316888588 -0.2687133367804092 -0.4637398035560999 0.5837943989456853 0.4633072591753289 0.5274304505938076 0.4527271887413523 0.2357645468320977 -1.103063840330835 -0.9654871669645292 0.2788993400000773 0.5340831742724073 0.7452975366510317 -1.106571870529133 -1.258055212194621 0.5748603518161952 
0.4819708348326547 0.4739653249680009 0.01167634644978024 -0.6476943491370200 -1.353728642352763 2.248574835279156 -0.9129082406364740 -0.9962775958418475 0.3967973672413360 0.1361595809464033 -0.5131228163408150 -0.4585005647622938 -0.6844531237111525 -0.9698545539153256 -1.047512892979579 -0.4421435031999893 0.7018846849129726 -0.4953166455190881 -1.477522474582311 -0.9336823710860025 -0.5919005192134739 -1.288279950598952 1.004562819830397 0.1496061807463721 -1.127087613799617 -1.300917868398637 -0.4403089339471007 1.181324719638346 0.006844759951029622 0.5579674839875449 -1.505605488878804 0.7222653257525592 0.01173175810485035 
-0.8521679774301526 0.2626689320081558 0.5345659415125059 -0.02501420729723031 -1.837097732971187 -0.02769317796466106 -0.3011727092581083 0.6090083180984555 -0.5514224131081874 -0.4005717595057284 -1.244000616690360 -0.4377446111299680 -0.9131251603892919 0.3709926886945478 -0.7386229967494944 -0.2920631250636503 -0.2637743692814890 -0.06773324640126106 -1.183900208799063 0.2316252230573726 0.2884668054227160 -2.138188219622784 -1.953980927487696 -1.540099963104017 -0.6864895603272391 -2.393712468557554 0.5951090495738747 0.6325474888782935 -0.2599387512613320 -0.5065355223512762 -0.6318704668043081 0.4011621115086117 -0.7052917650875538 
-0.9068510862869049 0.9062650303077512 -1.270585064719357 -0.7957804585396615 -0.3994656450011688 -2.117656330918755 -0.2273735700881983 0.8317687598310114 1.897100982336051 -0.2165927118568281 -0.6946891205705932 0.01623193389654123 0.4358540151589347 0.9109886767604907 0.3883814894078254 -0.3932534393266676 0.4058252258963541 0.09067257597952960 1.164553777054323 -0.3559207233432985 -1.869340592626436 -0.6166502576255184 -0.6349458147310377 0.3922859066196564 -0.3697280204738330 -0.8223643845638863 0.2351596129698415 -1.290145106120300 -1.076808541269520 -0.3342574909605210 -1.307516763236320 -0.4992950546964886 0.1547097140060565 
0.4479675963627510 0.08642529399905835 -0.5705026328621801 -0.2517440904103174 -0.2620016580386708 -2.220396531300591 -0.5267509079431214 -0.1243256924257104 0.7967696165929496 -0.1721306674206377 0.1405773396915818 0.1030479077223335 -0.1326222433757248 2.339111700559708 -0.5114738433213502 0.2854414449077124 -0.6371385210601195 0.4838140187908093 -0.7107623493145456 0.2930787529832061 0.2306930241159324 -0.2121278585390025 0.7176933735147397 -1.665220169455608 -0.1916387866175609 1.015989106476104 0.03505725109874060 0.2473839519045547 -1.123776623256644 -0.04754110078375315 0.3723728652529646 0.4063081688479490 0.4924243250508779 
-0.5359258299666610 -0.2590155829929048 -1.371138721034899 -0.8562562243627136 -0.2256150550474506 0.1080163085592341 -0.4914226806951553 0.01963088533739797 2.412206418033010 -0.6317208041741005 0.2733905633839292 -0.3582546953109856 -0.5158937337778673 -0.5940756548716574 0.2520947373757480 -0.5337018429372510 -0.5242182567834780 0.3017487373888885 0.06017710806843218 0.02643390917435573 0.5345156550460073 0.2130317730862024 0.4963345943071088 -0.2484269064533825 -0.7641641649297648 -0.9916247087849823 -0.4058867689521760 -1.359726780032210 -0.3134044652806978 -0.5327650979039672 0.3691927710620263 0.6681337969915560 -0.3185505846392309 
-0.5454692762710998 -1.317136154620926 1.441571085814466 0.3364086403032517 3.194152919715717 0.2803375205797641 0.3929209544092633 -1.439950924343550 -0.9519207541408835 0.5420527664434067 0.1527313264977332 0.3290132553506436 -0.01269939943078730 1.515002286424903 0.8927609930459199 0.3134419120089519 0.5005773508641058 0.5244902840075265 -0.07576392904712650 -0.2202464801858230 -0.2043932999759025 -0.7539733721168140 0.3280559361206588 -1.342522644657111 0.1575975703206034 0.4114815129059025 -1.181500818985781 -0.7097831326568123 1.918548071458380 -0.1911090852328127 0.3434889961375334 1.243704005749379 0.9710994003506579 
-0.6379666233373849 -0.6201849931062606 -0.01357437449523989 0.1649990390981077 -1.071249283724665 -1.460534966551004 -0.9732016761459549 -0.9877882821590873 0.3753512262472752 0.8537402850211250 0.6121692651715320 -0.4917733779908741 0.2134968190180714 -0.6464683854245478 -1.347129547065578 0.8694534318122149 -1.438231388072256 0.7068024084571941 -0.2539116618040229 -1.460688011026275 -1.078540551869204 1.156373075977638 0.009172165212537189 -0.3897174182657086 0.5164929371537428 -0.4128599022103683 1.089202167959761 -0.1083061763763804 0.3504099947078522 0.5918565818428178 0.7819740429630200 -1.325136935478418 -0.9283154070551440 
0.05431350894286723 0.5684843235092936 1.148251666750582 1.177522054688639 0.9278606650375786 0.1532476493735214 0.6486704161030983 -0.4127955000762956 -0.6381711135581035 -1.186567509317008 0.4006597519598512 0.3178697490773829 1.688474581830947 -1.237753874688627 0.1075813021693356 0.7976724519217895 -0.6195567265253467 0.7745229428161367 -0.6665946516606682 -0.7498927786899336 0.5853213397764505 0.7748366878420854 0.2907819331073120 1.548485439420233 -0.6639180989934211 -0.3865517166274439 -0.8742378981764292 0.3311169938788825 0.05238468644953909 -0.06203486193050542 1.525794184000711 -0.4782750534857364 0.5868183382860300 
0.3770226730966767 0.8740937671877546 0.6894031364720002 -0.8357050883055692 1.543810191151412 -0.4465355430057805 0.1027141609964700 1.333678445617996 1.516769194850905 0.3169802956010236 -0.4815694925094214 0.4864312760597083 -0.2352822643064622 -1.218539971406704 -0.6914257481208884 0.2112798393687226 -1.652744832933913 -0.5395720434242786 1.053311157052129 -0.006122902318785373 -0.2286683272216393 0.2902678117181710 1.231789687931860 0.1589382665611298 -0.2015591435038887 -0.03148957223896660 -1.197055534769043 0.6719953133666238 1.044966973601055 0.9386979057169889 -0.9503146922917068 1.226003921026950 -0.4158888671208537 
-0.7310117455176313 0.3771210236253414 0.04017762498916264 -0.3592708725077366 -0.3356931106620079 -0.7744691661001988 0.5303611597049684 0.2310733212944462 1.192100422489964 0.4224952737052261 0.4202848213545325 -0.08929606017102656 0.04019283326581228 -0.5024521548034258 -0.2325446852610786 -0.1257417140010300 -0.4220256064034925 0.1413726644318487 -0.2200166916674952 0.7248366272093990 -1.464467910742142 -1.279087884082410 0.1550139841875005 -1.012951581620941 -0.3630950233819096 -0.09819818437893772 -0.3348260805743362 0.3015937947417180 1.374320759230719 0.1808491313659893 -0.6256995744460114 0.4765378400875490 -0.09861015393469069 
0.3273008411283479 1.596452345495131 -0.6225348931623350 0.1787270950219643 -0.2680989887089540 0.7507302979649597 1.071942137794587 -0.5351639158501924 -0.4099504122673616 0.7242384369196483 -0.04790728568407035 0.1897594978613205 0.4538689336862559 0.4541778873803834 1.143848443186337 0.4243852280577868 1.512846660571083 -0.3724880781663041 0.4264595308873349 0.4628708152296004 -0.1555226947659475 -0.5473418176263111 -1.045818292487969 0.7710053278553626 0.4993958771627074 0.2535097611979099 0.6326895584385214 -0.4421863874304089 0.8958890363676671 -1.051115743992063 -0.3524447104081947 -0.3053546389738692 -0.005415425079910867 
0.6198360447442726 -0.4766055054717765 1.044716836275042 0.4687489754824552 -0.9864355129921594 0.06995750069833953 0.1934522693814725 0.3712377249003361 0.1368641125461234 0.1608714509264458 1.024165412799694 0.2871477035618675 0.2672635795936431 -1.436637770581311 -0.8440002550198276 0.8217623161841312 2.665706564713608 -0.1949635921739256 -0.2526071350557687 -1.591014834495646 0.5530243045538300 0.8206773298620675 2.045163698836592 0.6868928107051350 -0.9723206744848558 0.6321595301700110 1.441340302899916 -0.3146281686219837 0.1111347718497981 0.8530349653217734 0.5466154714030540 -0.5983013480474118 -1.013421946867490 
-0.2243387896711876 -0.9081796332234727 -0.6351950993631197 -0.9369599472771823 -1.438522686813111 -0.2496687133894735 -0.3026012937662926 -0.7038749916656314 0.6700689047761684 0.2699460900217560 -0.03435657255347755 -0.5963370921095411 -0.07394856973970242 0.2494405949068266 0.5885697926196994 -0.2944220570729447 0.2704537946437847 -1.216573021897395 0.4829652949993135 -0.2808650219701067 0.8997693888346329 -1.188474585612471 0.1851580220840060 0.8329303550883235 -0.7593986848576383 -0.7166487190159527 1.241351171461754 1.147571906434454 1.733700157178836 0.2091092463838944 -0.006027297574446629 -0.7578561068143029 1.485992099912952 
-0.03596096368180338 -0.1064503991007090 -0.6176419723436110 -0.7818812791045697 -0.5399091919662881 -0.03033897579572997 -1.234746357080748 0.5827827070671174 1.261469687533973 -1.034939562019788 0.07199898288682878 0.01093298384075038 -0.5481343182934137 -0.4669426760625239 -1.739616716608888 -0.5462878274061667 -0.1684163480845592 0.4655152551026875 -0.6612000430095133 1.040437988988886 0.2897981492103322 0.1548959174571099 0.02990012281562802 -0.6226981200662918 0.3989146800527486 0.6261806646440371 -0.8452240119239856 0.3806485280142429 0.6386930119484238 0.09110171558742797 0.7294919634112602 -1.535749108990763 0.07433859151775990 
0.4821023721712031 1.117073086170221 -0.09240960880552072 1.579888601014207 2.400032623503428 0.01063744016535773 -0.08920696825790317 -0.3382638355115166 -1.388600356399089 -0.8368291403753354 0.2790783529524588 1.174718860508153 -0.1017808519380688 1.158516188623695 -0.1377352242979159 0.3305696860883397 -0.9204207128658825 0.1239816298738018 -0.2817538387184400 0.4462505749107766 -0.3837254984716964 -0.2775180302945247 -0.4666682094190445 0.4003245846100036 0.5702843584467358 1.006959583428542 0.5200575705757681 -0.4181326523114515 0.001624441947842448 -0.5708066293872988 0.9179870541826527 -0.2438115736994306 0.5423829055925184 
0.8147499577409860 -0.01288187694224147 -0.3434706224162931 0.6384573445257533 -1.406732311104108 1.989615417229148 0.4760981831473432 1.514977263585434 -2.000377560220502 0.1023357180708284 0.2296686655561229 0.7830227577000761 -0.1300840582592706 1.415560731995719 0.5111003336060504 -0.1812825431467945 -1.570340147292032 -0.03766439081180600 0.5215815057055750 -0.7757600749341733 0.1604039080882831 0.01024212368292676 0.2571176924506297 0.5615558274809791 -0.09111697648023401 2.280763145444867 -0.6957721314089033 2.226396278149962 0.3115815607025508 0.3299690811623107 2.734041576610303 0.8257995914189961 0.4654823048111206 
0.8098653958411608 -0.07692679771161742 1.198945908304379 0.7511378073074653 -1.538994724533168 -0.04421610156101324 0.09581363272491088 1.451878270914372 0.3787179632100980 0.2602843578591401 -0.5010798254515072 0.07297924836024813 -0.01015743577643041 1.602406886450032 -1.824530698796116 1.429925920969354 -1.570335033509684 1.112811306682796 -0.9027175724457130 0.08217751177171545 -0.7839572269311257 -0.5010474485624591 -0.8794266113810099 -1.067690637444520 0.7116057085455889 0.4231925106734898 1.917518054950769 -0.7902642232231913 -0.8525732369774771 -0.2183419569725195 -0.7554417623243135 -0.1312032657676445 -0.7180830213407609 
0.05514732677555713 1.539960793487599 0.01105619036003636 0.5911158854650227 -2.296126009303749 0.9333927601922145 -0.07596362994520839 -0.4423015650377833 1.153322946713918 -0.6919211851941929 -0.01324615466865194 -0.2660342441211982 -0.1555831367132814 0.6302148815158216 1.460193569189310 0.05020524089916481 0.1556244411247012 0.1800952588802243 0.5105099676349666 0.1249275002169742 1.559838377635894 1.333483512874986 0.5180579285797606 0.7481832555467891 -0.5731323383951171 1.887449460452343 0.5964970065840630 -0.2889275896126152 1.502573410917104 -1.016509484651688 1.247956120073792 -1.544592955643809 -0.08908735411350406 
0.5621454327632175 -0.5172072461836527 -0.08793226702218301 -0.4935979361816538 -0.1674850150667872 -0.3295873425328144 1.285447655734459 -0.1788904636402995 -0.5890051415405219 -0.1414179194225501 0.1860268492740929 0.8691831206088143 0.7627285243129239 1.260711566517171 -0.4529869735284000 0.7197849755903682 0.7751954626705445 0.8164137393281179 0.1754556206806146 0.4257009044940731 0.6798828086907360 -0.4755091850762643 2.716613755328042 -0.6510585436633687 0.1458227246672408 0.3926974673155653 -0.3979924584399626 0.1159402224218706 -0.3651468045685430 0.02099805412623852 0.7384335943772363 0.7704163112224420 -0.05340156622153974 
-0.3776183438818634 -0.9615800442189348 1.396957985820201 1.621157779632262 0.1084380721830914 0.1230518293005343 1.126697008418690 1.093821949423314 0.2964713845508389 -0.3819891742192615 0.2938988173414125 0.1212970693647014 1.039292439401753 1.361659270350400 0.6343297036552747 -0.2004501733651916 0.6548650276108352 0.009542560200604733 1.314917324007350 -1.674664290014551 1.909013521966098 2.050830935394906 1.721182481980047 -0.1925462323888434 1.053033807042419 0.2389046606417431 0.7166561158967081 0.4199313059391830 0.04791303100530871 -0.7048646105979997 0.7648078788996536 1.563391449099859 0.9314004142001870 
0.5918276782728302 -0.4119264827930337 0.8955552889321992 -0.1486948992348916 0.7209426409342920 -0.6656105868282978 -0.7169041466113176 1.186155970133106 0.6220974782314257 -0.2224542501441170 0.5539681799260169 0.7123139017713297 0.1770338547552998 0.8695180219804257 -0.3771685397855579 0.3961435620953411 1.890122716035117 0.09072435310048156 0.2114868537784291 -1.173715609813443 0.9953108921446819 0.3479093438361326 1.882416964571052 0.9349022635594486 -0.4661741707650201 0.2346341822047529 0.2778811082602841 0.4961452459212931 1.838522426489137 -0.6375433749543502 0.6577012861684418 0.04443159139144701 0.6130268377948209 
0.4020954760931399 -0.4866412775587341 0.1162249116213648 0.01224763997701371 1.708601260041148 -1.641155622129725 1.666924374920972 -0.8410159786605864 1.885606534546571 -0.4428305703820732 -0.6035044315746878 -0.1742426886892110 -0.3813652327325948 0.1595866559304161 -0.4908149474998849 -0.3259739690702459 -0.03888029832274097 0.8862528769625994 -0.2272898967210542 -0.2303216007617675 1.721081629794837 -0.1859674610695975 -0.4291326058681536 1.816846986980721 0.7285272282245330 -0.1126113172427843 -0.9907274915841677 -0.7379383752596869 0.1323993356593845 -0.2455823326417763 0.4966973909267970 0.03144770506040237 -0.2281835739207571 
-0.4843943812919708 0.6919733785129778 -0.3169576059042502 0.1200127883719586 0.2663004691405946 1.036763545209413 0.01296253501929740 -0.9465145097655767 1.381190722201785 0.08706700227171536 -0.3048756512321180 0.6748297110772948 0.5156177027152455 0.4415352869182361 0.1407835918916966 1.819506659176118 -0.1785408878756942 1.052173843522253 -0.2516151107483602 -0.7442277443809755 1.737363316199218 -0.5112628015569038 1.458746357790566 1.223336179745321 0.6068595930862026 0.7169033017261522 1.147890521005307 0.1460215137981463 -1.007982925673138 -2.312179990661031 0.2524793785410861 -1.653982830415803 -1.319627803716252 
0.4839958628376018 -0.2696682948358711 0.8137196012857681 0.4561674555174429 -2.262579865658591 0.9687346460238025 0.3492107505365084 1.266928746739018 0.6202109057694223 0.6379681440966887 -0.4540857660469457 0.3531481646535716 0.1170883140062031 -0.5923854129124490 -0.8694684918337382 0.8633077865232657 0.1507537174594363 0.4017223570736845 -0.9419898356621614 0.09206476119155732 -0.2245366405184223 1.101994380336527 -0.1806639742871592 -0.7015384640327237 0.1207681573257766 -0.5712812110857881 -0.4228829453180232 1.415652648109675 0.2995978706645796 0.6116669396869351 -1.073517459642398 -0.8916147200504750 -0.6440050704609631 
0.8326976569884904 0.6089350411541509 0.4225263490993355 1.297576828141820 0.7179277729348051 1.225166629285590 0.6398467471111541 -0.2014389934084340 -0.04481727070279759 0.2809153721861385 0.6360559689571663 0.8685263057087228 0.5205497518101776 1.660205065826039 -0.5140510554316389 0.8439226215692635 -0.09017712966238663 -0.2743743685119343 1.285205178085278 -0.6796484103201491 1.079264922124486 -0.3068589697749433 0.5809497828883050 -1.191249499654996 -0.1334817945612854 0.3667109795213724 1.784977531372151 -0.9623067134367144 -0.1080994133031404 0.1670620992532864 -0.2847228415715408 -1.115358946131210 -0.8668689904430468 
-0.3218691004143404 -1.318614322640031 -1.200900742200940 -0.4693195092194067 0.8344709868733620 -0.5453878333169148 0.5379511563594248 0.3836186870847893 -1.979779747267480 -0.4686538104868148 -0.4977329221227601 -0.09699255571314533 -0.3819993721637220 -0.8135041669220341 -0.4554346554440323 -0.1382830858060292 1.051851802860490 -0.3440548602851296 -0.7567845429572060 0.5092741318333053 1.439031072475902 0.5064913982829379 -2.076255263914956 1.789778354253976 -0.005068753416136900 -1.247697914212151 -1.637092258185595 -0.1601048215463117 -0.3104862670282651 0.09380555195561004 0.2377993360277795 -1.054851809999076 -0.3644438980652204 
0.4140419318922256 -0.7536699814698130 -1.707621276422301 -0.006117521123287058 3.115930157300016 -0.2119379672380789 -0.08283111995277102 -0.6778176405377879 0.2064889641037137 -0.2611492652041544 0.4287266396901481 0.1125593284989170 0.4490269958116523 1.021545843707837 -0.5641215949914410 0.4361106537349456 0.3115137985265309 0.1223608931861754 0.4158433575437361 -0.5579041046360138 0.1918051529692515 -0.2089283397383429 0.5388117705842445 0.4373687488044790 -0.9634440870363500 -0.08061447794562140 0.08645581926645570 -1.207733973758779 -0.6985374583906365 -0.3011666276645266 1.821577134520244 -1.051384146937738 1.088208779637680 
0.3096463118334976 0.7735755332268301 0.6856622898969307 0.5274728004281658 -1.036947171682562 -0.3637006149798598 0.8296055404428420 0.1315463953513537 3.374782495840213 0.1341877911721475 -0.5077492374692096 0.007416649675868488 -0.3016593277187712 0.6296959349634262 -0.7693591080941691 1.242315752195065 0.4326690236681781 1.569657051017665 -0.3288363417572183 -1.084536306043551 0.5640254222348027 1.861263160911962 -2.165425316008759 -1.773570131609954 -0.02987821183282683 0.007105254614084303 -0.04578253161030849 0.3799488206845968 0.6674446589331711 0.5383186949952867 -0.2327987856862651 1.049349660503150 -0.8517777127466000 
-0.09211026357259486 0.6364317509800328 0.7690200578620432 0.9186139350404535 -0.9413094832305848 -0.4297607827533500 0.6377718998980415 -1.337736476469020 1.307921186125343 -0.8634823564917060 -0.09636943262780710 -0.7110747477774603 0.8833687342659301 -0.2035642623245498 0.1640655951954261 0.3888661216980276 0.2425790428828732 1.266726945635663 0.2927671560619228 -0.8554311057510052 0.5245315676415941 1.696779785153930 0.8723489011393536 1.092410142524632 0.3453451260660713 -1.264632436657233 -3.178775563757153 1.742801597560430 1.568617528926943 -0.4671483367643796 0.2814130665079296 -0.5166938267492518 -0.009912611946310080 
-0.3846910984522344 0.2665631309904195 0.9380346386461774 0.7090853062973893 -2.141612841964920 -1.840897876772222 -0.7190442485468441 0.5514778630096927 -1.887256644957016 0.7792335935474757 0.1768181160177432 -0.7358102046673679 -0.01068930742333429 -0.3821776563960091 0.6056021672801877 -0.2283812745014360 0.4365862833623955 0.3899452995593065 0.6963283706481240 0.6606247249548640 0.3891006291920822 0.8193739852529038 0.1608750597873379 0.09036887820668196 0.09225836298149193 -0.3261526928648327 0.4947795235697057 1.148878890510800 -0.9766150408479408 -0.2517835931560682 -1.878328289709695 0.3367024532131290 0.1965957138860995 
-0.7461065120884594 -1.188887535341743 -1.692306490075162 -0.1488046540266828 0.1449257996249144 -0.2333449669661668 0.1151583285963320 -0.6676955328449075 0.9112200522003640 -0.9205639410872405 -0.5408000890338553 -0.7792041911714139 0.3345526901118017 -1.945850434696099 0.07813979867606642 -1.556299814166025 1.116482962441779 0.5919864359087272 -0.6902445278323674 0.4250330075237875 -1.547364785448046 -0.1961917805534844 -0.8594904147188871 -0.4607259664994138 -0.7483096572271852 -0.4827306488823822 -3.119168465953341 -0.7303541563110214 -0.4187606642531791 1.570090111172432 0.6747367595498165 0.02911243413678417 0.04052463182508535 
-0.3859340873171000 0.6404091584377182 2.546874813692525 0.1007220228119808 1.044905117043280 -0.06420403079939335 1.564264220494218 -0.01794993330595163 -2.187343796143632 -0.3216390231369980 -0.1049900380566327 -0.3604274374944873 -0.7558926486071160 -0.3289334626155616 -1.241693867148844 -0.3580275854362431 -1.624424132082846 0.07241388464958282 0.3724777801220511 0.6374902047754046 -0.9186283945125910 -0.3241387109846026 0.3198272194989037 1.176046368593037 -0.2391193416233878 0.2290661008407875 -0.5146884595508954 -0.1111532678472239 1.302214931543106 0.1811978671778481 -1.377689214496817 0.9170662169464159 -0.4052943274110319 
-0.3489181136380114 0.7551897265149238 -0.5128881484631401 -1.060904656242825 -1.151528875074403 -2.319462298206291 -0.3871033343601469 0.2051511963170178 0.4527419810376114 -0.2837019163290091 -0.2228262757451115 -0.3332580059479420 -0.07986202144853305 0.3383893627049357 -0.01171663859270013 -1.032251926103347 1.695530633190221 1.769288144361990 -0.1351882574161718 -0.1355993507358342 -0.4365780812954949 -0.5279908807469197 -0.2764130943451779 -0.4851108421278561 -0.8618772622360561 0.4323459529129037 0.01077276718164341 -1.013367460672459 -1.378515966988985 -0.007160210030426328 0.2297237502783625 1.326368694036036 0.7157936888525672 
0.2867986555689820 -0.07795444343219848 -0.1865584385746109 -1.250059769341361 -0.8450023757698446 0.03620508509343462 1.202995057440424 -1.298883277552847 0.9820532241221671 0.7947253331528975 -0.5445438064800765 -0.09105360739676300 0.5807974844261891 0.4983526504951474 1.013200037921975 -0.1172243740208966 -0.3791722359647797 0.5713918655268614 -0.6634270654322315 -0.6423475473002750 -0.1753190686225079 -0.2790149787626123 0.04914080156957718 -0.2440900616709675 0.2231278349245160 0.06817651971846936 -3.128109286787559 -0.4237852202232488 0.5683478083180501 0.03110260746540322 -0.6582963241271836 0.1207894839451130 0.5913978545968110 
0.3604072388809201 -0.3373290087812589 0.2975677655866351 0.3684280483427967 -0.7746373448876875 0.7366796144585150 0.07228234714051886 0.3072445183783400 1.567630280713085 0.07126463737181082 0.4606866745306040 0.4151559687325960 0.7986199957989939 -0.2859994214271087 0.4161603244136106 0.6578426939876225 0.4791888846964930 0.1643607249419354 -0.08807063809486403 -0.8436069767686243 -0.7864540251614585 -2.090197805255499 1.402746300858734 0.3080028408587976 -0.4776977889623158 1.050417715709842 -1.362592140741714 2.544957264876291 0.6299936591658882 0.4767468145034042 0.3409192830800681 0.5633035234058362 -0.7447223213459508 
0.2674173657701847 -1.479934022429753 -0.08320842235118384 0.8120034367372653 -0.7481500036722366 0.6195491861567130 0.3730707457528411 -1.572197939547381 -0.5079145258033205 -0.06686561948171313 0.4143474954174128 -0.2107365834256037 0.9159950803074665 1.314061007617362 -0.3945233795792060 0.5043678241115753 1.838702971617908 0.3528900442445512 0.7835454262615060 0.7661509197465478 -0.3081908268583026 0.1479562139922287 -1.672631023287642 -1.423474857357745 0.1483700016446764 0.6113556632006668 0.2089656427168093 -0.9605298981510105 0.01560559454481636 0.6549321017707670 -0.4165916294736826 -0.07301644556870028 -0.4828344076271879 
0.09457269351014021 -1.290638573693261 -0.09508610296507862 -0.4285635430602779 -0.2143455671335653 1.865490744851122 -0.8667748615935885 -0.5188880506334534 0.5028606055076684 0.1338498774056489 0.1119295527404281 -0.9056285041719968 -0.07301473147018439 -0.6000254721693125 0.3039760658194964 -0.2441370610049354 -1.994390534246680 -0.009590371919929452 0.06069322096458202 -0.06046864630349938 0.2245099203217435 -0.7149370321062711 0.3718388663788548 -0.8084014690256534 -0.2221022035814189 0.5331826712049583 0.7974718542671040 1.181004140484237 0.1926324942151041 -0.5974668006090587 -1.448771302624303 -0.6995104816291634 0.08075515762704072 
0.2141285910903829 0.4867568195296761 -0.6467129559894774 -0.7535500981764321 0.7398602975742712 -1.860618508907932 -0.9754468818682908 2.176048478814325 -0.02696010251890105 -0.8003140762801194 0.01639061514060922 0.1560892877300147 -0.1958225757342013 -0.8867669015516139 0.2022477083114531 -0.3309553206626312 0.8782483412408189 0.2383614289266914 0.5776359738222894 0.3500230152099341 0.06483599261715832 -0.8082201117961838 -0.3011512396812737 1.051560130760051 -0.2626885862534112 0.3337321973579025 -2.009017524161889 0.8734225561746077 -0.1359830639339417 -0.6465676793484076 -0.4958086605305905 -0.2257944059747908 0.3448283883373395 
-0.3243780015756429 -1.041125793781997 1.612973284210615 -0.8040685032687062 0.01193159608031733 0.06574526457389090 -1.177507803808680 0.8817107279833050 -0.2353939519835943 -0.6659931831146418 0.08853373172350402 -0.7068690929148094 -1.103828642018634 -0.08139583180042374 -0.2185575409260645 -0.4758089670062257 -0.4757323779717245 -0.1945656545934129 -1.682561274286710 1.253929264055150 -0.9955335087015778 -0.4578968066831556 -1.552867277473883 1.199536220034611 0.2766830261652090 -1.236092256141973 -0.3032395458278503 -0.01048131234900164 -1.753413751429664 -0.1231314394821353 0.7040144836787036 0.5338923838991865 0.4620050971120295 
-0.5151181976338967 -0.4847094436441097 0.4311599592620878 -0.3300224048953572 1.013697027783912 0.07933966353113452 -1.238684987744637 -0.3450017972252191 -2.637483487405487 0.2649005473617082 -0.9199654468218763 -0.3714227675615579 -1.263500619635188 0.1763872968934415 -0.07611590942042773 -0.6027462164070417 -2.030962759274130 0.1253580431225690 -1.422910225969982 -0.3559326106226778 -0.6013974128352799 0.3410477803864956 -1.078600238139558 -0.6678479130833619 0.2548292747073521 -0.08790871287941379 -0.8647803013645057 -1.072152639099198 0.04574803441961534 0.1235803986554411 0.2039129114437334 -1.497386530120955 1.182207226015657 
0.9959999871480615 -0.9701129675606710 0.2401836633860813 -1.083971858558135 1.266236826174688 -0.08660427114408717 -1.044409040953981 -0.7312777623330840 1.596621023075382 1.046830195856672 0.2316049068229245 0.3921426391844211 -0.5937704531120780 0.7865552466647387 -0.2130987307437013 -0.6863031014073209 -0.7100026121857379 1.618149821508905 -0.1826902232906093 -0.1159059452159631 1.979966591029851 0.2086669124381361 0.8781495953005730 0.4376367876670758 -0.1117856439811514 0.0004861845327826363 -1.477809342844839 0.3807195298500134 -1.414981334133509 -1.064314292947409 0.6776916341198859 -1.873363774034256 -0.3250108145043323 
-0.04794611122104320 1.501396657343609 0.2472550272359952 -0.07000743489380050 0.6430824980703144 -0.3568262853941629 -0.5192720902422527 0.5964470083984564 1.340279915523531 -0.02773026676203971 -0.5404107333954530 -0.09152533698900402 0.3707437463545135 0.3185080454048888 -0.02653927471691973 0.2477054711293920 -3.113824043103347 0.3902441637607163 0.08624853835542623 0.1817360066333081 -0.1479012163145441 -1.050081740374659 -0.6506791009626289 0.5665695735506338 -0.2275049474734688 0.1051198663086796 -1.270513656213091 -0.08032767945124289 -2.023626187979884 -0.1761757171889850 -0.9736378288204495 1.052237422647728 -0.7049170747795036 
-0.1297340294398738 0.2528266837770269 -1.273168573623007 1.189744995725284 -0.4723365884029919 0.4521577609876027 0.05595411835509478 -0.7056087575927094 -0.6633497170408348 -1.347707484182189 -0.2129584623672555 -0.9430876213261785 -0.7700924174948659 0.9331743151905013 -1.313750580595253 -0.2092295377767947 -1.041141666638958 0.3906931769667754 -0.2805590182864105 -0.4996635619061948 0.1145608165704571 0.3272929750432601 -1.374966337662557 1.858914985132895 -0.3108111921351286 -1.316557097017570 -1.706406521851167 0.8811587772545209 -0.08959081655998634 1.266418665800329 -1.454225748369766 -1.063054787680112 -0.4106914331909939 
-0.2592583437701262 -0.1434019582815096 -0.4400195603794923 1.465951938793261 -1.680266924378545 0.3163258138483931 -0.1648431949560645 0.9093745849659163 0.3255610825010236 -0.04287958256101682 0.1445409060580677 0.1647431222145538 -0.1025949488725306 0.1745971229464100 -1.330808373726689 0.4740463039332483 0.7349764687300276 -0.5705023617703209 0.6758071732767845 -0.5123191776637881 1.191125407089005 -0.7895939611736392 0.7950109894234193 -0.1178742293372814 0.2247258647924167 -0.2605279899840094 -0.3645197130128274 0.05908298406224349 0.7122894436612648 -0.8919395304314605 -0.5137222020354076 -0.04153251169079335 0.1811313369892418 
0.6939489729486122 0.2079633077201735 -0.1119054374667305 -0.6554078360764602 -0.6530005377503155 0.8144309086202843 0.8778966385029806 -0.8611222400411173 -0.1953603070032502 -0.006699539837969087 -0.4165320534672216 0.1460642079886165 -0.08422397637041353 1.944604852734410 0.4509729175684338 -0.04229939153530303 0.4696046966474867 -0.9330980893397741 -0.1287621148493410 -0.1831390847485537 1.216743579220932 -1.620868865677990 -2.041712172526317 -0.7422387163967205 0.3063091364156440 0.3918520953840403 0.4678552463305463 -0.7298258534649307 0.5666057523190603 0.9755582398060376 0.4999635297570922 0.4007625720921372 1.446359924542888 
0.8391614200205558 -0.5743306630525906 1.735166431657301 0.8888927817950774 0.3006729527009366 -0.5113857934920103 1.294217052761873 -0.1388571910653299 -0.5592908815061378 0.2998890136604277 0.2598841553582862 -0.07222400621745072 1.140819330241531 1.098572579583340 -0.3369108701205875 -0.08632548202702102 2.464180517923594 -0.08449491123573108 -0.1550971952023538 -1.630409632809425 0.6522678413392913 0.8973901717774556 0.9165959556535271 0.8318849092276334 -0.6981154820347908 0.3189420369268659 -0.5714146208326476 -0.2838553340382041 1.134004643462226 0.6821598958907988 0.6719826911456375 0.6338100464423397 0.7153936481600124 
-0.5545279248295689 0.5986676810870306 0.9738570371823870 0.2231568532856750 -1.113301398079842 0.2623524949945898 0.7552809624148321 0.2673813104486259 0.2348448160223663 0.7496545868544673 0.07772424263753412 0.3093033989336901 0.2032357196761289 0.7856402109515594 0.08480533502386486 0.1671330215239386 0.1334129595170292 -0.4407781752335173 0.8959189041844012 0.6166945806136539 0.9953537081222921 0.5759201964888744 -0.02234515257882927 -0.3336288305582186 0.9567834935847552 0.7397796353175367 0.5091033414602943 -0.2314915177762841 0.3700469797573659 1.230009086194598 2.113625673688363 -0.04885426411117302 -0.7802581040090270 
-0.8078725675241989 -0.6750241365466099 0.2364976518788809 0.7025087864933927 -1.104924027678411 0.3688488977066647 -0.4432848563122911 1.413515694194405 0.8416146229366335 -0.5435509278101608 0.4800651792889529 0.3320898013420159 -0.7326732727112317 0.3901993745886800 0.1524641875521239 1.209238946247698 1.183010318654565 -2.103339372074911 -0.4001251271022577 0.5096832104249756 -0.7733204675604106 -0.2554969137811484 -0.7524357000808332 0.4463382245963050 -0.3680807281967555 0.2037446394729859 -1.263385486152940 -0.8710051680738105 0.02857855982410350 -0.1079632426801345 -1.339633067506879 0.6458448046488208 0.3329578495662592 
-0.8473577877994888 -0.9574053694312790 0.3345915976432949 0.8528622740546306 -1.028140436259074 -1.508899354341033 0.6856106505918583 1.107150985764314 0.5247976739961399 -0.5495286007540670 -0.02033936712689907 0.5470345900863988 -0.06136537854922951 1.317639852893020 0.6444120982189300 -0.6456882473092542 0.3585921221100828 0.7444770215569982 0.07283421628932184 -0.1625842939960322 0.8770923315064518 0.6229046924671752 -0.4102338729755074 -1.044832573948773 0.2886300451794510 -0.4270931219997233 -0.002959028448193360 0.7649946344314056 -0.6198060102051518 -1.401599749470878 0.3070620040975883 0.6410899161502174 -0.9318824317691975 
-0.08251959308484899 -1.014392271722631 -0.2317944626769520 0.09068851953953319 -1.656960902800555 -0.8108631554063321 0.8758449886160787 1.043258484529526 -1.551301403016514 -0.3779598879217681 0.3117623024160173 0.2547082885099005 0.6182699354274771 -0.5835587502179947 -1.034973840315717 1.268338998417610 0.4530205888897591 1.236624143222578 0.1586396117673285 -0.8934099368417058 0.2330806012581164 -0.2587205907814428 0.05506599091830854 0.8271693272700467 0.7903204695224520 0.2406551717999937 1.143927182772063 -1.561603601912824 1.188498357350556 -0.1658835734563940 -1.221244210736474 -0.3250835963335615 0.7760130735249738 
-0.1892887065992533 0.7929684339282619 -0.5675435390499430 1.131599992304406 -2.823842990757805 0.9748447020483371 -1.833612639469869 -0.5311178417474758 -1.005085384044633 -0.8806480159123848 -0.3053807912659324 -0.6070850246781560 -0.1127979848292828 0.4827272564043785 0.4493858665001930 -0.7714517700444612 0.8115921201966968 0.4795158248055340 0.2108167918012623 0.5921885918834038 -0.1186958841328083 -0.3941592753333099 1.146794380503630 -0.8043389580538336 0.3051422394651268 0.4442138783865966 -0.7734899349398341 1.027204072459760 0.7313576497056302 0.1052783239903873 0.2928025177376201 0.001626624170211838 -0.5900317033668626 
-0.1230624535862094 -0.01677068154999853 -0.8033125864383727 -0.5476058685089275 -0.3622591894385645 -0.03412288919050993 -0.3955883194837312 0.2649212289333581 2.667023263034947 -0.1400884645174578 -1.077290127133800 0.006410202764096141 0.4732390577856370 -0.5307464422924093 0.6821949879738930 -0.6708648985554495 -0.5465582854580912 -0.5587714215072269 -1.160671616104361 0.2161766213101368 2.024291122936187 0.2580662461633406 -0.7601800041847497 1.588560065082923 -0.8783377549285087 -0.3814344842238687 -0.1948712017351122 -0.6984728354843894 0.5493083525513394 -0.5908858343919536 0.7391228173869623 -1.531072770262030 1.251300069301331 
-0.1750764924445060 -0.05741245425786568 -0.5703533125069306 0.1745080224159175 -0.5165525903192872 -0.1988022442610802 0.2064838991664314 -0.2990719714777134 1.533363636961419 -0.6576320108358813 0.2333180722625134 0.3688307179732732 0.5157786421419045 0.6546096840255525 -0.1430228772759329 1.759003192943524 0.2422159590997930 -0.4775533702184421 1.189750075917750 0.3051223887362897 0.7287162818403841 0.2407812015184906 1.078754723578209 -0.7456062355836107 0.1457913371215508 0.06813129869534830 0.3034245627143408 0.4560708892699929 -1.467812070657358 -0.8438081370295923 0.2074256553385510 -0.3436830343173846 -0.1123281020434224 
0.8320544315402355 1.154739125107479 0.8220788756287009 0.5591514960262118 1.163602985651587 -1.580615364408843 -1.064294476203485 0.5464549538320207 -2.067079146795552 -0.1201933545151092 0.3618922999480320 0.6349201107137856 0.2625507574306327 -0.8490656662796339 -0.1971029888772176 0.3473729741298624 1.083403926789949 -0.3603124542722228 -0.1986847000362124 0.5070906104760957 0.7609498414516884 -0.3717956611901408 0.6778892214699916 0.3364029683868285 -0.1109481510953608 0.5247224994996869 0.5600318254790797 0.9023695235759153 -0.3856607644379996 -0.2571500592572159 0.8272165936960220 -0.7063661714707344 1.467183228660392 
-0.1876372198958364 -0.4715478994138753 -0.7112901172044710 -0.09835046508531045 -0.2363271022649247 -1.030691074358553 -0.3022808270469238 -1.175099809191857 -0.9795501934583521 0.1576833739743968 0.1348637620641183 -0.06204209365235092 -0.2226022201410018 0.1957956794451129 1.021146825508242 -0.8913978456969551 0.6475669238736557 -0.5336219745348857 0.8353440851629432 0.9833625066475544 0.8124841550748890 0.04647891475174742 -0.7444539657255559 -0.3986041278956368 -0.5297896657051095 -0.001744067600155816 0.2733016677368558 -1.404973246366976 -0.9007085970126110 0.3248679563397097 0.2354613592051859 1.537559001844739 0.04378642847815714 
0.6591869414539545 0.1741509352511154 0.7101402742365079 -1.151897386870179 -1.039646042087612 1.227779793181713 -0.1702739557666988 0.9047619291328719 -0.8149859589302152 0.2388995607238925 0.06541419988667141 -0.4207614674168503 -1.145732434647957 1.480640168572579 -0.2022428312555817 -1.547925900849178 -1.556891179537144 -0.1860377937879617 -0.003222272958232155 -0.4716524424005396 -0.6240970977417455 -0.1737351110594394 0.07644115497998956 -1.226903241086002 -0.9095621595986564 0.4049713088727389 0.7087823851443318 1.421435814600086 -1.299765906432699 -0.4223298795661618 -0.006349321331659389 0.6028224780484124 0.5367575759556639 
0.09081766708147040 -1.167058676071881 -1.559338293808831 0.6539153435569720 -0.05709684638255480 0.01846714826254722 0.6481022476436257 0.6725857601272304 0.4436251126066317 -0.2787157750026366 -0.2838104131887789 0.5802715723162176 -0.2357587512210227 0.1592661148726457 -0.007494897602813782 1.209577913965116 -1.429865534449016 -0.1168205769102006 -0.3001682934303457 0.5730695826751385 -2.602047165495875 0.5802406227446330 -0.07533426000764333 1.070390806540942 -0.7652738555817823 -1.120069980660930 -0.9128936145815723 0.4328473128928016 0.6733175344311720 -0.4997097925417346 0.3642648984229320 -1.636826020294842 -0.03289878757236019 
-0.9715677215944912 0.6686744472399695 0.6656442192279779 0.001372139569794165 -1.320872995583042 1.342514913506038 -1.174001048345284 0.4973057101169248 -1.617452817515407 0.3740991758494924 0.3011942546796311 -0.3302772647482518 -0.1454917239478231 0.1154654136678904 -0.005204823508419439 -0.2858792533515123 -1.438249023027906 0.8184917073430195 -0.2388411630408709 0.01818508952625436 -0.9694811276379084 -0.4913036759451340 -0.6156353494435681 -0.6234361871132190 1.622906104916754 -1.448979913749522 -1.840067423995128 0.2232651628699699 -1.539930804166121 0.2717858716711009 -0.9188384818248397 -1.294039923579109 -0.4839720864143253 
1.043082632359281 -0.1405253926375327 0.3196514859031814 -0.6651068521640859 -0.1442468584059567 -0.4149933731099884 0.7124634915626893 -1.360981312783285 0.6667173990241679 2.055357829132979 0.04199700882313244 0.1385842926674241 0.2956365297238359 -0.6700273638530906 0.7166948018772635 1.769264854219302 1.631307517501504 -1.126699670897181 0.3236086934540366 -0.2041473517776753 -0.02237002259707215 0.002506438627435782 0.7673063004724326 1.128167368060777 1.124885196784627 -0.9615505897804792 1.372575037621419 0.007223048316426044 2.102805960874581 -0.02181318736601165 0.2080896865584474 0.4246007757052203 -0.2987800571922696 
-0.1296633639833059 0.1484549629879580 1.907736103862959 1.835614582707704 0.8192511316237662 0.5730235051067397 0.4024167466839513 0.3942976960680537 0.3349283501085723 0.5476213972758117 0.8167468731357966 1.175564871484411 -0.3463779384251105 0.3029565310131807 -0.3861817177562096 0.8552714021226759 1.373190008009608 0.1299752377182084 0.3091924652020759 -1.163730236888748 0.8398674874196504 0.2352927533637706 0.2095510513143840 -0.3966687760392376 0.3687640798349026 0.1980044865260947 -0.004156767512974557 0.7055806349540391 -0.8282842629200212 0.5423273023102606 -0.01834257533010281 -0.08647705314716250 -0.5872040487012126 
0.6205011975590890 -0.09464744685105356 0.7717970806367553 -0.8195361122708053 -0.7405370947079692 2.090373674527200 0.09256279455594210 -0.7017474171459389 -1.160958164134490 0.04946567345779691 0.1387128195363191 0.1294344604353133 -1.192730992835227 0.4224120581855329 -1.485405928798303 -0.9135605230788315 0.5388107186170630 -0.9861732096331464 0.5103107874664377 0.02954745374864115 0.3947602931565310 -0.04725920579938763 0.7358640817177864 0.4432803199996709 0.3232724825841271 -0.5029587039152319 -1.054594201715374 -1.026290640262173 1.037279967619244 0.5078626785751292 -0.5114759552074503 -1.193455723772328 1.113471777695941 
1.108096658779388 -0.5925293646205191 0.4712673460379123 0.9016272423500521 -0.6981403919195442 -0.3421374087337322 0.2437205903254119 0.8044972037577326 1.037445572354698 0.1146388771506899 0.03108659126755857 0.5341639854117722 0.09178293890114052 0.4132734671301729 -0.4889178451721744 0.6802064639114551 0.5445658574353924 -0.1246927633322769 -1.191289106292119 0.4465160349917590 0.7081201926892222 -1.274583775547645 0.6513067904760812 -1.787703984331599 1.931708086152188 0.7874248277982755 0.6489787544522059 0.08167738308025670 -0.1954942911921232 0.4426238945660739 -1.138237473966112 -0.6894214578807740 -0.4018027317075181 
-0.4218565773562458 0.3565790440332223 1.532444612825017 -1.180387330071679 -0.2293418621785302 -0.4078008407096527 -0.7705219349611239 1.381838071716034 -0.1049057330715561 0.7536565547201359 0.6248951150588694 0.2358586834683545 -0.3282225778483542 -0.6133370051699376 -0.1273211736840073 -0.1727980510886000 -0.1379422960214410 -0.3313836428559809 -0.5945494866196969 0.4377873786353933 1.305284420758613 1.152117315906016 -0.4924007931738728 -0.3142336841484414 -0.5879540799472788 0.8585111329245529 0.2360808029311237 -0.6649191966174592 1.329099941609765 -0.6420896332044432 0.8536509531819456 0.4617147418875641 -0.3700928871724577 
-0.1520325457493857 1.281355998328968 2.565970642229088 0.6568708132512782 0.7607426711708333 -0.08721336971683913 -1.504908083758034 -1.711447928071830 -0.02028564814941335 1.239664079402913 -0.7057412110343507 -0.5020787523325735 -1.033039286265527 0.2601158079759739 0.6435526494386302 0.04809108285741721 0.7802414216765974 0.4236054779158920 -0.01529788563277068 -1.329507743554773 -0.4629824459874014 1.087796363434186 0.5916706636719059 0.5451693228573254 0.03763236006845187 -1.046131416612752 -1.582594507158759 0.6213877427192560 1.257599761559516 0.5942783535627173 1.266994916843223 -0.5573949735768007 -1.208444716002056 
0.1195213061119701 -0.8849707805838988 1.377649456267327 0.4932595275427459 1.648883180293644 -1.054716213383917 0.9660984111541829 1.993809716931928 0.07725164567552209 -0.5367765978331414 -0.4503872040019828 -0.1891041787761869 0.03567630576224080 1.896291041088900 1.528492002727100 0.3144773413137577 0.3862757557368616 -0.1576434863373617 0.7915739804412750 0.2612754746328744 0.9486578719080245 1.476804193489731 0.02640072152110578 2.152042152275325 0.3749117321776369 0.3666456122197770 -1.214208895450777 0.8994325056575958 0.1172238121251977 0.7121225752311988 -0.4358133982762193 0.3068044647554780 -2.330651389152984 
0.3240695972571299 -0.7631007065992277 0.5665598150879316 0.4637899985991882 1.589646915081266 -1.336183503628812 0.6991446839736263 0.2297562401866062 0.5222150132579432 0.3675237067088512 -0.04862982112039324 0.5736860982246755 -0.8929940209434197 -1.354947475336326 -0.006794321633662229 -0.6957844168910773 -0.4049315114325486 -0.6521725237883056 0.001426131264413363 0.8421746863481670 0.4751619697973220 -1.028710897789428 -0.3188594858215403 -0.4025124689815570 -0.3200185747867308 -0.8774311365415917 0.7377737205179464 -0.3909837884625136 0.9432185809020874 0.3784770339578941 0.2082701090098353 0.002214371310914266 -0.6077498127169940 
-0.08434858027874254 -1.272545024588943 1.214441435475999 -1.965057440280468 -2.290384126291672 -0.3937605785626305 -0.7543785777101170 -0.8295330731904149 -1.979742615794567 -0.5106388273989650 0.1635537220944868 0.03737375751913242 -0.4572943026320976 -0.9314139090066041 -0.1894816272626788 -0.4926665481752446 0.07629094746539658 0.07432566638136599 -0.5549064278993998 -0.08404537057821276 0.6553522707307705 -0.5873279991948019 0.1674629606650860 -0.4281168345843905 -0.1143638738531169 -1.188990651233809 0.8173788992410760 0.1862557671826296 -1.800036340506406 0.3039831787831413 -1.537530794874882 -1.055918916777018 -0.1066093367318265 
-0.3348620411440701 0.3596580832887386 0.4622382529125695 -0.1242637284704817 0.4035804087608572 0.7607063816509623 0.8500131969125128 2.047811671407553 -0.7939775800786543 -1.041398564145832 0.3869902385591458 0.1913771884215549 0.06633325396460785 1.219146193559333 0.01843520381630408 -0.09068576558856671 0.02064837617393082 0.4659804309088047 0.4524568717505422 0.7789600504771652 0.2569876936183043 -0.05500169232484029 0.1860463992932553 -0.5137696801905464 0.5737570707510957 -1.270603458777235 0.5865392917217247 -0.6152081428068145 0.4277683771376464 -1.517082160691588 -0.9114099427182438 0.2097070467287294 -0.7372256986006431 
-0.4371362848468495 0.2938357114657780 1.195134100395691 -1.548835617958604 -0.9728587996545167 -0.6056227539840788 0.3618742671977127 1.694545846913026 0.4384424940875197 -0.3320636068985315 -0.5223524082209471 1.030611828251571 -0.2921428077717208 -0.3949065176781321 -1.029839874850215 -0.3061538194379423 -0.3290385022107869 1.349986984862826 0.2391764117570739 0.7642982335927786 1.107341252250740 -1.141668291569645 -1.713022094934438 0.4707342395793532 0.2498133334424547 0.2738457836722891 -1.096990247436898 0.3900287858129711 -0.1556188092463374 -0.01516369554354985 0.4597290968552927 0.4060319866600822 -0.4837775437727556 
0.8258050919479724 0.2991130728176922 -0.2859754919424802 0.3652015819296690 -1.135528339779732 -1.963168885319800 0.4271885790872932 -0.1299801465483107 1.185581102822330 0.2739632285572150 0.5442838605169665 0.1844520178142181 -0.1038611325774036 0.8656258933752158 1.355264360057350 -0.1856488316238674 0.2776112218322009 0.8309039593753281 0.4642570981563717 -0.4777697837774074 1.118293315558674 -0.09021296816510782 -1.460525979423884 -0.1424409607901397 -0.7062665838168317 1.968997446701717 -1.359914034454661 0.3473658425753059 1.261794585504912 1.260929416013015 0.9994696297592482 0.5519444782800057 -0.1412383839529743 
-0.2927603242980735 2.330423090467544 0.4815940478521288 -0.3197361083360594 -2.002804604932654 -0.2935657283818531 0.6639891803212297 0.1725187618135369 -0.4035237345806295 -0.6870240086451509 -0.3673661891152323 0.6620080878925974 -0.5523253762226003 -0.7951448058073464 1.963290431676779 0.2308535100594609 -0.5447017256095121 0.9314435778817223 0.2536356047073610 0.5848173413990944 -1.343987660069357 0.1250523362058144 -0.8101666803534863 0.8736336206503109 1.026280997150958 1.769746524357954 0.6029304302314866 -0.3079290285687827 0.9309319247641223 -0.02466474087198103 0.2506331506648437 0.3293474691539927 0.01694070237549285 
-0.4138801262010113 0.3338409570466072 -0.9014795150986286 -0.7395064748073914 -0.1210243936064217 0.4015105571614647 -0.8392361869308149 0.8391159293289362 0.7428342744985255 -0.9295549882568894 -0.8266363027606287 0.7042780710459751 -0.04739301627212018 0.05559795983822791 0.09296649736673859 0.3944245253446882 0.2658574824279626 -0.7530641676747083 0.8359544456167557 0.1659621352744318 -0.9822341677727586 0.4531918980319069 1.891828923681104 -0.3721253316921704 -0.3405449172934061 -0.6340420569700769 0.9087746141183988 -1.486855295317636 1.338383807634094 -0.1549912056938212 -0.3299297456642698 -0.01152404580281235 -0.3679354049085505 
-0.1250705870233719 1.482169753450272 1.003523426992158 -0.7124277892340667 0.1634469726652680 -2.072684376034514 0.4120366357044256 1.446844037724325 -0.7622230933416331 -0.5773365152176093 -0.09392330783838698 0.5590738739583309 0.6159344697807883 -2.012280052895976 0.2411260701266901 -0.03690193095798640 -0.4829101965832062 0.6524970986315866 0.6892519576778539 0.03962907593984411 1.326615121023031 3.085301186765445 0.7865188234024355 -1.273308481731828 -2.113957694878032 -1.463381683679884 0.4838232031541177 -1.013425090257593 -0.4589697909016504 -0.1981359675094703 1.122896004335352 -0.4989676863503058 -0.5068971611654843 
0.1896274922297885 0.3158979776890986 -1.183319014910065 -0.2643671469710019 -1.420818754449840 1.174343318211555 -0.4068578182282064 0.1577754218473198 1.309192600695613 0.7686012460616586 0.4597404871780579 -0.1052515107732042 -0.2128900511903055 0.7195915121727472 0.3931342170636280 1.048401200405576 -1.421179280250277 -0.5411960889676540 0.5866697698670449 -0.06409912552450567 -1.253343303529152 -0.4184025098384406 0.5217965983198459 0.4038938033489052 0.7375467296943993 -0.5139631953660627 -0.7970809392899220 0.6753854280403980 1.209770824842722 0.3697116381323913 -0.07772247558984241 0.9353754642022960 -0.5540715849754718 
0.1024610762751843 0.3386059863815791 2.752867393671460 -0.6633222102369835 -1.014189522325363 0.1753031065760365 -1.131160516374983 0.3107847785511987 2.496073404741373 -0.8783998046940669 0.1126609921191300 -0.1896171169144902 -0.3982180854650330 0.5672608386688294 -1.410169836780325 -0.2886523877025138 0.9033115849124314 -0.6637970923899541 0.3159571406599205 0.1892280352250641 0.003112743172624513 -0.2464620678058511 -0.1044918305691739 0.8063249126651247 -0.1762616271673317 0.04318120944862733 -0.04288228255503575 -0.5435176365194097 0.9272831040751208 0.4140553382507077 1.948583616156788 1.301251544251288 -0.8334743537033981 
0.2902373219334264 0.5609930955057180 0.7112169054627426 0.6572874107057100 -0.9995273199341126 -0.9222578426438932 1.186089632727547 0.9704945863110532 1.213119045631397 0.5141730614813022 1.473979084890880 1.656581136271915 -0.2209479907266133 1.667025649714818 -0.09615255017861798 0.9693516057963758 -1.330820286931529 0.1316313594813957 0.5670816417764349 0.03799653488558974 -0.2314166508537225 2.288675176028542 1.367062911089317 0.3349360561547932 0.1998462006638977 -0.4061752785515911 -0.2335039016547864 0.2273118604261725 0.4772717934236278 0.9246813177051825 0.3563653466196811 -0.2149609934247840 0.02521022716630963 
0.3905430284873450 0.2596343208249663 0.2983272643751010 0.9930800258417238 1.316853181546185 1.201067707126478 0.4631166719815018 -0.4871586533343913 0.1615541573592601 -0.2820995142771040 0.05520878586652236 0.1509887757819665 -0.08142541687801115 -0.1537032733020291 -0.5728375480465351 1.540827526983946 -0.9327551059215229 0.7142334525012286 -0.1503302276860112 -0.1869361929699801 -0.6113567854270517 -0.1240634200175557 0.1516453529063546 0.3376325919226772 1.016052357475649 0.8000189908498738 -0.1583677923352299 -0.2158375999342649 1.822034308519500 -0.1252670272813254 -0.3322674197876778 -2.212597687691761 -1.505482182841319 
0.3488694195208338 -8.653464935393096e-06 1.570847740557301 0.2643505599129882 -0.9955244603534977 0.2692294446410193 -0.05870049972413430 0.1181875554858211 0.6986172028885167 1.351356134405943 0.8676177839609146 0.6880420414986642 0.4223383732270596 0.5616897099679525 -0.1119279388953216 1.538637184669781 -1.697496866539870 -0.02450579220741535 -0.3248960939518710 -1.292409215381139 1.099780337826906 -0.8166566320968327 0.3678382211693491 -1.224470708615109 1.997522728090856 1.451159134693094 1.917561864075360 0.4798205227102627 0.02618975391106021 0.6242057973396824 0.3437119572833766 0.9725302104666983 -0.9539713683342746 
-0.1779915035389369 -0.05691892462270967 -1.422892470089580 -0.5495451807535090 -1.083769717811415 0.2670754077758751 2.178663742235722 -0.4409338353571638 0.4926026278010184 -0.1179753358415401 0.1939269234673927 0.2318965947734963 1.477314889581368 -1.058318493053866 -1.416241307524464 0.1542496465559825 0.8883490223037319 1.357086237814964 0.5696418809134715 0.5613416180446655 -0.3915452594957497 -0.07091240163189264 1.212342033437611 0.5170841612176743 0.6558591754756044 -0.1544987242531858 0.8830004960713668 -0.5708859587490921 -0.3557176076685205 -0.3593243143231338 1.286529876450847 -0.7790810958238438 -0.04669469324471547 
-1.076404645033509 0.3185269673290053 0.4290303334973724 -2.062180766076512 -0.6748772011910962 0.8064407531772759 -0.1721311769681855 -0.4526311606115754 0.4714638459318554 -0.9273024288175085 0.6684673956757223 -0.1323630043057415 0.04929861069552900 -1.722685626725324 1.395249471777948 0.05600368039431772 0.5514393871767059 -1.847053559314210 -0.4299902932579844 -0.09092490789767871 -1.412793174871228 0.2196284329207521 -0.9615764541014340 0.5858298296933460 -0.3592938856892175 0.1561414927642877 0.1498386849013560 -0.1357057665775540 1.167324175017064 -1.347568825370414 0.4026476298706545 1.917147735172957 0.9169707577100559 
0.03202667172238072 -0.001136848098976712 -0.9375701723749774 0.7882536714734251 -0.5880165600630409 0.4029629703626924 -0.9151055649503677 -0.7950869189296501 -0.9621995270633857 -0.5232303610397091 -0.04376781821347684 0.2483536544298532 -0.1037940668330321 0.09742323429210023 0.3512644542173276 -0.1330704534291421 1.275340053949935 -0.3035426651925699 -0.2910338764192944 0.3006998457109614 -1.800543966024692 0.1252370719938597 1.910409903194123 0.7949199092645489 0.8017486051555739 0.05378404240000833 -0.6382256323924070 0.5498745012515386 1.695259142961107 -0.9518581111116518 0.1354269059438543 0.3282696237691777 0.8745750516532543 
-0.2107960507601314 -0.1045692796059216 0.5115861538969205 0.2345506446049219 0.5635583281342725 -2.027346217180583 -0.5719452084676803 0.8244426903025577 0.2272337262612852 -0.4806336505189895 -0.1675040372149785 0.8343272378475153 0.2584615544108749 0.5851172059286415 -0.5190170101088079 0.2023022641923212 0.3839934510597244 -0.2612739351489274 1.258930223558694 0.6051838662072938 0.4774838312262797 -1.800052541851514 0.1092928808401528 -1.229245988807485 0.9330458788474331 0.9869302290090253 0.5084713704817863 0.3095307170671751 -0.1814556372509729 0.6121470984645397 -0.4555458270043337 -1.664115453397224 0.6788703253864762 
-0.1689869608818592 -0.9331282463113885 0.1762693771692187 0.4673376530757104 0.4851026456243871 0.1885929284275469 0.1799394233599357 1.256946195676759 -0.2458086330786168 -0.1080488338425657 0.1751905564910198 0.8320225486198110 0.04662315101583488 0.5902936054727647 -0.2518956422818427 0.6847825140332158 0.9289424837253499 0.06534028791232566 0.3074095230922783 -0.5155390339089174 -0.7567344509913769 0.07312401113365746 0.08827828067342196 0.1241803318762445 1.232984057878770 1.366365819301897 -1.265235199944039 -0.3927840749552256 1.057368816156661 1.030424449032911 0.8395622973025273 1.261976251146249 -1.024242406460662 
-0.4595360299285809 0.5881551297422423 -0.3434930079509094 -0.05246589910812417 0.1444658335747822 1.008535309978751 -0.5665331315890924 0.1890563885368842 -0.04276512638460951 1.191550937331685 -0.1364565399382997 0.7471969658287638 0.003448437945289175 0.5156267962218032 0.7889922441130680 0.3512711099138470 -1.205717638203569 -0.8343957662613843 -1.061840988925849 -0.2542361042586068 0.3183772596717438 -0.5535512130022793 1.150545814284073 -0.6656488821371109 -1.260035688546081 0.05587035111087102 -0.8554634111004050 -1.457402183361578 -0.3071992518895909 -0.4621639414641365 0.6872982762261687 -1.308418597285914 0.4796154590836945 
-0.1425796821509610 -2.178587733397083 -0.1510484276167002 1.051770363135417 0.8121024809992942 -0.8591953950140424 -0.3246637085898519 1.216200089162868 -0.6980039518242515 -1.201724789848677 -0.6399930731309447 0.7333381010152261 -0.4096504299228771 -2.586149833600854 0.03518482005004248 -0.5620281035908047 -0.4473278898294256 -0.09898736718189033 0.4083924111982179 0.1798823402004034 0.5036407468761530 -1.586827025369076 0.9382128612850675 0.2134210681668007 -0.06719139637440825 -0.7236781407053225 0.5749821514571317 -0.1140943320903135 0.7869322004562044 0.9551714669531730 0.7716498126127139 -0.8237168737668763 -0.3793181879464656 
-0.7196970308317108 1.265987759410012 0.3673945743662013 0.1059429147679064 1.483963070448300 -1.356748519264398 0.8056719402682574 -1.665431291187217 -0.3459275502992971 0.9004266227476699 0.2046104850425463 1.159663495698840 1.189366516185251 0.9401958888064746 -0.6838796000902875 0.7633448518753845 0.7234864477826125 0.6115101135238908 -0.4675644200277762 -0.6251881890832642 0.4932987803445355 -0.6702068543707854 1.240026337582271 1.298960011519208 -0.4373517127189820 -0.2961831866403926 -0.7068937871009314 0.1303744954336797 0.5496298245983937 0.3491142935258875 0.4609093603702611 0.9467163709159891 1.801217556949413 
-0.4797391226313424 1.292813376581178 -0.3905578169884443 1.433646309290008 -0.04281918493775083 -0.1420808720903045 1.106705386615803 -0.1177636658833060 -0.002023875247426171 -0.3056770551273031 0.3811135909236225 -0.01095037920044533 1.775541709871799 0.6294919848636034 1.692064182974809 -0.6873386078901746 0.6532597504898740 1.448513913337918 0.3343562152709468 -0.1811841960595198 -0.1147395027270116 0.8361003906581302 -0.9457822339396768 1.092965767975416 2.456225076092611 -1.332494853413855 0.3546394503755349 0.03864701101240645 0.9593859310739040 -1.091689250488275 0.2446763276846831 -0.5243703271642159 -1.070286816189814 
-0.1540653526901878 -0.6496738752539722 -0.4848356834340353 0.7621171324996532 0.5412647051127135 -0.5528781985562308 0.8825494787482235 0.3276551966969730 -0.2649920116751876 -1.022363808827672 0.3798495115867516 -0.2754874858457245 0.4001002295613167 0.4175657935153035 0.09186521424528774 -0.4328601216155882 -0.8147628610168620 0.5222387314768893 -0.2369660108140449 0.03270581517629873 -0.6409439615902305 -0.8404396368638934 -1.009304774493247 -0.6846204104344773 0.3941637146671914 0.4898107242888107 1.025908162655076 1.078014346381639 -1.496900524250503 -0.7929288241163508 0.3880641156418336 0.3261576405510989 1.140213680081971 
-0.4914311645314431 0.2501630693668374 -0.1479889829872640 -1.057786264689461 0.2176193047876087 0.6401548881579152 -0.8657139042971829 -1.097458421890752 -1.145053739583336 0.8796260601415743 -0.3367609076206631 0.4093120844827531 0.05690352546006157 0.2131891479027427 -0.5960028212235349 0.5645974835090263 -1.603430144117660 -0.2196332738624436 -0.2007297650505670 0.9261621353233856 2.364475568812045 -0.09925454143563443 0.1963296810421167 0.8367501873476406 -1.176865159501352 0.4639667868095040 -0.4151163164814721 0.5160348608876855 -0.1382025446467313 -0.9613172661320926 1.451792459067210 0.9986180532173923 0.8807530608491358 
-0.5652980369675417 0.7878541509776439 1.079650600714993 -0.8927236954236852 3.097199441124905 -0.05974891158092349 -0.5915707253246382 -0.3347961248312680 -1.061768259323241 -0.4859168094976320 -0.7115830679859504 0.7052170863092584 -0.5629063904264912 -1.585419181733721 0.1959022812173962 -0.2783501876089277 0.7939869688936085 0.4653463390763207 0.008500375293882586 -0.9233537828320293 2.197906095821228 0.5427758580090090 -0.2974551483298798 0.1518438889946671 0.2464491835705200 0.4720791639292651 1.973142729587935 0.4080923975247445 -0.4196594994050185 -0.6828995975227666 0.6417422640392509 0.4680645020432524 -0.8524678372303360 
0.9473268263393654 1.892433315597145 1.858641753576955 1.210533558824722 -0.3572863735051668 0.3718019798177060 0.7858703922157854 0.05576958344749200 -0.6070396247122395 -0.4655802721322114 0.8293691936823017 0.3095754448450089 1.341574794826233 0.8791976577020950 -0.4312581368038370 -0.3181568391289860 0.6127043854242573 -0.03834159060626063 0.7222451553206333 -1.472301532687133 -0.3822190711856891 1.084308628031846 1.312040765218530 -0.3102687181097376 0.4568539423243462 1.472311701678320 0.6293370374131324 0.2464468575192227 1.325381557306175 -0.7434643250349815 1.072631014867895 0.8795573837090868 1.366557035116413 
1.305237076761982 -1.301317677703504 -0.9031202273703861 0.3613274083309406 0.3006820911024374 -1.447791686186529 -0.5167479339659690 -0.7644991403538954 2.342127208582116 0.9978362073969205 0.7616687528450273 -0.09337147540972596 -0.5710207920479102 0.2908046990504900 0.1727026560847208 0.6104089803874686 -0.2592160012573511 0.3715425413131439 1.178083729289004 -0.2631932156967455 0.7462277223317790 1.556659348640742 0.2750883326602246 0.8931758915899608 -1.131255612094220 -1.247804617970664 0.8887490794123157 1.021134898743708 -0.6515174099582393 1.556008640831808 0.3989171294790514 -0.1635969267300769 -0.5056324662163616 
-0.7022359586366562 -0.4347956249700846 -1.286161493465741 -0.7149232918626901 1.073519290480581 -1.374701697741407 -0.6563195425603319 -0.3452062519038103 -1.545140586408596 -0.2728294355349352 0.1710101154163346 0.5318050010520646 -0.2324519113515054 -0.09787517895486782 -0.5503984057201843 1.154438818715914 0.1872341041872775 0.6501523860532796 -0.8446815754953437 0.1814230757512469 -0.2457672694276621 0.7700668412308002 1.073385926899376 0.8866561000343144 1.244746258657765 -0.6467522841026876 -1.124006104303327 -1.026597114685686 0.3770150169486955 0.4520249210091766 0.1586821574258608 -0.5284237041388024 -0.2011900371293910 
-0.4384900706408842 1.440764307279568 -0.8207771827224162 0.8419578360644627 1.558224694340090 -1.849980463644996 -0.4058160054975244 -0.8435895691486639 -0.9603000476377640 0.7787020201227276 -0.9883033755425596 -0.5373054970874698 0.4026952910316550 -0.8841561691939398 -0.7559531548766560 -1.115524552390642 0.1762392456675407 0.8476893525067776 0.4091834534349061 0.2448776917495513 -0.9477560017557063 -0.7556539313871243 -0.04959631932165015 -0.6803135929472309 0.007086045966460773 0.9300457584373123 0.4935178412308976 -0.5133678744121145 -0.02390883573291096 0.3881354292116234 1.870107264592715 0.2473731269413214 -0.6122010025717162 
-0.001976775663154490 -0.07115975451876028 0.9213558268971259 0.7321725256992232 -1.367416801050368 0.2980867501400784 0.3264072656367835 0.1854791762835643 1.395994554674872 0.7977798762970256 -0.1858006910901336 -0.5547201879741498 -0.06970641415252198 0.6044376658822170 0.1431567280043715 0.6603386995572242 1.316666128644439 -0.1071999453175706 -1.632614858124509 -0.5663094601531958 -0.7176976462689271 -0.9457620604393275 0.4368657387486360 0.07478031791223944 -1.135984091849223 -0.7672784788633376 0.6150411791309930 -0.3578064338373176 -1.553129717251196 -0.02309809597305877 -0.4585847481639599 -0.3689784464931825 0.2200378734321640 
-0.5472256555753394 0.6315599666328652 1.107057084356517 -0.6838536454428275 -0.1563311865027504 -0.01350665924214285 -0.4521596090493589 1.671797136889982 -1.346723129862815 0.8592667006544081 0.6868645473665002 0.4335464236708843 0.8744346281627886 0.06288872250698199 1.372613465919658 -0.3746447375361016 -0.7734223635360933 1.188986956895973 1.022534854685955 0.4827614772094016 1.363412990408297 0.1771430274267338 -1.034449003965556 0.6951547320605445 -0.3822580557575959 -0.3467590582614928 -1.226768834248893 0.9694359192609423 1.572125869468238 -0.6396780554458068 -1.077730463312976 0.8467810985440222 -0.2519344723022515 
-0.2567690081848235 1.155694955248664 1.996477858506140 -0.6227050162319708 -0.3886991649556576 -0.1844385114113128 0.3686995227432217 -0.9803358749606264 -0.7785417344953920 -0.4141320909655846 0.4378609733212628 -0.1900569904288758 0.9123300260733206 -0.4203089745721184 -0.8065924286489137 -0.2120206187978131 0.05608122388805493 0.05934627371215319 0.2469397243634246 0.02271743835713283 -1.461547237735217 1.446610582542994 0.8649482556625683 -0.5496803228482796 -0.4631239627273520 -1.505635798412736 -0.05838323059780833 -0.4246100442046122 -0.8506806734400076 0.9920462191378707 -1.338192695571892 -1.410779534195809 0.4052525666228884 
0.1427559839244570 0.1653021041560682 1.307777266398158 0.2913057816030547 -1.313975131555284 -0.01011192169413578 0.9459988090338142 0.3190070962912275 -1.360978771738654 0.2764138802118399 -0.06407068309950227 -0.4317081972333211 -0.1966674035838379 -0.1945926268039986 1.003645555123991 -0.4761439780846242 0.2933702885084052 -1.003116521970721 -0.5034527450343613 0.5590179886243270 1.447455306447976 -0.4060294700059188 -0.1800609168084395 -0.4245220806117840 0.4414308649160254 -1.024331383633092 0.1807216989657067 0.1132661860053717 -0.8978040140207462 -1.094678528619915 -1.089325741714824 -0.9435869315275953 -0.1403771715419914 
0.1069843388123214 -1.071629084665060 0.1343129337540882 0.4170891038469693 -2.838449105852516 0.7183834496076396 -0.05546897675321873 0.2660486383258580 -2.071923741536657 0.6901547012150708 -0.2385338358086758 -0.5363628013004563 0.5029914101432138 0.6353520990739672 -0.8333932707093858 -0.5883313830362971 -1.121109308842767 1.144324620118491 0.3134686844221769 0.02965123480195106 0.1239443203763497 1.295433982464558 0.2760835479955582 -0.2124110372176647 0.7925784674464386 -0.2458743071238068 0.6364552945338828 0.7136355669796478 1.171106814349915 -0.4045589531783981 -1.357011628097617 -0.2995988779604800 0.1399554485443664 
0.8360046223567983 -0.7610121581137923 0.5691102784555904 -0.5868947750594219 -0.7173192284546827 1.357564956461034 -0.1700317682071829 0.3197746486350253 -1.047460896888228 -0.2807770826658140 0.8157006151854134 -0.3128219576651909 0.9000057276676817 -0.1875955269353358 1.126426699684301 -0.3021709697200377 1.017915033176001 0.2377736534387953 0.5290929292338297 -0.4867186867373378 -0.9173001814251633 -2.225436995203752 0.9454389450477876 1.845702471689555 0.6423894172825610 -0.3340613124831828 0.3781347943546231 0.3368436164326701 1.290756844562847 -1.084520405604775 0.6180652935862326 -0.3687607377232939 -0.7529260911635779 
-0.004454603340979746 -0.05635451036941144 -0.4578704029335683 0.06051998135782324 -0.2633688411574054 -0.4151332929709816 -0.8450194276235397 0.1422614327584534 -0.6615076730870475 0.4004867686318754 -0.3815086324255261 -0.1503499724367704 -0.8606605202300730 0.5618273344318043 -1.361011608043864 0.1027418276455787 -0.3833058397278791 0.4454077134997202 -0.1656916721422161 -0.3336405932204223 -1.070555325821871 -2.214407717131483 0.8557028688327619 -1.134626396132655 -0.7239542450863203 0.5293949043189285 -0.4123312655049713 0.5503729257722189 0.2317263420101880 1.125038080139446 0.7679175054092723 -0.1796096568812028 -0.2391937130693617 
-1.877461011548577 -1.322583378716649 -0.6966446171677401 0.2880525328550235 1.731441356933098 1.458212453121851 -1.133510994048934 0.5507911983461059 -0.5608621257851834 -0.3024228944265081 -0.6371660013422574 -0.5261905853412927 0.1944460150134013 -0.1628983601940886 -1.475990767895568 -0.7994250430918652 0.3068732777616057 -0.4871386341127626 -1.223431854248492 -0.4851877343687818 1.608830307319378 -0.5152119823246148 -0.8347551995139680 -0.1472430630158446 -0.7684478208828098 -0.06592557506025183 -1.285767998820547 0.1487473726334183 0.3474674723312947 0.01106878655261594 -0.2791121276867132 0.6086694779127015 0.02159779383369444 
-1.578664922479029 -0.3590636557324713 -0.3644899088875774 -0.3029771406866971 -0.8998352760161389 -0.3952406193426316 -0.2024321401588711 0.8980374520274218 -2.123219764215845 -0.5212912276467668 -0.08984362551936426 -0.5014819245035259 -0.4605081869192423 -0.04820924236956927 -1.162472870242237 -0.7479961239880365 0.5107205785548548 0.3849935425608506 0.03685200849446293 0.1757376388692644 -0.6697118413812371 1.137624495915028 -1.570129498692720 0.02442279926315680 -0.8392010607190475 -1.547670317997043 -0.3853369037153075 -1.048424240282372 -0.4223534671350214 0.9939344146796171 -0.7232104204037019 -0.4105747643911929 -0.8312575727542928 
0.4469836953199837 0.9149763340310235 -1.310510403392790 -0.6597543877550399 -0.1386575483026171 0.3867989833176700 -0.5059679898160322 -0.5037329598780215 -0.2310393719754582 0.5080215369276440 -0.1793009938066653 0.1801845345550976 -0.09186391578714578 1.068540364183476 -0.1920542038374483 -0.2092789357191480 0.4531372002022513 0.3713632992701657 -0.6802387624773498 -0.5426868841741757 -0.09649634791943887 0.3003794193860080 0.5483448517569576 -2.864721693198043 -0.6071712249234494 0.5152147521802238 -0.7317226136661215 1.219519982474417 -0.6965948823575211 -0.1532287627391138 0.1142873582428402 0.6591671476796752 0.3768752007059631 
0.2089034652491780 1.216409156216272 0.6472381509120387 -1.172086915725161 -0.3577563061668914 -0.6566449283545037 0.2801292112729625 -0.5735206072368169 2.001441486946037 -1.554951081807064 -0.5817720228563780 -0.2606264349796227 -0.1027159978889223 -0.3866020473957417 -1.270750598352821 0.5109936208043563 -0.2029716208602090 0.1877521040142661 -0.5198471557615683 0.1676078307164198 0.08095426747938286 0.4281426121211314 0.2777031853131938 0.06945776635153902 0.4373484599717304 -0.6728831928579344 -1.577081210425437 -0.1816975773561209 -0.08611647758681606 -0.6793515338971481 -0.1594592342460290 -0.03207083881591259 0.2408575673346740 
-0.09751577971383203 0.8762102842316759 -0.4672078116708905 -0.4279505776473222 -0.3171050876031473 -0.4854101341179003 0.8229117982717428 -0.08649559081868285 -0.06969206932736066 -0.8568555273197039 0.3530430578541770 0.2804610512677123 0.4845332907257641 0.9151951066144886 0.7470568002993583 -0.5430843621023351 0.2718029469605406 -0.9252404049032968 -0.2933650974433221 -0.007346838190703003 -0.7956728011275140 -0.6874118318377939 0.4947213891839796 -1.543735922758160 -0.02546784140535841 -1.089987958589137 0.8451478662182422 1.384832364228542 1.753053528852508 0.2543702082485956 0.05462857942789913 -1.053028238625192 -0.4564488651168615 
0.06086720106452273 -0.7846140296775195 -2.228324949561086 -0.9145705304206895 1.681934653801473 -1.124516761913711 -0.8516859190824470 0.1367979149285977 1.892485404083479 0.6132661799188346 0.8682421493809369 0.1143935710730652 1.471747842284578 -0.9368033155580460 -0.2181311083543506 0.6861156514637718 -0.2388065778149133 0.3029697036836186 0.5823375296481795 -0.03309065253113916 -0.7548189902868734 0.8383091498695420 0.5545638916572142 -0.6704217655926326 0.3832056124452189 1.097620704369019 0.5970278586936748 0.3782105077580579 0.1642459210676070 0.3366250570312984 -1.574458852696279 0.7222281906036799 -0.7246125894653453 
0.3717933973573631 -0.8595628328725425 0.6113733806438899 -1.144466296820961 -0.8248836282666225 -0.1637498923700203 -0.1611841590986910 -0.2149260570933228 -2.146072193817725 -0.1849819696619630 -0.3706855699634349 -0.09066160809531079 0.2427646087600306 -1.115089757576002 -0.5969078452682022 -1.403428121624271 1.569252775143794 0.3831519377198812 -0.1572886032230428 0.5252975870025242 0.04087221051952164 0.4703118425182450 -0.05943563155239338 0.3184918490371274 -0.9693508747211511 -0.4834064215470701 0.3707219737706485 -1.752490254350381 -1.939825663252555 0.8346402348642694 -0.7910198957829944 -1.113987074106560 0.8257472555890947 
