solver_type L2R_LR
nr_class 3
label 0 1 2
nr_feature 564
bias 0.000000000000000
w
0.5192283472425997 0.2954993347817185 -0.6971481094768565 
0.3463830994937519 -0.6948132574373637 0.7578644110653263 
-0.05327643765284384 0.3461441166435768 -0.3459736026442134 
0.7969597876693262 -1.040817928211565 0.08837947109681910 
0.3727327338837485 -0.8857757501419380 0.3548212040920328 
-0.05914852166228807 -0.4725042685052610 0.4158429883021495 
-0.5426375738263647 0.3738761115162101 -0.01766899872312019 
1.117052158381133 -0.6407911099698245 -0.3129296662381674 
0.2977838126795618 -0.3844928274524462 0.09730840254565858 
0.2499779779368063 -0.3815239958127193 0.2321046627132143 
0.2880855905436883 -0.7146160662191344 0.4926359938759978 
0.1602411851705723 0.04183011635365318 -0.1722206456394005 
0.01437662652459657 0.3033607495346407 -0.3465949226393057 
-0.7752958685213268 -0.1574503660087401 0.8343425210794916 
-0.7950379877247544 0.9260161014470206 -0.5943988133153745 
-0.1279330434362938 -0.1543963499418775 0.3501503043391643 
-0.1155707020072339 0.01883601348272842 0.2007029288794807 
0.6557476261239675 -0.4718382145961288 0.04252768418139913 
0.04217962685361613 0.4214290684052482 -0.3958254779799862 
0.2130003386646484 -0.6220598821114421 0.3331092060112378 
0.2626300626342173 -0.02154817598286136 -0.09701184599985709 
-0.02456126682272948 0.1375507927665805 0.1213153774054996 
0.4592048753037993 -0.3736410531708112 0.1674134664683526 
0.7447898091804415 -0.2861231580762937 0.01164809832551552 
1.263501360406620 -1.562607741521345 0.6840745450050280 
0.3799154115594459 -0.03615747879621289 0.03016441847700732 
-0.1861490082944554 0.1399808964669337 0.3127423097182100 
0.4801771836913743 -0.4101404333671451 -0.001949053763515639 
0.2101582714617249 -0.04835948671227575 0.002282786019413480 
1.158645749264971 -1.636067898019766 0.5142147942348424 
0.5674838023492861 -0.2442649320372197 -0.09423248942909618 
-0.7185407519334945 -0.01979228171674773 0.7752614598276043 
0.5883546045584032 -0.2669010453994067 -0.04046908424151927 
0.2636388110234629 -0.2822166215672936 0.3862379335208368 
-0.2700973298552575 0.4730656860089180 -0.06816779352604373 
0.5078342553178109 -0.8286626777988458 0.3749854291813975 
0.7009098793932443 -0.01678641064525464 -0.5003811414476259 
-0.1627180684790471 1.028013641423888 -0.8979512346504183 
-0.4540362221655357 0.05128353935314769 0.4855074713801237 
-1.095312472838603 1.539529005178217 -0.4018009899818558 
-0.7569805359003436 0.6177095313681218 -0.1427387979326525 
0.4353910033243923 -0.01220320046715603 -0.4120826983533835 
0.03723030344905046 -0.1480233525713886 0.2172187777244317 
0.7357036302068850 -0.9793205102967578 0.4416439090995165 
0.4008865136729184 -0.09922003382385455 -0.2148727511276666 
-0.3675775242845348 0.7229761007817861 -0.6110057322115810 
0.008297610825524653 0.3729230136915426 -0.7221403585400856 
-0.9947665322355062 0.9860205679686300 -0.3955546133510174 
0.6504065872647495 -0.3968670908516048 -0.03082090289820867 
0.6330658345675806 -0.6670244050016059 0.03610928594479174 
-0.3116677975994389 0.6620209554629464 -0.4914247011651596 
0.1598555162405483 -0.2243782223083611 -0.008881857807352535 
-0.09934367477009210 0.4156461713576923 -0.6544166117178349 
-0.01892354110359332 0.04179914305326481 -0.2145548242532238 
-0.2448994677928665 0.3671263946711240 -0.1936761343848520 
-0.9036440551739058 -0.02073667799751555 0.8296815879792496 
0.4351588929505312 -0.6734051180943897 0.6250828173547456 
-0.4526895960851750 0.6989214618344102 -0.3936351481299125 
-0.2667676627418250 0.4689236274700140 -0.2716608871920790 
0.1599074786097864 0.4826723940066519 -0.8453961383460649 
-0.1887114865472513 0.08674369724004992 0.1062923300739436 
0.4062905428367679 -0.6107607667788583 0.4603841374885734 
-0.3421945686076971 0.2864542021435359 0.05024905463193670 
-0.5596094615144580 0.5143492717703879 -0.08178809258294796 
0.3201211516626444 -0.2676716681200554 0.1024618367657597 
-0.1656451950780944 0.1016245192746002 -0.06849498974512042 
-0.3396901288327716 0.1667980404314450 0.3217149749849752 
0.9241720634938470 -0.9988709223764954 0.5791221329870456 
0.4724148290830466 -0.7745222206726391 0.5932772597242628 
0.2605992227050895 -0.3989076450775105 0.3254520089738927 
0.03557339815644562 -0.7763300565915154 0.6492828620097213 
-0.7894939219729412 0.6741043075817015 -0.1327938575041484 
0.9494042529757390 -0.8154190515584139 0.5768203399924096 
-1.085699330033290 1.067912315111920 -0.6090283252004110 
-0.06310039605701620 0.3560086000675610 -0.1352637537661078 
0.2666460962693564 0.3511772747348121 -0.06181502699808512 
0.6543287016112902 -0.3533225997062728 0.1997946497166454 
0.3145780479410624 -0.2438113792547591 0.1930206648752670 
-0.5448745037650026 0.4481088383502737 0.04588663183570967 
-0.3913836004763004 0.1731795766530988 0.2378821006482362 
0.04006689333108227 0.08053733497694116 -0.1591413810401543 
0.1608572478476818 -0.2411881167657354 0.2099850714030999 
0.4120996834821538 -0.2996200495631182 -0.05718385098519918 
-0.5919950354478287 0.5999702265810296 0.1290109297180668 
-1.010981477905145 0.5634232092775591 0.1503958615290494 
0.7225315126011967 -0.8724900134548055 0.2836025384056647 
0.7689049934221449 -0.7916294022044457 0.1957189333073035 
0.06620354147781154 -0.07515682529378905 0.05995290096905404 
0.5051966861307517 -0.4229752073877598 0.08909121022761657 
0.4150331882223293 -0.3694150965824193 -0.1732214141771370 
0.2280687718349263 -0.3564883272811532 0.4143578495764370 
-1.019774871151053 0.5823176407307229 0.02076982084384060 
0.09871235723201414 0.1310193219159246 -0.2613933433531026 
0.1874448320890998 -0.1309166975046089 -0.1381298524006235 
0.2904996283743114 -0.3529878394648896 0.2735524662342827 
0.3406378693704422 0.1380758600035743 -0.6457134757668872 
0.1278992476839656 0.1527415304254203 -0.6264566326632894 
0.08871238548026253 -0.3170251140492735 0.3764625321756311 
-0.8479179863219770 0.6362726384083077 -0.1624909271504878 
0.3474344119917638 -0.9000782678914763 0.7288845679193541 
0.1464802935958653 0.4303356899642891 -0.6520750903092528 
0.7184206187723982 -1.097563483696064 0.8796931984049976 
0.1195858615020074 0.08872493708282962 -0.2668154467620328 
0.9750256773238931 -0.9219666768842419 -0.1236383179940511 
-0.09726652161272756 -0.3698806982657034 0.1859180836308337 
0.2141129728560135 -0.6229342052057845 0.3107857274413874 
-0.7874725724492980 0.5302191981887111 0.1074139171557718 
0.7980603680542927 -0.2944160508292764 -0.4155680987123436 
0.02648741165478896 -0.2882686545092303 0.1935237144455281 
0.4780816875938496 -0.6806439008931877 0.3435091989913158 
0.4033635067151574 -0.9382750047743149 0.5274707818400077 
0.1646742015690940 -0.1990580760890038 0.09162198949702334 
0.2496531745256316 0.4196658431409283 -0.6217773513576970 
-0.6672909106561575 -0.2881351857968390 0.8461929823079644 
-0.7145132474043371 1.160999614800421 -0.8979354863273011 
0.2750501151997792 -0.5366376526960005 0.4682992055566208 
0.02387765498770311 0.2095834455840175 -0.09998043175737528 
0.3881696151106253 0.1437138408413555 -0.2220319921496504 
0.05621209453315657 0.5768852110655943 -0.4560440369751174 
0.3037850304107463 -0.9644350368185584 0.5714249429560798 
0.5058158710744938 -0.1576236781715474 -0.1211944363134208 
-0.05373294468358628 -0.05104785452881467 0.3159882969122190 
0.5520130531157892 -0.4994738238324560 0.2382678002524519 
0.4008940345358703 -0.05177039148063675 0.05142653936958387 
1.020236032337957 -1.798696027679427 1.081245359641327 
0.7013228917319800 0.06369272646049270 -0.3049156035473840 
-0.4777225821732017 0.5508644432119756 0.1142621557891830 
0.2126542602564387 -0.2876513577883115 0.1228568212644401 
0.2051676816537846 0.2961807013339519 -0.2645998809696095 
1.129995031838320 -1.449956027917948 0.3893471778240699 
0.1078892213374909 -0.06390767773699622 0.1048483212013390 
-0.9670715888808380 0.01733004950172756 0.9162688853318880 
0.6570383498690843 -0.3428555459150675 -0.04712089650310708 
0.3470727119312497 -0.2574817217254785 0.3085753074156547 
-0.5203003167657576 0.1611438789211032 0.3283422298660726 
0.1469745248975609 -0.7164134864708310 0.5953130501669208 
0.6079787988846070 0.09907831549145518 -0.5123097526264869 
-0.2652169484550184 1.500251956773526 -1.209109893834263 
-0.5238501832078765 0.05215253594920090 0.4425983246588640 
-0.8334856590264497 1.290141941922515 -0.3907734828178713 
-0.7178031283202043 0.6432850599803427 -0.1940140612304653 
0.2777123758443967 0.5044212320602665 -0.7588458448216945 
0.2963685425150675 -0.6001981777565557 0.5204985968578025 
1.179830917307727 -1.339097759773199 0.4487152851797205 
0.1903510959854553 0.1348534134862179 -0.2844419531091086 
-0.2872180428946737 0.2700010137482234 -0.1961573408151255 
-0.1776794498078641 0.5688181911161342 -0.7923639998727812 
-1.064726680784659 1.101486853763436 -0.5695706494394270 
0.3889374679684300 0.08869114271048845 -0.3210153442299761 
0.6669870537023166 -0.7898558077410540 0.1737150313190108 
-0.2566089598189985 0.2516606064196751 -0.1071230181422419 
-0.1525605579016347 0.1348785899582410 -0.1635086916518742 
-0.1103393509988355 0.5811782798326942 -0.6806948840724825 
0.4358795712254693 -0.2181287159382657 -0.3314786690708657 
-0.5712329222122890 0.8729262752140399 -0.4855610424338551 
-1.003636289667467 -0.3021029949764629 1.082130836368972 
0.7186124260779774 -1.119823845386639 0.8976587267723779 
-0.5317664661915269 0.9238229220734818 -0.5481975340691075 
-0.5131154893672880 0.5934101691018439 -0.2586074374750488 
-0.1608747792394247 1.141806103248208 -1.255887493469529 
-0.01107928152839274 -0.1615844610190797 0.1867612057726078 
0.05118007322269244 -0.3207368620096820 0.4041091854307954 
-0.1105703519774179 0.06159300901448314 0.03075219284399820 
-0.4954559708936963 0.5178163747824783 -0.07888920271000029 
0.2525549837300750 -0.2725010622029310 0.09166835160387392 
-0.09664429764434960 0.4113874962298412 -0.3792029168075436 
0.1905789768274813 -0.4407838009075923 0.4725410844674733 
1.272068068166975 -0.9078901628758071 0.2782962048381353 
0.9923060845290015 -1.147658727320427 0.6138541896857599 
0.2633616981808925 -0.5570678658388450 0.3963487616120343 
0.1674182646816748 -0.9955178283081894 0.7893296456870743 
-1.129134047950982 0.8232042765433503 -0.01588282152801876 
0.6760060680821076 -0.7151253715368403 0.7275477232665342 
-1.309368661132134 1.370865301748245 -0.7711670435136255 
0.3602801810421547 -0.05494810319366139 -0.08206767607278012 
0.6067834064509083 -0.08048191936522295 0.2259346921286785 
0.6504290714009462 -0.7328278708200499 0.5976422125475922 
0.7821665816065530 -0.8599271320543382 0.4283468958033326 
-0.3577777253328560 0.002216156340744110 0.3995014495248397 
-0.3493915591945196 0.2126419984563746 0.1204146045793141 
-0.1910750036392444 0.4737554178847350 -0.3189987509866220 
0.1094007190155244 -0.03156673654697169 0.1423339603287032 
0.2432826898902314 -0.5963656013302269 0.4146055031311665 
-0.9479242004541907 0.7502467785550477 0.2330271996589636 
-0.8092948370401146 0.3990714821779778 0.06568703861709245 
0.7371430137945245 -0.7515100232062375 0.1749170172268369 
0.5575934371905424 -0.5146700722529776 0.05425132288018070 
0.1658400440169927 -0.07988801421802148 -0.04661925741598418 
0.2805853637355280 -0.3894218148486123 0.1763276665505767 
0.2140625617015548 -0.4398831954676684 -0.04244158581449293 
0.05926656547817390 -0.3412071432958321 0.5516464496185213 
-1.604148806989479 1.007975040964936 -0.09859985049710590 
0.2022021973757686 -0.1179857571015169 -0.1186846893801386 
0.5573230070658934 -0.4150080104017591 -0.1700793424092265 
0.5445049703128197 -0.7738667349335010 0.4646563296142579 
0.3359170093534759 0.4984348957166788 -0.9894655371002530 
0.4446666472834262 -0.01639454525874712 -0.6427868407734797 
0.8831506804051433 -1.192812226781129 0.5321381018039080 
-0.5696569624396941 0.5447170041572093 -0.2600593464477833 
0.4656826429885461 -1.149528340143050 0.9536810548749923 
-2.712731765902298 1.924562981088725 -3.023725356553345 
0.1107028192466872 0.0003458072596907030 -0.06031243046662773 
0.5117458266711850 -0.7998072998502592 0.6042595182027817 
0.6891586855287551 -0.5277285062798612 -0.1349098558792068 
0.3330049351606975 -0.5150481200907274 0.3648555820712713 
0.4492541192526217 -0.5199131546351153 0.1927479135643127 
-0.1836075858276449 0.05338082576365599 -0.08234742097171356 
0.1338986899951876 0.01324689436467788 -0.1892843973716570 
0.01656013492303184 0.04206161085398917 -0.05037016287878243 
-0.04243406071655952 -0.02082791168900048 0.02762007192171635 
0.07787171852502094 -0.2333316696842437 0.2740380814800749 
0.2003141770904067 -0.2729612701656369 0.1548209772742855 
-0.07770262161996826 -0.1831164472029874 0.1900797629688543 
0.5532084818202774 -0.5141390160549075 0.1920398926546688 
-0.06629319225818602 -0.01608878867792759 0.1733242601293598 
0.1213710187983951 0.06028999723083799 -0.2389083363123969 
-0.4689611590718951 0.1722616778320061 0.3505096542386155 
0.1349745039935369 0.1280800288819579 -0.001009459817958934 
0.8364053203180656 -0.3603759654360882 0.1194505949219897 
0.4999496760040546 -0.07438472808470195 -0.05835425039924591 
0.2996384059391821 -0.4923092082843320 0.2460957646422542 
0.1333770414675987 0.05631436780819122 -0.2474589301817485 
0.3150725950140783 -0.08421308821849188 0.03544190287613259 
0.3510720294869731 -0.1400641364466983 0.1288673610473338 
0.9097744828270291 -0.6866381678516212 0.1416264651062109 
0.4423917548358168 -0.1314683773961359 -0.09180951592644887 
0.05111296979185220 -0.2637847804231639 0.2174490012374330 
-0.2878406230058435 0.4833386296892481 -0.1542133603942781 
0.3334904072166026 0.02600819069778340 -0.2752431802721034 
0.1572793759287213 0.2238545344661218 -0.3397697543250171 
0.1970668049501725 -0.4506702364803730 0.07634214712408206 
0.3519703132450914 -0.5378730517884208 0.2992255683388175 
0.4222336830140019 -0.2521858682229825 0.2756740715967308 
0.1780019238723678 -0.2710083985742021 0.2154080486230221 
0.4697226409908210 0.1197977377923108 -0.1708451746418185 
-0.06926386716967490 0.06328893160409974 0.01360861837191678 
0.4673436331037885 -0.1471987623603852 -0.1333059253085782 
0.2640537477373643 0.03885895461978928 -0.3884906729426738 
0.3233030020413242 0.1922474057159589 -0.2115726385862774 
-0.5164923268446259 0.4833448652402717 0.2206260513591751 
-0.2864332632913528 0.3725601154389054 -0.1410454508564422 
-0.1462289140120696 0.2388829634140658 0.003800640163924540 
-0.01269576461291806 0.4116881691617410 -0.5214613415198521 
-0.05948188953261020 -0.1486686784906627 0.06448932715945978 
0.5185859757873498 -0.5199880846787570 0.2845952943750776 
0.009462865591378135 -0.04886338159144274 -0.1495494124507923 
0.4331251364857709 -0.4388022183265395 0.1115265467744341 
-0.1338806006749927 -0.1854930218922843 -0.02718077640126609 
-0.2557630694568016 -0.2301888980225926 0.3345484720856259 
0.2300337405001727 -0.3058739424439103 -0.01428376223997699 
-0.1042599798925685 0.4104192452651506 -0.2573369495851743 
-0.4800216016201477 0.2726533420608602 -0.3484861770820217 
0.05370370428497904 0.2533378543727169 -0.2753706614398547 
-0.1743085284982680 -0.005265610402673704 -0.4236735114655764 
-0.1172979271685207 0.2118670442331241 -0.3450546318261313 
0.03376100003016842 0.3052371221179820 -0.2646010090257979 
0.2524015582866784 -0.3540910920352776 0.4018146480063910 
0.3076855135134925 -0.5309909094659968 0.4322386298483642 
-0.1509588268295656 0.3769468598563724 -0.2797275152538673 
0.1438923328443259 0.3277089557727598 -0.1770937910968547 
-0.2109394771672492 0.1035291778288522 -0.2036334712928761 
-0.1686919946701285 0.3240990649961825 -0.2756285565227044 
0.3199401556060198 -0.2547063168258776 0.009993906830418255 
-0.3859126032196870 0.1727265548647330 -0.1861421037056524 
-0.3087160632454951 0.2011171139391539 -0.07379701095032223 
0.4282463195409424 -0.3739417828200308 0.1283495526303174 
-0.1834118396032561 0.1303007796676848 0.1492372927086242 
-0.2513594911339348 0.2719046832175488 -0.08513012985533061 
0.08969523237140378 0.05876906731148618 -0.07336249597080981 
-0.3820233318087907 0.06443448659920763 0.05622697478193953 
0.09879165317717642 0.07435352510369256 -0.05170050117025232 
0.2091755291786519 -0.1752962454872983 0.2458679670623471 
0.2398407562660416 -0.3052445037150293 0.4198616030860202 
0.09147572811439404 0.1999899842434981 -0.2221215436763674 
0.4102474079321642 -0.5963858211665711 0.4915780147774809 
-0.2382805323403742 0.3572588133712409 -0.3191709362191132 
-0.3586681040837565 0.6387379370450692 -0.5722633352789925 
0.4456961546201255 -0.2507099778371290 -0.1120406254552903 
0.5637457963294069 -0.6052578207445940 0.2666204395654244 
-0.7267157763017548 0.5864849128141542 -0.2739158207566307 
-0.4214654424892519 0.1614207442943436 0.03102597430557031 
0.1697143006927945 -0.2476323780643114 0.07135119455259778 
-0.5596834927414899 0.8672791759620353 -0.3744591467629430 
0.4717642100921691 -0.4967067159906621 0.1150354311968691 
0.5732309607839534 -0.03938100373311490 -0.2015939132498364 
-0.03579497168590882 0.04339009334725941 -0.1314944542295829 
-0.3113798407804025 0.0009445663686791297 0.1781136494558046 
-0.01987161754078670 -0.006132456377232783 0.1359702270906197 
0.2433735906431718 0.03097187418689345 -0.2000174647746861 
-0.01564006500120163 0.3391972269302199 -0.5832021983902290 
-0.09653361257992565 0.1208359269417433 -0.2109765700092612 
-0.1435204850032064 0.04001348306353529 0.2449164324839857 
0.4238142354242914 -0.2620592881686014 0.05916820442286368 
-0.01337964667090516 -0.2024270600397366 0.05083008105484518 
0.3375046099772050 -0.4112092621500258 0.1322206691832685 
0.2427295418170824 -0.3707886336535385 0.2848810535972032 
0.1623257223320917 -0.2255600361028325 0.2729100706404186 
0.5828985045402280 -0.3597756013329215 -0.1231843052051752 
-0.5283358639320282 0.2764832026911536 0.2010383341792303 
-0.2207265912083432 0.08496511024087422 -0.04029778162776533 
0.2314302914057385 0.03840174617844142 -0.2671880912187034 
0.07623095852253824 -0.3550188813344412 0.1893711020665113 
0.2402269428753056 -0.02676297786989266 -0.1329955522404998 
-0.1010050086556581 0.2845514971260756 -0.1487962288405295 
0.08108260364403663 0.2149743273083283 -0.4440672511905838 
0.2350045615799327 -0.09284305279807259 -0.2463381803423689 
-0.3394341469449019 0.2584271754742464 -0.1659220788560308 
-0.2511019552869594 0.1873697739185297 0.1157522636584003 
-0.01505546147667960 -0.1168794766765457 0.1631471210575917 
0.3788489633803192 -0.1759981214922059 -0.2302376370081228 
0.06828651203461568 -0.3796920395217293 0.3824457182937031 
-0.3266210395340100 0.3125930797322303 -0.1606977228656492 
-0.2666685069310896 0.2629202198602753 -0.03805158471217754 
0.05588282341167822 0.2930944880501090 -0.2194805138390309 
0.1401068240014837 -0.3425947652403828 0.2684877992446404 
-0.02590744745593904 -0.08711482065972523 0.03765947555965119 
0.01238450905065331 0.05615191278381426 -0.02409927389635008 
-0.2459049582294665 0.3375678753439216 -0.1814487099523706 
0.03325884686889956 0.1289451230008262 -0.2136567989011413 
-0.04499258778075813 0.3304274080891482 -0.3281178757256386 
0.1770826281828918 -0.5433742654482264 0.3635565080160735 
-0.01420559416061632 -0.3463858985002020 0.3155884201891647 
-0.1781650370198711 0.1319273693462896 0.09796461179124120 
-0.1088079026165480 0.4173886146581403 -0.2176512454441154 
0.01509955598794584 0.2878811188105183 -0.3219896651219745 
0.02344511038965611 0.2944669857165934 -0.2162079987103526 
0.09128294782239602 0.06819848185610412 -0.1596102194008479 
-0.02921617602908988 -0.01297892366172112 0.09964701064916523 
-0.1466008112487623 -0.2078915075476883 0.3092477944492718 
-0.04060066586816818 -0.2086845427468987 0.05624792608348271 
0.1885833296179739 -0.1420014581861817 -0.1049449679554060 
0.1077798977805217 0.2165465897223861 -0.06747476832498954 
0.02512684558152230 0.1789644767773812 -0.1115503745706314 
-0.1253883548653883 -0.06525279186874702 0.1743999793350549 
-0.1127238533042922 0.2251192103645616 -0.06378299088351963 
0.07544888764886798 -0.1173416898029465 0.1121418234682826 
-0.09259025886924001 0.2238457572613713 -0.1041331484430520 
0.1518758190802349 -0.2535697312030448 0.05833599085844258 
-0.2890767717351250 0.5152354472928194 -0.3916378246936401 
-0.1199455086691411 0.2201361231838331 -0.01816427452327958 
0.3785704927373267 -0.3801299149314944 0.1381352958357748 
-0.01619129234100751 0.04941319051677513 -0.03085584441805243 
-0.08773612840035660 0.4226254652751331 -0.3362910939095646 
-0.09388750753231060 -0.1511108710754119 -0.03558043349198529 
0.2247132208348470 -0.3976113770252748 0.03549540994828761 
0.03338281169962808 -0.1420755316436572 0.05981739804407323 
-0.01585128036257382 0.2131309872250913 -0.01208854614489910 
0.2142851715728291 -0.1749166089922929 -0.02726434416816287 
-0.02754136069307202 0.1850900620953543 -0.1687030346047659 
0.1791414518642063 0.1804700698269493 -0.2807949166311115 
-0.4009856065091206 0.4414261398449576 0.05719717123061689 
0.1929618901080832 -0.2557428965562630 0.09562322650975127 
0.08741849935233093 0.002037560331908980 -0.09852180788653149 
0.02000861440175336 -0.2588670636999180 0.1356554983204728 
-0.01360083251284988 -0.1083585007667468 0.2457605300781142 
-0.1271701363922371 0.4800283166835131 -0.4105703394198490 
0.04617730178878905 -0.2847594394546578 0.1567554900216304 
-0.1172662307900770 -0.1044437719791494 0.1296489620572964 
0.1432414608109599 -0.1683838257293197 0.1217280664962910 
-0.08467166050890537 0.1706135687185221 0.06232209593174781 
0.3431871404416603 -0.3460688524930959 0.004004387589349213 
-0.1297676448571843 -0.1153084879446499 0.1740912790351210 
-0.02756278941088063 0.07230248257563224 0.02587990312952453 
0.03752448614174996 -0.1676026764689393 0.2258828073569545 
0.1376551150010081 -0.3512852769140992 0.2517689573641622 
-0.1617420705959053 0.1727379043162179 0.1280405885083724 
-0.1862231118330657 0.5286061345519650 -0.2897640765486591 
-0.05173748503962605 0.2965136921473932 -0.2642958747197585 
0.3818374538215039 0.03922191550631091 -0.2764986821979603 
0.2189994545611338 -0.1243614669395858 -0.04889491765663049 
-0.2450558605885863 0.1719427797171559 0.07281618300798479 
0.03735254055883435 -0.1365090505018544 0.07804713961284382 
0.2574105761235950 0.06266304804247977 -0.2164595030084865 
-0.1861675503470334 -0.1371976682281432 0.3307187234858219 
0.1990057048808547 -0.1989284191425994 -0.06330982991004183 
-0.4261269856814722 0.2407271839383783 0.1087861233580829 
-0.1283806602095232 0.2212155033367093 -0.1110893274204153 
-0.04854946406743653 -0.1768928151017714 0.2332306156784459 
0.06417783886492018 -0.3040608565876475 0.2056457410857200 
-0.2414660232959778 0.1326811082030238 0.05189613738137985 
0.2924201249959173 -0.3322640878794221 0.02851963301430460 
0.2508748860943480 -0.1919052703427707 -0.08226633087367781 
-0.08426248156468880 -0.04287907389185365 0.1714901076992490 
0.2320479813913406 -0.1554851321412385 0.06058670969613161 
0.1568597897232915 0.09842436489472287 -0.1120502392769195 
0.04030030167630928 -0.2203443190583854 0.1223639452879409 
0.2039055745283487 0.09266083038080140 -0.1005816764344871 
-0.1265437144248724 0.3537268443749989 -0.1863275197366630 
-0.02040447342173891 -0.02834443821623374 0.1075166423657720 
0.2767391491894774 -0.3748998165931872 0.1555464488169602 
0.3283577514098753 -0.1012873958153410 -0.1297966213255911 
0.1405072087402386 -0.2212954113233148 0.09183569729640603 
-0.1009077151759087 0.2883533740001113 -0.2124413477400266 
-0.2215509053578381 0.03030093829217345 0.2595889901192880 
-0.04420331611370353 0.1112521099147690 -0.1286750743695417 
0.1021226767075926 -0.02398952252926782 -0.03986115160529911 
0.1170426149161878 -0.1049177542157725 -0.002823056789952667 
-0.07013727848999904 0.5068801008458284 -0.3623371556109093 
0.02843608321878928 -0.1535175410396430 0.2870797534095955 
-0.1763185543014260 -0.09702791729934612 0.3239216322294740 
0.002198185388152477 -0.3574242606037835 0.3317225946816836 
-0.2417489212732444 -0.4361969658112188 0.6962989692208358 
0.4432933658026171 -0.2298926682026517 0.06141691002403251 
-0.01617612356819616 0.2226730666319857 -0.1880985119586513 
-0.1991744233791861 0.7277232747128567 -0.3053030761093977 
0.3747049081141337 -0.2126653228222664 0.07609545850131226 
-0.2484422331895430 0.4771649671177430 -0.3903023593193165 
-0.2117352078399368 0.3779947171486944 -0.4356768303059537 
0.2419745335522407 -0.3631542242007624 0.1370968153904816 
-0.007231261747834889 0.3036709267035684 -0.2004627646451830 
-0.04587645272015466 0.02723828230775689 0.1347808468831006 
-0.01351859150921321 0.4217571382821321 -0.3943861340278605 
-0.5335766075762902 0.2558277756924183 0.08977549524830032 
0.01522261618820646 -0.09489661503094474 0.2306235382508836 
0.07472563046873276 0.2541303509620960 -0.1959094618005548 
0.2202740942383079 -0.06294204190889512 -0.3456938196730048 
0.2867092040815641 -0.4049508089091946 0.2206352298589558 
-0.05914262115334405 -0.1380358268264582 0.2791919041169296 
-0.07728507600414114 -0.1731841408841744 0.5198377607241744 
-0.1680956534559956 0.1603761408310792 0.1424016930592573 
-0.1609226071188700 -0.1676008301296783 0.2573179068367612 
-0.1793818907714601 -0.1936594938652740 0.2577999267941550 
0.09472878550523142 -0.3068001426702074 0.4397761052948103 
-0.06493601434424905 -0.3641146851900564 0.3155273853778776 
-0.09711551904987925 -0.1009055454568825 0.4021763325156512 
0.2367848712286136 -0.1805757499574534 -0.1106807379703955 
-0.2020519512351099 0.6071554329710356 -0.4063374232030854 
0.1279179664387805 -0.2276811114893634 0.1076248867654303 
0.2783652857052495 -0.1582494857415187 -0.1150988716178031 
-0.01136647542610213 0.5651104595285075 -0.5088543527834533 
0.06701067799184646 -0.4652721551460050 0.3267661183687088 
0.2994888405967043 -0.7062376820640074 0.6197473773602512 
0.2168049844892588 0.08083502433472087 0.02226285026303644 
0.1451493989803181 -0.7186168954894044 0.5549922223865223 
0.3549396838179724 0.006047649662187890 -0.2678459919835903 
0.1697969231366607 -0.1360517607128758 0.1338603871187593 
0.03589248524983126 0.02601783213322272 -0.1140725080863162 
0.3005377757558708 -0.4668008048319722 0.1565398019659511 
-0.3725847229038585 0.2775787912334977 0.01180381405359512 
0.5774279663357540 -0.2274887313228705 0.008548042771965220 
0.1534566788630446 0.02248777469945454 -0.1152568139227640 
0.2593915889634037 -0.3654273814025709 0.1234812454729569 
-0.1703327854897085 0.07853952279662493 0.03653408513427460 
-0.2534619447834542 0.5344040440725892 -0.3653882322899679 
-0.6275112854863599 0.5322440148635827 -0.1084076082220739 
-0.3781861755036010 0.3955921818875920 -0.2487505762070575 
0.6846107262427790 -0.3338531679237224 -0.2295580267587338 
-0.2253464895813000 0.07232478364688316 -0.1174663196468512 
0.09570758121305133 -0.2825532188722377 0.3381371638200541 
-0.1128260864946865 -0.4543584023142567 0.6413234066635518 
0.08142834693736331 0.2158961491000405 -0.1921783001911426 
-0.2284860551063512 0.2553732030924418 -0.3852681758450160 
-0.08167966821761809 0.1711839939225718 -0.1160261144380069 
-0.4046517867805745 0.5599851082692524 -0.5831904889771531 
-0.2153789056358089 0.06474924617873422 -0.08126430608817606 
-0.3414603832347752 0.2832440514718242 0.01411919162855079 
0.03964417618106982 -0.01083914796322628 0.05476703753266649 
0.09466411679923117 -0.3285871149828469 0.3007762455020483 
0.4093854787699057 -0.2576997857801493 -0.2212995719521173 
-0.06879749742985973 0.3857513450624593 -0.07639745984475776 
0.6602336664268386 -0.4959432659138611 -0.09262831471581010 
0.04800306042247000 -0.2869776470835650 0.2085310888861579 
0.1479666199774528 -0.3284429271559832 0.1953470980512947 
-0.1089964538257103 0.01033458937572567 -0.1876691522017676 
-0.1346498559361841 -0.007744375559525184 -0.06056890169271926 
0.02394143453236101 -0.5009405925673838 0.4902500842770404 
-0.1433601111660318 0.06010409279491871 0.1508597363649475 
-0.2622236349059792 -0.2734270893060044 0.5179746375796231 
0.5536298449929802 -0.6967998268923261 0.3868603761928492 
0.1206248249230942 -0.4775992745470331 0.3285671368896450 
-0.1082286889926603 -0.1044065484232409 0.2253077165960078 
-0.08955017030396792 0.2884979290608067 -0.04406137239474649 
-0.04214726191076261 -0.5285583067416336 0.7540569874831795 
0.01013496155597626 -0.1834023884207152 0.1646858292479603 
0.08423687035736313 -0.1220717683640208 0.1808381398711597 
-0.1210034772551721 -0.1251478989399903 0.005184396665968944 
-0.08640817519430160 0.3313597591926292 -0.4308349906914336 
0.009785687973661047 -0.2054212236771208 0.2110221039271287 
0.2057938098285914 -0.5450662347264832 0.5528691400723776 
-0.4628662635644154 0.2106841174864993 -0.06339059448295381 
-0.06549425825002352 0.04714818199670888 0.06844317404139899 
0.4541537248955217 0.2008249325917568 -0.5505918420382315 
-0.001358506114470628 0.06739083287682182 0.06170618201696729 
0.1491637565239695 -0.5005556164547879 0.3877659042212060 
0.1718579449794502 -0.3332860680992866 0.5048625303477302 
-0.09666657329508548 0.2108793690683758 -0.2170232928577469 
-0.02861494986392408 -0.6887960136819996 0.7927806970393929 
0.09260249957362608 -0.2193917447810469 0.2070883776218492 
0.2971879369841528 0.1200238264238552 -0.3656762133749950 
0.4031432583450895 -0.01960398094498358 -0.3087436885903170 
-0.01725630401913836 0.04895501837092171 -0.1253655834228232 
0.04928003848198237 -0.1660109245087983 0.3317586955247091 
0.3487410943321145 -0.6062953335562179 0.4727170678637077 
0.2735501310443678 0.05064571491803843 -0.2855311087812321 
-0.4374705685286100 0.2970738181699778 0.1037072513376085 
0.2668027036773263 -0.3730130728811557 0.2361923896200628 
0.5418709008689933 -0.2413311065039797 0.04227882332659556 
0.06232475300213003 0.09800613219368640 -0.1322721611539596 
0.3267774212909947 -0.1424223275601477 -0.1437650769314943 
0.07515446373877632 -0.07978794041643600 -0.09355946719855604 
0.1608948868593088 -0.1956615783927709 0.1434370381030851 
0 0 0 
0 0 0 
0.3132722878287905 -1.279438848780590 0.6390125969687938 
0 0 0 
0 0 0 
-0.05537448507991519 -0.5310930059742525 0.4864270726545131 
0 0 0 
0 0 0 
-0.05242757376192181 0.3490566691885534 -0.1429687179248449 
0 0 0 
0 0 0 
0 0 0 
0 0 0 
0 0 0 
-0.2587775737224823 -1.065832454863733 1.258825460911434 
-0.01352036684796929 -0.4795360223185828 0.6163015635916619 
0 0 0 
0 0 0 
-0.2458851644878538 0.9526111925368546 -0.6583910185495400 
0 0 0 
0 0 0 
0 0 0 
-0.01352036684796929 -0.4795360223185828 0.6163015635916619 
0 0 0 
0 0 0 
0 0 0 
-0.01352036684796929 -0.4795360223185828 0.6163015635916619 
0 0 0 
0 0 0 
0 0 0 
-0.01943995928234820 -0.3735350922439784 0.3873893764794859 
0 0 0 
0 0 0 
-0.6873204331598701 0.9350383171693776 -0.5159960893393081 
0 0 0 
0 0 0 
0 0 0 
0 0 0 
0 0 0 
0 0 0 
-0.01614645658456419 -1.541276634831232 1.795132628135960 
0 0 0 
0 0 0 
0 0 0 
-0.04155930566707806 -0.5547411805197499 0.4674186689900636 
0 0 0 
0 0 0 
0 0 0 
-0.03635354564613193 -0.08653974091436561 0.1617475041757009 
0 0 0 
0 0 0 
0 0 0 
0 0 0 
0 0 0 
0 0 0 
0 0 0 
0 0 0 
-0.1407517979026647 -0.4448904577340520 0.4532898415445630 
-0.03275321466831845 -0.09526601824660212 0.1633268307640746 
0 0 0 
-1.072113662653139 0.1421075251444848 1.126551014482370 
-0.01528025687690969 0.09800315158503724 -0.08354953450927052 
0 0 0 
0 0 0 
