solver_type L2R_LR
nr_class 13
label 0 1 2 3 4 5 6 7 8 9 10 11 12
nr_feature 564
bias 0.000000000000000
w
-0.5768999880739382 0.2141488704713390 0.5388007767906230 0.07057150090422334 -0.3325652837808766 0.2952493538711021 0.1914976146116719 0.3337001600182828 -0.6495297925369312 -0.4064794562486022 -1.981548647788230 0.08716783105088521 -0.02975923528509519 
-0.2570777451737814 -0.4144472212594573 0.2729346195253871 0.4085334860899137 0.2174306362122469 0.5693871323005324 0.4141936824356989 0.02176264919541089 -0.6084004524226188 1.237166558377791 -1.008793299019606 0.1167152632188886 0.4411787706721701 
0.8108296579613045 0.5649338214915678 -0.4478565829568991 -0.01919863358225497 0.1257045519909314 0.07086591669654915 0.3543328447653403 0.2238089260136296 -0.2121002751315965 -0.5734846202188111 0.001584431535790618 0.2874614222370431 0.1947840523382519 
0.1522311631441836 -0.6569585930756787 -0.3261303175923734 -0.3959185735884766 0.4523892880161781 0.08865258161354415 -0.1754074409534335 -1.325002212113529 0.5055219272577551 0.2299656415997774 0.8773455725194890 0.1666819996258190 0.1264129722050407 
-0.1340703089484345 0.4372546093235931 -0.6134938374262155 -0.2861927956650110 0.6493041293880826 0.1358319986152003 -0.08340744242630896 1.229354804795829 -0.04136687721390515 1.199587778375753 -0.6764088677472144 -0.5252610170957601 0.2448885411398220 
-0.4831847282540603 0.1746604463525298 -0.4781286866699410 0.1718257372182751 -0.6008779600981995 0.4576244667908248 -0.07545926302198357 0.3101200474326926 -0.9805977620794156 2.302312525810431 -1.037748551138289 0.4935416907019848 0.3990282256926830 
0.2916296779357414 0.03728584533469663 -0.2935778963511873 -0.1595214322968225 0.3092370871926576 -0.3755272360090649 0.2114953230453928 -0.8530239235570249 1.206600635138250 1.282244570599744 0.2555626338424861 0.009228764446305684 0.3891454312575199 
-0.8701377603459965 0.1650874067162672 0.9342150151773247 0.2284606226997946 -0.3844579031988127 -0.6689195242681726 -0.1233668666997146 -0.6191271640852098 0.3047301955163908 -0.4984406362261233 0.1923859637319280 0.04199752853480152 -0.3990299902679982 
-0.7451064118703801 0.2094631859055494 0.3983932887146334 -0.7137613847218760 -0.2369329324841290 0.03107253050603746 -0.2832804523473464 -1.492005956166231 0.4336271615728699 -0.7369997116029690 1.786245539198423 0.2636950653142550 0.1521385230764092 
-0.1329177946241688 -0.7579033018642136 0.4082021326334258 -0.2501284434546060 1.072197826794961 -0.09741564133705110 -0.08345046823096633 -0.8140555590085079 0.2393303593367256 0.8091719279139613 -1.129622287522056 0.2946129439150989 -0.1299025190871436 
0.6714013325738595 0.4408678015104835 -1.116137256038971 0.03358899756351486 -0.01635586533634614 0.6294918131211553 0.2682510587182495 -0.8820775868254307 -0.6124530889607347 -0.4425287678301579 -0.1611417485862019 -0.08426320136414017 0.2094715365576584 
0.4746711390420064 0.5962777519561453 0.5283849479340841 -0.1043086904104082 -0.1855995254515236 0.1703712891322403 -0.1095643326579837 0.8540231202122910 -0.7370095475485319 1.519274246748179 0.06010262763105140 -0.5742560224728641 -0.1948244712455150 
-0.2546731575925259 0.5729722583906416 0.8640026267337406 0.1486380310097000 0.7696224580943443 0.3254623955435911 0.1489888645623356 -0.8694506228565477 -0.5747669179344420 -0.7907417148354845 -0.5048739521444421 0.05938309980726010 0.03791621445553988 
1.150449942008988 0.5047782781174668 -0.6104493647289716 0.01913824723280055 -1.289913355030378 0.04068911852664171 0.1433162273498031 -1.415636052409163 0.4195832918050920 -1.027629489838376 0.7437620658664579 0.2256128840908408 -0.01928354070350102 
0.09233315135582178 -0.8668214798918176 -0.5319089448951234 0.03876321265360940 -0.4001014682571353 0.2120152767490255 -0.2930729768932424 0.4278427177979945 0.7493872502274189 -0.6679123663739741 -0.7006191212654054 1.243492862282019 -0.3913823987295689 
0.9998172706606139 -0.3786093720459179 -0.2602168137480711 -0.1386008915342827 1.760886517106458 0.1814814424431044 0.1130929994518248 -0.3223595142256900 0.04906657276789350 -0.3410039351374035 0.1220430399829682 0.01221485762163232 0.1093070107164732 
-1.350618366927476 0.5288936864753824 1.215906433897160 0.3981593962465139 -0.7037198788135901 0.4126368927381302 0.4302578782596864 0.3752481380607416 -0.7808892373629723 0.4273165600181242 2.070990517828903 0.2612231269840434 0.2428149113847999 
0.2680441789358499 1.223745426898116 -1.544266766538770 -0.1174585937232046 -0.08276505301890508 0.5012174789002152 0.3816012194551276 0.7187798806452170 -0.5605048595309850 -0.7142456527368093 -0.1991712897821897 0.1853960604229684 0.3776005359774233 
0.6675388246020185 -0.5098622636830106 0.1467141206856842 0.05507241312395542 -0.8564067794061397 0.7213159892036195 -0.2441208584263220 -0.01027999493379907 -0.4910825089714415 1.285214993499442 0.6811446762046669 -0.4242754931694745 -0.4646650574922985 
-0.8093698973617967 0.6824383468111042 -0.3665522764545329 -0.01031344384585754 0.7309310646891253 0.5872041772320388 -0.06195699204312869 1.149129006960812 -0.2623937426406267 -2.249538336286929 0.1496489154584120 -0.3931407409982508 0.07124935296856476 
-0.9945304497096168 0.02487016679842838 -0.1244664654672880 -0.08143564745418477 1.083228125423817 0.2787860975374768 0.08124230414911715 -0.8067875780594498 -1.075228966068874 0.5815272936377080 -0.5416946783774012 -0.1362235616367263 -0.8071475710817438 
0.1465012843697586 0.6557463070182004 0.2945868729795581 0.3101393412055720 -1.005044595342100 -1.478745162788585 0.7787674221871259 0.6192616014703557 -0.1853179272356982 0.8974618286331301 1.372261191843050 -0.2170516727983951 0.8267322072202202 
-0.4496630974927992 0.2620848705837153 0.1919072979025963 -0.2493328654955914 0.07455949419929063 0.5386432734479829 -0.05370487306110114 0.2929832854011937 0.3041903168002260 -0.4141779273200344 -1.991795822713304 -0.4042852462584736 -0.02848289632255924 
0.07730072731338844 -0.5131990667249653 0.1976371020920987 0.1457891906786187 -0.7394794530134587 1.011582024852628 0.1085115861696561 -0.6549589355775322 -0.4203355660177336 -1.134859839883097 0.09400004261203793 0.7927488294844942 -0.04474809543915834 
0.3372749792913743 -0.6859517935867794 -0.5687828446825680 -0.3502939259725187 0.08350090395099713 0.1390037815749582 -0.06294496826680299 0.1602190285750575 -0.2159725982167345 0.2002445030929282 0.4623840337892254 0.1200979636821249 0.4036011231690015 
-0.06547414232864354 0.7830479187677664 -0.1162949222373871 0.09288393853975725 -0.6338102644548369 0.6903545006295195 0.3986383649352348 0.7787410919926945 -0.1170370924945906 0.8285876564230624 1.435714479513174 0.1854254367397153 0.1419710572400917 
0.1181684419784098 -0.1565329161051180 -0.2770439440316131 -0.06546835744181437 0.2169332766145490 0.1178997834426000 0.1072887592694332 -0.3652216451579360 -0.2028506120644052 2.042107200342368 -0.7782810657269456 -0.3020493220854797 0.2787640544414289 
0.1937236635693160 -0.09985596380823478 -0.4026248879590820 -0.07533811809245700 -0.6748221167390060 -0.1266475581094123 -0.4400341237134329 -0.1556722562511212 -1.212043813995447 0.7522319372279286 -0.7784327981347676 -0.4639743498021310 -0.03543027318116691 
-0.3960441840858114 0.03536209996632744 0.6333869845248578 0.4038629359939062 -0.5911553960717256 0.06682514567649844 0.3427693319397002 0.2345812878854007 1.493946147030128 0.4308568459283024 -0.5317783083379710 -0.4416885757824313 0.2794911267704769 
0.4011664404500310 0.05453638579380548 -0.7519077634002217 -0.01812116103104870 -0.2441539216673917 0.3233167585448752 0.04108099244165742 1.886023288362728 0.05150873532030872 1.110965610873506 -0.6099820155128787 -0.09678117557258106 -0.09066363012214890 
1.180322089746066 1.148613677010532 0.5936581108449364 -0.4537138780876467 -0.7761398245897239 -0.5812425346163199 -0.3807256162950430 -0.008759260632255544 -0.3012392107697268 1.323940863646349 -2.264740589383685 0.09395897820004820 0.6063199989141776 
-0.1668504196010684 -1.708389548308796 0.5090583223992098 -0.2401468356394408 -0.4347623384085252 0.7729236822372919 0.3497281842056617 0.2238151106896569 0.6049213323748130 0.8087130506133159 -0.4552837054033563 0.2950057543469311 0.06817813679161858 
0.2052103917543561 0.1943342761309276 -0.1901013565864009 -0.4620237018904997 0.8773353971842850 0.3254290763949268 -0.3721691995258122 -0.8143773367004716 -0.4800108496674581 0.1801723814793712 -0.9189542154738957 0.2475166964831403 -0.3362446058761838 
-0.1499005060098492 0.3980249283821740 0.9087383288184437 0.1073691631107938 0.02343065087001034 0.4949344561072525 0.3298152104986637 0.09397592240080335 -0.7357400182126055 -0.5158748413248688 -0.7524471682679563 0.8084093248794535 0.2464624840086511 
0.8447837061884810 0.9753560625259158 0.2725176580331766 0.01355585585642851 0.3769562940354613 -0.7703968788052187 0.1884354294878939 0.3616971706092404 -0.6427447834947628 -1.041629849080358 0.7840457649575039 0.4413484240604159 0.4437332806124770 
-0.4466796352792845 -0.2500774200460171 -0.7825385198367015 -0.3569525861743476 1.036078381743696 -0.3492786587912251 0.02405464560363448 -0.8180752685789127 0.1332077173539621 0.2233292344248048 -1.302455529254578 0.08754972150502964 -0.09765766558918187 
-0.005694341185775484 -0.5202762539623980 0.3378584581646796 0.03712526580384150 0.5669389644538976 -0.4849968787492743 -0.01983201175735650 0.7223714269697452 -0.4091277977858128 0.06405529251175829 -1.757490624456579 0.1086242019904625 -0.5019097632998485 
0.1123272916767976 0.7104247791775923 -0.2582917520034638 0.3365098288913049 -0.8679448902603997 -0.6321433391508209 0.2125505953655659 0.4727798454160223 0.2829705701499750 -0.4040125802114182 1.150484985725946 -0.3323287196155316 0.1577374616907111 
0.007138136065609486 0.7416945353770961 -0.5323549647247758 -0.004206405972310597 -0.7033005221137778 -0.1872830388615979 0.5421460825116337 0.2817069370190534 1.285018106182407 0.5687358322453724 0.6887793060185673 0.01865624546483098 0.06097563668613971 
0.09444573330540904 -0.2135873764310071 -0.005340568806205752 0.1255098586846727 0.5303870710237416 -0.5784828784761162 0.3050577100361060 0.8880021914708369 0.3339391215580537 0.6958536057421886 1.034719993791538 0.2639657843677991 0.3118579478969910 
0.3703442793550626 -0.7531772013638082 -1.683186189276983 0.06842555620267957 -0.04046583199086765 0.1079090519439454 0.04438343328716234 -0.2249018622794754 0.8264063404806237 0.5036599513526601 0.7146926155356871 0.1519813139159414 -0.2225734080218121 
0.1987633727276461 -0.5761978352888897 0.3570568710270868 0.03712795529807102 -0.1196947134504332 -0.08302526046828021 0.1855824859264217 0.4202195215592320 0.1029566819126810 -0.3942820863840828 1.214922753069748 0.2683514238133037 -0.1197613215309761 
0.7098377925399627 0.1562996979598475 -0.3121898065515439 -0.1515877171028279 0.07246686803753132 -1.455303760273953 0.3802413119613922 1.643904249656654 0.4826321822419789 -0.6496110484230886 2.008619109880765 -0.5562362418972846 0.7777865317560068 
0.9626811846288434 0.1701100434042167 -0.2460648284644839 -0.07538976768809663 0.8126668389080194 0.1768848935468613 0.2523169775311242 0.5075257530445794 1.165018819577347 -1.745871669913579 0.03594414084958203 -0.1838079417038971 -0.1993918709218267 
0.4521183439149484 -0.04086290940357239 0.3603193812062978 0.07208415457797612 -1.628706880821312 0.5576908110966453 -0.3123422475820514 -0.8729869332917666 1.319180342287927 -0.1414224172794645 1.390520144382158 -0.05274562803095475 0.08056076389151338 
0.3454954904661426 1.251098760984341 0.05311158883066056 0.1458924250528547 -2.084728173445738 0.2330770734520692 0.03917497816490582 -0.1125950946424738 0.6365781807838697 -0.9709051471081402 0.9485379149487940 0.7222259073681019 -0.3599177039284152 
0.04812324622860774 0.5812060719947172 -0.7871773936710014 0.4114363663228936 -0.1493161180342579 0.3295117865152410 -0.05065324595935059 0.4058948600376230 -0.5696458528218850 1.007848247025971 0.1318781819639187 -0.2604738851055501 -0.3066163592826192 
0.6155911906211920 -1.152488068343881 -0.2626443615522802 -0.2662693238719195 0.4959618779516793 0.1671329186914578 -0.3708866372947451 0.2958903534465864 0.2542568153339798 0.1078420299037704 -1.622820784071813 -0.01141973578934796 0.09389138829290503 
-0.7544977629155540 0.4554994693353611 -0.8223115479159155 -0.1435305325844986 0.6862763082222472 0.07706983540225659 -0.3519880834641677 -0.2352919280885262 0.6917226548220199 -2.412446116195022 1.312367820251750 0.3363155046686639 -0.2622600084056576 
-0.6747279245474819 -0.2741842950100233 -0.7172444082544217 -0.4128345760195931 0.4267289160737149 -0.4073094294158459 -0.1698527391903019 -0.3666461992452718 -1.068939456528074 0.8487520921335798 0.4893873320369437 -0.05266903123503768 0.3116953807450852 
-0.5477127339780038 -0.7854668904861485 -0.3252329802587876 -0.001035276512587733 0.2588725742350422 0.3936272880846242 -0.1078812478320131 0.7750156945493167 -0.1127185969628496 -1.474107994259521 -0.4590397315430714 0.03626836364993919 0.001633763072963508 
0.4153889264687015 1.024268520580083 -0.2654941370418195 -0.07423075230470941 -1.702443428772393 0.3397843777949909 -0.09445832727394742 0.7815376755311799 0.6265967331484206 0.4850510759088988 -1.464965671060857 -0.03601967571014499 0.4533857690986984 
-0.4798511196816757 0.5775582566768805 -0.6383306456082848 0.2640006180816936 -0.5185613756163067 0.5633034384593254 -0.2483176752808232 -0.3180785478716147 -0.1876768380333327 1.650898711745899 -0.6200196262530543 -0.6012489376942731 -0.5126394758305560 
-1.455700494403114 -0.4981698099339402 0.7881842152067268 0.2048771294645509 1.261054748859703 0.4895110592554376 -0.3241219377993586 0.6502845602466600 -1.414874384309601 -0.5087096415799260 -1.603201148346354 -0.2441217980950693 -0.5212159172513255 
-0.9989682380397056 -0.9103373160961107 0.3031091963634848 0.1354958673576160 -1.096078394252726 0.5141065922102861 -0.2942200511257514 -0.3405619628874604 -0.3676505206030251 1.810092419580924 -0.7887333879156093 0.3237894949558299 -0.7503003564438318 
-0.1632267692442391 -0.7595609765109786 0.09428701989623925 0.4650080698814449 0.9464135207785512 -0.09678657102520406 -0.07116347372724564 0.6111412543044139 -0.3359731710771432 -0.8143188275397311 -1.255244666877187 0.5809066716193328 -0.5655645274787799 
-0.7502661740354610 1.339476906220882 0.02019994896973976 0.1728294905543157 -0.4238100654991960 0.3316918066968336 0.1038421035275732 -0.7359704371912378 -0.3651574613806968 -0.07326291776371811 0.06002300390318185 0.003845690864431787 0.3033322362065870 
-0.4870421746639914 -0.6479014666381921 0.6608334397127891 0.1776138367877643 -0.7593811252381499 0.4591702850943787 0.1152662772089128 -0.1669473611159155 0.04652160638099776 1.649058056832371 -1.185822708475490 0.04416103035721697 -0.002546323895578179 
-1.569127642886164 -0.2224605818213491 0.06286470931878818 0.5343680371346367 -0.2361591863055755 0.06721666394381899 0.3229636338476186 -0.06040602691320941 -0.6160174849579464 2.307029065224397 -1.186792050595963 0.09656901626478105 -0.004426903491760178 
-1.134998092704763 1.115977107671520 -0.9789574501586233 0.06676900722934323 0.8854314826641738 0.8127122388805443 -0.07550759290312566 -0.4103634701243192 -1.524697718337221 -0.6341262064564541 -0.1740610119942944 -0.1538717280468536 0.5893661361797272 
-0.5760551769270941 -0.2653233675579978 0.4349150148222490 0.3857700051572623 -1.387070768423096 0.6405201091612093 0.01485061032390388 0.01922884993800413 -0.5268716453360556 -0.4431814480144765 0.08066994888630816 -0.5715202412392402 0.1578332061528851 
-0.3684883205609876 -0.9050905979532509 -0.7396082717644705 0.07073209133075335 0.4359695897172483 -0.4621696004022234 -0.1470389302411296 0.3441311833014683 0.1181104788827944 1.031588967085212 0.4536346023108687 -0.08413585944689207 -0.1823696412188958 
-0.6296382018214576 0.6587635436952073 -1.375482020283834 0.2488805089044820 0.2242105588557184 -0.1499435895827639 0.1476822998666783 -0.09347173201619635 0.6560454010072108 -1.441405197555654 0.7586487881232794 -0.1901879668182541 0.1088778017003301 
0.3763128832627812 -0.06630676139889304 0.2023358793765953 -0.2842599160651134 -0.7640092962765377 0.7927323127887492 -0.3085793882125538 -0.8799577285294877 0.1557517005676358 -0.6264229152585766 -0.2226212725104076 -0.4399030118096338 -0.2554585939758479 
0.02734604919807075 0.1024623201206911 0.5474463081281489 -0.3486185506806768 -0.4068202022693686 -0.2531569679320674 -0.4113546915206405 0.8340931217778949 0.1054728264785953 0.7025318810349359 -1.338912302483027 0.4351982396243267 0.01289701656498398 
0.2457628784214124 1.068071541343200 0.07433432214913219 0.2785211519742279 -0.5150225376851131 -0.5956226707516697 0.7155072645699386 0.3458031108908688 0.2252258557963979 1.223200375253335 1.131430628960334 -0.2560290152553720 0.03235899609037213 
0.04591487887306854 -0.008663365242488674 0.3901884284166380 0.6172653494473752 0.6709855231026706 0.2233084503480808 0.2917965858271059 0.3776227133399326 0.6689402570961768 -1.612272224474477 1.889439097218145 -0.3165565659563170 0.2171435915538610 
-0.03578854705941113 0.7308361922673672 0.1693336937368503 -0.1738651696267997 1.066999837822031 0.06441331901072044 0.1571528618805180 0.9368115752019508 -0.1837751745156390 -1.782567450695351 -0.4859103165340790 -0.2921991429731456 0.08584798740126592 
0.3731963580042864 0.1286312497950841 -0.6531819197325068 -0.4434282246503505 -0.3331065353519774 0.3484445850315980 -0.2920385212872267 -0.05251428856320904 1.298953650184662 -0.5068284016750777 -1.543779255464613 0.02542316115556698 -0.1753153079756354 
-0.3750946472686337 -0.03334543670346496 0.4254732351385407 0.1744152783578377 -0.8713480402072662 1.002348358514106 -0.5012842220297308 -0.1553822480994798 -1.082910425927278 -1.145286705487537 1.571871598019207 -0.3996928832639476 0.2913800876596060 
0.1006731242599406 0.1401182970075125 0.7581644562903693 -0.1996604438974288 0.1976587652687872 0.7927975733600083 0.1543783548608618 -0.2367945500111994 0.2843486995481006 -1.140171565343278 0.3558301482171110 -0.5118459848815130 0.3637661340719243 
0.7274392334932267 0.04854043823836055 -0.1122910656830243 -0.03545244005843407 -0.8784859936410313 -0.2017926808782443 0.2888400524678423 0.6811902167072597 -0.4446100713759855 0.9450935028287410 -0.04999823541301729 0.5273138582945875 -0.1692987952569109 
0.6473983146472566 -0.2114879407152823 -0.07452952882326584 0.1938030382446962 0.7016398656591087 0.3991728734490604 0.3701499135370313 -1.688858497645632 -0.3363861628157953 0.5929421062475590 0.5771716064220934 -0.6105585690646926 0.09705175804067569 
0.03176787190998302 -0.01160001726116220 -0.2674334864786548 -0.3544710944831142 -0.5953006179988604 -0.8999232819640370 -0.1129677498908893 -0.7753476182868538 0.6754883479315217 1.040435636446387 -0.2596082177311299 -0.08080232542943232 -0.1909311276990668 
0.01235687461832506 -1.553793896971687 0.03341210081951702 0.5081859540377065 0.9269922882024308 0.8871817950853392 0.2092793067208926 -0.9144870039743126 -0.4568912735898304 0.1146519384984587 0.7193821810245612 0.4061788026262154 -0.04904718280710367 
-0.2675837134508993 -0.3185114776682650 -0.2473872627452796 0.2287216067858117 1.664807335957580 0.4280179191592582 0.1217402460288567 0.8096680502948724 -0.1686492932460827 -0.1983041360472532 -1.860141251167252 0.09993520311223215 0.1935395371014633 
0.9411973487903506 -0.1027249823068809 0.2396061679789062 -0.1020463700757141 1.007075807192990 -0.01161245752059352 -0.2005535348350684 0.7733715665878435 0.06701334053683564 0.5524999277509446 -0.5150501393307230 -0.5170114632474689 0.04580336820722607 
-0.5564693428643065 -0.06645955840138221 0.7657703824686017 -0.1096575647679034 0.7140844573503489 -0.3296528242249074 -0.09616836877073869 0.7594365100051377 -0.7500066805269725 1.162156138053630 -1.192618221025101 -0.2673458134479878 -0.08953586332531484 
0.08018455149591072 -0.7013576223743876 -0.4585994118592638 -0.2042726357648901 -0.7547207038559384 0.3403278210387714 0.1494257462163812 -0.2221946724521846 -0.1905265984290650 -1.196987881716156 1.780114858320052 -0.8667716227353931 0.3200450954553266 
-0.4343833525299504 0.2172250329547803 -0.6522020808382635 0.2005558678464902 1.283831100064223 -0.2506510463183375 -0.1221456864647144 0.5506456945006640 -0.7700306096302361 0.3066539165819830 -0.2865327103203846 -0.1036826636536275 0.1312844773446348 
-0.09495887300999603 0.09702562707579962 -0.2020920078916069 0.07559704560798000 -0.5360093647270979 1.352540779857418 -0.08732256539744454 -0.2529648979169192 -0.2998443831195294 1.585736508549605 -2.396312881027353 -0.3043256244734489 0.06860934963378154 
0.1933583687408034 -0.5774426798561858 0.2207878610213694 -0.05527088948742440 -0.9723375594207432 0.3403822918927156 0.1133306148395473 0.7398945149573845 0.5729216667445611 -1.013974990396624 0.4570745499897372 -0.06056051938797279 -0.1344898155769924 
0.8839734516152850 0.5265493955833533 0.4170279251678692 0.02164037723352635 1.263359505033488 0.4093516473546626 0.3514329563821196 0.03117498062299859 -1.449301262876859 -0.1933713627672052 -0.4158864030203300 -0.04114376021340119 0.2805252926036804 
-0.3796076430862340 0.7255129451263940 0.6823340573348435 0.5136414222584839 1.156784636976902 -0.6438289762306166 0.1139277071676156 0.4075485023075353 -0.4161926632095916 -0.2121053679233821 -0.2817334260945738 -0.07538687265646257 0.3750749471471246 
-0.05444809487663554 -0.7339695747765285 -0.7991440516953526 -0.1503087509370026 -0.7892927417015374 1.659591116545552 -0.4182025047311153 -0.6437450742222768 -0.2768064133116898 1.812062774822230 -0.9708416333199320 -0.5168241342971469 -0.2492708924993426 
0.5872799851222013 -0.05057060286568334 0.1360754957979162 -0.03040790668130916 -0.9446541322485964 0.3917574731214493 -0.3110600780911236 1.618357224692235 0.2678532801798335 -0.7018597724375317 -0.3901376086960864 0.1134967657238292 -0.2069707909108416 
0.2145889478817581 -0.5212246796468516 -0.5248388499726269 -0.1151425727851180 -0.7423317070384027 -0.1116173802626320 -0.4631847679133331 -0.4611347283840936 0.2434934946330007 0.1227282520980470 0.08644896976185082 0.5301697811992536 -0.5355807499478241 
-0.3655863464667640 0.4046442091353542 -0.5227136035345008 0.02421247278707985 -0.05525026355509990 -0.05633327633242598 -0.01437754270068503 -1.242764206110447 0.6316396051313465 1.051688243519924 0.9455758979643525 -0.08411984734388200 0.3986908328587741 
0.9745314353199570 -0.6589201657728366 -0.3081736779138192 0.03639729911453611 0.8752071180175784 -0.1838719878838055 -0.1374205225338546 -1.514489962646003 -0.3963979012895723 -1.822311100852588 1.807917794352242 0.2162802852759010 0.4582924755936134 
0.4270466224908707 0.4580186261972747 0.1135822766092766 0.03596678058312032 -1.230355074114033 0.8671267261417339 -0.4047563815307469 0.4412119340700267 -0.4317093429769476 -0.4226128328529070 1.477025433207636 0.7385266249609174 0.1760632072949274 
0.09681219482598435 1.279580775338177 -0.2184397295013162 -0.2840210887506484 -0.1978726889023202 -0.1465117686084979 0.03831692187448141 -0.7819426211439873 1.132909418287726 -1.356015742681718 0.4895670915192670 0.05354032216352832 -0.1312302643252658 
-1.656853014379684 0.6833444214191846 -0.4235082315670079 -0.2610119210076993 0.3717861777630087 -0.05821277665922632 -0.1023093955956786 0.05991594501568856 -0.5528461446820381 -0.3247100732662600 1.179047969911846 0.5444953055054107 0.1827107317216535 
-0.1813130411924795 0.4142592213179600 -1.933301863520346 -0.1213800673120409 0.8178795640727605 0.1547783973755778 0.01612591362880883 0.3155636551269217 -0.1981250578388814 0.2261512870535364 -0.03207749477618405 0.2346784597628493 0.2699407652296405 
0.6072435899962898 -0.4551211533272372 0.01192720398971405 0.1097421593401438 -0.8283618626603820 -0.2254982002941206 -0.0006636226311360939 -0.01803607259840791 0.08362275828680360 -0.05865624433342476 0.1769733063237818 -0.1123874898767310 0.4487390754493978 
-0.02706900223554173 0.9169833301021322 0.6298309570275739 0.07622581578918095 0.06578146090909667 0.3788691072159729 0.1458970955722296 0.9573754530047301 0.3028988961105972 0.1242727897729228 -0.9275509920944226 -0.5273017814023662 0.4066705649120020 
-0.3418923864065255 0.3109621413464690 -0.07917050010951450 0.06275126805717333 -0.1467478576619618 0.5252644105823383 0.3546464467040567 -0.5199269371224089 1.034234933325072 0.8914570713983698 -0.5222161130521945 0.3289919825490585 0.09024902804653197 
-0.6874194191141567 -0.7098062359452472 -0.4011754019952235 0.2831698006772382 -0.4700350377116568 -0.01771763411624544 0.4381527543871679 -0.1587107886439736 -0.1546058243037004 1.780588860352379 0.4183730364676923 -0.1020229569798295 -0.2313017654728778 
-0.4041723102801623 1.246559380186684 -0.1091730663218452 0.07981884070679636 -0.03700110246088981 -0.3913088762164330 0.07673366591670067 -0.5487550279912992 0.5588383572527613 0.1233396553411791 -0.03274207416448806 -0.1186889556470129 0.007272058803872574 
-0.9799402542083362 0.1593699578466885 0.3606057643257449 -0.7199721577760360 -0.6607797319002560 0.04069487069998711 -0.3839939716350600 -0.3925883900111234 0.1489267689896005 -0.7963722105040698 0.6512996620935699 0.3993085819327700 -0.1464192878424455 
9.264412428877395e-05 0.07734355728602828 -0.2664458359277470 -0.01854380574326060 0.7837500804126593 -0.1086795490459241 -0.1566679761370514 -0.4395870163985499 -0.7578075520086319 -0.2768796238516804 0.5153566002787927 -0.1455543883962498 -0.2236921230126138 
-0.5686838835856682 1.200491009855525 0.1157306827750932 -0.7078784108208613 -1.043212874738867 0.1509987784095772 -0.8677351789694696 -0.6304289907564980 -1.202931682954939 0.1894546834382088 0.5601324674872026 -0.9757848293234712 -1.447646887385611 
0.7601390224724182 -0.5968897954607560 1.879194728241428 0.2139499150878908 1.428794622857716 0.9340545079314893 1.275410165101923 -1.687519246909948 -0.3564235084439903 -2.840337400663336 0.7385305737216943 0.5836422637741429 0.8635940628031148 
0.2330442560696710 -0.5101612501563143 -0.6351600347220225 0.1797798375573156 -0.8336048011229633 0.6731419706401623 1.208767677090110 0.7223530774748244 1.626272911058947 -0.9459936069297357 -0.4909500628505062 0.6408989823394710 0.3926998657052478 
-0.5673267348805643 -0.4132050231044951 -0.9583697252406354 0.7454947168476489 2.254878907936694 1.037006423903056 0.3190760423051529 -0.6314814365627592 0.5699577131289579 0.5556182982576371 -0.09347627599748125 0.08546635813551018 0.2067732853440014 
-0.9379135806141069 0.3929766884921855 -0.4990703193371285 -0.8987363655039210 1.097132051104906 0.6447555260055355 1.265430805462630 -0.3839819136876147 -1.493789553385182 -1.494546393718360 -1.206857126011100 -0.8464107085848823 -0.7742209492078591 
0.3389443461885552 -0.3047734798358524 0.6291351084610639 0.02317906707473563 -0.4907044123969657 1.065572086648279 -0.3702439430816039 1.049020495772909 -2.534486533474151 1.624069467565027 0.5379233469578427 0.7270140116111121 3.385565305453743 
0.2029042641308885 -1.451451621385887 1.818816487499268 -0.9228564982958807 1.133282688771731 -1.705201370036792 -0.4057852597063091 -0.3152263728020525 1.189142696230931 -0.4318226853258524 0.4174644124927769 0.5345166885846031 -0.08482971335504749 
-0.2456050157890894 0.7992341511978822 0.9513242101450314 0.04154298312652858 -1.327523238262369 0.05561987480578028 -0.8620830629977103 -0.09205843008232514 -0.03787979551342724 -1.948562059738647 -0.7703510343076626 0.01655673134726803 0.001023813720729100 
-0.1454484679840700 -1.174314916962682 -0.1774386274992433 -1.418251639168005 1.363109221038559 -0.3939087518502321 -0.1885402655511384 -0.6291116071817828 0.4745687074883656 -1.882566286108294 1.082817932389516 0.4013848194281837 -0.7762587941247266 
-0.2015033256154035 -0.07718873653230957 0.5929552125829082 -2.316700667546335 1.420943111513018 0.07698927593649400 -0.4604998057374440 1.155980538964993 0.6387700545328646 -0.8056884059041290 -0.1687682170115357 1.182923754180864 1.143910702849554 
0.1519242059965214 0.3586691232301058 -2.199703239154816 1.590306609005767 -1.231399801801643 0.9136896023504397 -0.5035304099814937 -1.980882909120366 0.9295539815799914 0.7675027554864627 0.1557059087668017 0.2003420264467142 0.8270719461262082 
-0.4723728594505396 0.3735772320515947 0.3560967905134678 0.5670266879202321 1.276952105053902 -0.1853700252750760 -0.9383653543209391 0.2920390828563195 -0.2578160862000873 -0.3150850841193085 0.5141141884409888 -1.657609047327541 -0.7988045192573531 
-0.3644447436972004 0.8906489476588131 1.220196301905935 0.8008237748876268 -0.4300849626626589 0.2589908361927633 -0.3345451908064389 -0.6960156511319064 0.4780697092671635 -3.034181871646069 -1.262692907417623 -0.7488827670838277 -1.089262747233933 
0.2782555016171707 0.9720574008026721 -0.1120811111377449 0.7110844722627171 -0.5849313919129578 -1.093880601863192 0.2313171833902085 -1.498645537854948 1.646477945605646 -0.3535188740054320 0.4147403321639887 0.7826954256510008 1.179132539508271 
-0.3992005712505785 -2.448647061971006 -0.4627740188317889 -0.004243923807219246 0.1939612113174102 -2.737077985400174 -0.2747550213121077 1.588456145220200 1.427212285295950 1.064701011991969 -0.1167477381875627 1.560197571716204 -0.2188227966242349 
0.03429590714501828 0.1081540061280810 -0.3019560281895158 0.3776690647647020 1.710647024062753 -0.6605640554173063 -0.2637715734803347 1.242652224753811 -0.7022031926953971 1.192259562099751 0.009486534105944466 -0.1059450219919016 0.01971606051267488 
-0.8552970318330964 -0.1273114555521200 0.5920304320928291 0.4914671574743897 1.427512261635552 1.934721075378312 1.580154968617733 -0.5952410056915348 -2.245191840268833 -3.901252785539560 0.001952542586571404 0.01172378553592605 0.7512801468288671 
-0.3361950379950728 0.4326171927071913 -0.4681165979526145 0.1535344668155768 0.6404617697201808 -0.2579238122390503 0.009750151460118203 1.038712278255063 1.197518205192234 -2.152022362654580 -0.1377603088426635 -0.01359714424926804 -0.7298180858471189 
1.226891318472656 0.1476527559036768 0.4772559512882973 0.8636221519023730 0.7295703283388615 0.4817582859270778 -0.7688256687985534 -2.047612483403679 -0.07330743797813435 0.4450423184373673 1.164042351483789 -0.5968277296258643 0.9048311181361686 
0.1116924837415525 0.2862087245364063 -1.108258720057418 -0.6197862224603664 -1.181719215805367 2.736474566075022 0.7263524179807026 0.3323761969620697 -0.8816857722472926 -0.9558935755336383 1.535249896196791 -0.02331298135107894 0.3039244282595062 
-0.07192856857084202 0.8043162177667748 0.1432830547361630 -0.9822046470060368 1.284709359270193 -0.8264378372155671 0.4874574431403324 1.005924458165984 -0.9030817378576935 0.1452956007060063 0.2964584400673686 0.1404214872031349 -0.4881417817866884 
-0.01270274329029353 -1.601828314335628 0.7687273137675784 1.148912257257312 -0.7852547028154883 -1.593322288256857 1.135716806592830 0.1579335808323846 -2.224845036541732 1.069101449242811 2.350662652357441 -0.07057590759263378 -0.9541355189379518 
0.3780524582751241 0.8517688433788045 1.292374702763760 -0.6579141586149660 -0.1671841279920980 0.9320588496120886 -0.8003463531464579 -2.065303375268938 0.3271756730420452 2.786949411119557 -0.3224529408322779 -0.1178087241404764 1.092551680880276 
0.1229080054196286 0.5008703095513853 0.6815412062791928 -0.2955635901751099 0.007027402541782600 -0.3573274916484463 1.292402339886694 -2.008730745167176 -0.5106688911572326 0.2798835307356872 -1.696370751764242 1.168439811765802 -0.06597220969875922 
1.204068339929997 -1.737079391258185 -1.146322829830085 0.1191115694535274 0.1323936318734137 2.447230271590339 -0.1964379985948805 0.05182122839672904 -0.3296241061906988 -1.431160877313365 2.005292992651080 -0.3346038439291942 -0.5709429699298829 
0.4524997076943034 0.8840403205526592 0.08444615540815664 -0.1525981853318191 -0.6278311892340400 1.397053413272289 0.6621477746876845 -1.439481133403551 0.4399411731654809 0.5352041681197027 -0.1333671715927778 -0.2917967225494514 -0.2462808737183090 
-0.5658187897690797 1.440308564058441 0.7221754497928803 -0.4429713418810035 -1.084681611801333 0.4987132677368704 0.1609010420328778 0.04444863181785433 0.03884742654608250 -1.650178884352743 -0.09395920628755672 -0.8375851518849213 -0.4564971495263990 
-0.4228602536466861 -0.3011497367264281 -0.6403021585870196 0.1711486632622877 0.5003278360293217 -0.1904821837854891 -0.6365431111333348 0.5069015068948147 -1.476109257498035 0.06211824111577538 0.5628203711417001 -0.2055183988823158 0.4690581531490992 
-0.7339872679958693 1.184289529910524 -1.005838101459292 0.8179036530450512 -2.583677732040970 0.1647510471528662 1.038244016977379 -0.06781604055944716 1.693924517917892 -3.128256190990191 -0.6732556020268861 -0.4771215574163864 1.216826322862236 
1.504806995479284 0.3757693906921892 -2.954246869202853 -0.3914246158495369 0.2107711587359025 0.1611490829668026 -0.4581510393037556 3.773743369502776 0.4920204753816623 0.7900289616887178 0.8815280591236586 0.05166938980530364 0.6907490712388968 
0.6116539734798975 0.8020156020138992 1.399680177495420 -1.620264196987411 -1.051567835815387 -1.243800837090656 -0.1003845747301186 0.01861432292671081 0.02788879521887985 2.897893010797032 1.249700493117383 0.6050403864751546 -0.2409036878236040 
-0.4209936641839252 -0.1020679902936035 1.463695655574638 0.2358033395061164 0.4698923718449024 -0.2467718774811690 0.7194215339938820 1.408116228659467 -1.057370658242440 3.040476401733926 -0.7384656192664442 0.1924527410151557 1.302759488835906 
-0.2267409083301363 0.5501133835995214 -0.2623034887807054 -1.587774010491224 1.292040038807170 -0.1707370360496935 0.1699469861816498 -0.8309599310655819 -0.7293155266975339 -1.042674478602187 -1.594296437047241 -0.3375002192919694 0.3095414476091584 
1.664422005175212 -0.7661336944084866 1.451507058065050 -0.4019913319764298 0.5619438092843275 0.4818924914124756 1.463080717419790 -0.9546707071566765 -0.4074189938747899 1.308417588892687 -1.434331374852365 0.7223022224908700 0.7421452515865996 
1.332189844123349 -1.007303500548626 -0.1272324665618272 0.1844846221243826 0.2059428620527622 -0.3185244313859545 1.061227481604018 0.4864743628830792 -1.543733043220737 0.8675946554187188 0.1814040726188598 0.7313251188545922 0.1926752842928287 
0.5860467224503646 0.6633727798482811 -0.4518008440615419 -1.418608842476411 0.7304981483909019 0.3612355713060717 0.4486627815101730 -0.8191185269643204 -0.8160535882039172 2.217742246829371 0.7727520183289798 -0.2473037802632946 -1.198374300645408 
-0.8465087415794783 -1.186951452204002 0.02140973454894632 0.9466916569524029 1.419380063220576 -1.192983563147737 0.4449217676270109 1.424938720133360 -1.530781029101917 -0.4540469812913588 -1.340234447433245 -0.005945204569266741 -1.495606997480786 
0.8157914316815327 2.139819470561558 -0.3209125197055151 0.06641818298236982 -0.7524288701502151 -0.6911780773421454 -0.2025011533212013 -0.3955490555437469 -1.503068758212153 1.862990998991255 1.325019097423133 -0.3185738084259074 0.5443474802036271 
0.1858181582029431 0.1553034498485949 -2.018150452016081 -0.7237205964244917 -0.4671538215021178 2.320566843647657 -0.2834240451826677 3.180981019716914 1.481688210142024 -0.9021387938538112 0.4253756396943549 -0.3206073318944753 -0.8693814566599243 
-0.2447080142540509 0.2881428092451633 1.449065784125441 -0.1389190318992178 -0.03950810684877837 -0.5395570936129939 -0.004236624143808682 3.563415922070963 -0.2839101634231838 0.3228338596508286 0.7950370060474858 0.3702805561843481 -0.7956944223827908 
-0.5003618611193598 -0.3534757269674443 -3.708632540170712 0.5023414479441454 -0.06977728960182063 -0.3584992653858180 -0.1148936276335728 0.06441988734365059 1.089750684493095 -1.329964939582203 0.01006505458129942 -0.1606557899855901 -0.1067594141261309 
0.2984180940988432 0.09839537572030588 1.781962652240887 -0.1233571241498044 -0.8822763389161357 -0.6432516968772118 1.338836305965176 0.6747867319029709 0.2884597543867985 0.8628749285270576 -0.02611992982646952 -0.1484648422702681 0.3664362158784592 
0.6928117097327036 0.5609549119954776 0.8944890803321527 0.05182005858355437 -1.804716947764710 -0.07630605391357770 0.5743557730471051 1.601963511481072 0.08198158053435703 -2.960108047888681 -0.5836409978959954 0.04633682816328684 1.270812748287370 
0.6389807458731187 -0.9452860852637535 -3.064506754538261 -0.5720558306691377 1.648837401978415 -0.8965169360336160 1.855126676453794 -0.3210828885671102 1.042526535562918 0.3892889645374630 1.614518803593107 -0.9238329450308216 0.07143901629986434 
0.2071608541216110 0.3388208627868831 -0.06447685887266313 -0.04378850153629305 -1.789686828746805 -0.2968284416788452 -0.5926785072073347 0.5127881432220374 2.042165628521962 -2.619658828437907 -0.6623851615645380 0.3867840464612796 0.7714341219963122 
-0.4644914014606664 -0.4311996665867030 1.187684440937298 0.2196800901640173 -1.939186002050293 0.9433598624032443 -0.2265975271014266 0.3101306696052621 1.521699905209343 -0.7138098753030340 -1.518063738072865 0.2918392655506653 -0.7698553018669317 
-0.5011923076681789 0.4331835023127354 -0.3577943627610943 0.6033167671268853 -0.02637543312891827 -1.007813258409460 0.06601667742958493 1.299191290379355 -0.1264093725701157 0.01908791812264887 -0.5631672349649058 -0.1522668598912269 -1.523714956612037 
-0.7009886612861773 -2.725187153595465 0.1787137093735389 -1.635952227745284 1.461105953130258 -1.527786221136568 0.5393385253445798 -0.7874735061457874 1.247919648404259 -1.264940060164442 -1.972116652244361 -0.3623885321876209 -1.275856342933127 
0.1181024797355314 1.324628546384961 0.04983834336137941 -0.1674339080702703 0.9193764647819148 -0.5869075723601728 0.1559105430000974 -1.286563941489012 -0.6905871868112401 1.230182844035870 -1.962569112868926 0.3056364722759223 -0.4861015849311708 
-0.09956680776492588 -0.1540061238403470 -1.459119586662237 -1.930477946694491 -1.224432694571870 1.302828497247167 0.9268631142166045 0.6793184419099372 -1.418531651167423 1.787178985463328 0.5272317448024864 0.4481208867976092 0.8876004322118807 
1.506413422330022 -2.134216873294133 0.1738928408716217 -0.2815997936305550 -0.9665404337109502 0.02160444426895748 1.410841231796854 1.592844785223409 0.3336799718577416 2.201718754461115 0.8541530218272417 -0.4355086586268854 -0.9514953202300000 
0.7247333817357963 2.202622707462647 -1.828315033596887 0.9278073940429877 -1.707422116402286 0.5744855888350214 -0.005033140642347517 0.3769271215596680 -0.3476210728274968 0.9661819305420867 -1.185759714085098 -0.6342757573021793 0.2966374435562295 
1.617522034198585 0.7951139766569576 -1.877061185760823 1.233246099212060 0.8318271506926872 -0.2213666662963675 -1.756666828962996 -0.3638483635367829 -0.7485044364911786 2.597036068681846 1.839077706850024 -0.1546488683060980 -0.4488121387414580 
-1.028474805702855 0.8321015735466868 1.487814851086145 -0.2214408676649620 -0.7856403538547483 0.06769935539261433 -0.6796907098772008 1.437711919221672 -1.342272579178385 -2.728274081231220 0.1710089951228813 -0.4328171208351898 -1.938122502256276 
-1.206890851639914 -1.060101151250997 0.9053335492580248 0.5261341442911466 -0.2758414627151913 0.4809146097450744 -1.377780654793551 0.5538733996036329 0.6623347886122057 -1.367708165761398 1.147599252803186 0.1456428242360406 0.5451904145508900 
1.022748449547148 -1.342178098688219 1.207815957688056 1.369539126590847 -0.5039581330691703 0.04858121361975423 -0.8156742673396996 1.372984489885641 -0.7104345888163164 0.3125222903231732 1.246747835397394 0.5321077293843730 1.078023094750077 
1.883606366849111 2.349949334523116 -0.6787320426968979 0.1624443818718907 0.9777675648279769 0.09549440595923597 -0.8871573810762414 0.6953334352880652 -1.251730020494230 1.598460289257137 -1.196646568051470 0.3002349022729320 0.4531552139794962 
0.005543333747777712 -0.9777777793740940 0.4901656805935843 -0.9134572834877588 1.330547058863006 2.114473372220710 -1.150499349919807 1.055485555172472 -0.9003412915643013 -1.140461590110026 0.5026647691934306 0.4580593240381702 -0.8039832985634723 
-0.1203181575691754 -1.349071468426644 -0.7321097536491477 1.820995345232721 0.6313021445039854 0.2919370124292358 0.2394445941063870 -0.5573383898111486 -0.8820038061265820 0.3984273217269473 0.03186160111430847 1.340326831693019 0.6822253259199837 
0.8394537601440113 0.3042506017513278 -0.6938157252668720 -0.2646663859988526 0.8735912033374642 0.4218360968743952 -0.2155695009785881 1.806454559609728 -2.950620041004134 -0.1718049826618460 1.459811250090754 1.141549210176600 0.2104935498219754 
0.5423261837488212 0.6202376331177155 -0.06823055336047379 0.8153873778286995 -1.559644235280578 1.047193354385702 -1.155823012673849 0.4085990279434374 -0.5928301435406343 -1.492961381424892 0.2199258139766638 0.02048826923272584 2.082609431890787 
-0.3444728596525226 -1.711838872254325 -1.809584202767405 0.3817210207026331 0.6296061519217820 -0.1445466227836811 0.3492196621612510 0.6124574267583524 2.079032786457451 -2.075162836220943 -0.1694085486474652 -0.7221903575206219 -1.351547726019258 
-0.4874356563442552 1.679671715374216 -0.1407136401669892 -1.026695804603419 -1.411919459036175 -1.205451745346342 0.7111829142242699 -0.3240226768163712 -0.6536373611727837 -2.703422865342593 0.3055854962221145 -0.2058171848190022 0.1825267304031047 
-0.1785284160344786 0.3454097846434256 -1.321930313418059 -1.312169726749006 -0.9869221136079367 1.178683438183484 -1.455478175078431 0.4521258007373657 1.473240554146470 0.1535235231256880 -0.7627781870302284 0.2765208665391731 -0.7439373226687683 
1.144911989890113 0.08035141141922195 0.4464336759773521 -0.5667258372384018 0.9831215217006330 -0.3806825120258439 0.4320817974062343 1.051834560540605 0.3159569603830394 -2.364278952973446 -0.2210271815317842 -0.2276831411007999 -0.03171761558153222 
1.076458643783162 1.019689764606851 1.642633622422698 -0.1793994684730448 0.3766805798689755 -0.3825281860768710 0.3089817847831803 0.04462803170692220 1.245219754287998 0.9575528186900617 0.3222192825915752 0.9429174554542047 0.8205652666039528 
0.2731375320961946 -1.847464809928518 -0.7640148208577877 1.237934845851645 1.487462259739244 -0.9345606925373713 0.09885286132063385 -0.3204125660842241 1.235936324318202 -1.127402121167397 -1.845116573856874 -0.2508067565945919 1.649666586517799 
0.7418273362595376 2.063820926911802 -0.6647003575251716 -1.354043955443135 -0.04298412669645085 0.9307495443764588 -0.09280286988862044 1.273568652533631 0.3839361390193964 0.3418083963083925 0.2608697684662312 0.1163822663783611 -0.8335672940510157 
-0.4264362457281770 0.2598969581277324 -0.1824440497542242 -1.514322770128178 1.051194036249646 -1.443574247956275 -0.4303499789671743 -0.1392264430948348 -0.2130034083211396 -0.7263131037174353 0.9108322411904382 -0.6504932563247247 -0.7558929647162761 
-1.134662343006585 0.4540961327212102 0.3191972641966568 0.3117593881572311 -0.8052493507887992 -0.2324857881841107 -1.110566642201565 1.157451975254870 -0.9752841837214474 -2.070638379564788 0.3939537530918283 0.06942822123504949 -0.5177129489007313 
0.5339435308421900 -0.2211197537850993 0.2492768860320641 -0.6756966150165986 0.2436300462994157 1.543084111449944 -2.281725351557542 -0.4172246471758013 0.7556383652971630 2.727510327733715 1.581842606801111 -0.3043831443271063 0.4560154565317141 
-0.2547926654014086 -0.5749406765459623 -0.3356330647972793 0.7766503792983288 -2.144491871399734 1.188112239257385 0.4090096238010185 1.917582197239234 -0.5325573027619264 0.3017545142286832 0.7007235257339612 0.4493798704240680 1.124570850900210 
0.6153961847304718 -0.1266578951196803 -0.8301730163834359 1.205123336155024 0.8410202824950691 0.9603697078415621 -0.1594212138591212 1.223974739188629 0.05214268923371856 3.353255154025116 -0.1720049074176575 -1.025733516417330 -0.5133742294493135 
-0.9294840821565918 0.5898784428616461 -0.6758063131108094 1.335474916126926 -0.1742233159890267 0.3297769186658670 -0.9894599260502167 -0.001022946035266606 -0.03908970909183773 -1.363578827808269 -0.9178074981483941 -0.09350612150451502 -0.6224444629348723 
0.4889866614009497 -0.9384979568533736 -0.08641349072342030 1.342795001435792 0.2258134655345120 0.9452415590773648 1.136507485516421 -1.155206048636487 0.2062147105782217 -0.8357038463421661 -0.7816933698418571 0.9667154103552099 2.121978163964939 
0.2047210784419838 -3.304710359781976 -0.7478345984895138 -0.5494646701981725 2.221917001656566 1.102469516477891 0.2916561092526777 0.9077035691382986 1.173372072935708 0.5278850977153307 -0.6616507186683056 0.1149975325919561 1.000536653145273 
0.09229237326703770 -0.9435416509594367 0.01737379496517970 -0.2878737543143943 0.7079731844388846 0.2578227967058452 -1.066236703520043 0.3092038215450014 0.7967551970640361 0.7463078818651101 -1.532596662920945 -1.250050125612854 0.2029311347570643 
-0.3658249139845157 0.03115181773482867 1.722251826585475 -0.1195646624191080 -0.1080638995832588 0.1424309392180651 -1.045611766875273 -0.5546443650237809 -0.5415196475187912 -1.038758961400219 -0.6867143233296688 -0.2752457313430198 -1.334215907413043 
0.05062489621675129 -0.4737790549957144 -0.7794840785447626 -0.8975662008361451 -1.082441580109608 -0.8879879104143144 1.099911782372754 2.144820372522938 -0.4866717603588315 -1.533785817249826 -1.734175248218155 0.1390659215397145 2.200156634179545 
0.2800531156821300 -0.2069261068829777 0.05413459361741559 -0.5203787305608566 0.7573483281663623 -0.4356758739379198 -0.4372636968472810 0.3015489627482754 -0.3537759995116589 -0.2029250455600912 1.310191393736064 0.8640081736276939 1.390868755120696 
0.08514294644757854 -0.07245538540863650 0.01026913620766595 0.1731487884005670 -0.2210438046838958 1.911555189787573 -0.4802485471711626 -1.731721690549623 -1.507242583533930 -1.789774135024496 0.8142593838808132 -0.4095698310314130 0.2580951945641987 
-0.1110622476302647 -1.759991309822490 -0.08721770793731670 0.2697610045600686 -1.030039567058405 0.4667444118089315 -0.07755888044258392 0.2610261488124855 0.4639550938779483 1.544911761661979 -0.1370177469142294 -0.7384755111669575 -0.7137910944650158 
0.1332706999539622 0.2448529514753905 0.3440817328491260 0.5979640196312496 3.235095041593147 0.8205246217164979 0.3435163556053462 -0.6460387062551642 0.1699309853376154 -1.160513020418195 -1.594508580855464 -0.1316391897332315 0.4048018853045561 
0.04171931392409350 -0.6470981258296649 -0.5628882763117893 1.891264593278547 -0.5677408986418421 0.3563686859412055 1.197292139091356 -0.1648803536970775 -0.1763440803919413 -0.7317041016861312 0.9942937223806840 0.02983721522412222 -0.2057544374595155 
-0.2820307225099260 -1.322492073779695 -1.808693468472121 -1.779454673772735 0.8256708808319397 2.129961851842212 -0.4425981875777766 -1.874851002421880 -0.2013192436425207 0.5705660853081803 0.5508221637429574 -0.1483705405617167 -0.2397697220374079 
0.1553835376718891 -0.3434414513383623 -0.6585043355401103 0.4152708644868620 -1.883218729355596 0.8493172735595600 0.4258727485199462 -0.2474972214741935 0.3770507540339194 2.791634578039232 0.5963488960556980 0.2986573414167443 -1.737280751192494 
-0.4806270263022120 -1.308329071511771 -0.5504286288690805 -0.2338495321740286 -0.1575764150386126 1.596085935381458 -0.7458491670432226 -0.5940892501389546 0.7307726729406689 -3.466510545946141 -0.06457596675017224 0.9421004704699578 -0.06982457133508718 
-0.8504528433954969 1.040741890987803 -0.9130243510307592 0.03643303848688609 0.8836597013465587 -0.1976804166206194 0.7938549587406494 -2.285429013320119 0.4303216927858360 -1.491155525233231 -1.282256132898786 0.2623405748502153 1.074288755928785 
0.6126451884388068 0.8504464772341678 0.6024497342826236 0.2551133876116347 1.291042929187581 -1.833285665627257 -0.1441848108385327 -0.3723910482235383 -0.6283603250403041 -0.1619554900651774 0.4928308326879126 1.421187818728047 0.8502009049683871 
1.854756634858630 1.414733017309023 1.564807784943462 -0.7314298284471339 -1.825304359271761 0.02905137001886455 -0.3112606749634707 0.1414014475896162 -1.023299963324950 -1.523844000817914 3.589046762062846 0.9674550977424318 -0.7853797135645043 
-0.09175655831964120 0.3303292672883474 -0.5494345384979482 -0.3050777593217888 -0.4671108630621904 -0.4373072842017927 0.2960937311269153 0.1832936037707762 0.7449387216494738 -0.2884014997290040 0.3750731243126061 -0.9065238327310449 -0.6655478541607405 
0.05665147266432491 -0.01482039047214935 0.5944249601816347 -1.090612107425893 -0.6529904032457408 0.5566040469371915 -0.03737856365402213 0.6607816873887227 -1.648464328156269 -0.8304436831482579 -1.263331083139215 1.432926359953085 1.134322075345827 
1.070994617428722 2.046817636715139 -1.848197189627247 0.5335517390729668 -0.4310438860949287 0.07220008942073283 0.9659154233315345 -0.9103825230709037 -0.9804527180822307 1.319346822504714 0.6716289368370711 -0.5634624218608961 0.1140003520604451 
-0.7924610336550608 -0.9079519621037605 0.3146872095525680 -0.5875966705350925 -0.6320326011993396 -1.793752432399497 0.04459345935687877 0.3355298653427022 0.5196372051595899 0.1632230817507777 -0.4072980209849662 -0.1376881699604462 0.1960915409663187 
-0.09979530932485440 -0.03278697418676790 0.5995733710087451 -0.2728577212981517 0.6577411785168896 -0.5392599953729114 0.1169680835303075 -0.9797588562834981 0.4444129831707469 -0.9559454462556387 -2.111276623812397 -1.403164852384885 0.2109091321513600 
-0.7361539432803356 0.9583102308411431 0.4393676871949269 0.09243283911397820 0.3345838403749333 0.08344552097616820 0.1629433999924393 -0.8236870881821938 1.418128881003087 1.630208857421925 -0.5678733692928097 0.4753909088080930 -0.4177079349029956 
0.1640479059201603 0.6597064425608175 -1.265116651752358 0.3517416573155270 -0.3151544167486737 -0.009926452625502402 0.7059972603541241 -0.1464689384544116 -0.8762581710785113 -1.675922637728507 1.982331177049677 0.5470574842927564 -0.3818561371407966 
-0.3419583824743909 0.01904217736518687 0.7263262804450529 0.4847198193995752 0.9311598776923262 0.4556474954145411 -1.211193264825034 0.2634253464595454 0.01304970943763301 0.005667955837163230 -0.6834092263441810 -1.049970831296416 -0.5101303240664354 
0.2151718509756552 1.818694263544139 -1.356864622315251 -0.5575084013143168 0.01079548455782792 -1.058155133716740 -0.3604051201389057 -0.5181742063583024 0.2630710917596593 -0.3214490085282772 0.6188414413103546 0.7316665963089665 -0.4494719757194509 
-0.8414627246684140 0.3585805596877545 -0.6045634490151478 1.992213904744528 2.543312542268965 -1.187614284065279 -1.515167714416114 -0.2541217252565602 0.1382219310710395 -2.575899550177217 0.7540141017424931 -0.06705116463568993 1.414874472751557 
-3.637497675170557 -2.253183024274471 -2.900679717947602 -2.967913169779516 -2.019294866853758 -3.478407364121900 -2.753683908454125 -3.134999614557053 -2.255057281738668 -2.150622730862315 -2.057157830425653 -2.373825757416199 -3.166333436012296 
0.07474744293964108 0.3861150598450625 0.1722947120614631 -0.2012508059453351 -0.3341789892892651 0.02077896835510834 -0.1827905060921241 -0.06536281641768155 -0.3404275611953481 0.4030476743600835 -1.148586366939196 -0.09924290936534633 -0.5648245504560490 
0.1649094388928648 -0.6907565248256193 0.06777076471449239 0.04697842861904007 -0.5578243807682687 0.2931940742507103 0.1338480682517538 0.09929664371591013 0.1373792488918540 0.4212874463336473 -0.9305264149776575 0.8951949062269332 0.4458962200183445 
0.3601578364162751 -0.3773194812187105 -0.4540127617216342 -0.1182570477826135 0.3862832913398799 -0.003283259149665808 0.5937181947491914 -0.4592133323971162 0.6263306903969359 0.2607434534573682 -0.3586034120460827 0.1646049464172296 0.1542372226624369 
-0.1544043781420506 -1.170161679339305 -0.8161495997838928 -0.1245560139686276 1.906851033257744 0.4895959602425787 -0.02910374959289242 -0.8435785322632955 0.05990859592193006 -0.08251760809559580 -0.02537958252620624 0.07448498928718612 0.3858509237693728 
-0.5354553754805191 -0.2716313131944680 -0.1619155188282038 -0.2907920241969779 0.1767878308611302 0.4038077732823242 0.1727169884642824 0.2779382098893909 -0.2952510986274970 0.2108088909442561 -0.3691297320630954 -0.1258899932092956 0.2205344027484715 
0.09648279426087905 0.02028777145167157 -0.2394897365193530 -0.1521132110198026 -0.9346785409765614 0.08376190399230254 0.05972059873492602 0.2261723461054047 -1.027183022896091 1.175063973262539 0.5754698242890457 0.3822771933794268 0.2169749549719219 
0.1884520329030409 -0.1070333906572426 0.8075714556181613 -0.3737363138949726 0.7788375241611468 -0.4606182053679378 0.1768574541539951 -1.324120419548575 1.196257516797099 -0.5823732527800860 -0.4811279708061924 -0.3144360348548715 -0.07723414763114658 
-0.05059277060671084 0.2431232458192377 0.6713985076792874 0.1670829163498577 -0.2363585934452960 -0.3069563412066262 -0.4723050338942519 -0.1197227582206244 0.01822408488443487 -0.05914162785628065 -0.5783041748713539 -0.08740209921847510 -0.1770494375152701 
-0.1309348371016389 -0.5915526652884139 0.7641342853157234 -0.2972139284015001 2.281178126443204 0.2101465214873789 -0.3196043329915649 0.02851101653878516 -0.3216126928395243 -1.176385155877441 0.4448682383999201 -0.5619860800001802 0.05085843900117609 
-0.3021607552337728 0.2919081855183993 0.003035112132445686 -0.6033855391944937 0.3859496666792517 0.01687073836146767 -0.2660596863987951 0.2695536409090120 0.1916413248222180 -0.1502450231044722 -0.6584127192678779 0.6510379275021969 0.2178458234956577 
0.4594622881647874 0.1719613195101818 -0.8629641539779334 0.2393676278185438 0.4343398188282952 0.1608605890974716 0.05763962542804738 -0.7062874108448299 0.4901361861849417 -0.5061235640610663 -0.1991350692111813 -0.1335040919365573 0.1106224727723925 
-0.3198752037292319 0.2614377690267193 0.3631737808482187 0.1640670951000514 1.261886498841583 -0.2672381281982290 -0.5062684273447660 0.4232341674255026 -0.4226449705920590 -0.4497485681657508 -0.4050334120632076 -0.4778529072900931 -0.2941986106802106 
-0.3672370883052695 0.4143152937144841 0.8484476415101789 0.4294332974710575 0.8039368728136058 0.3931171855962434 -0.06152800392153730 -0.2530213503117085 0.5598432925247705 -1.074828610133805 -0.1956819278639971 -0.2820826273881494 -0.02713866907249981 
0.5535530774425792 0.5620058965906528 -0.5385118218476798 0.008400446829294392 -0.8159724777817825 -0.3392093803511287 0.06864267757320841 -1.160787486024050 0.9290566742496332 0.3167570438721599 -0.7567462690472363 0.8300876999085149 0.2697321136258005 
0.3431311315787545 -0.5886079810116315 -0.1846126210730673 0.05551987300869004 0.5984948748446538 -0.6778119706207704 0.006842179849862231 0.9176613334164585 0.1119096640639094 -0.5431220339836260 0.2497957323686016 0.1301319809912631 -0.2269505688001743 
-0.02796135420201770 0.1034200495023417 -0.09675794572841075 -0.08190290988506406 0.9655216874663302 0.2277791841578553 0.05567989646400018 0.6606904752358356 -0.1486899300110838 0.7237116258471060 -0.4587139967733830 0.05727733829988056 0.2694237251163005 
-0.1795957237697888 -0.7042325821690344 0.1020847965605720 0.2682945188010606 1.748992238220243 0.5306220098646711 0.5654534650221099 -0.1467212524545770 -1.446345266083223 -0.6136224282040543 -0.2714723689600473 0.1284455145903002 0.03578456718445930 
0.002161996859494472 0.4309023130517817 -0.4429459330267476 0.02751600238899743 0.4195837760775691 0.3237409904900281 -0.01490940143532130 1.072920153509120 0.5178287379626662 -0.4552117247261202 -0.1021394735327105 -0.1830862798162362 0.5339178483078644 
0.6898632484143261 -0.5371664449620648 0.1867589013595646 0.2475775916243760 0.4903636463507996 0.2719547503934402 -0.4486995292981471 -0.3814544302636368 -0.1119126846671301 -1.066302738216760 0.1764536168484971 0.07812700963251983 0.4747266898376922 
-0.2353529307112239 -0.1874838560567800 -0.6867343436129012 -0.2591881246427647 -0.4366206399862838 0.6615142501952764 -0.01485093888101407 -0.2965642745736581 -0.3854324637884696 0.1344598835886854 0.8947799537459526 0.5317129462275145 0.1668118991018379 
-0.6244659295299587 0.3096747096720068 -0.3786997403777085 -0.3567644750131929 0.3344042161708942 -0.3620104558750538 0.1299427117464942 0.2753845777461504 -0.7481625559575799 0.1009244191355211 0.3879237394559730 0.3937128487347004 -0.1158810949357293 
0.1171622373337359 -0.4034160529541427 0.5410572225579848 0.5158201095514460 0.2619444053210832 -0.3291647808792432 0.6782123794621512 0.7083946929146548 -0.3626259738192766 0.9589841330339757 0.2238817082441681 -0.3727412826794898 0.1758321085397757 
-0.1896687606195725 0.7788588879220609 0.4270073208797089 -0.01094913199153001 -0.5963168257890742 0.2895276640021458 -0.2298832552317504 -0.1124027736376806 0.07262077940706214 0.5681621154191153 -0.4182448521157104 0.05284987984874924 0.2955644873229205 
-0.02182746352985178 0.4361003125701380 0.2573708850040840 0.07156972611530585 1.362562533749653 -0.1615518678422369 0.5549806784810440 -0.2567782390838913 -0.7682684206654943 -0.09181893897066033 0.03499541249702322 0.4344691392272311 0.3412062474670471 
0.3107213116677043 -0.5952398169136834 -0.6037612761534871 -0.1287386087164072 -0.1889254194074340 0.5189219754725423 -0.1092185847503738 -0.05136011934807522 -0.01038228164688244 0.1952848887616981 0.7125627625036951 -0.2074929549153081 -0.05543832134145592 
0.001627896244401332 0.4631129714069421 -0.3251750169938086 -0.1170819409091944 0.6528167670022683 0.3789492896459870 -0.1101813765956323 -1.093289627054693 -0.1995553479823193 -0.01344496501643250 -0.2738435815590149 0.4750990043295420 -0.05509398199691593 
0.007527383677006810 0.8737325575264645 0.4254662286668772 -0.1030950745074550 -0.8166726177914065 0.1395601686217943 0.05795882452561812 0.08178265236683072 0.01149929217027930 0.8584571807743722 -0.8279532771337240 -0.2327440340930351 0.2235009605195547 
-0.3834114637784064 -0.2421625519919120 -0.009708486976693478 -0.07691585422359791 0.9048781661643567 -0.4138902563938137 -0.09994149565708038 -0.4972168848170472 -1.135319446334258 0.4468722571574220 -0.1533661090616401 -0.2641218527768535 -0.03715621071574073 
0.5556617674344640 0.1003275585019877 0.1501824330981969 0.3086696607854564 -1.189112848566946 0.1767089424599329 0.2789266538992704 0.2293545503392933 0.9427623099516186 -1.509111337331402 -1.436159631693994 0.1477314322673641 -0.01018411785495776 
0.1754210102341925 -0.06896017594985951 -1.482742377143338 -0.3444668586123877 -0.5349658715233038 -0.06296421220001883 -0.3591666030536771 1.260702934195540 0.4497118156173993 1.033984727515845 -0.5896889576227671 0.3502207300204882 -0.1204980021092726 
-0.06248879742156455 0.3578921485087900 0.3704632602658089 -0.4318638195068105 -0.5614219827872907 -0.3808218092530060 -0.2576208524441950 -0.3323695376057956 -0.08038010474649289 1.202737823676042 -0.01658418556036161 0.02819072638614449 0.4286439348117780 
0.2006046598619889 0.1155751335081650 0.3225990381854089 0.1449295061142245 0.6484195647709827 0.03333028181096898 0.4601186627921158 0.4282227937764335 -0.9091558741758108 0.2526835534369227 -0.6848187434393971 0.3752500598380001 0.6041639385889427 
-0.1962774580742361 0.3607654872455600 -0.1537089435029619 -0.5032311492618826 0.1493414224063893 -0.1856658578260844 -0.1867075589336309 -0.3168117035619978 0.1129936677878135 -0.5975767234432646 -0.8475474470170593 0.3462060220115739 0.3371794677396813 
0.6681880731106307 -0.01284014359172776 0.4374816739736628 0.1083904774636557 -1.224962540741746 0.3204406644308970 0.4901365235482161 -0.6692518239025556 -0.01204055996159443 0.3594958918279670 -0.06574898090127952 0.8324867098574378 0.5108547835766550 
0.6434486525585587 -0.1893984755741059 0.2415683709743010 0.3637940736272980 0.1046679213637246 -0.03509824165806296 0.4438748628014180 0.4675220384182157 -0.6863467126455487 0.4064051597792288 1.221537997570081 -0.2043806779786081 0.2907505357585846 
-0.2807112782300841 0.1769102949456169 -0.3192764849156787 -0.5053548640842158 1.061490763509438 0.06820192875642153 0.1466778397376716 -0.6180870454990475 -0.008141633207750423 -0.7545427181851795 -0.6463791848059870 -0.4277251968384406 -0.2263628001975125 
-0.5058113066534271 0.05513304838874517 -0.3768329212414763 0.2452184865791089 0.3780994017498064 -0.5080044997535077 0.1875583265523600 0.6230174732661695 -0.6868952150069565 -0.3816852181879463 -1.283208657101392 -0.07757707661652720 -0.3320268990232600 
0.08288516380294567 0.2358924030027617 -0.5738562319392512 0.05779013826503292 0.2874678309551928 -0.6407253225619672 -0.2911212987103610 -0.7351482414380988 0.1592185988282914 1.170239131909799 0.6564683449607247 0.1517255103162589 -0.08918256328995636 
0.5456316863196501 -0.5380804190151699 -0.1830856462897837 0.03639781957370348 0.2527921986708072 0.7343221855492758 0.06075649191173131 0.6413290446829277 0.6800483802761633 0.3759377211473836 0.7067489628209304 0.1729622825594599 0.01610378061428284 
-0.3014581144740576 -0.4262018970268857 0.3999558824402426 0.06517755507499022 -0.04914117612337028 -0.08600628790079531 0.2719237327406506 1.427289887436969 0.1739023980475275 0.8056773260031865 0.1349035001106844 -0.3480647117148197 -0.1097794923950629 
0.09439396990253457 0.1231140624412602 -1.331470891244015 -0.05398623942504525 0.3448114669494987 0.09326806991158783 0.1076633175404403 -0.1469425948850424 0.9632471488695218 -0.5174853465320048 0.4485628916244066 -0.4726712012132008 0.09083292438610635 
0.1106156758703694 -0.2401034597162759 0.5810347634705006 0.1181687070571321 -0.2900589482239079 0.2116294110880803 0.6454228784298588 0.5978742081303318 -0.6380271216756128 -1.383064367623701 0.8133057596875631 -0.1540031812919193 0.1875088574768891 
0.2240469459758386 0.2645744833123741 0.6828405035175799 -0.05059031119584080 -0.3757306054482565 -0.3076882821132277 0.3491287510454927 0.5075184268107582 0.2967721641545775 0.1125115278998612 -0.6872453818509443 -0.1318787917497920 0.08771928470225382 
0.7439491557515637 -0.2098635720270016 -0.7810961397645894 -0.1659113614349763 -0.04025726299321936 0.08967783813315508 0.3399428117334354 0.4158801922742738 0.8280220873291019 -0.08353758505718696 1.558111452979983 -0.03882104457012216 0.2221991110414644 
0.2731435830016366 -0.3694909574357523 -0.1384923762073607 0.03653211980630722 -1.491097578791096 -0.1232682406376727 -0.1423979223650205 0.1330802063550712 1.549648273814277 0.5403347972234518 0.1292417150732975 0.1348716179657295 0.05981147596857273 
-0.03762592151721160 -0.1258396429711195 0.8376563608950496 0.02808669030030442 -1.679040311888207 0.5026742248175071 -0.04056241889433082 -0.7140620783530848 1.373464754480299 -0.2936381203268150 -1.123958134159995 -0.006837641899441183 -0.2331547388478013 
-0.1524723328404068 0.2076473437722434 -0.03918379062531856 0.1376778303809846 0.6176129293901866 -0.3663841612944117 -0.3449093822341517 0.6365558877984308 -0.4951229381388463 -0.5692109994979213 -0.9763666791378413 -0.1623617495320360 -0.1513943902406603 
0.01136513054513895 -0.9133535546918808 0.1852841126010170 -0.6098225628976908 2.031327857583277 -0.2831609436119998 -0.1136823506808694 -0.6267547494452258 0.2668433415663705 -0.8705373758094221 -1.546000187056585 -0.2835453477896404 0.01808971952577786 
-0.5766743019951119 0.2715818708697975 -0.4873554756413355 -0.07976006260619217 1.537353590938929 0.0006615726217253370 -0.3212169742126922 -0.4207809155628744 -0.2094928644465628 -1.679659964648987 -0.6371258388249824 -0.1847644228982450 -0.2146553771594624 
-0.2693122330876360 0.2837455052173638 -1.058287163837948 -0.6887671174642392 0.9166292051346475 0.1064456229373919 0.1202248623017930 -0.1945033718887724 -1.446292851771614 0.1832205350928176 -0.1963939856032286 0.05601198161599231 0.1959772934306728 
0.2046289094665890 -0.7107381523751907 -0.3054054832687027 -0.4280351304371037 -1.206307054882966 -0.1032528265810016 0.2847978754361882 0.01192571764338282 0.02313950425075530 0.6812005106055141 -0.2583154825132302 -0.2229404109674723 -0.2836721014518802 
0.6888495870543131 0.4668303508413623 -0.4318842147314880 -0.0002958406482588272 -0.9183061063051199 0.1968706513645246 -0.2413463180179985 -0.1258404028505023 0.1019703199521649 0.09219335832843459 0.02381948718332852 -0.004129929293393236 0.02137906895565280 
-0.1550291948961735 0.3296157131681665 -0.3341183905661795 0.1870726938600435 0.06259887815586532 -0.4613451878570012 -0.4285003575542150 -0.9875879646635053 -0.5425800240961839 -0.6002352463559360 0.3510372359096147 0.01949516456542120 -0.5629490010735082 
-0.5582057804271592 -0.1319706367891006 0.5284343160090745 0.01216537994475668 0.9493707256523890 -0.3041535833005050 -0.3809214085128763 0.07946586605373586 -1.160901272112384 -1.219826155813636 -0.1734730478543869 -0.2043546835305625 -0.6411130400748220 
-0.3674920520533718 -0.6550106000994114 0.4118707803761349 0.2189023660068618 -0.5283298618716951 0.1530424279267207 -0.4944776614876444 0.5143038000403355 -0.02021372194630409 -0.1284718457500924 0.02767991448517978 0.3232877545009789 -0.1359263170009901 
0.4940924723448334 -1.132567384451446 0.2518860684423152 0.6129228667287847 0.8111317435830283 -0.2232129667576106 -0.2800957154306933 0.8135477060857675 -0.7999722024007077 1.014173243538399 0.4680179530583727 -0.1419039861800057 0.1352586054387654 
0.5487633690891407 0.7494884050695684 -0.2262588065271282 0.2015165148527649 1.117286642715483 -0.1596575024665424 -0.3620028867969962 0.06129426308900327 -0.4471669177720362 0.04348095076731918 -0.7683411920949481 0.4476711340833914 0.4251918054229293 
0.06603103826269646 -0.6960974485479134 0.3143261923002065 -0.3156434866173811 0.6056679013700401 0.3774099602857625 -0.5215306561369115 0.6857047783720666 -0.2746092207319379 0.2080652267316252 -0.2814926352376673 0.07741323180708652 -0.2620328130850327 
-0.2733841516993429 -0.3402333280996240 -0.09204511945914867 0.5487634607617994 0.02232460839084813 -0.2067439381523837 0.3302596303441602 -0.4443764294202821 -0.2810772911147546 1.867720639827313 0.2788510507866009 0.1278221473001108 0.04576558719095303 
-0.2192252971771273 0.4331343866187525 -0.5432212608662587 -0.09867718508684432 0.9371954630141027 0.03882482115823069 -0.3202664731204482 -0.2416627814774054 -1.586084921962358 -0.5079706140530050 0.4109215761301877 0.4355116417404929 -0.0006026873968159527 
-0.04494447528640622 -0.2659166437971893 0.1175036657849853 0.1025889968992235 -0.5934334139236188 -0.2946375760669048 -0.3352648950448647 0.4767286987643605 -0.3595352300781557 -1.104443987044356 -0.03636918446233270 0.4313117560336256 0.05903031275320014 
-0.1165358324426638 -0.8672039058516766 -0.8796391447509746 -0.07439848904072596 0.2360851833984377 -0.07468842516972614 -0.1424943772055055 0.1440048421314400 0.4437738671743663 -0.5209528526665202 -0.2189514246118892 -0.4164761201672009 -0.3209905845009107 
0.1415188617577911 0.8339325041710499 -0.2632280578110955 -0.4632864130080169 -0.3674611264500076 -0.6179377936236753 0.2064975112146307 -0.9166902099023990 -0.2720980831276353 -0.4979005666385161 0.7493231122490314 0.2409014224544619 -0.3077226267310535 
0.4348544166382927 0.1848328767740544 -0.4933524895670786 -0.4010039413702027 0.07633657509991180 0.2778115863680787 -0.2554790314447981 -0.2613841988576390 0.6261303607803034 -1.008405383570569 0.6229030590657110 0.1468959443764056 -0.1722385409466979 
0.7070969698213116 -0.1100194505360298 -0.1455564226970655 -0.1595970313667459 0.7358845750788284 -0.2381435389125260 -0.2766832170374513 -0.08493277056434997 -0.07250868681299835 -0.5716550643182120 -1.005072628754276 0.2328604890473759 0.2071648938873456 
0.1845821101720149 0.3552110920899536 0.07003381259053656 -0.01721060321948208 1.225288773459839 -0.1006501290673432 0.1669698804600994 0.1039449884126562 0.1416157546389297 0.7111863428322178 -0.5890146333055257 0.1630174017183660 0.2732208437426821 
0.1716293978586417 -0.5718128428093131 0.03113629146765483 0.4791854871537943 -0.6187300716134878 -0.01670105678588569 -0.04418593896124448 -0.1347214858688924 1.145697278681861 -0.9239265056041243 0.009549244934439392 0.06345277961440090 -0.01595835089700280 
-0.2327072825451685 0.4304868214242006 -0.9117667540376214 -0.5203023624666371 0.2479465506229235 0.5282504405479673 0.07394878873241945 0.02556612995369776 0.01684768032165375 -0.006566300283047166 0.1743769666592364 -0.2536629161791669 -0.1263789689329060 
-0.03490404861345719 0.3452330107670374 0.1970343423499594 -0.2257810802988376 -0.02283129529103746 -0.2418953491241914 0.1172946652918205 -0.5471725317420134 0.3200642220496053 -0.5311773426196527 0.2416393107031219 -0.2247557688789215 0.09368083536717380 
-0.6638814627885209 -0.3362142220167348 0.001591008625042009 0.1451778930872082 0.6709832577613616 0.1873638310631835 -0.3167992845646405 0.08350621179957726 -0.7983901057454306 -1.531106337692204 1.091708652597578 -0.3977742765386015 -0.1406102694678580 
0.06904300763169519 0.4171750674403019 0.3157544995263828 0.03921754787198958 -0.2337693584549260 0.6097063111114872 -0.4941417718446427 0.4058330221857282 0.3262335946445392 -0.008455253217225858 0.8079621705522101 -0.2478459827067836 0.2320731488921479 
0.5286562713258060 0.02117595159626362 -0.2394254229686777 0.2646029497261476 -0.9499684710432333 0.5255817749220458 0.02550408078969313 0.9420094315868070 -0.03841867661048636 0.2428663584961963 0.3599732132658446 0.6372189819712437 0.4471840257431609 
-0.1038689385965617 0.05912924185424751 0.2755160312683957 0.3615736634798220 0.5285590082536186 0.1902790546692548 0.06588508968258380 0.4041080186572756 -0.07270645274703254 1.040623032884978 -0.1260349991419575 -0.2765756971004732 -0.09970813600933859 
0.02730912612456854 0.1835802738228700 -0.5252647882138994 0.1139415460005488 -0.1166389215646259 0.01145795349269328 -0.4107543298612754 -0.06582146239434276 0.6080671282128229 -0.07091529378193505 -0.6831146048391838 0.03470583162395189 -0.2264090273109352 
0.2084543409338755 -0.6477676818975631 -0.7310614249280469 0.07905129747317946 1.147624465172987 -0.08893285032750894 0.5118736114730912 -1.302734723707607 -0.4393136282599250 0.2276287243735257 0.2086070867427471 0.7692161440634434 0.2477700505704563 
0.3046328886664683 -1.320376348132330 -0.5969797863778269 -0.3526205184300755 1.085171944510055 0.2192214027970371 0.1440851244133169 -0.2325931686681484 0.3379656847918864 -0.2138133346554280 -0.8592734352494633 0.1393546408486116 -0.1015051802523571 
-0.09404672144316133 -0.3037480397774967 -0.1825550781439660 -0.2672778985383450 0.9788036464874679 0.001103949150940205 -0.5658080360966573 -0.08074183910349568 0.6198158467971968 -0.5674914948035019 -0.8002183954163431 -0.7009563756506610 -0.09339166846353152 
0.1544687908030600 0.1865555438047617 1.211160923292334 0.2480766762434617 1.001532150275795 0.2547793586088627 -0.3912628004411222 -0.2228397588832528 -0.4277971617022499 -0.5689484350681598 0.1954252375744079 -0.6965650712254171 -0.3102778163634946 
-0.5396391788910708 0.1695060676364532 -0.4886015812816400 -0.3025136283274045 -0.4321330935861213 -0.7911977983186779 0.2947958832898605 0.7800741177189953 -0.7180708833041628 -0.2512487688431794 0.3933042428773509 0.05562223219002458 0.03437791140208737 
-0.3352584903065843 -0.3862116404798719 -0.5761304227515059 -0.06514013928349570 0.2793214049694900 -0.01591886794323971 -0.07502118763459611 -0.01334580531613632 -0.2442665600234953 0.1535362616725416 0.1393412691232346 0.2247924570220120 0.02619868618279508 
0.2499308534374061 0.3972721612839280 -0.1319080787058811 -0.02978411232598374 1.065598398246965 0.2228783974307552 -0.03079658144002329 -0.9418632606186588 -0.7181573174003102 -0.5577064091702866 -1.620173160078327 0.2357054232089193 0.1061314863066940 
0.1158992302034115 -0.7382512649245560 0.3688873336080979 0.1901147650620897 -1.303069526307129 0.1549682472786512 0.1854267688805808 0.5600456025166012 0.4154316037961003 -0.9031188729435617 0.2503377046282899 -0.06961998309326162 -0.03260140934336171 
-0.1966768730809262 0.3519536145361241 0.3567727766720964 0.2096137521114360 1.231742007218251 0.3581818131918300 0.05287605150036935 -0.1024231617804908 -0.5070011200895399 -0.5965966295079713 -0.6245103090774811 -0.02045188562661612 0.3125211516786058 
0.3443224796640232 -0.5365879427681837 0.4690492961768192 0.8382626956210286 0.3828930895067338 0.1887799652997792 0.1881535963072244 0.2208007649789103 -0.1789099990338510 0.02811795956529964 0.3037404494768642 -0.1455160124483404 -0.02927022560410267 
-0.3247609359126527 -1.276261285342139 -1.190842954239402 -0.7416659271542394 1.322196387693452 0.3653497491821343 -0.4032026045521078 -1.260533101031550 0.5148156204233850 -0.6007886601237337 -0.4829966639871386 0.09699962827557274 -0.3145737270349609 
0.2774157958484906 0.5451523953336599 -0.07121155253395120 0.3165936317093857 -2.001188379841419 0.3537952142363246 0.03605737564272248 0.4515498852465152 0.6100279382559723 0.5891738049329829 -0.07629002461701023 0.07075746474083054 0.1161351463100539 
0.006712494372541514 -1.143735476993937 -0.2823542246800793 -0.2057102614588990 0.5905534934877178 0.4422986205872035 -0.6293791350674249 -0.4766188200024276 1.211631943522533 -0.5005521341084037 -1.530375402537877 0.3084028637597887 -0.04838845718020845 
0.09469203894550164 0.1782237653350001 -0.5984535753504492 -0.05868310395174482 -0.2146738437958464 -0.1390110595386124 0.02157364155030524 -0.9306821492111391 0.6184596399765876 -0.6205218522858980 0.1348833693694539 0.1849578259562132 0.08615022964250710 
0.01976489283057329 0.4790899603490437 -0.01306066319450310 0.05854699166361945 0.6718777155287003 -0.4326923718532274 0.2879470842429003 -0.8634009569165294 -0.3717576109493126 -0.4545479028455713 1.005579660095323 0.01451868707741340 0.2431502206109376 
0.06402306088757641 0.7816224489182172 0.3642987276729807 -0.06874835473271167 -2.461118609516948 0.3027437323293264 -0.2737982188624214 0.1075586101890320 -0.05818605680067965 0.6130836191914779 2.115712888228171 0.09035511112310826 0.1024667134921668 
-0.3960408540234351 -0.1062079934761359 -0.5480797782956391 -0.2545379492217887 -0.2038913654915512 0.1515992401279623 -0.04281653658542538 -0.5493868358550658 0.4463573571469903 0.1460783653748802 0.05765788752476481 -0.004129990924629831 0.1705442514586219 
-0.3398127560726311 0.01627774064403907 0.01184391034863988 -0.4092905601013511 0.4005908145056970 0.1795231704954626 0.2283415975859491 0.09277700493406190 -0.8230611974098827 -0.3556856696353992 -0.04094816729992534 0.07101493988463747 0.1231688353431482 
0.05598426959821222 0.7526761476472896 -0.8690240394130740 -0.03526799610703054 0.04800237961729410 -0.1274064079061943 0.1919759980019417 -0.3183260141868822 -0.1303053269967465 0.1905179581326577 -0.002905613872289405 -0.007813303336717366 0.09342421885845768 
0.3042937758310129 -0.8947436314972885 -0.2502424384134327 -0.002980842830355591 0.6785324826221594 -0.3710152752418686 0.1505499212311056 -0.3788121265777960 0.2927031345504448 -0.1005705403184478 -0.6688247474605896 -0.1743707337438467 -0.2581162230768767 
0.2109171994925857 0.04543844201001410 -0.06195186992788767 0.02587503107666919 0.3885214019100436 -0.2006951082717557 -0.03036019337714637 -0.05307418317262594 1.057124052717177 -0.6114998055291354 -1.490984887682542 -0.3136893644174358 -0.1292107421805093 
0.01753415914595685 0.3779793227492344 -0.4175763940828897 0.01488896713725128 -0.2119235222354720 0.4796710647234231 -0.03439568855720671 -0.03570281469347823 1.119418933711043 -0.3238488119848332 -0.4652097701381024 0.2734098835842672 0.1651224105351367 
0.1687781798794654 0.1888480077959152 -0.4357443113178142 0.2771009443864922 -0.7179429058826664 0.01337094844081328 0.3616253947234792 -0.1947581974031442 -0.6013776666100435 0.5854093791511601 0.6916590555943068 0.1502872556344857 -0.07201713203847704 
-0.2031271540078449 -0.05318599812209149 -0.2309509471602786 -0.02995504231471767 1.086235548108963 0.02976545764643168 -0.3385938792618069 0.04146455609899553 -0.2745506134406596 -0.09790974756016138 0.4704972341207295 -0.4333437155783618 -0.1202706938563643 
-0.4174819832298479 0.5989816861005842 -1.005196310636134 -0.5777028733685172 -0.3192492723272329 0.1201251128007208 -0.3793033514377164 -0.5791766567901053 0.1492267149098061 -0.7919329878948828 0.1319184480617292 0.3283641869775235 0.08798109980526533 
-0.4938754270744279 0.03966556790202024 0.03133411145534808 0.2242823962450250 -0.4534207802043613 -0.5732144073088777 -0.4596115566142415 -0.3928328528305593 -0.4031102025102483 -0.1141416042957350 1.304112167664992 0.06967856862962020 0.1361292639627162 
0.1751222468674971 0.3317310396976557 0.1747114907797917 -0.1252914545996098 -0.8908490304164690 -0.1509537936235992 -0.2972908511852975 -0.2518273941466060 -0.4154235312723851 0.7480055920099489 -0.8350328483830699 -0.2436821147406164 -0.1444807491143314 
0.3173042288335686 -0.1528473752659700 0.3262521268392321 -0.03367910014065813 -0.2170574691237170 0.1238915375441348 0.2709159636381226 -0.4353690999366768 0.03083743026326964 0.5157413546516867 -1.236161087162681 0.5681378745343287 0.2070143752640977 
0.5420096895232901 -0.6403753803328652 0.1450655862662932 -0.04733647521536064 0.5881689590276208 0.1754626533639568 0.2887188419542219 0.02775102506046269 0.02797730739788536 0.9804037978189951 0.3437298887009487 0.09871942080627310 -0.1615430002552100 
-0.09891002912417551 -0.3608988084676646 -0.3043541431419508 0.1042100408389188 1.355217714522133 0.2300314465848455 0.2898956163724341 -0.01179183842217570 -0.3318640222473825 -1.021809016581003 0.3349473522585723 0.05277568187465882 -0.1290880395672232 
-0.4539733123175834 -0.3358831914801642 -0.2854634347724893 0.06513303617707504 -0.6622515504499691 0.2209759753988346 0.8820974477354516 0.2020996233576916 -0.4746418050983520 -1.281161014242402 1.245477685357474 -0.1260932868301163 0.1215849262867146 
-0.2933610017166557 -0.8480181942012825 -0.06667384864531502 -0.2761890128368678 0.1219703694282795 0.3404042503438381 -0.2790711005446308 -0.009135490509318868 0.06628723461205553 0.3780561894124647 0.3431677030954476 0.5316327877452386 0.003232224271177468 
0.4947868596419476 -0.05837817261730194 0.2496354102735460 0.01631855535067757 1.727519348983835 -0.1924700770919038 -0.2799740255781323 -0.1917562457746895 0.4868279664929545 -0.6722995120737888 0.1879397060783399 -0.4636120122558483 0.03422775500500805 
0.3482544077948342 -0.1141085338515655 0.9597608688810172 0.1043239488614778 -0.2912265432216177 -0.03198228065473532 -0.2528338031007584 0.1990214943266428 0.1525634732051525 -0.8279315126268356 -0.7006527625572518 -0.05002193516850704 -0.1357748920246204 
-0.2766449676844802 -0.2144318690569227 0.4145732518884054 0.1022356765661955 0.5738932946596838 0.2543659774289216 0.1841986020916366 0.3037377093690497 -0.1660733661120036 -0.4491405749965803 0.6069186593226674 -0.4115372209457038 0.04444033610080943 
0.4758868618529563 -0.2783851442198520 -0.06405925600343440 -0.1397228195573373 0.1454885940747684 0.1301951800251943 -0.4625902109999867 -0.3221014614903998 -0.3387808003120733 0.6678306268632700 0.03806731179566902 0.3228649572987763 0.3060971761898632 
-0.02736372312919746 -0.1239508544700177 -0.5828012664390811 0.06126458681345458 0.5880054432988228 0.1046730404436086 -0.2481583321685331 0.09501237865270547 0.4248445685882237 -0.4752070980474960 -0.1724353898521880 0.01839770167876816 -0.03185605218883817 
0.2781950674667039 0.2143454825461006 0.3921308949645009 0.1035066006760158 0.7819151501444004 -0.06195097685878452 -0.3735545050346962 -0.1568446563072769 -0.1018989789417129 -0.5795352663058420 -0.5513009407851168 -0.2830118946826234 0.1228177967061208 
-0.008213475069709118 0.3044019718807666 0.3645025425729576 0.1987752490619135 0.2164025546939149 0.3215186506313720 0.06686408510071452 0.3892336072626282 0.2994821726601523 -0.8500111081132563 -0.1280608284932371 -0.2823419990077752 0.09611283085847751 
-0.02917635634650857 0.3140958782256180 -0.3871277111594816 -0.1287581372017993 -0.4345859104543811 -0.4852739061384487 -0.01347406055437925 0.2738623347223875 -0.02115382837928062 0.7427407339071634 -0.6038964063897142 0.4469541164738595 -0.3644168634081212 
0.5001345267339993 -0.3834151174163396 -0.1015007388944812 -0.1688131999072325 -0.4428409383305606 -0.5691375662001950 -0.1653248179720525 0.3495188479532477 -0.1236300022792211 0.06589907779486734 1.488879471636821 0.1064408989442878 -0.04927094631212975 
-0.3654270844385860 0.3504651302672326 -0.3078927046383855 0.1244890972631713 0.4700243792591771 0.08241207371065702 0.02356083363991915 0.5388686883912612 -0.04256950688748631 0.7395714936588240 -0.5014260174690395 -0.2887620330773942 0.1476821617033850 
-0.1003061149403908 -0.6752361258713215 -0.4677470740255966 -0.01804764735299377 0.9097859563486062 0.1139658692259037 0.7413480738812471 -0.3866268724185234 -0.6037015973143781 -1.842685321551953 0.3079309896042538 0.02662469169157264 -0.2035501692365275 
-0.2841809917798183 0.3254339360877580 -0.03192698166997302 0.3024432231012495 0.4685897930008832 0.2365819878820568 0.1166973755217247 0.4460560302287074 0.1946115836598040 -0.5917540788124276 -0.1426760469854689 -0.03739734874461097 0.3040347103932308 
0.3537837091192205 -0.5422971585676042 0.6073809190779107 0.1980590485327944 0.4954324603638862 -0.03276377488722625 -0.06905430791982733 -0.1491729597456310 0.1221993946113855 0.6502546055653230 -1.017497490293228 0.05169269101078493 0.03644471297642137 
0.3366047968741066 -0.3423403966779871 -0.5031132574572456 0.02776356362544458 -0.8697081134201277 0.3352974969060141 0.2325795585996401 0.01544741258589361 -0.1013394435485237 -0.4648791097949174 0.6013764331577223 0.4335756459098749 -0.09455285445822578 
0.04699989453911825 -0.004027425462280840 -0.2236513854960946 -0.06368246536570556 -0.009742055475046730 -0.3876382628788682 -0.08404944849967869 0.1337168778200380 -0.2594395580381335 -0.3884208913694138 0.2529492617272753 0.3288515611459582 0.04855287549983259 
-0.1931291810633135 -0.2148711207882756 0.2867330326078499 0.2099258888134343 0.2067750456409506 -0.1773022173040214 0.8452462476600693 0.6491007365673334 -0.2881834698849137 0.8850328850132746 -0.4111966082900002 -0.4895771686372608 0.1136337767093284 
0.3671893936837438 0.5832863333577117 0.6630379983421925 0.2296187099803949 -0.7448600729401917 0.4484142026872499 -0.3790872070881512 -0.7728263919086914 0.3386833372510697 0.1707026699612111 -0.3610979941902207 0.2422673231035584 0.07542014510610700 
0.1780816816779653 -0.1307451828719581 0.08735811763727518 -0.01856775085965729 0.5049317573521933 -0.1765399768056508 0.7530643672705039 -0.1278083098071633 -0.5190124134581809 1.494960101039666 -1.018081930785554 -0.07323256248847447 0.004912474251650873 
0.5478124384831413 -0.2932143849785049 -0.7466678471271093 0.1492087577187553 -0.2111676406872768 0.3161012099863449 -0.1705029929059600 0.01831301052970258 0.2164972706449717 -0.4341968131298019 0.06899974910692741 -0.4664868218725071 -0.1124181248724844 
-0.09319336143927406 -0.09848303647078027 -0.05372831735370157 0.1807139395849149 0.1105417185235796 0.2819095411304749 0.1091995377077731 -0.7572140143774403 -0.1341475680243165 -0.2368285074384160 0.6921161923296997 0.01258327276457292 -0.1961538058688293 
-0.2708924284827181 0.5416853094998437 -0.03931727176682840 -0.04326242426803909 -0.3193346375511038 0.3340964579916876 0.2369104495044887 0.7069863589875846 0.2389343320529410 -0.1836617821935873 -0.8143953935577961 -0.1528682209993179 0.03760948079473276 
0.03634785983133583 -0.08944733530443415 0.09339825077134800 -0.07715984790883709 1.082524333854431 -0.2478922394863959 -0.3135794248466662 0.1169763212259799 -0.6477271435121588 0.4343830278743625 -0.4684379179018104 -0.08570384179620599 -0.03788744495590782 
0.04880481137476705 0.1286218480702287 0.2191200299143360 -0.06725232824286156 -0.7077479524990896 0.03659802490416596 0.5102259517810119 0.1400786580252308 0.05891262362514897 -1.165297638530371 0.5126039818410640 -0.01194614019075955 -0.2139741077608203 
0.6021878174657120 0.1469930707774290 -0.7286043179635951 -0.05175452666357069 0.5217222810509600 0.07590674762426770 -0.4797963630541827 0.7445660828652978 0.1921881343136756 -0.2370423987091761 -0.8204755613443436 0.4180283586325417 0.1334380474817009 
0.2436355808581076 0.2098050745358444 -0.09986162154043468 -0.1250587430241770 0.1401917041904020 -0.4457590330972955 0.04565346735161845 -0.3536877184601187 -0.4849489689039955 1.082478969996016 -0.008781134131084250 -0.1141497168821262 0.05849695015687721 
-0.4536855246390984 -0.2482295845114875 0.3272852927618388 0.03889320293001463 0.6869020202345983 -0.08134940595693486 0.1009010377173673 0.6605978220836648 0.1069978783926683 0.09153616417854488 -1.168398716569894 0.3729882451734527 -0.02495379159417651 
-0.3138928715996349 0.1734478699450898 0.1125971570000267 -0.2010853345572887 0.1354524188985807 -0.01916080227452734 0.1144470723864298 0.01411283927323868 -0.2320710258039229 -0.6491398009477150 -0.6216352631297166 0.2323099757954927 0.1169152527926211 
0.7428366879765943 -0.1653401384466383 0.1842243579001194 0.1110678137612846 -0.2059841947232888 0.1691592282347635 0.5035799756248216 -0.5961785949364682 -0.04841198138089303 -0.7544609845188437 0.7986871147868183 0.2557585910203835 -0.2202909619865179 
0.04464413572047375 -0.2216294007408126 -0.4714110533200469 0.05059011025420147 0.5401321346222665 0.1533083695082821 0.5998540572530500 -0.1484834432091273 -0.4370855420748760 -0.2162841189385425 0.3745375160234922 -0.4317777781801549 0.06224929004903092 
0.01396955148289044 0.2549144648673465 0.2123089667686688 -0.09023043944772445 0.4031968215239701 -0.2255676981446986 0.1937620620042688 0.4775981702901940 -0.2181059673244892 -1.088163455005952 -0.1346030478408654 -0.2621273144809440 -0.1653518748925154 
-0.1137535858503579 -0.1895429684688705 -0.03316854064281020 0.1505287120611434 0.2309211021259776 -0.6273506544376055 0.09034823823900487 -0.01597596063483233 -0.07261059940660233 -0.1521636840470695 -0.7523468415554070 -0.2229367211148618 -0.02800369362753698 
-0.01197416341618524 0.4200115790435764 -0.2859587673664160 -0.09474784444711354 -0.1911777537668584 -0.6121288809672454 0.08096959716466616 0.2761986949513154 -0.4768982111598457 0.6342520787374701 0.5764795238062584 0.1684143674212402 -0.07247513785458887 
0.08221388789836805 -0.3921165615882586 0.08593099283286418 0.09176615002177480 0.9222792761160615 0.4547700187844574 -0.1274958856033975 0.4681460723520891 0.07317514537354144 -0.08366621852182914 -0.4746751868679795 0.1826923229073807 0.1767583405266133 
-0.2637637387620051 -0.1087334737511047 0.5647261567691207 0.1723274858559658 -0.4747275955645194 0.1863224745777122 -0.4252385978644550 1.373477989051879 0.4021836820702802 0.4341958921973463 -0.009649400104243310 0.1244382167895158 0.1683071613059029 
-0.1562190708968034 0.3866450136279083 -0.3354039912465848 -0.1010240516446448 -0.005855790390117577 -0.1262280624514198 0.1919480863220002 -0.1461644540571195 0.08698939925052357 -1.038035147492343 -0.02828411341549980 -0.2850110620986747 0.1459936164000911 
0.3922732945698069 0.3526691377686354 0.5706301239533379 -0.06205342880160868 -0.6142897600724013 -0.1399283870652964 0.6590702004170252 0.3342882746667319 0.03269333866909850 -0.3363943389574089 0.2590100929747964 0.02086318819490437 0.03290245380521857 
0.3199257044958208 0.2677290233699998 0.5061287912588065 0.02356639804750293 -0.3962960578620156 -0.2844208233169905 0.4204719599731964 0.2808407121452831 0.4413728801713424 0.2596406697662737 -0.4948601148869370 0.06469796668503036 0.03347027924851393 
0.003581885424571519 -0.3851009292776410 -0.6764628819528025 -0.01341042249135678 -0.06365377434110837 -0.3346034766422196 0.7906912072542180 -0.2556363284397349 0.07047178832779374 0.2850787740359296 1.088502577373068 -0.3968345727336298 -0.05198199718641533 
-0.08779701799262216 0.3514704978600259 -0.07246471231841137 -0.03579643421087313 -0.4812636947094467 -0.2262997220730337 -0.1463180928189864 -0.5851656668739462 0.3749817726652580 0.2120633624672753 -0.2708513699257551 0.2563410922457764 0.02014305773066758 
0.03700819261416727 0.05257425865386863 0.4117198483859962 -0.05774692548165365 0.5545606160637674 0.3212080925784846 -0.3278840524316301 0.3804057147000490 0.6431699950753602 -0.3172540675547255 -1.124688041398239 -0.01050357187677309 -0.01032602034981187 
-0.09580864231995954 0.2969739615063394 -0.4296590496088163 -0.09520261229783006 0.08722454286190796 -0.2570593684255880 -0.07628754174176078 0.2653811176010628 0.1894954954322681 -0.04217631494250738 -0.5685681496913392 -0.2967216330359822 -0.02671761754706902 
-0.1435207349827633 -0.7170293361584399 0.08949648064023805 -0.2428489502704204 1.282297489534141 -0.2721931714735528 0.5541428326076973 -0.2268458424569096 -0.3215332614970218 -0.4320357060573867 -1.108331553216405 -0.1806889212533454 -0.04571324419038757 
-0.3816616305017457 0.1958753759215438 -0.2183341827045843 -0.02087105941486617 0.5849974535728933 -0.04983300429008025 0.1992148534572405 -0.5225569068872516 -0.2848633933456284 0.7455672400503575 -0.6303698255930459 -0.07540516334466290 -0.1028858388844916 
-0.1872938729719391 0.02176214362445791 -0.8264337370120215 -0.4587888780627680 0.1779870622442725 0.2335689308794535 0.3436748411832075 -0.2272760005637492 -0.8625332662914584 -0.3678956115556039 -0.3229335064111197 0.1879756103546003 -0.1456629953642751 
0.4133924124455146 -0.2536250232117177 -0.07538605417412124 -0.1037722235652090 -0.7841695332040080 -0.06400324494540230 0.3365549731655710 0.4665271352099432 -0.06288749913111968 -0.07306566562809698 0.02842255692888776 -0.07369242981711939 -0.2958295626870389 
0.1456065601785719 0.5440705327524700 -0.09970824434465879 -0.1146819567728083 -0.3817980857363731 0.2311304299744821 0.1766005930385005 0.6262953066946558 -0.3128225322254734 -0.3868822068822433 -0.03893448104511026 -0.1390919156217802 0.02282095182007615 
-0.1431148892528645 -0.2630701257085709 0.1641240550280346 0.04708711310425590 -0.3017137572686182 0.05114888706072575 -0.9774000734723934 0.4351031614700864 -0.07954069323256686 -0.5284587793952558 0.6037590549846963 0.2768961888483475 -0.2050477275908110 
0.1592318042671956 0.1956172043184974 -0.08024679413560540 -0.1379399577785159 0.1365255529936161 0.1551501262426808 -0.3849280843630933 0.07350515544248895 -0.2483438843512273 -0.8984284780638335 -0.2914717772615501 -0.1347023807291650 -0.09377322205197407 
-0.4484002094707530 -0.6465031811614005 0.2541576953992429 -0.05995140977204792 -0.002043606363213150 0.2447130679275491 -0.4462058849155477 0.3613558789640262 -0.1338526602386198 0.3281746877049125 0.1823639411611884 0.1778652550029985 0.3325795635608254 
0.8838538042245343 -0.4405377199517214 0.03932047527610186 -0.1097027512534967 -0.1485329902062176 0.2058608793556359 -0.1907222593591986 0.03467062487597390 -0.2685081682456397 0.2884853836220858 0.7764221563643463 0.4509132392631557 0.04389316114517813 
0.1600672690710902 0.4952293956549891 -0.1766010462000869 0.02952498395080798 0.9797305062188278 -0.3182553972380615 -0.3155545803656384 -0.2291666453620709 -0.2471516303331387 0.1990528839521448 -0.5470759068239834 -0.001860077610350292 0.06475119134934576 
0.4396668554502068 -0.7134341378860022 -0.1377738180451344 -0.1119663162259703 0.6401962957961196 0.2450920294741388 -0.6959686097950866 -0.1194516057653437 -0.01801550110569022 0.8127626072458782 -0.1812672801206631 0.1243532266157326 0.07527581005599732 
0.7430287328406527 0.005409001506794645 0.5453684894262123 0.1467257528271642 0.3164261834036161 -0.02282982352065262 -0.1034612785135428 -0.2888369120436390 -0.5832219816703170 0.3886964459959968 0.2438037324490552 0.4817306229858141 -0.06134708138857069 
0.01163616552282971 -0.6190342287463046 -0.5753400188179588 -0.1231223448662075 0.2047745977791431 0.07228899387729684 -0.1585678516878711 -0.1081561116693295 -0.6146523480985927 0.3283339508598538 0.4203770540985035 -0.03492543426900915 0.03258110148096437 
0.2913848874187972 -0.09598684200738913 -0.4529025365908039 -0.1020273697468662 -0.1907418272332738 0.1050540155108554 -0.4934108330072559 0.1254057721545004 0.1124184546802077 0.1752770599025961 0.2557681269201450 0.2812404538688487 0.2297602969292299 
-0.3992710736423614 -0.6004855622199201 -0.3837361677694867 -0.04773349327346363 0.3694917119038610 0.1315902444301596 0.3420419704373922 0.2479882947323544 0.2170631311324482 -0.6477051480133276 -0.02511790456635266 0.01879440600736847 -0.1106201372603034 
0.2912163207926021 0.3187008704266701 0.4178577187566189 -0.2397679039680940 -0.3007093889869660 -0.4428042511916503 0.1839084217461343 0.008254068400413914 -0.2831152022305458 -0.6612550377143924 -0.4032262103604205 -0.06446045914630791 -0.3065986787189854 
-0.1241246968288623 0.1418661037223522 -0.6104467648841654 -0.1384141610548642 -0.6605180560857900 0.2537935453639478 -0.6335358548903927 -0.2608153939743097 -0.2198243953574716 0.4746813083800101 1.032095312785953 -0.1600167211956055 0.1790711751160662 
0.6904013171588960 0.2955052506752464 -0.1283399470593135 -0.1386929299820422 0.2087950358558722 0.03911154042112398 0.1677976794036727 -0.7444421386617378 -0.6716675050894129 -0.9002647589516618 0.3427888727629118 0.1513442832700135 0.003302351236036335 
-0.08595085238931530 0.2392483044970114 -0.1031639989577227 0.1896994045210170 1.264910144558360 0.2578239717273020 -0.1261316652216238 -0.08665367795182416 0.1402284115612926 0.7908188346238463 -0.1301255531924007 0.04974664056756418 0.4108340073321500 
0.1543678030474554 -0.6399894488878677 0.3084978163544860 0.01642685521639033 -0.7627122320277588 -0.1676465202069366 0.08455876098730647 0.1849142165682599 0.06035049541628241 0.1351321195808722 0.5620794365742440 0.2890225279088327 -0.08245990730220394 
-0.4404824364458609 0.5013905704858402 -0.6498175868088207 -0.1068778689815745 -0.2680478464636734 0.2236340153925281 -0.01242489475789436 0.5928005837468766 -0.07175128778343406 0.3413277408078854 0.3152673435538679 0.08710066854851449 0.08471990387003239 
-0.4399330554235825 -0.04871539286356120 0.5165467753736305 0.03279856018348755 -0.1120795202787232 -0.2784399733408473 0.04400246258945049 0.1496019505473968 -0.09209779796625733 -0.5475110167764086 0.2010082103873370 -0.6556100784768873 -0.1413264978109751 
-0.01345958504505028 0.04427353867835474 -0.06913533483054890 -0.06094229636903915 0.7092191757852342 0.04181941433636113 -0.2386482742279740 -0.4412349625885348 -0.04821992624024278 -0.9571745419357943 -0.06291243344331000 -0.01832598986932586 -0.2238561698306741 
0.7724871468468295 0.08389789470016959 0.5006043781390155 0.2237480303105519 -0.5946730136542395 0.6511256954971527 -1.020408420345078 0.5472854242145450 0.5121469305861205 0.6287251829685856 1.259014924953390 0.1355406365795394 0.4625937557176360 
-0.2079332286983037 -0.1315061306065779 0.5544014044393475 0.2380625089889485 -1.492888224508776 0.4222650328033472 0.5553497831113516 0.2481915304694516 -0.02954757431342565 0.8322934635706407 0.4610885821585199 0.1816800735149206 0.2617544451634858 
0.5067475069974026 -0.4826201511510236 0.08228681629523962 0.1229006567790467 0.8697793745631089 0.02779835212559286 -0.2185003146819060 0.6019587624182409 -0.09318343987925490 0.4736505682757148 0.09286471025516169 -0.1243256178138880 0.2577118739067946 
0.5238614440735858 0.06491123636146501 0.2237659228698322 0.1420938728094861 -0.02544180314915120 0.2339998847019092 -0.1011197447823539 0.5446986907107203 -0.009005763248781912 0.009809424154551570 -0.4406958616404421 -0.3212768650775110 0.01686685667493101 
-0.2963133986200124 -0.02554940795358894 -0.7512630943427531 -0.01743956392349276 0.6993417509806676 -0.09394151351115690 0.2370598962058037 -0.6239649898328434 -0.01238823397693699 0.03426902722974320 -0.6814695295856292 0.4032990976710869 -0.06079479494337321 
-0.1472575499905967 -0.6576060423251656 -0.2566449599743155 -0.2346843628076377 0.5664270928640613 0.1273958186802073 -0.04242816485373346 -0.3772795885522578 0.1375401561522644 0.6036213902807357 -0.2648728059327208 0.2090693425546741 -0.2562595385654664 
-0.1307060932750779 -0.09703174800920408 0.06420560058983885 -0.1013522133454957 0.3105838832856124 0.2219712678592742 -0.3988972168972814 -0.1488470783690441 0.2390532595733960 0.2155459911845273 0.2367706178370280 -0.1293293760533286 0.02509587832552994 
-0.1439628668529250 -0.1085844551485259 0.5635177639122694 0.03362447535904464 0.02788862687774696 0.2436326197035090 -0.05016129878707872 -0.4476939043540966 -0.5141885789519100 -0.3442771657288110 0.7994919188302758 -0.4872437094591569 0.2852033983791368 
-0.3950825887375478 0.2378671094943416 -0.3751300345575052 -0.3006976589542139 -1.193820601887271 -0.3967688991734610 0.1881748108775189 0.3080317525401809 0.03200985864357687 -0.8925424869036895 -0.5694828794472235 0.3259495958968276 -0.2259116133365003 
0.1181130777709984 0.004853867985534825 -0.1487093129164227 0.04739648194644650 -0.08742819846027508 -0.06451516062693495 -0.2727691481476523 -0.02643583606188768 0.4053339530083177 -1.273897896046140 0.9385658044632452 0.2998046548522614 0.1355537889371464 
-0.001773776940190829 -0.06919876259272773 -0.7540735232708580 -0.3002954647409113 0.2798385026169016 0.2411944549783701 -0.1763630860931991 -0.4321419319007612 -0.4118805015274671 -0.3309995268015547 0.1680918346988255 0.1032926051157369 -0.02243045200365829 
0.1107376087507859 -0.7580748311973428 0.2738178029389401 -0.04175315353917140 0.2233238364564187 0.1619918496671443 -0.005397869220310344 0.9236672174828737 -0.08390941621632382 -0.3304573276074623 0.08775747526339042 0.3003474941767618 -0.2379934619905395 
-0.4995342451709656 0.05759133729952833 -0.03653240630703820 -0.007837828490341701 1.077298888260986 0.2340747685445656 -0.03386033614106269 -0.5895711640996527 -0.1417062968115519 -0.04051411343103326 -1.494789684623175 0.1969778253713705 -0.02228285326620753 
0.4524297707114684 -0.9641104594916866 0.2947537816318625 0.1936243432889865 0.06190657058949582 -0.02472230932838539 0.7544276428124873 0.02290928382460394 -0.1097337381732348 -0.8463609026448414 1.799716786349791 -0.09032186935240340 -0.03259927525333484 
-0.03364419929343919 -0.7312532096814011 -1.129198886822755 -0.2006592336083504 1.319224355443059 -0.1539285513043086 -0.1349936946354766 -1.267768231498938 0.05142164165163312 -0.006550680088608818 -0.4989536595254447 -0.01259522110454406 -0.2213226193784097 
0.1904308902527696 0.3416701418146719 -0.07935837815167453 0.4100598513806746 -1.015792518261382 0.1720728490640320 0.1816823581328524 0.05918837500616119 0.5695356934142044 0.7977279537411925 0.3735552744168600 -0.03550017601588736 0.1567488551917420 
-0.06169338806314910 0.1619344668989861 0.2514386487794145 -0.04221626735718066 0.7975143297353241 0.6806277337761724 -0.2310955168338177 0.1366783193155321 0.5653356058763469 -1.070764709386859 -0.08675521388658114 0.2531687182035813 0.07248870642207622 
-0.1886477994460347 0.02292247196305015 -0.5113751180915668 -0.1200013095911091 0.5260978572197728 -0.1573983157536633 0.3520049799295200 -0.7591624605195250 0.2150218554430878 0.1092315339804616 -0.1606663958142967 -0.2147297925837864 -0.07945146013881780 
0.7305352092267567 -0.01327195354261416 0.3337778002707234 0.02760811737936005 0.8297649083739584 -0.6015144763240108 -0.1777107538327863 0.08902067458963074 -0.02658611905075541 0.6787931893617117 0.1310908887898012 0.1364084606901657 0.09779480235763391 
0.2651962479615617 0.6325789795234762 0.4048911504878604 0.1654095305658629 -1.428912442850563 0.2213733501533542 -0.4211979001099659 0.2149101487817692 0.1619914809429326 0.4735821001484993 0.5850051771350220 0.2160673939792736 -0.05427487032563805 
