solver_type L2R_LR_DUAL
nr_class 2
label 1 0
nr_feature 334
bias 0.000000000000000
w
-0.4955371754747006 
1.030091549941655 
-0.06346797938841482 
-0.1607597956101881 
0.1382533163117645 
0 
-3.012433772180266 
-0.0004148267642171232 
0.04442125095412672 
-2.390382414868343 
-0.04805544387882087 
0.02929764592558841 
-3.123802212271569 
-1.089221335451444 
-0.6095383442705423 
0.9489808099222421 
0 
0 
1.454406557643728 
0.9487493489913422 
-0.05815973691046728 
2.446165401831224 
-2.552547077618258 
-0.03443977256863708 
3.280044170294743 
1.919404092573157 
-2.147549110513142 
-1.630721759744519 
-1.152503021667011 
-1.506873851508940 
0.6464159512546843 
-0.7764669552653234 
0.5338785907201409 
-2.097422205280791 
-1.401527973307309 
-1.046687892863687 
0.5525931857243694 
-3.146041230260395 
0.5815151122088292 
0 
1.069747865828597 
-0.7118842407087929 
-1.707029324196943 
-0.01637300489415792 
-0.6894148427779279 
-1.368201372554961 
-0.2721937138580660 
-0.006682559854406363 
-1.904277956814179 
-1.491814808225324 
-0.4383123223876040 
2.862126476010071 
-1.176850406821940 
-0.3231295021186261 
0.1874379836357111 
0 
-2.312926890748857 
-1.443202053327848 
-0.6580981455229150 
0 
-0.6120477674766722 
-1.178986820561643 
-0.8997775457343243 
0.06365049558594782 
-1.456095504680809 
-0.2788314341410012 
0.7674944863876390 
-0.002273270572580466 
-0.3160110507922471 
0.4492051036979047 
0.02703767272108543 
0.5922858513679795 
-0.1363740719571502 
0.4443181262569572 
-1.057109024813443 
-0.04036929054120937 
-0.5626327089905856 
-0.1867560521269251 
0.1906520152926214 
0.09464907056661542 
-0.7934373065947151 
-0.3156383700416124 
0.3511231435960797 
-0.5822598894146988 
0.2379976432738003 
0.6008959611147501 
0.5733809379495255 
0.03664227869008811 
-0.2912140732999167 
0.4642038991781874 
1.588527805863964 
-0.7412467937688303 
0.7731915935537664 
-0.03706882955159568 
0.7176918386651088 
-0.6935875165325199 
-0.9402537277735960 
-1.767446198018231 
1.477613960092455 
-0.4279654655009736 
0.8265307578575535 
-0.1481391427974070 
0.8057576957762588 
1.062485196724633 
-0.08461960357216460 
-0.6900823096712086 
-2.503917062726405 
0.8980548354362521 
0.7215691540202523 
1.989141970609568 
0.9321411822394597 
-1.136597809686015 
0.3726150576956596 
-1.929362547394432 
-0.1276234824571508 
-0.1003450571588260 
2.314267797238403 
0.2074899298734822 
0.4231430436974049 
0.02723742498679466 
-0.4051564234221615 
-0.9812877552858486 
0.9086099363043376 
0.4017921695805244 
-0.3107193709432820 
-0.8520521255110600 
-0.3729295645791553 
-1.101217787183986 
-0.2545747272915176 
0.9328529216505363 
0.1371669314677312 
-0.2552575783573285 
-0.8609869955278799 
-0.8311296479589112 
-0.3440060967857492 
0.5958567059376256 
0.8595640304439611 
-0.7611582426183651 
-0.3722593247117212 
-0.2866915890361718 
-1.368019180538713 
-1.481787627212815 
0.3386913578336609 
0.05765176090460340 
-0.2009160087507102 
0.8239542515075812 
-0.3026840861866594 
-0.1706022821744487 
-0.01997399516838979 
-0.4483172073892254 
-0.5354682483250756 
0.8336941323667488 
0.4551175728011258 
-0.8025871247386942 
0.6356103608584700 
0.2921097357189154 
-0.2428362050295624 
0.1850246991919903 
-1.415980266179878 
0.1972370132705925 
-0.2732680941774444 
-0.1556092325605698 
1.118708664590027 
-0.2553050383729218 
0.6089577378929280 
-0.4859523190930968 
-1.850406284687310 
1.034640054314872 
1.658490851411965 
0.04540484314557365 
-0.03066996452807463 
0.09683540546043481 
0 
0.3209779532567533 
-0.03988727542270400 
0.4399461476271951 
1.226432676758141 
-0.01340598533410002 
-2.439377982461860 
-0.9263307907948622 
1.541176903267624 
-1.424654995351082 
2.150318458673210 
-0.0004417813814284555 
-0.002013180633217177 
0.1594907704930071 
1.513890707068543 
-0.06234386852775401 
1.801944719860099 
0.2320443145788166 
-1.464530412702254 
1.493545572852449 
-0.6130640381109194 
-1.008674627857519 
-0.4158274480685801 
0.8909826059177013 
-0.6600439835260254 
1.753345689372371 
-1.167613202353291 
-0.4270288730274222 
-0.7394666667741877 
-1.082639714449810 
-0.7785716660930690 
0.5098442613143696 
-0.2714788799272315 
0.6505619851977171 
-0.04049862396489951 
-0.3405396082423471 
0.4721409042136554 
-0.7284661618730056 
-0.3461472753097851 
-0.3349355540573716 
0.03182680352713019 
-0.2478879798937841 
-0.8141863324946308 
-0.4222656816774369 
-0.4833346029920302 
-0.5346357013983501 
-0.1484152999468291 
-1.463719664996932 
0.4396995762954402 
1.544808483973579 
0 
-1.009061485222744 
-1.405811808225109 
-1.160495614691511 
-0.001473044385090355 
0.9039770685339731 
-0.7008324480117356 
0.4260054106936442 
-0.06662426246370343 
0.4196313421095228 
-0.8588451062597322 
-0.2384285523146154 
-0.3914828674979786 
-0.1585940351078260 
0.1213024871184036 
-0.2390083734795334 
0.9099316784222219 
-0.04438308647914828 
-0.8720670472454695 
-0.1378849503011524 
-1.245983499173906 
0.09670645242135026 
-0.3455337374811538 
-0.01700810110182812 
0.4768607053481668 
-0.9017189531377800 
0.06304161981023067 
-0.5158422832857558 
0.06020638388746694 
0.1104337351976747 
0.8449902878192753 
0.5441992235598060 
0.5104936358152786 
0.04298018551954053 
1.325952712397892 
0.3987086746763918 
0.6001106459984679 
0.8607933402073414 
-0.07404234104074127 
-0.3169052851998804 
0.2999093597085985 
-0.3145492228366800 
-1.691298913908996 
-0.7707328488157316 
0.1812562716011522 
0.02584452833511116 
-0.2349464142175595 
1.636910559361929 
-0.8474983616531306 
-1.022152966561493 
-0.1458414770336009 
-0.1877209160666820 
1.051371793840418 
1.339715277728288 
0.008278699860238789 
-0.3059608323482705 
0.1617447899990667 
0.3147059569980925 
-0.5642043848970882 
-0.1434608043696106 
0.3896273950951426 
0.3996906115468871 
-0.7553412042552428 
-0.8151592948595494 
-0.9692160583759223 
-1.018179409581044 
0.2211991721316690 
0.4427634605433491 
1.256304034527593 
-0.2769314169608294 
-1.493236527221916 
0.2923567648652408 
0.01270515653643572 
0.03856333896273503 
-0.4554091815861012 
0.1223704906820644 
0.02992667782294101 
-0.4203146561109860 
-0.8363154931742974 
0.7593018395566049 
-0.1086378702267510 
0.8031950803143970 
-0.3148258573895000 
0.1790754167523182 
0.05369805252066050 
-0.2615256998366692 
-0.2702420488040710 
0.6140171375375273 
-1.226634964499959 
0.6956364660031774 
-0.06680861408060662 
-1.334366381049898 
-0.2619248202519995 
0.4492776100058727 
-0.5236406557383003 
-0.6509450442196520 
1.071200912600492 
0.6080630915271500 
0.5372697520885764 
0.1745948021056900 
-0.02940637913059143 
0.7850726909972606 
-0.3214518279825794 
-1.848270019105096 
0.9093671234231933 
-0.2428752618139685 
-0.4743608843592123 
0.3796470560963309 
-0.6107343006691603 
0.8460684720909281 
-0.2171531204554493 
-1.079292238164298 
-0.6175621681802214 
